kernel;bias;d0_w00;d0_w01;d0_w02;d0_w10;d0_w11;d0_w12;d0_w20;d0_w21;d0_w22;d1_w00;d1_w01;d1_w02;d1_w10;d1_w11;d1_w12;d1_w20;d1_w21;d1_w22;d2_w00;d2_w01;d2_w02;d2_w10;d2_w11;d2_w12;d2_w20;d2_w21;d2_w22;d3_w00;d3_w01;d3_w02;d3_w10;d3_w11;d3_w12;d3_w20;d3_w21;d3_w22;d4_w00;d4_w01;d4_w02;d4_w10;d4_w11;d4_w12;d4_w20;d4_w21;d4_w22;d5_w00;d5_w01;d5_w02;d5_w10;d5_w11;d5_w12;d5_w20;d5_w21;d5_w22;d6_w00;d6_w01;d6_w02;d6_w10;d6_w11;d6_w12;d6_w20;d6_w21;d6_w22;d7_w00;d7_w01;d7_w02;d7_w10;d7_w11;d7_w12;d7_w20;d7_w21;d7_w22;d8_w00;d8_w01;d8_w02;d8_w10;d8_w11;d8_w12;d8_w20;d8_w21;d8_w22;d9_w00;d9_w01;d9_w02;d9_w10;d9_w11;d9_w12;d9_w20;d9_w21;d9_w22;d10_w00;d10_w01;d10_w02;d10_w10;d10_w11;d10_w12;d10_w20;d10_w21;d10_w22;d11_w00;d11_w01;d11_w02;d11_w10;d11_w11;d11_w12;d11_w20;d11_w21;d11_w22;d12_w00;d12_w01;d12_w02;d12_w10;d12_w11;d12_w12;d12_w20;d12_w21;d12_w22;d13_w00;d13_w01;d13_w02;d13_w10;d13_w11;d13_w12;d13_w20;d13_w21;d13_w22;d14_w00;d14_w01;d14_w02;d14_w10;d14_w11;d14_w12;d14_w20;d14_w21;d14_w22;d15_w00;d15_w01;d15_w02;d15_w10;d15_w11;d15_w12;d15_w20;d15_w21;d15_w22;d16_w00;d16_w01;d16_w02;d16_w10;d16_w11;d16_w12;d16_w20;d16_w21;d16_w22;d17_w00;d17_w01;d17_w02;d17_w10;d17_w11;d17_w12;d17_w20;d17_w21;d17_w22;d18_w00;d18_w01;d18_w02;d18_w10;d18_w11;d18_w12;d18_w20;d18_w21;d18_w22;d19_w00;d19_w01;d19_w02;d19_w10;d19_w11;d19_w12;d19_w20;d19_w21;d19_w22;d20_w00;d20_w01;d20_w02;d20_w10;d20_w11;d20_w12;d20_w20;d20_w21;d20_w22;d21_w00;d21_w01;d21_w02;d21_w10;d21_w11;d21_w12;d21_w20;d21_w21;d21_w22;d22_w00;d22_w01;d22_w02;d22_w10;d22_w11;d22_w12;d22_w20;d22_w21;d22_w22;d23_w00;d23_w01;d23_w02;d23_w10;d23_w11;d23_w12;d23_w20;d23_w21;d23_w22;d24_w00;d24_w01;d24_w02;d24_w10;d24_w11;d24_w12;d24_w20;d24_w21;d24_w22;d25_w00;d25_w01;d25_w02;d25_w10;d25_w11;d25_w12;d25_w20;d25_w21;d25_w22;d26_w00;d26_w01;d26_w02;d26_w10;d26_w11;d26_w12;d26_w20;d26_w21;d26_w22;d27_w00;d27_w01;d27_w02;d27_w10;d27_w11;d27_w12;d27_w20;d27_w21;d27_w22;d28_w00;d28_w01;d28_w02;d28_w10;d28_w11;d28_w12;d28_w20;d28_w21;d28_w22;d29_w00;d29_w01;d29_w02;d29_w10;d29_w11;d29_w12;d29_w20;d29_w21;d29_w22;d30_w00;d30_w01;d30_w02;d30_w10;d30_w11;d30_w12;d30_w20;d30_w21;d30_w22;d31_w00;d31_w01;d31_w02;d31_w10;d31_w11;d31_w12;d31_w20;d31_w21;d31_w22
0;0.001463399;0.012891317;0.041364577;-0.018384479;-0.043125704;0.10146913;-0.08274824;0.090130635;-0.03070441;0.0287462;-0.01757604;0.027673597;0.024565982;-0.02067516;0.10501235;-0.0030995572;0.07153562;0.0035300977;-0.0033968699;-0.010904194;0.04279017;-0.074140966;0.046166454;-0.05424863;0.098334104;0.09519798;-0.03704358;0.088714726;-0.09020247;0.005974724;0.061236512;-0.056171075;0.032797158;0.07090402;0.03426563;-0.10610497;0.08769408;0.06439967;-0.04479766;0.0059524993;-0.08355618;0.06474454;0.043794718;-0.097241364;0.09007385;-0.084988825;-0.008644051;-0.040172677;-0.09826393;-0.0148817245;0.023857795;0.0685733;0.06643888;-0.0915512;-0.06266893;-0.064468704;-0.01254212;-0.059658103;0.020915788;-0.025769886;-0.050728917;0.05072248;0.012115354;-0.02263342;-0.05550796;-0.092338294;-0.07252093;-0.07600297;0.05859585;0.10780224;-0.08716763;-0.06993471;0.01965086;-0.07307317;-0.058665592;-0.0155085875;0.06368097;0.07664713;-0.027582766;0.03527536;-0.056868132;-0.099039584;0.08992618;-0.07067372;-0.042962354;-0.08402862;-0.07684405;-0.014564755;-0.08449551;-0.0850541;0.03879842;0.034909144;-0.013720131;-0.029666848;0.0756844;0.08521592;-0.0038777383;0.004779515;0.05863481;0.0726519;0.06505579;-0.04451765;-0.104297295;0.11751437;-0.0757176;-0.018587941;0.15380412;-0.031812135;-0.099696964;-0.019641843;0.08184415;0.027366973;-0.049498808;0.030621767;0.08314794;0.09618872;0.0073247957;-0.08694809;0.063740484;0.03272989;0.049854107;-0.09782554;-0.032576453;0.061987076;0.06611134;-0.0048567792;-0.0023571302;-0.1168812;-0.031439666;-0.046739686;0.0074054594;0.10553461;-0.021487622;-0.046661213;0.11659919;0.027689047;-0.090254344;-0.049974583;-0.08416668;0.023938367;-0.042641543;0.06655881;-0.033498645;-0.06665903;0.037976775;0.036831766;0.023278834;-0.07133977;0.03467282;-0.0045329425;-0.009046355;-0.037069444;0.014698086;-0.068472825;-0.040542357;-0.055610836;-0.05764688;-0.018655162;-0.07813311;-0.040962875;-0.058311064;-0.09857615;0.068428226;-0.081660725;-0.06405863;0.09626271;-0.077298924;0.10166084;0.037946213;-0.06764351;0.11317242;0.0064720483;-0.04533605;-0.004060324;-0.06757176;0.08727508;0.11913271;-0.066705465;0.057695404;-0.0065940786;-0.024137339;-0.099727385;-0.01653163;0.038240857;0.048917398;-0.08516622;-0.08426263;0.0049642525;0.060178887;0.08158878;0.028874021;-0.0788101;-0.050148033;-0.07834321;-0.021400543;0.0096608875;-0.03005744;-0.027406642;0.054411303;-0.077539;0.07263482;0.000967861;-0.08887398;0.030710852;-0.03698049;0.0140857585;0.097739786;-0.033005767;0.083532125;0.0021706305;-0.051569246;-0.03968921;0.09229342;0.1182266;0.081150554;-0.09277636;-0.044270586;0.028853782;-0.07335624;-0.13935009;0.112271;0.008651327;-0.09698649;-0.0115140155;0.052894183;-0.08685489;0.055213336;0.046642136;0.014507828;0.0134024015;-0.021545198;-0.037313975;-0.005079427;-0.03076544;-0.009706251;-0.048139174;0.026146058;-0.07325521;-0.05497247;-0.08650393;0.06959175;0.037328064;0.06032704;0.06924666;0.10352167;-0.10565401;0.0056169997;0.055987865;-0.047396276;0.036600914;-0.09469686;-0.01408559;0.0020778188;-0.013913261;-0.012529133;0.008994904;0.092379466;0.1091254;-0.07297059;0.056934405;-0.0032412903;-0.10855531;-0.08088767;-0.045148533;0.035478737;-0.05264331;0.026860708;0.062424995;0.03573468;-0.0070522027;-0.040888064;0.015623234;-0.015104324;-0.041743487;-0.09724252;0.118387334;-0.016287545;-0.02202826;0.03798829;-0.009110211;0.044510864;0.03894724;0.04686279;0.13123342;0.09305015;-0.05484183;0.084573455;-0.011742389;-0.10577295
1;-0.01786778;0.103039324;0.06588476;-0.0671031;-0.063926056;0.09156854;0.08421465;0.020594563;-0.09014651;-0.036440477;0.047271892;0.03262346;0.006410924;-0.085791565;-0.05518542;-0.014324;0.033830892;0.05061678;-0.007927234;0.09587483;0.042511724;-0.025975648;0.0060436977;-0.021377638;-0.008310963;0.06345609;0.025597906;0.09839378;-0.04488526;-0.042908616;-0.10789923;0.05985752;0.007554471;-0.021978283;0.0056633363;-0.0017594869;0.11942162;0.057923324;0.019573664;-0.08011787;0.06741035;-0.010602953;-0.03315816;-0.031915024;-0.07160548;0.0023287113;-0.027491925;0.06711575;-0.09832908;-0.09221191;-0.07825804;-0.07207686;-0.050582565;0.0047404002;0.05208374;-0.013904736;-0.020829732;-0.033146735;-0.0018662969;-0.0695429;-0.06406106;-0.0991061;0.07116305;0.08387847;-0.09663971;-0.061181165;0.080565885;0.08462707;-0.026480835;-0.06275942;0.098994054;0.12216642;-0.041366898;-0.019880624;-0.11833966;-0.016336827;0.03267415;-0.047566283;-0.115403526;0.02013049;0.02480169;-0.06594283;0.053917456;-0.09633666;-0.043892607;-0.07290511;-0.0087353;-0.04765045;-0.0008155213;-0.07649903;0.035674624;-0.042317282;0.083264194;-0.06661662;0.043492984;-0.054218553;-0.0043213475;0.105614915;-0.061707083;0.06625706;0.07101359;0.052736282;-0.0956202;-0.063830584;0.104428366;-0.05347572;0.0073156385;-0.05901837;0.029525688;0.05453022;-0.069739856;-0.05249751;-0.06803358;-0.06694932;0.050493896;-0.044922523;0.035859652;-0.10838439;-0.052852526;0.028185947;-0.07900592;0.05841846;-0.09919352;0.019056592;0.07758544;-0.08322667;-0.03718522;0.05402989;-0.119597085;-0.0026864246;-0.07979673;0.012291522;0.0063801315;-0.011661587;-0.027501471;0.021730777;0.05710898;-0.023997812;0.024283208;-0.11762747;-0.022925446;0.019008271;-0.051305298;-0.092845425;0.034962755;-0.016203376;0.03668197;-0.04395663;-0.087665185;-0.11293541;0.020082053;-0.047891527;0.047715407;0.039083533;0.029450802;-0.02729143;0.019937119;-0.041459274;-0.008072639;-0.036912747;0.14342773;0.03404625;0.022556232;-0.101333655;0.07463371;0.036214992;-0.062317133;-0.016736956;-0.044996586;-0.0029444515;0.070593946;0.04361629;0.08902989;-0.06482992;0.084557794;-0.11465;0.08696648;0.038427565;-0.0931034;-0.10188658;0.041548904;0.009143529;-0.06482002;0.008030643;0.07287788;-0.054399103;0.07218607;0.0019975242;0.09547041;-0.07555043;0.010639186;0.04484468;0.04475015;0.07907908;0.017435743;0.040889774;-0.062077206;-0.1023545;-0.085248254;0.0044585597;0.025376165;-0.020702718;-0.086433634;-0.02886508;0.07171386;0.089831546;0.07615938;0.08578104;-0.008134467;-0.09244913;-0.010218743;-0.05998223;0.0066166124;0.02713039;0.11088479;-0.040014595;-0.05696883;0.04134205;-0.0037883199;0.021453472;0.056407887;-0.08494652;-0.106073745;-0.0946628;-0.07893672;0.046695314;0.09354176;0.09060078;0.07415685;0.077099286;0.06538065;0.045179773;-0.08495104;0.05631258;-0.058246154;-0.079286344;-0.05244737;0.06874898;0.08340449;-0.00844131;0.042080972;0.08237725;0.05434065;0.09777655;-0.07169486;-0.096313946;-0.014139067;0.03930081;0.07251989;0.030168105;-0.013887346;-0.10844559;0.035755027;-0.055820502;0.10675284;-0.061702378;-0.09022451;0.054387785;-0.08057899;-0.089574665;-0.09059121;-0.059687883;-0.039611902;-0.04835586;-0.118233316;-0.0036881615;-0.09070539;0.048234344;0.08449706;0.08933147;0.10444512;0.018198127;-0.051637344;0.011694548;-0.05033043;0.07338445;-0.08418646;-0.059478108;0.042128257;-0.05084694;-0.027006326;-0.0647193;-0.047728278;0.062386665;0.0509188;0.024366317;0.080812894;-0.039208144;0.009407622
2;0.00030061544;0.0009496882;0.056937043;0.019132994;0.07570326;-0.10464364;0.00510194;0.066448964;-0.056397952;-0.08826873;-0.119022496;-0.020889493;-0.025319789;-0.016698817;0.02311295;-0.061011575;0.044217627;-0.062201746;0.12630695;-0.009728208;-0.041312847;-0.07785937;-0.12048404;-0.06636281;0.091664135;-0.12510611;-0.034619678;0.089224756;0.0887806;-0.045707732;0.052144933;-0.006660436;0.057183683;-0.0212345;-0.088316366;-0.020965254;-0.02333159;-0.1017354;0.063679166;0.0215737;0.049244184;0.051142715;0.02557343;0.08459276;-0.07544335;0.018990913;-0.016758936;-0.058865875;0.08581908;-0.02783525;0.11980126;0.09053571;0.10248378;-0.026331615;0.08661496;-0.10788764;-0.01929973;0.092182696;0.0053253034;-0.052589864;-0.022282721;0.042570405;-0.04840199;0.07560471;0.0219265;-0.026866844;0.07490269;0.06567565;-0.0488899;-0.0014697702;-0.056924157;0.06696926;-0.014808343;0.050107654;0.01078864;0.11345812;-0.07041902;0.082345136;0.06619388;0.08575221;-0.041539747;-0.024020674;-0.048219476;0.0661463;0.034033168;-0.045974143;0.06951751;-0.043220937;-0.04647005;0.040459443;-0.11685463;0.069770396;0.057313107;0.02394031;-0.0559538;0.017489212;-0.11188089;0.06199511;-0.024685055;-0.108979106;-0.004173311;-0.04564;-0.051444232;0.009419285;-0.06601588;0.023021722;-0.08693484;0.012753058;0.062086087;-0.025029333;0.09353875;0.054616302;-0.06343908;0.07311573;-0.032250922;0.0044740387;0.081761196;-0.003315302;0.0422947;0.065889075;-0.016531985;0.08750998;0.05420735;0.023244498;0.008263761;-0.107898094;-0.05546507;-0.04143065;-0.01790792;-0.038079232;-0.09368227;0.07756359;-0.07449387;0.015809244;-0.06693246;-0.10667793;-0.06348428;0.043378837;-0.011196438;0.012544894;0.022883398;0.073098436;0.033043914;0.052765604;-0.049814764;0.081927955;-0.012726361;-0.061765894;-0.009027718;-0.00861555;-0.08316018;0.029727804;0.019279668;-0.030175874;0.05598565;-0.012063558;-0.110329635;-0.08390963;-0.008601016;0.08133285;-0.11112547;0.045752894;-0.049454276;-0.08022546;0.028767036;-0.104775116;-0.053764828;-0.08003355;0.019396843;0.039323326;0.030484902;-0.09761542;-0.024886398;0.069286935;0.07800922;-0.122179486;-0.0068917214;0.029901026;-0.08609472;0.0048596845;0.09370405;0.067856215;0.02643054;0.019217124;0.039973933;0.049609438;0.05398979;0.01126662;0.081403986;0.093011655;0.10131298;0.056029633;-0.0063507617;0.0065021683;-0.058438946;0.04206393;-0.050700914;-0.04103578;0.01880609;0.10364338;0.0014470479;-0.07782892;0.03251639;0.09892989;-0.041749842;0.12444411;-0.09144248;-0.002300753;0.056013614;-0.04763492;-0.011422387;-0.084466115;-0.0011147531;-0.06680616;0.04751499;-0.11485265;-0.081037164;-0.071426906;0.064147525;-0.022413045;0.07135691;-0.034175206;-0.011954857;0.0494466;-0.078228354;-0.044849165;0.034777515;0.096055426;0.045165174;-0.07190537;-0.075717345;-0.008959651;0.006737644;-0.036076874;0.09759907;-0.08154184;0.020480523;-0.0034623514;0.05304142;0.0032365476;-0.021520283;0.027077423;-0.03198092;-0.011943796;0.04771967;-0.09471856;-0.058689337;0.03743485;0.019211426;0.08801945;0.07210918;0.028803036;-0.076779075;0.07418303;0.015156256;0.05725102;-0.054281924;-0.045288306;-0.06841921;0.05549169;-0.058739748;0.010214323;-0.13491245;0.046249203;-0.09913591;-0.09000013;-0.0089764865;-0.09747229;-0.00326361;0.0014910239;-0.065734096;-0.06274207;-0.0135665;0.05146768;-0.08168324;-0.07164691;-0.027326157;-0.045895778;0.027670328;-0.06385511;0.08024457;0.07949803;0.110210955;-0.04948253;-0.08584758;0.09617624;-0.078197524;0.058933627;0.0038234412
3;0.0066030193;0.046647187;-0.061590217;0.004518201;0.064390644;0.08446147;-0.008862272;-0.09412355;0.09058822;0.055175588;-0.02943442;0.093912184;-0.06972882;-0.014105972;0.07437089;-0.071082376;0.104169235;0.101128556;0.072745286;0.05067517;0.016357016;0.060100816;-0.08308828;0.028319748;-0.05177331;0.0016794959;-0.07463452;0.0375485;0.037354868;0.014884165;-0.034253396;0.0339918;-0.1149896;0.035045575;-0.013324092;0.0023763897;-0.11917185;-0.052358266;0.00431838;0.04884143;-0.008563319;-0.0028424046;0.039913815;0.086348444;-0.04314969;0.035109416;0.009405765;-0.018342728;-0.08666989;-0.039195936;-0.054886863;-0.043462574;-0.02769585;-0.067161255;0.019544633;-0.0068062544;-0.09179069;0.021599837;-0.07077902;0.030641487;-0.09467322;0.03706926;0.053110868;0.056093972;0.08344806;0.055983953;-0.031675264;-0.022584694;0.08943318;-0.03056177;0.0066517303;-0.08469505;0.004133877;-0.08413361;-0.0112135755;0.07345601;0.09149399;-0.020579498;-0.08457889;0.107143454;0.06279832;0.04776131;-0.026702743;0.039959643;-0.072039075;-0.053059947;0.008605644;0.07962433;-0.032623302;-0.078982525;0.019432528;0.060927615;-0.0975167;0.0487591;0.046281084;-0.069248594;-0.08697863;-0.03486804;0.053975172;-0.032263283;-0.004536319;0.08481399;-0.08300418;-0.090788074;0.027111936;-0.034870874;-0.048020255;-0.013286814;0.09371421;-0.02525004;0.11667396;0.071612;0.023922225;0.08781836;0.009565336;0.008459495;0.06722113;0.09508415;0.014790547;0.053746488;0.0688862;-0.104887776;0.059261817;0.058682602;0.059313785;0.05192194;-0.04053657;-0.036907904;-0.063820235;-0.057458997;-0.107725054;0.085592836;0.07519953;-0.065928526;0.0010281254;0.105449624;-0.04873557;-0.04990202;-0.0050119213;-0.088724144;-0.0025930093;-0.073528156;-0.07969837;0.008767622;-0.034456573;0.03337401;0.07027073;-0.04048756;0.06859361;-0.02634297;-0.11447848;-0.09497489;-0.07183808;-0.1001791;0.0582495;0.024724793;-0.044248726;-0.021197308;-0.08063393;-0.04667091;-0.054902744;0.077966996;-0.009695859;-0.025617374;-0.09980842;0.055687662;-0.0066729183;-0.07828997;-0.10135084;0.075820066;-0.033713624;-0.007584015;-0.008371522;0.058648147;-0.0377265;-0.15365827;-0.047457337;0.092306584;-0.060257725;0.038083553;0.05181633;0.1085163;-0.017694727;0.08087836;-0.05477898;0.083796956;-0.07427287;0.044897698;-0.015058121;0.0037115235;0.052439507;-0.059297197;0.035583768;-0.08142763;-0.011013314;0.073109865;0.11615083;-0.01585421;-0.047862045;0.0012112521;0.0031185928;-0.11087247;0.08494128;-0.084438235;-0.05086572;-0.06358277;0.06654287;0.078998685;-0.07666903;0.0532771;-0.056822665;0.0077063786;0.05712546;0.084898226;0.06998252;-0.049548533;-0.077219345;-0.047054984;-0.03323944;0.096144766;-0.13456614;0.14533406;0.04366338;-0.096343055;0.1289178;0.049507175;-0.053600933;0.01690912;-0.030353488;-0.07153735;0.024983559;0.07784728;-0.066160604;-0.0006505643;-0.048874535;-0.10434717;-0.08334581;0.022528773;0.058810156;-0.10547108;-0.047603928;-0.08606558;-0.051240053;0.024888668;-0.08666825;0.019673683;-0.058607843;-0.017366232;-0.05596835;-0.04083822;0.06328789;0.101687245;-0.087566875;0.06558886;-0.0062755006;0.07664285;0.0096780425;-0.0037849555;-0.007526651;0.05673847;-0.009671508;0.04585901;-0.0066489973;0.07492392;-0.070385866;-0.056524765;0.029937126;0.005230206;0.036187217;-0.04885535;0.07099964;-0.09059382;-0.040467404;0.10369814;-0.061473105;-0.05462355;0.052493367;-0.11608721;0.010055829;0.08915849;-0.08399046;0.0033486583;0.016327674;-0.011645406;-0.059236933;-0.04525396;-0.049409285;0.0039565256;0.011443914
4;0.007558264;0.0354505;0.10284354;0.11167131;0.09446452;0.10544296;-0.046553023;0.017537316;-0.07572779;0.060619164;-0.089272864;-0.005871326;-0.004524839;0.0032932267;-0.073645405;-0.092022136;0.041980647;0.021679994;0.07697096;-0.08672993;-0.0560809;-0.08194048;-0.056965873;0.040938456;-0.036185123;-0.0009094072;-0.05573596;-0.0068477844;0.08074619;0.056332726;-0.012352712;0.0052203834;0.051948342;0.055169255;-0.052084662;0.013752834;0.09423651;-0.018509388;0.032310717;-0.08666272;-0.054149773;0.09338553;0.019128101;-0.035536475;-0.095593914;-0.09352818;-0.03434573;0.02883678;0.06366759;-0.08192838;-0.03288202;0.09759713;-0.07306649;0.017916335;0.12436723;0.124111414;-0.012208567;0.10883322;0.01751826;0.04344063;-0.0825194;-0.083449654;0.039188493;-0.03378821;0.05553105;0.06989703;0.076096065;-0.047594428;0.12265879;-0.045478962;-0.072467364;0.12121057;0.032099046;-0.03531138;0.08460421;0.07565373;0.010732888;0.031691436;-0.025393784;-0.09001222;0.02668145;-0.04111949;-0.040830687;-0.013895362;0.040943693;0.0057996977;0.027686257;-0.023432754;-0.00024146136;0.055179875;-0.024883153;-0.010373846;-0.018014781;-0.06181882;0.04819145;-0.04951973;0.049329944;0.02722306;-0.089251004;-0.016783245;-0.04709298;-0.074851654;0.07551584;-0.028963234;-0.074189216;0.039758883;-0.000597598;0.005750247;-0.06786061;-0.013011736;-0.0022704753;0.073706135;0.06796636;-0.079379946;0.06725821;0.02630503;-0.084816225;0.06052937;0.07055322;-0.098837405;0.02085032;-0.016352657;-0.011995175;0.011507096;0.049070265;0.015419183;-0.07549826;0.07424412;-0.022031413;-0.0913286;0.07567689;-0.08979306;-0.09142874;0.087439;-0.0059132176;0.04947549;0.0022141342;-0.11548895;0.026444102;0.08171398;-0.08976339;0.07658349;0.018779965;0.06197969;-0.044620663;-0.06645243;0.034587413;-0.011564967;-0.05907118;-0.055136822;-0.104891725;0.0631205;-0.07227961;0.05947149;-0.061232917;0.058669765;0.07694495;0.064394;-0.094727226;0.031251013;0.0691937;-0.045176357;0.037840985;-0.12242919;-0.030288935;-0.09058724;-0.06036358;0.066933215;-0.052585088;-0.10655411;0.056090612;0.032863054;0.027217146;0.09051493;-0.03179273;0.09684331;0.036212943;-0.080191374;0.047429226;-0.09599483;-0.042057395;-0.078461014;0.029247107;-0.03924648;-0.0008016561;0.09298652;0.040370025;-0.023459742;-0.08749429;0.08881673;0.10391661;-0.01886954;-0.0010161761;0.07554305;0.029849613;0.08651216;-0.05094533;-0.06925939;0.07983225;-0.05252194;-0.005242336;-0.044293832;-0.0047913147;0.084496744;-0.088106945;-0.052296977;-0.024458118;0.08936067;-0.062165324;0.07713868;0.10206218;0.088331364;-0.066946246;-0.03674137;0.06675477;0.04451705;0.088535525;0.052356504;-0.1282338;0.046767298;0.025059808;-0.04065075;0.0044187116;0.07821965;-0.13651232;-0.07703509;0.0639502;0.07862591;-0.003907883;0.0345006;0.09770249;-0.014293599;-0.0035965194;-0.070170775;-0.084963806;-0.008379365;-0.107283816;0.07435218;0.05768103;-0.12925069;0.044127733;-0.061055597;0.06730361;0.052330095;0.027049435;-0.019346613;0.01804807;-0.056523804;0.0089100795;-0.040081322;0.031768236;0.035894524;-0.097881116;0.023797747;0.09921925;-0.05389511;0.003501284;-0.062489055;0.033693284;0.10466642;-0.09744807;0.09165938;-0.009096443;0.041756097;-0.038632903;0.045844678;0.029135441;-0.057331495;-0.0100893;-0.07052435;-0.07308361;-0.022471368;0.037073344;-0.0141850235;-0.012885508;-0.034381263;-0.0102463765;0.0106269345;0.06621629;-0.07507772;-0.03935215;0.02727529;0.040769562;-0.12368124;0.057772752;0.0445578;0.007891084;0.023797203;0.04689318
5;-0.0013745608;-0.067255504;-0.024459992;-0.08657423;-0.023398785;0.08333716;-0.0105164405;-0.10577203;-0.083836384;0.04910467;-0.01600685;0.077645175;-0.04192856;0.06856571;0.04362657;-0.056546684;0.061029278;0.09952017;0.06452715;-0.079156;-0.10014632;0.056826178;-0.08732195;0.054885183;-0.011898549;0.0027163886;-0.061245803;0.086439975;0.00055421086;0.09188295;-0.038712744;0.02447971;-0.0018966554;0.0492929;0.043216236;0.034917627;0.01135936;-0.089976855;0.042520884;0.03611782;0.0074797915;-0.018561546;-0.07815532;0.043819867;-0.030451875;-0.076267734;0.04330023;0.102389835;-0.028389212;0.05754181;-0.027155597;0.013812275;0.10121164;-0.013496681;0.08730029;-0.07015469;0.11998462;-0.059306514;0.074084155;0.07128356;-0.0067865397;-0.09966015;0.034779347;-0.033159178;0.13301775;0.119837925;-0.06277822;0.017426858;-0.04569383;0.020343166;-0.06398072;-0.082149304;0.022033677;0.06731841;0.030760424;-0.06279894;0.048798222;-0.043662664;-0.05190223;-0.061193064;-0.07892758;0.11454319;-0.07919911;0.0051474143;0.063663;0.016413132;0.01510667;0.016913272;0.04124796;-0.109134085;-0.09539556;-0.058194272;-0.10413181;-0.04457914;0.05962133;-0.039497618;-0.101500876;-0.014841626;0.08619326;-0.0083024455;-0.021555947;0.03402039;0.03142135;0.027827615;-0.106294475;0.06795611;-0.02577964;0.061673343;0.048110172;0.017844113;0.017503541;-0.051460225;-0.018877348;-0.07245101;0.0055844816;0.036146507;-0.003587694;0.008427834;0.04751321;0.08746854;-0.065658286;-0.0060189646;-0.05379927;0.08007194;0.049468905;0.023107737;-0.013178693;-0.07134309;0.03519452;-0.1036062;0.047504768;-0.029621808;-0.093733266;-0.046345666;-0.11258082;-0.07739437;-0.045794893;0.00644222;-0.0611996;-0.08878461;0.046306927;-0.045728035;0.0021382626;0.051811095;-0.036069315;0.0006776653;-0.006907256;-0.034069303;0.08767296;0.021419989;0.06829943;-0.027460719;-0.026247872;0.053116046;-0.08212825;-0.030175975;-0.04253598;-0.09847298;-0.03614758;-0.0084013175;0.055274986;-0.020530894;0.033913538;-0.027168853;-0.07887699;-0.023342557;0.047961906;0.07291377;-0.03532046;-0.055760536;-0.08399468;-0.0728776;0.045602005;0.10739306;-0.0067743994;0.040448792;0.052889276;0.08865655;0.008197646;-0.09943942;0.06127404;0.09501462;-0.0052479897;-0.03450066;0.041459795;-0.054285385;-0.04114002;0.0910529;0.08303393;0.08881018;0.036354773;0.13381705;-0.044896066;-0.086041;-0.045479394;0.1092011;0.065208726;0.011173789;0.04203246;0.14850196;-0.004162072;0.027453221;0.11205125;0.0807377;0.055948224;0.01589486;0.06560925;0.10321825;0.09847495;-0.07222778;0.039372757;0.06315316;-0.047101207;-0.06877521;0.0016868974;-0.03495081;-0.040928468;-0.035077993;-0.034959216;0.05935169;-0.012205141;-0.08649402;-0.06250158;-0.083113715;-0.06379274;-0.024212765;0.01053586;0.06861059;-0.025077272;0.06514649;-0.07412285;0.044123802;-0.08528911;-0.03923018;0.030941935;0.061203923;0.042235587;-0.070609175;0.015714416;0.0015720925;-0.10970333;-0.042577203;0.025196005;0.03779327;-0.011304634;-0.08095527;0.045619022;-0.051323906;0.07992601;0.075909264;0.055014685;0.05576149;0.10814827;0.011806654;0.030895147;0.04310954;-0.0691712;-0.04675185;-0.03701505;-0.103514135;-0.07435139;0.029066902;0.05482717;0.06152592;0.0055706813;0.048845965;-0.10472174;0.043399423;0.026314534;0.06180196;0.058626994;-0.009981908;-0.0059344913;0.08978669;-0.08467964;0.06041099;0.05931179;0.06414065;-0.017759547;0.023468334;0.06390312;-0.066756815;-0.049681153;0.07417209;0.06638137;0.09492022;-0.088578045;-0.021245243;-0.070426494
6;-0.0072318222;-0.0899069;-0.019735966;0.09382367;-0.09646421;-0.06455887;0.023116117;-0.052679628;-0.04199282;-0.06008156;-0.04211346;-0.024616761;-0.058552284;0.049220096;0.05301536;-0.060435425;0.0038335512;-0.011888682;0.12394502;0.073334515;-0.041110747;0.023190062;0.06105753;0.018989176;-0.01775774;0.050760545;0.010079436;-0.07053964;-0.046282176;0.040908504;-0.011188468;0.030468654;-0.006677371;-0.047956496;0.087476484;0.036945436;0.024771893;-0.037877645;-0.068686455;-0.08545756;0.07114139;0.035154086;0.00883807;-0.06229984;0.007959242;0.05645996;0.04167406;0.017023785;-0.05694286;0.0061910604;-0.039179396;0.065004796;-0.04467126;-0.014986003;0.070157826;-0.0519842;-0.08274862;-0.051890157;-0.11560544;0.012269093;0.033655237;0.071929134;0.026381701;-0.026765246;-0.047010973;-0.0038821513;-0.07437758;0.07681754;-0.046738643;-0.044136375;-0.07358149;-0.004497747;0.06952573;-0.065922916;-0.118456155;-0.1013305;-0.031427015;-0.01033904;-0.03691821;0.044780772;-0.0014318788;-0.03016784;-0.06311488;0.008774743;-0.06982316;-0.06619217;0.06274989;-0.021887282;-0.03434866;0.08268095;0.050979745;-0.06854939;-0.08654045;-0.031326137;0.06137099;0.05778207;0.043781698;0.086720675;-0.013226647;0.095659785;0.05963975;0.05179188;0.05288207;-0.0522949;-0.062494546;-0.07312644;-0.0805041;0.009138189;0.045564987;0.10679999;0.011922805;0.04997039;-0.0782378;0.013103922;-0.036660597;-0.037932068;-0.00032702214;-0.021159567;-0.025315544;0.022106424;0.016599376;-0.0670366;0.013752428;0.09909251;-0.08866651;-0.055076934;-0.008802811;-0.056359943;-0.097436495;-0.12768428;-0.010773456;-0.072060645;-0.026124477;0.03523014;0.03231172;-0.02033201;-0.08602051;0.016860314;-0.05742154;-0.10072149;0.011129096;0.0028299154;0.053305138;0.06819001;0.010996468;-0.07587415;-0.12184336;-0.036965173;-0.022230992;-0.08920759;-0.08986078;0.07467169;0.0070823655;0.112041324;0.0144904675;0.082814336;0.045746606;-0.044849496;0.06081114;-0.094881035;-0.07953535;-0.07429878;-0.055367593;0.06002843;-0.03955117;0.05927642;0.073989324;0.104760826;-0.005744759;-0.04287077;-0.0493872;-0.050662823;-0.0068415636;-0.11233045;0.044075962;0.100506715;0.065936014;0.04487636;-0.09303382;0.047135975;-0.061798207;0.065631;-0.06983246;-0.029791575;0.04607173;-0.05174691;0.029516922;-0.029273989;0.14383991;0.13597593;0.015981775;-0.037236307;-0.087316796;0.049779177;-0.107413225;0.0040396396;-0.096739896;-0.03683166;-0.064979605;0.0031240887;0.07961038;-0.046797182;-0.02760878;0.084736936;-0.012071485;0.006640004;0.013300593;-0.087709814;0.039966002;0.076466486;-0.06576567;0.025309263;-0.03860538;-0.027344836;-0.0010504719;-0.096899375;-0.016948571;-0.010103477;-0.0121419495;-0.02642591;0.014336241;0.008941353;0.043246213;-0.0358122;-0.01026038;0.036482338;-0.092170715;-0.09137983;-0.04786911;0.0048628626;0.018919623;-0.095690556;0.012611717;0.04289575;-0.008769562;-0.040737957;-0.09999924;0.06957455;0.13084075;0.10147736;0.035786603;0.014052915;0.07091735;-0.032274116;0.0029020905;0.073034406;0.040951982;0.07451359;-0.07698906;-0.011209323;0.05641814;0.10237136;-0.019155115;0.05080684;-0.06314984;-0.036915213;-0.041000854;0.085001215;-0.0036077972;-0.036175624;0.09058597;0.09181787;0.007908098;0.04952984;0.013394131;0.072857864;0.03300802;0.032269344;-0.070132956;0.111953914;0.07104339;-0.13528368;0.019544875;0.022884356;0.014073741;-0.007986696;0.020763423;0.033036068;-0.07701609;-0.027081372;-0.030245086;-0.028859857;0.020076057;-0.027360555;-0.07889084;0.0775357;0.068514995;0.09155559;0.0005352436
7;-0.022819167;-0.059569277;0.011382736;0.051015798;-0.07988201;-0.017161421;0.07792645;-0.076402694;-0.09227192;0.10391614;0.032263152;0.06530524;0.059000887;-0.019171514;-0.088162616;0.11387286;-0.067057505;-0.081524685;-0.049774285;0.052024134;0.081400365;-0.07735566;0.056670584;0.06453605;-0.08806946;0.0009450036;-0.09904859;-0.09382137;0.016750094;0.025390474;-0.00090944767;0.08654025;0.036518484;0.045645766;0.068357095;0.055838995;-0.03146697;0.105496906;0.038297497;-0.011265359;0.029761115;0.09358912;-0.07572357;-0.05061607;-0.044791687;0.0029495917;-0.049295157;-0.02038647;0.0074569285;0.032043587;0.0035506054;0.04138127;0.13209207;0.1460196;0.07099434;-0.07393044;-0.0155803915;0.06814849;-0.011469818;-0.020576702;-0.017785033;0.044955708;0.05824523;0.008837514;0.03621709;-0.013111975;-0.08657233;-0.027731217;-0.12445063;0.07434599;0.0007073461;-0.05732015;-0.089700975;-0.08134761;-0.02165134;-0.015872167;-0.0683681;-0.03837918;0.06592149;0.074700855;-0.08202427;0.05928261;-0.013454889;0.09545363;-0.10197274;-0.059612155;0.046493478;-0.06016111;-0.034400202;-0.024066241;-0.045119215;-0.088009425;-0.05098092;-0.006613562;-0.008087131;-0.044038933;0.10368925;-0.04756837;-0.01776706;-0.009330338;0.022512564;0.08359374;-0.002562704;0.048947632;0.11296619;0.03568277;0.045600265;0.005891386;-0.03120857;0.06741778;0.053236697;-0.04813526;-0.06297754;0.117388576;-0.0222658;-0.022710674;-0.082405545;0.04973427;-0.04481529;0.043287337;0.071216404;0.051824663;-0.07287138;0.07142662;0.10281892;0.04026868;-0.06579384;-0.09800434;0.08708361;-0.043057382;-0.14378557;0.08807942;0.09025957;0.049290847;0.07015598;-0.05246563;-0.08796891;-0.095242426;-0.0694101;0.06738928;-0.0057467986;-0.080264464;0.010200138;0.034515675;-0.08624116;0.048461635;-0.08704405;-0.023683399;0.063373014;-0.14433755;-0.0042439904;0.07062809;-0.017215215;0.064774;-0.01462128;-0.038453344;0.029563017;0.009371025;-0.11476124;-0.048961036;-0.08485892;0.027827475;-0.038845763;-0.057045106;-0.02097585;-0.06110943;-0.0038265155;-0.042597454;0.0122692445;0.04470406;-0.0687506;-0.01890456;-0.09958933;-0.037197217;-0.041860696;-0.115840286;-0.06444119;0.015761107;-0.008389815;-0.03745668;0.0086059505;0.08183757;0.093585856;0.0061781006;-0.010175177;0.04342392;-0.025509797;0.08850283;0.0977385;0.017933715;0.05394727;0.04895188;-0.02096412;-0.022083413;-0.035131063;-0.07216691;0.03101964;-0.10869997;0.023719613;-0.0044404767;0.015738595;-0.08729926;0.07585445;-0.07786167;0.04412984;0.11545112;-0.0150741665;-0.039600164;-0.010538067;0.03162071;-0.050897468;-0.028027227;-0.11286444;0.053747904;-0.022396797;0.014094017;-0.061793055;-0.032339618;0.09651213;-0.022078758;-0.05251529;0.12232401;0.032718718;-0.07872085;0.10916504;0.032375872;-0.023059089;0.0616601;0.0064486153;0.024380352;-0.042466428;-0.07771983;-0.060613748;-0.038922343;-0.021670643;0.08127391;-0.08774661;0.07268337;-0.097329356;0.06346591;-0.10664873;-0.01743685;0.059591558;0.038054008;-0.09983898;0.060461987;0.076469325;0.083697915;-0.047192037;0.027999708;0.024349298;0.06593103;0.058351018;-0.04760748;0.0836413;-0.0067142835;-0.0767266;0.018300558;0.06244435;0.0779486;0.056333143;-0.06880764;0.06415072;0.018820886;0.14386949;0.03374818;-0.04433686;0.11783973;0.060271237;0.111967094;-0.018123431;-0.069159046;-0.03294602;-0.025853155;-0.094009526;-0.10266582;0.06262313;-0.06015691;-0.066124275;0.03249601;-0.024976214;-0.04265686;-0.035795912;0.0912081;0.13870513;-0.01540233;0.080971494;0.104190126;-0.07688862
8;-0.003583331;-0.017050466;0.0068894895;-0.08975406;0.06468659;0.04863458;0.02143457;-0.04925172;-0.099409655;-0.07797993;-0.043935284;-0.0052581416;0.038780376;-0.033023752;0.111256905;-0.06372998;0.082810506;-0.07468579;0.0034981673;0.034990318;0.07034406;0.010394956;-0.07057619;-0.01493384;0.03206693;-0.06474693;0.081847616;0.075687334;-0.10155263;-0.016194334;0.06784032;0.016549392;-0.08111829;0.060385946;-0.04397221;-0.06849416;0.05906218;-0.027681928;0.086386755;0.10363664;-0.015277843;-0.09482652;0.10629015;-0.026378252;-0.08352367;0.042890213;-0.053129893;-0.017835654;0.029425254;-0.058869857;0.048115604;0.07852332;0.037899286;0.047441274;-0.009679031;-0.08845235;-0.04425521;0.03672295;0.056068968;-0.083583534;-0.057645675;-0.053545713;-0.09475681;-0.019850073;-0.07756078;0.018932568;0.11264709;0.036052115;-0.010889564;-0.0024624432;0.08860489;0.008404643;0.0147335725;0.028568756;-0.008862042;0.083742544;-0.07096883;-0.010117844;0.07902466;0.018725349;-0.04870765;-0.08316146;-0.004237157;-0.07640928;-0.085230224;0.03471945;0.0905033;-0.06938624;0.027721511;-0.07017243;0.05156505;-0.03231604;0.07235834;-0.039507583;0.08300523;0.08413041;0.11136036;-0.11246475;0.079793595;0.0365299;-0.13200776;0.039399825;-0.027679222;-0.02925575;-0.035651244;-0.006857847;0.052425105;-0.018968722;0.06722351;0.047825914;-0.09136093;0.030777415;0.01907422;0.010380851;0.08691859;-0.043897092;-0.029990084;-0.12954587;0.0006872474;0.004154385;-0.009171605;-0.11462257;0.066738375;0.082261324;0.056346968;0.03095961;0.042039227;-0.024806105;0.10775985;-0.05590887;0.039359298;0.00041219385;0.10617929;-0.00021843467;-0.018845329;0.06175848;0.02927496;-0.058028504;0.022351326;-0.024369158;-0.030145636;-0.04120167;-0.07868952;0.032742124;0.052075855;0.03656926;-0.030334493;0.014977901;-0.04586177;0.02274127;0.068792395;0.083165444;0.0041369395;-0.09580513;0.08155795;-0.088438936;0.10332973;0.056738548;-0.006460349;-0.0017178569;-0.06940979;-0.10729426;-0.004837999;-0.056991268;0.111005284;0.0031918162;-0.091422595;-0.037055038;-0.09539566;-0.09524397;-0.06980789;-0.008646611;-0.016398987;-0.033298433;0.021815937;-0.02835593;0.1101585;-0.0694118;0.031268306;0.0021355636;-0.05008502;-0.08322328;0.103040695;0.124139346;-0.08767428;-0.045801874;0.031813856;-0.076101;0.09058487;-0.10861809;-0.04408202;-0.09328397;-0.049002353;0.052356917;-0.049979515;-0.047974803;0.051053718;0.092450105;-0.06835496;-0.009705083;-0.01013627;-0.072326235;-0.012835184;0.0556518;0.062545024;0.001306688;-0.010003178;-0.082209006;-0.07884658;-0.0150365075;0.055481724;-0.11885664;-0.0731331;0.056520946;-0.08857944;-0.031029673;0.04441585;-0.07398222;-0.039926022;-0.026654009;-0.008111527;0.10058262;-0.0071910634;-0.11407494;0.044685237;-0.03053029;-0.056563;-0.10741301;-0.04137132;-0.0081881145;-0.025207806;-0.04343155;-0.026954236;-0.0969937;-0.08280982;0.01931098;0.09897977;0.053522583;0.017127419;0.03341595;0.009514646;0.0893896;-0.04982838;0.1062906;-0.05990532;0.065902404;0.024609856;0.08836286;0.033393826;0.098051906;-0.04319398;-0.021804234;-0.057715837;-0.09931691;0.048166875;-0.087415054;0.08118127;0.07774955;-0.006337512;-0.054522693;0.0759819;0.024674958;0.06618737;0.047849532;-0.0867454;-0.041326553;-0.06840372;0.040888365;0.05140462;0.090731345;-0.05609471;0.052903607;0.046418473;0.0703126;0.12309309;0.07116697;-0.044516936;0.0132605685;0.05978382;0.004127256;-0.09049863;0.040275633;-0.003206085;0.06342573;-0.06589517;-0.06781608;0.066305526;-0.10062514;-0.022067094
9;0.028673837;-0.02120451;-0.032659315;-0.11646208;-0.060105942;-0.012336281;0.059994414;-0.10039821;0.014196287;-0.07053959;-0.038815442;0.06371067;-0.02865281;0.013764966;0.033393893;0.017198624;-0.12951712;-0.06113575;-0.070432864;0.051418364;0.0173846;0.06922589;-0.008328251;-0.10405659;0.04806869;-0.005845103;-0.08358236;-0.06835665;0.061860606;-0.027530719;-0.042780265;-0.07338719;-0.0040641846;-0.08021898;-0.0052006496;-0.08247329;-0.05815417;-0.031511687;0.030623699;0.010127777;-0.09208732;-0.05470627;-0.021629944;0.061306633;0.020332934;-0.030240204;0.09270805;0.076985605;0.042763922;0.01981486;-0.03930675;0.027947089;0.013959755;0.10900727;-0.07460198;0.03451486;-0.05241644;0.07641032;-0.05662094;0.03339138;0.07286671;-0.08774577;0.057241175;0.06193569;-0.08091973;-0.10921369;-0.08916256;0.059449974;-0.0539708;-0.06242896;-0.030848507;-0.07689323;-0.034924984;0.13012157;0.12806208;0.062090475;0.116228916;-0.021434128;-0.008681193;-0.09325534;0.09113467;0.025759893;-0.033631947;0.08036718;0.010523233;-0.07024469;0.02868096;-0.082157195;-0.11086956;-0.06869572;0.0482146;-0.03039635;0.06954655;0.039129235;-0.10639101;0.00880125;0.038539063;0.051469065;0.012685636;0.052646443;-0.07243363;0.04754688;0.0404991;-0.026518777;0.041001193;-0.09469397;0.054977216;-0.015960477;-0.060894813;-0.061190862;-0.021185733;0.032989044;-0.0509492;-0.092319846;0.026004715;-0.03871899;0.033791967;0.0843798;-0.060695242;-0.05856717;0.080777325;0.0503016;0.113243334;0.03599003;0.043930087;-0.09338594;-0.09666197;0.12056455;0.024826894;0.1285027;-0.06683754;0.025212508;-0.078010485;-0.06711343;-0.0683783;0.017223146;0.08993568;-0.019874455;-0.05774003;0.028603049;0.08580856;-0.061501216;-0.054978266;0.043383446;-0.051469035;0.017911592;0.006269961;-0.06347885;0.029475369;-3.648795e-05;-0.04345296;-0.026936801;-0.03264245;0.081449136;-0.0016561004;0.11041224;0.028456217;-0.065728866;-0.08008737;0.053265575;-0.09579762;-0.10121696;0.07776418;-0.085682854;-0.009023919;-0.046981525;0.06472219;-0.0007531437;-0.000606337;-0.010442131;-0.029702298;0.07290669;0.03562647;0.06278079;0.09087531;-0.028606936;-0.061616894;-0.043002773;-0.044220895;0.0420792;0.1323144;-0.07054502;0.04646233;0.050527494;-0.0722574;-0.08812934;0.009646728;0.007213015;0.08095919;-0.037581176;-0.057131942;0.0075156223;0.09080479;0.09142443;-0.01664038;0.06115246;-0.051753342;-0.0837812;-0.031829514;0.088992745;0.102965616;0.105629526;-0.035903152;-0.07953488;0.0991755;-0.059921358;0.05820205;0.0016910965;-0.022616299;0.10101888;-0.022857366;-0.044412263;0.03941815;0.01571201;0.017121207;-0.061141998;-0.07721616;-0.103336185;0.04378833;0.07330398;0.023027014;0.06888206;-0.014317134;0.029169677;0.0968264;-0.07797367;0.06934265;-0.019266265;0.018292557;0.02771039;0.02946138;0.0786333;-0.018823039;0.045741625;0.064211845;-0.07381227;-0.10616669;-0.02564872;-0.058655214;0.022503357;0.029434178;-0.0806623;-0.00012661962;-0.11002262;-0.06787499;0.06953908;0.027057191;0.01777411;0.080345124;-0.10528569;-0.099281795;-0.01927602;-0.09042551;0.013191267;0.08551255;-0.029209075;-0.016959377;-0.04948589;0.04677423;0.057533108;-0.06531847;0.024879297;-0.027730396;0.007701146;-0.05961193;0.06623122;0.051572483;0.06801105;-0.074243136;-0.102847755;-0.012909724;-0.06401636;0.08105258;0.09353973;0.0944405;0.04766276;-0.06657818;0.043888245;-0.05273693;0.060312685;0.061977364;-0.0759389;-0.019561216;-0.033319328;-0.028117841;0.016894829;0.04687828;-0.08962646;-0.012881965
10;-0.00088363;0.07528177;0.036307435;-0.04463514;-0.07083742;-0.029702475;0.057632968;-0.021450207;-0.011277418;-0.065111354;-0.04417263;0.0051685213;-0.073534034;-0.11205325;0.056102857;-0.057164807;-0.042062692;0.039251514;-0.07051366;0.02462058;-0.08335859;0.046615865;0.11445624;-0.056199286;0.011595291;-0.008617294;0.07733007;-0.048295766;0.004218439;0.06878802;0.101014405;-0.053029746;0.057116475;0.053084843;-0.09180213;-0.104683876;0.08937706;-0.094929285;-0.051697616;0.01109417;0.064471826;-0.079733625;0.103596605;-0.01827141;-0.050877888;-0.009664476;-0.064015016;0.10073197;0.06375573;0.057076193;-0.000775902;-0.0827415;-0.01368404;-0.08848825;0.07274743;-0.053085085;0.0689412;-0.07207946;-0.08180788;0.08934495;0.085654125;-0.026842121;0.09110336;0.05026036;0.08883369;0.01793348;-0.06602456;-0.087626025;-0.031898685;-0.029299393;0.09179163;-0.07650563;-0.004336506;-0.036759708;-0.0673364;0.07477923;0.035470624;0.018946063;0.10711011;0.1043569;0.035117254;0.06642055;0.07442982;-0.011644974;-0.0629578;-0.07801245;-0.04494305;0.050482962;0.016415332;0.07702823;-0.02353288;0.021946177;0.0820711;-0.047823686;-0.042528957;0.008960243;0.068417124;0.071845956;0.033120085;-0.002619485;-0.024528513;0.042510852;0.04345453;-0.062881865;-0.04444077;0.07578951;0.042461317;0.006459319;0.055961713;0.08921168;-0.012380475;0.07006256;-0.081950575;0.033424936;-0.060617212;-0.049005188;0.06883927;0.054263394;-0.06273314;0.00093647913;0.057014316;0.0727213;0.051336758;-0.022081748;0.029841801;-0.06974308;-0.046318118;0.050527517;0.034260925;0.032149415;-0.08160316;-0.08617638;0.09888927;-0.01715115;0.07345408;-0.09244811;-0.095465004;-0.0959103;0.036183305;-0.073810495;0.06984073;0.09201926;-0.040626;-0.047620196;0.05370537;0.015422657;0.039849825;-0.06137511;0.05108744;0.008768623;0.048527118;0.0067647956;0.091194786;0.07451058;-0.018535888;0.05453968;-0.040845104;-0.0355029;-0.05023883;-0.003302224;-0.076878116;0.036409218;-0.011642947;-0.02344829;0.08315985;0.07430288;0.03643607;0.05589839;-0.039288554;-0.10247612;0.07699535;-0.068941474;-0.003878942;0.11575734;0.04934791;0.015509532;-0.037168097;0.1139834;0.011654193;0.018147921;0.047747426;-0.06729784;-0.036021333;-0.0032100056;0.017359493;-0.03685515;-0.057182986;-0.10761029;0.035349898;-0.024356868;-0.056055438;-0.03665109;0.077146895;0.10269162;-0.06460611;0.041650753;-0.010654227;-0.052453157;-0.06263426;0.0673322;0.071265705;0.12996978;0.0011960283;0.056057736;-0.082825445;0.032195315;0.047822967;-0.062306438;0.12420494;0.027736511;-0.05343356;0.071479;-0.047400683;0.10586806;0.091272004;0.06865577;0.05600655;-0.06113502;0.10339373;-0.023121048;0.0005116892;-0.06908824;0.0059039374;0.048035417;0.07940822;-0.10664032;-0.03097903;-0.10686397;-0.02804209;-0.026862407;-0.021329774;-0.10811795;-0.038878996;-0.08352196;0.0076348023;0.07728328;-0.07332295;-0.07590035;0.044956546;-0.01169981;0.05584084;-0.016274573;-0.085498124;0.060134556;0.102759846;0.08492125;0.042355046;-0.05692977;-0.06702446;-0.033967085;0.07954757;-0.07718459;0.02150905;0.061466683;0.08227696;-0.06857555;0.014301659;-0.009266273;-0.051833536;0.004460659;-0.039886974;0.04450762;-0.053687595;-0.11087415;-0.07328537;-0.021309987;-0.105294965;-0.040089455;-0.13863206;0.032943487;-0.068589136;0.072465576;0.0035495276;0.03048465;0.06615877;0.074713886;-0.0108706765;-0.025680546;0.09983356;0.070264846;-0.109434046;-0.07013344;0.027109288;-0.021229168;0.021969568;0.06786793;0.07897209;0.049924783;-0.087359145
11;-0.011223464;-0.022319423;-0.0048633297;0.07384391;-0.04684229;-0.07243846;-0.039402213;-0.018887717;-0.08880364;0.07345312;0.03302152;0.01700939;-0.12795514;0.007286731;-0.008889442;-0.09565311;0.10488276;0.07480586;0.06441101;-0.012481379;-0.09214972;0.07516616;0.045944225;-0.06807051;0.028464489;-0.060682822;0.016652413;-0.045471456;-0.08955995;-0.07570091;0.09565942;-0.070195235;-0.0585348;-0.052872803;-0.009418914;0.01680959;-0.08156171;0.0357263;0.032306995;-0.09253726;-0.10890539;-0.073531084;0.037540574;0.044334345;-0.013816968;0.08645093;0.06357089;0.036215503;0.04247277;0.09052714;0.06011933;-0.013912055;0.030942937;-0.00916795;0.07305144;0.083578184;-0.09409447;-0.021947632;-0.04714232;0.08826021;-0.08209804;0.09068947;-0.049096346;0.025988454;0.052911602;0.04882883;-0.075118914;-0.094259284;-0.048359923;-0.0685849;0.03813058;0.041443475;0.042455483;-0.0469577;-0.05310099;-0.03691575;-0.11404291;0.11161185;-0.047111083;0.055761576;-0.08326307;0.07450978;-0.06656406;0.091582246;0.07203386;0.08822574;0.024168883;-0.02715756;0.054377247;-0.0002999197;0.11097953;-0.07867581;-0.08825965;-0.0569579;-0.06776829;-0.07191446;-0.06509876;0.026326014;-0.010990332;0.00070023764;-0.12791334;0.07984584;0.10106852;0.029331788;-0.14763306;0.0014270791;-0.004257246;0.08836884;0.100965045;-0.015504076;-0.031845104;-0.078818634;-0.017803594;0.059823453;0.077722445;0.0105866585;-0.016670743;-0.010639114;0.05330119;0.09803309;-0.06788003;0.03460833;0.044061124;0.023353612;3.3014432e-05;-0.042815685;-0.052218318;0.10096486;-0.06685014;0.042542193;0.08106018;0.0724203;-0.039562006;-0.096508466;0.084577695;0.022864502;0.019948073;-0.11477892;0.02391341;0.030735416;0.0017131583;0.03884711;-0.05970215;0.10756677;0.0021128072;0.022505473;0.012779808;-0.010960159;0.00036043953;0.08372876;0.0703067;0.01504139;-0.026995648;0.0026012892;-0.0718619;0.08612708;0.072625995;-0.05417008;0.09655763;0.04016504;-0.01753477;-0.0010543098;0.09657494;-0.027187595;0.08074365;0.025749993;-0.03364065;-0.030877974;0.053090245;-0.057860553;-0.051907845;-0.10066491;-0.038306147;-0.083696894;0.10051627;-0.00387856;0.071780495;0.06516493;0.06778534;0.03766841;-0.087654665;-0.093966745;0.015367749;0.031839963;-0.0019794907;0.071563296;0.0035501607;-0.11322918;-0.035690106;0.080292284;-0.019772096;-0.052894317;-0.013977891;-0.032019492;-0.08123001;-0.014173601;0.12470594;0.06305836;0.008728841;-0.076398544;0.07773025;-0.07135606;0.026886983;0.042173084;-0.080516696;-0.0111119645;0.064044975;-0.102309614;0.08879306;0.040151622;0.018300833;-0.06322735;-0.003705424;-0.005378975;-0.050711464;0.056439415;0.058493335;-0.10022133;0.06684477;-0.0080598695;-0.0343413;-0.10500778;0.120849095;0.06053459;-0.1494598;-0.0029998114;-0.102403775;0.061090972;-0.0046272604;-0.010941641;-0.08069359;0.062211685;0.09564123;0.060522422;-0.021533746;-0.08998083;0.028154073;-0.027307013;-0.044427443;-0.056822322;0.111831695;0.045802746;-0.04952763;0.112001516;0.06686724;-0.04676973;-0.035162635;0.08740488;0.08924909;-0.10988209;0.015287755;0.0012011968;0.017756915;0.055856586;-0.021474995;-0.0877985;-0.0026158583;0.029054526;-0.019999351;0.041403256;0.12396667;0.022758551;-0.08360829;0.031605702;-0.091889784;-0.036745172;0.06807583;-0.092085995;0.0014282352;0.04685326;-0.10351172;0.082845055;0.08298362;-0.031426813;-0.008040365;-0.04628192;-0.024723424;0.055269457;-0.019417299;-0.05688592;-0.1223504;0.025881328;0.060436018;0.017362788;-0.085208386;0.14789374;0.15983817;-0.04971151;-0.06215351
12;0.0017337382;-0.04012177;-0.03440542;0.0055556484;0.08605941;0.1420045;-0.011713269;-0.07025143;0.028916694;0.058587648;0.07141036;0.11308322;-0.041132558;-0.08219801;-0.031431712;0.031109164;-0.110811524;0.024157798;0.035962492;-0.055209134;-0.00588088;-0.00043740583;0.010810427;-0.06377266;0.05097268;0.10152193;-0.07215179;-0.005800901;-0.00053353485;-0.07864623;-0.014835871;0.010941878;0.037542652;0.008796279;0.038561977;-0.04975518;0.042671736;0.08921724;-0.08035137;-0.016996343;0.06715274;-0.07709783;0.07179906;0.046644233;-0.0456093;-0.069921754;-0.0544303;-0.05196239;-0.09727388;-0.065004125;0.02350876;-0.036654163;-0.013043552;0.024579652;0.030372187;0.00033936367;-0.03737617;-0.018428726;-0.02561836;0.005804318;0.043184757;-0.07458662;0.06188721;-0.07225013;0.08788473;-0.006617667;-0.070883624;0.022298021;-0.022991238;0.13418092;0.13687426;0.15992722;0.087700315;0.064201765;0.018497845;-0.015896672;0.054577045;0.059256528;-0.048067976;0.085752346;0.0829424;-0.06927763;-0.09455929;-0.085920855;-0.051684864;-0.06702592;0.03920361;0.05485599;-0.053429738;-0.059694704;0.054481477;0.033588123;-0.029577905;0.03248506;0.08968221;0.03040586;-0.10427893;-0.011863085;0.06467231;-0.091927625;0.068299055;-0.046883386;0.059688807;-0.059018828;0.10058432;-0.04134155;0.045039464;-0.086881645;-0.087280385;0.107961886;-0.039481804;0.062611885;-0.06713857;-0.101430066;0.05417301;7.204167e-05;-0.030780865;-0.03594956;0.04273487;-0.0750753;0.021005;0.049017645;0.047183156;0.01623315;-0.040609274;-0.07216268;0.03926921;-0.088260904;-0.021436509;0.056176756;-0.06659717;0.058320325;-0.12847458;-0.07672884;-0.0046537947;0.085974775;-0.0004076239;-0.03622156;-0.02683665;0.070298105;-0.098546594;0.0023978637;-0.00531225;-0.03870133;0.0042342986;0.076619126;-0.058449313;-0.020070272;-0.06416163;0.0680369;0.03302091;0.068498924;-0.014294355;0.023142243;0.0042146225;-0.024359362;-0.042066813;0.10077213;0.049482156;0.042121474;0.07896241;0.061318435;-0.04933024;-0.10023862;-0.037747707;-0.09086073;0.083417326;0.007437435;-0.089126155;-0.0042447266;-0.029841034;0.09206476;-0.0005937102;-0.034293555;0.005598539;-0.14742748;0.0011820422;-0.04041499;0.070275076;0.026296947;-0.017437521;0.04064557;-0.0031595216;0.082081206;-0.11550718;0.01424772;-0.11980271;-0.001694672;-0.040627316;0.036584172;-0.045739405;-0.0663267;0.009918195;0.036604524;-0.09432571;0.060260095;-0.13988754;-0.021442682;0.023685293;0.0070861806;-0.05677003;-0.037195366;-0.0003251111;0.06866867;0.06278954;0.054926857;0.118279025;0.06302136;0.054854155;0.067612596;-0.0102281915;0.0015566407;-0.06304547;-0.061389793;-0.037296116;0.10640149;-0.015014409;0.10450057;-0.03686776;-0.0891607;-0.07332785;-0.048952565;0.06544312;-0.03815493;0.014160114;-0.04238528;0.018397382;0.060961336;-0.009481557;0.07595039;0.0005904669;0.052920543;0.04423993;0.04193548;0.049049236;-0.041229736;-0.02583492;-0.09856064;0.006006522;0.070576355;-0.06075935;-0.069019854;0.10656357;0.023229675;0.09030222;-0.06389474;-0.04116031;0.07833369;-0.100801215;0.06004513;-0.038788237;-0.070301734;-0.0923677;0.019196665;0.065330066;-0.037303746;0.023565982;0.065641254;-0.018078342;-0.055422343;-0.079749495;-0.0500104;-0.086932495;0.084540725;-0.019781021;-0.12084793;-0.10101382;-0.091064826;0.091918856;0.08675136;0.04372805;-0.09385905;-0.029367633;0.042381708;-0.037939016;-0.08321621;0.038632046;0.022406042;0.0007377949;-0.12992305;0.0049822787;0.041880533;-0.0066930465;0.030740198;0.0021885368;0.022392148;0.047674347;-0.07606905;-0.032975152
13;0.004108571;-0.07755318;0.003496206;-0.04807876;0.019084685;-0.03604273;-0.035433605;-0.02846776;-0.03944297;-0.0505717;0.053893186;-0.106881775;0.02133313;0.05901329;0.042286642;-0.031225506;0.13894978;0.06721562;0.09813136;0.049939163;-0.09985466;-0.0184267;0.10473456;-0.06385606;0.0962406;-0.027752385;0.07801143;0.10297123;0.09080994;-0.10053875;-0.08384941;0.0449561;-0.045455713;0.046088327;-0.06011528;0.057282656;0.10787327;0.037049867;0.094600506;0.0032057923;0.10446592;-0.005629461;-0.048315156;-0.032126598;0.07614707;-0.034166723;-0.12515463;-0.11838513;0.056524914;-0.045229904;0.06443247;-0.014015139;0.03450179;-0.03486692;-0.048458293;-0.02934987;0.0098330015;0.009299818;0.070468664;0.0039538406;-0.07637106;-0.07383824;0.06803829;-0.06507724;-0.0891575;0.05978314;0.095016666;0.022672346;0.011143275;0.016814949;-0.087450325;0.0020894452;-0.077816285;-0.08551483;-0.10171694;-0.04543739;0.05313136;-0.024797393;-0.10180923;-0.016823322;0.117566705;0.07086413;-0.014524135;-0.031534296;0.09783853;0.10473094;-0.05487727;-0.014181326;0.07953012;-0.06765861;-0.015034868;-0.04442914;-0.023772724;0.0013982507;0.09194843;0.099417;-0.04990656;-0.07034447;0.017017398;0.09978926;-0.086994015;-0.079689294;-0.0050894683;0.028391682;0.06121609;0.002275181;-0.010205777;-0.076834366;-0.011720143;-0.072594576;0.096205525;-0.0026756024;-0.098726965;0.07803698;-0.039394744;-0.114054166;0.026565038;0.0059358263;-0.04817399;-0.0695177;0.100951165;-0.024980657;0.017235579;-0.082141526;-0.07280759;-0.011424514;0.0673871;0.039381813;-0.11588719;-0.05244555;-0.025387993;0.08460932;-0.08787915;-0.040107317;0.083858415;0.0070805154;-0.05212434;0.09658691;0.07486505;0.06997602;-0.072713204;0.106276646;-0.032211483;-0.045530684;0.024489138;-0.01083036;-0.020081358;-0.079099014;-0.07841919;0.08165317;0.0408891;0.016516889;-0.06396631;0.08668857;-0.06557571;0.018678788;0.011904624;-0.012318093;-0.07262066;-0.0029533254;0.13204677;0.089175306;-0.042224485;-0.030920707;0.06826451;-0.020037195;0.048635233;0.07859157;-0.08106049;0.03326506;-0.015067067;-7.00423e-05;0.071191914;0.074061364;0.072449535;0.08379966;-0.1098163;0.015393509;-0.11037986;0.06800679;-0.049625073;-0.04347188;0.032944985;0.076334715;0.007118729;-0.043623652;0.059245523;0.07512425;0.09779132;-0.0004292587;0.05693004;-0.02767581;-0.08502292;0.012271939;-0.017421668;-0.072573364;-0.05588004;-0.03762742;0.016653487;-0.050098844;-0.05044349;-0.03624534;-0.08520764;-0.098599896;0.046012506;0.076591715;-0.013232917;-0.0432227;-0.08190058;-0.05827981;0.08208186;0.08616817;0.009127721;0.002782457;0.0107883485;-0.0028043394;-0.0864138;-0.034167778;-0.07326158;-0.021082884;-0.10483118;-0.101846844;-0.09888002;-0.08757347;-0.0020106363;-0.050513946;0.06598085;-0.0012725336;0.05869928;-0.10925886;-0.05845674;0.01730993;-0.012245123;-0.09867737;-0.03150674;0.00025693924;-0.02166843;-0.076167434;0.08690856;0.09963564;0.035730522;-0.04045894;-0.08837815;0.0069713895;0.07162633;-0.09799908;0.04360517;-0.07141976;-0.040014654;-0.051516023;0.07211797;-0.051577583;0.08459154;-0.006558375;0.024421757;0.042987358;-0.07525177;0.08662233;0.011692363;-0.009480638;0.08345682;0.022676896;0.028284123;-0.016484069;-0.0276177;-0.06657559;-0.09006208;-0.07040439;-0.0046767592;0.03862739;0.037576575;-0.01542321;-0.06295657;-0.028895035;0.073861234;-0.031884212;-0.05847101;-0.10860186;-0.08970491;0.038140375;0.00046409568;-0.051804725;-0.023789082;-0.05492684;0.022776036;0.015713507;0.12882638;0.0008752536;0.09724324
14;0.024559574;0.08336854;0.019944336;-0.08971088;0.0073139635;0.026247613;0.012494228;0.043582253;-0.057244804;-0.029428596;-0.060699277;-0.011663961;-0.017241593;-0.07336619;0.037106562;-0.03767566;0.039987445;-0.059909083;-0.0979824;0.070646726;0.017058084;0.05874681;0.021800797;-0.063408524;-0.09025996;-0.01620854;0.012295742;-0.0066899206;0.021316996;-0.09728987;0.051711388;-0.12812199;0.08252557;0.03196705;-0.05910168;0.038831733;0.06399426;-0.09074668;-0.0043100715;-0.029180247;0.07125676;-0.026184529;-0.043035854;-0.11208716;0.04938078;0.028650641;0.012331806;-0.053765714;-0.045954995;-0.02185979;-0.11193151;-0.0468831;-0.07511733;-0.057692196;0.023360064;-0.08329519;0.04873463;-0.08871624;0.092982665;0.047574684;0.0037024934;0.0447582;0.022758372;-0.11655675;0.01899282;-0.1117495;0.082207695;-0.08201438;-0.011204084;0.00900438;0.05691155;0.0759558;-0.05146223;-0.11820369;-0.015391081;0.011279714;-0.11551232;-0.053816617;-0.09669191;0.030788837;-0.08728658;-0.0049357554;-0.013421144;-0.031812042;0.08674431;-0.027735727;-0.016974837;0.014280897;0.0433816;-0.0024448456;0.06482973;0.065077305;0.08580949;0.031835407;-0.045834582;0.008943172;0.084760875;-0.026969053;0.064449936;0.040340163;0.037646938;-0.06697739;0.027636807;-0.076310344;0.07162752;-0.045834355;0.051867172;-0.06931965;-0.057356656;0.1000502;-0.02169705;0.0033892887;0.0018832856;-0.10892715;-0.12923071;0.023210179;-0.08686038;-0.08322112;0.0040998566;-0.09729768;-0.08186076;-0.11767977;-0.08013635;-0.033449978;0.07206235;0.044921275;-0.070804305;-0.0027581989;-0.013454308;0.032969985;0.12938514;0.01587252;-0.09451227;0.11574982;-0.06368564;-0.013970157;0.0166519;-0.04647038;0.033417087;-0.0017223378;0.016050654;-0.022300167;0.008045726;0.0071578417;0.014988614;-0.11064532;0.012819754;0.07757315;-0.1131594;-0.045312062;0.018425437;-0.105458446;-0.016432315;0.079113446;0.07270766;-0.061984956;0.113930956;-0.037401482;0.039454594;0.01529952;0.06527869;-0.08865208;-0.024811488;0.044979032;0.007970257;0.10555103;-0.031433955;0.05702752;0.037462305;0.02167529;0.11676502;-0.027747817;0.019385118;-0.059718028;-0.06370413;-0.0040995907;0.03289422;-0.076173835;0.13589099;-0.089543745;-0.12518463;-0.013335241;-0.04814035;0.07650939;-0.064352885;-0.07583837;0.09102104;-0.019243296;-0.08763363;-0.09000452;-0.042007506;0.048169293;0.014727653;-0.03224083;0.094183706;-0.09070136;-0.038550597;-0.069122724;0.025065444;-0.062101923;-0.074128546;-0.020853208;-0.11347008;0.0031891859;0.07272615;-0.017447354;-0.10332999;0.09991904;0.088534534;0.039576344;0.11492899;-0.0033759275;0.058400154;-0.051860284;-0.06342159;0.11203182;0.022240689;-0.029313909;-0.010760765;0.025683127;-0.012067112;-0.058718354;0.01297928;0.06941374;-0.021354396;-0.055779338;0.07966394;0.05524061;-0.09304891;0.067140006;0.060837984;0.019772938;-0.085143775;0.082866326;0.037649907;-0.08573069;-0.022688314;-0.026990766;-0.12449394;0.087455414;0.10216422;-0.023331754;-0.078713;0.057096366;0.080048494;0.03822194;-0.10337909;0.039909393;-0.059012864;0.011691515;0.07659862;-0.07531257;0.048779014;0.010882456;-0.08800359;-0.097656555;-0.020954303;-0.10051983;-0.025704505;0.06627918;-0.042807315;-0.055721372;0.11762242;0.11195422;-0.039493565;0.10558796;0.07070994;0.049610168;0.047106247;-0.054711696;0.12919764;-0.012419662;0.09949296;-0.029108353;-0.031339813;0.06718161;-0.094452724;-0.003926569;0.0563198;0.035897247;0.05038113;-0.040702425;-0.1307258;0.08550664;-0.012687922;0.028438764;0.016085586;-0.0023081526;-0.01924452
15;0.003897065;-0.03491031;0.029867934;0.07191633;0.080748945;-0.09296173;-0.0061793695;0.04282544;-0.022469347;0.08397813;0.05215941;0.06639626;-0.027625449;0.024012731;0.01235152;-0.023693442;-0.038835477;-0.03790366;0.07244475;0.08712602;0.0011402002;-0.117364906;-0.013700128;-0.021315394;-0.07184652;0.06529637;0.05871558;-0.09744302;0.10093372;-0.045762766;-0.06818754;0.123277515;-0.008267038;-0.040560752;0.07481669;-0.044258635;0.03046145;0.071219854;-0.03962216;0.032408603;0.03950542;0.025843963;0.024271589;-0.027155278;0.026147489;-0.08633323;-0.044779807;0.09985352;-0.12802653;0.05012949;0.0007806954;-0.1257028;0.083861195;0.0043492583;-0.08510296;0.08708229;-0.08430458;0.0040446464;0.07570523;0.016268;-0.05287665;0.08631842;-0.073224306;-0.069662444;0.0962237;0.068693735;0.111786544;-0.065996885;-0.11046606;-0.04009449;0.047729563;0.037517082;0.092173494;0.071004756;0.055338185;0.0029791186;-0.06634298;-0.09097222;0.08257773;-0.009707751;-0.07381782;0.04576859;0.097245276;0.008262776;-0.058037877;-0.07957287;0.06244318;-0.049292114;-0.07596926;0.09027821;0.077524774;0.031023052;-0.07546344;-0.07109038;0.03908466;0.010926543;0.0844416;-0.014895683;0.06387267;-0.046450987;-0.084431276;-0.07633626;-0.010641444;0.033150766;0.1077864;0.029124511;-0.011801308;-0.060879562;-0.09459363;0.107275486;-0.02500008;-0.123433664;-0.07507631;-0.044972815;-0.025577031;-0.059246805;-0.04585573;-0.070924826;-0.004779141;-0.047585767;-0.08257646;0.0062083476;-0.03370332;-0.06339548;-0.06304313;0.0776955;-0.0670112;-0.11684384;-0.06948398;-0.0601006;-0.010820537;0.08681421;0.05510049;0.006797498;0.085101835;0.01246858;0.0063086357;-0.04877582;-0.07382953;-0.05760997;0.01804649;0.095954016;0.05325874;0.058443166;-0.040355194;0.07548065;-0.042395074;0.12556504;-0.008950212;0.020924067;-0.0735303;-0.02564813;-0.059016526;0.037908886;0.027396562;-0.089880385;-0.085460804;-0.060563598;0.051142104;-0.050999437;0.051071834;-0.061037272;-0.07536693;-0.048545435;0.09421843;0.008492761;0.0046153967;0.07958992;0.10132357;0.05888639;-0.04461603;0.08595189;-0.09844684;-0.0387397;0.0058834013;-0.015404855;0.13088743;0.01955037;0.03254882;0.08094567;-0.08211519;0.07460294;-0.080610886;0.08296827;0.11027337;-0.057265736;0.026123082;0.033126473;-0.10347605;-0.088484086;0.06165249;-0.093397036;0.0014410403;0.010187792;0.08120705;-0.05808723;0.020573817;-0.05409786;0.064867355;-0.053670496;0.082044445;-0.01644584;0.06420769;-0.037351206;0.09652122;-0.051546395;0.0428267;-0.051885873;-0.10384372;0.06437644;0.036098175;-0.038226694;-0.0973496;0.11006708;0.064051904;-0.05783874;0.0690021;-0.003314197;0.09257622;-0.20843323;-0.013611329;0.17795148;-0.08136758;0.0163063;-0.023959631;-0.07257493;-0.04818988;0.07164506;0.014602384;0.043731943;-0.097411096;-0.080286376;-0.010928238;0.09212429;0.064449966;0.051127583;-0.058595274;-0.093363754;-0.055898428;-0.043038853;-0.05081589;-0.032235146;0.10764153;-0.071279235;0.030105526;-0.06268245;-0.11425205;0.009747391;0.044136096;0.0785575;-0.05303243;-0.002036328;0.06091098;-0.08554071;-0.050734624;-0.07132834;0.068297744;0.012893397;0.035678495;0.034069806;-0.09281736;-0.017645774;0.012845668;-0.047759898;0.07180052;0.007288583;-0.028596437;0.065203905;-0.086650334;-0.057334207;0.014396213;-0.12251311;0.018710496;0.028087353;-0.046691928;0.11010872;-0.010948749;-0.06899647;0.04135639;-0.01844695;0.06761126;0.018354947;-0.16731283;0.08710598;0.10741371;-0.175788;0.08327258;0.05661189;-0.10455537
16;0.0045555355;0.044895392;0.07938519;-0.06956775;0.005075307;-0.07215958;-0.09484922;0.08868079;-0.03905593;0.022473088;0.03623045;-0.07590158;0.07676296;-0.10915289;-0.014259947;-0.09232454;0.013533399;0.06705406;-0.027922463;0.02766546;-0.05761992;0.008567052;0.04002413;0.09141033;0.057023767;-0.04846075;-0.096850716;0.019612024;0.06492591;-0.030941576;-0.0053148256;0.061365116;-0.051868368;0.05617118;-0.07595461;-0.040602952;0.09222994;0.08394502;-0.06298923;0.07155824;0.014840808;-0.030938888;0.07917709;0.04369684;-0.028302362;-0.008503674;0.11777607;0.116203345;0.054137003;0.02063931;0.10948331;0.08535939;-0.00574574;0.128035;0.10018607;0.01845869;0.07563822;0.0060132183;0.031522997;-0.061458103;0.020163964;-0.07795644;0.072515674;-0.03917341;0.07038592;0.006590802;0.08308569;0.04325982;0.038179442;-0.07073968;0.02865613;0.034803063;0.10045003;-0.061865885;0.04353481;-0.058087815;-0.07541104;-0.002095486;-0.050989058;-0.042493813;-0.045301538;-0.014771884;-0.09405806;0.03851546;-0.08379703;0.015366334;0.02234613;0.01488687;-0.048307076;0.052228738;-0.03173116;-0.04606116;0.044168297;-0.012363168;0.088068;-0.07342603;-0.037168145;0.031841546;0.01914117;-0.02485305;-0.008111647;-0.04617155;-0.04080383;-0.053403854;0.050120424;0.09148852;0.06298438;0.0690339;-0.02433747;-0.015227173;0.08257318;0.03744301;-0.026555775;0.0017635729;0.0035458393;0.07512224;-0.06568245;0.09831635;-0.008932657;0.085168384;0.12026125;0.09241273;0.046242725;0.012530323;0.13033222;0.09801746;-0.0018851575;-0.0006097555;-0.02982542;-0.049057916;-0.0063233725;0.04405213;-0.0044483724;0.002823147;0.059896413;0.068266265;-0.1044463;0.093894795;-0.041865006;0.07229322;0.029604733;-0.027014736;-0.051799484;0.033058643;0.0888561;0.03596222;0.08614726;0.07924747;-0.022308966;0.11338414;0.111302145;-0.013957232;0.041882627;0.04903606;0.029586507;-0.012786814;-0.029243598;-0.007750201;-0.07057413;0.04483116;0.022453891;0.0053580436;-0.053537346;-0.016086226;-0.022512412;-0.07292991;-0.024209507;0.04027082;0.08307853;0.09139695;0.01727303;-0.064616226;-0.039230287;-0.033292774;-0.04908435;-0.010146331;-0.09288094;-0.05231815;0.043850295;0.05036177;-0.05266416;0.10853089;0.07772021;0.04651567;-0.062185213;0.09387353;-0.003963311;0.0562044;0.04530666;0.039408114;0.035850737;0.034945574;0.15440246;-0.005986085;-0.087830395;-0.0032796243;-0.06542667;0.0773795;0.016921174;0.081340395;0.06934423;0.0022395805;0.11186841;-0.0124949785;0.0400809;0.05588522;0.05104128;-0.012775804;-0.02596597;0.034120776;0.072737865;-0.045574903;0.06674361;-0.032847848;0.025620889;0.088463485;0.07254336;-0.015149541;-0.05556818;-0.020749636;0.06555258;-0.061074924;-0.07298798;-0.0708148;-0.08956546;0.058018472;-0.04041762;-0.0010490157;0.09458082;0.053018652;-0.0004183257;-0.030219886;-0.066149555;-0.08089011;0.015200826;-0.008253895;0.014767023;0.12696442;-0.034517586;0.11133026;-0.039589774;0.08593839;0.094184786;0.11815198;-0.10829033;0.08562118;0.017940769;-0.032667898;0.06888698;-0.04304613;-0.07233637;0.03903909;-0.07479145;-0.07070281;0.05183417;0.036097486;-0.06555395;-0.093287475;0.009187103;0.010085842;-0.099086545;-0.095001005;0.0038469038;-0.03902765;-0.08159411;-0.05626165;0.054732185;0.0777501;0.049011994;-0.087583505;0.0413846;-0.07061274;0.031140694;-0.05942882;0.008093278;0.03660764;0.07576794;-0.036608756;0.080914475;0.05523166;-0.06732086;-0.06651327;0.11046482;-0.048604097;0.054908298;-0.06406976;0.08181305;0.040979873;-0.052012525
17;0.0034082192;-0.11330978;-0.00823414;-0.08445853;-0.04901701;0.057915933;-0.0556227;0.085907966;0.05385737;0.025558392;0.113178775;0.12048372;0.055159237;0.040519517;0.0035106102;-0.06108523;0.036006305;0.048545506;0.012817028;0.025315108;0.033884075;0.051242307;0.055900104;-0.06914074;-0.01944483;0.007067762;0.030491602;0.00889976;0.01673426;0.08920214;0.08390604;-0.09419793;0.023971716;-0.07014178;0.03957259;-0.12625274;0.017663097;0.014117012;0.08927236;-0.038149122;0.06701533;0.069006585;0.056229267;-0.011052537;-0.08378863;0.0731669;0.0041447924;0.01958995;-0.078720145;0.03183091;-0.036402203;-0.029353866;-0.023996288;-0.096595526;0.01511515;0.073580965;-0.0753672;-0.11127381;-0.055999987;-0.09298741;0.047361467;-0.07393588;-0.062076334;0.034223616;0.0777402;0.024477758;-0.031642657;-0.017950082;0.097922415;0.039775934;-0.015897647;0.08727319;-0.0063507357;0.056873064;0.005470361;0.10150122;0.027835906;-0.06179528;0.04052029;-0.033542998;0.06244107;-0.04562077;-0.0734654;0.06811586;0.08173048;-0.09570892;-0.07569945;-0.061737362;0.055574812;0.013446569;0.073050514;0.064430796;0.08430288;0.0036720855;-0.022099925;0.07578167;0.041677788;-0.00607972;0.012393445;-0.037529983;-0.03209806;-0.06413715;-0.041146383;-0.025114778;-0.0006065148;0.029237213;-0.05232352;0.018301476;0.07388351;0.06420777;0.085992895;-0.047709886;-0.028195864;0.072959214;0.055921588;0.0123847835;0.099721685;0.09980263;0.10613571;-0.053012844;0.03126907;0.0005550447;0.08717653;0.017120589;0.043808006;0.044287298;-0.00035251418;0.07562186;0.093811154;0.042825226;-0.05752222;-0.026846483;0.038695946;-0.014745401;-0.0032743493;0.04720514;0.041033044;-0.021506645;0.022233114;0.004497231;0.084352545;0.049785625;-0.053648345;0.059932083;-0.07213695;0.05033531;0.042275466;-0.010559939;0.06757758;0.0074151624;-0.0065926802;0.005371359;0.01751964;0.059095856;-0.05581413;-0.10328073;0.07284411;-0.077495374;0.020845031;-0.064051464;-0.06141354;0.015694814;-0.03444375;0.019891197;0.076920874;0.0029499996;-0.097811714;0.03262936;-0.06434393;-0.09330935;-0.09698744;-0.033193856;-0.0930963;0.030184064;0.029377261;0.07589598;-0.035991047;-0.07869054;-0.012367513;-0.017661825;-0.09588634;0.015635017;-0.031732902;-0.043329068;0.01348042;0.13340046;0.09380309;0.0028874087;-0.03913649;-0.0595495;0.037628572;0.04992036;-0.11590388;-0.078595206;-0.06456614;0.044787716;-0.106761;-0.13023883;-0.06535046;0.075778306;-0.07560463;-0.029549154;0.07264154;-0.09253218;0.051031496;-0.030749142;-0.06712627;-0.022322804;0.052232426;0.018251633;0.023493553;0.033652864;-0.039787747;0.025275527;0.036990024;-0.05378176;0.036746748;0.06703617;0.0915797;-0.049838234;-0.06971576;0.007864243;0.08516583;-0.0023805415;-0.07212438;0.033662707;0.012920948;-0.06366092;0.06613073;-0.033643156;0.09873873;0.03266807;0.053235102;0.07570292;-0.020395404;0.026659105;-0.020212058;-0.058228653;-0.013323283;0.051822215;0.033877335;-0.023483383;0.028575609;-0.029895872;-0.008071908;0.10164408;-0.027184641;-0.056561667;0.09164561;0.077875525;0.045995302;-0.085900255;-0.0793875;-0.062169418;0.006090401;-0.06063289;-0.030695409;0.07773588;0.1060105;-0.014893143;0.09824212;0.05029466;0.12603322;0.11719285;-0.021071957;0.05034842;0.041958682;0.12706405;0.11659989;0.09438272;0.120486215;-0.09337323;-0.024004342;-0.021221513;0.0470205;0.05728415;-0.049786676;-0.035837326;-0.068425976;0.029761998;-0.05622152;0.08571657;-0.007747336;-0.06889001;-0.06303441;0.030520057;0.04905454;0.043095723;-0.035045177
18;-0.003193721;-0.05733288;0.08826802;0.048666097;-0.02581637;-0.06455658;-0.0006746109;0.063246004;0.06595738;0.0119915195;0.041544124;0.009259108;-0.02562431;0.0066791405;-0.0029811526;0.018683268;-0.07812034;-0.07084534;0.013669145;-0.06053501;0.026063781;-0.035137475;0.085973166;0.011578164;0.00485343;-0.02615372;0.05213552;-0.0043128054;0.016923876;-0.002653113;0.04303016;0.008263314;0.071922846;0.057312515;0.033162005;0.108098686;-0.05105863;-0.00812691;0.084123366;0.10636317;0.10461362;0.070921294;0.018830415;0.01937464;0.015407361;-0.027879436;-0.024038468;0.07630327;0.051345285;-0.05439353;-0.069096535;0.0029771493;-0.05568834;0.05250985;0.032330457;-0.027787212;0.0059033968;0.054180227;-0.03353833;0.07346536;0.032219935;0.03179925;-0.010349731;0.016780328;-0.050781254;-0.06232342;0.014351394;-0.058312297;-0.051169436;0.10677115;0.040178347;-0.066723004;-0.042136338;0.027773222;-0.008656726;-0.082688436;0.061280604;0.0016896017;-0.019971095;0.057945155;-0.006846898;0.11047672;0.050809734;0.018847179;0.045833517;0.0941105;-0.050738215;0.10485237;0.071136;0.088731095;0.046039164;0.057946213;0.035363507;-0.058695633;0.062932774;0.080620736;-0.07085701;-0.05156755;0.108385526;0.097761154;-0.0628649;-0.020464407;-0.06421729;0.09053212;-0.0047055646;0.0018896275;0.0847865;-0.076742485;-0.0683387;0.019687518;-0.05211814;-0.046745557;-0.03411049;-0.040952016;0.0032749334;0.055461384;0.028670346;0.0023543101;0.03115391;0.00804009;-0.0925921;-0.013387277;-0.040630497;0.04477114;0.071636766;0.06865281;0.07992472;0.041124385;-0.043839734;0.0394743;0.045501128;-0.09622971;-0.009347956;0.05008323;-0.06706768;0.046534408;-0.045222756;-0.075324334;-0.025751999;-0.08900468;-0.0030946876;0.08264169;-0.05392326;0.0021289405;0.11287453;0.010108255;-0.04418928;-0.024500698;-0.016774312;-0.07357137;-0.053833645;0.033809323;-0.021014573;0.04728555;-0.05627938;-0.043231413;0.1054608;0.030987537;0.047757946;0.11448117;0.05720704;0.059600294;0.068677925;0.06478936;-0.035744943;0.11647462;-0.087305315;-0.041746855;-0.025019415;-0.10010512;-0.04800868;0.053251248;-0.05043443;-0.00057243183;0.05473364;-0.015036972;0.0154849375;0.070434414;-0.05561851;0.022803074;-0.033853456;-0.026611226;-0.050504576;0.0070523615;0.07216516;-0.07492582;-0.008810502;-0.10507622;0.09224089;-0.009483954;0.06826728;-0.09271945;0.028978514;-0.088906646;-0.027872149;-0.044081442;0.049477354;-0.030429935;0.039172705;0.05541606;-0.024308285;-0.020530067;0.015463816;0.101082854;0.015670855;0.056249004;-0.09371098;0.016394569;0.10704414;-0.056995373;0.05488355;-0.0031302483;0.09435803;0.023341654;0.098986454;0.055374257;-0.03842791;-0.0598912;-0.018139545;0.022915218;-0.068720855;-0.014756393;-0.072339214;-0.053272445;0.10089205;0.002098354;-0.008931564;-0.096309036;-0.06271694;0.0877455;-0.02244758;-0.023868177;0.015968919;0.01715827;-0.046957128;-0.08554715;-0.060294777;-0.0019424781;-0.0800874;-0.0737001;-0.0048975237;0.10742551;0.008773066;-0.069246046;0.02365909;-0.03916609;0.05371967;0.04207308;-0.10097895;-0.10293843;-0.06168185;-0.021524325;-0.022972092;0.01697594;0.047253065;-0.114637166;-0.101570934;-0.03541952;-0.061112493;-0.1120253;-0.027324654;0.019412978;0.025252428;0.03973262;0.08380881;-0.08693632;-0.060905084;0.07349336;-0.023756107;0.03902611;0.029079108;-0.07393465;-0.1021976;-0.053473815;-0.08087539;0.070189476;-0.012077169;-0.08009703;0.061509483;0.023116447;0.10118398;0.07718187;-0.08974601;-0.06967196;-0.012350538;-0.091394395;-0.0966603;0.043359168;0.04849349
19;0.017328357;0.11866277;0.054265276;0.08009935;0.03119613;0.06991538;0.026422035;0.0884166;0.08155383;-0.028379451;0.112357035;-0.038135573;0.009033885;-0.027662711;0.12051292;-0.00010590045;0.09398171;-0.037755586;0.075491354;0.018556735;0.117993996;0.006951397;0.09062055;0.011245071;0.0695003;-0.007205605;-0.071795024;0.017594015;0.013968629;0.008685426;0.0128758075;-0.04863868;0.068849705;-0.094631456;-0.0927509;-0.060833804;0.090214126;0.061257504;0.012861407;0.062029723;-0.099589914;0.04451799;0.06533065;0.017035995;0.0053361175;-0.05946779;-0.038777564;-0.10367374;-0.123429865;0.029844098;-0.055542927;-0.018413791;-0.0395618;0.0886478;-0.05990524;0.06098968;0.041645207;-0.061506625;-0.008347335;0.0027346048;-0.06919393;-0.08636812;0.027121605;-0.055967778;-0.08117524;-0.042014983;-0.012172509;0.025465768;-0.0889397;-0.07837701;-0.012312579;0.02406656;0.033513203;-0.010688161;-0.02427783;-0.041660625;0.106368065;0.10282442;-0.0637961;0.09493103;0.0068446947;0.0027511818;0.0048144716;0.047539562;0.09347573;-0.039551068;0.07982834;-0.022995815;0.097180806;-0.09733542;0.023690037;-0.04300706;0.06578121;-0.07413348;-0.045702945;0.10781792;0.082845904;-0.03635749;-0.024682112;0.020544792;-0.03651999;0.018737033;-0.023666961;0.03385677;-0.10611311;0.0023761892;-0.050967477;-0.01202505;-0.11813964;-0.07605376;0.08536233;0.040028848;0.11304185;-0.04475133;-0.0322273;0.04501226;-0.0742063;-0.04107219;-0.10878821;-0.10329283;0.03987272;-0.040462594;-0.036358275;0.104058184;0.006966475;0.036128156;0.05876021;0.09841724;0.080721006;-0.03194112;-0.033046257;0.09605751;-0.059537426;0.12915112;0.13648634;-0.026632195;0.1119111;0.10995271;-0.01809439;-0.054505125;0.033148825;0.078290075;0.0076684374;0.046987824;0.0026537727;-0.03475804;-0.044968963;0.097965114;0.06399924;-0.01928633;0.07665815;-0.023657097;-0.041924454;0.07004331;0.048629675;0.071798705;-0.03324684;0.024438875;-0.033944312;0.091607206;0.062429316;-0.054635674;0.0043543987;0.055056438;-0.04716077;-0.008620697;-0.037359983;0.1252808;0.11979725;0.038580086;0.006658537;0.07777865;0.04049537;-0.00059293275;0.06138803;0.03697249;-0.04020184;-0.0673419;0.04500771;0.10213062;-0.0485393;-0.03269905;-0.10090897;-0.07204131;-0.07125053;-0.056166787;-0.04379313;0.07264862;-0.047276765;0.044993203;-0.0742917;-0.073872596;-0.06479156;0.0016947844;-0.04527223;0.020659637;-0.037747502;0.060648076;-0.039136052;0.029626172;-0.08323348;0.013160957;0.05761715;0.026835255;0.056117576;-0.02189779;0.012012716;0.030743005;0.059491403;0.052387312;-0.008635848;-0.022909876;0.0031904522;0.06176541;0.048062142;-0.0068375394;-0.01990591;-0.06453641;-0.047221344;-0.0020624269;0.026960226;-0.08151943;0.07019645;-0.06160126;0.107935764;0.008421896;-0.08391044;0.0467909;-0.01798663;0.10294037;0.08266029;-0.07700566;-0.03305775;-0.084366895;-0.1104807;0.057417847;0.036892116;0.0068686283;-0.037307747;-0.069029294;0.13326415;-0.03183358;0.10512148;0.08967149;-0.032244343;0.004450132;0.04245803;-0.0058322567;-0.047775324;-0.01819881;0.008713586;0.08607063;0.024757855;-0.04845078;0.027618919;0.04663299;-0.0056285867;-0.024299985;0.055319034;0.08277399;-0.025130399;-0.017892893;0.0063633407;-0.042787727;0.070469566;0.10156671;0.054746136;0.037688144;-0.014359668;0.054691903;0.025509335;-0.07956114;0.0060589868;-0.022162627;0.070371464;0.10544126;0.095313795;0.022285534;0.08112801;0.07694081;-0.040054023;0.00032173723;0.042022895;0.073849104;-0.046724595;-0.12136444;-0.005494741;0.007461281;0.028163692
20;0.0076523684;0.012525155;-0.018015875;-0.1053574;-0.014734782;-0.012000253;-0.05682441;-0.03668772;0.09349473;0.09180998;-0.10787008;-0.138432;-0.0809962;0.106865905;0.10125466;0.10806234;0.044306308;-0.08924486;0.05443433;-0.058541093;0.04757191;0.0503763;0.05473709;0.085060194;0.001882782;-0.016498215;-0.08625144;0.01861707;0.049448587;0.12083632;0.15191285;-0.003625067;-0.03126848;0.012861846;-0.02311357;-0.07483377;0.032284353;0.04302822;0.0073125847;0.10942286;0.07277324;-0.03020324;-0.010729759;0.0038588885;0.07515699;0.010425012;-0.075787;-0.09260021;-0.08881545;0.0023354706;0.047319897;-0.026930988;0.03202943;0.013383936;0.037200138;-0.0541964;-0.070186906;0.051916644;-0.1043168;-0.009216974;0.06745318;0.08094482;0.064482555;0.03211707;-0.09051925;-0.03838491;-0.071906485;0.08461663;-0.063094586;0.106169924;0.035624962;0.0043598185;-0.013829376;0.082053594;-0.081639916;-0.05268276;0.0770371;0.0023503758;0.077725545;0.059191614;0.097932704;0.044501424;-0.106085755;0.065478206;-0.08007575;0.064105205;-0.025273064;0.06403821;-0.046257213;-0.0038507138;-0.07038609;0.11587521;-0.056738432;0.051128365;-0.032986764;-0.016518556;0.054709114;-0.066812105;-0.051112078;0.034494486;0.069856375;-0.003577534;0.037837278;-0.04008028;-0.034581237;-0.09315043;-0.08742428;-0.02841706;0.048124842;-0.09982298;0.029718617;0.010817962;0.008465656;0.09373074;-0.022001069;-0.051652793;-0.09183821;0.06746729;0.016190546;0.08841499;-0.008092553;0.08131726;0.033100456;0.053471953;-0.09025192;0.05586062;-0.09422617;-0.031244535;0.019672561;0.050871495;-0.07365856;0.091011435;-0.045188963;-0.031530354;-0.0018392955;-0.036556028;-0.058026727;-0.07755912;-0.00038525244;0.095811985;0.021244582;0.09730185;-0.07120242;-0.08648128;0.022513965;0.007968684;0.0515793;0.06877064;0.06278979;0.09469728;0.05955958;-0.074463636;-0.016333919;-0.041608244;-0.033331875;-0.030892467;-0.077097364;0.0491831;0.091633074;-0.02584614;-0.028429428;0.04179787;0.11754337;0.06439585;-0.014635923;-0.027263362;0.06475132;0.006326079;-0.016301628;-0.09423038;-0.10214265;-0.07027515;-0.021946486;0.008413849;-0.023084156;0.074977264;-0.10171912;0.010270984;-0.028434899;0.035297662;0.004200805;-0.09041443;-0.05185571;-0.013268674;0.00045789065;-0.037673857;0.030170187;0.048655506;-0.031606425;-0.10243711;0.012201252;-0.05511355;0.013593275;-0.018940387;-0.06909588;0.10309903;0.09869275;-0.04777183;0.066911116;0.013464891;0.07822998;-0.03637964;-0.012383959;-0.035381485;-0.11429911;-0.04084898;0.016073583;-0.029728455;-0.08577738;0.074509375;-0.017698945;-0.09619354;0.086720005;-0.06877474;0.08668536;0.10831316;-0.027974121;0.082305394;0.048612904;0.13899817;-0.00069417374;0.04180584;-0.04823366;0.028375972;0.031751018;-0.04882642;-0.021072539;-0.056612972;0.0002445446;-0.073471695;-0.040653452;-0.07500174;0.01516647;0.047140174;-0.045344006;0.042204496;-0.058991272;0.10309307;-0.042185232;0.049543276;-0.09979504;0.090586394;-0.07819257;0.055643726;0.03420378;0.013691058;-0.096346036;0.054673873;0.014669282;0.07363095;0.090988465;0.044036303;-0.06904942;-0.017203622;0.03829439;-0.020086333;0.07817722;-0.09475869;-0.07537231;0.10377333;0.039305903;0.0106464;-0.124051936;0.079877585;0.015725195;0.0019873572;0.03260306;-0.122884564;0.00067232654;0.03319677;-0.083332755;-0.022845436;-0.013538353;-0.072994746;0.060473293;0.0020811143;0.018363118;0.037413158;-0.010817678;0.04201268;0.03116617;-0.00027836396;0.0044670263;-0.043351058;0.07465385;0.022453569;0.004106689;-0.014793419;0.07843833
21;0.006501541;0.11036804;0.08422058;0.026368711;0.07396794;0.02282843;-0.036810677;-0.049790658;0.0035383576;-0.057527315;-1.761103e-05;-0.008575691;-0.025242815;-0.053976003;-0.05049336;-0.02960883;-0.06667737;0.009679507;-0.10600784;0.015350912;0.09933573;0.048202682;0.054684255;-0.026343834;0.013093017;0.031632435;-0.101260886;0.046283185;0.11736754;0.07138434;-0.063046075;0.07775897;-0.08246352;-0.05056363;-0.025788283;0.07464419;0.022282554;0.08002426;0.091180936;0.10556312;0.0790563;0.059973218;0.06392306;-0.012268243;0.024385136;-0.0655623;0.09596959;0.042140495;0.046311785;-0.06383719;0.016336704;-0.04007645;0.07147479;-0.057263568;-0.08778124;-0.0065625687;0.0015408284;-0.037887942;-0.1058483;0.00051241403;-0.031653166;-0.030301128;0.028681783;0.06686914;-0.0729642;0.11430717;0.116165146;-0.05757587;0.00016462393;0.040531963;0.013935546;0.047764163;-0.026589675;0.08438161;0.01611905;0.03802323;0.026382202;0.12022968;0.043137457;-0.025599249;0.021253616;0.050608147;0.061869152;0.030737191;0.080264255;0.045197524;0.028065702;-0.007282613;-0.007905053;-0.031177556;0.08364462;-0.033347882;-0.08749103;0.079134464;0.018881451;0.09228589;-0.052512657;0.03328779;0.07930498;0.0875496;-0.007163694;-0.00018210404;-0.057438;-0.014292154;0.025087524;0.009795121;-0.0036829743;-0.024725037;0.116276085;-0.012928837;0.010997092;0.09024513;0.06723278;0.03693142;0.04926178;-0.02872026;-0.0843337;-0.0718218;0.0951698;0.011267808;-0.07008496;-0.03651738;0.049481843;0.050785914;0.07418295;0.09451999;0.05204065;-0.002330237;0.02946327;0.0027016131;-0.0075095836;-0.042641643;0.09833057;-0.0451952;0.10671418;-0.0028371178;0.068028904;-0.012742365;-0.026674744;0.084727414;-0.029111536;0.10471529;0.026804859;-0.04120663;0.06690926;0.08358433;-0.045540273;-0.014286177;-0.0765073;0.031504482;0.015259276;-0.023792038;-0.07945318;-0.031167047;-0.015684774;-0.02121608;-0.06969796;0.07075822;-0.022368854;0.04142026;-0.0007743854;-0.080749586;-0.10537823;-0.009983203;0.047746368;-0.055479083;0.057150237;-0.09881136;0.05549761;0.104412615;-0.07889532;-0.06686121;0.072332904;0.01978566;-0.0021714093;-0.024975039;-0.023855856;-0.00511311;-0.0049597053;-0.058356494;0.059285253;0.09826103;0.061425455;-0.09719125;0.06798245;0.01884101;0.09199919;-0.04347384;0.036719594;-0.062319294;-0.006891316;0.079940364;-0.034802027;-0.079393834;-0.027964273;0.110042654;0.017868642;-0.03889149;0.07548416;-0.0824839;-0.08849012;-0.07974143;-0.045721278;-0.051575687;0.079092644;-0.0038675943;0.08991213;0.11183119;0.028803851;-0.06301851;-0.0077491314;0.021216987;-0.038036346;-0.08313065;-0.03604824;-0.03651764;0.048906546;0.09240624;0.09869392;-0.042754848;0.027727842;0.07520333;0.081287205;-0.07648555;-0.0050476957;0.122667305;-0.109956816;0.017148959;-0.03954186;0.056681875;0.027244063;0.014637642;0.03348918;-0.10369198;0.05834921;-0.10601716;0.06502712;-0.023933802;-0.0075470386;-0.10595677;0.022724323;-0.096197814;-0.0702656;-0.018738702;0.012499645;0.013014417;-0.009511185;0.08361089;0.041920114;0.094004266;-0.08363367;-0.048159137;-0.06914909;-0.00089910894;-0.10666913;0.08216991;-0.110572726;-0.013305756;-0.013149664;0.009131103;-0.03337202;0.042552616;0.027652973;-0.098177105;-0.005354829;-0.12523477;0.031454578;-0.083352335;-0.054460987;0.0881733;0.07540934;-0.13428906;-0.011296486;-0.09936037;-0.12808765;-0.009230226;-0.02856218;-0.10151242;0.05792538;0.0036530043;0.078503035;0.076025076;0.078183204;0.01364876;-0.01454288;0.055457592;0.05736331;0.05918169;0.06046643
22;-0.00525897;-0.0056145545;0.009973901;-0.0007154759;0.044760443;-0.0061069876;-0.053459637;-0.04845719;0.09628554;0.10546315;0.037574712;-0.030962095;-0.033645537;-0.023735126;0.023205174;-0.02408242;-0.012602021;0.0514589;0.11972863;0.03678749;0.068318635;0.0024610385;-0.049326897;0.05945109;0.018491635;-0.07239572;0.069690295;0.052726515;-0.028311528;-0.09672288;0.06625947;0.053546794;0.02968435;-0.0898279;-0.049585726;0.09722368;-0.04681419;0.09707358;-0.06902575;0.06913359;0.013080128;-0.037745006;0.028480299;-0.100200154;-0.013380613;-0.0622901;-0.03235978;0.075007685;0.056061424;-0.10691895;0.05256889;-0.00018598429;-0.112618335;-0.015978968;-0.06732797;0.06425736;-0.021163965;0.037495438;0.118989386;-0.020458486;0.10479651;-0.048181657;-0.079199106;-0.009101551;0.055833783;-0.0907312;0.014251985;-0.018676765;0.071547575;0.046196334;0.122090146;0.0888178;0.10259856;-0.073926955;0.09335842;0.06031114;0.005839449;-0.10827681;-0.008256245;-0.10711418;-0.032955207;-0.07596831;0.0022246256;-0.08873646;-0.010823927;0.009216426;-0.049891375;-0.06283615;-0.05111028;0.07084355;-0.09834735;0.09660274;-0.06939933;-0.04201837;0.05227281;0.066555746;-0.061535798;0.0039823586;-0.04353656;0.04828325;-0.019621769;-0.046218872;0.07187053;-0.04562476;0.03494195;-0.07358583;0.043446932;-0.013059438;0.10291237;0.014621381;0.10953391;0.0045666415;0.10968743;0.12239296;0.015820624;-0.018789774;-0.08588561;-0.11477143;0.0738507;0.06946273;0.009699565;-0.07805337;-0.025332382;-0.06042548;0.01702785;-0.09992109;-0.08497247;-0.030736294;0.054119304;-0.013968821;-0.045273244;0.05115943;0.026971372;0.056385975;0.025657842;-0.022426253;-0.028838724;0.057818733;-0.040368583;0.0034386513;0.031159934;0.0043212906;-0.026150964;-0.014422057;-0.06248638;0.10085213;0.07625752;0.07521727;-0.052780196;0.076343074;0.013252136;0.0898014;-0.09327845;0.032976322;-0.008150174;-0.12620056;0.016110288;-0.054881252;0.08233488;0.03216558;0.08364593;0.090543285;-0.07113708;0.035636734;0.053047743;-0.05199832;0.04014835;0.06266142;0.020377021;0.07374323;-0.05068853;-0.061424095;-0.029250106;0.08326167;0.07369985;0.09486941;-0.004830745;0.0016680933;-0.13290198;-0.09403033;-0.041791365;-0.042965025;0.11623675;-0.020141285;0.058276553;-0.05117833;-0.030085878;-0.043741144;-0.02614996;0.08420049;0.08742244;-0.0139411315;0.0870385;-0.041710727;0.101519614;0.06547341;-0.0340448;0.057700202;-0.08855368;0.08840541;0.05765761;-0.085603766;-0.06130661;-0.08602455;-0.043468803;0.03885616;-0.039339192;-0.03577886;-0.0739494;-0.016425753;0.06549584;-0.099746265;-0.011331919;-0.025094682;-0.056876775;0.075456865;0.10426222;0.085993096;0.080468394;0.042349786;-0.029501257;0.06180684;-0.0065174233;-0.054937005;-0.11814419;-0.10483877;-0.07059612;-0.06855266;-0.08513911;-0.040150348;0.10236603;0.10482819;-0.032277003;-0.056001406;0.01954945;0.0719589;-0.0462322;0.026071146;-0.008596;-0.026453078;-0.03689555;0.032226425;0.0339371;0.017738588;0.047764458;-0.049810726;0.00742883;0.021097211;0.027179698;0.02854895;0.012081473;-0.048339516;-0.0073482026;0.07860969;0.03129097;-0.025199847;0.0037095193;-0.03561547;-0.0982136;-0.046831165;0.09800639;0.067340896;0.052921053;0.012987869;-0.053209092;0.09232781;0.094458014;0.05540209;0.02122862;0.08486869;-0.04707623;-0.037362933;0.059749205;0.030131413;-0.02431216;-0.06977597;0.013029034;0.06302933;-0.051114794;0.05082474;0.044084538;-0.09495954;-0.0805602;0.012868756;0.027424168;-0.08585767;0.07693986;-0.007505416;0.07872488
23;-0.017949393;-0.02239622;-0.010534003;0.06810249;0.057794183;-0.011770999;0.035024773;0.019073201;0.013628342;0.026538009;0.0018849415;0.026891293;0.052160796;0.040046025;0.059571937;0.009775285;-0.11739467;-0.12584147;-0.051306047;0.104475;0.050869085;0.12921295;-0.105985925;-0.057196137;-0.13626888;-0.039581742;-0.017741192;-0.0107461475;0.07263627;0.062466394;0.11511152;-0.04985909;-0.06354153;0.06677526;-0.09359325;-0.027541215;-0.11450723;0.03631751;0.05853084;0.058911726;0.018526133;-0.10445331;0.020657867;-0.08267343;0.00022020216;-0.02109878;0.099898316;0.050851516;0.094236255;0.10122326;0.077768214;-0.06314813;0.01766235;0.0051202015;0.018833278;-0.094068974;-0.016318966;-0.034509283;-0.04165139;0.012305291;0.06313991;0.0072018043;-0.027404267;-0.0028281987;0.02731636;0.09213253;-0.08658433;0.0657749;-0.012378146;0.12313863;-0.09061301;-0.04334264;0.006521126;-0.03255716;-0.056305036;-0.049707692;-0.0038933083;0.09812892;-0.08759973;-0.11401345;0.06353172;0.026837533;-0.011586824;-0.048072506;-0.06566394;-0.05803662;0.0041453317;0.035820078;-0.030908057;-0.07997633;-0.05013892;-0.025795978;0.11429921;0.030810328;-0.00640209;0.06431975;0.018842364;0.0363177;-0.042262096;-0.12046957;0.08400326;-0.086352706;0.026988575;0.06550223;-0.024914026;-0.035014044;0.011207738;-0.08225834;0.08630528;0.024783153;0.088154875;-0.06014731;-0.10959563;-0.022957014;-0.007315171;-0.06923003;-0.022978792;-0.0732389;-0.019895278;0.056227297;0.09009067;-0.06342474;-0.019512046;-0.041719962;0.04009099;-0.045813836;-0.04528175;-0.023112236;0.08640616;-0.007077265;-0.03994883;0.063364916;-0.051813245;0.03391425;0.00096700387;-0.018615387;0.07172806;0.02819147;-0.05225456;0.03941556;0.015313072;0.07870535;-0.050635614;0.08712692;-0.0916395;0.049236618;-0.0024936653;0.08187629;0.07027273;0.11352428;0.05062121;-0.058058195;-0.10567;-0.023554267;0.021931607;-0.07593221;0.0075488365;-0.08302596;-0.06872866;0.063491344;-0.044353224;-0.027468642;-0.12311081;-0.081038244;-0.060799677;-0.099426575;0.07941992;0.0700832;-0.07226786;0.04526519;0.119435;0.086488456;-0.053147547;-0.090186276;0.060815647;-0.1436242;-0.10229498;-0.08442177;0.06440984;0.00931395;0.004325341;0.06409786;0.07625144;-0.034198813;0.041289885;0.0566254;0.021815741;0.016074808;-0.09328427;-0.044380266;-0.033195265;0.0151302945;-0.01906791;-0.011754691;-0.09830843;-0.03312525;0.04361468;-0.106091395;0.06748587;-0.0045383503;-0.049172156;0.08618088;-0.0034253092;-0.019680735;0.006483862;0.07448319;0.087333165;-0.029970547;0.06280284;0.041344695;0.09048831;0.024747772;-0.01105014;-0.05122746;-0.059630647;0.014115914;-0.07323503;-0.028954083;-0.061812032;0.026735459;-0.10044593;-0.09340904;0.065335736;-0.045460537;0.09182684;-0.032876987;0.08690903;-0.050095815;0.03644484;0.015676266;-0.047902502;-0.049604595;-0.02217157;0.023028733;0.06433199;-0.049404014;-0.04657296;-0.07154278;-0.0021456946;-0.09384453;-0.119531624;0.069734134;0.045390032;-0.046753645;0.03784542;-0.08056791;0.057376157;-0.08931821;0.04718817;0.02992314;-0.09417759;-0.048359387;0.002139015;0.08704631;0.03833499;-0.041999083;0.08887751;0.1215988;-0.012248251;-0.009910055;-0.12579502;0.038270254;0.062087666;0.11445334;-0.034408346;0.050469525;-0.0066177524;0.10973569;0.01725775;-0.10537967;0.072086334;0.07801942;-0.06747063;0.062186547;-0.031068668;-0.02933071;-0.007918047;-0.022129336;-0.01586775;0.04183024;0.0904889;0.07300588;-0.084495835;-0.006589579;-0.09315267;-0.022853505;-0.12413713;0.06898402;0.011029305
24;0.0027716053;-0.08963933;-0.026398703;0.09165431;0.0055011674;-0.08753839;-0.08467039;-0.077943966;0.07240552;-0.049772415;-0.039934523;0.08633773;0.05502774;-0.048003867;-0.07013924;0.12447349;0.059347913;-0.08169445;0.07912881;-0.14744544;0.00076705246;0.02471338;-0.14400327;-0.01885938;-0.07721729;0.028680988;-0.01860412;-0.04362565;0.039418064;-0.035229612;0.048248008;0.07108506;0.009405343;0.01972214;0.01072447;-0.04141797;-0.008177;-0.011886558;0.0038028308;0.03056171;-0.052324716;0.08186144;-0.06929948;0.09278532;-0.043276638;0.09168325;-0.016113855;-0.057052203;-0.03272918;-9.850273e-05;0.06803201;0.08785986;0.0031626734;0.059927773;-0.10083249;0.04041398;0.08283822;-0.025065865;-0.026945213;0.095378764;-0.06480712;0.022370214;0.11620312;-0.08438281;0.05363069;-0.03769649;-0.10512303;-0.016520707;0.005438609;-0.10092086;-0.06815398;-0.03370563;-0.060236637;-0.09862814;0.059267715;0.011791723;0.06181334;-0.046968315;-0.053234685;-0.13698247;0.042856883;-0.0030833292;0.09232198;-0.09971743;0.045809094;-0.0068396507;0.09452391;-0.00800603;0.030746356;0.022188902;-0.0024675676;0.04199465;0.05594619;-0.0013920665;-0.087226056;-0.069290504;0.0057382174;0.072443664;-0.03967127;0.030181374;0.0023357465;-0.066615485;-0.11636027;0.005095951;-0.091922835;-0.0011182061;0.10806134;0.097279415;-0.0779568;0.11355834;-0.08163239;0.061800398;0.039965928;0.05927861;-0.10143995;-0.029976761;0.085916445;0.08226052;0.09939195;0.094360396;-0.057161745;-0.054524668;-0.024355628;0.062610894;0.09175785;-0.034479387;0.06730743;-0.053447783;-0.0701081;0.0642398;-0.00584884;-0.007850553;0.03279216;-0.10972317;-0.08371072;-0.04154649;-0.06004313;-0.035245415;0.09239838;0.022585806;-0.02927426;0.101023294;0.0073050424;0.00025046815;0.039822705;-0.016984245;0.008557423;-0.05319936;-0.10385741;0.041310396;-0.08763876;0.07207565;0.00092794304;-0.018692784;-0.052465897;-0.0190017;-0.020524595;-0.01686085;-0.038055968;-0.090529054;0.015930025;0.034987662;0.03592329;0.0060748793;-0.012215824;0.07547036;0.07435656;0.041149173;-0.085529886;0.0045309905;-0.09087436;-0.009431416;0.038093064;0.008060159;-0.003938987;0.0019869488;0.10167177;-0.05742994;-0.053600263;0.10313849;0.007308052;-0.016466191;0.07137582;0.026082389;0.057321686;-0.07658323;0.050508652;0.06652773;-0.0052477047;-0.051123574;-0.06837393;-0.017239628;-0.121988736;-0.08175015;0.028804306;0.07533686;-0.013536243;0.08780192;0.04451058;-0.059048638;-0.037320282;0.044822615;-0.054957896;0.083137155;-0.059694935;0.0530898;0.07806384;0.042421106;0.055396322;0.05331883;0.056011833;0.06475788;-0.049516857;0.020097632;0.060648385;0.03537793;-0.010871402;0.123068996;0.003975156;-0.017134102;0.114427574;0.11539259;-0.045965996;-0.07750653;0.09285831;-0.062251654;0.06707683;0.06769699;0.06553959;0.035041116;0.113924436;0.024815528;-0.041908283;0.006988755;0.011845654;-0.030417856;0.037300758;-0.047648404;0.09509692;0.029061414;0.07495202;-0.018395977;0.071506985;-0.0014726692;0.0069507044;-0.015926009;-0.05890249;-0.029191801;0.041705795;0.03805949;-0.009713416;-0.09502541;-0.03182173;0.07664524;0.084884375;0.05264;0.10412794;-0.07259647;0.053465363;0.08078252;0.09793213;0.00011755269;0.095761865;-0.016189963;-0.026637414;-0.0956737;0.10234341;0.09541498;-0.0021576511;-0.02152016;0.07283823;-0.06985712;-0.0113710975;-0.023862477;0.05058751;0.08529571;-0.02616898;-0.09571721;-0.044440776;0.09592579;-0.0015361494;0.05913811;0.021318737;-0.079774044;-0.086712666;-0.056360375;-0.00077209383;0.022436835;-0.009668142
25;-0.007539334;0.055010818;-0.07075894;0.058608565;0.094279334;0.120916426;0.1036747;-0.09152086;-0.03933711;0.0016432491;0.044869088;-0.052336637;0.047804847;0.061578788;0.06315028;-0.026367612;-0.036489516;-0.06748903;0.028317355;-0.04303734;0.038781196;0.009693905;-0.08777792;-0.017119426;-0.04434988;-0.07318187;-0.052368496;0.021796795;-0.004219939;0.08438592;-0.04807651;0.057371516;-0.06942957;-0.068616204;0.08258738;-0.015264715;0.027151432;-0.0444449;-0.001297646;-0.016119588;-0.07673053;-0.013538226;0.045967847;-0.0022521531;0.08400931;0.020087624;-0.056309074;-0.069834635;-0.08281191;-0.0794347;0.006395116;0.050677598;0.07689826;-0.047505043;-0.057017166;0.09383004;0.07014967;-0.040879793;-0.07308212;0.11085813;0.083291665;-0.09249666;0.009570917;-0.09100867;-0.060218856;0.012262557;-0.052776508;0.053407256;-0.037859082;0.03906691;0.00841914;0.0056719678;-0.008049587;0.013862342;-0.0436631;0.07002846;-0.048413154;-0.10330218;0.077444024;-0.04967354;-0.03426019;-0.049744748;0.041651886;0.06840136;0.0016957986;0.034648556;-0.009197417;0.094864815;-0.070119314;0.09383964;0.049710628;0.10323088;0.03920539;0.03499403;-0.08442445;-0.0106463805;0.055342082;-0.0675759;-0.06630559;-0.004195456;0.041479215;-0.05761809;-0.030992115;0.08819722;-0.008276446;0.04551659;-0.0866199;-0.032002747;0.027952045;0.046958085;0.061914902;0.04785579;0.0320366;-0.058430653;-0.06623965;0.025730347;0.1153564;0.08609212;0.0962668;-0.09751048;-0.0648065;0.061120108;-0.02284939;-0.018743252;0.034903552;-0.057723347;-0.019060764;-0.06792955;0.07745972;0.018552823;0.10190272;-0.052352984;-0.02222943;-0.055320203;-0.00364444;0.031522762;-0.060658574;0.04300704;-0.011724665;-0.083351254;-0.052864462;-0.061070874;-0.03414895;0.03618973;0.036709085;0.07704597;0.076114245;0.050344054;-0.02984584;0.042290322;0.09848989;-0.035450123;-0.0660666;-0.075672634;-0.023885736;-0.058686227;-0.024742328;0.044174254;-0.02098346;0.06701745;0.05274127;-0.03910995;0.025212992;0.007211599;-0.07275755;-0.05777726;-0.017222794;0.024173561;0.047946885;-0.005136903;0.047441904;0.10440007;-0.0033872938;0.06525532;-0.049820773;0.0051724324;0.061955035;-0.056597814;-0.025135497;-0.081277646;-0.0022713733;0.07777404;0.015614562;0.05920374;0.013868733;0.07738294;0.03391769;0.07633597;0.035131767;0.10075131;0.043641362;-0.044494;-0.10148823;-0.024447255;-0.081002586;-0.046771128;-0.009867754;0.02441255;-0.011249823;-0.11355835;0.07554321;-0.015363219;0.020629495;0.10225649;-0.065304935;0.080157444;0.031422805;-0.027784439;0.059829947;-0.0018594087;-0.021854898;0.035016853;0.06084309;-0.0701759;0.01653162;0.12710974;0.03615587;-0.12341994;-0.00023451768;-0.058711197;0.055304427;-0.032075763;-0.056908894;0.008515127;0.0025417977;0.050591126;-0.08300665;0.026826415;0.048365884;0.053344645;-0.028041597;0.05359471;-0.056083493;0.0027489373;0.0410275;-0.04149002;-0.0046950364;0.07028086;-0.04148116;0.05449253;-0.122501045;0.0732216;0.10060636;0.024212766;-0.038793594;0.08997332;0.061352145;0.090642914;0.034353904;0.01483308;-0.038385622;-0.08703293;0.08247189;0.043155033;0.12928043;0.120803334;-0.08302884;-0.05121029;0.06809577;-0.031275287;0.10206284;-0.018848388;0.12204721;-0.031188069;0.11854723;0.112793155;0.018476054;0.02201931;0.0037939833;0.06771706;0.053767987;0.03120897;0.105194904;0.09504667;0.004064314;0.07136908;-0.06497037;-0.12922777;-0.053203277;0.029009918;-0.011159562;-0.079103;0.05297433;0.013072067;-0.04558662;0.019426208;-0.02629072;-0.09999786;-0.026825972
26;-0.012361083;0.045779955;-0.10778305;0.081767574;-0.0015968857;-0.021841345;0.024194555;-0.09163782;0.095160685;-0.04695437;-0.0639517;-0.018690033;0.06876726;0.05969999;-0.07800431;0.097723916;-0.026133174;0.027773207;0.08199598;-0.02591009;0.009539041;0.018722944;0.028062547;-0.09768278;-0.083541796;0.06561631;-0.06185644;0.07353913;-0.10280585;-0.06041206;0.035664603;0.0316331;-0.10242766;-0.070744246;0.0699816;0.012557523;0.10746091;0.03324801;0.08389208;-0.042441994;0.009565624;0.037584607;-0.060894925;0.07528192;0.013868871;0.0431076;-0.058140732;0.035967674;0.04940608;0.05951649;0.07443039;0.09890115;-0.116944395;0.0309711;0.020582044;-0.053280868;0.012829686;-0.06000288;-0.061872814;0.046506878;0.04014549;-0.09978397;0.059599973;-0.09328661;0.07678459;0.033880424;-0.026907573;-0.116265446;-0.013158748;0.05100184;-0.020462595;0.017078316;0.038334854;0.071447924;0.0461543;-0.046975512;0.058626827;-0.09211554;-0.08154834;0.08187253;0.03625432;-0.107826784;0.027914325;-0.046635997;-0.08250705;-0.029300781;-0.07431022;0.09016954;0.082388565;0.025108038;-0.008805049;0.017314479;-0.06885957;-0.056914233;0.058921844;-0.06819027;-0.053964842;-0.07994404;-0.002635063;0.03489517;-0.04226523;0.079073004;-0.0877326;0.08507611;0.010953525;-0.049834702;0.13177766;-0.027730932;0.03372597;-0.046455167;-0.028397636;-0.014438376;0.0025184867;0.00044084204;-0.05543551;0.010649156;0.05440002;0.051263638;0.043911222;-0.09361809;0.0041637053;0.028565004;-0.034062326;0.018064309;-0.051368207;0.040887587;0.09461476;0.09915445;0.0041687083;0.03803046;-0.0009031753;-0.051575784;-0.08307708;-0.07815859;-0.024943851;-0.032005545;0.09816248;0.05085794;-0.03744033;-0.102808885;-0.020872874;-0.09174135;-0.056991808;-0.0037985656;0.06634857;0.04744266;0.054870985;-0.0010551391;0.080825925;0.088798545;-0.075905435;0.03613354;-0.09848158;-0.04307475;-0.079738356;0.083189234;-0.1040337;-0.10034036;0.06816115;-0.0008602594;-0.0115279425;-0.056648027;0.0010711898;0.0016370051;0.043797437;-0.053860318;-0.01953576;0.064254664;0.11597588;-0.054495152;0.08676845;-0.004527694;-0.10254214;-0.004084499;0.11868173;-0.040946;0.110817574;0.12195207;0.01317794;0.05706542;0.08474689;-0.08036134;-0.019317143;-0.096343845;-0.043004863;0.07624286;0.07982087;-0.053228054;0.03690957;0.09091194;-0.06921284;-0.05547787;0.052039556;0.008613268;-0.08028547;0.01464125;-0.08070312;0.0150016;-0.073532425;-0.088488325;-0.09550094;-0.020820346;0.03274802;0.110156745;0.031400785;0.10302688;-0.06642715;-0.037192706;0.07280093;-0.03721836;-0.08817785;0.04256525;0.004605774;0.10148752;0.072601184;0.03088467;-0.052124515;0.05417117;0.08333378;-0.011519932;0.0020978071;0.026316503;0.046124704;-0.09134448;0.038753927;-0.0066715055;-0.12802511;-0.09757165;0.033062845;-0.016216679;-0.06992321;0.043413907;0.045079544;0.01348385;-0.064398125;0.05647422;0.041748572;0.019792935;0.02491325;-0.034232926;-0.085495725;0.07175413;0.07325835;0.049537975;0.08358818;-0.013224862;0.0034219667;0.041216128;-0.066943824;0.085409775;-0.030225873;-0.10684209;-0.08273645;0.0006255942;-0.037156887;-0.0065229437;-0.07596912;0.08687976;0.023263032;-0.045660246;0.013647203;0.029730035;0.03146154;0.0428892;-0.06046409;0.06855586;0.100319035;0.03328187;-0.090923764;0.115803614;-0.009974145;-0.09792631;-0.03657074;-0.09725387;0.044393294;0.009736167;0.0018289695;-0.06808355;0.08138154;0.07963253;-0.034813862;-0.08436428;-0.079327494;0.017409807;0.055650406;0.041645125;0.04600165;-0.026273102;-0.0516542
27;0.0009927014;0.02304168;-0.048163652;-0.0430709;0.09938018;0.09955994;-0.048902977;0.0918253;0.06247973;0.09150157;0.020313052;0.0024637354;0.06351263;-0.032174475;0.094704285;-0.038062464;0.09506422;0.06878547;0.032709803;-0.08558582;0.043345135;-0.027685123;-0.057541996;-0.010684053;-0.0024259856;0.013759158;0.029635172;0.07348604;-0.09673115;-0.094803974;0.038803604;0.016509375;-0.041202538;-0.10317072;-0.042425297;-0.077258244;-0.021071576;0.08424878;0.052105542;-0.022156866;0.063873686;-0.027747901;0.050406396;-0.059363853;-0.089800395;0.06529109;-0.02223316;-0.072032996;-0.047885064;-0.022017147;-0.015897771;0.021327373;-0.022393618;-0.07059151;0.057502683;-0.060246386;0.04662641;-0.033522207;0.026561072;0.023933735;-0.089853585;-0.016845088;-0.0825039;0.041404378;-0.013093371;0.08278884;-0.030582035;-0.09010101;-0.063690834;0.07220137;0.047320276;-0.08354908;0.013099303;0.08060246;0.071383536;-0.017974433;0.086598225;-0.064091444;0.0725235;0.051431037;0.074009895;0.0516817;0.053140685;0.081921875;-0.035244312;0.03886641;0.006686635;-0.057207342;0.037626397;0.060850993;-0.0011989968;-0.07482892;0.021766355;-0.0024128917;0.05897361;0.024529118;-0.101341136;0.064552076;-0.022535041;-0.034554802;0.05274134;-0.009585912;0.06635852;0.013801034;0.023076693;-0.021244254;0.08638108;-0.10989656;-0.018651614;-0.08676204;0.09375403;-0.06101505;0.09238462;0.06333515;0.07092575;-0.06965921;0.09355182;-0.031831652;0.07972314;0.034891885;0.0990949;0.08972842;-0.07098456;-0.04314977;0.10611197;0.056168288;-0.08139516;0.07208327;0.018711805;0.0738038;-0.0073472788;0.02886009;0.062399965;-0.0081149265;0.07890499;-0.011399911;-0.048949357;0.035514288;0.08738311;-0.066884294;-0.09668787;-0.099311665;-0.051063802;-0.093865186;0.0059415386;0.0770456;0.04034379;-0.06748243;0.057874683;0.09306086;0.026803998;0.08672373;-0.037545;0.028755661;0.019348204;-0.09712295;-0.062258046;-0.07496406;0.032751452;-0.103475854;-0.035492547;0.043282688;-0.022099666;0.028780155;0.04891084;0.052464858;-0.029666066;0.0046746624;0.11112679;0.07905385;-0.06527065;-0.036648206;-0.0063914084;0.09898991;-0.06486726;0.1249769;-0.0592822;-0.0028910923;0.0846916;0.10931113;-0.06556451;0.083975144;0.09058618;0.066379674;-0.012599124;-0.0146036325;0.0381814;-0.0096735805;0.109360956;0.027973168;-0.04747703;0.049866796;0.029968113;-0.08184886;0.042461693;-0.0030114073;0.020730928;-0.06874948;-0.004492912;-0.046037134;0.07740125;-0.06262798;0.103468396;-0.038585894;-0.0024282958;0.019704804;0.07337557;0.09861279;-0.07640313;0.022612382;-0.028200753;-0.030541355;-0.10053992;0.05804378;0.03626678;-0.055136282;0.0589598;0.05280715;0.0012412092;-0.06363877;-0.038578548;-0.060061336;0.056195453;0.00820794;-0.014364773;-0.014079882;0.110600874;0.002107226;-0.09797809;0.1138678;0.054793954;0.044529058;0.10956952;0.071079314;0.046478372;0.0027014492;0.0680571;0.076396786;0.009212154;0.090553746;-0.09792334;0.036022786;0.05177471;0.07984919;0.053309318;-0.02469606;0.008155065;0.085267805;-0.027875785;-0.023101328;0.102422655;0.08210775;-0.011770623;0.011337979;0.009444826;0.08885491;-0.024547506;-0.0054879757;0.033028875;-0.02072634;0.04860093;0.0831131;-0.052969377;-0.03892895;0.075147785;0.042274885;0.052521452;0.07531315;0.008471563;0.12270281;-0.0018788574;0.09936549;-0.008940137;0.06678678;-0.017005451;0.051186442;-0.0010494458;0.09951598;0.10500525;0.047994327;-0.08484161;0.046612803;0.0058139386;-0.021828027;-0.04189444;0.066542804;0.077564694;0.08512983;-0.09423035
