kernel;bias;d0_w00;d0_w01;d0_w02;d0_w10;d0_w11;d0_w12;d0_w20;d0_w21;d0_w22;d1_w00;d1_w01;d1_w02;d1_w10;d1_w11;d1_w12;d1_w20;d1_w21;d1_w22;d2_w00;d2_w01;d2_w02;d2_w10;d2_w11;d2_w12;d2_w20;d2_w21;d2_w22;d3_w00;d3_w01;d3_w02;d3_w10;d3_w11;d3_w12;d3_w20;d3_w21;d3_w22;d4_w00;d4_w01;d4_w02;d4_w10;d4_w11;d4_w12;d4_w20;d4_w21;d4_w22;d5_w00;d5_w01;d5_w02;d5_w10;d5_w11;d5_w12;d5_w20;d5_w21;d5_w22;d6_w00;d6_w01;d6_w02;d6_w10;d6_w11;d6_w12;d6_w20;d6_w21;d6_w22;d7_w00;d7_w01;d7_w02;d7_w10;d7_w11;d7_w12;d7_w20;d7_w21;d7_w22;d8_w00;d8_w01;d8_w02;d8_w10;d8_w11;d8_w12;d8_w20;d8_w21;d8_w22;d9_w00;d9_w01;d9_w02;d9_w10;d9_w11;d9_w12;d9_w20;d9_w21;d9_w22;d10_w00;d10_w01;d10_w02;d10_w10;d10_w11;d10_w12;d10_w20;d10_w21;d10_w22;d11_w00;d11_w01;d11_w02;d11_w10;d11_w11;d11_w12;d11_w20;d11_w21;d11_w22;d12_w00;d12_w01;d12_w02;d12_w10;d12_w11;d12_w12;d12_w20;d12_w21;d12_w22;d13_w00;d13_w01;d13_w02;d13_w10;d13_w11;d13_w12;d13_w20;d13_w21;d13_w22;d14_w00;d14_w01;d14_w02;d14_w10;d14_w11;d14_w12;d14_w20;d14_w21;d14_w22;d15_w00;d15_w01;d15_w02;d15_w10;d15_w11;d15_w12;d15_w20;d15_w21;d15_w22;d16_w00;d16_w01;d16_w02;d16_w10;d16_w11;d16_w12;d16_w20;d16_w21;d16_w22;d17_w00;d17_w01;d17_w02;d17_w10;d17_w11;d17_w12;d17_w20;d17_w21;d17_w22;d18_w00;d18_w01;d18_w02;d18_w10;d18_w11;d18_w12;d18_w20;d18_w21;d18_w22;d19_w00;d19_w01;d19_w02;d19_w10;d19_w11;d19_w12;d19_w20;d19_w21;d19_w22;d20_w00;d20_w01;d20_w02;d20_w10;d20_w11;d20_w12;d20_w20;d20_w21;d20_w22;d21_w00;d21_w01;d21_w02;d21_w10;d21_w11;d21_w12;d21_w20;d21_w21;d21_w22;d22_w00;d22_w01;d22_w02;d22_w10;d22_w11;d22_w12;d22_w20;d22_w21;d22_w22;d23_w00;d23_w01;d23_w02;d23_w10;d23_w11;d23_w12;d23_w20;d23_w21;d23_w22;d24_w00;d24_w01;d24_w02;d24_w10;d24_w11;d24_w12;d24_w20;d24_w21;d24_w22;d25_w00;d25_w01;d25_w02;d25_w10;d25_w11;d25_w12;d25_w20;d25_w21;d25_w22;d26_w00;d26_w01;d26_w02;d26_w10;d26_w11;d26_w12;d26_w20;d26_w21;d26_w22;d27_w00;d27_w01;d27_w02;d27_w10;d27_w11;d27_w12;d27_w20;d27_w21;d27_w22;d28_w00;d28_w01;d28_w02;d28_w10;d28_w11;d28_w12;d28_w20;d28_w21;d28_w22;d29_w00;d29_w01;d29_w02;d29_w10;d29_w11;d29_w12;d29_w20;d29_w21;d29_w22;d30_w00;d30_w01;d30_w02;d30_w10;d30_w11;d30_w12;d30_w20;d30_w21;d30_w22;d31_w00;d31_w01;d31_w02;d31_w10;d31_w11;d31_w12;d31_w20;d31_w21;d31_w22;d32_w00;d32_w01;d32_w02;d32_w10;d32_w11;d32_w12;d32_w20;d32_w21;d32_w22;d33_w00;d33_w01;d33_w02;d33_w10;d33_w11;d33_w12;d33_w20;d33_w21;d33_w22;d34_w00;d34_w01;d34_w02;d34_w10;d34_w11;d34_w12;d34_w20;d34_w21;d34_w22;d35_w00;d35_w01;d35_w02;d35_w10;d35_w11;d35_w12;d35_w20;d35_w21;d35_w22;d36_w00;d36_w01;d36_w02;d36_w10;d36_w11;d36_w12;d36_w20;d36_w21;d36_w22;d37_w00;d37_w01;d37_w02;d37_w10;d37_w11;d37_w12;d37_w20;d37_w21;d37_w22;d38_w00;d38_w01;d38_w02;d38_w10;d38_w11;d38_w12;d38_w20;d38_w21;d38_w22;d39_w00;d39_w01;d39_w02;d39_w10;d39_w11;d39_w12;d39_w20;d39_w21;d39_w22;d40_w00;d40_w01;d40_w02;d40_w10;d40_w11;d40_w12;d40_w20;d40_w21;d40_w22;d41_w00;d41_w01;d41_w02;d41_w10;d41_w11;d41_w12;d41_w20;d41_w21;d41_w22;d42_w00;d42_w01;d42_w02;d42_w10;d42_w11;d42_w12;d42_w20;d42_w21;d42_w22;d43_w00;d43_w01;d43_w02;d43_w10;d43_w11;d43_w12;d43_w20;d43_w21;d43_w22;d44_w00;d44_w01;d44_w02;d44_w10;d44_w11;d44_w12;d44_w20;d44_w21;d44_w22;d45_w00;d45_w01;d45_w02;d45_w10;d45_w11;d45_w12;d45_w20;d45_w21;d45_w22;d46_w00;d46_w01;d46_w02;d46_w10;d46_w11;d46_w12;d46_w20;d46_w21;d46_w22;d47_w00;d47_w01;d47_w02;d47_w10;d47_w11;d47_w12;d47_w20;d47_w21;d47_w22;d48_w00;d48_w01;d48_w02;d48_w10;d48_w11;d48_w12;d48_w20;d48_w21;d48_w22;d49_w00;d49_w01;d49_w02;d49_w10;d49_w11;d49_w12;d49_w20;d49_w21;d49_w22;d50_w00;d50_w01;d50_w02;d50_w10;d50_w11;d50_w12;d50_w20;d50_w21;d50_w22;d51_w00;d51_w01;d51_w02;d51_w10;d51_w11;d51_w12;d51_w20;d51_w21;d51_w22;d52_w00;d52_w01;d52_w02;d52_w10;d52_w11;d52_w12;d52_w20;d52_w21;d52_w22;d53_w00;d53_w01;d53_w02;d53_w10;d53_w11;d53_w12;d53_w20;d53_w21;d53_w22;d54_w00;d54_w01;d54_w02;d54_w10;d54_w11;d54_w12;d54_w20;d54_w21;d54_w22;d55_w00;d55_w01;d55_w02;d55_w10;d55_w11;d55_w12;d55_w20;d55_w21;d55_w22;d56_w00;d56_w01;d56_w02;d56_w10;d56_w11;d56_w12;d56_w20;d56_w21;d56_w22;d57_w00;d57_w01;d57_w02;d57_w10;d57_w11;d57_w12;d57_w20;d57_w21;d57_w22;d58_w00;d58_w01;d58_w02;d58_w10;d58_w11;d58_w12;d58_w20;d58_w21;d58_w22;d59_w00;d59_w01;d59_w02;d59_w10;d59_w11;d59_w12;d59_w20;d59_w21;d59_w22;d60_w00;d60_w01;d60_w02;d60_w10;d60_w11;d60_w12;d60_w20;d60_w21;d60_w22;d61_w00;d61_w01;d61_w02;d61_w10;d61_w11;d61_w12;d61_w20;d61_w21;d61_w22;d62_w00;d62_w01;d62_w02;d62_w10;d62_w11;d62_w12;d62_w20;d62_w21;d62_w22;d63_w00;d63_w01;d63_w02;d63_w10;d63_w11;d63_w12;d63_w20;d63_w21;d63_w22;d64_w00;d64_w01;d64_w02;d64_w10;d64_w11;d64_w12;d64_w20;d64_w21;d64_w22;d65_w00;d65_w01;d65_w02;d65_w10;d65_w11;d65_w12;d65_w20;d65_w21;d65_w22;d66_w00;d66_w01;d66_w02;d66_w10;d66_w11;d66_w12;d66_w20;d66_w21;d66_w22;d67_w00;d67_w01;d67_w02;d67_w10;d67_w11;d67_w12;d67_w20;d67_w21;d67_w22;d68_w00;d68_w01;d68_w02;d68_w10;d68_w11;d68_w12;d68_w20;d68_w21;d68_w22;d69_w00;d69_w01;d69_w02;d69_w10;d69_w11;d69_w12;d69_w20;d69_w21;d69_w22;d70_w00;d70_w01;d70_w02;d70_w10;d70_w11;d70_w12;d70_w20;d70_w21;d70_w22;d71_w00;d71_w01;d71_w02;d71_w10;d71_w11;d71_w12;d71_w20;d71_w21;d71_w22;d72_w00;d72_w01;d72_w02;d72_w10;d72_w11;d72_w12;d72_w20;d72_w21;d72_w22;d73_w00;d73_w01;d73_w02;d73_w10;d73_w11;d73_w12;d73_w20;d73_w21;d73_w22;d74_w00;d74_w01;d74_w02;d74_w10;d74_w11;d74_w12;d74_w20;d74_w21;d74_w22;d75_w00;d75_w01;d75_w02;d75_w10;d75_w11;d75_w12;d75_w20;d75_w21;d75_w22;d76_w00;d76_w01;d76_w02;d76_w10;d76_w11;d76_w12;d76_w20;d76_w21;d76_w22;d77_w00;d77_w01;d77_w02;d77_w10;d77_w11;d77_w12;d77_w20;d77_w21;d77_w22;d78_w00;d78_w01;d78_w02;d78_w10;d78_w11;d78_w12;d78_w20;d78_w21;d78_w22;d79_w00;d79_w01;d79_w02;d79_w10;d79_w11;d79_w12;d79_w20;d79_w21;d79_w22;d80_w00;d80_w01;d80_w02;d80_w10;d80_w11;d80_w12;d80_w20;d80_w21;d80_w22;d81_w00;d81_w01;d81_w02;d81_w10;d81_w11;d81_w12;d81_w20;d81_w21;d81_w22;d82_w00;d82_w01;d82_w02;d82_w10;d82_w11;d82_w12;d82_w20;d82_w21;d82_w22;d83_w00;d83_w01;d83_w02;d83_w10;d83_w11;d83_w12;d83_w20;d83_w21;d83_w22;d84_w00;d84_w01;d84_w02;d84_w10;d84_w11;d84_w12;d84_w20;d84_w21;d84_w22;d85_w00;d85_w01;d85_w02;d85_w10;d85_w11;d85_w12;d85_w20;d85_w21;d85_w22;d86_w00;d86_w01;d86_w02;d86_w10;d86_w11;d86_w12;d86_w20;d86_w21;d86_w22;d87_w00;d87_w01;d87_w02;d87_w10;d87_w11;d87_w12;d87_w20;d87_w21;d87_w22;d88_w00;d88_w01;d88_w02;d88_w10;d88_w11;d88_w12;d88_w20;d88_w21;d88_w22;d89_w00;d89_w01;d89_w02;d89_w10;d89_w11;d89_w12;d89_w20;d89_w21;d89_w22;d90_w00;d90_w01;d90_w02;d90_w10;d90_w11;d90_w12;d90_w20;d90_w21;d90_w22;d91_w00;d91_w01;d91_w02;d91_w10;d91_w11;d91_w12;d91_w20;d91_w21;d91_w22;d92_w00;d92_w01;d92_w02;d92_w10;d92_w11;d92_w12;d92_w20;d92_w21;d92_w22;d93_w00;d93_w01;d93_w02;d93_w10;d93_w11;d93_w12;d93_w20;d93_w21;d93_w22;d94_w00;d94_w01;d94_w02;d94_w10;d94_w11;d94_w12;d94_w20;d94_w21;d94_w22;d95_w00;d95_w01;d95_w02;d95_w10;d95_w11;d95_w12;d95_w20;d95_w21;d95_w22;d96_w00;d96_w01;d96_w02;d96_w10;d96_w11;d96_w12;d96_w20;d96_w21;d96_w22;d97_w00;d97_w01;d97_w02;d97_w10;d97_w11;d97_w12;d97_w20;d97_w21;d97_w22;d98_w00;d98_w01;d98_w02;d98_w10;d98_w11;d98_w12;d98_w20;d98_w21;d98_w22;d99_w00;d99_w01;d99_w02;d99_w10;d99_w11;d99_w12;d99_w20;d99_w21;d99_w22;d100_w00;d100_w01;d100_w02;d100_w10;d100_w11;d100_w12;d100_w20;d100_w21;d100_w22;d101_w00;d101_w01;d101_w02;d101_w10;d101_w11;d101_w12;d101_w20;d101_w21;d101_w22;d102_w00;d102_w01;d102_w02;d102_w10;d102_w11;d102_w12;d102_w20;d102_w21;d102_w22;d103_w00;d103_w01;d103_w02;d103_w10;d103_w11;d103_w12;d103_w20;d103_w21;d103_w22;d104_w00;d104_w01;d104_w02;d104_w10;d104_w11;d104_w12;d104_w20;d104_w21;d104_w22;d105_w00;d105_w01;d105_w02;d105_w10;d105_w11;d105_w12;d105_w20;d105_w21;d105_w22;d106_w00;d106_w01;d106_w02;d106_w10;d106_w11;d106_w12;d106_w20;d106_w21;d106_w22;d107_w00;d107_w01;d107_w02;d107_w10;d107_w11;d107_w12;d107_w20;d107_w21;d107_w22;d108_w00;d108_w01;d108_w02;d108_w10;d108_w11;d108_w12;d108_w20;d108_w21;d108_w22;d109_w00;d109_w01;d109_w02;d109_w10;d109_w11;d109_w12;d109_w20;d109_w21;d109_w22;d110_w00;d110_w01;d110_w02;d110_w10;d110_w11;d110_w12;d110_w20;d110_w21;d110_w22;d111_w00;d111_w01;d111_w02;d111_w10;d111_w11;d111_w12;d111_w20;d111_w21;d111_w22;d112_w00;d112_w01;d112_w02;d112_w10;d112_w11;d112_w12;d112_w20;d112_w21;d112_w22;d113_w00;d113_w01;d113_w02;d113_w10;d113_w11;d113_w12;d113_w20;d113_w21;d113_w22;d114_w00;d114_w01;d114_w02;d114_w10;d114_w11;d114_w12;d114_w20;d114_w21;d114_w22;d115_w00;d115_w01;d115_w02;d115_w10;d115_w11;d115_w12;d115_w20;d115_w21;d115_w22;d116_w00;d116_w01;d116_w02;d116_w10;d116_w11;d116_w12;d116_w20;d116_w21;d116_w22;d117_w00;d117_w01;d117_w02;d117_w10;d117_w11;d117_w12;d117_w20;d117_w21;d117_w22;d118_w00;d118_w01;d118_w02;d118_w10;d118_w11;d118_w12;d118_w20;d118_w21;d118_w22;d119_w00;d119_w01;d119_w02;d119_w10;d119_w11;d119_w12;d119_w20;d119_w21;d119_w22;d120_w00;d120_w01;d120_w02;d120_w10;d120_w11;d120_w12;d120_w20;d120_w21;d120_w22;d121_w00;d121_w01;d121_w02;d121_w10;d121_w11;d121_w12;d121_w20;d121_w21;d121_w22;d122_w00;d122_w01;d122_w02;d122_w10;d122_w11;d122_w12;d122_w20;d122_w21;d122_w22;d123_w00;d123_w01;d123_w02;d123_w10;d123_w11;d123_w12;d123_w20;d123_w21;d123_w22;d124_w00;d124_w01;d124_w02;d124_w10;d124_w11;d124_w12;d124_w20;d124_w21;d124_w22;d125_w00;d125_w01;d125_w02;d125_w10;d125_w11;d125_w12;d125_w20;d125_w21;d125_w22;d126_w00;d126_w01;d126_w02;d126_w10;d126_w11;d126_w12;d126_w20;d126_w21;d126_w22;d127_w00;d127_w01;d127_w02;d127_w10;d127_w11;d127_w12;d127_w20;d127_w21;d127_w22
0;0.00036318818;0.060384512;-0.04926327;0.027320908;0.023888327;-0.0054474883;-0.05935388;-0.020818159;-0.07316617;-0.0024311044;-0.017055672;-0.050009992;-0.039394103;0.022779683;-0.03754715;0.02122045;0.004674494;0.0059849587;0.012575701;0.013783412;-0.005367267;-0.017655574;0.015797717;0.024036266;0.035960518;0.0415394;-0.0026078937;-0.029159402;0.03236655;0.052328818;-0.0063156527;-0.040270917;0.051285487;0.0064991033;-0.03291403;0.0018620623;-0.0034963754;-0.022505125;-0.0009702012;-0.052395903;-0.03730564;0.010873883;-0.0069878655;-0.054199647;-0.05729638;-0.0142197665;0.059463475;-0.031414412;0.055946443;0.039012354;-0.012727015;-0.020417575;-0.02737802;0.041415658;0.035626356;0.022944728;-0.035028823;0.012384513;0.025525484;0.021574026;-0.010103977;-0.009959285;0.00042710832;0.024558015;-0.049763076;0.05395653;-0.009558592;-0.02990704;-0.06097483;-0.02685447;-0.06663861;-0.01272143;-0.0154444;0.053245768;-0.008978411;0.014906958;0.04333094;0.03371738;-0.006060995;0.006820298;0.021004217;-0.01923061;0.00945356;0.0077576437;0.0119245965;0.059970956;-0.017367413;-0.04947016;0.008227011;-0.058796845;-0.008795412;-0.0130302785;0.05431172;0.008856564;0.015852692;0.015466863;0.012831912;0.010607997;-0.05600014;-0.05970421;-0.003977656;0.021203883;0.0050489795;-0.024119392;0.04113657;0.004175386;-0.04411134;-0.015545059;-0.026642445;-0.006110616;-0.013058472;-0.02616502;-0.0049238377;-0.013734625;0.029540837;-0.051677402;0.02473557;-0.032103717;0.09319716;0.06470199;0.05047394;0.010852457;0.04486381;0.00045614736;-0.0010500018;0.025551058;-0.04466958;0.031162554;-0.04645367;-0.031849638;-0.024735019;-0.030489847;0.0643895;-0.026868394;-0.012012644;-0.0052954415;-0.016471565;0.029919641;-0.03188991;0.021543369;-0.056053683;-0.021508455;-0.0039069066;0.031440303;-0.03648602;-0.026066002;0.0068394886;0.031781774;0.04701355;-0.02817451;-0.014649344;-0.019720329;0.0069766487;-0.035421513;0.0035776657;0.012174773;0.01519659;-0.02699476;-0.016612954;0.049586497;-0.023164691;-0.003532326;0.00011711616;-0.021952018;-0.03874494;0.03242488;-0.00096417195;-0.041462213;-0.03688836;-0.0237302;0.029437501;0.030197566;0.028727844;0.024608718;0.025821194;-0.03064582;0.015956707;0.010155075;0.0437643;0.025160296;-0.02721931;0.026806645;-0.03992472;0.044847917;-0.010552096;-0.022386417;0.041553386;-0.02149747;0.048733696;-0.012256785;0.011092841;0.012595761;0.0033165202;-0.021405373;-0.06365231;0.023745356;-0.024328977;0.046704203;0.009069743;0.054673173;-0.0020583277;-0.006645762;0.0020841246;0.02766512;0.05190846;-0.0036634419;-0.01827085;0.0008540833;-0.008554947;0.00956831;-0.005387866;-0.04600642;-0.060008112;-3.440851e-05;0.0014970856;0.003693539;0.012137754;-0.055764806;-0.041726127;0.021410376;0.018483825;-0.031074576;-0.0034442332;-0.03862031;-0.027388774;0.05184057;0.02751581;-0.0023520524;0.026903465;-0.03301889;0.013849681;-0.04084499;-0.024866581;-0.06682684;-0.028712662;-0.008551497;-0.04882228;-0.072895445;0.043980215;0.006721857;-0.053068396;-0.006042109;-0.05695842;0.060499895;-0.0045199436;-0.015038762;-0.08459208;-0.023466961;-0.027311547;-0.045772605;-0.029498354;-0.05855756;0.013768235;0.05632488;0.05453002;0.061045293;0.007047004;-0.03006489;-0.0063454383;0.00072477455;0.016943503;-0.0075603174;0.089312695;0.0052190837;-0.011064207;-0.0046732123;-0.012592449;0.025235161;-0.049561363;-0.023725063;-0.03236109;1.2856297e-05;0.036992043;-0.03069574;-0.016652066;0.016775353;0.0142366;0.045123138;-0.018298842;0.062158495;-0.037516717;-0.044025064;0.005688049;-0.019198481;0.028674882;0.007458479;0.03582167;0.012215047;0.015693847;0.040253114;-0.021230863;0.0019915556;0.0429744;0.037624072;0.005663502;0.022791345;0.023443252;-0.0088302875;0.014649824;0.034121707;0.033232495;-0.037506476;0.017475132;0.037298173;0.018490598;-0.054702144;-0.002069536;-0.044948146;-0.049079783;-0.074576005;-0.039054997;-0.08868188;-0.06374634;0.012833223;0.010932638;0.019426482;-0.040594686;-0.03469818;0.01819938;0.020646185;-0.08604723;-0.023067249;-0.038888253;-0.06673627;-0.009033255;-0.02967219;-0.08387616;-0.058056515;-0.052589152;-0.029741285;-0.008499376;-0.03377525;-0.020091724;0.03255991;0.03759092;0.0016203199;-0.031539887;0.018529318;-0.03517675;-0.009478836;-0.028263645;-0.05348079;-0.04565112;-0.0057453946;0.0032534883;0.005432435;-0.07612626;-0.03929831;-0.020691898;0.012712517;-0.04386876;0.005421037;-0.017843466;-0.05487161;0.0239204;-0.03888194;-0.014416515;0.03849418;0.01729386;0.031791877;0.038517784;-0.00885082;0.015967999;0.050766565;0.048688874;0.022318495;0.011604971;-0.04273264;-0.0183777;-0.0011092445;0.045184217;0.040228162;-0.010922724;-0.019397365;-0.066593066;-0.027574308;0.017429765;0.010748337;-0.037811004;-0.049783677;-0.015257082;-0.03329083;0.021680199;-0.0027913777;-0.04569657;-0.031327844;-0.023524877;0.031838354;0.017482387;-0.059306562;-0.023949744;-0.052291967;-0.048071045;-0.035768438;0.024226412;-0.0039815884;-0.0049828966;-0.021190872;-0.016398724;-0.03695903;0.041847304;0.023860801;-0.030740283;0.021313911;-0.013971912;0.03099256;0.013715115;0.06379605;0.007585742;0.020303981;0.08603104;0.058672592;0.05561077;0.035046197;-0.012849454;0.016520299;0.005751457;-0.0077918186;-0.021256953;-0.05309193;0.03259475;0.030660674;-0.048862334;0.043942675;0.036978565;-0.008981558;0.04156043;-0.04388142;-0.03662661;-0.017941725;0.017595733;0.03162128;-0.016087024;-0.06197433;0.0002445508;-0.059428383;-0.03412594;-0.010494587;0.02326918;-0.046517804;-0.0048509506;-0.032797586;0.05695368;-0.025306497;-0.017555937;0.028944235;0.012243788;0.048316322;-0.01711089;0.05213093;-0.020246048;0.05868798;-0.030901967;-0.03358284;0.01766356;-0.0012966482;-0.05621339;-0.026265558;-0.032178927;-0.049172368;-0.004205506;0.05331711;0.029818995;-0.028188841;0.027051961;-0.03321096;0.027193513;-0.04022866;0.0074959593;0.0033352587;-0.02863429;0.032808665;-0.036365088;-0.025833955;-0.0010052909;-0.020626465;-0.058711383;-0.048990168;0.019674309;-0.022714213;0.026995864;-0.0103847645;0.053947553;0.035994656;0.019501425;-0.019799551;0.036386475;0.08533746;0.056555346;-0.026621228;0.03688194;0.059971996;-0.016063001;-0.0076304222;0.039095383;0.049376976;-0.022206817;-0.037433673;0.025223413;0.0114915;-0.03275856;0.034390286;0.04872488;-0.03647104;0.038179006;0.048613366;0.051407933;-0.017113963;-0.06616942;-0.046133224;0.017636098;-0.04240388;0.01585621;-0.068660185;-0.06593324;-0.06388537;0.029154796;-0.042920347;-0.0209537;0.04281622;0.04652951;-0.022825023;-0.0018628221;0.009626211;0.007856971;0.064153865;0.038268756;0.02877865;0.014731939;-0.020533524;0.0062191556;-0.055907156;0.0054932926;-0.013713721;0.03628283;0.03384439;0.02092731;0.014700839;-0.029998247;-0.002034552;-0.020165399;0.013623554;0.03773569;-0.011146257;0.003505543;-0.01011654;0.027020575;-0.02528949;-0.056508157;0.020574104;-0.030775582;-0.029970746;-0.06628636;-0.06869874;-0.06853727;-0.0376409;0.019256627;0.008028045;-0.00081624923;0.02340479;0.023165114;-0.025018;0.05875901;0.0011539975;0.045085907;0.03302709;0.015742658;0.060733795;-0.04650565;-0.061816204;-0.031510632;-0.073265105;-0.044370037;0.024604362;0.0049954453;0.022272632;0.06453927;-0.03449266;-0.032442726;-0.04758556;-0.007831598;-0.014880145;0.0013655452;-0.011318181;-0.045694772;0.030966356;0.074122325;0.025135988;-0.023175176;-0.0092002;0.068435;-0.060511876;0.043996975;-0.02857287;-0.07032845;0.08886382;0.0137199545;-0.03564984;0.053791728;0.056562662;-0.040328518;0.018188218;0.00011560391;-0.0609727;-0.0041237366;0.008055188;-0.051230595;0.0124661885;-0.021273866;-0.0025112703;0.0024610022;0.010525215;-0.06456347;0.011967437;0.04071239;0.039639458;0.021389104;-0.048407957;0.041131612;0.02983053;0.017336106;0.0032945534;-0.047625847;-0.010119446;0.017298615;-0.009394905;0.021681443;0.041621275;0.025530249;0.023397962;0.017507274;0.058168452;-0.010803588;0.045181464;-0.008668081;-0.029132642;-0.055251304;-0.03521157;0.01647484;-0.03778763;-0.04986706;-0.044272296;0.06878098;0.053236425;-0.04446342;0.04414328;-0.009185552;0.029216385;-0.0473667;0.052119397;0.03677893;-0.032912858;-0.037216436;-0.01723361;-0.0078455955;-0.036619507;0.019573769;-0.017466333;-0.024087524;-0.07261982;0.03923743;-0.034603994;-0.009526993;0.00046048942;0.01607573;-0.041909978;-0.0235577;-0.019227445;-0.02913217;-0.0011129759;0.041377805;-0.03056633;-0.0524319;-0.03170666;0.010191961;-0.03471295;-0.048583332;0.003277661;-0.017418837;-0.03764068;-0.0013340282;-0.020351594;-0.07237118;-0.04420379;0.022025008;0.047858592;0.054563913;-0.035366412;0.07486367;0.06790773;-0.03404038;-0.017733473;-0.021747729;-0.024110464;-0.05703219;0.038785104;-0.025645658;-0.028323185;0.0050963573;0.017798657;-0.04503086;-0.036676735;-0.05676216;-0.05466916;-0.0031952027;0.029318476;-0.04066336;-0.0900689;0.03186262;-0.04958955;0.028120443;-0.03094441;-0.016914122;-0.027580876;-0.013076638;0.023482572;-0.00013861997;-0.02723732;-0.036201358;-0.05407327;-0.0101615945;0.037589915;-0.015785463;-0.020879606;-0.041704126;0.030131387;0.06442965;-0.03705018;-0.06711286;-0.00915044;0.023604272;0.04384073;0.044014215;-0.030687975;0.029540077;0.03632168;0.007066169;0.027860884;0.04407144;0.011584799;0.03552335;0.020470701;0.060101412;-0.041135106;0.030446883;-0.038513903;-0.051246304;-0.025162496;0.039032485;-0.03645396;0.01291033;0.0072732456;0.022771774;0.046099357;2.1236337e-05;0.01700523;0.054478243;-0.022603748;-0.031141287;-0.01926118;-0.040134273;-0.028111832;0.037369095;0.013034636;0.026919693;0.038362563;-0.048730385;0.04738161;0.0070073036;-0.0038277686;-0.032915488;-0.038810372;-0.0493403;-0.022982493;-0.013737089;-0.027773667;-0.012239685;0.049205612;0.01413779;0.014214087;-0.04533287;-0.0016630815;0.028150268;-0.041078392;-0.017954301;-0.023121119;0.021530794;0.036030725;-0.0035512068;-0.04530208;0.035332534;0.04176547;0.026752036;0.031038107;0.0042034173;-0.036380146;-0.037848;0.010299259;0.005827959;0.014554792;0.047767963;0.007824631;0.026928613;-0.037901297;-0.02296446;0.005260899;0.0019055153;0.0028514664;-0.06945839;-0.039148442;-0.016685765;0.047186967;0.03293289;-0.032660645;-0.04094768;-0.040559854;0.044419564;0.018778684;0.026053699;-0.03530303;-0.024195002;-0.018932967;-0.013669561;0.041449875;-0.060569406;0.044221863;-0.018045243;0.04746347;-0.027889058;-0.022926873;-0.051645797;-0.059050757;-0.007718163;-0.051072914;-0.009589052;-0.03928183;0.032937717;-0.042201746;0.03953274;-0.022192474;0.01983339;-0.027680399;-0.054718927;-0.0009246643;-0.05034707;-0.029455023;-0.0067551006;-0.041390773;-0.037206348;-0.0043085995;0.016239455;0.009636472;-0.046130273;0.033989716;-0.002159909;-0.03347081;-0.01824274;-0.018408151;-0.03779547;-0.047756795;0.04253402;0.0072699543;0.0003654034;-0.030505292;0.00037510548;0.0072183646;-0.012392758;-0.012113564;0.015639728;-0.07383176;-0.013296821;0.0076077306;-0.005468655;-0.015012936;0.008658535;0.034715347;0.043013923;-0.010509914;0.0049295695;0.030446555;-0.07392784;-0.036090232;0.044375595;0.000109840534;0.027823875;-0.038970243;-0.042166304;0.023426048;0.031861573;-0.021868983;0.043056566;-0.04095293;-0.018781163;0.038580447;0.001206514;-0.07248391;-0.04889114;-0.0025074095;-0.034971956;0.012952685;-0.0009906507;-0.055867147;0.001211975;-0.08879158;-0.03428371;-0.04591783;-0.05030065;0.045060843;-0.025772799;-0.067558534;-0.023416394;-0.009122195;-0.042217486;-0.07182362;-0.07950466;0.035755266;0.021487797;-0.01540317;0.031665;0.047272447;0.058140106;-0.0052995887;-0.02318987;-0.03011641;0.041595142;-0.037942916;-0.0076000956;-0.054032188;0.014142322;0.013474713;0.02902427;-0.020159956;0.040553506;0.007196954;-0.005543947;0.011468067;-0.0067283534;-0.0042570503;-0.007477229;0.037320122;0.04463129;-0.00051136495;-0.03551661;-0.039274313;-0.012592638;0.023664149;-0.00025206513;0.026800688;0.044318445;-0.0030778241;-0.028487243;0.05810274;-0.036528677;-0.0035670951;0.07045201;-0.0041852933;-0.012837479;-0.018996766;0.026786879;-0.05144594;-0.027811185;-0.04569819;0.0031784493;0.024415268;-0.019460065;-0.008254693;0.04060122;-0.0032487123;0.038431503;-0.016927237;-0.02251893;0.04921366;0.01183104;0.0024701217;-0.046462934;0.014619237;-0.00011325604;-0.017388497;-0.04474845;-0.038708113;-0.03673362;0.038481366;0.044626568;0.03131774;-0.02948915;0.076928236;0.0030169971;-0.013981124;-0.009224098;0.012617262;0.014548111;-0.052381337;0.008806643;0.021685017;0.054048806;0.032442763;0.070787534;0.026393259;0.06437708;-0.0098342495;0.020516947;0.030101426;-0.022685658;-0.054034233;-0.028465852;-0.052888054;-0.012720425;0.044254173;-0.038866423;-0.066056415;0.03961897;-0.002307485;-0.035753865;-0.0031252007;-0.020394303;-0.014860271;-0.0077403006;-0.008548038;-0.016322337;-0.07903078;-0.01633425;0.0250121;0.017205564;-0.0059966506;-0.03762417;0.0043776315;-0.028023886;-0.0032059401;-0.028472256;0.052863885;-0.02138445;-0.019625755;0.0016728648;0.016196387;-0.036489263;0.03419633;-0.022489958;-0.031704724;0.030606328;-0.024319781;0.012423182;0.0034066522;0.0006220133;-0.07818672;-0.04555697;0.059117343;0.02496442;0.041847393;0.040393822;0.02831147;0.064782135;-0.037995316;0.01795977;0.017131316;0.034062587;-0.04831404;0.0006916254;-0.054011773;-0.0051917303;-0.0431143;-0.0027874988;-0.07914713;-0.03988548;-0.00805884;0.039271772;-0.020237185;0.0219811;0.01651115;0.054074362;0.042829085;-0.023698991;0.01875237;0.025947483;-0.054270025;-0.059719216;0.05492728;-0.0019637335;-0.03722488;0.056319594;-0.009103997;-0.011158513;-0.07785791;0.007457101;0.0027621489;-0.02462338;0.0075477404;0.017120428;0.026551854;0.022645999;-0.0011559911;0.04053791;0.025406502;-0.037351828;0.034036078;-0.044213846;0.035614677;-0.059006955;-0.003181095;-0.04377877;-0.012842427;-0.044285797;0.029538754;0.038827956;-0.0067846337;0.048941396;0.0377414;-0.020193942;0.023658413;-0.015774325;0.0043814196;0.02416452;0.015499374;0.029094772;-0.03782982;-0.060853288;0.013387776;0.028671438;-0.0033996874;-0.0039007075;-0.025913302;-0.031131007;0.00050843874;-0.023922272;-0.038162507;-0.06964803;-0.07894557;0.0011529597;-0.02186652;-0.0054869116;-0.011950638;0.014834242;0.008703729;-0.06331962;0.02574317;-0.019470068;-0.05407545;0.009683721;-0.052583247;0.008365977;0.024881452;0.014575164;0.014959168;-0.067760594;0.03518962;0.018700007;0.0014928416;-0.018048018;-0.01868359;-0.0053634327;0.008111837;0.029222779;0.05370025;0.047100056
1;-0.00045637228;-0.04962501;0.029818181;0.032225195;0.002392816;0.01988836;0.019937208;0.023425432;-0.0023534568;-0.010403763;0.03307792;0.023488272;0.031028047;0.04232047;0.036981896;-0.012547564;-0.012304054;0.00015816746;0.023736238;0.023788376;0.052370105;0.029289607;0.0046379054;0.02728402;-0.04841816;-0.046277795;-0.035635754;-0.05928838;0.04848974;-0.043689705;0.00096736924;-0.039502196;0.0017301752;-0.02114068;-0.0148211345;-0.051119745;0.03131809;0.006303991;-0.013271194;-0.004327274;-0.033481374;-0.041018352;-0.010008579;0.016782489;-0.04530115;-0.030997025;-0.041226953;0.01386299;0.052880805;-0.022078866;-0.018074293;-0.045866564;0.019446734;0.026707597;0.06936227;-0.022309959;0.008270825;0.03959783;-0.024140244;0.007868328;-0.0026666464;0.01290722;-0.03630014;0.029207872;-0.040111646;0.027398814;0.012111818;-0.04881554;-0.0054416717;0.013029038;-0.026884016;-0.0023746886;0.018917732;-0.055486597;0.0057066022;-0.004649256;-0.04680058;-0.0052560344;-0.007684512;-0.04966713;0.034760486;0.006458674;-0.005630718;0.023841169;-0.012974367;0.02727143;0.021500176;0.04250187;-0.05788075;0.0056644767;0.032307476;-0.027398136;-0.057510808;-0.011229978;-0.019274497;0.0013379441;0.025174944;-0.026609398;0.01791446;0.007477979;0.04658349;-0.020239452;0.050894123;-0.020468457;0.020098984;-0.047699556;-0.002770641;-0.0029868667;0.010853609;0.015967812;0.014110082;-0.025958423;0.057460364;0.017256564;0.018142777;0.07278075;0.0216954;0.027274331;0.04301813;0.032973286;0.011516186;0.050867163;0.040976368;-0.029999666;-0.043471698;0.020699076;0.063082404;0.019648524;0.017614564;-0.028366797;-0.0064192894;-0.030004507;-0.01344186;0.075192615;0.0018639121;0.024470849;-0.034037173;0.012904865;0.031984806;-0.009537206;-0.0046637263;-0.0074839504;-0.04007047;-0.017419875;0.047121942;-0.027661396;0.016372776;-0.00019726355;0.020791572;-0.022264458;-0.043498646;-0.021072485;-0.054086126;0.043995306;0.06086901;0.04731753;-0.013453275;0.008658149;0.020681754;0.060358375;0.016454889;0.014578484;-0.011309752;-0.035161424;-0.07255518;0.012155189;0.0032599915;-0.0016537383;0.033034287;0.012496338;-0.032285806;0.0065973536;0.04000339;0.03527663;0.0702133;-0.0044275583;0.006015307;-0.024872959;-0.031894304;0.03340268;0.056641888;-0.014762459;-0.006644944;-0.0010942343;-0.039650537;-0.026083201;0.016714655;0.011225512;-0.01891848;0.036521364;0.06013368;0.041653402;0.009485159;0.038688373;-0.008017845;-0.006000396;-0.035054788;0.011895837;-0.020163054;0.016263546;-0.018187925;0.04603658;0.045837775;0.037521787;-0.011597599;0.055113453;0.004366007;-0.00484913;-0.017560888;0.02546819;-0.06668496;0.0047217896;-0.04724584;-0.046140373;0.0067411955;0.004230872;-0.05799901;0.052029148;0.047201756;0.059815116;0.0008307242;-0.06104353;-0.055285472;0.0436098;-0.0445967;0.0035198238;0.008603621;0.011454961;-0.029251656;0.021596195;-0.023079483;-0.013292388;0.058733962;0.011017381;0.022494547;0.031941906;0.023236101;0.0012836846;-0.028316025;0.05332766;0.010256226;0.04262906;0.012887614;-0.005350344;0.03289197;-0.008125994;-0.009451414;-0.02082453;0.040338483;-0.0027820547;0.055609044;0.0066514853;0.02686944;-0.021407338;0.015527531;-0.024898417;0.04716401;0.016585747;0.020154912;-0.013524465;0.041396495;0.04001674;-0.02440207;-0.059602104;0.004009309;0.0051389877;-0.04510735;-0.025827436;0.03889632;0.027539944;-0.06886418;-0.036163494;0.005959678;-0.0034064008;-0.055536717;-0.007740185;0.0065816133;-0.04559113;-0.057908453;0.01904417;0.05044564;0.024288552;-0.044252694;0.014340523;-0.020941792;-0.021927804;0.010990383;0.014256028;-0.031239726;-0.052896135;0.030519867;0.03258648;0.012112695;0.017285647;0.07297895;0.021785343;0.020352954;0.0033607986;0.0008587706;0.018146561;0.032873906;-0.06844473;-0.06815576;-0.057831693;0.01888263;-0.004475364;-0.011326841;-0.04706152;-0.020818474;0.0056511154;0.021456065;0.021157674;-0.02445529;0.013179679;-0.027971232;-0.02438602;-0.026329543;-0.035127766;-0.08308427;-0.022023736;-0.059747636;-0.04654474;-0.058296487;-0.008070145;-0.050920125;0.03381301;-0.0022463873;-0.024419472;0.01612225;-0.02874136;0.067176014;-0.023870537;-0.0017546762;0.031345215;-0.010147371;-0.016653638;-0.0025278488;0.028190145;-0.01687613;0.022112597;-0.011076193;0.0074148225;0.0058704177;-0.06010453;-0.021422857;-0.032476686;0.014176525;-0.027921164;-0.030402023;0.0039722864;-0.0743578;-0.05458818;0.00016785006;-0.024275826;0.012058796;-0.009398876;-0.0024839516;-0.014095276;0.008032142;-0.055903193;0.015445728;0.0059595886;0.016522957;-0.029145071;0.026068004;0.05334305;0.020594107;0.030633278;0.01612514;0.080751814;0.00042892798;0.0065497044;0.007659238;-0.049277447;-0.007905779;-0.023658587;-0.017494187;0.026797734;-0.0156110255;-0.049776964;0.011949809;0.027671937;-0.037436854;-0.021672294;-0.018540185;-0.050571073;-0.003872845;-0.044160884;-0.04021395;-0.032507077;-0.06090612;-0.0154136615;0.035605643;-0.06543436;-0.019576525;-0.017754847;-0.0100442935;-0.011708801;-0.04889537;-0.0018932533;-0.019460386;0.0078934245;-0.020333415;0.020490665;-0.012159618;0.03804681;-0.043708067;9.8560326e-05;-0.030203866;-0.021619748;-0.0051526525;-0.017388135;0.05263457;-0.029370504;0.07375508;0.023554422;0.015565774;-0.006180441;0.0543082;0.0021856476;-0.021049699;-0.009900769;-0.009821805;0.048827663;0.011711447;0.044580568;-0.04031353;-0.009116367;-0.04508539;-0.021630954;-0.02176195;0.013101693;-0.020847313;0.054960012;-0.01643044;-0.02748943;-0.035607602;-0.033053055;0.043123327;-0.0025667746;-0.01374842;0.038356233;-0.008158887;0.03658108;0.013495564;0.002888122;-0.0014365594;0.01203412;0.08688644;0.08305611;0.041500326;-0.036743123;-0.03725672;0.031348456;-0.030100243;0.015575375;0.04509579;-0.031197375;0.04300486;0.033730358;-0.0002819655;0.054704215;0.019629441;-0.016105922;0.06175064;0.1091521;-0.010733543;0.0067717875;0.07584872;-0.04271946;-0.014099068;-0.009460176;-0.0052581117;-0.0036484299;-0.05437682;0.006744918;0.019562183;-0.07044467;0.0004917288;0.04905373;-0.027919382;0.01846305;-0.046723496;-0.014548287;0.0023137734;-0.009562102;0.009413459;0.030042144;-0.04688795;0.022607513;-0.010790218;-0.027627107;0.06935084;-0.027793813;0.008767187;0.039796688;-0.012363833;-0.024203401;0.0061330497;-0.007467344;-0.024974577;0.036029056;0.03328054;0.021192856;0.02398494;0.014292727;0.000758264;0.008016347;-0.013382642;-0.022563202;-0.037142377;0.011302863;-0.04427898;0.034088105;0.043868087;0.061210513;-0.019988922;0.021721382;-0.003521984;0.021693839;0.055658177;0.040066134;0.017498067;-0.02353586;-0.04316984;-0.02428532;0.020717017;0.035605073;-0.042503152;-0.021599974;-0.03520739;-0.03211618;0.005632272;-0.020173648;-0.03625671;-0.027618414;0.032613613;-0.008691546;0.024282822;0.024273297;0.027727598;-0.029185785;-0.012154343;-0.05209308;-0.058970034;-0.040612265;-0.045700956;-0.02826765;-0.025125483;0.029536905;-0.050227605;0.038261153;-0.014295034;0.022874335;-0.044727143;-0.03746743;-0.0007565826;-0.058516614;0.016408348;-0.021717723;0.024405729;-0.030887535;-0.019525118;-0.0031369363;0.009406626;-0.0045780805;-0.04161169;0.021893207;0.0608243;-0.0152316615;0.021536343;0.00316158;-0.043044694;0.03870955;-0.003156195;-0.03520292;0.0105630215;0.024920536;0.01426227;0.016690642;-0.025769684;0.044077273;0.019461932;-0.026988432;-0.020975629;-0.02771414;0.05380583;-0.03289783;-0.0060003917;0.0074559655;-0.0078508295;0.0044689095;0.035761125;0.0010645848;0.04507039;-0.027165318;0.011632963;-0.020904884;-0.041171953;-0.06453594;-0.05838611;0.0013219555;0.009176408;0.036390312;-0.010774809;0.0075122514;0.03166377;0.030010454;0.021264957;0.027154878;-0.014034393;-0.05114028;0.03932414;-0.023903597;-0.0031069934;0.007458504;-0.008987686;0.02293899;0.010362245;0.029956196;-0.033228926;-0.051236484;-0.0073141134;-0.050242588;0.038338356;0.019864634;-0.022915175;0.0061851963;-0.017456546;-0.040335122;0.033830583;-0.007814506;-0.022790974;0.010015671;-0.029010853;-0.045341834;-0.049761232;-0.02557241;-0.03772525;-0.055321526;-0.049998187;-0.049205422;0.016055338;-0.042965993;-0.001302826;-0.01153518;-0.031959865;0.0354132;0.02243894;-0.03247349;0.033766508;-0.02352013;0.023755249;-0.04503239;-0.058697175;0.05726043;0.009918039;0.050737917;0.023834871;0.013104491;0.01903538;0.014085261;0.0041328548;-0.0059970473;-0.038164876;-0.01599479;-0.056027766;-0.008290165;-0.007877266;-0.019146359;0.025780145;-0.008141392;0.0069015045;0.022185147;-0.052656602;0.023645127;0.0010440847;-0.04703095;0.06056826;-0.00473889;-0.0012631404;0.021846334;-0.009299337;-0.042689107;-0.053455528;0.020581523;-0.0008236738;-0.009846268;0.034943316;-0.002332049;0.017928123;0.008891875;-0.006217924;-0.037742097;-0.038446933;-0.008825983;0.002445258;-0.029331911;-0.015976934;-0.018347401;-0.038900536;0.022431381;0.006438307;-0.015776647;-0.0007929483;0.05537651;0.041155808;-0.013110107;0.0511139;0.022451412;-0.01982605;-0.026587104;-0.05520356;-0.01989068;-0.03187769;0.03314275;-0.060528327;-0.048806828;-0.0032039422;-0.0025760133;0.024749812;0.029490808;-0.06940882;-0.052845478;0.015886944;-0.070182964;0.02066095;0.06817189;-0.0014574704;0.021727476;0.012620204;0.09018776;0.02327399;0.022614295;0.0757722;0.08535665;-0.036232777;0.011070711;-0.017332291;0.035189122;0.03300124;0.04115836;0.03351326;-0.017571522;-0.0069854576;-0.01694957;-0.022156207;-0.044981897;-0.034926828;0.016238004;-0.024140818;0.017298864;-0.023444809;-0.011983614;-0.049570084;-0.072903566;-0.041290946;-0.04804257;-0.04839585;0.01831224;-0.05054333;-0.043373957;-0.048107766;0.038479656;0.01633239;-0.036367908;-0.023658155;-0.02793677;-0.013322479;-0.013370029;0.04201147;0.018150024;-0.034089833;0.029291118;-0.033433627;0.057680216;0.02120018;0.007064188;-0.023969209;0.044912796;-0.02777721;-0.0035886003;0.03679646;0.025144327;-0.02190729;0.030197902;-0.04815169;0.0033717568;-0.0034619549;0.0426846;-0.03131224;0.02089238;0.013294576;0.02917183;-0.023654887;0.009592262;-0.010544583;-0.06546017;-0.045097273;-0.05473603;0.034308337;-0.01477271;0.027584853;0.0126256365;-0.0055098766;0.0011622034;0.0010109256;-0.0366302;0.039594565;0.019956233;0.006687092;-0.019602621;7.0733266e-05;-0.08283557;0.031640083;-0.023161879;0.0124014225;-0.022098778;0.0028230257;-0.063047886;0.021208301;0.05672495;0.072027884;-0.036086872;0.036147773;-0.02758211;-0.011172286;-0.05463463;-0.053037435;0.065112084;0.03283198;0.043821942;-0.04167947;0.0025022032;0.024463806;-0.029107273;0.037782095;0.017778235;-0.00527009;-0.024397189;0.025143232;-0.040605612;-0.027126262;0.027680825;-0.00029929736;-0.030629281;-0.052424807;-0.006135226;0.029420644;0.04537477;-0.046447393;-0.05186312;0.054221835;0.034943487;0.007750152;0.015132838;0.051293172;0.020205606;0.020988379;0.04593541;0.041476805;0.012765765;0.031801354;-0.053073667;0.007246529;0.012584405;0.03220088;-0.053990927;0.009411724;-0.029801672;0.025213556;-0.0056051626;-0.019726887;-0.03730079;0.033001803;0.0024464522;-0.012463479;-0.014892198;0.010642293;-0.011671538;0.008353551;0.021717327;0.0067621293;0.041909564;-0.07434315;0.02751052;-0.062449288;-0.024580216;0.014006726;0.007080647;-0.033920113;-0.036881696;0.054320484;0.03185172;0.0053156177;0.037678905;0.032301035;0.025330154;-0.014502633;-0.031007143;-0.030610127;0.06850285;0.047780678;0.009013031;-0.016353097;0.04251235;-0.029384565;-0.053912655;0.013101332;-0.014595057;0.05301847;0.014007105;-0.011363882;-0.018422924;0.02986449;0.079909414;-0.019986158;-0.028774107;0.039334852;0.033332497;-0.007948167;0.0493788;0.052623052;0.057740863;0.0102661885;-0.05845852;0.05203061;0.050133068;-0.018361814;-0.03571122;0.045401443;-0.028890362;0.005149946;-0.008665965;0.015092132;0.038609996;0.00672143;-0.022213414;0.067090236;0.061010305;-0.039181568;0.023118041;-0.0044624624;-0.009320809;-0.0017133704;0.002820515;0.047452983;-0.046247467;0.032151442;-0.03942367;0.031154523;0.030686874;-0.018142551;0.02052252;-0.03517818;0.04121323;0.0053253537;-0.028572552;-0.011874829;0.03361928;0.021898326;0.00018786175;-0.0036736256;0.0027168298;0.05514893;-0.025049467;-0.039906573;0.011892255;-0.010961307;0.0032156352;0.0458798;-0.010414699;0.032246683;0.05586901;0.044606864;0.057279024;-0.020145888;0.026523864;0.03219278;-0.030120168;-0.030170469;0.019148182;-0.011259725;0.008262787;-0.017810892;-0.02668307;-0.06475168;-0.048311904;0.047380853;0.017408399;-0.032878526;-0.023034029;-0.022965848;-0.007533533;-0.020372204;0.010927807;0.025714759;-1.9305415e-05;-0.03607747;-0.043707523;-0.007075783;0.011292338;-0.029406434;0.05441667;-0.022687402;-0.023748284;-0.03180091;-0.0017052675;-0.04812844;-0.055798102;-0.024449402;0.045791708;-0.05720223;1.8008555e-05;0.012554205;-0.066317506;-0.022205113;0.018811319;0.0555144;0.019648807;-0.008560544;0.010739254;0.025723878;0.012269198;-0.0018943062;0.012768416;0.02576945;-0.017671503;-0.020542925;0.004921966;-0.038837664;0.005386971;0.01740273;-0.028572405;-0.034621745;0.038765606;-0.03160761;0.018124077;-0.06341024;-0.008336476;0.0063043307;-0.023688015;0.0050191456;-0.043363474;-0.018010566;0.04212883;0.01955598;-0.023332627;-0.012295886;-0.03347206;-0.0016556085;0.003706501;0.050879747;0.05209269;0.06455799;0.034108557;-0.027805742;0.049482286;-0.029835848;-0.021458454;-0.037984762;-0.005627849;0.0062410305;0.0134538235;0.07090595;0.06259931;0.061934527;0.05415589;0.003185126;0.017359985;0.016926607;0.0135356495;-0.03733914;0.032815;0.014927133;0.017181914;-0.02456274;-0.0490422;-0.057410922;-0.0052446015;-0.059768684;0.012458448;-0.028282357;-0.063080765;-0.039152317;0.03688969;0.014314955;0.05807877;-0.0036460015;-0.04418703;0.02654219;-0.015330353;-0.048425317;0.0016749402;-0.061573934;-0.027724039;-0.00416418;0.008933445;-0.030446583;0.0005411088;-0.047761094;-0.005237693;-0.010224998;-0.0321456;0.035613652;-0.0043514553;-0.051191524;0.03567376;0.042995345;-0.020441785;-0.0018038591;-0.016376678;0.01809287;0.05277048;-0.03640323;-0.032251447;0.055567868;-0.031638086;0.046955034;-0.03096801;-0.01870111;-0.03677258;0.033223324;-0.03421611;-0.008678201;-0.008033816;-0.00096216897;0.016244734;0.04159119;-0.009760051;0.049125407;0.004147731;0.054164626;0.06651707;0.06270862;-0.0012433821;0.054307677;0.06809019;-0.026757915;-0.032822117;-0.0264021;0.01844745;0.010441606;-0.029844048;0.064567246;0.005743473;0.0003463644;0.017550252;-0.02657228;0.026355026;-0.030652583;-0.0064314483;0.059856802
2;0.00020429358;0.057558548;0.003422956;-0.023805732;-0.011537406;-0.017383575;0.0029565527;0.051653218;-0.017571708;-0.006470287;-0.033928704;0.03437615;-0.011684963;0.031640757;-0.018361911;-0.019559108;0.009457402;-0.034017272;0.020816876;0.015521786;0.03409944;-0.054393124;0.012904101;-0.0433332;-0.013468409;-0.03728591;-0.011213328;0.027916817;-0.007927767;-0.006167379;-0.010840171;0.0025201426;-0.02714294;0.0169027;-0.058683816;0.037350062;-0.012781083;0.049425937;-0.029043827;0.03728736;0.01296431;-0.041030638;-0.033021033;0.0050997706;-0.043870155;-0.073679395;-9.106571e-05;0.0067327437;0.017539697;0.013235417;0.00047603183;-0.013361788;0.034863766;-0.022879872;-0.020887904;-0.013219219;-0.04458066;-0.040963855;-0.01629176;0.021433348;-0.025356976;-0.0069890525;-0.021215936;-0.051501993;-0.030887822;-0.070141114;-0.06429122;0.04220424;-0.03080858;0.005474866;0.004550062;-0.042272255;0.0006688212;0.007583514;0.038081583;0.0074116862;0.041438736;0.004974061;-0.010251788;-0.036149915;-0.058030345;-0.022937948;0.032185066;0.0065698856;0.04817343;0.056443088;-0.028318927;-0.004929137;0.020251095;0.041338656;0.019635279;0.081145585;0.038896605;-0.021458464;0.029434653;-0.0028852655;0.030129014;-0.042608254;-0.014710056;0.008503263;-0.006890242;0.04262327;-0.0324137;0.03258497;-0.051606487;0.005965854;-0.015368577;-0.05042416;-0.028592322;-0.030695383;-0.055453982;0.0048780013;0.01634594;0.07101811;0.00792892;-0.018893292;0.009749473;0.025637094;-0.022085859;-0.017506381;0.020366069;0.033240464;0.043692023;0.030276615;-0.04137294;0.044929784;-0.036435768;-0.03288716;-0.011947481;-0.017018622;0.00829367;-0.030713473;-0.043341607;0.012086606;0.040922057;-0.0002823834;-0.0044023064;0.0064703804;0.020178638;-0.022718903;-0.022810513;0.004496898;-0.06329255;-0.044583987;0.014134194;-0.001457311;0.012240229;-0.028178072;0.028586488;-0.03895293;-0.06082188;-0.019263867;-0.013637711;0.008861896;-0.014750723;-0.033269178;0.018264527;-0.041463487;-0.075515926;-0.003568044;0.009302609;-0.04045669;-0.0566314;-0.023444239;0.019156443;0.003038202;-0.012808941;-0.052313276;0.027899476;-0.058566775;-0.019631473;0.027785411;-0.022908276;-0.0055019297;0.0028351452;-0.004913691;-0.0016104524;-0.050798874;-0.018045058;-0.014997777;0.032573033;-0.038007446;-0.009794488;-0.04910071;0.036775574;-0.0061301673;-0.07250217;0.053390637;-0.020988049;0.00828014;-0.043971892;-0.071890354;-0.05204145;-0.059668586;-0.0018637733;-0.080288135;-0.011376371;0.0025253906;-0.0450362;-0.039599445;0.018760437;0.033789087;-0.052559625;-0.0064404937;0.035258617;-0.053917225;-0.038363274;0.050083917;-0.038513858;0.01565955;0.016128324;0.03757767;-0.0071596177;0.013341754;0.012576946;-0.050375294;0.05041448;0.015468134;0.0061216108;0.013712254;-0.058380406;-0.016339358;-0.075098485;-0.07672541;-0.051699433;0.020104432;0.024597943;0.041771855;0.038696114;-0.0037560605;0.010518624;0.0071527725;0.07510223;-0.033222754;-0.0013704302;-0.07637051;0.020980492;0.028240992;-0.05847518;-0.04116489;-0.026511097;-0.010540273;-0.047343306;-0.005367556;0.023303688;0.011575803;-0.055928633;0.0006100208;-0.028946731;0.030664649;0.00719466;-0.002128032;-0.067983165;-0.026023101;0.011851128;-0.06609191;0.02422407;-0.022204265;-0.04932751;0.0395515;-0.037686765;0.011555642;-0.040814333;0.005606993;-0.023527488;-0.041456044;-0.007864014;-0.040231127;-0.0028213894;-0.059979886;-0.031780083;-0.033085056;0.00040224727;-0.025787875;-0.07095701;0.02411709;-0.008127722;-0.02133681;-0.0250014;-0.04457007;0.013534732;-0.00035232803;-0.021046283;-0.033750273;-0.025463454;0.017002923;-0.020785594;0.059787486;0.056595568;-0.04239371;-0.0040702694;0.046553228;-0.0465771;-0.04367743;-0.02542333;-0.019711677;0.008979283;-0.005484962;-0.031643387;-0.03545338;-0.03391397;-0.0077276807;0.00406689;0.035154596;0.009389433;0.0024589293;-0.008613305;0.029272826;-0.0018735207;0.045553457;-0.038521033;-0.01068532;-0.02460541;-0.062826864;0.028815528;-0.033285808;0.014172167;-0.042251483;-0.03250045;-0.0026533061;-0.005973748;0.014499556;0.021641158;-0.024820568;-0.050211634;0.036125403;-0.02734626;-0.034718316;0.03375476;0.019922573;0.0092778;-0.033016697;-0.014308258;0.029170653;-0.021564063;-0.0016743928;0.027036844;0.022182615;-0.052331883;-0.008587097;0.02185846;-0.019766342;0.05148226;0.007117257;0.017432924;0.024587583;0.040777355;0.011866868;0.010862328;-0.007412866;-0.004281858;-0.030122217;0.008088189;0.022774309;0.03788903;0.02809622;-0.020498376;-0.011996788;0.0024862855;-0.0048762127;0.014230838;-0.023857696;-0.049191184;-0.0034386043;-0.06849509;0.024498697;-0.021125304;-0.04106088;-0.03066169;0.032520104;0.064379595;-0.014717346;-0.009093289;-0.015332653;-0.00068164594;-0.03309367;-0.07567014;-0.023746766;-0.010346625;-0.019276628;-0.021515595;-0.053258218;0.011742815;-0.066031925;-0.044005856;-0.03223465;-0.0026348855;-0.009921135;0.032825492;0.031016612;-0.024192406;-0.022827998;0.0002499222;0.009157011;0.027732722;-0.009941547;-0.037798602;-0.0032905769;-0.015385377;-0.036081363;-0.03808509;0.0023183872;-0.037296116;-0.044383947;-0.02384074;0.017841259;-0.021904064;-0.004987345;-0.021173848;0.021544999;-0.009494557;0.00017396116;0.05316341;0.0029520802;0.027563337;-0.0105371075;0.01868201;0.030961005;-0.059476577;0.027341954;-0.06303162;-0.030242553;0.043295972;-0.034475528;-0.012392303;-0.0027696867;-0.0576256;-0.057273276;-0.043943126;-0.016132532;-0.045140825;0.022735111;0.03090114;-0.0008069691;0.011825887;-0.025369631;0.079004884;-0.014168565;-0.011041684;0.05286627;0.039675247;0.036878813;0.016310476;0.05175856;-0.038783398;-0.026842298;0.03419668;0.038394336;-0.004135173;-0.030366907;0.016689086;0.031364504;0.024865052;-0.006519624;0.039177038;0.03477423;0.016720664;0.024725912;-0.036632665;-0.037007146;0.0075434754;0.067889966;0.022659715;-0.07152896;0.048740827;0.022880396;0.012627782;0.044145398;0.018255211;0.01815957;-0.029555822;0.03961224;-0.0035340681;-0.038909286;0.01085378;0.014850343;-0.016172795;0.043760225;0.015823051;-0.02017298;0.016676685;-0.0018973405;0.009103457;0.008177737;-0.030348264;-0.04445256;-0.05957624;0.0215639;0.057883494;-0.019157415;0.011105355;0.015085199;0.018562375;0.060311537;-0.00018241891;0.012400812;0.04474931;0.0053649;0.015915932;-0.006345804;0.03074302;-0.02007282;0.043372437;0.04264864;-0.0037657141;-0.013185536;-0.0047792313;-0.027388958;-0.036685206;-0.02805572;0.03656894;-0.021805765;0.00027995877;-0.005842638;-0.046493564;0.036727916;0.045180187;-0.004017739;-0.069057874;0.030004105;-0.057387102;-0.052878663;-0.016279196;-0.02277918;-0.01521515;-0.05967125;0.00534059;0.031591054;-0.05142935;0.005875908;-0.016048752;-0.052744903;-0.06027639;-0.0782439;-0.0032788217;0.022723813;-0.0033209538;-0.006610018;0.009979221;-0.019497199;-0.02656887;-0.06306789;0.031280506;-0.05257017;-0.02525038;-0.06511063;0.010934502;-0.04314708;0.0037981432;-0.017792229;-0.017608806;-0.026943643;0.04165464;-0.04365552;-0.039341178;0.03624415;-0.023803247;-0.010302633;0.026629707;0.048417274;0.024591034;-0.026083268;0.044559337;-0.041192904;-0.0049060904;-0.047762968;-0.012750903;-0.0021311478;-0.02707529;0.044649515;0.04412338;-0.041592453;0.0016164648;-0.044613842;-0.028040048;0.020436358;-0.01322032;0.020496394;0.00568359;-0.026694914;0.022633536;-0.05469819;-0.045392543;-0.018345539;0.008497203;-0.03326093;0.038149215;-0.017008584;-0.0022523138;0.022165272;0.034513105;0.018178796;-0.04461132;0.038837116;0.044733647;0.023492828;0.035432044;0.013347207;0.0026501534;0.055146538;0.046330307;0.047724072;0.016249549;0.009363496;0.006679078;-0.051341362;0.0030739654;0.04349869;0.029164925;-0.0430084;0.041278437;0.0202766;-0.03694506;-0.0025342274;0.02900616;0.015853185;-0.040825143;-0.009891209;-0.014932578;-0.02787639;-0.016290065;-0.022313902;-0.028458918;0.012178356;-0.02380365;0.033110835;0.036924604;-0.026458895;-0.003881266;0.0237018;-0.027224801;0.033305682;-0.005854067;-0.042178452;0.04715203;-0.001629637;-0.073244035;0.004896362;-0.040892217;0.013118898;-0.051262073;-0.057967115;0.0141238095;-0.05900543;-0.03011994;0.035953287;-0.006832707;-0.039675727;-0.03622178;0.026059296;-0.03869321;0.0025635876;-0.032761082;-0.0061536;-0.005607492;0.001711679;0.046227846;0.033370867;0.0666566;-0.0072309067;0.026964553;-0.029350353;-0.04506422;-0.059707336;0.037154026;0.04392329;0.032242436;-0.0035537214;-0.004758722;-0.004136705;0.040367052;0.0476032;0.0041800863;0.035392072;-0.04044413;-0.013977816;0.041861348;0.070171565;-0.02122411;-0.04162039;-0.024560481;0.01355953;0.0351442;0.06421256;0.022094531;-0.011904722;-0.0048875427;-0.06056641;-0.06803105;-0.0027811795;-0.040838674;0.024224898;-0.044902124;-0.012762384;0.036988705;0.04095001;0.027764637;0.013563429;0.03885277;-0.06657316;-0.05925978;-0.017358903;-0.024704129;0.016812408;0.007271108;-0.0022992394;0.0043265573;0.0251767;-0.047550708;0.024719333;-0.020367058;-0.03782954;-0.008310969;0.021256087;0.022850115;-0.013506367;-0.04360571;-0.05602685;-0.008987314;-0.03176247;-0.0425833;-0.040512044;-0.013170175;-0.03430699;0.041948613;-0.055799823;-0.041541625;-0.018709045;-0.0330231;-0.062442612;-0.027645245;0.034749553;0.00043338953;0.066814475;0.056996383;0.032621637;-0.048461873;0.020009384;0.03453905;0.014746212;0.025500882;0.019288523;-0.0075708237;0.027394133;0.0030210516;-0.016956123;-0.031521212;0.017955909;-0.03652431;0.009785926;-0.01605125;-0.038742848;0.042541407;0.034259655;-0.0035989454;-0.056914583;-0.04851181;0.026556192;0.029988766;0.018817741;0.0010743341;0.03646591;0.030589884;0.03724478;0.004749079;-0.027989494;-0.045083728;-0.010453354;0.021921117;-0.035610758;-0.013357029;-0.013484002;-0.037421096;-0.044436082;-0.048799768;0.009729204;-0.029334944;-0.033618256;0.021529851;-0.047877643;-0.06321143;-0.05591169;-0.02309533;-0.042668805;-0.058330618;-0.06655913;-0.04124589;-0.052347828;0.010883858;-0.02341546;-0.06339468;-0.06805425;0.011952329;-0.012463058;0.02618429;-0.013431073;0.014787818;-0.0075296587;0.0416724;-0.029443314;-0.03485258;0.028293334;0.053034212;-0.04135839;-0.010892811;0.051155303;0.02089442;-0.04928916;0.035989504;0.023242988;-0.004206219;0.013380455;-0.049452852;0.025608253;-0.029729841;-0.023079032;-0.05075605;0.033632454;0.00012468688;0.0030650473;-0.023219954;-0.02461193;0.003793245;0.02533949;-0.038357805;0.013295184;-0.00338861;0.058164507;0.07261316;-0.012982139;-0.0355658;-0.008846482;-0.006305509;0.0019494845;0.0084851645;-0.050688468;-0.031549193;0.029208153;-0.006738789;-0.00448593;-0.017620418;0.03742546;-0.032341454;0.03780059;0.012645791;-0.047296856;0.012596183;-0.049690094;-0.06835029;-0.031825427;-0.062207658;-0.0008425982;-0.039397985;0.025180379;-0.025805417;-0.029909022;-0.0376716;0.018506283;-0.027581377;0.005643569;0.014228375;0.047711324;-0.0076536415;-0.021884415;0.026827551;-0.020620832;-0.0008141518;-0.033104785;0.026267203;0.0031256955;0.03845425;-0.030855868;0.04988888;0.004866824;-0.0684354;-0.01139855;0.02817368;-0.04652003;-0.05059969;-0.01569671;0.0029401476;-0.061943345;-0.043507837;0.06773622;0.035352945;-0.035491925;0.008570787;-0.023613969;0.0290924;-0.057552703;-0.012645834;-0.019821554;-0.019086897;0.0008805496;0.030553099;0.0033221021;0.036595117;0.042613108;-0.0393761;0.049274698;0.0064914552;-0.028249906;0.03587731;0.011649784;0.038192645;0.051231727;0.04135222;0.06086173;-0.023919104;0.0057202755;-0.005255409;-0.0038252552;0.0009982439;-0.011804586;-0.037750162;0.026396671;-0.04464405;-0.007083621;-0.029030085;-0.03976586;0.05280388;-0.008963276;0.0025274155;-0.0011173567;-0.03574389;-0.0521051;0.045141157;0.034245398;-0.048146278;-0.037085123;-2.0338332e-05;0.009783776;-0.059778925;-0.010788285;0.04271175;0.03643294;0.0054106335;-0.03177988;-0.019012924;0.00712067;0.02629196;-0.057506148;0.018460616;0.009114996;0.024554048;-0.032291356;-0.02699718;-0.016932;-0.0594592;-0.05818989;0.031244632;0.0010540393;-0.028065057;0.03368357;0.046441372;-0.005225536;0.04668534;0.038545713;0.0044403146;0.04064251;0.00022848278;0.009689343;-0.0059632794;-0.048223756;0.00971299;-0.034651924;0.020792447;0.039880503;0.021681849;0.008904646;-0.014598849;0.044375855;0.0043038144;-0.052976537;0.029358203;-0.046460316;-0.037133023;-0.006036063;0.014116029;-0.040964615;-0.051883794;0.009368491;-0.012410872;0.01555624;0.0005223714;-0.030707784;-0.0051869904;0.01780164;0.0073588933;0.034373607;-0.007133416;-0.0031014099;0.0045383233;0.057392675;-0.022515243;-0.0031714935;-0.021983106;-0.016622236;0.030053576;-0.018610157;0.01217637;-0.03717205;-0.060989123;-0.012347671;-0.0015772199;-0.013535396;0.028341264;-0.017544307;0.036436956;-0.05075677;-0.025196841;-0.012388353;-0.0011857136;0.0025989683;-0.033874054;0.016900342;0.035250288;0.041786086;0.013472669;-0.011742011;-0.011387225;0.023851624;-0.016274316;0.021514261;0.03425598;0.046984844;-0.04113282;-0.01184815;-0.023666812;-0.04585019;-0.034312494;-0.02410394;-0.037100308;-0.038632732;0.054465674;0.03262295;0.09489675;0.04047879;-0.0035343473;-0.013999278;0.06332422;0.016705334;-0.025257487;0.08660741;0.063338675;0.021729218;-0.036064677;-0.051300574;0.045771368;0.009631685;-0.01627988;0.03743842;-0.0076840175;0.031576652;0.041769404;0.011172035;0.020355452;-0.011245003;0.05082228;0.047301363;0.03951057;0.031439826;-0.01402198;0.0274475;0.07254469;0.017145718;-0.012849879;0.0484188;-0.037769776;0.015863707;-0.012053313;0.03628309;0.053163495;0.0018324074;0.053262766;-0.00050669763;0.029040731;-0.022284303;0.013271664;0.029681884;0.056334775;-0.014035292;0.04107781;0.030925442;-0.014706302;0.011754736;-0.0143274125;-0.053227156;0.007123138;0.011331256;-0.063308306;0.01102885;0.032518875;0.027395869;-0.04636182;-0.07640501;0.037609212;-0.0043184697;-0.07750599;-0.07124247;-0.06333732;0.0090693;-0.079749346;-0.016324757;-0.005857791;-0.0020273956;-0.057515636;-0.036417298;-0.00846744;0.053389877;-0.03484175;0.058706913;-0.014698832;-0.014548958;-0.024686493;0.04697304;-0.02462667;0.043324713;-0.00082406844;-0.018363928;0.008729151;0.021785395;0.00028079306;0.037224684;0.019030547;-0.015315429;-0.022627696;-0.034437936;0.00081029715;-0.012920639;0.041920792;-0.009457922;0.002154837;0.0139010465;-0.029607601;0.033686556;-0.026456336;0.05490148;0.02885926;-0.0025727933;-0.01048553;0.04046343;0.025412377;0.0095120575;-0.003699677;-0.02866785;-0.0038708474;0.03288176;0.023592975;-0.040587943;-0.01770185;-0.0070843585;-0.019781562
3;0.00027134875;-0.03487176;-0.069259085;-0.030860508;-0.043751787;0.025135657;0.026503664;-0.06545006;-0.046012156;-0.015239408;0.013303668;-0.013350696;-0.03572731;0.007520451;-0.011656031;-0.035028424;-0.04157628;0.01566422;0.020285316;0.027571557;0.01852149;-0.024130218;0.016498892;0.023843473;0.046662703;0.050448924;-0.027765626;0.051374987;-0.0008087088;-0.042406615;0.045619894;0.003889895;-0.027639655;0.020206926;-0.0017036545;-0.022802036;0.01647741;0.005536673;0.038452502;0.02840621;0.027591167;-0.010452678;0.029410738;-0.004811677;-0.03668164;0.004076831;0.011912064;-0.084589876;-0.026239045;0.014918648;-0.05319812;-0.050070252;-0.01643929;-0.032341946;0.05416901;-0.05213745;-0.012177267;-0.0030544088;0.025321808;-0.031038629;-0.03428282;-0.029395103;-0.028548036;0.034794535;0.009676962;-0.0034390183;-0.06418835;-0.003283574;0.040514693;-0.010268463;0.022470769;-0.038933113;-0.015918981;0.027002543;-0.011150271;0.011434568;0.04354052;0.016497372;-0.048406508;0.045610838;0.05388908;0.03134892;-0.029598853;0.018675156;0.03449102;-0.017185982;-0.0011997672;-0.025766298;-0.008436402;-0.014672748;0.011163243;-0.038526364;-0.035718877;-0.048609465;0.044107195;0.022372339;-0.028015202;0.038019303;-0.0062900838;0.008785985;0.02851368;-0.039417446;-0.018653186;0.02661806;-0.046523694;-0.0026397076;-0.055692263;-0.010233445;0.012789788;0.0026365027;-0.050867476;-0.03257597;0.01715928;-0.020396665;-0.023062712;-0.06351628;-0.04117117;0.02571098;0.0010371468;0.0016555446;0.03215793;-0.010425398;-0.019371668;-0.0015430109;-0.0021010202;0.05090993;-0.0007128896;-0.012142806;-0.043638114;0.0001917122;-0.035732348;-0.04417074;0.013549117;0.071815245;0.044601914;0.002162782;-0.055395845;-0.016368235;0.018904112;-0.06226199;0.018854432;0.0073523726;-0.05320406;-0.0027982567;-0.07864626;-0.0067248065;-0.0025261408;0.04520825;0.059084944;0.0432649;0.058125213;0.021925334;0.044378128;-0.034015138;0.04013127;-0.037740782;0.045021933;0.024659654;-0.031809878;-0.056485772;-0.04519738;-0.04623171;-0.046213053;-0.01601132;-0.008310744;0.0012393357;0.00699839;-0.06828852;-0.043339778;-0.023346165;0.033662792;0.026696276;-0.055135008;-0.02693171;-0.019187698;-0.023786552;-0.011746484;-0.02524899;-0.013933829;-0.0033661958;0.014925541;-0.005696977;0.0020470682;-0.041764528;-0.0032608681;-0.004876839;-0.012579906;0.03691242;0.017722297;0.054604366;-0.05061431;-0.068157665;0.00868251;-0.040586058;-0.05315034;-0.012209819;0.0019768705;-0.009266304;0.004216308;0.02345362;0.045808982;-0.015667226;-0.04394578;-0.046309117;-0.03596967;-0.0045761904;-0.021383239;-0.052475605;0.029866928;-0.052411698;0.021104233;0.029102905;-0.048943304;-0.048263207;-0.01313666;-0.03267213;0.005599192;0.028273512;-0.06945321;-0.03981368;0.012392498;-0.01903166;-0.01158381;-0.023600226;0.005663429;0.010101989;-0.017497184;-0.041792184;-0.04655167;-0.008195671;-0.04023859;-0.020457473;-0.06850148;-0.015302069;-0.036792554;0.0071406513;0.032637272;0.042167526;-0.047261734;-0.048673276;-0.025373125;-0.028989676;0.048524145;0.03334692;0.038614277;0.026584473;-0.02180796;-0.034417823;-0.02615596;-0.018428812;-0.03628198;-0.025113797;0.016041895;-0.02967322;-0.011520248;-0.04394925;0.036046416;0.06957493;0.046365023;0.025736127;0.01879118;0.07547353;-0.018754229;1.4102145e-05;-0.019687526;0.036001507;0.0090342695;0.008893869;0.028847082;-0.04030758;0.030155314;-0.054186456;-0.037290234;-0.059313457;-0.047551814;-0.055422254;-0.025473813;-0.0139344055;0.02596332;0.014570229;0.015925234;-0.0025650577;0.0047033997;-0.021414414;-0.04442714;0.029239045;-0.012613456;0.03195336;-0.009151912;0.03651018;0.0099268;0.0073226606;-0.040762052;-0.033815913;-0.011183099;-0.052965708;-0.0060904375;-0.001964393;-0.04107424;0.039801944;0.023126759;0.05958015;0.0065314476;-0.061406545;-0.004481693;0.0030802866;-0.05694397;-0.032346353;-0.0041389293;-0.0042520254;-0.056891833;-0.008241742;-0.047751132;0.006510369;-0.008885131;0.0378033;-0.028417429;-0.043748725;0.032913122;-0.016504483;-0.013462585;-0.005488724;-0.010668031;0.021278543;0.052833818;0.05845557;-0.015893485;0.036262937;0.008727863;-0.03622789;0.032732565;0.01324357;0.026393535;0.022761703;0.04950945;0.030314025;-0.003111799;-0.024194296;0.02615959;-0.024505414;-0.027971638;-0.035938375;0.004035289;0.031534914;-0.01600169;-0.027129602;-0.044809956;0.0116055515;-0.05707022;0.012223555;-0.02627982;-0.020961447;-0.008782084;-0.05580404;-0.047120452;0.04426922;-0.0030366587;-0.028465314;-0.005532658;-0.025794944;0.046680834;-0.032026056;0.031934008;0.010705934;0.0017052086;0.034232114;0.07324527;0.03633748;-0.026319113;0.0026335702;-0.0406812;-0.04828309;0.00628056;0.0071683535;-0.033970233;0.020980667;0.040542826;-0.07094183;-0.026150169;-0.018291082;-0.03962583;-0.050200712;-0.029795488;0.025296878;-0.0453215;-0.0024846974;-0.043409914;-0.048831247;-0.064896405;-0.007896811;-0.025765136;-0.036961395;-0.040828455;-0.036514994;0.0057172542;-0.0271314;0.0225447;0.04008613;0.03025616;0.0243752;-0.060937487;0.01620076;-0.025982697;0.017431406;0.015530369;0.016605292;0.024815166;-0.030317796;-0.017798686;0.0052813147;-0.0049686376;0.05569419;-0.008315172;0.012061717;-0.02737629;-0.02949439;-0.043545287;-0.0014613506;0.013044386;-0.014686904;-0.015633792;0.04730805;0.016307082;0.046476115;-0.049392402;0.012657287;-0.026476374;-0.024740094;0.003752683;-0.018518217;0.000270152;-0.002187218;0.009607761;0.0059468723;0.032807242;0.01697736;-0.044559892;-0.07488554;-0.057256065;0.0018113065;0.0020640008;-0.0063294675;-0.030328171;-0.011245029;-0.04343312;0.031051947;-0.013882745;0.054526925;-0.045843136;-0.03935306;-0.0003035679;0.0075081144;0.0020261516;-0.04672062;0.011821455;0.015452206;0.009632618;-0.039263222;-0.02245641;-0.05294698;0.048198204;-0.031407893;-0.027630383;-0.043812186;0.021706779;0.02928169;0.005801208;0.053466324;-0.011018882;-0.025775172;0.026219223;0.057242494;0.037557844;-0.006608585;0.0011035603;0.0070538768;-0.025642864;-0.022235785;0.0330048;-0.048250947;0.029736785;0.02125963;0.020730646;0.0167173;-0.045174897;-0.040592015;-0.042343993;0.002088423;0.01776804;0.015265725;-0.07092674;-0.040085383;0.044418935;0.010825801;0.06544689;-0.026119517;-0.03212752;0.033509135;0.03337801;-0.027983144;0.007958617;0.050811883;-0.017670108;0.017891996;0.040840577;-0.009016602;-0.01377118;-0.026037008;0.0039645582;0.03476443;-0.025797328;-0.034387268;-0.026245084;0.020941751;0.026929293;-0.033381585;0.017625675;0.045709524;0.04129715;0.04470947;0.011967579;0.02597173;0.013441458;-0.0062709353;-0.00611655;-0.025901508;-0.03164106;-0.0027196668;-0.03008597;0.02379019;-0.0065211346;-0.004782054;-0.01050853;-0.04055023;-0.050809033;0.036499076;-0.016144138;-0.029418375;-0.008458908;-0.0038141282;0.028983109;-0.06798773;-0.038697273;0.039037455;0.026506098;0.0014049205;-0.050853655;0.030692259;-0.01782069;0.003391422;0.026761005;-0.003194621;-0.04815358;0.04233616;-0.02656795;-0.023207732;-0.057279117;-0.05226068;-0.044682007;0.039735895;0.015354187;0.03153393;0.03290222;-0.059478477;0.016052146;0.022768363;0.031130126;-0.047247875;0.020203715;0.0015485224;-0.06347509;-0.047030624;-0.047603425;-0.023321085;-0.00406952;0.005612974;-0.009073368;0.036231495;-0.016787395;-0.021762753;0.021747101;-0.039701607;0.014045889;0.034376036;-0.00947323;0.037597813;-0.04602789;-0.028304523;-0.0540472;0.025881173;-0.01948251;-0.055058032;-0.029903669;-0.009195081;0.024188582;0.009911936;0.018638209;0.054935966;-0.05705728;0.03164164;-0.03992554;0.043865003;0.016518975;0.021533879;-0.018207505;0.058591448;-0.021146554;0.07154606;0.053684726;0.058721095;0.013851499;0.023213085;0.0025159945;-0.081372514;-0.026439028;-0.04305712;-0.02667816;0.01811748;0.01910626;-0.032641843;0.00069675036;-0.0023103745;0.008425959;0.027427996;0.06314698;-0.03256597;0.055743374;0.03608713;0.032633245;0.05270788;-0.022497175;0.007874419;-0.05001303;-0.03838338;0.015385306;-0.06303656;-0.0091459835;-0.023012677;-0.042726822;-0.03308079;-0.030718803;-0.03286594;-0.027624018;-0.0018734154;0.026422026;0.020670515;-0.019494276;0.015788835;0.018473655;0.019328889;-0.047862224;-0.04380551;0.034892496;0.004117183;-0.012336732;-0.03448965;-0.0032878977;-0.038105663;-0.028867075;0.014583874;-0.029991036;0.016881252;0.032423045;0.004629382;0.028173983;-0.074837185;-0.017380537;0.011930112;-0.058775958;-0.009277576;-0.050230276;-0.028285954;0.041393522;-0.042239018;-0.054265875;0.018596955;0.036730092;-0.01886191;0.045338172;-0.008257401;0.02829528;-0.014205242;0.041042566;0.0377219;0.030301258;0.030630777;0.0052403025;-0.032416727;-0.030014707;-0.01635725;-0.025791721;0.05304944;0.015863508;0.029903501;0.05077195;-0.022933975;-0.014603744;0.023495093;0.015630715;-0.04969192;-0.03682971;-0.013248174;-0.00079850253;0.0557792;-0.028237512;0.08349931;0.0029762196;-0.07129796;-0.022666087;0.0031142242;-0.026344929;-0.0182201;0.034956917;-0.030264974;0.05815937;0.045123108;0.038938753;0.025520531;-0.015258004;-0.0041867374;0.017059607;-0.0091723865;0.016729353;0.039735314;0.032517236;-0.018550923;0.0045693316;-0.036510926;0.024364304;-0.0065079024;0.011249141;-0.029566593;0.013440616;-0.010390572;-0.041894797;0.030900888;-0.018913893;-0.029545622;0.023723831;-0.01820554;-0.030909305;-0.026636375;-0.016390767;-0.020692313;-0.060105722;-0.046625532;-0.011118025;-0.056203157;-0.026042711;-0.029664168;0.020708755;-0.008211384;0.035452668;0.037013058;0.0349842;-0.05451348;-0.015569237;0.026746364;-0.028859187;0.0029895813;-0.023337997;-0.009970039;0.010590485;-0.056015998;-0.03271446;0.035393573;-0.013315045;7.443497e-05;0.0010047865;0.00043060756;-0.0069908546;0.008991004;0.03512914;0.0063616745;0.032438472;0.03125842;-0.020360475;-0.039087873;-0.003647276;-0.052047644;-0.051575325;0.0371742;-0.040706936;-0.02412731;0.0025819333;-0.027322533;-0.054684028;0.011781763;-0.014332268;-0.031784717;-0.03492844;0.027768014;0.04238777;0.005835476;-0.013245856;0.012118635;-0.037983153;-0.0013109009;-0.02765092;-0.040634755;0.051607177;-0.0073008616;-0.00323488;-0.037797924;-0.0021785612;-0.04535348;-0.055905495;-0.05215085;0.0067741466;-0.05392325;0.012345669;0.039225705;-0.00573653;0.052481573;0.049521074;0.004466933;-0.006214541;-0.020760318;0.0024517488;0.026246;0.019870963;-0.018242644;-0.02620298;-0.03628795;0.062037885;0.002118924;0.0028826694;-0.04533034;-0.043998357;0.019654717;0.034244478;-0.06305289;-0.01385282;-0.022298846;0.026901608;0.008461661;-0.06568428;0.043602303;0.00020187232;0.021746252;0.042649843;0.042434193;0.01735675;-0.056804176;0.022950059;-0.011606675;-0.05525675;-0.0015200276;0.057344355;-0.06726996;0.023966119;-0.03372574;0.030645464;-0.036698684;-0.027857242;-0.047391325;-0.031961665;0.004549047;-0.03493721;-0.014465307;-0.03343889;0.053639565;0.048262693;-0.008034733;-0.029095652;-0.0040951907;-0.021958094;-0.024037722;-0.01700433;-0.0015477859;-0.043801773;-0.033653755;-0.009946455;-0.052371804;-0.012633624;-0.010881786;-0.047644585;-0.049995482;-0.024996309;0.017702643;0.03854299;-0.032860722;-0.061563935;-0.029558303;-0.021529952;0.046041116;-0.033776224;-0.041671827;0.04149508;0.0053461045;-0.010871918;-0.023261108;0.049567252;-0.030563403;-0.066846386;0.037629563;0.038303103;-0.05573677;0.028938124;0.029446844;-0.021736696;0.0026674492;0.02244098;-0.03983866;0.036493707;-0.008836125;-0.008670796;0.07532738;0.03144858;-0.037643347;-0.035835084;0.004042739;-0.043891247;-0.0010456297;0.03564875;-0.04940817;0.002472785;0.01688318;0.012104373;-0.04216147;-0.04682575;0.033315662;-0.03499079;-0.042715833;0.0026491415;0.0037641737;-0.001452242;0.035578493;-0.05606187;0.0031033475;0.020620974;0.030942675;-0.055105925;-0.020429686;0.03795382;0.026362242;0.030724382;-0.006717205;-0.011290731;-0.02863707;-0.051602706;0.017014444;-0.02357616;-0.017501952;0.042193647;0.0009859249;0.04434315;-0.050200965;-0.04912555;0.049565706;0.019712126;-0.03105253;-0.018891856;0.027604787;-0.01323408;-0.019602189;-0.067881845;0.01818476;0.0016128874;-0.069101885;-0.08471925;-0.04747891;-0.03886647;0.008968198;0.033251606;0.037354454;0.014669916;0.012163456;0.0065014297;0.023451518;0.013660406;0.06157475;0.011952856;0.009069714;-0.071234174;0.0072135213;-0.061918765;-0.04729851;-0.07116729;-0.019337554;0.014840758;-0.007190072;-0.042552076;-0.038359784;-0.0064402274;-0.033926863;0.04533329;-0.017329438;-0.037673213;0.002870659;-0.0070089144;-0.019827055;0.02397866;-0.0056883628;-0.019691251;0.017832343;0.03153792;0.0052667954;-0.030781094;0.039337862;-0.003500769;0.030760031;0.017391013;-0.025185617;0.019897955;-0.06774388;-0.0077733826;0.006910727;-0.03815415;0.05165058;-0.048086952;-0.036257338;-0.031584572;-0.026541093;0.015250755;-0.06338575;-0.026452214;-0.0028701238;-0.01219712;0.02306906;-0.001959059;0.04193529;0.049604144;0.028091395;0.0193551;0.037741933;0.034440126;-0.004936409;0.012995112;-0.04346198;0.01895666;-0.048806675;0.017298637;0.008276593;0.0057621496;-0.00074502575;-0.045929648;-0.038409173;0.007018403;-0.004194158;0.0255203;-0.037321765;0.0029125228;0.0017242439;-0.013337003;-0.02686477;0.0045612003;0.03783476;0.037436917;-0.032618556;-0.007277538;0.028154295;-0.01739556;0.0069517693;-0.011519606;-0.02646174;-0.024495874;-0.050831854;-0.03955582;-0.012375961;0.040054433;0.004116383;0.04381842;0.025244297;0.010547874;-0.0297725;0.023283053;-0.012887111;0.026994755;0.017905518;-0.024985658;0.003588176;0.05251452;-0.0058499156;-0.010278198;0.05144468;0.031660985;0.078157604;-0.029650318;0.07863418;0.019444618;0.012719313;0.03436747;0.059742875;-0.013595008;0.019689465;-0.040941205;0.012098331;0.044862885;-0.001199526;-0.03946872;-0.05499533;-0.071607344;0.012399745;-0.0062241964;0.01372145;0.027154284;-0.04344675;-0.01435982;-0.013284675;0.029124534;-0.013608178;-0.0030264524;-0.04213953;0.021675443;-0.004815093;0.0037279124;-0.026973207;0.021434857;-0.01893081;0.040669918;0.04012774;-0.022333777;-0.05835603;0.027936839;0.037757844;0.028070388;-0.007862938;-0.037280723;-0.03422178;0.027359204;-0.02331348;-0.024728816;-0.032604963;-0.04936081;-0.00051592407;-0.032200795;-0.015843278;0.008143563;-0.0037883844;-0.030282922;0.031731308;0.041970894;-0.020681808;-0.051413197;0.04800443;0.017971631;0.008627408;0.0066484176;0.04027476;0.017951785;0.019033365;0.0080847945;0.02252131;-0.0029708296;-0.07120047;0.0070089884;0.049592614;0.009908161;0.028162654;-0.010952356;0.0014937352;0.0021451479
4;-0.0011723931;0.02485232;-0.03148194;-0.048025776;0.05150744;-0.0032451795;0.036205105;0.029476792;0.02612819;0.0013480424;-0.066894345;-0.035608206;0.017461075;-0.048234086;0.038678855;0.01893474;0.0053303754;0.01409239;0.009618335;-0.0003872646;-0.037237063;-0.022085698;-0.033776563;-0.04294752;-0.0155442795;0.018752553;0.017510105;0.017347304;0.007645173;-0.050342225;-0.037124753;-0.07634846;-0.05444908;0.021768812;-0.010304963;-0.020523503;0.0046098176;-0.0014891642;-0.0055553853;-0.02014815;-0.04186283;0.028334765;-0.042457025;-0.014760778;-0.0049789133;-0.041720945;0.015256887;0.050531395;-0.010148964;0.03136407;0.04849427;-0.035878155;-0.037461415;0.03993512;-0.024252828;0.0389109;0.011886773;0.036284063;0.022969889;0.068492286;0.04225891;-0.021882052;-0.026600722;0.038325552;0.013513173;-0.04054165;0.040442206;0.0064566117;0.02352852;-0.062063858;-0.050103653;0.002186812;-0.022231802;0.035716984;0.05060397;0.0074421777;0.05823946;-0.029612971;0.038780637;-0.028509652;0.007113323;-0.029777037;0.0020397587;-0.038695853;-0.057407267;-0.020432383;-0.054832097;-0.041324537;-0.009572062;-0.014123305;-0.01575994;0.020618223;-0.02721125;0.04394623;0.017372916;-0.060862117;-0.060433038;-0.025964765;-0.005339194;0.043127496;0.0032739418;0.045402523;0.057620563;0.082076095;0.076045714;-0.0015340846;-0.014036844;0.038626112;-0.04430813;0.009539378;-0.003970463;-0.011177881;0.050914116;0.054792024;-0.04958678;0.043708034;0.040185712;-0.03467721;0.018672252;0.0079307975;-0.020562263;-0.044499654;0.02564035;-0.026044149;-0.040714268;-0.07141373;-0.012100241;-0.027281953;0.0013983543;-0.029437404;0.013829893;-0.007234647;-0.003353231;0.018236531;0.03100632;-0.05930217;0.041678846;-0.019130856;-0.037494056;0.03004159;0.03278266;0.010841638;-0.01240318;0.0055391244;-0.027745755;0.01823299;0.006228351;0.045717247;-0.03740285;0.038423944;-0.054625835;0.0234751;-0.050048932;-0.063062236;-0.035771966;0.046605412;0.035736416;-0.02634091;-0.007333988;-0.05980954;-0.0048429174;-0.005497596;-0.023634115;-0.017951066;-0.048182596;-0.018635038;-0.02544543;0.022582712;-0.033530224;0.013835239;-0.045243345;0.02979247;-0.025804542;0.03390784;-0.07046247;-0.006424066;0.024027303;0.014849857;0.0042267046;-0.019113531;0.011286701;-0.020994373;-0.017046904;-0.0062522287;-0.0069944058;-0.053858757;-0.044057507;0.0016219595;-0.028095033;-0.051820993;-0.019992366;-0.025095558;0.0017287495;0.003031983;-0.04807514;-0.008874144;-0.034815527;-0.06977088;-0.027339881;0.041812457;0.038497966;-0.010508703;0.0052080303;-0.06511852;-0.015215751;0.034217495;-0.08909887;-0.08505861;0.014561403;-0.0031903542;0.0021736592;0.058620032;0.0075036637;0.023716455;0.056102466;-0.017790468;0.020051874;-0.043489464;0.017665338;-0.016635526;-0.03388038;-0.061024576;-0.031749982;0.010392014;-0.04348893;-0.06418256;0.036927424;-0.020964984;-0.010525122;-0.0065507335;0.0068707736;-0.0530236;0.014847778;0.013661672;0.045676034;-0.046850197;0.009669843;-0.007310055;-0.03033594;-0.019079823;-0.04523145;0.020846665;-0.035877462;0.027245713;0.046276953;0.036127735;-0.017177597;0.01897494;0.021998243;0.019356022;-0.039302014;0.010495092;0.02867602;0.05495427;-0.031390663;0.0356159;-0.043229006;-0.043644182;0.010383945;-0.0061819134;0.012135432;0.048777122;-0.012354695;-0.036620617;-0.008894032;0.041072235;-0.025102247;-0.05182482;0.058151856;-0.02196229;-0.0029332612;0.022447754;0.025338477;-0.022625564;-0.017524824;0.043881662;0.033474762;0.0020634031;0.025302818;-0.057502907;-0.029271388;-0.015931379;-0.031165646;0.03328969;-0.056831196;0.026464885;-0.036793876;0.01463615;-0.044162624;0.060230426;0.060752306;0.033149995;0.040245164;0.049675085;-0.014178126;-0.031950295;0.04614813;0.011037713;-0.058341723;0.052271627;-0.023014208;-0.030821621;-0.032552097;-0.03340861;0.004469733;0.029060787;-0.039252535;-0.03403774;0.026647605;0.056488648;0.042102776;0.020096015;0.033315994;-0.021119488;-0.04069339;-0.053997666;-0.047628842;-0.0587595;0.032099396;0.05179359;-0.0069707506;-0.04198548;0.024739578;-0.007096262;-0.014782836;0.020632183;0.019997044;-0.050285302;0.05635124;0.010451589;-0.0052067596;0.022732424;0.049767595;-0.03257242;0.02928424;-0.03844266;-0.0219987;-0.0565152;0.0553977;-0.031797957;0.026445473;-0.013239374;-0.041171607;-0.0660818;0.006274044;0.013685453;0.02439305;-0.046954617;-0.001706987;0.055541523;0.025198225;0.0403603;0.0033903802;0.023192288;-0.034623712;-0.03190263;0.0040643425;0.008931203;0.0299435;-0.006862899;-0.010382861;0.044559233;0.04727945;0.053189896;0.01375391;-0.051920388;-0.017212199;0.0050999015;-0.009406059;-0.013714686;0.016444858;0.017491609;0.055533137;0.043087855;0.021788592;0.009673538;-0.019363577;0.011328959;0.046371166;-0.0107786935;-0.0592735;-0.03754273;-0.02593572;-0.005904146;-0.031285357;-1.5787453e-05;0.013389933;-0.053367905;-0.0192994;0.031451643;0.05502399;-0.005563667;-0.024360562;0.05029872;0.011345112;0.023306692;-0.009595607;-0.016564462;0.039149925;0.03422695;0.021420453;0.021851262;-0.0065118936;0.0018506561;0.030320562;0.010167522;-0.012038816;0.009520328;0.011071373;-0.0040377597;0.02566731;-0.046548344;-0.046972208;-0.027741507;-0.022694565;-0.030857267;-0.00018602255;-0.058404386;-0.039893653;-0.028134018;-0.034333084;0.017916998;-0.027563587;-0.04043605;0.03143717;-0.000830779;-0.00018262326;-0.047542598;-0.065431304;-0.051001377;-0.017900962;0.0014124676;0.010170567;-0.04760387;0.032870345;0.033299137;0.011578438;0.034647305;0.024728138;0.043088596;0.07452634;0.023967069;0.011954202;-0.025976956;0.032998182;0.013514373;0.0050188377;-0.04799311;0.0010595327;-0.034184113;-0.040196132;0.046191927;-0.047748864;-0.05466762;-0.01656767;-0.049723193;-0.00041846232;0.017156458;-0.023737775;0.009767414;-0.005476733;0.05192074;0.06633075;-0.03919104;-0.006866837;0.012704052;0.00085764297;-0.0029965362;0.028293798;-0.016397322;0.01205129;0.046020042;-0.009654872;0.049758155;-0.03047394;-0.0056010685;0.04011006;-0.048289344;0.040670358;-0.06716504;-0.016805956;-0.022651806;0.03242837;0.01120398;0.0043219994;-0.05781684;-0.050117206;-0.03170093;-0.027137585;0.020791944;-0.08519089;-0.0015748319;-0.052768614;0.032204714;-0.019670295;-0.01532112;-0.053282294;-0.025352623;0.066079356;-0.024952644;-0.057491064;-0.025627052;0.024377113;-0.06073313;0.028115116;0.016587835;0.041721545;0.06305398;0.05518239;0.066275135;-0.05571207;-0.005662203;0.07078766;0.045356844;-0.00516757;-0.057277236;-0.064322904;0.026663486;0.02452229;0.028571034;0.07201757;-0.00083268806;0.008738413;-0.04111615;-0.064724654;-0.050669197;0.0051018456;-0.011128997;-0.015371729;-0.031321235;0.0077998517;-0.039446283;-0.020626605;-0.040491726;0.0010534101;0.01444501;-0.033570528;0.03592025;0.005058956;0.027313707;0.046366405;-0.01029433;-0.0145314345;-0.058126062;-0.0684896;-0.0040381723;-0.039449036;-0.011464167;-0.041572053;-0.04743107;-0.05415998;-0.028486209;0.025286403;0.021471586;0.044309895;0.01869843;-0.0019632338;-0.054639816;-0.028853878;0.03530942;-0.055000946;0.0017304453;0.07181532;-0.0049226414;0.035727132;-0.022803353;-0.017560145;0.006266521;0.040009044;-0.0006503586;0.039286755;-0.0019328004;-0.026950676;-0.019924274;0.026831556;0.044221982;0.01128264;0.044980794;-0.024684846;0.004876626;0.03439176;-0.011364669;0.00964538;0.0025101646;-0.012015988;0.036073588;-0.03838874;-0.032488666;0.035540648;-0.003643959;0.019810848;-0.015891414;0.0063491934;-0.034544982;-0.054109454;-0.05900863;-0.047069367;-0.029506719;-0.034192514;-0.0350535;0.0071936925;0.018766062;0.01446048;0.0356643;-0.08350765;-0.056113664;0.0076520224;-0.04472203;-0.030885704;0.021075895;-0.013405815;0.0114029255;0.0028321592;-0.056856688;-0.051814772;0.051993646;-0.045748066;-0.0064912164;-0.0015066132;-0.02238847;0.026552115;-0.041475452;0.04489466;0.056852374;0.030943153;-0.037135042;-0.012215216;-0.05699184;0.00076663936;-0.02418391;-0.01810921;0.022528866;-0.011841887;-0.016058901;0.022870015;0.011256726;-0.04585511;0.01249169;0.028501347;0.00033149414;-0.012567021;-0.08107089;0.01683378;-0.052280236;-0.0017237901;0.004703099;-0.044029973;-0.01244407;-0.052447554;-0.01581326;0.0016915265;-0.029065406;0.0027141115;0.015147922;0.0040172427;0.007151583;-0.009806824;0.024597943;-0.00084151013;-0.048576973;0.03967209;-0.011470473;0.015104899;-0.037039112;0.053358894;0.02464742;-0.020023659;0.01985429;0.017189926;0.028633311;-0.013771605;-0.054785702;-0.037127025;0.039579432;0.028455414;0.0066541056;0.044366676;0.001659147;0.0066059716;0.036204804;0.053416353;-0.0036193533;-0.010352614;-0.009552766;0.026814088;-0.012367224;0.03198255;0.025151227;0.01201923;-0.045211636;-0.046758473;-0.05603476;-0.007992983;-0.012950629;-0.014123422;-0.005593922;-0.00929774;-0.014277668;0.011975827;0.013867989;-0.01937233;0.0018178918;-0.015311499;0.049040947;-0.02467689;-0.009628063;-0.0258467;0.009495353;0.02982588;0.020003518;-0.008376182;0.06611435;-0.03036961;-0.066474326;-0.02015846;0.021868812;0.010507904;-0.01332066;-0.0140737975;0.0008760722;-0.039146226;0.025096674;0.043787178;-0.037503008;-0.025681408;-0.002774353;-0.03043451;-0.02103334;-0.029693164;-0.043900676;-0.005357645;-0.0009834573;0.04823491;0.0560087;0.053578302;0.018156277;-0.0024412307;0.06557058;0.034549464;0.020226138;0.045776833;-0.01716575;0.0426811;0.0019622806;-0.026851995;0.010960303;-0.041449323;0.017090386;0.025487227;0.016713234;0.040290155;-0.009067014;-0.027112748;0.04005898;-0.011015216;0.041261986;-0.014803127;0.03557513;-0.037243202;0.012434779;-0.02637986;-0.029713033;-0.038164575;-0.06016581;0.01238152;0.036218043;0.020851176;0.00753252;-0.022967547;-0.031838525;0.012901114;0.0037903679;-0.011146333;-0.0011866826;-0.03727617;0.034816984;-0.00649451;-0.07211079;-0.0009873803;0.026398683;-0.05069496;-0.027204808;0.024699625;-0.009011861;0.034820978;0.0065407655;-0.02782688;0.012173933;0.021261785;-0.017549379;-0.0028076016;0.001133747;0.043205272;-0.0047669895;0.017154843;-0.023603946;-0.0073327543;-0.025065001;-0.03788195;-0.024941333;0.016023722;0.03564583;0.051517308;0.043447513;0.01839441;0.011117145;-0.001336085;0.03800527;-0.027481485;0.008645493;-0.0073610437;-0.017840778;-0.005050352;-0.030379921;-0.04050994;-0.0003289451;-0.042449243;0.025292052;-0.036944773;-0.03477249;-0.025917046;-0.04181229;-0.006947568;-0.015420446;-0.041268557;-0.01526574;0.024158174;0.016756544;0.045937814;0.018219015;0.0028434698;0.016265297;0.01652449;-0.028686984;-0.06781391;0.0150329;-0.00332968;0.0078435745;0.021139117;0.035932884;-0.037987735;0.02292817;0.0006700762;-0.052889943;-0.037768647;0.025257917;0.013127772;0.015892709;0.009681992;-0.044506233;-0.03940681;-0.0032688053;-0.021337721;-0.020278454;0.0013410003;-0.034983754;0.036498707;0.035104457;-0.020613974;0.0403683;-0.03521406;0.04949007;-0.019701596;0.034245055;0.009424769;-0.046839073;-0.059929315;-0.010156732;0.05719389;-0.0351314;-0.03713748;-0.018022122;-0.053131513;-0.037375867;-0.0037665472;-0.025114706;-0.01229501;0.030066488;-0.0051823873;-0.067471094;0.01873676;0.03141252;0.019521242;-0.049331665;0.025677672;0.040598117;-0.0075157303;-0.045163747;0.04040622;-0.02939832;0.042373307;0.05245132;0.036590174;-0.037455425;-0.04435194;0.03417756;0.02813386;-0.019618647;0.028796276;-0.033918973;0.036586616;-0.03527401;0.034956723;-0.0013625259;0.037324566;0.0377095;0.056015957;-0.037420984;0.024778994;-0.022961058;-0.036538355;-0.015876856;0.016216096;-0.012750103;-0.014068687;0.018166827;0.0016920937;0.02143946;0.020413013;0.019391954;-0.015967222;0.0004771361;-0.026031183;-0.027282672;-0.030061137;0.008528645;0.020714175;-0.028742405;0.041409194;0.02934578;0.019824784;0.036520932;0.03078744;0.044530094;0.03240901;0.03887366;0.04662421;-0.04703052;0.0104265725;-0.002972798;-0.03098004;-0.028585386;-0.016197104;-0.011345982;0.048289724;0.002099196;-0.055034228;-0.032443788;-0.0491732;-0.02381885;-0.04990944;0.016602315;-0.023132442;-0.03463012;-0.01950671;-0.018789167;-0.0017202526;-0.03128036;0.039639138;0.0364802;0.055850726;-0.016579244;-0.056779385;0.004642442;0.039464653;-0.04112007;0.04826804;0.017514635;-0.02116183;-0.009566943;0.0077659558;0.033519994;-0.027125461;-0.010874048;-0.028046822;0.005899382;0.008912755;-0.02789038;-0.058296394;-0.026236432;-0.021492448;-0.020930022;0.025332186;0.011705104;0.020050358;-0.008924003;-0.059359107;0.023614857;0.016707739;-0.0052440227;-0.018054573;-0.037863456;0.0044145025;-0.0052296356;-0.0021457444;0.019804753;-0.0391452;0.018391026;0.019106483;0.008497379;0.0144917155;0.02780603;-0.024685342;0.010732173;-0.066593885;0.012453629;-0.048390176;-0.04904872;-0.0010914706;-0.059647102;-0.04817922;0.036282368;-0.03754794;0.034837786;-0.0031562774;0.01759905;-0.030537648;-0.07740747;0.006494601;-0.017539592;0.027352052;-0.002136061;0.06806815;0.017666597;0.041446492;0.05271105;-0.044044524;0.0054118214;0.020912584;0.0058840634;-0.048353907;-0.0038899228;-0.012399672;-0.030090356;0.04110412;-0.023838205;0.029295955;0.031687405;0.03680134;0.034554526;0.013525451;0.039894562;0.045570992;-0.015736332;-0.010241689;0.027517147;0.008813992;-0.04112277;0.043210883;-0.037890375;-0.0339309;-0.008562907;0.05586642;0.0025708156;-0.052041207;0.06315034;0.028479636;0.05769213;0.062032696;0.06359337;0.050240573;-0.009751119;0.038974483;0.055578396;0.046495304;0.01359024;0.04001435;0.058654297;0.04636148;-0.04397619;0.044249058;0.04060191;-0.03026827;0.037985723;-0.035799596;-0.03786183;0.034954928;-0.02277196;-0.026773024;0.020130876;-0.019119749;0.050314505;-0.025697328;0.0465174;-0.0036840942;0.047210146;0.07391676;0.04446864;0.03217311;0.04497708;0.0026363141;-0.012922829;0.0033118725;-0.0020400386;-0.04968795;-0.062234648;0.02658489;-0.016542312;-0.03473103;-0.0067212246;-0.053631928;-0.03667495;0.03681318;0.016818734;0.024402;0.024590598;-0.010873266;-0.035807103;-0.020301327;0.009481809;0.04137952;0.0354478;0.0001965761;-0.00964864;-0.0306494;-0.043831673;-0.0044186134;-0.045468725;-0.010087746;-0.020601584;-0.053668674;0.050664;-0.014452733;0.05932639;0.028518524;-0.012767268;0.015312363;0.0041092713;0.0124862455;-0.048789468;-0.013947798;0.0065809945;-0.02021739;0.017057536;-0.033378724;-0.009016461;0.028957633;-8.328452e-05;-0.044313464;-0.0621143;0.025451843;0.008499749;0.01688637;-0.009069584;0.03788891;0.019023666;-0.018030608;-0.021337656;-0.024114178;0.024773693;-0.01704285;0.025761234;-0.038388174
5;0.00011569882;0.016344924;-0.039193317;0.012232174;0.0098956;0.067764364;-0.014491436;-0.056226935;-0.044408504;0.04935573;-0.039566092;0.006251193;0.05767659;0.02677818;0.008341843;0.017548094;0.03999181;-0.0011727377;-0.027816378;-0.038917612;0.01580496;-0.0005742091;-0.021150837;-0.029835505;0.00021715283;-0.0023588967;-0.034476776;-0.060742784;0.03976539;-0.017163966;-0.0028808052;0.03201279;0.017190404;-0.06502872;0.015101064;-0.06697145;-0.069561854;0.008593569;-0.0418834;-0.028136972;0.02148798;-0.03851122;-0.041692063;-0.0009222456;-0.017125351;0.03173444;0.01173853;0.011710875;-0.042350743;0.04656262;-0.012321385;-0.018160066;-0.024492957;0.0019450913;-0.06275473;0.0066736713;-0.017643806;-0.03341906;-0.026468925;0.022280281;-0.01360357;-0.040399667;0.036377385;0.048004117;0.04661201;0.011683462;-0.014051609;-0.029291956;-0.028610922;-0.016274776;-0.00050207233;-0.0055315867;-0.046466008;0.026932403;-0.00552683;-0.0070927083;0.020218415;0.04919402;-0.032390203;0.033322405;0.04242291;0.01012428;-0.011148976;0.02080235;-0.014650102;0.043727733;-0.059264928;-0.003983788;-0.049743436;-0.075701855;-0.0105612995;-0.018357549;0.047328196;0.032088634;-0.04256002;0.040568747;-0.01871619;0.040308237;-0.02912476;-0.01467477;-0.005361196;-0.036099132;-0.02634975;-0.009046464;0.009728744;-0.019928852;-0.0013659033;0.020674802;0.046896823;0.029594647;0.02253433;-0.010129019;-0.0032771558;0.015239507;-0.010261302;0.02288949;0.027200349;-0.028781245;0.033789724;0.015449979;0.0039162864;0.004905527;-0.0004783866;-0.03521993;0.0100127375;0.001589864;-0.0039101713;0.019284582;-0.06307493;0.013033417;0.04275435;-0.062285736;0.036590848;-0.025029771;-0.06365485;-0.013842829;-0.049922884;-0.0055049146;0.010086332;-0.030525366;-0.012349975;-0.020346439;0.045744497;-0.06441176;-0.05107565;-0.043033272;-0.017026879;0.036135282;-0.026852628;-0.031629235;-0.035000104;-0.074579835;-0.019722171;0.010797969;0.016174296;0.05578979;0.06276107;0.022697467;0.05361104;-0.0390432;-0.07444383;-0.029120486;0.011731156;0.02558129;-0.010484063;-0.0233441;-0.060980305;0.0012064573;0.008478203;-0.048070528;-0.04063485;-0.088576645;-0.033393044;0.040249135;0.0052496037;-0.015287617;-0.03004901;0.038916845;0.025479386;-0.020124488;-0.044554915;0.031855643;-0.006061505;-0.015551692;-0.013590594;0.009833948;-0.0052956073;-0.011659864;-0.01585717;-0.04015413;0.0015793673;-0.02537611;-0.025661903;0.010689716;0.043505665;-0.036775853;-0.048418123;-0.025727848;-0.013761454;-0.008081649;0.030393537;-0.015993636;-0.0005760245;-0.01860086;-0.033285886;-0.030499684;-0.03853433;0.016849695;-0.006453148;0.03947474;-0.030847507;-0.016701045;0.011487912;-0.035762854;-0.020858144;0.055157717;0.021279253;-0.05345566;-0.03821606;-0.013713915;-0.037476443;-0.0304043;-0.047967;0.028368017;-0.05300217;-0.03179021;-0.03769932;-0.031704713;-0.021047255;-0.032325063;0.03469821;-0.011168493;0.028024837;0.023561202;-0.012955487;0.040475205;-0.06060197;-0.014871258;-0.017100165;-0.012609036;-0.025660116;0.06813071;-0.0047737025;0.033383008;0.041758284;-0.018094929;0.0027505793;0.040059414;-0.022724528;0.015158864;0.036146477;0.03525328;0.040706366;0.03978751;0.0339171;-0.025089025;0.008291732;-0.013544601;-0.037935548;-0.02717913;-0.03200241;-0.03742258;0.034071203;0.017502792;0.0044805803;-0.0041469936;-0.03622114;0.020062614;-0.007308822;0.06524481;0.021656636;0.015311465;0.039618474;0.032256074;-0.005280873;-0.0442882;0.041324317;-0.014589607;-0.05199777;-0.05224997;-0.021059567;0.0044371113;-0.027858641;0.032867722;0.0166647;-0.059467983;0.012216911;-0.015320791;-0.040565163;0.012636701;0.026990728;-0.05796079;-0.0472117;0.04291976;0.021742424;0.024924172;0.052692357;0.026404785;0.02458738;0.047681976;-0.002516848;0.013713572;-0.0008135154;0.04959935;-0.007225019;-0.008110432;-0.023934823;-0.024258036;-0.03500713;-0.023588687;-0.01685611;-0.021742135;-0.043197095;0.05034349;-0.04736966;0.05936191;0.009047483;0.01839704;-0.0026966596;-0.025496125;0.03587;0.045234386;0.031986255;0.008248061;-0.025778366;-0.065556966;-0.06625878;0.038333718;0.017392455;0.03527515;-0.001686462;0.049502734;-0.021396104;-0.005240484;0.012276455;-0.020780956;0.0040912423;-0.0055261613;0.021892227;-0.009845245;-0.024580803;-0.03509152;0.021388728;0.04101589;-0.0041395496;-0.016319323;-0.026790833;-0.005270595;0.083340466;0.02463284;-0.0090183215;0.02070777;-0.03680219;0.015696656;-0.029799057;-0.004706444;-0.07318018;-0.016541928;-0.036107376;0.046443176;-0.075437196;-0.017242523;0.019550093;-0.0025267822;-0.008772059;0.04880426;-0.0075987466;-0.037252277;0.016018962;-0.042440847;0.030007796;-0.0354522;0.032525484;-0.015912244;0.021582635;0.023238122;0.00030119173;0.039643724;0.0089831725;0.0070089884;-0.018947337;-0.048500773;-0.014391178;0.012608438;-0.021436827;0.005661306;-0.06426233;0.022337332;-0.0222733;-0.032175273;-0.015759718;-0.01609108;0.005638504;0.038673718;0.026540859;0.03527438;0.009604813;-0.016684648;0.022732094;-0.021064192;-0.03302088;-0.00682484;0.05101989;0.011728395;-0.0014547969;0.0064265374;0.037813306;0.04180902;-0.054413375;0.02897566;-0.027305212;-0.022601614;0.0053407736;0.04217513;0.04945114;0.016482681;-0.020606255;0.01683128;-0.044772517;-0.015504332;-0.0014975872;0.025842868;-0.066528656;0.0004131803;-0.032038692;-0.0062299888;-0.06776194;0.02207324;0.008852551;-0.048029784;0.0018101985;-0.01768272;-0.0860999;-0.052694358;0.0010384338;0.0019713137;0.020315684;-0.014234067;-0.012282827;0.030750364;0.041268136;-0.019754102;0.028283942;0.018133223;-0.014620051;-0.0020909985;-0.0046095047;-0.0530645;-0.02556008;-0.04037455;-0.014557849;0.049779955;0.008065631;0.045240536;-0.03653128;-0.03055225;0.0071992557;0.042892214;-0.009365034;0.035469543;0.029949548;-0.029229274;0.015271277;-0.05411687;-0.038900334;0.037687644;0.050142746;-0.03910398;-0.015866805;-0.07114582;0.027543552;0.009876614;-0.05249111;-0.01700382;0.014194343;-0.03935036;-0.012279375;0.030329818;-0.0053586136;0.025754578;0.022805003;0.030234993;0.0062944638;0.017687678;-0.030834008;0.007217304;-0.017677631;0.06838013;0.0045487806;-0.015496005;0.072151676;-0.01880271;-0.050478246;-0.003228687;-0.041843336;-0.045369294;-0.030037928;-0.029690487;0.01694838;-0.039669365;-0.05288034;-0.06324931;-0.03216923;-0.0012971426;-0.033142786;-0.04580538;0.035655126;0.07178608;0.03180416;0.040241037;0.050174594;0.023578035;0.0525376;-0.0145368995;0.009827366;0.027511213;-0.01640539;-0.045270886;0.011860331;-0.011848458;0.01977444;-0.04604784;0.018153293;-0.05410397;0.025857724;-0.04900185;0.016742703;0.011291216;-0.025967645;0.022591284;-0.007971707;-0.067051575;-0.023790358;-0.028596582;-0.049352795;-0.0172388;-0.009494934;-0.041804902;0.062401574;-0.0172123;-0.05485076;0.03082734;0.040515304;-0.052208085;-0.045204017;-0.047732;0.0092870295;-0.08261611;-0.051728178;-0.077940196;-0.030267425;-0.0011482893;-0.0066706887;-0.027982201;0.00042609818;0.04322122;0.011168688;0.026294613;-0.055046678;0.052325994;0.043614805;0.0010939288;0.000439863;0.019437648;0.0377254;-0.034838844;0.04389019;-0.01615105;0.033622716;0.035569504;0.043445818;-0.0015634464;0.0017929538;0.018019576;0.016604953;0.032805856;0.014787328;-0.060518898;-0.023627903;0.062081907;-0.0055697006;0.046154834;-0.03160333;-0.0140294675;0.050239734;-0.03754455;0.043594033;0.06387837;-0.042813413;-0.026373742;0.038443338;0.0244208;-0.026242157;-0.052295644;-0.034970943;0.030982308;0.011223778;0.0049303994;0.00879694;0.062020443;-0.00017330429;0.027770745;-0.03481772;0.004083245;0.046707127;-0.050044443;-0.01974204;-0.03090287;-0.049059615;-0.01453614;-0.027391337;-0.026014226;0.0013595342;-0.013079857;-0.010988059;-0.013502921;-0.032198533;0.013090274;-0.040999856;0.011822393;-0.045814704;-0.049783263;-0.0007302559;0.020268377;-0.0041499045;0.00027270764;0.041283045;0.010023936;-0.014867333;0.049256068;0.034992024;0.010100157;0.0033800167;0.05640031;-0.016491728;0.04150808;0.031711124;-0.0045797746;0.0063014915;-0.007339593;-0.00027710342;-0.020599075;0.024774652;-0.052207753;0.027143681;-0.026109245;-0.05235722;-0.018308746;-0.013466035;0.04579884;0.023556111;-0.0029905702;-0.021524586;0.041364275;0.02656417;0.020817775;-0.010224151;-0.018449148;0.053486727;0.010382908;-0.056985855;0.0008840776;-0.030807627;-0.024634622;-0.053155076;0.019532496;-0.02380212;0.018934542;-0.03349762;-0.033591516;-0.012378551;0.024070922;-0.038283832;-0.0075111366;-0.015467275;0.01655006;-0.01860864;-0.038032178;-0.0074598743;-0.031061841;0.028803833;-0.038745172;-0.01996838;-0.04258987;-0.011074874;0.029589329;0.026700227;-0.058871455;0.057817306;-0.044417582;-0.03375184;0.026801497;-0.07736131;-0.0338187;-0.012333738;0.016367618;0.054318268;-0.04209917;-0.02081368;-0.046728514;0.010871145;-0.019172601;-0.045940462;-0.024400828;-0.020223206;-0.06434228;-0.0072854743;-0.07408357;-0.06146756;0.004593845;-0.0038015447;-0.031112352;-0.04377965;-0.04143589;0.044390712;-0.057234395;-0.054053865;0.03432689;-0.012676955;0.01953644;0.0066325557;-0.01615505;0.017589187;-0.015242468;-0.026812058;0.01937762;-0.031662717;0.041043207;-0.0063116965;0.0053294627;0.036932923;-0.039494324;-0.00814238;0.008533651;0.01637234;0.031367116;0.031613372;-0.02950894;0.037129287;0.01447452;0.013767306;-0.014422997;-0.049518898;-0.006953995;0.030354878;-0.043849654;0.010526136;-0.017120074;0.027323183;-0.04628521;-0.087912194;0.0542898;-0.014080491;-0.0289992;0.014029075;0.007105177;0.0424317;0.029690124;0.0009659239;-0.013789564;-0.021891057;0.035118967;-0.025535684;0.02486038;-0.022456344;-0.009086792;0.016543454;0.036863502;-0.050761994;-0.045127477;0.013690801;0.028884364;-0.04533743;-0.031135598;0.025322033;-0.04220165;-0.015912935;0.034812476;0.0040921597;0.02693271;0.021913778;-0.008823055;0.0028990728;-0.025900116;0.0035043117;-0.03992669;-0.014079357;0.020383582;-0.0048853424;-0.060566273;-0.039127816;-0.02802673;-0.015112735;0.03402195;0.05336487;0.030117227;-0.03620516;-0.050510395;-0.03277015;0.0006818131;-0.023703165;-0.0800733;-0.020153146;0.03498951;0.009189455;0.0049616387;0.024035968;-0.018831315;-0.04018926;-0.023627954;-0.035856623;0.02985591;0.016773889;-0.046339866;-0.022036662;0.050089847;-0.020944951;0.037981894;-0.03990422;0.0050519304;-0.0028320812;0.02357902;0.007006395;-0.007920339;-0.00039365934;-0.06269477;-0.036601588;-0.06785717;-0.016152056;0.026766796;0.027774846;-0.0002702865;0.006151331;0.012681735;0.0037117302;0.031513255;0.03556652;0.0063879583;0.020220282;-0.020947108;-0.015568929;0.01671234;0.0030040382;0.005732126;-0.02388718;-0.03559586;0.020654935;0.023132578;0.041416593;0.00012270585;0.035209045;0.045221843;-0.032140113;-0.04003799;-0.051967297;-0.043798786;0.0062985336;0.027710808;0.037079986;-0.02488271;-0.014621739;0.0449469;0.018446757;0.054567486;0.004101566;0.008267177;-0.009599633;-0.021183755;0.010849876;0.00987706;-0.03033127;-0.045138355;-0.050123703;0.007534115;0.022354627;-0.00013697373;0.027615838;-0.024864437;0.040104613;0.040703528;0.011906812;0.011572919;0.012842096;0.0219119;0.02987851;-0.004203255;0.026998892;0.034716908;-0.031204386;0.0085143;-0.046978008;-0.028381996;-0.03489585;0.0046494724;0.041794278;-0.02380114;-0.036428224;0.028110772;-0.020712512;0.019627027;-0.051433705;0.008539814;-0.006008863;0.024514426;0.0030020343;-0.06054725;-0.04002901;-0.013859996;0.041356467;0.046387244;0.027049406;0.047519494;0.00873911;-0.05212506;-0.014766817;0.050328676;-0.020371422;0.013896808;-0.012709712;-0.052147646;-0.03387014;0.048627663;-0.022190325;-0.06366309;0.017105427;-0.0074877073;0.020770017;-0.048461467;-0.0059893206;0.014192231;0.041543037;0.0469583;0.0053927763;-0.051257253;-0.016813537;-0.01650315;-0.0094172815;-0.015505481;0.019276682;0.047857236;-0.029817492;0.034330208;0.030388804;0.0045432886;0.04947326;0.019328069;-0.016016584;0.026172744;0.014785231;0.05858463;-0.028375352;-0.06500279;0.0141894845;-0.073276006;-0.08611948;0.035718437;0.046993073;0.03806953;0.0058113956;0.05276498;0.05361577;-0.038701948;-0.014932114;-0.03420247;0.033522345;-0.0070736944;0.045109075;0.03963334;-0.019837035;0.03474645;0.008669495;0.014309733;0.0075627733;-0.018749302;0.014180046;-0.05138058;-0.024259012;-0.009804083;-0.0676258;0.017866815;-0.03609407;-0.018115794;0.040142488;0.050157025;0.046801314;0.00066589605;-0.033880282;0.0062149833;-0.01936621;-0.005358091;0.02684021;-0.024850052;-0.06964886;-0.04137703;0.03427327;0.0006942091;0.013303787;0.02907485;0.03365822;-0.03857719;0.028833145;0.020334749;0.00019557824;-0.034440503;0.04651987;0.042403936;-0.019977631;0.01554858;0.018060612;0.01368217;0.0027706658;-0.011552445;-0.053195808;-0.014851469;-0.034511495;-0.05555756;-0.063094795;-0.02721392;-0.036316995;-0.035318993;0.058004472;-0.014181741;-0.009499262;0.024907062;-0.06746244;-0.05850727;-0.013607609;0.009850683;0.040133387;0.0034717985;-0.014581419;0.011456882;-0.017151436;0.04147616;0.010981008;-0.038231492;0.014117719;0.014950594;0.043457735;0.010833567;-0.03432119;0.029230388;0.06030787;-0.010580242;0.044914674;-0.03864998;-0.026018662;-0.023797514;-0.016813368;0.0108113615;0.011880015;-0.041815203;0.00043957232;0.02003185;0.06078766;-0.029334819;-0.006352023;-0.009027844;-0.04497913;-0.025072569;0.033446774;0.018212948;-0.030184375;-0.030587213;0.020056812;0.01456092;-0.06427391;-0.025090488;0.0206679;0.018340372;-0.05105716;-0.018504703;0.0036101106;0.022023758;0.036079187;0.03550052;0.002146354;-0.02439988;0.036597826;-0.05708804;-0.04285563;0.011238088;0.005437964;0.014942084;0.06658917;-0.040107716;-0.035226125;0.009903198;-0.024331022;-0.053841025;0.025028748;-0.060233656;-0.029966602;-0.05635314;-0.043204192;-0.008874936;-0.037068933;-0.032989383;0.0031769737;-0.016410079;-0.049880307;-0.00028986673;-0.056888476;0.0077526052;0.020713378;-0.04151318;-0.049913254;-0.06539412;0.013496167;0.007977615;-0.029336002;-0.03135854;-0.009614524;-0.02150402;-0.025616003;-0.0017558758;0.022554152;0.0006682146;-0.03312915;-0.02650429;-0.02033026;-0.04764318;-0.030606689;-0.047991388;-0.037464246;0.018709607;-0.059947774;0.0124819605;-0.008944566;0.031689923;-0.01560915;-0.011577556;0.053529836;-0.023121482;0.024369264;-0.045183472;-0.048234176;-0.0011013709;0.022887845;-0.028281027;-0.008474228;0.041875094;0.021406693;-0.05296297;-0.02939573;-0.040560342;-0.012037184;0.0050112545;-0.027948217;-0.047159526;-0.05102705;-0.03940726;0.045924295
