kernel;bias;d0_w00;d0_w01;d0_w02;d0_w10;d0_w11;d0_w12;d0_w20;d0_w21;d0_w22;d1_w00;d1_w01;d1_w02;d1_w10;d1_w11;d1_w12;d1_w20;d1_w21;d1_w22;d2_w00;d2_w01;d2_w02;d2_w10;d2_w11;d2_w12;d2_w20;d2_w21;d2_w22;d3_w00;d3_w01;d3_w02;d3_w10;d3_w11;d3_w12;d3_w20;d3_w21;d3_w22;d4_w00;d4_w01;d4_w02;d4_w10;d4_w11;d4_w12;d4_w20;d4_w21;d4_w22;d5_w00;d5_w01;d5_w02;d5_w10;d5_w11;d5_w12;d5_w20;d5_w21;d5_w22;d6_w00;d6_w01;d6_w02;d6_w10;d6_w11;d6_w12;d6_w20;d6_w21;d6_w22;d7_w00;d7_w01;d7_w02;d7_w10;d7_w11;d7_w12;d7_w20;d7_w21;d7_w22;d8_w00;d8_w01;d8_w02;d8_w10;d8_w11;d8_w12;d8_w20;d8_w21;d8_w22;d9_w00;d9_w01;d9_w02;d9_w10;d9_w11;d9_w12;d9_w20;d9_w21;d9_w22;d10_w00;d10_w01;d10_w02;d10_w10;d10_w11;d10_w12;d10_w20;d10_w21;d10_w22;d11_w00;d11_w01;d11_w02;d11_w10;d11_w11;d11_w12;d11_w20;d11_w21;d11_w22;d12_w00;d12_w01;d12_w02;d12_w10;d12_w11;d12_w12;d12_w20;d12_w21;d12_w22;d13_w00;d13_w01;d13_w02;d13_w10;d13_w11;d13_w12;d13_w20;d13_w21;d13_w22;d14_w00;d14_w01;d14_w02;d14_w10;d14_w11;d14_w12;d14_w20;d14_w21;d14_w22;d15_w00;d15_w01;d15_w02;d15_w10;d15_w11;d15_w12;d15_w20;d15_w21;d15_w22;d16_w00;d16_w01;d16_w02;d16_w10;d16_w11;d16_w12;d16_w20;d16_w21;d16_w22;d17_w00;d17_w01;d17_w02;d17_w10;d17_w11;d17_w12;d17_w20;d17_w21;d17_w22;d18_w00;d18_w01;d18_w02;d18_w10;d18_w11;d18_w12;d18_w20;d18_w21;d18_w22;d19_w00;d19_w01;d19_w02;d19_w10;d19_w11;d19_w12;d19_w20;d19_w21;d19_w22;d20_w00;d20_w01;d20_w02;d20_w10;d20_w11;d20_w12;d20_w20;d20_w21;d20_w22;d21_w00;d21_w01;d21_w02;d21_w10;d21_w11;d21_w12;d21_w20;d21_w21;d21_w22;d22_w00;d22_w01;d22_w02;d22_w10;d22_w11;d22_w12;d22_w20;d22_w21;d22_w22;d23_w00;d23_w01;d23_w02;d23_w10;d23_w11;d23_w12;d23_w20;d23_w21;d23_w22;d24_w00;d24_w01;d24_w02;d24_w10;d24_w11;d24_w12;d24_w20;d24_w21;d24_w22;d25_w00;d25_w01;d25_w02;d25_w10;d25_w11;d25_w12;d25_w20;d25_w21;d25_w22;d26_w00;d26_w01;d26_w02;d26_w10;d26_w11;d26_w12;d26_w20;d26_w21;d26_w22;d27_w00;d27_w01;d27_w02;d27_w10;d27_w11;d27_w12;d27_w20;d27_w21;d27_w22;d28_w00;d28_w01;d28_w02;d28_w10;d28_w11;d28_w12;d28_w20;d28_w21;d28_w22;d29_w00;d29_w01;d29_w02;d29_w10;d29_w11;d29_w12;d29_w20;d29_w21;d29_w22;d30_w00;d30_w01;d30_w02;d30_w10;d30_w11;d30_w12;d30_w20;d30_w21;d30_w22;d31_w00;d31_w01;d31_w02;d31_w10;d31_w11;d31_w12;d31_w20;d31_w21;d31_w22;d32_w00;d32_w01;d32_w02;d32_w10;d32_w11;d32_w12;d32_w20;d32_w21;d32_w22;d33_w00;d33_w01;d33_w02;d33_w10;d33_w11;d33_w12;d33_w20;d33_w21;d33_w22;d34_w00;d34_w01;d34_w02;d34_w10;d34_w11;d34_w12;d34_w20;d34_w21;d34_w22;d35_w00;d35_w01;d35_w02;d35_w10;d35_w11;d35_w12;d35_w20;d35_w21;d35_w22;d36_w00;d36_w01;d36_w02;d36_w10;d36_w11;d36_w12;d36_w20;d36_w21;d36_w22;d37_w00;d37_w01;d37_w02;d37_w10;d37_w11;d37_w12;d37_w20;d37_w21;d37_w22;d38_w00;d38_w01;d38_w02;d38_w10;d38_w11;d38_w12;d38_w20;d38_w21;d38_w22;d39_w00;d39_w01;d39_w02;d39_w10;d39_w11;d39_w12;d39_w20;d39_w21;d39_w22;d40_w00;d40_w01;d40_w02;d40_w10;d40_w11;d40_w12;d40_w20;d40_w21;d40_w22;d41_w00;d41_w01;d41_w02;d41_w10;d41_w11;d41_w12;d41_w20;d41_w21;d41_w22;d42_w00;d42_w01;d42_w02;d42_w10;d42_w11;d42_w12;d42_w20;d42_w21;d42_w22;d43_w00;d43_w01;d43_w02;d43_w10;d43_w11;d43_w12;d43_w20;d43_w21;d43_w22;d44_w00;d44_w01;d44_w02;d44_w10;d44_w11;d44_w12;d44_w20;d44_w21;d44_w22;d45_w00;d45_w01;d45_w02;d45_w10;d45_w11;d45_w12;d45_w20;d45_w21;d45_w22;d46_w00;d46_w01;d46_w02;d46_w10;d46_w11;d46_w12;d46_w20;d46_w21;d46_w22;d47_w00;d47_w01;d47_w02;d47_w10;d47_w11;d47_w12;d47_w20;d47_w21;d47_w22;d48_w00;d48_w01;d48_w02;d48_w10;d48_w11;d48_w12;d48_w20;d48_w21;d48_w22;d49_w00;d49_w01;d49_w02;d49_w10;d49_w11;d49_w12;d49_w20;d49_w21;d49_w22;d50_w00;d50_w01;d50_w02;d50_w10;d50_w11;d50_w12;d50_w20;d50_w21;d50_w22;d51_w00;d51_w01;d51_w02;d51_w10;d51_w11;d51_w12;d51_w20;d51_w21;d51_w22;d52_w00;d52_w01;d52_w02;d52_w10;d52_w11;d52_w12;d52_w20;d52_w21;d52_w22;d53_w00;d53_w01;d53_w02;d53_w10;d53_w11;d53_w12;d53_w20;d53_w21;d53_w22;d54_w00;d54_w01;d54_w02;d54_w10;d54_w11;d54_w12;d54_w20;d54_w21;d54_w22;d55_w00;d55_w01;d55_w02;d55_w10;d55_w11;d55_w12;d55_w20;d55_w21;d55_w22;d56_w00;d56_w01;d56_w02;d56_w10;d56_w11;d56_w12;d56_w20;d56_w21;d56_w22;d57_w00;d57_w01;d57_w02;d57_w10;d57_w11;d57_w12;d57_w20;d57_w21;d57_w22;d58_w00;d58_w01;d58_w02;d58_w10;d58_w11;d58_w12;d58_w20;d58_w21;d58_w22;d59_w00;d59_w01;d59_w02;d59_w10;d59_w11;d59_w12;d59_w20;d59_w21;d59_w22;d60_w00;d60_w01;d60_w02;d60_w10;d60_w11;d60_w12;d60_w20;d60_w21;d60_w22;d61_w00;d61_w01;d61_w02;d61_w10;d61_w11;d61_w12;d61_w20;d61_w21;d61_w22;d62_w00;d62_w01;d62_w02;d62_w10;d62_w11;d62_w12;d62_w20;d62_w21;d62_w22;d63_w00;d63_w01;d63_w02;d63_w10;d63_w11;d63_w12;d63_w20;d63_w21;d63_w22
0;-5.029761e-05;-0.048366927;-0.020678421;-0.0164949;-0.051968295;-0.06375853;0.06050548;0.04957267;0.04303581;-0.030221699;-0.021427818;-0.06968754;0.027890319;0.03632515;-0.056994885;-0.04305357;-0.044297468;0.065831974;0.029426346;0.0775193;0.0019872976;4.6153567e-05;0.06688274;0.05265005;-0.04652423;-0.00557012;-0.04959285;0.009758966;-0.080162756;-0.050391186;0.024349485;-0.05794662;0.028050095;-0.00907659;-0.05492313;-0.03253037;-0.06693303;0.032030992;0.007983694;-0.055735487;-0.0044046524;0.015694922;0.01334217;-0.052712258;-0.001731282;0.04629499;-0.060478244;0.05933079;0.024840616;-0.04502679;0.04443359;-0.0014238781;-0.012809409;0.015258853;0.021628216;0.03612537;-0.02437007;-0.020806747;0.0073790182;-0.047445986;0.031062499;-0.0780838;-0.04903639;-0.048238963;-0.033496764;0.021154556;-0.008615362;0.08932953;-0.0028909144;-0.0094963135;0.0627838;0.05197235;-0.02376935;0.07043135;-0.047313914;-0.025049932;0.073063694;-0.051993374;0.07720368;0.11551835;0.091939434;0.02225287;0.04585989;0.090402886;-0.054511517;0.095425114;0.0022942729;0.0024219705;0.0070217024;0.055886403;0.057701625;0.037207074;0.017592343;-0.06602317;-0.015417381;0.030267667;-0.08005068;-0.07585304;-0.029549986;-0.06686744;0.01685586;0.07785886;-0.055461768;0.06406738;-0.06565445;-0.044985995;0.03811743;0.03635849;-0.08995813;0.007903423;0.044939533;0.05998833;0.024004392;-0.0070422846;0.027345574;0.039056405;0.033870175;-0.09723833;0.0022369025;0.021365242;0.052309256;-0.029727092;-0.005286069;0.031275503;-0.013752063;-0.059304707;-0.019843515;0.021118417;-0.028508492;-0.016867863;-0.059282877;-0.03245026;0.032052994;-0.050062403;-0.07321358;-0.011590862;-0.002596232;-0.015313605;-0.057859812;-0.0569832;-0.02582951;0.039512306;-0.011257935;0.033501815;-0.025734633;-0.001425382;-0.032753393;-0.05294086;-0.06869778;-0.042715576;-0.043152213;-0.05413077;-0.0989986;-0.07901294;0.051508874;-0.07671309;0.019807609;0.06332475;-0.018066928;0.045469813;-0.025266692;0.0007596152;0.0779981;-0.01654162;-0.09302471;0.041420534;0.036618672;0.0073491856;-0.067006305;0.014182104;-0.109581;-0.026250925;-0.050426837;-0.04378026;0.055888597;0.026925474;-0.0015044204;0.021510957;0.019608358;-0.053804636;-0.045435045;-0.032869518;0.04014147;0.013177083;-0.034239914;-0.02974266;0.04361375;-0.047817513;0.061446015;-0.031893823;-0.018662678;0.015621874;-0.011706101;0.067535505;-0.03261462;0.026891576;0.029467754;0.0577252;-0.03684889;0.042532843;0.016132329;0.028495336;0.049694523;0.02047632;-0.04735439;0.04337857;-0.029511718;0.07036737;-0.028187599;0.023424992;0.055429444;-0.056284692;0.031345204;-0.061309382;0.041205134;-0.033450183;0.042295165;-0.008157773;0.053461064;-0.03144828;0.038927544;0.06464019;-0.029587395;0.033462983;-0.06844928;0.026079973;-0.012607834;-0.010633556;-0.05832882;0.050965667;0.0014930611;-0.040681615;0.030048871;0.037122644;0.055247303;-0.049525227;0.049214426;-0.052899513;-0.060161397;0.028104821;0.00085219735;-0.05033962;0.016194472;-0.03134892;0.055678558;-0.04984762;-0.014487238;0.061504513;-0.017535515;-0.019904446;0.060378317;-0.009201448;0.008098943;-0.011112921;-0.041375346;0.054714043;0.034641646;-0.07568705;-0.076582536;-0.07678217;-0.09240611;-0.035365622;-0.072531804;-0.06851572;0.008009202;0.052116934;-0.048332676;-0.0027312564;-0.046355195;-0.061636996;-0.05009549;-0.03419237;-0.06544713;0.044622295;-0.05638622;-0.07285543;0.016756851;-0.03427621;0.007371522;-0.054092154;-0.004121459;0.025607776;-0.025168719;0.056631833;-0.09068809;-0.045419578;0.056540664;-0.045249764;-0.010616438;-0.03221395;-0.07679076;0.057002507;-0.013836685;-0.06416439;-0.08458042;-0.063916944;0.03579854;-0.03283144;-0.040797383;-0.02312627;0.04984476;0.0359873;-0.06796766;-0.026652776;0.07420534;-0.024576979;-0.01888976;-0.06609787;0.05092692;-0.006569552;-0.04699112;0.029152894;0.023776924;-0.046473145;-0.06551504;-0.022801707;0.03471396;-0.03280907;0.0068487483;-0.05994106;0.027506614;-0.022798806;0.06434612;0.022172347;-0.021082494;-0.029851617;0.021538088;-0.01743663;-0.04481276;-0.028937038;-0.021894548;0.00530044;-0.03001429;-0.0920709;0.014040943;-0.055835016;0.010027965;0.02370949;-0.023016222;0.033942915;0.02719687;-0.011759524;0.055860978;0.0025511242;0.04781876;0.046925586;-0.06541965;0.0020018602;0.009050368;0.082991354;-0.0054231007;0.012093051;-0.043546483;-0.008553486;0.025661767;-0.028197885;-0.023282813;-0.056046523;0.022023978;0.014844364;-0.04896228;-0.015603568;-0.0039258143;0.029539399;0.033092096;0.030373544;0.05249672;0.05444726;-0.05560604;0.047038373;0.00033588492;0.0026654257;0.017047077;-0.052913714;-0.00316778;0.0196452;0.005268871;-0.06272098;-0.033060707;-0.039303113;0.023505766;-0.049935594;0.0643342;-0.056294035;-0.0032121679;-0.047280215;-0.0005377597;0.021198094;-0.0656292;-0.018459128;-0.037746485;-0.052677132;0.0080862455;-0.042677175;0.001923125;0.02253018;-0.00254088;0.04402591;-0.024695382;-0.042244826;0.03063867;-0.033085015;-0.0079205185;0.018495258;0.047784243;-0.025900941;0.043686222;-0.0076915817;-0.032690395;-0.06286069;0.03955033;-0.059343264;-0.06387154;0.033666637;0.042625748;0.043498147;0.013325837;0.044227462;-0.016869804;0.04060486;-0.059007004;-0.04298719;-0.05350784;0.00930527;0.053261697;-0.044343892;-0.04474403;0.04652343;-0.00738275;-0.008969241;0.013307452;0.026112888;-0.09345379;-0.06573532;0.03257774;-0.025213355;-0.024513908;0.0071358155;-0.06708732;-0.009341175;-0.049724378;-0.05481169;-0.060876016;0.04298467;0.00030813686;0.0134167215;-0.0430307;-0.01792651;-0.04168983;0.02005256;-0.075275674;0.10270509;-0.015084205;0.02387741;0.051212016;-0.025198061;-0.008264104;0.07975785;-0.00432213;0.046082377;-0.036983084;-0.00014177409;0.012751812;-0.043172255;0.025551712;0.04749654;0.009832129;-0.01170057;-0.008607346;0.07152427;-0.03694611;-0.053297892;0.032154463;0.060974635;-0.051651817;-0.056880757;-0.07632329;0.001647858;-0.013244679;0.02775964;0.0035009054;0.0044654044;-0.06363594;0.026267411;-0.051546272;0.022611715;-0.014370634;-0.029957242;-0.028443925;-0.024901083;-0.0066361427;-0.07229647;0.037394762;0.029975858;-0.015037933;0.045405425;0.08724237;0.06878224;-0.019100536;-0.023141773;0.06032012;-0.059159778;-0.030921761;0.046190567;-0.0333002;-0.03011829;0.05276719;-0.06536839;-0.057407673;0.028829135;-0.043607775;0.06631081;-0.039902218;-0.0171391;0.032021403;0.041009855;0.021053191;-0.018481312;-0.05669329;-0.022153463;-0.0041724322;0.0119690215;-0.040115263;0.014686305;-0.058345776;0.014213508;0.02490025;-0.050527755;-0.04682687;-0.039354987;0.025622131;-0.008794887;0.045103367;0.03830096;-0.0068790256;0.0040111807;0.057435717;-0.01944478;-0.009652206;0.03923019;-0.051442027;0.041154362;-0.066606194;0.037743587;0.04851278;-0.045978144;-0.010694832;0.027629077;-0.033924934;-0.035493724;-0.032067798;-0.0011517046;-0.04110064;-0.07196119;-0.029556248;0.041007552;0.05740408;0.05566395;-0.064914376;-0.037765115;-0.00091347104;0.020018162;-0.03255285;-0.025739241;0.011901845;-0.016815614;0.025584409;-0.0666985;0.08756207;0.074840255;-0.005834475;0.08578457;0.020887187;0.037771914;0.099019624;0.09790464;0.047212295
1;0.00019621581;0.02578645;-0.026846537;-0.007309817;-0.07279587;-0.024720542;0.00047278474;-0.03740823;0.02541653;-0.065826125;0.027722552;-0.0388599;-0.0033858356;0.02861819;-0.0173131;0.05921969;0.06432077;-0.047363337;0.0005158754;0.09581358;0.069858946;0.024456749;0.08665181;0.03786219;-0.022192504;-0.028702268;-0.015594601;-0.0020381398;0.027928688;0.037070855;-0.03228047;0.037573073;0.050369874;-0.044786163;0.027291428;-0.070166856;-0.028787997;0.0793553;-0.039478365;-0.071899086;0.07915898;-0.055862732;-0.07599252;-0.02987534;-0.010043564;0.03811801;0.019506898;0.058802336;0.073175326;-0.005798245;0.031590138;-0.057931878;-0.06284303;0.045525573;0.018707426;0.070435315;0.07162724;0.0716035;0.009196883;0.0053222;0.066711836;0.09768086;0.08990208;0.041494716;-0.033732794;0.021672495;-0.009968325;-0.011721497;0.026382016;-0.013802946;-0.030625898;0.012994096;0.03817655;0.027224496;0.028946025;-0.044366304;0.073192835;-0.014572912;0.014987642;0.06368076;0.027452363;0.008554655;0.06353502;0.031099297;0.017872144;0.05916265;0.08189253;-0.009229933;0.049566034;0.029654995;-0.03850403;-0.038332876;-0.06445812;-0.06771332;-0.063076206;-0.012624733;-0.04947128;-0.05964515;-0.045039833;-0.051174637;0.021268383;0.069880895;0.06000353;-0.020433541;-0.0034002715;0.07411972;-0.0011389194;0.0714982;-0.027237644;0.0057909903;0.012703308;-0.010775097;0.04961467;0.001556879;-0.007947702;0.0038699205;0.057881147;-0.03035281;-0.04299908;0.050345957;0.04580017;-0.06450314;-0.045948047;-0.021712188;-0.024292774;0.02068921;-0.032868844;-0.02551126;-0.030715834;-0.05820863;-0.031133492;-0.07566999;0.040330246;-0.09497992;-0.07928823;-0.09729295;-0.069876775;0.031932164;0.06506066;0.02280055;-0.013613028;-0.04064111;-0.03284743;0.027078237;-0.06736254;-0.04316087;0.062375277;-0.0700792;-0.0055678976;0.042790953;0.049683522;0.060548734;0.04583221;-0.044624444;-0.038710445;-0.030911747;0.040841293;0.024901686;0.015580477;-0.008594188;-0.0049433284;0.0554731;-0.049797308;0.060101658;0.051676147;0.008224841;-0.03950978;-0.052477427;0.0410481;0.03669531;0.036719505;0.0026564593;0.06571943;0.02783474;-0.04051315;0.02224741;0.027982019;-0.019070795;0.0047950353;0.032182556;0.035095427;0.09730423;0.078167595;-0.0017090876;0.04535257;0.004965444;-0.018781645;0.02828678;0.08806311;0.031643108;0.042551074;0.081345916;0.017334668;0.06523868;0.019300528;-0.026122054;0.080110356;-0.029395137;-0.010774733;0.0034029142;-0.021665275;-0.048873752;0.017269412;0.038049456;0.044438384;0.04417004;0.03361952;0.06568681;-0.0038173504;-0.034345195;0.050392464;0.013602141;0.054153927;0.02591119;0.0111217275;-0.023990238;-0.038274933;-0.017796356;-0.043595366;0.0076607266;0.033588182;0.02539373;0.053939335;0.03413835;-0.050254993;0.034956034;0.06627398;0.038224492;-0.030359384;0.04092403;-0.014722999;-0.0069145635;0.048480656;-0.025016487;-0.008638722;0.040010735;0.07684111;0.009962469;0.008285817;0.0802741;-0.022527467;-0.027264878;-0.035628777;0.06464431;0.04638728;-0.014472585;-0.059404947;-0.03275528;0.060452897;0.023743022;-0.023030866;-0.032437943;-0.05253236;0.04109778;-0.0737138;-0.04191943;-0.08994096;-0.05022822;-0.081421636;-0.111235015;-0.01637456;-0.056684043;0.005532507;-0.0019442177;0.050714977;-0.010968731;0.02255844;-0.056595143;0.0020445026;-0.008563072;-0.058734085;0.062240463;0.011972822;-0.057004385;-0.023725016;-0.08126743;0.046569966;-0.06630163;-0.024981696;0.052991163;-0.0134672765;0.040523984;0.025803424;-0.007815044;0.03822433;0.00023840845;-0.046441;-0.06807879;-0.0005366202;0.0017477605;0.0051712515;0.01998937;0.015533259;-0.0702913;-0.041919593;0.048604533;0.0015056443;-0.076929994;-0.009084424;0.06904864;0.09142895;0.10401237;-0.018498044;0.045776803;0.045904465;-0.0033848528;0.0703652;-0.06010089;-0.045834344;-0.017637813;0.014234459;0.06671803;-0.004171426;0.05653811;-0.050001904;0.014834101;0.004486963;-0.06710086;0.015087874;0.071545854;-0.061538506;0.02834156;0.009019272;-0.025519358;0.049244314;-0.06198426;-0.060418166;-0.041572955;0.022922795;0.020211568;-0.04581063;-0.10620739;-0.044510167;-0.022633169;0.06361303;-0.0060437415;0.05372872;-0.06221003;-0.0409825;0.029572083;0.015034886;-0.0063476847;0.04333432;-0.023039026;0.061212722;-0.011506127;0.008004859;0.046609566;-0.01889981;-0.009883635;-0.017743727;-0.05086301;0.06161843;-0.04067642;0.08063128;-0.060604177;0.02843706;0.000597778;0.02544482;-0.055633496;-0.07818255;0.057723846;-0.036250915;-0.050988734;-0.050257053;0.037949555;-0.06750835;0.08211562;0.07528987;0.025614318;-0.005091717;-0.047090687;-0.06223103;-0.071332686;0.04161812;-0.05539088;-0.023984894;-0.05756129;0.05642647;0.08687833;0.03628186;0.07316395;0.013574326;-0.046825014;0.08135758;0.081345655;0.06122571;0.015946023;0.028836457;-0.0028977518;-0.020967288;0.02943295;-0.06708941;0.0062963413;0.06246286;-0.007984006;-0.021310594;-0.05874006;-0.064469755;-0.037588432;-0.046154503;0.03577687;0.0010592054;-0.06146615;-0.056753837;-0.023540175;-0.016304767;0.088091224;-0.06757144;0.05390859;0.07403231;0.04683304;-0.036969114;0.035149332;0.0030166162;0.064263865;0.0771766;0.06635246;-0.015627772;0.058547396;0.03845264;0.01905597;0.030144151;0.028046304;0.022042898;-0.01774846;0.049258035;-0.050473683;0.006403066;0.033956807;0.049551174;-0.024650339;0.037205044;-0.016578797;-0.0067557325;-0.055386562;0.017223183;0.042532604;0.032782845;-0.050919365;-0.01830378;-0.014785393;0.034631733;-0.039227575;0.04861885;0.017680528;0.022829885;0.037752815;-0.049545746;0.016680304;-0.05159326;-0.05000217;0.0048474297;0.080922;-0.015541088;0.06984833;0.03917821;0.024633903;0.024614133;-0.035672415;-0.06939975;-0.035962634;-0.033032466;-0.071595706;0.05573632;-0.06663284;-0.026928592;0.024691487;-0.08776613;-0.032868214;0.05057565;0.0794389;0.072150394;-0.05358287;0.059141748;-0.0063330196;-0.0039698603;-0.043727025;-0.032958064;-0.07134126;-0.039663516;-0.05296791;0.011079367;-0.038394686;0.049489114;-0.023261927;-0.03319783;0.02208474;0.060471993;0.061235264;0.0124335755;0.011226533;-0.0045124106;-0.03522927;-0.018724205;0.03493598;0.064375676;0.08843118;-0.010324804;-0.021030733;-0.020643836;-0.050867617;-0.018695656;0.094014816;0.037325002;-0.0063218097;-0.007515967;0.054932877;0.021633869;-0.033860773;0.03660316;-0.02569332;-0.06379642;0.0038589446;-0.010393605;0.023293782;0.0056023537;0.083009645;0.01683779;0.013454675;-0.0317346;-0.050448276;-0.05698706;-0.06342724;0.009353445;0.04075481;-0.07786672;-0.048317485;0.0038095363;-0.026032709;-0.038603634;-0.07461625;0.06829886;0.04919317;0.0071394485;0.03331957;0.057343777;0.041078664;0.021360956;0.06741617;0.02137994;0.012393196;0.00063489715;0.046060853;-0.0634353;0.0018354238;0.059808604;0.015071021;-0.05826304;0.06684275;-0.030513937;-0.013640054;0.06744721;-0.08166887;-0.04380994;0.01634069;0.03399438;-0.021373583;0.021367228;-0.04676429;0.073885925;-0.020917295;-0.020417616;-0.0825525;-0.053501442;0.030937891;-0.053432737;-0.043181498;0.06852166;0.068198346;0.05432425;-0.01609591;-0.06340948;-0.041324303;0.045047812;-0.036473837;0.0037892223
2;0.002244555;-0.045406703;-0.05113517;-0.037680082;0.0129778115;-0.032666445;-0.010510142;0.03707666;0.057916563;-0.0103453025;-0.0029221105;-0.049030185;0.023744319;0.0077868784;-0.028291637;-0.020817671;0.021267595;-0.013457375;-0.05300683;0.004854318;-0.043375496;0.014286156;-0.039016627;-0.05194331;-0.03413478;-0.0502855;0.004644324;0.029597744;-0.049474563;0.045331914;0.046794813;0.04090747;0.05914389;-0.0021945836;-0.04634675;0.038082566;0.01024548;0.016632061;0.0024788908;0.062483344;0.022554105;-0.016388051;0.0081215575;-0.06558827;-0.011661017;0.01773859;-0.069228195;0.006856928;0.02257851;-0.052705687;0.023189437;-0.020557517;-0.035269387;-0.0072404784;0.009227624;0.011814139;0.021672279;-0.011449399;-0.04613033;-0.007710239;-0.056858454;0.09906823;0.06533723;0.0053376085;0.021212652;0.0070786714;-0.0063948715;-0.03991833;-0.05623556;0.0044154027;0.062367037;0.040615074;0.03697321;-0.04167519;-0.04850707;-0.027361633;-0.040419187;-0.04610628;0.03433433;-0.027258312;-0.08569483;-0.050050344;0.04923729;-0.029834643;-0.047471758;0.027210485;0.056689326;-0.027828313;-0.01713687;0.022116728;-0.08196962;0.037252348;-0.09082513;0.023509642;-0.063385084;0.027886644;0.036476754;-0.057038423;-0.04560797;-0.030544512;-0.037151303;0.0012990275;-0.061829016;0.015595843;-0.00044332372;-0.04029779;0.01694128;-0.028499529;-0.05032329;-0.012002382;0.020762172;-0.02553213;-0.061900742;-0.09386632;-0.07254606;0.014122483;-0.07515989;-0.0957528;-0.0673231;-0.0070221624;0.004492153;0.028612206;-0.018382175;-0.021991793;0.059339378;-0.051530723;0.035629585;-0.024701342;-0.009629928;-0.07317615;-0.0068933303;0.01365364;0.0060368143;-0.029067682;-0.033358138;-0.056879245;0.010978585;0.026949717;-0.04181516;0.033537604;0.07410911;0.015698263;0.040312834;-0.0360939;0.06257645;0.060254786;0.059903394;-0.056345336;0.054657806;0.06825457;-0.058636807;0.04896092;-0.0053852675;-0.051798306;-0.029008556;-0.038675502;0.011719952;-0.028839717;0.007996213;-0.080490254;-0.04510952;-0.07090591;0.009306061;0.067932986;0.06274807;-0.040103916;-0.0394039;0.036448736;0.0019296833;0.01831437;0.08676688;-0.033462703;-0.031260636;-0.03511333;-0.00046465345;-0.016633378;0.09759739;0.064990476;0.06528907;0.075180426;0.0049763466;0.019820614;-0.020840421;0.05169693;0.04947341;0.01437591;-0.05744517;-0.022197776;0.025683563;-0.011825199;0.03659624;0.0049236566;-0.065101154;0.0061913687;0.02875508;-0.05487386;0.0006297086;0.07872897;-0.00084886583;0.07121952;-0.016026752;0.0029418867;0.047500767;0.030325638;-0.07423061;-0.029491821;-0.020378683;0.033473827;-0.037071567;0.023863664;-0.009745566;-0.0495542;-0.045786686;0.077254504;0.035605527;-0.030728541;-0.020653572;-0.021739686;-0.019142414;0.007832906;0.06388977;-0.008189788;-0.048420027;-0.04454458;0.0054408144;-0.038078338;0.10057217;0.029031958;-0.05985354;-0.00042107937;-0.06857241;0.05128531;0.06956688;0.07074024;0.047494415;-0.0011634392;-0.05407191;-0.008269371;-0.039760403;0.03082085;-0.012265558;0.010144994;-0.00085368677;0.02725972;-0.04876644;0.06327649;0.07771977;-0.053300094;-0.0294838;0.00224617;0.010923098;-0.03720852;0.0034243804;-0.03828243;-0.028193435;-0.07193975;-0.03451349;-7.6236356e-06;-0.06887073;-0.046277262;0.053825118;-0.052429106;-0.008809864;0.0032130934;-0.058351222;0.02346273;-0.0049855015;-0.052108537;0.021700798;0.06193886;-0.05109202;-0.03408114;0.054781172;-0.028890766;-0.02335935;0.030234085;0.019369556;-0.051518038;-0.04594636;0.035530683;0.04380732;0.06412367;-0.05074986;-0.012608187;0.059571464;-0.031183647;0.048517115;-0.017659193;0.029910285;0.044739023;0.05341708;-0.010847343;0.04286343;-0.04930353;-0.013872632;-0.029856402;-0.004475077;0.048810415;-0.06262819;-0.0068812543;-0.03846739;-0.0035873437;0.011802831;-0.058859184;-0.0867366;0.0063573574;-0.048524424;-0.008567884;0.037616637;-0.017976578;0.037564844;-0.058214866;-0.0064445892;0.026588812;-0.01432863;-0.059395123;0.052970078;0.007921954;0.037073135;-0.06657625;-0.0012432865;0.035134297;0.020050317;0.03411083;0.034917343;-0.023512546;0.020806063;0.016600626;-0.060365334;-0.009466489;-0.04058515;0.042162005;-0.07829717;0.038887706;-0.012129925;0.010002761;-0.013769468;-0.076174274;-0.034521807;-0.042736903;0.018911187;-0.008986055;0.045144252;0.05721768;0.0707484;0.011168639;0.033660997;0.022160815;-0.008870481;-0.024475709;0.074334726;-0.043922566;-0.057865784;0.03933585;0.0030767752;-0.041344278;-0.0671174;0.032754734;-0.032024156;-0.048188444;0.013816286;0.02301734;0.008673869;-0.0118900575;0.058230493;0.052234318;0.06764386;0.07632674;-0.011370651;-0.022054693;0.005262048;0.03558742;0.014801135;0.04352348;-0.05282732;0.08253769;0.03797589;0.055005446;0.06567014;-0.049371917;0.03262148;-0.041216236;-0.018292427;-0.011528146;0.013157377;-0.067992926;-0.06540732;-0.025819553;-0.048067484;-0.068042055;-0.08459799;-0.028608331;-0.066254914;-0.04895229;0.054202747;-0.02500087;0.030343644;-0.06644385;-0.03339975;-0.07197021;0.010765633;-0.045322195;0.002514033;0.016160775;0.086808;0.008447594;-0.015875839;0.033760667;0.053194653;0.016299115;0.05151434;-0.023742713;-0.06089241;0.01571619;-0.077064864;-0.0022540155;0.05474124;-0.043425594;-0.018812705;-0.02677131;-0.027705392;0.0024649105;-0.011778526;-0.00085833494;0.070840396;-0.025902934;0.0578114;0.021122655;0.03932566;-0.0051583336;-0.012227159;0.011523554;-0.04972592;0.0031798375;0.058759894;-0.039523806;0.04082523;0.047361307;0.080294535;0.036829565;0.057857603;0.016825963;0.061040986;-0.069149315;0.04379321;0.016232787;0.01517366;-0.005942976;0.01714592;0.010616145;-0.05847279;0.036360398;0.063548826;0.011077971;0.026281802;0.022853978;0.048857898;0.035405945;0.013467814;0.045003835;0.048225418;0.02159636;-0.046016887;0.029387217;0.02390774;0.015162647;0.06597413;0.004390374;0.046761446;0.04954495;0.03649156;-0.04377029;-0.04989991;-0.054144368;0.053718332;-0.0075805155;-0.0061849207;0.003952172;0.030233212;0.05153678;-0.048546687;-0.035088044;0.059570473;0.05413652;-0.05231927;-0.045357037;-0.011109905;0.030133111;-0.011298836;-0.058415897;-0.03696419;-0.039252523;-0.0470828;0.04863314;-0.038965747;0.036514167;0.02693812;0.031058565;0.05962885;-0.08237037;0.051926978;-0.075071536;-0.049962636;-0.05758772;-0.02249955;0.040821724;-0.0728256;0.042805113;-0.018766886;0.06269427;-0.06907692;-0.052900422;-0.030116724;-0.019063035;0.006101686;-0.038740974;0.007859694;0.07583432;0.027994305;0.06372431;0.061460175;-0.05804647;-0.0043256683;0.036287483;0.00081083656;0.04117915;-0.03745914;0.09297993;0.007183508;0.05949316;-0.033753052;-0.08268147;-0.007510764;0.003361365;0.013986271;-0.022300027;-0.078122795;-0.04051509;0.061027467;0.038308322;0.043847553;0.057928104;-0.00062035816;0.05267421;-0.025874471;0.052278586;0.0039168294;0.01426791;0.035492446;0.0270731;-0.051004134;0.008421986;-0.071161985;-0.04290299;0.03326708;-0.0043873363;0.022863703;-0.035344835;0.049710896;-0.044360608;-0.027122524;0.0078449985;0.06085039;0.011523079;-0.08122638;0.046509016;0.028677298;0.0169028;-0.03302315;-0.00092766644;-0.050559;0.069413394;0.035342723;0.0059375092;-0.008641763;-0.06073031;0.016829874
3;-0.0031728412;-0.006980584;-0.050985046;0.06868678;0.0327057;0.012605812;-0.020521386;-0.06506267;0.024621898;0.043473065;-0.05737743;0.0014597087;-0.03492681;0.0062202867;-0.048967194;-0.00064953766;0.029726112;-0.0050356975;-0.0049483953;-0.03032516;-0.027528573;-0.022902066;0.051239796;0.043530963;-0.028514562;-0.072622016;0.014418742;-0.05492739;-0.08904438;0.04743411;-0.020591326;-0.06377018;-0.0818616;-0.030515991;0.011514433;0.027817452;-0.008653127;0.038993016;0.0010333929;0.0319051;0.011234705;0.0067448146;0.007129181;0.034772307;-0.03610249;-0.03348531;-0.062874354;-0.0610812;0.0018881451;-0.03795278;0.0049519585;0.025097819;0.045669943;0.06356728;0.0020981696;-0.046662882;-0.038712986;-0.023279747;0.0031389017;-0.064808056;-0.07658205;-0.011545817;-0.032532003;0.026334764;-0.049580544;-0.02955862;-0.031098908;0.029863898;0.016536642;0.04741699;0.040531088;-0.003160286;0.016556581;0.03983719;-0.005536305;0.046418674;-0.04467947;0.041137297;0.083759695;-0.04628956;0.021840231;-0.009427382;-0.023707082;0.02872466;0.012725204;0.053695742;-0.021101194;0.091208786;-0.044824686;0.051367056;0.07075087;-0.055286776;-0.04773772;-0.03964296;0.0060031624;-0.032317627;-0.04293055;-0.051726613;-0.015416567;-0.07566733;-0.028787924;-0.049223986;-0.024113458;0.009547367;0.030998433;-0.0056762868;0.021257546;0.04262348;-0.0781494;0.008188892;0.009608141;-0.009228559;0.01766167;0.05517187;-0.025317261;0.00043181266;-0.020382386;-0.041339;-0.058295842;0.031006634;-0.08507818;-0.0016926428;0.056825966;-0.0032677953;0.030693738;-0.037743844;0.045160655;-0.04420832;0.01782858;-0.06543612;0.09372633;-0.0056748977;0.031664908;0.060120847;0.0088804;0.010754656;0.015126062;0.04217068;0.0064958534;-0.069005735;0.009421323;-0.007929501;-0.012034661;-0.072321616;0.030689828;-0.08379347;-0.054778825;0.002080752;0.052611463;-0.0886512;0.016085662;-0.09246328;-0.012920922;-0.0054857223;-0.029506272;0.04724311;-0.0957258;-0.034134522;-0.029352471;0.06361617;0.0068944436;-0.034018192;-0.029108949;-0.0707404;-0.03910714;-0.10380421;0.020364827;-0.08856739;0.0034677254;-0.043352205;-0.06727834;0.03487515;0.045810398;0.027127746;-0.06804283;-0.090182155;-0.07627473;-0.07635739;-0.027933978;0.029203435;-0.05935097;0.012713888;-0.030385174;-0.007177167;-0.0021402196;0.0030420588;-0.045781728;0.010829261;-0.052201852;-0.06472977;0.02493655;-0.046146855;0.0025191077;-0.032431882;0.055620454;0.07548588;0.050512526;0.076109804;0.07019294;0.01827923;0.045278605;0.06917322;-0.00036326385;0.057064865;0.029296167;0.040858064;0.06314421;-0.06293558;-0.040887825;-0.020759292;-0.06440682;-0.047123235;0.05928554;-0.06240764;0.049716897;0.0063509555;0.049868744;-0.005886586;0.029516153;-0.043056767;-0.02183593;-0.076065;-0.053070355;0.031610064;-0.032395646;-0.023027556;-0.043682527;-0.050440717;-0.0037098397;0.038494423;0.028721884;-0.015230272;0.030662473;-0.066781014;0.0365976;0.07679024;0.068614855;0.05973256;0.012804311;0.061477747;0.04080944;0.033552587;-0.052387245;-0.06845303;-0.015539781;-0.029597761;0.057386853;0.08329865;-0.04584835;0.018527782;0.0367212;0.058888644;-0.033973143;0.0051190117;0.03873676;-0.025620587;-0.03480798;0.03540094;-0.002357184;-0.064694636;-0.03318543;-0.07435502;-0.037996456;-0.07380083;-0.060989715;-0.022989491;-0.031044932;0.026065385;-0.027830783;-0.09018222;-0.058601674;0.037078947;-0.042408563;0.0057861255;-0.08917096;-0.008169673;-0.06502468;0.037304293;0.04819971;-0.047648188;-0.012758439;-0.059148304;0.024959588;0.02002547;0.010677239;-0.09945788;0.049551234;-0.055925015;-0.045182113;-0.004339629;-0.059746273;-0.06617361;-0.0706833;0.045782898;0.0060387077;0.08665252;-0.031047542;-0.0808276;-0.014204811;-0.0574216;0.037353523;-0.029982852;-0.038865793;-0.05387561;-0.089951165;-0.015724365;0.029290844;0.0034828153;-0.060337115;0.04948357;0.078342855;0.07894028;-0.026511127;-0.012310944;-0.052531134;-0.054332893;-0.028374603;-0.008096966;0.060567793;-0.06715301;-0.0038335207;0.06376398;-0.06621428;-0.055682123;0.033495013;0.039190363;0.07029026;0.031025562;-0.052235957;-0.0550466;0.035947397;-0.06363843;-0.036035355;-0.019552479;-0.041016344;-0.007967534;0.013496305;0.00022054801;-0.059950653;-0.0799762;-0.06841423;-0.044678904;-0.055998344;-0.08092138;-0.032667562;-0.05255752;0.025771657;-0.03528381;-0.042736746;-0.019499747;-0.0017238364;-0.041772455;-0.06959071;-0.0038707172;0.012119131;-0.074074306;-0.0945885;-0.02674755;0.00094229693;-0.021823253;-0.05439308;-0.01291835;-0.058630012;-0.01954271;-0.014717167;0.022134384;-0.006709801;-0.040724803;-0.0013224378;-0.03274494;-0.053591434;-0.05323837;0.020144176;0.016320022;0.03673444;0.03373147;-0.07859319;0.04744;-0.0451657;-0.039353836;0.06979496;0.066833675;0.060030524;0.025146147;0.035469886;-0.07583918;0.0070161186;0.06742265;-0.0033447128;-0.08198409;-0.02439872;0.00488439;-0.09731505;0.020472566;-0.080233835;0.05978174;-0.08219659;-0.029249448;0.00032299012;0.053671274;-0.07294869;-0.008108065;-0.02162051;0.041614506;-0.08771799;-0.014033121;-0.030947868;-0.02621544;-0.037432756;0.04202318;0.06696292;-0.053472735;0.015518306;0.07596015;-0.035647675;-0.0124599375;-0.08495327;0.01536812;0.013474771;-0.07831815;-0.04270013;-0.0038952816;-0.054869257;-0.041376844;0.037234683;0.034549117;-0.088303395;-0.0041320855;-0.083241865;-0.06699983;-0.017898954;-0.09671797;-0.019883486;-0.0038710725;-0.03508016;0.041606028;-0.058363117;-0.031389188;0.012304533;0.013089281;-0.004605372;0.059705675;0.025298964;-0.013368612;0.0010913817;-0.049391378;0.012306765;-0.023716215;-0.010849444;-0.014686779;0.08603355;-0.041062843;-0.04134872;0.006888714;-0.0010344221;0.015608575;0.044670496;0.030004455;-0.020813437;0.08498611;0.036809377;-0.0778551;-0.06779139;-0.06680117;0.045890797;0.014807105;-0.02867033;-0.07643282;-0.082310386;-0.040519655;-0.026950669;-0.012262845;0.06029577;-0.054531954;-0.009987362;-0.027871182;-0.016074626;0.036488757;-0.035982076;-0.010303416;0.06358689;-0.0057343454;0.06406914;-0.0036649453;0.028388314;-0.04253689;-0.035079215;-0.052526265;-0.057662804;0.052974954;0.05283978;-0.051833097;-0.01611954;0.021279734;0.034198195;-0.04320051;-0.06867925;0.022546887;0.06317855;-0.0018771098;0.028556284;-0.048670717;-0.11103149;0.027541993;-0.029092528;-0.04136251;0.040361527;0.050796214;0.016881729;0.07269692;0.045269284;0.03055032;0.044151045;0.013706809;0.026612908;-0.001685245;0.05600187;-0.051218435;0.012783596;-0.03345742;-0.012121397;0.0024339973;-0.003839319;0.021746371;-0.050305467;0.023423603;-0.04669688;-0.02915818;-0.03377196;0.0987598;0.06131409;-0.013850917;0.051375605;-0.03734802;0.03859682;0.018566035;-0.0004163331;-0.013939229;0.026450805;-0.048686564;0.0034127955;-0.073708415;0.022489311;0.026315639;0.077843614;0.0550621;0.027099553;0.02491971;-0.05601791;-0.011892869;-0.010289876;-0.043261793;0.009674225;-0.015452654;0.021215303;0.0774471;0.0065447916;-0.019351695;0.03728179;0.01638466;-0.02615984;-0.0692883;0.04630063;0.01804001;-0.026477216;-0.04350156;-0.015351339;0.01957254;0.026471782;-0.054976843;0.079802945;0.077739485;0.05414828;-0.024168015;0.013328645;0.056817114;0.018443229
4;-0.0011108284;0.0154840145;-0.056045074;0.01352138;0.020481562;0.02955467;-0.0169573;0.02212091;-0.030625736;0.030820755;0.020456944;0.054904807;-0.046425886;0.01543341;-0.056659747;0.018423777;0.08825222;0.05524019;-0.04042399;-0.03182156;0.03133252;-0.06140558;-0.006531219;-0.0043123313;0.021160455;-0.0661315;-0.018271491;0.05486691;-0.03463588;0.060560144;0.027107242;0.018607104;-0.049849655;0.026122862;0.045665223;0.0025775007;0.04194466;0.044950966;-0.02732351;0.021783423;0.018897135;-0.003118358;-0.002617164;-0.012475997;0.037203826;0.060640268;0.056964245;0.035181623;0.067743436;-0.081168585;-0.034353156;-0.0695143;-0.06523115;-0.08668122;-0.035169832;0.03591608;-0.038230896;-0.06581388;0.009379586;0.057911884;-0.040297076;-0.0033461354;0.014370429;-0.06489012;-0.06238666;-0.043265507;-0.052804794;0.067824274;0.04748074;0.03411591;0.031376883;0.096727006;0.08150025;-0.049521334;-0.05125761;-0.00027185687;0.0080797635;0.08609141;0.058631465;-0.07287747;-0.065276936;0.039767705;-0.037456714;-0.029896557;0.022175347;0.01803508;0.04594519;0.03749867;-0.040897444;0.02729875;-0.042281035;-0.05714601;-0.024325963;0.009721988;0.031263627;-0.06659835;0.036238458;-0.026277602;-0.0075698975;0.057043448;-0.032851502;0.042287048;-0.0013368905;-0.013103783;-0.016559944;0.0006202393;-0.008256892;0.05166369;-0.011802169;0.057227083;-0.029272508;-0.033757925;-0.029538646;-0.04553671;0.01791679;-0.04998541;0.009263453;-0.01788158;0.059429914;0.0743941;-0.039336197;0.048114236;0.051583983;-0.016298883;-0.0257753;-0.00032274687;-0.055137217;-0.057266615;0.095647566;-0.021952437;0.008441551;0.050961472;0.047544606;-0.092569195;0.012828791;0.053246208;0.061024424;0.045698483;-0.012271735;-0.01995426;0.03551524;-0.004835501;0.013022346;0.00012047753;0.007246677;0.076404646;-0.042832125;0.030094909;-0.03150731;-0.086339176;-0.06252419;-0.018293593;0.0067988797;0.00080299936;0.0150663955;0.051945653;-0.018483175;0.062409304;-0.03563814;-0.058943305;0.024058552;-0.043567713;-0.07517977;0.02771053;-0.03393896;-0.036253043;0.002254977;-0.019258523;-0.07183656;-0.032224912;0.016041992;0.0067645623;-0.030047342;-0.06915848;-0.02903405;-0.079260424;-0.039751247;-0.063470624;-0.040594555;0.035583336;-0.009219662;0.017573575;0.0029164886;-0.053194903;-0.050336167;-0.053402252;-0.0146227805;0.046423115;-0.048090883;0.03434067;-0.018162772;0.0072911545;0.018463936;-0.009045488;0.008344983;-0.10130788;-0.059637595;-0.032047234;0.055661846;0.07107087;0.023890296;-0.049014464;-0.015272485;-0.019858642;0.052122906;0.014397304;-0.10915849;-0.073252246;0.054275256;0.0019388007;0.08188225;0.030842796;-0.023600945;-0.04020851;-0.059403487;-0.05197749;-0.07437476;0.058152515;0.031036409;-0.058669467;-0.013417691;0.023457246;-0.019351471;-0.057059847;0.014576183;-0.031820685;-0.041653976;0.0061843866;-0.06403133;-0.005964939;0.054684408;0.049365304;-0.028675945;0.0708747;-0.058567856;0.045066174;0.054309968;0.03652198;0.011153671;-0.004156921;0.0095972065;0.0031173464;0.06806398;-0.06852509;-0.0102401925;-0.0025177286;0.0507795;0.040778473;0.010968933;-0.023135543;-0.022881513;-0.08285314;0.06640745;0.039800946;0.02912109;0.034617256;0.043805394;0.056550752;0.04874303;0.0652918;0.017153515;-0.03845896;-0.077149786;0.0029203366;-0.024462098;0.02728487;0.019365765;0.038213126;0.024921952;-0.0006129467;0.0071296194;0.030013077;0.03645809;-0.06851808;0.02647893;-0.04343582;0.058355905;-0.027879938;-0.027711403;-0.06648164;0.044645447;-0.043941684;-0.03473472;0.049993884;-0.062436353;-0.031362206;-0.026938232;-0.06164989;0.023024602;0.046164785;0.05587702;0.008973516;-0.008821486;0.011767714;-0.034110527;0.00434316;0.020930376;0.027040109;0.058557905;0.034090616;-0.02537618;-0.029664159;0.07548191;0.05885008;-0.050750967;0.033394393;-0.035704937;-0.03368374;-0.022354366;-0.032441318;-0.09007217;0.03013111;0.01010124;0.016498271;0.049679544;0.03805951;0.06137183;0.057327904;-0.016389739;0.0037461007;-0.00026124815;-0.06799908;0.04140834;-0.05280091;-0.03862036;-0.050061394;-0.047499727;0.0411899;-0.049605843;-0.046464376;-0.059274442;-0.07038581;0.06066274;-0.01755531;0.046049755;-0.0667838;0.048532214;0.05188682;0.032295946;-0.0341888;0.024378292;-0.0063822167;0.0022884703;-0.014198479;-0.056628086;-0.011502377;-0.057406325;-0.06456551;0.044873353;-0.009575301;0.0032303878;-0.00017157805;0.065372445;-0.0043676435;-0.057079222;0.049949452;-0.023998998;0.044542752;-0.02898484;0.032385584;-0.026746538;0.018454555;0.03275246;-0.041667603;0.0085957395;0.008910722;0.016206456;-0.081877984;-0.011236474;0.012012615;0.024489526;-0.010222071;-0.08076989;0.059637263;0.013676315;0.02484119;0.021381108;0.06363112;-0.056921307;0.015147454;0.04862934;0.032224275;0.06666222;0.024656298;0.013024086;0.049568452;0.010306071;-0.052302334;-0.03968788;0.04872751;-0.0102509875;-0.0042839493;-0.045388903;-0.05234105;0.012981884;0.07692306;-0.05737384;0.062140018;0.051050067;0.012842661;0.06453541;-0.03745339;0.055043582;-0.005886521;0.0632097;0.030629825;-0.022191443;0.00161234;0.056991436;0.04370894;0.003024946;0.024789749;-0.013559304;-0.02617374;0.020052243;0.020497143;-0.035301924;0.017584445;-0.043648046;-0.0563966;0.056385424;0.007358651;-0.066806845;-0.041492734;-0.050201025;-0.056017604;0.03188347;0.025525263;0.06012115;-0.034524594;0.020636639;-0.0018125538;0.082326375;0.064360626;-0.022107165;0.02784314;0.03204163;0.086152084;0.0917069;-0.010845671;-0.058532327;0.038300943;-0.056826893;-0.011101743;0.0032555372;0.077162236;0.07556372;0.07052972;-0.024899963;0.035251554;0.006480639;-0.03108324;0.054877598;-0.046129256;-0.0021179612;0.08815618;0.025469199;-0.0029625904;0.06582636;0.013869216;0.020815354;0.0222559;0.054143757;0.011941346;0.024475746;0.09584372;0.011641307;0.055891857;-0.06341381;0.059888717;-0.022143532;0.01210203;0.01851092;0.08532935;0.021444887;0.0386083;0.037334424;-0.0099478215;0.012993079;-0.06824725;-0.0014600395;0.011635367;0.07765665;0.0063924296;0.020659177;0.0758762;-0.018153667;0.02501399;0.05293751;0.051812544;0.049841974;-0.038632058;-0.036991388;-0.028044637;-0.000757493;0.011349818;-0.06798202;-0.021045426;0.04037848;-0.060779117;-0.054930665;0.041211296;-0.017719053;-0.05775625;0.033354543;0.080128685;0.07844181;-0.007882333;0.09040154;-0.03846309;-0.010016176;-0.029444693;0.07156409;-0.025255494;0.05898338;-0.022651933;-0.050983764;0.060955912;0.037802465;-0.0636441;-0.076979235;-0.026196286;-0.08758181;0.030110182;-0.002177796;-0.050426435;-0.016862482;0.043091074;-0.058014274;-0.0582795;0.08840123;0.010699038;-0.020364484;0.08298606;0.051624753;0.051490285;-0.007769272;0.0672239;-0.05371814;-0.0032583282;0.02432143;-0.037907694;0.07490177;-0.057068467;-0.015967466;0.0034367612;-0.05512374;0.010492448;-0.06175909;-0.006345716;-0.045848005;0.034628246;0.091079704;0.011300247;0.04630689;-0.032820355;0.011752056;-0.058778413;-0.048894588;-0.026338724;0.048211847;-0.043804757;0.059870407;-0.04819955;-0.008814997;-0.03941757;0.001729609;-0.07323045;-0.005740855;0.08668011;-0.0408205;0.052007474;-0.0053427494;-0.0037547075;0.0020219;-0.04915562;0.06860428
5;-0.0018520425;-0.029021177;0.027402416;-4.1401472e-05;0.026408536;0.06839909;0.07520428;-0.023281684;0.08447908;0.059180763;-0.020909684;0.04086641;0.013092478;0.050265305;0.053554263;-0.02801583;-0.07481262;-0.023332644;0.0109364195;0.08182949;-0.0024398651;0.051079277;0.010725154;0.010109328;0.03441071;0.05951079;0.06463625;0.04377764;0.018227605;0.03776385;0.025889302;0.029700883;0.038991038;0.054049775;-0.03614152;0.008943591;-0.024901636;-0.04493029;0.026021266;0.015143118;-0.015951935;0.02999115;-0.05793274;-0.008836693;-0.06979857;0.0027057973;0.038871005;0.007894984;0.020567406;0.012836643;-0.036080647;0.026400475;-0.0026507913;-0.06111257;0.028881008;0.034135073;0.03990244;0.036546726;-0.02061865;-0.059502672;-0.06688404;0.044347387;-0.05881771;0.058998957;-0.07388471;-0.06002819;-0.04172034;0.092967056;-0.014233436;-0.025920741;0.015708031;-0.013788451;0.00083452195;-0.049617343;-0.034530103;-0.002502391;0.034725998;-0.0010366635;-0.040356044;-0.052369494;0.032650493;-0.03794375;0.023889871;0.045489673;-0.059392825;0.045019355;0.002027941;-0.05592375;-0.015781792;0.060268126;0.07139418;-0.056994833;-4.4648645e-05;-0.010140475;0.049598765;-0.059172288;0.013715736;0.04719646;0.0764939;0.052150715;0.04771943;-0.029356565;-0.028909655;-0.042157646;0.025976341;0.044618625;-0.020042447;-0.058713254;-0.031914264;-0.032946125;-0.04671766;0.033690926;-0.026533855;0.078821205;0.0015271418;0.0044912607;-0.051144596;-0.038822245;-0.024528628;0.046468038;-0.037472893;-0.051259432;0.017415704;0.039696164;-0.070523106;-0.008931759;-0.0042196843;-0.018104393;0.03249907;0.059650462;0.043153536;0.019154606;0.034401175;0.026891798;-0.0059615877;-0.025432423;0.04843321;0.033336554;-0.044370607;0.0043589165;0.07297768;0.060073685;-0.03489642;-0.040662743;-0.06420979;0.026168203;-0.028193962;0.05667126;-0.02815833;0.007901296;-0.0083282795;0.05082199;-0.024308253;-0.014563784;-0.06097272;0.050424825;-0.043293595;-0.026027547;-0.04999808;-0.034700576;-0.02197878;-0.0246624;-0.06215276;-0.040749606;-0.037470963;-0.0019186038;0.041425098;0.0669305;-0.0090652155;-0.0077562076;0.09001602;-0.0128653;-0.004236116;0.031691775;-0.046402693;-0.024600431;0.065089025;-0.012007579;-0.015199184;-0.03583384;0.013328133;-0.06438441;0.017782783;0.035736524;0.0015441813;-0.067659706;0.015603415;0.026291074;0.056789406;0.03899431;0.100510694;0.085994855;0.08688246;-0.019413996;-0.00016265223;0.009398189;0.039466105;0.01332384;0.011220649;0.05436856;-0.01643405;0.06778472;0.030643014;0.012331441;0.08734072;-0.0044129696;-0.010345843;-0.05709834;0.0769297;0.09699248;0.026833335;0.08122054;0.004512896;-0.05214122;-0.049169462;0.061092034;0.0055773687;-0.0769282;0.015217939;-0.066317305;-0.03543755;0.009572983;-0.071596906;-0.09611558;0.05548566;-0.026684094;-0.073068894;0.022843694;0.037076123;0.049825102;0.04724166;-0.0282484;0.08919626;0.04338772;0.06914147;-0.07679487;0.052223552;-0.04909332;0.011883399;0.0370916;0.0071196984;-0.044183597;-0.019417418;-0.044414524;0.028668491;-0.028473753;-0.0507671;0.04543413;-0.003297135;0.022076622;0.0056073777;0.013238705;-0.06825603;-0.030301163;-0.09086897;-0.031866882;-0.03802303;0.010385679;0.035169937;-0.0108365845;0.06976773;0.098025;0.058924355;0.006137582;0.06261892;-0.0007140702;-0.031044431;-0.012237259;-0.040685017;-0.00021539287;-0.058725756;0.016827125;-0.092624165;-0.010764972;-0.04362384;-0.049375195;0.05435704;0.012050709;0.06082328;-0.05882061;-0.056592267;-0.038433783;0.042184807;0.066743776;-0.040152535;-0.033434782;0.030790143;-0.0320187;0.042783275;-0.008619335;0.05503092;0.05142611;0.039957322;0.03768285;0.042220853;-0.015646232;-0.05344747;0.023187414;-0.038932435;0.07023798;-0.03960681;-0.0014204639;-0.008857998;-0.007208141;0.036348667;-0.007010737;0.017780196;0.041381005;-0.07600375;0.000649791;-0.027136268;-0.009302738;-0.07041213;-0.053133465;0.0072400896;-0.050385095;0.030037705;0.035007603;-0.055865772;0.019061549;-0.045834493;-0.046736658;-0.013607499;0.015179681;-0.06410519;0.017450778;-0.0037181803;-0.035917968;0.08044945;0.10033256;0.030304393;0.030344717;0.058594294;0.0430078;-0.014626648;-0.05372216;-0.07128536;-0.040695086;0.010199184;0.03954021;0.06164772;-0.01132814;-0.026543198;-0.0524998;-0.04019442;-0.040794916;-0.02082569;-0.05455984;0.055015713;0.07215242;0.022317069;-0.019045694;0.041000996;-0.06591002;0.020311518;-0.044066347;-0.028154392;-0.062285606;0.038934655;-0.057254024;0.015968362;-0.0021720657;-0.033924434;-0.01831436;-0.01765793;-0.029812738;0.032769386;-0.059296917;-0.040570866;0.013391631;-0.02549716;0.020219244;-0.0288022;0.002174695;-0.03824864;0.035628498;0.037887067;-0.031102797;-0.05015896;-0.0051043066;0.084647685;0.084313534;-0.03117251;-3.785585e-05;0.041835397;-0.025174802;-0.07620423;0.03974357;-0.046452083;-0.002198871;0.023998654;0.03126215;-0.019627392;0.051169954;-0.028585028;0.073139;-0.009797091;-0.021740464;-0.06415518;-0.033479724;-0.048579667;-0.00035306724;-0.017630303;-0.06042963;0.0130892005;-0.015033171;0.05389011;0.05969003;-0.04245774;-0.027208475;-0.06347321;0.06188207;-0.047876775;0.049465343;-0.055449247;-0.067883305;-0.0008025319;-0.06788167;0.025013296;0.03482772;-0.08208462;-0.036671955;-0.01984619;-0.01632584;0.033513833;0.019020926;-0.053370245;-0.07240454;0.072074555;0.023661153;-0.03167598;0.05544001;0.07235931;-0.04596025;0.075046934;0.008693808;0.08790991;0.057796672;-0.05337356;-0.022529788;-0.06053249;0.052964237;-0.03054437;-0.004612832;-0.018936943;-0.001211761;0.00057897187;0.05990812;0.03958196;-0.036925476;-0.009733166;0.014572672;-0.050541855;-0.03558465;0.058721546;0.030349454;0.010373626;0.048899975;-0.033225875;0.011376866;0.0154332975;0.00996441;0.066758476;0.045464527;0.064407624;0.03927372;0.038973667;-0.040656265;-0.024469262;0.06647727;0.050889984;0.011736903;-0.043379355;0.047147453;-0.039171383;0.05432683;-0.017015845;0.017873019;-0.023547562;0.015119329;-0.052785087;-0.046920214;0.025812292;-0.01912986;0.050267138;0.0045790006;0.050880577;0.019040586;0.07777579;0.097639054;-0.040165953;-0.054996576;0.0010672592;0.03714726;-0.021754354;-0.013672867;-0.023244651;0.024109287;0.066765346;0.020914555;-0.023749765;-0.008320509;0.09042396;0.024703646;0.027956922;0.07583128;0.084906854;-0.0053291814;-0.019877842;0.015572969;0.022622416;0.0016978948;-0.010531308;0.085547134;0.11042331;0.07723885;0.0074964403;-0.0038282783;0.06585803;-0.0070161694;0.08550309;-0.018808786;0.005382175;-0.052875295;-0.076945044;0.010486372;-0.05522905;0.03961683;-0.011533909;0.047819998;-0.08051505;0.07211291;0.005409927;0.045472838;-0.030728986;-0.024460828;-0.010750245;-0.0073577412;0.070739925;0.06713298;0.07539507;-0.038162265;-0.04356183;0.01645897;-0.023011923;-0.033649743;-0.053375214;-0.077183224;0.051352665;-0.05549995;-0.043857437;0.024846267;0.011666842;0.00058615964;-0.00993116;-0.01759775;-0.027055727;0.0294466;-0.023640985;-0.03441449;-0.07091202;-0.076080084;-0.038157184;-0.011642128;-0.045361634;0.04035605;0.06403859;0.0625025;0.006375279;-0.0039809197;0.04369716;0.06357343;-0.005389093;0.056730982;0.02597942;0.010693919;0.0062646926
6;-0.00030916862;-0.01839345;0.045569643;0.037305813;0.046395324;-0.049122944;0.03584688;-0.022886178;-0.07404752;-0.0049717776;-0.029219402;0.044231534;0.014302503;-0.0032954093;0.0038172547;0.074729666;0.060045846;-0.057116374;0.010103999;0.04432072;-0.050410226;-0.056583624;0.036169637;0.042643838;0.094293445;0.07727594;0.06385432;0.008320248;-0.040407028;-0.0979731;0.004956283;-0.076673806;-0.014168876;0.014006938;0.05085967;-0.025372554;-0.02734807;0.0608826;0.08756198;0.023221737;0.033518147;0.06056816;-0.062284682;0.06567817;-0.058716558;0.0465156;-0.035009235;0.09129065;0.06804089;-0.0107904645;-0.035597846;0.07459758;0.047431804;0.036120307;0.01983794;-0.08472143;0.0019366589;-0.069527596;-0.026413413;-0.05327678;-0.02071665;-0.0031456233;-0.06003746;0.061588768;0.042974997;-0.059373423;0.022427443;-0.039637525;0.015654609;0.075246975;-0.013919916;0.057167202;-0.015364619;0.009928586;0.063729145;-0.035899777;0.072099164;-0.03102753;0.07242086;-0.045750313;-0.032858666;0.087026395;0.030466193;0.07685952;0.01821147;-0.040000185;-0.011713674;-0.051018197;0.06606181;-0.03385256;-0.042720962;-0.030830601;-0.032006044;0.033989593;-0.04782458;-0.0359614;-0.04825059;-0.029268755;0.04808699;-0.07279926;0.046379115;-0.0077147814;-0.020413358;0.009404894;-0.050325353;-0.022811973;0.009987361;0.02309773;0.026662448;-0.017287286;-0.039018843;0.0095414575;-0.048724923;0.040302448;0.027153643;-0.032013018;0.02780151;0.054660644;0.011653145;-0.037903965;-0.08596205;0.0600108;-0.092810765;0.013883929;0.024657719;-0.06292094;-0.10036711;-0.058719575;-0.011513833;-0.06332062;0.0509555;-0.0052244705;0.07313868;-0.020281462;-0.046211023;-0.042774558;-0.020412033;-0.0734276;-0.0678524;0.00752799;-0.0656856;-0.04980122;-0.070678756;0.039617144;-0.04838115;-0.053932156;0.019213574;-0.049446587;0.035787355;-0.018966498;0.023929829;-0.028000072;0.010807982;-0.07181322;-0.028821174;-0.02597793;-0.055097133;-0.0363675;-0.07969437;-0.04803887;0.02307075;-0.022056835;-0.05615397;0.00059765496;0.07439796;0.10567461;0.05935371;-0.024201425;0.036035802;-0.007975739;0.067048505;0.049616825;0.052577008;-0.04684901;-0.07393407;-0.037973285;-0.0008760349;-0.061354887;-0.04629404;-0.0049731946;-0.05590745;0.03112283;0.012432985;-0.049387794;0.019287735;0.033036;-0.07929347;0.0071606976;-0.016843075;-0.050647542;-0.06443889;-0.025121026;-0.017133491;-0.059236035;-0.0080867745;-0.0116804;0.01331778;0.04658356;0.059844397;-0.07701558;-0.07733795;-0.05600182;0.031583197;0.04057107;-0.02805182;-0.055160545;0.041565;-0.042944275;0.05893938;0.014167988;-0.015755527;0.07285872;0.003971993;0.048744973;-0.023207016;0.015198307;0.045187693;0.083965674;-0.013469821;-0.010028655;-0.04570424;0.043969538;-0.049981102;-0.027929671;0.045454644;0.036796812;-0.032126877;0.037460566;0.05218495;0.041390598;0.02044086;-0.004758777;0.06578565;0.034131125;-0.030901728;-0.032452986;-0.04987071;-0.045755625;-0.051422562;-0.041111507;-0.037268087;0.007156487;-0.016774341;-0.05756397;0.018016728;-0.0010637608;0.045859646;-0.050470762;0.035557143;-0.01934104;0.018158844;0.047552828;-0.081039436;0.028330306;-0.0604256;0.00923285;0.06406218;0.0011591752;0.04352822;0.012986327;-0.026900155;0.051671416;0.02781908;-0.034848385;0.0720646;-0.02530807;0.016397381;0.05611779;0.060375698;0.046325326;0.0061059496;-0.07510142;-0.012626224;-0.07657045;0.038860656;-0.079456545;-0.078642204;-0.052033205;0.0257893;0.003230164;-0.049546048;-0.0077212723;-0.034713674;0.080152065;0.03315675;-0.061375495;-0.05614277;-0.06627005;0.025634265;0.027579455;-0.07622888;-0.011135174;-0.001123203;-0.036241353;0.07077305;0.07067589;0.052455064;-0.047769647;0.07175701;-0.02511498;0.02867847;0.05257136;-0.028052127;-0.018063452;-0.04462833;0.038533226;0.02546409;-0.006537698;0.023557067;0.068468116;-0.023275465;-0.06399753;0.01857745;-0.040140234;-0.028002651;0.07552639;-0.05957178;-0.012614256;0.04631226;-0.0047939853;-0.067907356;0.045801114;0.055695716;-0.050938845;-0.007348312;-0.027374137;0.0483252;0.028100543;0.018382143;0.050635498;-0.009875569;-0.03559271;0.006991278;-0.06169329;-0.061013106;-0.06425982;0.027142012;-0.070836976;0.009797513;-0.008562417;-0.003756798;-0.093995556;0.014172562;-0.018572023;-0.04246067;0.0110530285;-0.0014211924;-0.09460244;0.057142816;-0.08136831;-0.0740278;-0.055884488;-0.013588565;0.0005840848;-0.0050955107;0.010776711;0.0697199;0.0041632834;-0.012075197;0.045576427;-0.031136805;-0.00876379;0.02334033;-0.042471245;-0.027251717;0.0025543272;-0.04670292;-0.037875354;-0.022778716;0.030255727;-0.056185056;0.043457158;0.08147783;-0.07193387;-0.07044722;-0.010424668;-0.014594061;-0.019160584;-0.034032036;0.06642513;0.04739023;-0.050157946;-0.020464815;0.040483683;0.059575144;0.0351686;0.012778356;-0.0738256;-0.018249849;0.04719016;0.052117918;-0.040914845;0.062537014;0.063808195;-0.0004463967;0.042009097;0.025045304;0.006289941;0.025257755;0.028119383;0.01777123;-0.02291342;0.033126384;0.027517641;0.038070407;-0.00095213344;-0.009120436;0.04730838;-0.00973892;-0.00859156;-0.027104976;0.03965561;-0.025885982;-0.008942361;-0.041680504;-0.02335831;-0.046091933;0.05098343;0.01936076;0.073436044;-0.080406435;0.038857844;-0.04295989;0.069883004;0.020578966;-0.017727837;-0.04862212;0.02031563;-0.02734292;0.006466183;-0.00040693683;-0.057141915;0.073809594;-0.053685676;-0.014063238;0.02545168;0.030102115;-0.057821248;-0.003108844;-0.05242187;-0.015691234;0.068446405;-0.08764698;0.052874006;0.018812606;-0.06745374;-0.08714418;0.0092352275;0.0061302;-0.014925428;0.0045334795;0.06757349;-0.00020906466;0.025059022;-0.025360303;0.031988565;-0.0010473415;0.06653606;0.0008227635;-0.052036196;0.039163265;-0.06535177;-0.032408018;0.0075519765;0.025870379;-0.0402942;-0.0016767599;-0.01696632;-0.028096065;-0.055344045;-0.02464264;-0.018446613;-0.06372514;-0.09393566;-0.07705674;-0.021794418;-0.027698696;-0.040500347;0.08100951;0.043972336;-0.048399955;-0.015512759;0.06539438;-0.03277916;-0.020297483;-0.052463427;-0.006509759;-0.01591248;-0.07006871;-0.0949395;-0.053333007;-0.0420684;-0.05868405;0.008335041;-0.074961096;0.01701277;0.043218657;0.0073372866;0.045317285;0.04832285;0.09863878;-0.010471609;0.08934513;0.029075367;0.037359647;0.05568753;0.0063065025;-0.050378736;-0.030302666;-0.05452633;0.022471538;0.012692362;-0.043416537;-0.053556055;0.011492425;0.0675257;0.023077201;0.011345662;-0.06552994;-0.034852993;-0.04828623;0.040534317;-0.06900617;0.042093556;-0.047034983;-0.0497214;-0.0052172653;-0.0026811678;0.04763422;0.07846245;0.005005616;-0.07700546;0.051317293;0.041436307;-0.059697118;-0.052189134;0.022604667;0.002951322;-0.011378169;-0.03568309;0.0003952298;-0.062890664;0.0358636;0.012646621;-0.013317904;-0.08160182;-0.038520824;0.03227588;-0.00936611;0.0029476392;0.030117085;-0.020410609;-0.026358867;-0.014446077;-0.07019836;-0.09492728;-0.08927867;-0.04610691;0.01126933;0.05198126;-0.082686044;-0.04144687;-0.065772645;-0.008125109;-0.0551431;0.021802707;0.03730995;-0.07797282;-0.025994552;-0.03930063;0.003291696;0.031092258;-0.013068547;-0.042667545;0.01619354;0.024436904;0.014460189
7;-0.00042962658;-0.018921807;-0.07171462;0.049070437;-0.030178497;-0.027348971;-0.016384337;-0.033963095;-0.009116032;0.01789811;0.006490418;-0.05949837;-0.002887074;-0.068121806;0.01512588;0.017218282;0.013551416;0.032557026;-0.009844663;0.035454836;-0.00074577983;-0.014132983;0.018201448;0.053038426;0.043923937;0.03199442;0.0048054326;-0.023984918;-0.08766686;-0.017771691;0.052208025;0.032637853;-0.0506819;-0.018234633;0.02730744;-0.030103352;0.037984475;-0.0762659;-0.0343574;-0.07812595;0.05637774;0.025194667;0.007981067;-0.0111425035;-0.042576797;0.039185468;-0.03268635;-0.059301663;0.045383457;0.014932682;-0.024354352;0.035440724;0.06974209;0.043257475;0.042386025;0.0500313;0.03940469;-0.059997495;0.03256522;0.007415742;-0.020691939;-0.025533805;0.00700193;0.021477707;0.028068302;0.020322327;0.013820801;-0.009995691;-0.03661679;0.014391005;-0.08487792;0.033100467;0.021405812;0.036881167;0.002408788;-0.00045264728;-0.0032041015;0.044063967;-0.00400177;0.014455587;-0.024187038;-0.03921904;-0.019845104;-0.024587635;0.053291626;-0.017919358;0.004244038;0.058909897;-0.079321876;0.017773787;-0.00023154702;0.05905884;-0.033548012;-0.04367487;-0.0003021948;0.022608047;-0.013060525;-0.046708923;-0.00080674526;0.0034180214;0.05606777;-0.025597261;0.05512567;-0.049646422;-0.015341996;0.027652087;0.04799663;0.063538276;-0.042313393;0.050346453;-0.008416683;0.01590884;-0.055167645;-0.06861413;-0.015015149;0.055883635;0.0092090415;0.026370363;-0.007289331;-0.09299595;-0.03288111;-0.0493043;0.043388244;0.036486417;-0.06887011;0.0928477;0.0614502;0.011051491;0.012831179;0.07858884;0.024645908;-0.01986188;0.03323634;-0.0066780597;0.07421782;0.012987961;-0.011029105;-0.041333575;0.033263087;-0.057670932;0.012095942;-0.015025272;0.03132109;-0.018039515;0.02263925;-0.03129736;-0.01685707;0.017646598;-0.006117187;-0.008116547;-0.005510418;0.031453017;0.0622833;0.038505133;-0.069891766;0.022530891;-0.021952868;0.028112857;0.029354408;-0.029181955;-0.10014768;-0.04890814;-0.052990902;-0.079851076;-0.068893716;-0.10469301;-0.05104744;-0.05314213;-0.09332729;-0.060389135;-0.061457664;0.06382886;-0.0038096816;-0.030779203;0.042557746;-0.013042049;0.03767541;0.036797218;-0.04659379;-0.05321755;0.03289916;0.018213695;0.06819743;0.07212626;0.07148951;0.06013294;-0.07017351;-0.07965155;-0.028965605;-0.015863933;0.016938874;-0.06498357;0.077483036;-0.002178388;-0.06307021;-0.028332697;-0.022371493;-0.03015608;0.09678396;0.016188843;-0.026039923;-0.019596532;-0.0666581;-0.018432086;-0.08619296;0.0031938413;-0.046258755;-0.052409183;0.030633502;0.01315186;-0.045603447;0.048035912;-0.022054406;-0.044974234;-0.049607407;0.0008695497;0.009385209;-0.048848454;-0.026951201;-0.04582775;0.056775473;0.052851908;0.010529244;0.062931426;-0.068359606;0.011124599;-0.028835995;0.07468769;0.03785671;-0.032640114;0.046514742;0.041666996;-0.047119867;-0.06646885;-0.039961565;-0.06826795;-0.067533575;0.0120115075;-0.046499383;-0.012641012;0.0069997716;-0.028724408;-0.057129283;-0.028906286;0.02322491;0.031615213;-0.0058967425;-0.061687153;-0.010029888;-0.048826396;0.030023621;-0.0119732525;0.057953577;0.006900872;0.06816548;0.027972613;0.011086973;0.042562563;0.0053922865;0.080830105;0.053843074;0.0324487;0.046007715;-0.011007876;9.091047e-05;-0.03041297;0.017718695;-0.0027915724;-0.017261364;-0.030200996;-0.036256846;0.023821902;0.089287594;0.036154922;-0.03171223;0.007019893;-0.0004728971;0.055292916;-0.00615506;0.04899062;0.06469356;0.033861484;-0.03228456;0.1272617;-0.027399782;0.11934265;0.08107294;0.0827171;0.059096597;0.07999558;0.046790358;-0.04900047;0.052743893;0.040479787;0.09470912;0.08812;0.071563736;-0.044368695;-0.0035333938;-0.058222327;-0.007721044;0.036681965;0.01206874;-0.03593288;-0.030449755;-0.05284652;0.037920795;-0.019102508;-0.027806599;0.041022483;-0.0004992658;-0.007604029;-0.010697638;-0.028041752;0.0069625294;0.00764682;0.025380334;-0.032148134;0.047488052;0.053217016;-0.025078384;-0.022780817;-0.024238165;-0.028390717;-0.049654864;-0.004978452;0.055850532;0.059186153;0.02611277;-0.010437233;-0.04395784;-0.022208927;-0.017428065;0.079201795;-0.02141817;-0.027110891;-0.005108909;-0.07037276;-0.09169208;-0.057819735;0.019020006;0.04416449;0.033814527;-0.05552542;0.06284007;0.083401784;-0.07496099;0.026429014;0.018916981;0.057598583;0.05420974;-0.015673375;-0.041281447;0.03799327;0.010147022;0.07298518;-0.01929106;-0.012788799;0.08640044;0.053017713;-0.0318586;-0.08169226;0.041191787;-0.051859785;0.0022885283;0.015597034;0.058782555;0.0861608;-0.048714023;0.02197945;-0.082727544;-0.025197446;0.0012931105;-0.044302;-0.08369198;-0.049531426;-0.021216875;-0.034381833;0.046435602;0.047733203;-0.016865794;-0.00621262;-0.0145675205;0.048757307;0.011696164;-0.007439837;-0.048173252;0.0055336766;-0.02318566;-0.055305745;0.004490943;-0.042848326;-0.007265634;0.014885006;0.03840087;0.027538061;0.021987326;0.06782165;-0.0012867267;-0.0027780544;0.05548712;0.051756706;0.0072270916;0.026928052;-0.041483246;-0.0024701264;-0.04530181;-0.028468879;0.03461077;0.011323416;-0.047266047;0.0300749;-0.021217976;0.067010045;-0.033457134;-0.039766617;-0.016642202;-0.018878007;-0.040949218;0.013920864;-0.00084915117;-0.00420932;0.02690873;0.026051886;0.069514595;-0.033272825;-0.0571746;0.012290645;-0.0046643354;-0.02884899;-0.05215988;-0.07251784;0.0060987417;0.02372612;0.020933704;0.05718968;0.053622458;0.07344489;-0.019434776;0.022629287;0.08066971;-0.0007324403;-0.0697691;-0.06473339;-0.052532393;0.035068326;0.033908077;0.0336817;-0.031049231;-0.024786683;-0.05143949;0.018499942;0.063673146;-0.024308387;0.061554592;0.02694742;0.03996569;-0.047357086;0.0054780836;-0.042919178;-0.03734329;-0.06120287;-0.05014224;-0.042371552;0.03865709;0.014784758;0.09501394;0.0845356;-0.0033102334;-0.04907648;0.0071430937;-0.06390061;-0.07234239;0.06623387;-0.017939623;-0.021472102;-0.04409219;0.039595265;-0.043368667;-4.9423987e-05;-0.016833637;-0.011381979;0.04746937;-0.0106395455;-0.045918956;-0.06473649;-0.043240573;-0.0008534474;0.05585799;0.040372197;-0.051116;-0.07042876;0.03601347;0.0020246427;-0.04755784;-0.0730395;0.007362498;0.0075951796;-0.040230494;-0.029372795;0.020822823;-0.056083344;-0.088426605;-0.08750041;-0.023451967;0.0020595065;0.041018892;-0.01586399;-0.028964091;-0.04799171;0.032797687;0.017495982;0.027577672;-0.003952614;0.03099885;0.041122682;-0.012372747;0.04089099;0.04307578;0.0076826154;-0.021529626;0.058835812;-0.059927464;0.031845912;-0.018642882;0.067105144;0.021091186;0.056669578;-0.033175703;0.039978553;0.010004815;-0.064966395;0.014318348;-0.024656953;0.02921549;0.0025116103;0.047054436;0.0047188313;-0.059062768;0.04724811;0.073300526;-0.037388343;0.0647456;-0.060311906;0.068202086;0.055346053;-0.06669705;0.064631976;-0.060661513;-0.10054581;0.06006298;-0.041802257;0.03392209;-0.042869583;0.053158555;0.04203837;-0.046424855;-0.048845243;0.038436797;0.060978804;0.04349969;0.03443323;-0.026764315;-0.049884126;-0.026659785;0.047603987;0.012327928;-0.037926335;-0.025591698;0.07218309;-0.013803834;0.0712416;0.084646426;0.03875873;-0.03478913;-0.01235937;0.012636527
8;0.006786182;-0.072104946;0.05224031;-0.0051456257;0.05978603;-0.024519963;-0.012818565;-0.020278221;-0.093523376;0.016169911;0.045954;0.05638161;0.057740983;0.0026116997;-0.004532252;0.0055812197;0.070120536;0.036100265;-0.004530821;0.0071667028;0.075299054;0.015469786;0.10185935;-0.01903331;0.06394614;-0.014785877;0.05249487;-0.03401407;0.013082563;-0.039223984;0.040527582;0.041068017;-0.030693343;-0.02820406;-0.045884434;-0.013849504;-0.030260758;0.010927926;0.022783685;-0.016807498;0.011167859;0.005475503;0.06069075;-0.030526038;0.015117295;0.02181856;-0.0016421776;0.047390573;-0.061457794;-0.058218103;0.06152009;-0.015630294;0.0211716;-0.06859243;-0.031868838;-0.020855313;0.00273001;0.0395759;0.023934927;0.0332342;0.040679477;-0.05074899;0.036240354;-0.0547753;0.007310951;-0.005863764;-0.0051252157;0.02307249;0.049816456;-0.05357626;0.06620152;0.035664313;-0.077322714;0.01988122;-0.065098345;0.036792863;-0.046062503;0.020041943;-0.071643904;-0.06528739;-0.04244747;-0.028268544;-0.010701927;0.05911853;0.06361532;-0.042477623;0.027045863;0.020621771;-0.049598925;0.06782545;0.09399834;-0.040960398;0.0237803;-0.043206677;0.036343895;-0.039901532;0.022469064;0.0009926053;-0.018113878;-0.0011037958;0.038248707;0.04099083;0.084482595;0.059854668;-0.03530372;0.065330006;0.011283403;-0.045375075;0.019951543;-0.015033478;0.01930864;0.03457843;0.051510237;-0.019323433;0.0308868;0.031893946;0.04538315;0.001486686;0.0069412123;-0.06778326;-0.057548277;-0.026998779;-0.06520192;-0.076530054;-0.055688847;-0.009352009;-0.059174605;-0.005047954;-0.053848196;0.02909839;0.060183287;0.025331564;-0.07710239;-0.023308966;-0.031942535;0.03478418;0.01919037;0.04631382;0.013728476;-0.07147956;0.046387173;-0.039399493;-0.034029968;-0.06601554;0.01208466;-0.04448175;-0.08897417;-0.061139394;-0.088531956;-0.034453034;-0.054427583;-0.015087825;-0.0149431825;0.039607987;0.08004558;0.05150786;0.020131111;-0.013080703;0.006393683;-0.031242397;0.06987848;-0.034284275;-0.066921115;0.051562224;-0.06221254;-0.032801673;-0.02073326;0.048100673;-0.010881656;0.0010692899;0.055816967;0.064588;0.059292052;-0.052358612;-0.07063177;-0.054948263;0.02393228;-0.07393817;-0.049457747;-0.06819735;-0.008343446;0.02522251;-0.014565817;0.029036745;0.05710482;0.07755776;0.021804744;0.048386615;0.09480706;-0.009745798;-0.06281363;0.021623114;0.043037407;-0.030517027;-0.026487583;-0.052944902;-0.074838445;-0.047410928;-0.053198468;-0.05169747;-0.06188358;0.014852745;0.06520597;-0.048617017;-0.07532959;0.041131757;0.065194234;-0.013020797;-0.013182547;0.033747043;0.017428463;0.026844054;1.9696192e-05;0.04513127;-0.041833226;0.040867403;-0.041650932;-0.040264733;0.025735276;-0.011661884;-0.020978536;-0.017359672;-0.008212342;0.009586022;-0.064244755;-0.060656674;-0.033399064;0.069193825;0.07221243;-0.015854096;0.037757214;0.038082402;-0.035064753;0.04144162;-0.031268626;0.025959903;-0.049838956;0.0019066118;0.0066549783;0.023648158;-0.002042223;0.047706276;0.050344482;-0.03383422;-0.043791536;-0.015142016;-0.017834187;0.023385718;-0.013478578;-0.026398648;0.020085964;-0.018018005;-0.03858656;0.013793274;-0.035225958;-0.060647883;-0.01892806;0.035333637;0.030849203;-0.11252059;-0.032613635;-0.012732523;0.045773536;0.08448996;0.07136705;-0.03381734;0.004102753;-0.042815633;-0.057506982;0.020515056;0.06232198;0.035113942;-0.059304234;-0.059749503;-0.04928637;0.017580383;0.010230808;-0.029144961;-0.02021724;-0.0065575815;0.036632657;0.028950708;0.020412207;-0.04541534;-0.02050784;0.0149907665;-0.06556345;-0.017264135;-0.0050274925;0.03998381;-0.077537805;0.070100166;-0.033113316;0.0150755;0.0011660942;0.01698926;0.004625998;-0.053016484;0.06930251;0.06105287;-0.013758621;0.0640062;0.022779563;-0.031588715;0.11857211;0.0059607765;0.02983363;-0.085084885;-0.009217171;0.048433583;-0.0150569165;-0.0034904042;0.0703478;-0.032179527;0.0091432445;-0.02727931;-0.06934955;-0.042227075;-0.0640823;-0.055247743;-0.02401434;-0.028715374;0.05396285;-0.033588063;0.027839014;-0.04543787;0.037586685;0.031843744;0.0008824299;-0.025246525;0.064551;-0.015235125;-0.011044118;0.04453366;-0.036100842;-0.043190308;-0.043650612;0.032497212;0.0062643243;0.0037760998;-0.00025306447;0.05937488;-0.057721555;0.029193077;-0.014937709;-0.022258727;-0.0732213;-0.03595855;0.0058472627;-0.011564579;0.025408233;-0.033207044;-0.05597264;-0.061588414;0.035722014;0.04110619;-0.026159203;0.03409978;-0.040613618;0.033628542;0.065154344;-0.072417706;-0.0064359563;-0.060983796;-0.06444698;0.022786904;-0.029172668;0.055278793;-0.0053963405;0.035421655;-0.018194526;-0.05363484;0.026300319;-0.0886503;-0.09116924;0.006649469;-0.07860048;-0.058088858;-0.07976005;-0.06059423;-0.048275124;-0.037565492;-0.0105850175;0.012483684;-0.023915965;-0.06121128;0.021544077;0.006490897;0.037983093;0.06671667;0.037059687;0.062569305;-0.022217503;0.07120956;-0.03882838;-0.03317296;-0.021106245;0.063105285;0.00036021517;-0.01995798;-0.016158914;-0.01765936;0.052874986;0.00792423;-0.063679695;0.0158909;-0.05827336;0.046244446;-0.016095955;-0.06949313;-0.038437683;-0.023418853;-0.07360905;0.03436338;-0.083834335;-0.033593792;0.03171833;-0.046590842;-0.05884128;0.040112842;0.009402132;0.04345359;0.004998268;-0.067232616;-0.0074333353;-0.041281983;0.044027414;0.033489864;0.013116093;-0.0013153224;0.08746714;-0.053967584;-0.046836562;0.02964215;-0.03329352;0.044755258;-0.0528549;0.000991968;0.04505269;0.057028536;-0.02732734;0.038920056;-0.057115626;-0.028826006;0.016175646;0.0051668114;-0.043993983;0.07304772;0.062247798;0.023941206;-0.060172275;0.0036856756;-0.0753635;0.0015712923;-0.06829007;-0.06612377;-0.011452959;0.030033456;-0.06431841;0.027325556;-0.046592496;0.014213097;-0.0059714545;0.0021570418;0.014954153;-0.009859614;-0.050074857;-0.061587244;-0.07074318;0.008535421;-0.05472565;0.061909147;-0.070346154;-0.027577033;0.01856819;-0.053474657;-0.03567047;0.023870708;0.049182247;-0.012287278;0.05035557;-0.0664429;0.008104861;0.0173777;-0.016374605;-0.017725712;0.05299665;0.067482255;-0.009120653;0.026994774;0.017832097;-0.06259266;-0.02046115;0.03986631;-0.0068113026;-0.07695059;0.04785066;0.04261441;0.00093243585;-0.0036541803;0.08025039;0.07483417;0.030153144;0.08581368;0.09685172;-0.04136266;0.03537343;-0.056999158;-0.04771934;0.0056005535;-0.05538459;0.027859913;-0.02283688;0.031945877;-0.027237836;0.028693369;-0.015063851;-0.015375024;-0.042128656;0.04460469;0.08444425;-0.028081415;-0.008286718;-0.019750299;-0.026796766;-0.028611204;-0.041598223;0.0025674345;0.031408988;-0.005811211;-0.070181735;-0.0026090497;-0.025453474;-0.061220933;0.016853154;-0.02434906;0.0075008986;-0.0699625;-0.009612535;-0.02497075;-0.03292345;0.02974621;-0.0061963596;-0.007107587;-0.030639011;-0.0017894498;0.017662691;-0.05412381;0.04607049;0.05326478;0.05912199;0.05893828;-0.042665258;-0.044006616;0.016313298;-0.02992657;0.033334758;-0.013765574;-0.0006050177;-0.050346654;0.016118657;0.057961624;-0.072349936;-0.009376468;-0.02931575;-0.081766956;-0.014433312;-0.0028989986;0.030074503;-0.061951943;-0.06404444;0.013215512;0.032286383;0.017314885;-0.028539902;0.047949355;0.06579484
9;0.0019247535;0.027987719;-0.014888338;-0.009380565;-0.04370058;0.047506507;0.019083293;-0.000631454;-0.074618645;-0.049406976;-0.016328022;0.0055660796;-0.059794392;0.043023948;0.058829185;0.0441973;-0.009663611;0.0049864785;0.017552126;0.09320713;0.035744153;0.084012985;-0.022428442;0.07300429;0.053910058;0.074244596;0.07027275;0.036519077;-0.06331503;0.055254158;-0.041954;-0.052978694;0.009096058;0.061772987;0.06911785;-0.036350843;-0.07539706;0.011079405;0.044342604;0.022233848;0.006540538;0.06928999;0.031173363;-0.029913487;0.026702102;-0.009819709;-0.05617571;-0.012336095;-0.0048151333;-0.06886683;-0.0077766776;-0.02793589;-0.0300172;0.05709042;0.042968057;-0.05775167;0.028083723;-0.08046726;0.0029715444;0.004076558;-0.040358428;0.0006238495;-0.0061866073;-0.046168793;0.021974895;0.06431255;0.054357223;0.01571716;-0.03267851;0.022671167;-0.04098395;0.07188569;-0.06808622;-0.08125653;-0.03341427;-0.10171917;-0.052543007;0.027065633;0.024019668;0.002475865;-0.07439902;-0.06345859;0.051716715;0.05103524;0.025987243;-0.036773;0.05178132;0.023410158;0.06300112;0.079875775;0.016518218;0.060912862;-0.011367511;-0.04767754;0.053421073;0.06585393;0.06463593;-0.04953594;-0.03630342;0.054574117;-0.043587882;-0.01047975;-0.036872756;0.023562595;-0.041219167;-0.06998198;-0.037650514;0.06464713;-0.073285356;-0.069176495;0.06418123;0.034695316;0.044373848;-0.057937723;0.03450902;0.03847672;0.0660376;0.048649825;0.04338157;0.012722542;-0.017339142;-0.049913645;-0.019989261;0.042889472;0.023143638;-0.06480774;-0.008348733;-0.07525058;0.026664097;0.015096606;-0.07578048;0.03242157;-0.07180253;0.04092945;-0.06394755;0.03479353;0.036143724;-0.010828725;0.028527707;-0.058919773;0.014887298;-0.029635333;-0.008591561;-0.05474942;0.023773115;0.032394513;-0.02151813;0.043290064;-0.00051725033;0.047938455;-0.085894324;-0.044620026;-0.0075331363;-0.060906608;0.020062687;-0.023711547;0.059727848;-0.02149625;-0.06304183;0.05187147;0.005145501;0.020885149;-0.060153924;-0.011594792;0.01176023;-0.046908185;0.05076566;0.035582807;0.03923439;0.031647015;0.008780336;0.08150011;0.0056561017;0.031102533;-0.04191511;0.031014675;-0.07586144;-0.052822866;0.0021392873;0.034666542;-0.04477694;-0.05596396;-0.0200122;-0.02631178;0.07444213;0.018438678;-0.026776956;-0.03359195;-0.043726422;0.060414903;0.047777496;0.046198934;-0.03389695;0.009500175;-0.006157159;-0.0079053575;-0.07551392;-0.014212389;0.0021088247;0.0071170474;-0.07110914;-0.063029744;0.051165834;0.035098445;-0.03536671;-0.04457102;-0.07443476;-0.013813783;-0.0033916386;-0.032810695;0.020696338;0.0044961288;0.0695149;0.06573959;-0.022384489;-0.015264014;0.07435742;-0.0031182175;0.045185488;-0.043225575;-0.034106426;-0.04362598;0.06284283;-0.00074638467;-0.005381513;0.057564378;0.0019599437;0.096448526;0.035664394;0.035254855;0.0032758904;0.023087548;-0.038455267;-0.030025538;0.06860339;-0.007191819;0.061359044;-0.045129955;-0.06557045;-0.007156576;-0.058153287;-0.0011895591;-0.02624378;-0.019981164;0.010734511;-0.01120136;-0.04981688;-0.05460356;0.0029685053;-0.09741823;-0.06916225;-0.012891205;-0.04182754;-0.024715688;-0.057894763;-0.024765033;-0.02031263;0.0037717414;0.08255157;-0.03460355;-0.030071875;-0.028294194;-0.022499274;0.032302782;0.027108042;-0.055476964;0.025163235;-0.07099693;0.012744104;-0.023011226;-0.0544919;-0.039134767;-0.056183856;-0.052657757;0.06831029;0.0784838;0.024309492;0.042699117;-0.03318617;0.06515073;0.004260339;-0.05331883;0.036281765;-0.040512774;0.0070287595;-0.04186391;-0.018666146;-0.079027176;-0.066140145;-0.009287011;0.03171546;-0.055016913;0.015052993;0.031942137;-0.059600506;-0.061984066;-0.036347847;-0.07866149;-0.0208128;0.03269776;0.037567176;0.013240468;0.026299255;0.040427525;0.060595375;0.09231249;-0.002412953;0.04786227;0.027169587;0.02153876;-0.03611073;0.0040100715;0.031431973;0.028787566;0.036746826;0.0054827337;0.0019349762;-0.012586219;0.04282806;0.06426576;-0.055631742;0.017067965;-0.007921532;-0.011320721;-0.049085658;0.00794327;-0.01989095;0.07991517;0.017270414;0.016358277;0.03178765;-0.0306631;-0.027141754;0.060460582;-0.063801676;-0.05060472;0.014715248;0.019327393;0.025498275;-0.007383249;-0.0038229711;-0.010981305;0.005192439;-0.017646737;-0.07278791;0.0013101053;-0.02203936;0.04032677;0.016485285;0.016913237;-0.05229369;0.02274846;0.03141694;-0.06081035;-0.045083907;0.041473787;-0.003966526;-0.03972585;0.04545897;0.011761035;-0.017756341;0.061213855;0.04913553;-0.042481318;0.016230106;0.026257865;-0.056620266;0.0775058;0.05713197;0.011132425;0.056730412;0.0041117403;0.048402313;-0.0039549368;-0.06226213;0.054484375;-0.0047858977;-0.016565496;0.0720958;0.07275389;-0.0061799507;0.040148675;0.034934536;0.0058407653;0.050395712;-0.03398525;-0.020247813;-0.056432426;0.041094262;-0.032541204;-0.035568558;-0.0042453026;0.060099933;0.0048705274;-0.019688254;0.018896498;0.045675498;-0.03999809;0.0134970965;0.026704604;-0.07005584;0.042649258;0.056871433;0.054181065;-0.0416528;-0.021309583;0.03520178;-0.045096807;-0.009164479;0.05537904;-0.07337928;-0.036076482;0.009707267;-0.07788489;-0.040410537;-0.009243359;0.052282944;-0.056867607;-0.024966292;-0.023978725;-0.031424407;0.051224913;-0.035479754;0.057094853;-0.014781743;-0.007800629;0.034557097;0.0077965497;0.013014634;0.034153588;-0.043527633;0.04190203;-0.025905829;-0.0022937886;0.020572247;-0.044433944;0.043652404;0.012915052;0.004000658;-0.04977691;-0.043851253;-0.007696015;-0.0618902;-0.024947735;0.0061261943;-0.051399607;-0.033737235;0.06445216;0.030644005;0.046483804;0.01534524;0.021720877;0.024559367;0.06850962;0.08409613;0.038303945;0.02656455;0.0043506864;0.027793095;0.000977512;-0.033238206;0.077535786;0.02644223;-0.07376743;-0.039152015;-0.049285106;-0.06682283;0.003279293;-0.013312819;0.021695737;0.0047063036;-0.07441434;-0.032188028;-0.018351233;-0.027406774;0.070750386;-0.004031612;0.014632194;-0.060387928;0.06261358;-0.075131536;-0.025879486;-0.07095228;0.029093292;-0.0014389697;-0.06613078;-0.054090634;-0.03572568;0.007058034;-0.038393397;-0.03304715;0.025081092;0.0016597011;-0.06592747;0.010386944;-0.05691222;-0.053206906;0.029695941;-0.021317905;0.0136402175;0.022336317;-0.009358946;-0.025949085;0.048017506;0.041861743;-0.0023385999;0.030825399;0.042502638;0.012269449;-0.010383621;-0.035984535;0.040961977;0.030813474;0.042491376;-0.028819466;0.002875405;0.08919921;0.04197303;0.0142727755;0.022144862;0.03801976;-0.009840288;-0.07128565;0.020613357;-0.0013082111;0.030016396;0.040184963;0.040246416;0.018828651;-0.009142082;-0.0348713;0.045856073;-0.050032318;-0.02446621;0.024035258;0.0007291932;0.047156125;-0.0042043487;0.0053151245;0.07442638;-0.06977252;-0.06378205;0.07380444;0.046097986;0.041033927;0.005323432;-0.0017204307;0.06951306;0.0007895677;0.029287275;0.05931462;0.0047678663;-0.03179628;-0.013172829;-0.023501217;0.03786341;-0.05785707;-0.06475137;-0.024963181;-0.009489204;0.0230629;-0.007079097;0.012861833;0.06874269;-0.03674186;0.007859485;-0.06764156;-0.0050666756;0.06361132;-0.048522435;0.06218057;-0.003948662;0.030206563;0.03965605;-0.03763374;0.09813416;0.008340431
10;0.001548929;-0.047380116;0.011137908;-0.037702717;-0.008031327;-0.008641857;-0.0049763033;0.039037324;0.00351533;-0.0046777455;0.058531012;0.032507274;-0.051919874;-0.05667498;0.06305911;-0.038282294;0.049913697;0.04044604;0.023332585;0.009905129;0.070613764;0.08463717;0.037433587;-0.01969919;-0.025760395;0.045342043;-0.063341744;-0.040123165;0.025343508;0.060704228;0.00012515139;0.0068032593;0.026164534;-0.032442454;-0.07468628;0.05783915;0.04553672;0.030565452;0.052621398;0.053801592;0.043811;-0.013266736;0.04982464;0.041026305;-0.030210748;0.040059593;-0.061960682;0.009985947;0.044026334;-0.028929986;-0.047186073;0.029327068;-0.054958608;0.05222027;0.010118201;-0.0026456676;0.07293259;0.07534763;-0.016662257;0.07115178;-0.052407034;-0.018339794;0.07107351;0.028306806;0.0614566;0.027618939;-0.06716535;0.004325745;-0.045158263;0.025233995;-0.024101121;0.064955525;-0.01844457;-0.028543541;0.017942866;0.061365664;0.06137279;-0.061690487;0.050203804;-0.014707068;-0.01156958;0.07156401;0.054099437;-0.0753951;-0.036748465;0.046777386;0.0106081795;0.052384228;-0.051777992;-0.04191955;-0.0035618658;-0.028450744;-0.016574528;-0.07327186;-0.040899538;-0.005879666;0.0017860474;0.0766499;-0.058968898;0.009208323;0.011923077;-0.07073683;-0.022624522;-0.06413741;0.013391353;0.007112851;0.006963925;-0.040464193;-0.040966485;-0.03311713;0.042921264;0.061199274;-0.067467906;-0.024990063;-0.0017813924;-0.030796735;-0.0090903845;0.026418012;0.0130927535;-0.024920577;-0.055293385;-0.074975155;0.0045913253;0.03558613;-0.076143846;-0.010571485;-0.04393076;-0.034913536;0.012720147;0.048476063;-0.05865957;-0.009633537;-0.04335994;-0.0059685227;-0.0031973599;0.0507045;0.06317142;-0.04106447;-0.011375447;-0.028974611;-0.006045503;0.071676716;0.05576678;-0.065892585;-0.004319046;-0.0014564967;0.0030115263;0.0017709822;0.020635847;0.036120083;0.041110046;0.014749841;-0.054180924;-0.062257595;0.055507425;0.014071161;0.008431502;-0.002363721;0.038450558;-0.017369851;0.024473317;0.01800768;0.04804703;-0.027098088;-0.026126979;-0.018998863;0.033271685;-0.058694366;0.03037469;0.022025578;-0.01562323;-0.08002217;0.07451975;-0.024504064;-0.049811065;0.054905973;0.06772956;0.05537297;-0.022240574;-0.02460191;-0.011538859;-0.0057377657;0.05187868;-0.07738376;0.039498135;-0.036793493;-8.464387e-05;-0.01846881;0.009357217;-0.05932022;-0.014347782;0.039384067;0.092331454;-0.0064784936;0.072876014;0.09541651;0.09224775;0.08371561;0.06997053;0.051294263;-0.04296725;0.06039529;-0.0033238423;0.02922139;0.075231664;-0.016005237;-0.06568638;0.0056619374;0.058920782;0.054514505;0.04438569;-0.04054509;0.008344161;0.057192735;0.0610534;0.079430684;-0.063165866;0.05834799;-0.051315065;0.050803468;-0.05761792;0.033096276;0.000178706;0.03308112;-0.016544541;0.00729961;-0.05147713;-0.06678106;0.066605195;0.048520148;0.02002196;0.026159082;-0.01897701;0.058074266;0.025414525;-0.04515397;0.015074692;-0.029046016;-0.06359426;-0.031114249;-0.01314339;0.06148334;-0.02525582;-0.026585367;0.045566265;-0.03070947;0.031449873;-0.03554977;-0.0644513;0.06911337;-0.047546227;-0.012141936;0.05226751;-0.046197247;0.023313845;-0.09293981;0.006590386;-0.032237485;0.04597582;-0.053619348;-0.07404335;0.02101083;0.06842114;-0.029409047;-0.03477002;0.011806119;0.010018326;0.042030573;-0.00034555083;0.024903106;0.035802085;-0.0018990253;0.011989026;-0.00513142;-0.0023324355;-0.040979784;-0.058598943;0.0125276325;-0.06313926;-0.017432166;-0.085475944;-0.054441188;0.05729845;0.046605688;0.05282827;-0.0021369203;-0.02907166;-0.018477825;-0.0313089;-0.010846713;0.05050354;-0.074100114;-0.0804925;0.045946807;0.00891278;-0.041071262;-0.036997538;0.054610353;-0.03895505;0.043306876;0.07332528;0.028853681;0.037740797;-0.023480546;-0.037807014;-0.045337357;-0.06268525;-0.009030306;-0.040117364;-0.015494887;0.010313568;-0.022768535;0.03139186;0.059865374;0.036445823;0.04584011;0.031647027;-0.0290751;0.044232607;-0.03781561;-0.039139923;0.06819641;-0.030700041;-0.020902839;-0.02539691;-0.07612245;-0.06386329;-0.056266382;-0.0044265706;-0.065001234;0.06809724;-0.06556064;-0.0054385434;-0.07612686;-0.023802618;0.02588482;-0.037924092;-0.031755928;-0.023821643;0.039458197;-0.0061585605;0.02820746;-0.04821985;-0.06559032;-0.012377769;0.06562174;0.022626085;-0.017057376;0.026909467;0.064020164;-0.036374863;-0.005468218;0.032301407;-0.022531765;-0.06327681;-0.0034520812;-0.022871964;-0.018750407;0.01987057;-0.02764069;-0.058275223;-0.044320077;0.06194017;0.051861282;-0.03447952;-0.05380841;-0.027265543;0.05528614;0.05345551;-0.0674803;-0.09282506;-0.007334901;-0.011712142;0.026157053;-0.041490447;0.032859903;-0.036327537;-0.018647827;-0.04053615;-0.021277346;0.0021671148;0.06684764;0.055216692;0.05425547;0.07413376;-0.004227748;0.035668593;0.040575854;-0.013401754;0.04433126;0.020829652;-0.043140672;-0.0096253585;-0.048061635;-0.04371573;0.0024855088;0.025660433;0.029782563;0.044988055;0.058438357;-0.06454709;0.04297016;-0.0005079967;-0.02928056;-0.05436836;-0.030696228;0.079937205;0.0384972;-0.03888432;-0.05607608;0.062435027;-0.011095909;0.037230425;0.008664635;0.03993176;-0.040280018;0.00042089002;-0.062408265;-0.038713146;-0.043661606;-0.046593234;0.037080538;0.03857241;0.013848169;-0.07175655;0.003253554;0.0026799818;0.0044035194;0.014323375;0.016341047;-0.05440316;-0.017794905;-0.07792049;-0.035092328;-0.06199781;-0.07011412;-0.047619775;-0.06301894;-0.0554411;0.03702451;-0.0078023975;0.04155545;-0.036438182;-0.068594724;-0.038682412;0.05697712;0.04095246;-0.072113395;-0.046043344;-0.021849325;0.019157844;0.034718502;0.0497665;-0.019873781;0.05325906;0.05250489;-0.024182359;0.054794867;-0.023849046;0.05469968;-0.070614524;0.056315184;0.052870177;0.03837752;-0.015726145;-0.040697142;0.0029612062;-0.020871941;0.032097995;0.028764151;-0.0797514;-0.06266407;-0.0088431835;0.05130615;0.01628304;-0.06473175;-0.06391956;-0.0011085197;0.008242501;-0.051947486;0.060579292;-0.025332445;-0.02657102;0.007893504;0.021956315;-0.029927816;-0.049040847;0.077341884;0.064965054;0.07592614;0.0594724;0.09737634;-0.0367178;0.068866484;0.033256773;-0.00053491944;-0.04997522;0.06133042;0.014982757;0.018079106;-0.012443103;0.0013954531;0.06264464;-0.0047327876;0.03586519;0.068682425;-0.05106568;0.002290241;0.06478952;0.015730027;0.013411477;0.08094521;0.030277897;0.013633503;0.0775632;-0.019496698;0.05528812;0.060137745;0.096565455;0.08551628;0.092332475;0.06818839;-0.040077385;0.02460027;0.004262697;-0.07665736;-0.017917285;-0.025298754;0.026449027;0.014567108;-0.065885045;-0.05463867;0.041991234;-0.02772272;0.00017185666;-0.058764644;-0.028178796;0.0029763347;0.042838506;0.029899687;0.048026208;-0.031145584;-0.060973853;-0.029375836;-0.0030985582;0.033887655;0.06274329;0.04174717;-0.008715253;-0.008161018;-0.012512704;-0.06392557;-0.073597014;-0.00786624;-0.033106033;-0.053298533;-0.016914897;0.017806208;-0.0059549552;0.027942477;0.023675045;-0.06448792;0.030286377;0.054910064;0.02873111;0.052274894;0.014267238;0.017671185;-0.035623852;0.077086836;0.0043175397;0.0014566312;-0.015159993;0.072142705;-0.025269134;0.019125253;-0.030944725
11;-0.0010707238;0.034192897;0.06745529;0.044166513;-0.070112295;0.05395662;-0.038961913;0.015040242;-0.07136381;0.014354309;-0.0071130437;-0.01751377;0.047026612;0.056410696;-0.038617432;0.10069263;-0.008461709;0.044291;0.08088685;-0.07194469;-0.048256963;0.019129325;-0.005355878;0.040792093;0.06551472;0.055110984;0.068822004;0.030116193;0.032410685;-0.035572827;-0.028202383;0.04427472;-0.010612869;-0.022642603;-0.05183855;0.05949898;0.0068708323;0.0062403893;0.093301006;-0.0010718415;0.05636093;-0.037074108;0.0048696324;-0.005286291;-0.06765525;-0.022077197;-0.060805064;-0.032851793;-0.045236688;0.056675754;-0.037212778;0.05614592;0.0042806957;0.002535488;0.06981917;0.010214835;-0.044547066;-0.05217908;-0.040154614;0.0061965343;-0.0044661732;-0.0579225;-0.07788475;-0.04258562;-0.0073983246;0.05079215;-0.02848541;-0.07261959;0.05175988;0.03908085;0.005266866;0.08458085;0.07268381;0.009575945;-0.04677371;0.0013905505;-0.05025823;-0.061276056;-0.004987921;-0.0064604604;-0.030546075;0.005401841;-0.04974853;-0.026238805;-0.049397264;-0.049403187;-0.051736563;-0.04408225;-0.03393789;-0.003972176;0.027294556;0.058009908;0.009548939;-0.03474736;0.053313922;-0.024234526;-0.047726646;-0.027968267;-0.009820745;-0.07656493;-0.042727686;-0.0014686733;-0.034007188;-0.0061606183;-0.025109047;0.007249891;0.060795933;0.08335931;-0.0672593;-0.0011977688;0.049713235;-0.05737732;0.0440664;0.00067948864;0.04790248;-0.00869317;0.07827303;-0.058320854;-0.020178426;0.05033187;-0.02032471;-0.03772091;-0.025948314;0.0065795905;-0.01699823;-0.056114487;0.046207216;0.056042735;-0.047332864;-0.04124433;0.07207842;-0.068445906;-0.011509601;0.08686063;-0.0013917065;0.029699882;0.062059913;0.04938969;0.056443214;0.05537038;-0.022163589;0.030527107;0.005716489;0.08518468;0.06308438;-0.03490349;-0.012903909;0.029605895;0.08430277;0.03484246;-0.006634571;-0.052503742;0.03915247;-0.043730758;0.052713014;0.037615426;0.0118897315;-0.05163222;0.037039418;0.068641596;-0.040817585;-0.005424194;-0.019627225;0.056144938;0.077517435;0.08174915;-0.04644269;0.07856184;0.040988296;-0.009368217;0.054487284;0.04976317;0.07033695;0.010382437;0.060503084;-0.02656129;0.05438717;0.07068707;0.005401507;0.0034171464;0.021904834;0.04611334;0.01093693;-0.04582596;-0.010612089;0.006406045;-0.021521825;-0.03830613;-0.029287923;0.04912987;0.081544556;-0.00589033;0.07461572;0.040193416;0.010986293;0.06215936;0.0033451826;0.058208123;0.051788647;-0.045363467;0.048942767;-0.01826826;0.042610854;0.010957491;-0.04170435;0.029622708;-0.03436623;-0.031116765;0.040928803;-0.013484123;-0.035389166;0.02522064;0.082249805;0.052075505;0.030688416;-0.014548376;0.073573835;0.04615829;0.054754898;-0.033856012;0.07008328;0.009723408;-0.0026390506;-0.00022926791;0.010413646;-0.009266351;-0.01686748;0.007794809;0.08152115;0.0148296105;0.031664003;-0.03029962;-0.024148233;-0.038575098;-0.020691149;0.008824002;-0.040319297;-0.030826267;-0.040547457;-0.036622766;-0.04380363;-0.048152845;-0.058498982;0.08083708;-0.01989456;-0.10144317;0.023992939;0.048499085;-0.04564208;-0.049644507;0.04825;0.037616104;-0.053091604;0.05421748;-0.01851128;-0.065115936;0.015417795;-0.046134975;0.044639666;-0.05038288;-0.024752585;-0.046473693;-0.036357876;0.025189184;0.012190744;-0.00788181;-0.056907352;-0.060379703;-0.035904925;-0.05336418;-0.040407054;-0.044473704;0.076606594;0.0469001;0.050948873;0.01549989;-0.035755433;-0.064006835;0.04061976;-0.02317695;0.03941959;0.0067344713;0.0076528806;-0.035591602;-0.037191562;0.0586909;0.020511148;0.10921059;0.019906871;-0.04612479;0.0029568537;-0.06288365;-0.023630204;0.009926722;-0.022059482;0.059777096;-0.032120895;0.004753675;-0.025771566;-0.042334314;0.024929017;-0.0013476135;0.024736632;-0.04725476;-0.03462311;-0.019507263;-0.022152098;-0.05771254;0.05340576;0.046600707;0.061379414;-0.0089989845;0.030986141;-0.04107998;0.046735503;-0.06143788;0.021878174;-0.066190206;-0.0034410967;-0.0078110658;0.044272784;0.00011527728;-0.046713095;-0.03859088;-0.03340559;-0.058449905;-0.08257249;-0.021579608;-0.09423125;-0.084019154;0.021430647;-0.021485096;-0.04690923;-0.013594172;0.0023910434;-0.007453726;-0.014537335;-0.024469608;0.06668205;0.018764585;-0.008596103;-0.028526848;-0.0101446435;0.09381272;0.0017834716;0.07783092;0.06202927;0.046421446;-0.013729736;0.070918284;-0.025089337;0.033890158;0.04697178;-0.031667467;0.008295718;0.024480755;0.029205982;-0.0014040353;0.062511966;0.014245692;-0.02449352;0.07182298;-0.06408435;0.07052676;0.015872454;-0.006489715;-0.060177263;0.052745804;0.04013281;0.03280456;0.038187772;-0.04131064;0.059757598;-0.02967384;-0.0020349366;-0.009329955;-0.05907352;-0.04425115;0.040985234;-0.03285979;-0.07321994;-0.0062211445;-0.008720975;-0.005890242;-0.036902126;-0.04682422;0.019126479;0.029336885;0.062285952;-0.00243576;-0.0092277005;-0.010339131;0.06400261;0.011057719;0.022419745;-0.012505795;0.039861698;-0.05017516;-0.05290088;-0.01148911;0.047798295;0.0074945353;-0.03618583;-0.00055308954;0.04454878;0.055219904;0.037584204;-0.044697262;0.042363968;-0.030979898;0.002405568;-0.04323242;-0.00077105034;0.0484951;0.07513671;0.057420377;0.07406049;-0.036811367;-0.034263436;-0.009963912;0.04765316;-0.010565554;-0.0025655446;0.034099493;0.009682006;0.051335074;0.08204299;0.0717348;-0.06513961;-0.005294954;0.025958413;0.056019105;0.03686706;0.03594069;0.070133895;0.025576498;-0.060610484;-0.0047574076;0.07093564;-0.013500387;0.08389095;0.022442771;-0.0796739;-0.012204404;0.0013947198;0.0004391037;-0.0037514155;-0.02005656;-0.026739663;-0.020488828;-0.015747905;0.0039977212;-0.084330656;-0.0004407862;0.042117663;0.035164922;-0.04185515;0.007925771;-0.01233438;0.025236934;0.057336032;-0.005532569;-0.029935775;0.05139856;-0.004000026;0.045523852;0.077436045;0.03863524;-0.0109944865;-0.060437534;-0.07467504;0.010833293;-0.058728877;0.04651129;0.0007461056;-0.03351493;0.0036082983;0.055766545;0.018468348;-0.055658862;-0.035567008;0.016683174;-0.09847498;0.040602703;-0.047328226;0.048523393;-0.018990101;0.062952586;0.022180483;0.022591664;-0.016951062;-0.052509896;-0.04349413;0.02204296;-0.029956978;0.0037328913;-0.0027662234;-0.001364347;0.06617242;-0.02833161;0.05827142;-0.06470462;0.044833478;-0.04428847;0.041612312;-0.016603267;-0.0005884569;-0.08406952;-0.021102544;-0.061669767;0.019435775;0.0603309;0.06323049;-0.04880097;-0.05751756;0.079876274;-0.05185333;-0.0032337299;-0.06303927;-8.633666e-05;0.025743607;0.022803554;0.05052528;0.05389795;0.018794144;0.014153936;-0.008266437;-0.0479795;0.02276499;0.07715353;-0.008767411;-0.028785566;-0.054092135;-0.073739;0.052259292;-0.06539024;-0.036526576;-0.032191455;0.04490637;-0.009206351;0.027824938;0.0523717;-0.034619305;-0.044053983;-0.028593006;-0.036797497;0.012556128;0.04107666;0.042641755;-0.023192124;0.010228524;0.014847432;-0.005466038;-0.015639503;0.04105094;0.006399424;0.08525239;-0.004884657;-0.054944433;0.0009212551;0.031636737;-0.00091670064;0.08417344;0.067328446;0.025417773;0.037514217;0.059686657;-0.06513858;0.040271327;-0.0015585208;-0.047329333;-0.0025737933;0.009582642;-0.06592675;-0.0126007395;-0.016834361;-0.0063755587
12;0.0027696865;0.007491082;-0.027920747;-0.06511748;-0.021115389;0.029658299;-0.027505904;-0.034611303;0.05943794;0.06829771;0.009584417;0.069498576;0.08915253;-0.0019423431;0.0040503307;-0.052776854;-0.036554903;-0.021150364;-0.07644728;-0.04842769;-0.017214041;0.008883381;0.018859338;0.043678697;0.049116645;0.028400837;0.058142263;0.026039759;0.056211703;0.00026942886;-0.024024906;0.02042131;-0.025133412;-0.0023180435;-0.04299685;0.06992537;-0.037689738;-0.056270942;-0.038635116;0.043944657;0.040466215;0.059803188;-0.048310626;0.04561151;-0.005164039;-0.038560137;0.0020108179;0.018046211;-0.04476708;0.019299993;-0.04808266;-0.023577671;-0.020941153;0.006934115;-0.026096756;-0.055242844;-0.0011138436;0.032776117;0.03657453;0.06926262;0.065001845;0.060534827;0.020759016;0.006211652;-0.014999634;0.031409517;0.008067467;-0.036158744;0.038537778;0.07283114;0.057734493;0.0047946647;0.02507465;-0.078085914;0.07001623;-0.06909933;-0.085596435;-0.06390502;-0.033806574;0.047731135;-0.03756767;-0.056211933;-0.04502714;-0.03309488;0.036447745;-0.02158636;0.06322654;-0.041836586;0.08254836;-0.05998595;-0.03277689;0.0010365967;-0.03826824;0.036408495;-0.009729522;-0.019084295;0.041786868;0.038284663;-0.03520214;0.031054897;0.05729626;0.013941245;-0.007883305;0.01814053;0.06798108;0.08628291;0.07348696;-0.034865208;0.007922693;0.060792223;0.022584904;-0.016202165;0.07170585;-0.022388928;0.022245727;0.010758814;-0.04772492;0.01404093;0.08279107;0.083357066;-0.011994765;-0.02375336;-0.033628576;0.028228123;-0.045406163;0.026648331;0.060960203;-0.04005572;-0.00214783;0.04602382;0.0073492266;-0.06384487;-0.039435487;-0.020043794;-0.052950088;0.032098234;0.03102606;0.06417229;0.06597181;0.0912048;0.027721195;-0.048705306;0.05501357;0.05506262;0.009390224;-0.035400983;0.0154401185;0.08800968;-0.04481491;-0.030456768;-0.038307697;-0.073160276;0.010315363;-0.0817813;0.0685953;-0.028567052;0.05712469;0.012852399;0.0141544435;0.02028858;0.07390523;0.0319178;0.011849647;-0.02524954;0.020157015;-0.0529996;0.022724718;0.024170542;0.021504078;0.06734342;0.020050487;-0.04240203;0.018912438;-0.043834854;0.008136196;-0.034792215;0.013786239;0.041348036;-0.06254858;-0.06950658;-0.028225863;0.016442476;0.04330942;0.022433387;0.012443646;0.027074238;-0.07117432;-0.062233385;0.05600726;-0.07135732;0.06181527;0.0141965775;0.07249163;0.046273418;0.004851291;0.081751615;0.007642633;-0.013982636;0.02952621;0.06183848;0.04908919;-0.06616333;0.055039845;0.0062479684;-0.07337865;-0.05452537;-0.032484073;-0.062448025;0.094293;-0.035865217;0.06940862;0.020104982;0.07649219;-0.045340866;0.018194875;0.07918109;-0.03664494;-0.022130912;-0.01526545;0.06478448;-0.012429916;0.02571734;0.014121227;-0.02483065;0.06779721;-0.057057414;0.01668095;-0.06505424;-0.0046255463;-0.04355724;0.07766274;0.011386718;-0.06872366;0.04341686;0.0019751135;0.07758366;0.0148346145;-0.028858539;-0.030621197;-0.0031767052;0.060065445;-0.011796828;0.06700523;-0.015173825;-0.054994963;0.01749765;0.017998213;0.054317635;0.023550952;-0.037907675;-0.02313803;0.028666154;-0.08182418;0.025816439;-0.05121639;0.032379325;0.00040148653;0.06978504;-0.061784685;0.064668186;-0.053777676;0.040031195;-0.048778076;0.050331898;-0.062670425;0.020320216;0.021558417;0.025096321;-0.07656704;-0.00017823791;-0.032644194;-0.08738986;-0.014253897;-0.032128472;-0.059087634;-0.024104541;0.03623109;-0.05775345;0.060288925;0.044520155;0.076308176;-0.0151251815;0.06277616;0.0461594;0.061198954;-0.0342423;-0.027399063;0.050809726;-0.02128681;0.002906807;-0.0035756705;0.02563651;-0.07627015;-0.05743204;-0.044915874;-0.00019518401;0.033424277;0.059438795;-0.010715878;-0.009412619;0.015109779;0.0053079887;0.052764527;-0.00036841692;-0.04511938;0.0056127226;0.056774337;-0.014603952;-0.05190291;-0.033479027;-0.0105442805;-0.00034683262;0.011704294;-0.028695947;-0.031565327;0.032871008;-0.055869367;0.026939634;0.015752798;-0.019368857;0.07929444;-0.0401493;-0.015640741;0.060844865;-0.031323094;-0.0075960224;0.0005694992;0.06452259;-0.023947665;0.032034677;-0.007903087;-0.04242811;0.016474;-0.0034273656;-0.02107209;0.051259924;0.014462582;0.00028202462;-0.0014117165;0.06163284;-0.08384603;-0.03701249;0.026359804;-0.01458267;0.037371226;0.030065032;-0.050227582;-0.04852718;0.06478619;0.0010912244;0.011690402;-0.055893287;0.05108874;0.0027750025;0.02089862;0.027112314;-0.053972103;0.027873186;-0.031773165;-0.04146075;0.07000733;0.022050764;-0.0002451284;0.0800842;-0.017708084;0.07088625;0.012787424;0.020128533;5.5543525e-05;0.06465881;-0.06932976;-0.0036780238;0.0045889327;0.021751072;-0.021290883;0.0019395421;0.011241874;0.046772532;-0.07760427;-0.013366776;-0.05790102;0.051671587;-0.045955192;-0.0016921671;0.056482278;0.0027313232;0.045086075;-0.021554621;0.07725161;0.05238504;-0.07621758;0.026686607;-0.015046426;-0.038420107;0.015721353;0.0009285238;0.035283107;0.005527374;-0.034777008;0.0048650866;0.056031156;0.067426324;0.023866186;-0.07394757;0.031869106;0.07190715;-0.018500263;-0.027096959;-0.03562925;-0.044116523;-0.042004477;0.054473706;0.06332482;-0.048985716;0.060314473;-0.07160437;0.00048607076;0.008236201;0.022488076;0.01896229;-0.041341305;-0.07669647;-0.055879585;-0.091308296;-0.055798616;0.037412327;0.028530449;0.024562629;-0.03740869;-0.038509957;-0.015100335;-0.059304196;0.032852802;0.052948583;-0.021131406;0.04303515;0.03040584;-0.018914629;0.063730724;-0.05620288;0.026758594;-0.050517403;-0.039257377;-0.039182168;0.058628798;0.025224136;0.046391096;-0.078794405;0.07539167;0.050274644;0.04145707;-0.04951964;0.035370313;-0.0024724589;-0.022983972;-0.05526267;-0.068764746;0.0038397927;0.05463115;-0.008726884;0.08278405;0.00992084;-0.026106669;-0.037545647;-0.030435978;0.07593972;-0.036093973;-0.028765164;0.069829576;-0.01915174;-0.047526516;-0.058265425;-0.06824014;-0.03407415;-0.07771198;0.031587236;-0.017376164;-0.07937073;-0.00065210625;0.040987484;-0.003306757;-0.032889433;-0.061921827;-0.03459931;-0.029209541;-0.041367076;0.013679166;-0.060768988;0.07570619;0.067402765;0.005860458;0.08263194;-0.02855483;0.06371749;-0.0021349418;0.027546005;-0.023320235;0.03647835;0.07788521;-0.036966313;0.056075003;0.01467759;-0.012440217;0.0049804337;0.05535303;0.05101704;0.04515856;0.07779303;0.05926411;0.054512665;0.055324364;0.0057711843;-0.06876375;-0.060208026;0.09961952;-0.02258798;0.04306665;0.012151528;0.09019249;-0.019608168;-0.009077037;0.013893059;0.053476322;-0.0031344995;-0.052424796;0.016971672;0.019524323;0.066023275;0.004791067;-0.017723234;0.07717748;0.027791195;0.0003768678;0.016984206;-0.05237723;-0.025667429;0.025945235;0.037335858;-0.014883384;-0.047872026;-0.04857004;0.010356283;0.03857192;0.06238279;0.007837863;-0.065152556;0.040322956;-0.007822276;-0.07269248;0.009703358;0.013136186;0.04462188;0.0077577475;0.06192504;-0.040937643;-0.0358983;-0.06999318;0.02933244;0.065591194;-0.038732413;-0.044566408;0.024188861;-0.029718507;0.024430817;0.0028293713;-0.07305823;0.0032091374;0.050770745;0.0110489745;0.06829317;-0.057715323;-0.017957034;0.07373323;0.023119532;0.031804346;-0.012061128;0.037620395
