kernel;bias;d0_w00;d0_w01;d0_w02;d0_w10;d0_w11;d0_w12;d0_w20;d0_w21;d0_w22;d1_w00;d1_w01;d1_w02;d1_w10;d1_w11;d1_w12;d1_w20;d1_w21;d1_w22;d2_w00;d2_w01;d2_w02;d2_w10;d2_w11;d2_w12;d2_w20;d2_w21;d2_w22;d3_w00;d3_w01;d3_w02;d3_w10;d3_w11;d3_w12;d3_w20;d3_w21;d3_w22;d4_w00;d4_w01;d4_w02;d4_w10;d4_w11;d4_w12;d4_w20;d4_w21;d4_w22;d5_w00;d5_w01;d5_w02;d5_w10;d5_w11;d5_w12;d5_w20;d5_w21;d5_w22;d6_w00;d6_w01;d6_w02;d6_w10;d6_w11;d6_w12;d6_w20;d6_w21;d6_w22;d7_w00;d7_w01;d7_w02;d7_w10;d7_w11;d7_w12;d7_w20;d7_w21;d7_w22;d8_w00;d8_w01;d8_w02;d8_w10;d8_w11;d8_w12;d8_w20;d8_w21;d8_w22;d9_w00;d9_w01;d9_w02;d9_w10;d9_w11;d9_w12;d9_w20;d9_w21;d9_w22;d10_w00;d10_w01;d10_w02;d10_w10;d10_w11;d10_w12;d10_w20;d10_w21;d10_w22;d11_w00;d11_w01;d11_w02;d11_w10;d11_w11;d11_w12;d11_w20;d11_w21;d11_w22;d12_w00;d12_w01;d12_w02;d12_w10;d12_w11;d12_w12;d12_w20;d12_w21;d12_w22;d13_w00;d13_w01;d13_w02;d13_w10;d13_w11;d13_w12;d13_w20;d13_w21;d13_w22;d14_w00;d14_w01;d14_w02;d14_w10;d14_w11;d14_w12;d14_w20;d14_w21;d14_w22;d15_w00;d15_w01;d15_w02;d15_w10;d15_w11;d15_w12;d15_w20;d15_w21;d15_w22;d16_w00;d16_w01;d16_w02;d16_w10;d16_w11;d16_w12;d16_w20;d16_w21;d16_w22;d17_w00;d17_w01;d17_w02;d17_w10;d17_w11;d17_w12;d17_w20;d17_w21;d17_w22;d18_w00;d18_w01;d18_w02;d18_w10;d18_w11;d18_w12;d18_w20;d18_w21;d18_w22;d19_w00;d19_w01;d19_w02;d19_w10;d19_w11;d19_w12;d19_w20;d19_w21;d19_w22;d20_w00;d20_w01;d20_w02;d20_w10;d20_w11;d20_w12;d20_w20;d20_w21;d20_w22;d21_w00;d21_w01;d21_w02;d21_w10;d21_w11;d21_w12;d21_w20;d21_w21;d21_w22;d22_w00;d22_w01;d22_w02;d22_w10;d22_w11;d22_w12;d22_w20;d22_w21;d22_w22;d23_w00;d23_w01;d23_w02;d23_w10;d23_w11;d23_w12;d23_w20;d23_w21;d23_w22;d24_w00;d24_w01;d24_w02;d24_w10;d24_w11;d24_w12;d24_w20;d24_w21;d24_w22;d25_w00;d25_w01;d25_w02;d25_w10;d25_w11;d25_w12;d25_w20;d25_w21;d25_w22;d26_w00;d26_w01;d26_w02;d26_w10;d26_w11;d26_w12;d26_w20;d26_w21;d26_w22;d27_w00;d27_w01;d27_w02;d27_w10;d27_w11;d27_w12;d27_w20;d27_w21;d27_w22;d28_w00;d28_w01;d28_w02;d28_w10;d28_w11;d28_w12;d28_w20;d28_w21;d28_w22;d29_w00;d29_w01;d29_w02;d29_w10;d29_w11;d29_w12;d29_w20;d29_w21;d29_w22;d30_w00;d30_w01;d30_w02;d30_w10;d30_w11;d30_w12;d30_w20;d30_w21;d30_w22;d31_w00;d31_w01;d31_w02;d31_w10;d31_w11;d31_w12;d31_w20;d31_w21;d31_w22;d32_w00;d32_w01;d32_w02;d32_w10;d32_w11;d32_w12;d32_w20;d32_w21;d32_w22;d33_w00;d33_w01;d33_w02;d33_w10;d33_w11;d33_w12;d33_w20;d33_w21;d33_w22;d34_w00;d34_w01;d34_w02;d34_w10;d34_w11;d34_w12;d34_w20;d34_w21;d34_w22;d35_w00;d35_w01;d35_w02;d35_w10;d35_w11;d35_w12;d35_w20;d35_w21;d35_w22;d36_w00;d36_w01;d36_w02;d36_w10;d36_w11;d36_w12;d36_w20;d36_w21;d36_w22;d37_w00;d37_w01;d37_w02;d37_w10;d37_w11;d37_w12;d37_w20;d37_w21;d37_w22;d38_w00;d38_w01;d38_w02;d38_w10;d38_w11;d38_w12;d38_w20;d38_w21;d38_w22;d39_w00;d39_w01;d39_w02;d39_w10;d39_w11;d39_w12;d39_w20;d39_w21;d39_w22;d40_w00;d40_w01;d40_w02;d40_w10;d40_w11;d40_w12;d40_w20;d40_w21;d40_w22;d41_w00;d41_w01;d41_w02;d41_w10;d41_w11;d41_w12;d41_w20;d41_w21;d41_w22;d42_w00;d42_w01;d42_w02;d42_w10;d42_w11;d42_w12;d42_w20;d42_w21;d42_w22;d43_w00;d43_w01;d43_w02;d43_w10;d43_w11;d43_w12;d43_w20;d43_w21;d43_w22;d44_w00;d44_w01;d44_w02;d44_w10;d44_w11;d44_w12;d44_w20;d44_w21;d44_w22;d45_w00;d45_w01;d45_w02;d45_w10;d45_w11;d45_w12;d45_w20;d45_w21;d45_w22;d46_w00;d46_w01;d46_w02;d46_w10;d46_w11;d46_w12;d46_w20;d46_w21;d46_w22;d47_w00;d47_w01;d47_w02;d47_w10;d47_w11;d47_w12;d47_w20;d47_w21;d47_w22;d48_w00;d48_w01;d48_w02;d48_w10;d48_w11;d48_w12;d48_w20;d48_w21;d48_w22;d49_w00;d49_w01;d49_w02;d49_w10;d49_w11;d49_w12;d49_w20;d49_w21;d49_w22;d50_w00;d50_w01;d50_w02;d50_w10;d50_w11;d50_w12;d50_w20;d50_w21;d50_w22;d51_w00;d51_w01;d51_w02;d51_w10;d51_w11;d51_w12;d51_w20;d51_w21;d51_w22;d52_w00;d52_w01;d52_w02;d52_w10;d52_w11;d52_w12;d52_w20;d52_w21;d52_w22;d53_w00;d53_w01;d53_w02;d53_w10;d53_w11;d53_w12;d53_w20;d53_w21;d53_w22;d54_w00;d54_w01;d54_w02;d54_w10;d54_w11;d54_w12;d54_w20;d54_w21;d54_w22;d55_w00;d55_w01;d55_w02;d55_w10;d55_w11;d55_w12;d55_w20;d55_w21;d55_w22;d56_w00;d56_w01;d56_w02;d56_w10;d56_w11;d56_w12;d56_w20;d56_w21;d56_w22;d57_w00;d57_w01;d57_w02;d57_w10;d57_w11;d57_w12;d57_w20;d57_w21;d57_w22;d58_w00;d58_w01;d58_w02;d58_w10;d58_w11;d58_w12;d58_w20;d58_w21;d58_w22;d59_w00;d59_w01;d59_w02;d59_w10;d59_w11;d59_w12;d59_w20;d59_w21;d59_w22;d60_w00;d60_w01;d60_w02;d60_w10;d60_w11;d60_w12;d60_w20;d60_w21;d60_w22;d61_w00;d61_w01;d61_w02;d61_w10;d61_w11;d61_w12;d61_w20;d61_w21;d61_w22;d62_w00;d62_w01;d62_w02;d62_w10;d62_w11;d62_w12;d62_w20;d62_w21;d62_w22;d63_w00;d63_w01;d63_w02;d63_w10;d63_w11;d63_w12;d63_w20;d63_w21;d63_w22
0;0.0010813216;0.058947306;0.19790973;-0.077312596;0.42778867;0.33049998;0.54782164;0.8155505;0.35340565;0.28355578;-0.50686014;-0.24775161;0.16144356;-0.15643689;-0.6876433;-0.08307361;0.446715;0.14657377;-0.36170232;-0.46034482;-0.49211147;0.10764691;0.47150996;-0.30706087;0.045816373;0.3844847;0.016626406;0.02511014;-0.17675744;-0.06914908;0.5933569;-0.4459633;-0.734988;-0.04820524;-0.4869419;-0.40768912;-0.2554083;-0.37679878;-0.08180435;-0.00036047536;-0.051668037;0.15047354;-0.11106905;0.21363069;0.3245488;0.23302111;0.4242973;-0.022652343;0.28903827;0.2818364;0.22402576;-0.010241456;0.06997842;0.060440686;0.22777092;0.07636232;0.31419885;0.26514125;0.021394948;-0.2326145;0.2180656;0.0798398;-0.0052510775;0.1780979;0.11098802;0.0023862459;0.13335833;-0.01998743;-0.22120674;0.04114224;0.044005923;0.020655336;-0.13227677;-0.24752113;-0.095759764;0.472013;0.36642087;-0.3065906;0.14895044;0.7204553;0.19447115;-0.08382106;-0.26893288;-0.07830395;-0.2938871;-0.19336614;-0.10386777;-0.2935233;0.12419992;0.22865142;-0.5393731;0.20182464;0.36405504;0.30661985;-0.10564762;0.07628688;0.24940112;0.14430648;0.05675597;-0.13710302;0.17126022;0.15996826;-0.23654419;0.12658973;0.19449073;0.06278442;-0.13864346;-0.006525393;-0.28647512;-0.10320521;-0.12575057;0.50695956;-0.060617827;-0.5827234;0.26968056;-0.011104866;-0.30524987;-0.22798835;0.11061768;0.23502527;-0.026932407;-0.23743783;0.07213227;0.2038308;-0.3601972;-0.0052083516;0.073219;-0.3930496;-0.10073088;0.26883015;-0.42230895;-0.21147656;-0.027137281;-0.22627683;-0.20665404;0.014125272;-0.12262247;-0.3377492;-0.03782058;0.029919894;-0.3561836;0.2547587;0.05019867;-0.115042344;0.2843112;-0.15302937;0.20919095;0.49972066;-0.25261426;-0.5047652;0.008044411;0.121161826;-0.4212181;-0.43435374;-0.48018315;-0.5680031;-0.112940095;0.19691269;0.041918926;-0.29569638;-0.23439929;0.19178993;-0.20285769;0.53162616;0.69081855;0.7411375;-0.024122516;0.27049127;0.552226;-0.21150526;-0.25979036;0.26734388;0.20601127;-0.11556912;-0.28254932;0.047149736;0.070239395;0.02483345;-0.28028998;0.1347742;0.08976392;-0.8371563;-0.021618808;0.020399326;-1.1898702;-0.0980104;-0.17718582;-0.9139562;-0.15212013;0.051805295;0.24123706;0.23983492;0.2509409;0.27352783;0.4331351;0.055957627;-0.050039653;0.08366885;-0.22394928;0.13960022;0.12568302;-0.66793257;0.024813982;0.22707295;0.020615231;0.12883797;0.05174461;0.23411548;-0.2401195;0.607104;0.55034405;-0.19694223;-0.33647624;0.2053562;0.15153201;-0.07566983;0.021276869;-0.41642004;-0.1932275;0.17521966;-0.63770247;-0.4441219;-0.02531319;-0.51201516;-0.69331515;-0.2822718;0.008608869;-0.09574625;0.038317744;0.29691705;0.16189118;-0.40843;-0.13354157;0.46983582;-0.097586155;-0.22350663;-0.20061097;0.31355295;-0.24622093;-0.39033931;0.18022484;-0.19535641;-0.25573784;0.046383567;-0.07945096;-0.14777665;-0.15192243;-0.45267072;-0.020617232;0.15479618;-0.012101408;-0.028332956;0.0531801;0.22633022;0.15132053;0.5490362;-0.03619457;-0.3105337;-0.043336213;0.11042086;-0.4052428;-0.26189652;0.28868505;0.41820872;0.21733154;0.13130967;-0.09173726;0.051047202;0.3001462;-0.07843794;0.14308351;-0.17995685;-0.3027134;-0.09860994;-0.28290802;-0.39758006;-0.08550292;-0.06594797;-0.32701004;0.23569547;-0.07502576;0.05761065;0.41048005;-0.1363396;-0.16166933;0.5790632;-0.4260554;-0.36871913;0.33134052;-0.3885711;-0.38329816;0.54039234;-0.08374261;-0.7421726;-0.31893414;0.14986596;0.44619918;-0.6972227;0.21347022;-0.031943247;-0.006145024;0.541697;0.202974;-0.1859871;0.24725406;-0.030770246;-0.30651692;-0.18182905;0.12826216;0.21285602;-0.60131836;-0.31765816;0.20582698;-0.22718935;-0.56904054;-0.07148552;0.04630233;0.014595788;-0.516326;-0.39428034;-0.048583396;-0.6817505;-0.11299368;0.17277071;0.16892245;-0.35233995;-0.6294636;-0.43153733;0.35365486;-0.2947645;-0.6844205;0.24226387;0.31105867;-0.21869914;-0.21707886;-0.114396065;-0.00024149331;-0.14246914;0.19142449;0.3463152;0.18230851;0.010781368;0.36957374;0.058567517;0.15805505;-0.27774262;-0.09489714;0.14272933;-0.22058348;-0.03003191;0.005795247;0.08647185;0.09670916;-0.083711386;0.43982956;-0.38744077;-0.335848;0.333814;-0.1315328;-0.17141119;-0.048657026;-0.010209162;0.06698073;-0.30555758;-0.23830976;0.064493895;-0.10597107;-0.49317923;0.056919828;0.18657258;0.07330243;-0.21639408;-0.35504588;0.11609519;-0.05142963;0.42816254;0.23442575;-0.10511814;0.3708481;-0.0046644257;0.21345393;0.2823206;0.13056485;-0.15392156;-0.022557931;0.29306212;-0.2504998;-0.36937618;-0.23119543;-0.24211459;-0.1291817;-0.24609315;-0.21705368;-0.18821613;0.03312856;0.24481471;0.070167996;-0.21275514;-0.08036278;-0.1897938;-0.2970874;-0.36730924;-0.2823161;-0.23193699;0.3166385;-0.11274012;-0.029640969;0.06988222;0.04877429;-0.2970644;-0.31828332;0.14340886;-0.048317295;-0.25529653;-0.18248005;-0.10415272;-0.005639403;-0.053621616;-0.430824;-0.3021432;0.113764286;-0.07802324;-0.43285424;-0.10933687;-0.28234684;-0.0067146663;-0.30015144;-0.26079848;-0.12261154;0.0954023;0.051904067;-0.12351579;-0.028410703;-0.19299953;-0.036740147;-0.3267337;0.098992296;0.064738445;-0.20857622;3.3392454e-05;0.38698936;-0.09343947;-0.047499277;0.04938979;0.04368213;0.11899585;-0.42398167;0.14438248;0.024744011;-0.40795827;0.03396173;0.195262;-0.04475413;-0.029735262;0.23967732;0.21988574;0.31800762;0.07675294;-0.039992873;0.29283234;0.023170153;0.22743598;0.15161183;-0.0944367;0.25951934;0.08996121;0.3244263;-0.10541309;0.10779281;-0.041045528;-0.21313924;-0.033234414;0.19055343;0.13945004;0.34071463;-0.13252655;-0.07611603;-0.14720646;-0.041162487;0.028946605;0.49465898;0.16646105;-0.31903428;0.12752923;-0.12504049;0.0811158;-0.18158296;0.027097281;-0.43379018;0.402859;0.1864595;-0.5486225;-0.46334532;0.11528792;-0.0827307;-0.63732743;-0.088641584;-0.12516026;-0.0096018715;-0.39291424;-0.3614415;-0.18511839;-0.25301844;-0.10589429;-0.27654114;-0.42444023;-0.15417336;0.46623725;-0.45489857;-0.7411228;-0.10507493;-0.6270653;-1.0272936;-0.18428835;-0.16755632;0.04938154;-0.029084232;-0.058607228;-0.13273194;0.08121453;-0.003197744;-0.01958004;0.1670023;-0.3026204;-0.021922005;0.35336417;-0.3498307;-0.41765827;-0.14229399;-0.18453544;-0.32019782;-0.47510988;0.118523605;0.061949797;-0.091189384;-0.26800644;-0.18966109;0.15868013;-0.29665157;-0.19800955;-0.19473234;-0.09459686;-0.1443267;-0.06072646;-0.0810671;-0.015958007;0.14955871;-0.0062055257;-0.48845154;-0.25033978;0.17445938;-0.14011863;-0.34406978;-0.032386288;-0.19074965;-0.14803982;-0.53739303;-0.17478229;-0.14937304;0.3943418;0.46587917;0.1672339;-0.30324683;0.11861014;0.66103923;-0.3257713;-0.1425299;0.28928685;-0.20951477;0.17951147;-0.10608696;0.15592171;0.23272793;0.24864553;0.25639454;0.381605;0.33857918
1;0.0024478189;-0.023372391;-0.10027255;-0.42765138;-0.2215278;-0.20439665;-0.27651653;-0.18335909;-0.0731978;-0.08013283;-0.09394395;-0.2980829;0.10101863;-0.13910457;-0.1417385;-0.22563444;-0.31555852;-0.35999966;-0.5106302;0.054506946;0.24021971;0.0059356503;0.14008898;-0.031246012;0.024241664;-0.26615402;-0.23618695;-0.06507972;-0.19802244;0.17835446;-0.016565843;-0.2649977;-0.006071362;-0.012193538;-0.45390156;-0.121141985;0.09750677;0.28556895;-0.090009965;-0.06679461;0.21745715;0.021861525;-0.16118106;-0.114785835;-0.10040503;0.0010516308;-0.30455253;0.13146527;0.21061736;0.14954345;0.28394973;0.24427804;-0.13692263;-0.0521497;0.039369084;0.21932812;0.2570682;0.11842487;0.45806405;0.31570017;0.42957366;0.45061573;0.37326038;0.35685018;-0.22015783;-0.11669315;0.38981897;-0.40367287;-0.35019714;0.028079499;-0.72257555;-0.4302959;-0.3607;0.17090768;0.33786097;0.23826233;0.24320422;0.12108308;-0.036960043;0.44340765;0.18552585;0.17145571;0.11876276;0.37389502;0.34118325;0.22771658;0.2604312;0.4102563;0.6191128;0.36135346;0.3842753;-0.3005509;0.0001789628;0.1907035;-0.65170825;-0.306168;-0.22046064;-0.68745065;-0.3941578;-0.521726;0.6717782;0.8378751;0.47197512;0.49557433;0.39361668;0.07905522;0.34266087;0.5071054;0.11691481;0.12708682;0.10055213;0.31601205;0.16516887;0.08590424;0.058997516;0.2541396;0.052733846;0.092671625;-0.28063777;-0.968336;-1.1077695;0.11595418;-0.23817702;-0.20767856;-0.056252502;-0.4457101;-0.43078032;-0.34189206;-0.11100687;-0.12078172;-0.016521204;-0.24862003;-0.1347429;0.1305897;-0.1210211;-0.30751574;-0.09158314;-0.03887473;-0.11675964;0.37207276;0.18430145;-0.28960875;0.45950845;0.38009706;-0.080063336;-0.23870504;-0.65049344;-0.35985836;-0.099438645;-0.38743266;-0.32115456;0.00660765;0.035522226;-0.011998065;-0.13634399;-0.22373576;0.20257765;0.030693896;-0.15980293;-0.3070663;-0.2771572;-0.16857618;-0.47086012;-0.070970416;-0.18950334;-0.17449284;-0.21698278;-0.15636572;-0.09946605;0.02619217;0.14750262;-0.065886535;0.24615018;0.3441234;-0.07972888;-0.27859542;-0.2541706;-0.24113666;-0.42933822;-0.313215;-0.4287618;0.054258745;0.22677249;0.17922051;-0.26664543;0.0924654;0.004517195;-0.28040454;-0.22136182;-0.001542979;-0.7075541;-0.7302393;-0.48470235;-0.08536446;-0.13700835;-0.38329577;0.08360529;0.03689331;-0.17243609;-0.15429398;0.044973176;-0.52501875;-0.16739555;-0.065374725;-0.32696927;0.29532313;0.10513606;-0.11759677;-0.1540423;-0.3285961;-0.068574324;-0.35983664;-0.087391794;-0.16267706;-0.20615034;-0.27210483;-0.5778553;0.26822272;0.25218168;0.23109038;0.27535033;0.18781182;0.05727914;0.40715694;0.11864022;0.043280985;-0.11377491;-0.21095099;0.07160132;0.20128782;0.21494953;0.36815524;0.007730175;0.16797465;0.3311262;0.13847695;-0.035164047;0.009429799;-0.03906972;0.20855322;0.18315026;-0.07637449;0.08689455;0.352146;-0.28256357;-0.1350533;-0.48350334;-0.28727627;-0.06783214;-0.49292794;-0.10051383;0.07021732;-0.19587581;0.25178486;-0.01752257;-0.41476852;0.2035224;-0.05923667;-0.19691724;-0.038570363;0.0172481;-0.15704001;0.07032402;0.12655261;-0.071430035;0.09614337;0.11526712;0.016574163;-0.084063664;-0.11247696;0.16521694;0.5725811;0.26679268;-0.015320386;0.3499914;0.22571276;0.34627378;0.35434005;0.27387714;0.40466514;0.2386269;0.19820635;0.43411392;-0.008513712;0.10012645;0.23780958;-0.07536952;-0.26612806;-0.051418483;-0.15467726;-0.08262725;-0.01355318;-0.06612516;0.09678808;0.05534833;0.24941584;0.12067511;-0.0021273724;0.17742777;0.15214573;0.23288187;0.046354793;0.15630533;0.069876164;0.08920166;0.21696234;0.2620376;-0.019241128;-0.051992867;-0.36247724;0.19051863;0.15124752;0.13586591;0.4665753;0.3116616;0.4048567;0.33808103;0.182363;0.13021736;0.34817088;0.14229268;0.42377955;0.5719286;0.22729348;0.028760845;-0.084238626;-0.22373915;-0.26634803;-0.19526605;-0.23648071;-0.27327144;-0.11553859;-0.3020654;0.00832664;-0.45638585;-0.36768815;-0.47188884;0.046394795;-0.13786614;-0.10177946;-0.10897423;-0.25660256;-0.33744183;0.12954202;0.5713292;0.22717322;-0.08710815;0.0787414;-0.09797363;-0.055305433;-0.17951225;-0.42069176;-0.058991652;-0.1543311;0.19403517;-0.04980408;-0.27978852;-0.08209226;0.17674479;-0.20509118;-0.20350632;0.0069970284;0.23586982;-0.14558779;0.027733564;0.14813434;-0.08762139;-0.42922398;-0.12142726;-0.011980432;0.32575202;-0.11879318;-0.083697595;0.39926013;0.11461837;0.107316196;0.14858614;-0.01256125;0.18556187;0.7575121;0.4435395;0.40551966;0.79753524;0.46175918;0.42891362;0.4880599;0.2853371;0.39374128;0.2260543;-0.065721296;0.13145457;-0.022544641;-0.23130487;0.23685664;-0.4617824;-0.38630027;-0.5203443;-0.43035966;-0.4756684;-0.12251102;0.017866349;-0.17689247;0.097837806;0.07446208;-0.1777749;-0.28674823;0.2824987;0.08768946;0.0376846;0.22391127;0.39731437;0.27298003;-0.1482337;0.041373778;-0.19359502;0.2108126;0.24208605;0.0334233;-0.44288144;-0.09159695;-0.17319675;-0.14929849;-0.0161826;-0.19219874;0.09382477;-0.009133606;0.26222935;0.11662443;0.18812707;0.20618992;0.40619949;0.35168552;0.37743703;0.31858414;0.11085982;0.21297003;0.51648337;0.43320215;0.6194066;0.4459373;0.33251622;0.37945575;-0.2075055;-0.25633144;-0.0755171;0.14417797;0.06683759;0.11569486;0.13958342;-0.12524632;-0.083218925;0.3736748;0.12364836;0.005827661;0.16154185;-0.0025432762;-0.23064636;-0.10467241;-0.18975642;-0.089061595;0.08215574;-0.07284938;-0.24715373;-0.063024;-0.23531419;-0.3171289;-0.09067001;-0.37573418;-0.43836957;0.04184338;0.13645187;0.15998246;0.27762896;0.44382656;0.1803429;-0.11179477;0.077928364;-0.11647149;-0.37274227;-0.19561289;0.2322759;-0.17752355;-0.1386689;-0.09142928;-0.21181028;-0.07790939;0.018195225;-0.01000005;0.41020712;0.3458966;-0.14087191;0.11125233;0.17325786;0.19387048;0.019301614;-0.022685727;0.13479422;-0.27979723;-0.33482757;-0.20173807;-0.15359949;-0.04264834;-0.39517128;-0.18051994;-0.013447208;-0.42743102;-0.5394956;-0.071156956;-0.16697085;-0.1877138;0.19429936;0.09600538;0.28651005;0.44212452;-0.6922187;-0.6887556;-0.45251814;0.13874842;-0.087337755;-0.1276515;0.48594877;0.3606014;0.22875333;-0.38252452;-0.17891805;-0.11433564;-0.075238824;0.14355667;-0.078434974;0.21817812;-0.05277462;-0.44680658;0.1411408;0.23796721;0.14360736;-0.027293393;0.097912684;0.16758233;-0.29986545;-0.08635954;-0.059839886;0.41356564;0.124651104;-0.042844888;0.06635825;0.1640158;0.29425198;-0.5831212;-0.17422599;-0.07896721;-0.1626767;-0.34741867;-0.016805679;0.13150583;-0.070849225;-0.0049377875;-0.50347525;-0.3071219;-0.023148904;-0.3731969;-0.29178005;-0.35994834;-0.48606697;-0.4391265;-0.294947;-0.1530326;-0.08611487;-0.1043099;-0.23219691;-0.13457306;-0.101917885;-0.33702084;-0.22479813;-0.32538512;-0.12206972;-0.83500576;-0.8113482
2;-0.0011879833;-0.3039848;0.22479996;0.09024325;-0.21407448;0.111803636;0.33742914;-0.00335758;-0.0048880153;0.21724002;-0.16643015;-0.24180073;0.3115114;-0.33636445;-0.35434943;0.04426841;-0.01393205;-0.35006306;0.022929307;-0.0010248732;0.29137087;0.2639853;0.191337;0.17746979;0.17764136;0.2759149;0.2942527;0.47660825;-0.06916734;0.22445552;0.2569488;0.069309175;0.33087015;0.49667817;0.054195993;0.3031351;0.9061441;-0.07137421;0.28261235;0.36211404;0.3491343;0.41244736;0.40061155;0.29257923;0.603085;0.83458215;0.041196577;-0.209166;-0.42107707;0.2629232;-0.08928232;-0.32486644;-0.06723516;-0.2797667;-0.14829662;0.48911098;0.24480897;0.21759784;-0.009676181;0.002543352;0.21924298;0.1703018;0.032324012;0.3715097;0.44756255;0.054971144;0.25995955;-0.07188298;-0.30786553;-0.028845698;-0.06708153;-0.27845258;-0.2610655;0.15130553;-0.05054832;0.16993603;-0.05023281;-0.05215388;0.14349012;-0.38429;-0.59282535;-0.42249355;0.86567783;0.11144319;0.61733836;0.72653913;0.02675094;0.40153134;0.842189;0.45843098;0.4406375;-0.07341192;-0.39625;0.24374041;-0.56435496;-0.47851828;-0.099774055;-0.1824239;-0.25724804;-0.24174698;0.16057946;-0.18790694;-0.28924695;0.11485891;-0.053927567;-0.0013749746;0.12221014;0.14063016;0.01720648;-0.09730736;-0.3061364;0.018307814;0.095463425;-0.1221772;-0.1443111;0.48854548;0.012290339;-0.4310298;-0.036150664;0.16034941;-0.11604137;0.061121173;0.3111299;0.12637986;0.11776906;-0.09309921;-0.30334544;0.023767708;-0.27224743;-0.15891904;-0.48291495;-0.5936153;-0.29340956;0.041886225;-0.2603071;-0.27821243;0.25964823;0.16193916;0.0112560885;0.23093966;0.09453448;0.011161208;0.3384077;0.009033589;0.016527677;-0.46099252;-0.04319791;-0.1181893;-0.2519575;0.13940868;-0.2036081;-0.23091309;0.14303617;0.08561553;-0.40974477;0.3643122;0.38878402;-0.1581158;0.2880231;0.26140788;-0.54093015;0.18480301;0.25986874;-0.38241428;-0.44048166;-0.3445686;-0.47328284;-0.23589733;-0.23014039;-0.08270663;0.16868655;0.14472549;-0.45675555;-0.30675447;-0.09607977;-0.3060371;-0.15949836;-0.16678305;-0.14524104;-0.6620549;-0.16059239;-0.25244138;-0.28475523;-0.27912903;0.051178135;0.028632982;-0.07802845;0.2732155;-0.015605455;-0.09874859;-0.08179167;-0.16300516;0.03460836;-0.18501195;-0.024205174;0.17304203;-0.2880714;-0.019502075;0.21366286;0.13916656;-0.0027059868;-0.12060445;0.1622571;-0.104732506;-0.14964822;-0.009399625;-0.45490822;-0.24857968;-0.3602877;-0.46266234;-0.07510746;-0.39964804;-0.1629254;0.18723175;0.42675084;0.5498044;0.5279054;-0.16234966;-0.26508948;-0.18743642;0.19166997;-0.1107718;-0.25659525;0.10156938;-0.24307641;-0.41899315;0.19278827;0.15586236;0.07940678;-0.0056483983;0.16398248;0.10619701;0.2672969;0.3251217;0.07538009;-0.4074975;-0.19858769;-0.051911306;-0.47933146;-0.302826;-0.2104108;-0.092410594;0.047781423;0.36315304;-0.11801455;-0.7894807;-0.3991844;-0.004134542;-0.7147362;0.13984399;0.39349338;-0.3501611;0.18795942;0.29088196;0.34622478;-0.07876626;0.11621756;0.04447672;-0.112065144;0.004756274;-0.039702486;-0.18476118;0.13441011;0.3473519;0.12773299;0.07213122;0.06468054;-0.12913929;0.18610156;0.06691438;0.023766425;0.019647079;-0.25864324;-0.16378342;0.09436823;-0.16352369;-0.011233519;-0.009935633;-0.08935396;0.30082366;0.033060826;0.01834284;0.51557416;-0.109079294;-0.075694665;0.45542717;-0.2181633;0.051068325;0.53684664;-0.19651909;-0.29389933;-0.64713144;-0.08973731;-0.15186884;-0.3498766;0.26163855;-0.41266286;-0.120724835;0.020750172;-0.2915432;-0.45216346;0.10194928;0.122981526;-0.13251184;0.37271583;0.15917443;-0.53895915;0.236984;0.23800434;0.150144;0.15702462;0.15343419;0.3300429;0.21684197;0.32087168;0.224831;0.038399644;0.27536348;0.38790196;0.17220163;-0.070779;-0.13693243;0.34133494;0.29033983;-0.010217209;0.03129655;0.16338411;0.13675638;-0.06428588;-0.010531677;-0.102297;-0.32595155;-0.2841945;-0.11640734;-0.055315956;0.11171869;-0.084754094;-0.021654101;0.30205005;0.015270948;-0.3669954;-0.0046766773;-0.34607953;0.030059757;-0.011075492;-0.08031433;0.015810948;-0.1623084;-0.11443227;0.24879532;0.14837089;0.08325959;0.0975485;0.01223253;0.16483088;0.30260846;-0.2699145;-0.09701024;0.40365216;-0.1744933;-0.13863292;0.31272358;0.081431024;-0.19722831;0.35529128;0.21527392;0.2212901;0.3756454;0.38911605;0.07633371;0.16133803;0.13096702;0.25526294;0.18694529;-0.05529659;0.04128469;-0.23742212;-0.3654735;-0.14639883;-0.03660762;-0.43197143;-0.06973492;-0.15403196;-0.071599044;-0.3199688;-0.17159246;0.3053987;-0.08900368;-0.1376447;0.11038273;0.22137196;0.02820146;0.15134293;-0.21072981;0.42250174;0.27954292;-0.3628096;-0.23552963;-0.4929077;-0.18270081;-0.20445228;-0.2976507;0.23978692;0.072828606;-0.30338845;-0.24462228;0.14368269;-0.13423698;0.34036148;-0.18419829;-0.39596388;-0.1499407;0.088798836;-0.21809466;-0.0012238682;-0.034006003;-0.13892564;-0.08567815;0.07426338;-0.14567865;0.14983425;0.024530867;-0.0794068;0.5329472;-0.53131044;-0.051256757;-0.10287355;-0.35531187;-0.26534456;0.06780578;-0.30382743;-0.27531698;-0.18269418;-0.15383482;0.011638979;-0.05381233;-0.27886453;-0.082096964;-0.08631751;-0.27352735;0.018561626;-0.029559549;-0.5495486;-0.41491124;0.30624795;-0.4765212;-0.3087677;0.1963841;0.08035229;0.1036951;0.5864031;0.015961291;0.16364336;0.15897018;-0.052270267;0.3648621;0.23725332;0.4099877;0.17821983;0.2476341;0.32033542;0.2585184;0.07858435;0.18577386;0.06799118;0.18284175;0.14674944;0.070691384;0.06674411;-0.41011482;-0.7464;-0.96818614;-0.19156109;-0.43747348;-0.2649452;-0.06447218;-0.44564942;-0.42987692;0.20749342;0.43292516;0.19793752;0.33412287;0.3211229;-0.03686729;0.40202078;0.4383752;0.24730209;-0.3652446;-0.6447374;-0.67905253;-0.429098;-0.6879804;-0.4345058;0.18827415;-0.58052313;-0.15369268;0.21599838;0.41104397;0.24427328;0.19594836;0.35238707;-0.14392062;0.028475892;0.04366843;0.04469757;0.39902574;0.4399214;0.6887139;0.24700058;0.49477068;0.55704415;0.48999766;1.0134351;0.85152465;0.050404456;0.12400659;0.13242021;0.42923048;-0.012757938;0.107034765;0.33533323;-0.0142183285;0.0925082;-0.39313304;-0.3621736;0.022436932;-0.21417677;-0.17943971;0.15245038;-0.15468122;0.027701916;0.26101065;0.029015694;0.0691247;0.25442448;-0.08863939;-0.26502138;-0.03139339;0.32997805;-0.09199013;0.17189643;0.16813253;0.04735544;-0.14539479;0.0016671335;-0.01845989;0.05470659;-0.040731627;-0.30525666;0.013764676;-0.004332065;-0.26253408;-0.075012796;-0.4325599;-0.25888455;-0.06281388;-0.10541105;-0.38744202;-0.07188431;-0.05528331;-0.21118526;-0.18705736;0.14070255;-0.26917824;-0.4696881;0.17958035;-0.5189256;-0.54332364;-0.0842934;0.0045833653;-0.28537783;0.16016692;-0.1420061;-0.11532994;-0.06965005;-0.15360312;0.11764327
3;-0.003932803;0.16491595;0.22765028;0.01842348;0.19660315;0.24722067;-0.011712241;0.21899892;0.18860799;0.43431866;-0.48290765;-0.12251334;-0.41077688;-0.36938798;-0.41341245;-0.51506984;-0.038358074;-0.036844593;0.00022849411;0.06560243;-0.36940733;-0.14125012;0.16952476;-0.1822541;0.12657458;-0.04862042;-0.10634045;0.25926107;0.4211865;0.25785282;0.08754104;0.024556711;-0.09105261;-0.08433161;-0.4448694;-0.45521954;-0.3806629;-0.12690948;-0.024713105;-0.29679874;-0.24612279;-0.49685106;-0.30936787;0.059792418;-0.47466296;-0.30271497;-0.15586182;-0.1917683;-0.17232807;0.0092063;0.005705826;0.14625864;-0.00085201825;0.020522099;-0.15997888;1.0061795;0.76213706;0.3855621;0.7512334;0.24913138;-0.04221768;0.21299443;0.21261887;0.22951041;-0.85442936;-0.49291244;-0.3456895;-0.51007426;-0.4926788;-0.22488828;-0.20124723;-0.3430439;0.036466196;0.1096935;0.08873399;0.15379412;0.29694715;-0.12590604;0.008021673;-0.17931098;-0.05073119;0.46182773;-0.2658166;-0.33062637;-0.42337278;-0.06341311;-0.3179001;-0.32900816;0.06982514;0.10270628;0.03343485;-0.31783596;-0.4545831;-0.21546225;-0.1642038;-0.3700298;-0.3369704;-0.12656951;-0.11134235;-0.16123909;0.56946987;0.6966015;0.5265828;0.5439336;0.5244571;0.51821554;0.30310446;0.22976002;-0.08521156;-0.1614012;-0.070187084;-0.02838549;-0.18857972;-0.09622003;0.05992085;0.20442683;0.05597613;-0.09252312;-0.02898257;0.06072295;-0.23652278;0.0031887593;-0.019259699;-0.013167284;0.061924577;0.21577214;0.59485453;-0.1549438;-0.20541506;-0.41064566;0.17009354;0.06966898;0.0053718355;0.34302884;0.3535865;0.3369208;-0.11348426;-0.13926196;-0.032176454;-0.3923202;-0.11956862;-0.27495223;0.03757721;-0.17189598;-0.18220662;-0.1276;-0.053402998;0.027559886;0.025363062;-0.43114826;-0.06768366;-0.33063945;-0.63592327;-0.44432044;0.18609607;0.05417118;-0.21038565;0.4031974;-0.05777982;-0.35954812;0.057696532;-0.3019363;-0.18176313;-0.036014162;0.15619932;0.07755429;-0.10518932;-0.30510214;0.10820689;-0.15535207;-0.08824759;0.18814753;-0.060837865;0.13738288;-0.0144511;0.08033892;0.20908786;0.10911866;0.12418551;-0.098560646;0.18568602;0.349288;0.088267;0.19732177;0.19769038;0.16957039;0.095696144;-0.12502821;-0.12652966;0.19479743;-0.014676503;-0.097051024;-0.32010058;0.005925773;-0.066916905;-0.14815654;-0.038159624;0.07000119;-0.31835473;0.37049076;0.22845238;0.115582615;0.050384548;0.13831905;-0.011976999;0.13228363;-0.07498153;-0.26863068;-0.71960115;-0.67266566;-0.8364988;-0.35174334;-0.69980675;-0.5531516;-0.042769626;-0.095950946;0.2774619;-0.17947747;0.1845211;0.118855014;-0.26103774;-0.27037987;0.29907265;0.15413274;-0.1816388;0.04235049;0.18336609;0.08043841;0.21525384;0.022221958;-0.16698784;-0.043534126;-0.14851956;-0.35479805;-0.43943125;-0.39906207;-0.047638383;-0.089617945;-0.09780182;-0.2011196;-0.47122076;-0.29030535;-0.24631208;-0.29556212;0.20169008;0.32239822;0.53937626;0.3823802;0.055614803;0.25962976;0.32041126;0.046873778;0.32748234;-0.25661248;-0.23369496;-0.19156945;-0.2715873;-0.07846423;-0.21886462;-0.00741527;-0.03500081;-0.12602504;0.024987305;0.0069963736;0.42185453;-0.16387504;-0.26337057;0.0018407572;-0.11569154;-0.094889104;-0.18676844;-0.027204942;-0.37354127;-0.41630876;-0.25663114;-0.06706981;-0.040413387;-0.18726839;0.15431997;0.10498611;0.048541874;0.22824135;0.41432878;0.024017043;0.04725163;0.0015372951;-0.04777656;0.05434333;0.060084622;-0.27515054;-0.19898358;-0.2490625;-0.57943004;-0.36411425;-0.38973576;-0.13845322;-0.10805517;-0.017268913;0.22560148;0.106056966;0.07983637;0.025571983;-0.030275831;0.054049313;-0.16306596;0.16663884;0.35584164;0.18737473;0.13462745;0.1561203;-0.22950576;-0.3261572;-0.26723042;-0.29707044;-0.4463747;-0.29501638;-0.4317301;0.15211712;0.4800569;-0.5126011;-0.13387471;0.44378406;-0.08922198;-0.4457093;0.03441014;0.06627325;-0.02226935;-0.10361241;-0.097062714;0.07233493;0.19428723;-0.25962338;-0.066181414;-0.018189657;-0.45073292;-0.22397472;-0.118586175;-0.37820742;-0.41819206;-0.2513723;-0.36241058;-0.2657228;-0.028294299;0.024025183;0.17593111;0.47800526;0.24659865;0.02529543;0.024471242;0.038789;-0.13252202;-0.17124864;0.044549666;0.16736452;0.1057283;-0.015126971;-0.28723386;0.05061021;-0.42434263;-0.075363725;-0.3129697;-0.40421817;-0.2366425;0.44989464;0.08952126;0.0462485;0.5462343;-0.119018145;-0.1272143;0.07837624;0.22743389;0.05253809;0.20467064;0.13467827;0.14765327;0.17781058;0.056297958;0.31115636;0.1929576;-0.06689601;-0.044707213;-0.2960856;0.11329286;-0.46197873;-0.34712064;-0.40643534;-1.0717721;-0.66255295;0.17432952;0.20666555;0.011085307;0.22529091;0.11340325;0.41787532;0.15824294;0.3112952;0.07608048;0.031654328;-0.5125133;-0.46888864;-0.06935806;-0.3128277;-0.3904377;0.0073626614;-0.20273393;-0.2355113;0.069966674;-0.26233205;-0.33778462;0.109114125;-0.033036377;-0.44648725;-0.13503209;0.05401023;-0.3311145;0.255578;0.0387054;-0.0029147095;-0.11453061;-0.057456434;0.060696185;-0.060573272;-0.018371662;0.13945305;0.12834781;0.30360696;0.018141309;-0.43843877;-0.3692795;-0.3727817;-0.27239227;-0.0023444954;0.013603984;0.23994698;-0.12874018;-0.064611584;0.3033928;-0.031960636;0.09313017;-0.51309264;-0.37265754;-0.31835204;0.16610956;0.24298772;0.20257631;0.19019769;0.24318552;0.27202737;0.16697267;-0.112260945;0.030893097;0.32145166;-0.041011196;0.070929594;-0.27280658;-0.10186253;0.002722592;-0.4434566;-0.40539977;-0.16619791;-0.40560478;-0.70017153;-0.5170825;-0.5133671;-0.7474735;-0.69802034;0.05701308;-0.3543909;-0.32529703;0.106475435;0.15848038;0.10309737;0.05615749;-0.21930051;-0.18388031;-0.124833256;-0.33793214;-0.67139155;-0.4324753;-0.6332381;-0.38909775;-0.55203545;-0.3771818;-0.71593255;-0.8092994;-0.88418025;-0.8911406;0.07816553;-0.035543405;-0.06591589;0.6083405;-0.04026536;-0.38295752;0.665051;0.39133596;0.220788;-0.26022586;-0.082997195;0.21293294;-0.1045149;0.02244097;0.08313729;-0.0047223503;0.07857985;-0.03988743;-0.27022272;-0.24470727;-0.18330601;-0.16499852;-0.22806144;-0.30859783;-0.4814502;-0.20337982;-0.30687827;-0.119695365;-0.040078036;0.054963488;-0.17434473;-0.20383072;-0.09245782;-0.31574622;-0.55675006;-0.5063592;0.10237573;-0.0834135;-0.06980968;0.02420931;0.03417654;-0.111555554;0.35007146;0.31823802;0.056701645;0.07261452;0.2285873;0.119958974;-0.06251753;-0.09751145;-0.14480901;-0.09871129;-0.400234;-0.57511735;-0.2052939;-0.20721625;0.022759091;0.14748164;-0.07623207;-0.02668711;-0.122195706;-0.2535389;-0.04850799;0.13155031;0.32172224;0.057202116;-0.11225991;0.16230832;-0.0074624494;0.3506958;-0.046723645;0.08217589;-0.17561907;0.017144427;-0.48747557;-0.0925213;-0.38498223;-0.5058785;0.34947246;0.20224346;-0.030476425;-0.056214537;-0.37873545;-0.3203128;0.21400417;0.11037764;-0.20747848;0.2220567;0.11254126;-0.21360554
4;0.0049391873;0.056147173;-0.0962392;0.17430548;-0.12830998;0.2838726;-0.043745723;0.26344994;0.15249263;-0.5203441;-0.054320216;0.074202955;0.07667682;-0.0056410213;-0.0009832152;0.06165834;0.041534115;0.11341888;0.024433654;-0.29092342;-0.050078236;-0.17558251;-0.32525086;-0.17887796;0.007775035;-0.21818744;-0.21385343;-0.10727153;-0.39502075;-0.3870173;-0.2938825;-0.2644774;0.012302229;0.19344088;0.29417026;-0.21078826;-0.27227762;0.060138837;0.030287968;0.28244713;0.2063886;-0.026957294;-0.13381198;-0.048868906;0.050797597;-0.11039082;0.21632423;0.3397814;0.380324;0.40025792;0.1392062;0.38130277;0.44280493;0.07623201;0.35568637;-0.26971498;0.032132965;0.02600284;-0.30295086;-0.41611385;-0.616103;0.1053747;0.07587246;-0.44007894;-0.2269748;-0.48644847;-0.61738926;0.0696134;0.08021466;-0.19539452;-0.05616895;0.061831784;0.09112644;0.296824;-0.017316611;-0.29467112;0.57023454;0.24529342;0.26669708;0.13378611;0.25666112;0.44641355;0.0012695144;0.0043575466;-0.18277763;0.107588746;0.07165716;-0.15654457;-0.15381747;0.13295269;0.1371815;-0.3735811;-0.2885247;0.09575638;-0.4137536;-0.29730517;-0.10305204;-0.08345103;-0.013743487;-0.0834406;-0.41387326;-0.3148611;-0.28354084;-0.21585725;-0.08898301;-0.2778977;-0.11894336;0.3344101;0.19123557;-0.1917789;-0.35333717;-0.24104653;-0.016247103;-0.1010824;-0.27695346;0.23320188;0.52867144;0.13905473;-0.22359155;-0.05944726;0.0584266;-0.23630778;-0.32673687;-0.0077154697;0.11179586;-0.26093328;-0.014044926;-0.5005782;-0.18895239;-0.0365378;0.11960673;-0.0034615356;-0.111262016;0.12962832;-0.063092254;-0.285656;0.14465714;-0.0013494197;0.13837329;0.096344635;-0.22124997;-0.14164548;0.040954452;-0.2536142;-0.076781526;0.019571908;-0.16040958;-0.51320994;0.40557632;0.05369341;-0.32362577;0.23198207;0.4048255;0.11913112;0.09141145;-0.25889733;-0.46648973;-0.07178997;-0.15297028;0.18234922;-0.18361716;-0.23451068;-0.48643368;0.010698291;-0.1071064;0.46332467;0.32152188;-0.18299143;0.15214565;0.49548548;-0.16045704;0.106839955;0.18169557;0.3370257;-0.07600926;0.057999287;-0.1461208;-0.009684302;0.122767575;0.25395167;-0.43241876;-0.27202854;-0.33060083;-0.119345546;-0.1935396;-0.33777785;-0.8463616;-0.22132248;0.0026979435;-0.5699245;0.27168933;0.084621005;0.13415925;0.6028977;0.30151594;0.39414018;0.60853577;0.2511865;0.44024324;0.08280983;0.06337454;-0.28008023;-0.2545133;-0.16848335;0.19699512;-0.055506643;-0.17359588;-0.07775705;0.3905959;0.09673664;0.34956;0.34868476;0.120607816;-0.016004572;0.51832265;0.37872046;-0.25903133;0.34654677;-0.108841404;-0.31243622;0.032263618;-0.10485074;-0.49358904;0.13060759;0.011232534;-0.14544198;0.1585516;0.29066458;0.71416926;0.0144953495;-0.19234222;0.029148044;-0.36302248;-0.34139872;-0.16724552;-0.086342655;0.3783435;0.16980115;0.062600724;0.093240805;0.10675823;-0.025702704;-0.30386293;-0.18878895;-0.11532177;-0.08816561;0.0023058401;0.13540335;-0.13552104;0.009673839;0.2487823;-0.058891427;-0.49268776;0.39565563;0.34596077;0.1072569;0.17767338;-0.032747407;0.022403771;0.10676171;0.08617009;-0.06540832;-0.51729023;-0.656661;-0.03214996;-0.1086681;-0.069987625;0.25822976;-0.026747249;-0.07023891;-0.008718351;0.25115252;-0.102860436;0.1914474;-0.11246353;-0.17014258;0.08427965;0.37788463;0.12863639;-0.039383087;-0.14639027;-0.016850522;-0.2777545;-0.3974083;-0.19401552;0.07060727;-0.4111787;-0.36612317;-0.18622465;-0.07869851;-0.055705436;-0.22950023;0.00012338957;0.07940934;-0.12705852;-0.065166965;0.3579878;-0.060344107;0.26694316;0.1809769;0.4779021;-0.038097568;-0.1904517;0.34675333;-0.32378352;-0.23318566;0.26492697;-0.070429645;-0.6929998;-0.2383132;0.20053466;-0.24390122;-0.30787855;0.104308374;0.20832203;-0.22013128;0.39648956;-0.035524383;0.17667842;0.13473624;-0.09879148;-0.09816001;0.000863323;0.047133837;0.08816045;-0.19421935;-0.0441536;0.040906627;-0.500521;-0.36834106;-0.13391963;-0.41612077;-0.23780847;0.24166828;-0.43619943;-0.4092951;0.013909617;-0.029369617;-0.36032742;-0.52577287;0.28196812;0.21757875;-0.09188275;-0.10126958;-0.6767554;-0.31039843;-0.42544696;-0.43493855;-1.0266014;-0.48437533;-0.14364238;-0.7358496;0.08648821;-0.36841002;-0.5287162;0.21249053;0.029030712;-0.34975004;0.11983502;0.0697858;-0.11324998;0.14398757;-0.09314137;-0.67093366;0.069831945;0.100774266;-0.14869;-0.29519984;-0.08896582;-0.2624473;0.30703667;0.30898666;0.45243195;0.03960141;0.14127682;0.52774614;-0.24583675;0.016785914;0.14018185;0.8022085;0.05861719;0.11354083;0.8669007;0.34051645;0.57871646;0.34992066;0.23056997;0.44305724;-0.078345016;0.15999016;0.12425189;0.00087989034;0.10884407;0.1512144;-0.18797028;0.13973102;0.060963158;-0.067236386;-0.012935099;0.006013721;0.08362137;0.3034905;0.32388794;-0.05065015;0.05271731;0.28560394;-0.17934477;-0.10049131;-0.41887313;-0.08359336;-0.14841482;-0.67965674;-0.18503608;0.049467336;-0.51893765;-0.019067187;0.108903445;0.030072652;-0.5053833;-0.41348663;-0.058904435;0.03455045;-0.12015363;0.07130605;0.27506956;0.12970695;0.108393356;-0.23191181;-0.3323023;-0.15931843;0.1530449;-0.17275195;-0.12892257;0.4293225;0.3314243;-0.093206696;0.48018095;0.531801;0.39330631;0.4684793;0.48152825;0.4452773;-0.09342825;-0.29087597;-0.2913405;-0.19062357;-0.39131272;-0.5822091;0.032468576;0.10663933;-0.8084564;-0.19165683;-0.33607882;0.078926995;0.10650087;-0.4787325;0.00646443;0.058138486;-0.25519004;-0.10562797;0.0056256494;0.29524514;-0.06486575;-0.32597077;-0.25113675;0.064460844;-0.4868754;-0.38566986;-0.1431482;0.2941807;0.27641317;-0.22455873;0.38663033;0.2275512;-0.1498136;-0.049885396;0.14577964;-0.15809566;0.188402;-0.17883584;-0.20698385;0.28495482;0.2394988;0.16060127;-0.18975501;-0.0014522033;-0.08110131;-0.060584463;-0.26551667;-0.30416405;0.0066110785;0.16283472;-0.16543762;-0.27462256;0.3539985;-0.033274114;-0.15037228;-0.03355161;-0.1998016;-0.47795722;-0.12412739;-0.23547459;-0.25070652;-0.027923288;0.045271084;0.02312877;-0.4749985;-0.21923658;0.05041063;-0.00076800614;-0.18014126;0.33944806;0.21791492;0.16513906;-0.6614028;-0.73485243;-0.94543177;0.067339525;-0.09033373;-0.2526213;0.008085782;-0.12148791;0.06196863;-0.17289712;-0.48993635;-0.3643045;-0.06467053;-0.3481582;-0.26756445;0.040597644;0.022834595;0.11856621;-0.3587211;-0.0934161;0.16354536;-0.21167237;-0.5470652;-0.2389915;0.12595427;-0.05716273;-0.27532038;0.43479493;0.45192167;0.04208358;0.09505161;0.34246507;0.37923342;-0.23223753;-0.29566988;0.009121003;-0.43009338;-0.35681695;-0.26969457;-0.20799668;-0.6063026;-0.38613096;0.009664609;-0.5827031;-0.25327745;-0.080627866;0.050257683;0.30606925;-0.31688076;-0.3187637;0.0058026463;-0.10258722;-0.40898493;-0.20168532;0.118503526;0.5053535;0.48306003;0.27355847;0.3941815;0.31849888;0.06419576;-0.013195389;0.33184716
5;0.002710217;-0.46842828;-0.48396197;0.06917895;-0.29831496;-0.66500926;-0.6302282;0.2690049;-0.006688128;-0.3535239;-0.05186079;0.085002266;-0.049056735;0.072820745;0.122272596;0.023718515;0.118927985;0.29053372;0.21575134;0.22054839;-0.10418378;-0.11548097;0.2635851;0.06787813;0.05936003;-0.06269372;0.30450705;0.3418492;0.03398165;0.077413104;0.14450696;-0.07351281;-0.2073511;-0.5374046;0.07979783;0.06395112;-0.39362624;0.31782472;0.88450545;1.0417082;-0.33563423;-0.09417565;0.14148553;-0.8531746;-0.59139574;-0.291625;0.2697558;0.056866676;-0.31338036;0.21675771;0.17337476;0.031274505;0.2669083;0.086894706;0.119158395;0.008938709;-0.20922662;-0.0608889;0.26862022;0.13560523;0.06262803;0.27104828;0.2541105;0.42079586;0.04919547;0.1983872;0.12937923;0.20344242;0.20862597;0.38085386;0.40014386;0.2686193;0.49213743;0.3362144;0.34459153;0.33000505;0.5190094;0.5241201;0.36128888;-0.23212351;0.002005704;-0.09397932;0.09871845;-0.19595902;-0.36507484;0.055878144;0.06694813;0.22649375;-0.029615263;-0.08027707;0.2886247;-0.3565191;-0.20732719;-0.0054855156;-0.392126;-0.020487504;-0.1991154;-0.26406306;-0.04930828;0.08118574;0.23185606;-0.061322615;0.026114456;-0.045376793;-0.1333858;0.018559296;-0.124964505;-0.4167379;-0.31310105;0.32383323;-0.036444183;0.0011592396;0.35526994;0.34605247;0.53965366;0.022482537;0.07360829;0.4128149;0.14193846;0.076740354;0.032760892;0.034806505;0.025133995;0.17718814;0.085541725;-0.3172137;-0.0088147335;-0.0121782385;-0.29690436;-0.24789356;0.3310167;0.191925;0.14206421;-0.07861593;0.037143502;0.079447955;0.48521534;0.10649646;-0.15920241;0.82403463;0.4538524;0.1441848;0.18925323;0.4172039;0.1081934;-0.2196274;-0.019579675;0.22565287;-0.5073328;-0.32280374;-0.120463245;-0.42552194;-0.40888798;-0.5016804;-0.453778;0.25094587;-0.047915105;-0.72296107;-0.37620008;-0.060090713;-0.30041447;-0.277988;-0.24962945;-0.0039339233;0.10339573;0.22359557;0.10193269;-0.015205001;0.092528425;0.0034102274;0.06623841;-0.14675573;0.09120844;-0.10171797;0.19556083;-0.17731759;0.12150797;-0.03889046;-0.5897268;-0.30029503;-0.21608992;-0.18398258;0.029549452;-0.26195544;-0.087229244;0.154272;0.048468605;0.14158477;0.16525938;0.08059296;-0.028683456;-0.014804432;0.046717655;-0.29437932;-0.12795329;0.22085097;0.11805981;0.26249805;0.18763234;-0.14577076;-0.26006955;-0.40960467;0.55474;0.17687838;-0.19830725;0.37934825;0.22469494;0.18949607;0.32478896;0.17955819;0.2691273;0.21140182;0.11253991;0.01972005;-0.14981133;0.14431985;-0.1528965;-0.36882356;-0.11523689;-0.2965248;0.2270282;0.06642716;0.0011166943;-0.09087002;0.20019355;-0.10536333;0.08439331;0.1990397;0.54337204;-0.067231275;-0.10508046;0.042114165;0.1492023;0.06874349;-0.24566236;0.14535174;-0.14818224;-0.16483085;0.16410707;0.04975362;0.07066812;0.1701719;0.15098839;0.36451852;-0.17442834;-0.20342554;0.16256382;0.2905178;0.093717225;-0.08098804;0.11260013;0.1822995;0.06507632;-0.26992685;-0.2245712;-0.04807331;-0.52944934;-0.43894705;-0.1548178;0.2411329;0.44376433;0.29461482;-0.12916069;0.41766956;0.14137654;-0.60865486;-0.2131836;-0.39983207;-0.12763917;-0.56410575;-0.30321413;0.11366741;0.07081579;0.099287264;0.06862617;0.056075297;-0.05957161;-0.49573392;-0.17506126;0.023137068;-0.21623665;-0.29204404;-0.22148432;-0.15774183;-0.25724462;-0.027254475;0.17289324;-0.08893811;-0.2579894;0.4061562;0.28643417;0.53771985;0.48394397;0.02070867;0.34448224;-0.02791015;-0.33952996;0.28555366;-0.2749388;-0.2014607;-0.27645653;-0.14804302;-0.13670366;-0.067414105;-0.11744116;-0.051542085;0.17331758;0.030967217;-0.17730302;-0.23707402;-0.053069323;0.1632595;0.20609982;-0.022252468;-0.06797328;0.31264243;0.13777879;0.15327203;-0.03354969;-0.038158137;-0.16213655;0.09886375;-0.14078164;-0.11416546;-0.014612854;-0.062460545;-0.17865284;0.07766364;-0.24696659;-0.072194055;0.25484535;0.14591691;0.06936935;0.37346587;-0.06295975;-0.394264;-0.25884065;0.20181116;0.0506098;0.2773296;-0.1319014;-0.16148037;0.085097596;-0.46378604;-0.18020375;-0.14959192;-0.23669001;-0.28832236;-0.34220424;-0.81654394;-0.11376705;-0.109545864;-0.026470626;-0.18355638;-0.221099;0.13593999;0.18819343;0.1866343;-0.21940733;0.022677237;0.10618438;0.10835756;0.09556959;-0.11104989;0.30701992;0.06381518;-0.12922718;0.14255331;0.12578067;-0.2545089;0.18884006;0.14645624;0.20068456;0.25512382;0.36227316;0.5344351;-0.33687758;-0.1739132;0.07923959;-0.3627028;-0.05952075;0.17764156;-0.35226822;-0.32137096;-0.4600629;0.26970518;-0.15686175;-0.45887783;-0.23953973;-0.15874997;-0.025709918;0.03293485;-0.13241027;-0.19600503;0.20998628;-0.28790158;-0.2292319;-0.5001187;-0.19040409;-0.26697773;-0.7233516;-0.4658029;-0.25523126;-0.65857786;-0.5817747;-0.77397484;0.100651555;0.012228181;-0.10556725;0.17748913;-0.28379607;-0.23025276;0.053309757;-0.08157069;-0.21916203;0.15358724;0.104394674;-0.17383523;0.30892962;0.14130078;-0.33203545;0.30921087;0.354268;0.06933004;-0.12136516;0.16305852;0.25250047;-0.13728677;-0.11420538;0.1336924;0.15714665;0.087034464;0.06965374;-0.15198772;0.28687602;0.26526928;-0.08408833;0.23014054;0.28550538;-0.25532287;0.224916;0.23939799;-0.043551818;0.07561494;-0.23858209;0.04371034;-0.022880992;0.08418039;-0.1300517;-0.03798087;-0.021399572;-0.15355551;0.037956923;-0.21144739;0.048601855;0.17021969;0.021066643;-0.031061813;0.056370832;-0.28412038;-0.15795656;-0.30309835;-0.17371784;0.09262126;0.04273567;-0.14600293;-0.071845494;-0.2341014;-0.43916827;-0.03039204;0.17372212;0.26691994;0.24054328;0.21115467;0.54485065;-0.0006856506;-0.04858663;-0.119696386;-0.43475574;-0.5235976;-0.34657463;-0.726865;-0.6512532;-0.9992103;-0.008856269;-0.46623576;-0.85921544;0.750551;0.32176852;0.4201078;0.6352671;0.47437778;0.6802105;0.036926202;0.25024477;0.31243774;-0.36244783;0.19556998;0.20213799;-0.15656932;-0.25762165;-0.5109244;0.20051765;-0.1821119;-0.34471583;-0.58142596;-0.0023766393;-0.14990711;-0.257735;0.034344375;-0.27524433;-0.09151938;-0.06597096;-0.71480167;0.16910449;-0.20607002;-0.2320331;0.19510615;0.16864845;0.12182397;-0.106658444;0.0005731676;0.021249373;0.3415529;0.53369606;0.36851227;0.4196732;0.6796432;0.72765553;0.26138958;0.41125253;0.4026808;-0.39702943;-0.23947728;-0.21523137;-0.35332134;-0.23505938;0.20202924;-0.08165859;-0.37851208;-0.01424655;-0.12750857;-0.21926913;0.16000266;-0.06835456;-0.36856857;-0.32328287;-0.08089173;-0.2555974;-0.49732348;0.36151132;0.25904498;0.086028256;0.1486049;0.006064999;-0.39018267;0.24121428;0.4037937;-0.11494822;-0.06933803;-0.2708642;-0.35711187;0.25963408;-0.10681879;-0.59728795;0.3771265;0.08836991;-0.23129572;0.33154258;0.02648717;0.06379494;0.4760223;0.4034287;-0.033283655;0.13589856;0.63630545;0.6021995
6;0.0015869389;-0.012723378;-0.12181325;-0.09265718;-0.23558094;-0.26313543;-0.3877999;-0.16874473;-0.17201824;-0.5408613;-0.2640382;-0.33280963;-0.22328685;-0.050180037;-0.051684823;-0.00057916134;0.15509357;0.056737732;0.16587831;0.7042683;0.16114254;0.17062588;0.26843476;0.09201396;-0.043676775;-0.119294725;-0.074373566;0.08288014;0.026116615;0.21766499;0.2376143;0.21171647;0.0058906786;-0.1859159;-0.027715653;-0.31208098;-0.28770778;0.022041284;-0.11596456;-0.037318036;0.0021875722;-0.0057771355;0.1805358;0.04161;0.07579451;-0.08142819;0.20067306;0.36831352;0.20929399;-0.21715213;-0.2897336;-0.3972576;0.05525433;0.21645346;-0.23235686;-0.33870453;-0.23283581;-0.3301467;-0.1765119;0.06236863;-0.103727296;0.13409418;-0.33175004;-0.21285602;-0.08367724;-0.2273068;-0.18644367;0.04523666;-0.05189171;0.26460236;0.44263446;0.2765745;0.32602587;-0.053886365;0.1065108;-0.31782514;0.07361076;0.058929067;-0.05124331;0.2505497;-0.07876155;-0.15517479;0.14735746;0.0720602;0.07383222;0.25416094;-0.25724772;-0.52299815;0.13007008;0.04079008;-0.11407475;0.37569886;-0.09362352;0.2022416;0.1739318;-0.24989587;0.028252553;0.3202723;-0.21298711;0.13866378;0.20528588;0.35314697;0.0036937376;0.31449056;0.1902177;0.012338794;0.30981022;0.2116611;0.120226204;-0.13414377;0.08274383;0.30567047;0.3076105;0.35055545;0.22028498;0.32894254;0.34509778;-0.13208301;-0.95447767;-0.18683389;-0.10470491;-0.391948;-0.15552294;-0.054462288;-0.13562427;-0.14158365;-0.14511478;-0.3040063;-0.25933784;-0.33518362;-0.25616887;-0.20657076;-0.2516116;0.12800401;0.058023296;-0.41852129;-0.688541;-0.37817085;-0.21614493;-0.4226438;-0.27498263;-0.036369063;-0.14865562;-0.40742725;-0.42034462;-0.19607839;0.04835792;0.18876621;0.2835104;0.26874703;0.35246295;0.52412736;-0.18652454;-0.12245234;0.21282898;0.1587809;-0.083580784;-0.1798478;-0.16283552;-0.063484475;0.25050372;0.31376183;-0.049840692;0.0567721;0.049618028;0.10531815;-0.014776838;-0.21259685;0.13563043;-0.04784914;-0.046087585;0.09396912;-0.11237071;-0.57613814;0.067780346;-0.02186229;-0.13495494;0.25035542;0.08344141;-0.21190906;0.16820194;-0.17719862;0.078294165;-0.114778414;0.044378225;0.1461721;0.23512565;0.32049578;0.12940477;0.02475446;0.4189731;0.14834484;0.14088343;-0.33238962;-0.28308973;-0.0004670122;-0.18745697;-0.0744679;-0.16530615;-0.06652504;-0.03726916;0.16256292;0.26277947;0.0076308884;-0.053768385;-0.22827868;-0.45951056;-0.10524008;-0.24515586;-0.332923;-0.108194746;0.25433028;0.0004330895;0.14466344;0.489061;0.5629144;0.28952438;-0.20341842;-0.1746225;0.111462705;-0.0034449936;-0.26148185;-0.21135469;-0.054393604;-0.19406198;-0.5666178;0.015747182;0.11718797;-0.044881742;0.3126451;0.11424791;-0.14400208;0.23789425;0.1372572;0.13861999;-0.39097905;-0.15770379;-0.20102298;-0.09873027;-0.35372;-0.059281554;0.0023973538;-0.5238979;-0.35838968;-0.05684112;-0.121369585;0.13118231;-0.028944125;-0.6595796;-0.33610383;-0.2785851;-0.4279371;-0.354947;-0.12873621;0.014239997;0.25346723;0.14685021;-0.019287251;-0.079425454;0.18931769;-0.26244465;-0.35672942;-0.6028681;-0.3627197;-0.08952081;-0.31462646;-0.5651428;-0.525382;-0.11623961;-0.20298968;-0.3657432;-0.33032152;-0.18217383;0.108368516;-0.27860487;0.10714069;-0.06211321;-0.55868775;-0.091204785;-0.26628163;-0.19886933;-0.2793671;-0.43902808;-0.58843154;-0.46173993;-0.38568908;-0.50013036;0.008623963;-0.073431164;-0.11792076;-0.3701357;-0.48996544;-0.32314554;-0.6795763;-0.7714235;-0.28313866;-0.5799462;-0.848383;0.3577991;0.48483586;0.4262395;0.34322459;0.3206971;0.69485855;0.14126745;0.48713142;0.40191075;-0.059678417;-0.30003536;-0.060835745;-0.19918956;-0.39010745;-0.13653845;-0.15531792;-0.4115394;-0.051447842;0.011049741;-0.25131208;-0.19886895;0.16482046;-0.0448857;0.09651587;0.14933112;0.09513229;-0.053172946;-0.058240358;0.2338306;-0.2732341;-0.5960671;-0.14331612;0.3175112;-0.35430333;-0.35464007;0.20554888;-0.23056868;-0.38121042;0.020833807;-0.51800656;-0.4819669;-0.48656964;-0.21583487;-0.5215969;-0.29027954;-0.1567534;0.10355607;-0.05661425;0.38060212;0.15424308;0.15182994;0.2865522;-0.011668768;0.045697954;-0.35731933;-0.15562908;-0.16800165;-0.45048007;-0.26278347;-0.20122817;-0.42594776;-0.3448682;-0.013163668;-0.1704653;-0.361802;0.14319398;0.08651562;-0.033935606;-0.100465566;-0.03179699;0.072973795;0.39547694;0.40516642;0.23278244;0.18294924;0.43420932;0.3782456;0.1062703;-0.24128811;-0.03974589;-0.15790106;-0.21853925;-0.47269878;-0.3281846;-0.11046382;-0.46913937;-0.14992411;-0.10875468;-0.17402534;0.0104443915;0.015246006;0.020832054;0.40699124;0.07304398;0.091515146;0.028316965;0.2154833;0.27266568;0.17246225;-0.15559235;0.11364247;-0.20527698;-0.53326684;-0.12304282;-0.4721937;-0.09525887;-0.14901176;-0.4260099;-0.03895965;0.15788214;0.101969436;0.0487879;-0.17410402;0.09056198;0.4115574;-0.33786595;-0.5616118;-0.042720124;-0.056806467;0.09000092;-0.6710084;-0.17855531;-0.31585777;-0.21536228;-0.20095998;-0.058175378;0.25753453;0.4359809;0.28899038;0.07560015;0.103751935;0.34129053;0.098934025;-0.21097465;0.13492897;0.095287286;-0.24404123;0.53142995;-0.020630049;0.05646301;-0.12710992;0.45510992;0.509691;0.3660176;-0.13851;-0.24738786;-0.1532424;0.44633242;0.434192;0.16140802;0.35414615;0.59113455;0.6924027;-0.41158426;-0.21643113;-0.31989604;-0.748714;-0.5181248;-0.3524063;-0.43996552;-0.5095983;-0.060564205;0.14149784;-0.41567793;-0.20892312;0.24940078;-0.056834202;-0.43883863;0.00096312084;-0.064345576;-0.048566975;0.1580032;0.16877553;0.142068;-0.05090992;-0.13435557;0.24023077;-0.016248401;-0.042578906;-0.011726827;-0.052761324;0.054221183;-0.02054285;-0.07099028;-0.4130496;0.09629544;-0.27277783;-0.5446405;-0.018541005;-0.28129122;0.265718;0.042569302;-0.027412524;0.07106481;0.021384409;-0.11066064;0.14846505;0.06027642;0.14706238;-0.24091676;-0.08363251;0.39236674;0.05560338;-0.025567256;0.12262651;0.12153398;0.059867803;-0.37958917;-0.3560384;-0.13521825;-0.3244281;-0.26626197;-0.0737428;0.13780725;-0.14129761;-0.15719102;0.27420717;-0.40451655;-0.57766795;0.07022467;-0.5080852;-0.5915292;-0.27200297;-0.52373624;-0.60136366;0.14808938;-0.25998402;-1.3409876;-0.0150320595;-0.21090478;-0.4865849;-0.341789;-0.16441442;-0.23054504;0.28648898;-0.015084174;0.056329027;-0.20738903;-0.26042315;-0.37431315;-0.5944193;-0.7653575;-0.48146778;0.12717412;-0.07490013;0.23446696;0.020728037;0.03713088;0.17643295;0.12569427;0.34627435;0.23158424;0.09031823;0.29507816;0.4300766;-0.128905;-0.36247632;-0.054886922;-0.2685483;-0.48547933;-0.29550081;-0.3728155;-0.46080512;-0.12874392;-0.4681405;-0.46411481;-0.4693848;-0.5023938;-0.36132756;-0.39822504;-0.091710605;-0.024853004;-0.12426806;0.13529745;0.026781287;-0.009686739;-0.12572186;0.16512349;0.13110057
7;0.001275674;0.08541022;0.20254554;0.09710734;-0.1442607;-0.07580494;-0.06454601;-0.3620802;0.039979752;0.39913207;-0.46642566;-0.14613956;-0.39904034;-0.14128721;0.17901272;-0.3383367;-0.36681584;-0.107599586;-0.07778906;-0.12737772;-0.047570236;0.20804463;0.25756773;0.47588223;0.32344803;0.38752285;0.38057533;0.008042347;-0.014617509;0.30634904;0.23765646;-0.2899494;0.21646315;0.26552767;-0.2370962;-0.07244484;-0.04040089;0.32499528;0.02206217;0.067160614;-0.027627744;0.1072146;0.00038012996;-0.32687223;-0.11499868;0.0742356;-0.20442414;-0.04835648;0.043799818;-0.13086288;-0.13645592;-0.03207495;0.19500865;0.17824322;-0.29668403;0.03576202;0.28298774;0.4358271;0.16261028;0.2042542;0.34485722;0.24687812;0.05302336;0.3773043;0.094905555;0.0934516;-0.22428547;0.2392129;0.15538521;0.08963595;0.268245;0.4726432;0.29393414;0.18630281;-0.00984189;-0.15377729;0.34844303;0.27972972;-0.17195414;0.48932177;0.22284293;0.0029184525;0.22643961;0.24006146;0.33833358;0.24864806;0.15491585;0.0850404;0.46773067;-0.06608558;-0.11745332;-0.016578617;-0.2638032;-0.28078538;-0.121356376;-0.28331497;-0.2733699;-0.17880319;-0.12295454;0.13514213;-0.14467098;-0.13761865;0.06172726;-0.027105145;-0.2055298;-0.12765363;0.10490162;-0.035240527;0.024952782;0.06837019;-0.062620014;0.017307831;-0.074839585;-0.15790132;0.089132376;0.031752326;-0.01664502;-0.13822268;-0.050505623;0.1433484;-0.31072208;0.04873615;0.29732242;-0.0460501;0.19919232;0.057966705;-0.1971065;-0.0522115;-0.3545514;-0.40853924;-0.039410137;-0.2529069;-0.369108;-0.12899862;-0.4192512;-0.4701172;0.10621865;-0.13077426;-0.07320227;-0.33420262;-0.084279954;-0.32064196;0.1433336;0.25725362;0.09469543;0.4140952;0.09127234;-0.41208807;0.53723925;0.25721732;-0.15538171;0.39797118;0.42510003;0.30951712;-0.3022753;0.0818251;-0.036917403;-0.4709899;-0.20094974;-0.040717628;-0.5377196;-0.17107145;0.1279881;-0.54415643;-0.12872571;-0.38957036;-0.22908992;0.15423433;-0.3344242;-0.5495859;-0.3591688;-0.3940875;0.06319508;0.14787865;0.15440322;0.013515349;-0.23911497;-0.16552733;-0.110642314;-0.32360053;-0.3960704;0.12337605;0.2545682;0.50273204;0.0080260495;0.041841518;0.12778892;-0.3085652;-0.07246203;-0.019466568;0.055654105;0.26505566;-0.2361396;0.086040325;0.26735651;0.034686673;0.016036356;0.2737888;0.14912954;-0.029910073;0.105609395;-0.15413803;-0.14404863;-0.22515957;-0.31362462;-0.019225163;-0.36503804;-0.040910244;-0.35559434;-0.3824631;-0.5842595;-0.36739665;-0.28966737;-0.39001527;-0.51334196;-0.28020847;-0.4245692;-0.012872966;-0.052886397;0.41471627;0.17851253;0.11744696;0.07159511;-0.06414368;-0.22955364;-0.54805565;0.12149335;-0.021266023;-0.022421185;-0.017584171;-0.20729598;-0.0017843114;0.021293085;-0.13608447;0.1479852;0.016198799;0.041071378;0.021246132;-0.043878295;0.09301571;0.13194413;0.08818812;0.13138394;0.25900218;-0.16090626;0.05652943;0.16261555;-0.2637457;0.041057456;0.50216025;0.34206465;0.41869578;0.6127311;0.11266542;0.20189275;0.22716756;0.06069984;0.16285673;0.29264635;0.29817984;0.15427959;-0.055710632;-0.12487303;0.17746113;0.09166401;-0.121115364;0.06857464;-0.12370263;0.0015942698;-0.1259183;-0.29060474;-0.5497134;-0.1253727;-0.44929194;-0.13244057;-0.2635098;-0.2128828;-0.24889027;-0.3353468;-0.05956973;-0.16564137;-0.6034771;-0.2959195;-0.3874288;-0.21721852;0.31006166;-0.019968575;0.04109072;-0.19955556;0.13787706;0.36355147;0.5047531;0.15414642;-0.3110527;0.10886073;0.02096795;-0.271499;-0.319977;-0.3361749;0.19736493;0.0854997;0.018956667;0.3688485;0.23509674;0.050364267;0.37465984;0.39028305;-0.13033679;-0.021547673;0.33047676;0.10729921;0.3165467;0.3272218;0.3078854;0.4043141;0.1923321;-0.34356582;-0.17027186;-0.49589658;-0.24320869;-0.30013445;-0.25268495;0.0032829605;-0.13292946;-0.057967793;-0.11310608;-0.33609086;-0.19724695;-0.37875238;-0.3192325;-0.20277734;-0.014236081;-0.12418237;-0.10274967;-0.41021568;-0.54713875;-0.41126698;-0.19397546;-0.53358555;-0.6438817;-0.23456413;-0.49081796;-0.38624525;0.062098198;0.023897972;0.30410925;0.18931562;0.12624136;0.09245446;0.1680621;0.25910845;-0.019612974;-0.50582224;0.060110576;0.48134884;-0.5793364;0.05654076;0.0978027;-0.24090543;-0.15400854;-0.13631861;0.04181282;0.006523597;-0.07353752;0.39115694;0.099004574;-0.09802104;0.30269358;-0.20306593;-0.062116932;-0.017056458;0.041298844;0.13265046;-0.014828275;0.13082463;-0.051484138;-0.14525196;-0.30292073;-0.20539705;-0.19404386;0.12541106;-0.023775814;0.04200818;0.31877366;0.18024412;0.1678342;0.3753087;0.46540937;-0.29484007;-0.52983975;-0.54170614;-0.23757938;-0.19142699;-0.4854294;0.2773068;-0.22819045;-0.4079103;-0.05596187;0.09756284;-0.2536367;-0.08744661;-0.21779408;-0.3274544;0.05645907;-0.15777855;-0.1197965;-0.11452129;0.15960869;-0.13148916;-0.1549066;-0.14794552;-0.31116977;-0.082667015;0.17893265;0.08565772;-0.1982985;-0.27553535;-0.4462332;-0.3184784;-0.46657532;-0.2596328;-0.30231443;-0.40731516;-0.1477518;-0.4998334;0.082119785;0.0025071981;-0.57111704;0.0076273624;0.12768328;-0.46825644;-0.13200277;-0.024641965;0.2859007;-0.2715524;-0.21122144;0.12907788;0.07523349;0.06839754;0.4969455;-0.05011877;-0.057399113;0.05525833;0.0037883732;-0.07027039;0.16120096;0.045243856;0.16867806;0.14190744;-0.11544203;-0.14591289;-0.23955135;-0.62880003;-0.08068216;-0.6912145;-0.64346874;-0.37263057;0.013933887;-0.19630516;-0.12307904;-0.4289218;-0.1787229;-0.16544583;-0.20679769;-0.08800502;-0.10803968;-0.64599365;0.0038638015;0.03530673;0.040668715;0.32434723;0.0546838;-0.07844197;0.4784294;0.47651708;-0.13483314;-0.028309887;0.3247269;-0.10361834;-0.26311833;-0.05966167;-0.43941697;-0.23936981;-0.17004865;0.1657356;0.23737204;0.25881726;0.5272426;0.23195663;0.5006448;0.13300654;-0.23950225;-0.008779323;-0.30824244;-0.39462018;-0.2579215;-0.87037534;-0.6670372;-0.24960518;-0.56103754;-0.63491464;-0.4760676;-0.35783258;-0.2671609;0.14077471;-0.1875341;-0.55718374;-0.17759387;-0.20446475;-0.17255075;0.07200475;-0.20548706;-0.1427406;-0.22671098;0.0050446996;0.09368976;0.17592877;0.29287174;0.23213668;0.24612872;0.096495464;0.5310417;0.29019925;0.51468086;0.29576418;0.3784072;0.49777123;0.35359937;-0.15335377;0.12245918;-0.18864755;-0.3299034;0.17623757;0.1600186;0.40066132;0.35736012;0.37094516;0.3997083;-0.053315803;0.051272705;0.09898145;-0.28710106;-0.5356399;-0.4723295;-0.1736868;-0.17096454;-0.13400163;-0.2128004;-0.32197368;-0.11738551;-0.19841991;-0.6117469;-0.4094432;-0.5953129;-0.28780133;0.08214099;-0.073879056;-0.056704074;0.4680288;0.5228105;0.1393537;-0.14945845;0.5642691;0.2885004;0.45392781;0.78659815;0.4081756;0.7793073;-0.55904114;-0.2977709;-0.13952428;-0.19693707;-0.3110597;-0.25951493;-0.15395062;-0.23958187;-0.18446603
8;0.0034376835;-0.15692113;-0.07788199;-0.27493396;-0.039386906;0.17984132;-0.10398604;0.21819371;-0.045495573;-0.32188568;-0.19798928;-0.0861803;0.030072095;-0.19564131;-0.16175659;0.013738607;0.07968004;0.00505654;0.39116594;0.25818083;0.074287325;0.04707346;0.04310749;-0.36950707;0.14164598;0.25186083;-0.021963013;-0.20931895;-0.059672754;-0.12672082;-0.08871879;0.106121175;0.003849933;0.27665883;0.078464285;0.10778165;0.43405765;-0.15301856;-0.041152157;0.11481016;0.24474077;0.10290817;0.039141353;0.50803787;0.3284058;0.46660942;-0.06575611;-0.5588151;-0.23854136;0.3076899;-0.03373633;0.23545778;0.06884453;0.12527817;-0.15208548;-0.15729766;0.18941219;0.60143965;0.44929716;0.34419623;0.52939075;0.4131067;0.20048937;0.40702292;-0.8409632;-0.39712834;0.25647706;0.025710527;-0.16363557;-0.08609316;0.29696476;0.044444095;-0.2356231;-0.18234786;0.039907485;-0.04640342;-0.09533585;-0.0080974065;-0.22304612;0.06097939;0.07234148;-0.06876883;0.1395124;-0.25009286;-0.2726789;0.24638292;0.19886063;0.23582153;-0.15469667;-0.100568585;-0.30153614;-0.526603;-0.28977093;-0.6136804;-0.3281265;-0.4990697;0.054337326;-0.11047343;0.04282645;0.4714543;0.08478533;-0.041526884;0.047642354;0.26750293;0.34855673;0.33588368;-0.06807759;-0.04624578;0.18032484;-0.275431;-0.3146014;0.05910177;-0.35338983;-0.50598633;-0.13744074;-0.03871033;-0.18324849;0.20844744;-0.3753467;-0.18313275;-0.14594242;-0.19008681;0.14943059;0.23498845;-0.22173628;-0.4305459;-0.34712687;-0.25154775;-0.2862423;-0.25892895;-0.279916;-0.39306787;-0.7528977;-0.25324833;0.08474232;-0.117881484;-0.2271716;0.081944875;0.54527444;0.057652593;-0.07541722;-0.07161103;0.3986674;0.23022895;-0.07996375;-0.2605803;-0.12967995;0.15287837;-0.03412873;-0.1588494;0.10774513;-0.48333037;-0.5834235;-0.2654245;0.008434768;0.003174911;0.35511118;-0.12505336;-0.11917118;-0.011039473;-0.11171341;0.18319269;0.12005635;-0.48069337;-0.518381;-0.16626586;-0.5090864;-0.34538475;-0.26467532;-0.35178885;-0.22178948;-0.19617808;0.33626455;0.18608469;0.17293967;0.4561869;0.39171544;0.23003165;0.18439192;0.22349568;0.0059222733;-0.026759483;-0.024445394;0.14064437;-0.4010477;0.085732535;0.2571322;-0.74557865;-0.019126944;0.3977113;-0.29112396;-0.23568435;0.24570692;-0.66514075;-0.4353371;-0.27526245;-0.08391059;-0.24157189;-0.2221108;-0.22923067;-0.4540682;-0.58603495;0.041470017;-0.11159991;-0.6763035;-0.27784246;-0.14097579;-0.866862;0.42659378;0.34175116;0.16673659;0.3178841;0.36736855;0.4624982;0.08282603;0.31568688;0.042699937;-0.32376605;-0.095388964;-0.44986418;-0.23760302;-0.1017805;-0.6556903;-0.22884665;-0.14501034;-0.4536215;-0.19808608;0.22788797;0.28282335;0.07388164;0.23224077;0.27448794;0.16606705;0.013107152;-0.009623063;0.13673593;0.113817975;0.028175311;-0.21037194;-0.05878185;0.1702648;0.22959974;0.28839663;0.38333377;0.0006895988;0.23721595;0.47151738;0.26425663;0.06118801;-0.0834038;0.048968688;-0.25705642;-0.106802255;0.30776545;0.22130674;-0.09323292;-0.015604113;-0.009652329;-0.10011989;-0.6046478;-0.23423557;-0.20969646;-0.51301056;-0.41263783;0.17102009;-0.3555003;0.052956577;-0.022673313;-0.27305734;-0.37383887;0.0029810863;-0.27367407;-0.0006336464;-0.2788196;-0.08004897;-0.29785517;0.029557627;0.1189768;-0.07303247;0.013869385;-0.09095077;-0.09375253;-0.07706196;0.10664877;-0.073160544;0.08558592;-0.042790134;0.24332769;0.5621042;0.040491294;-0.16133098;-0.1878603;0.11160141;-0.5431191;-0.61484396;0.3774217;-0.1976994;-0.22123106;0.20562947;0.16550368;-0.14365043;0.08790798;-0.16817436;-0.26653016;0.16736433;-0.2729694;-0.037927028;-0.045812935;-0.008356493;-0.29133397;-0.42917484;-0.45171195;-0.40231457;-0.5668879;-0.72563803;-0.7374372;0.24978404;-0.20451272;-0.20348155;0.3280676;0.21987256;0.1381254;0.101597555;0.18057421;0.36478132;0.25779802;0.44392192;0.1632883;0.17243539;0.25799182;0.12145597;-0.035684876;0.18669026;-0.07547945;-0.4742134;-0.3257866;-0.53121024;-0.1500687;-0.0346671;0.108231604;-0.16363288;-0.09057454;0.020856302;0.0023160037;0.067301504;0.059554428;0.024469754;0.40453944;0.33205387;0.34577245;0.2408712;-0.10335336;-0.21036917;0.07460518;-0.5000877;0.2947267;0.251242;0.001992414;0.16008493;0.2405371;0.2224731;0.122117475;-0.29555136;0.20271938;0.14919363;-0.048991464;-0.3638912;-0.011397206;0.102480836;0.071928166;-0.20672135;-0.5671956;-0.47389483;-0.5157201;-0.43664458;-0.2944623;0.15221326;-0.18585014;-0.23251821;-0.2975419;-0.15883726;-0.16947518;-0.29866898;-0.13550687;-0.0872583;-0.36467355;-0.51447505;-0.42396453;0.6452614;0.44428214;-0.18155916;0.1572228;-0.06476692;0.06048566;-0.3358996;-0.35461527;-0.22799742;0.14468256;-0.17707348;0.14285196;0.42789644;0.4207178;0.3474242;0.3201902;0.6238095;0.5425274;-0.46826392;-0.5750046;-0.11417187;-0.27770022;-0.31410718;-0.058059763;-0.24963804;-0.15405545;0.01823029;0.124319516;0.20683877;0.044912655;0.020886261;0.24607901;-0.027662907;0.2979831;0.18060698;-0.18725014;-0.20620656;-0.22081277;0.25151786;0.21473321;-0.12129563;-0.10070488;0.20846352;0.12386042;0.14180683;0.28688568;0.2921721;0.5486259;0.06408128;0.07111004;0.32462168;0.110825606;0.21019736;0.16279788;-0.46181902;-0.6355099;-0.40870243;-0.22951066;-0.71126;-0.40911314;-0.1838634;-0.6925118;-0.5459036;-0.05804046;-0.01964829;0.05658942;-0.3468276;-0.3019113;-0.26293874;-0.315341;-0.58300287;-0.40388405;-0.03933591;-0.27538896;-0.16646834;0.28421474;0.10686148;0.03192965;0.27968794;0.06253384;0.16802545;-0.6064881;-0.70679176;-0.4741188;-0.38078183;-0.59127223;-0.34155968;0.14054401;-0.20078102;-0.31122297;0.56293696;0.21800588;0.52844435;0.4296833;0.118535586;0.29144397;0.14711565;0.04102919;0.011814807;-0.055914555;-0.29946002;-0.2209762;0.1954346;-0.26104817;-0.2219942;0.08470801;-0.04853383;0.018128468;0.29188538;0.24147837;0.36270455;0.2718193;0.169834;0.21966319;0.22557269;0.34606254;0.15553027;-0.11921286;-0.088220656;-0.20204166;0.017151723;-0.049710676;-0.0409128;0.23140989;-0.08896271;0.08740594;0.27382177;0.43802693;0.26448426;0.24913368;-0.20322192;0.07718108;0.4019702;-0.32016602;-0.16908516;-0.2783173;-0.40868896;-0.30745783;-0.15615036;-0.32339397;-0.025269074;0.24787034;-0.07425346;0.27154994;0.23497446;-0.37096792;-0.14169087;0.23498309;-0.22924575;-0.26958248;0.15050799;-0.1463019;0.2236961;0.3528207;0.13178249;0.0412385;0.058604445;0.047228277;0.046933938;0.3373998;0.09848719;0.22442582;-0.29213402;-0.52439386;-0.5063313;-0.41995275;-0.53403527;-0.644556;0.023549037;-0.0036118042;-0.45884725;-0.12164541;0.15347014;-0.23474635;-0.24066417;0.1674241;0.08785312;-0.003341317;0.30822963;0.26891133;0.0976611;-0.0048949914;0.43723202;0.06619646;0.18885748;0.015888305;0.113678895;-0.00312851;0.17471328
9;0.0031800752;-0.39237195;-0.056615323;-0.45921248;-0.086012416;-0.35722798;-0.39771834;0.12153758;-0.1309014;-0.35576686;-0.45803392;-0.10982788;-0.22554635;-0.02659009;-0.14517435;-0.5407986;-0.10611445;0.25414237;-0.15227571;0.09120932;-0.26061597;-0.5549445;0.21545246;-0.058541223;-0.3288741;0.10273452;-0.21271841;-0.10787059;-0.2595225;0.0064656218;0.29722106;-0.19395192;-0.116680205;0.010886201;0.15302303;-0.34581953;0.1803045;0.044063617;-0.32540253;-0.3107182;0.25194377;-0.33904532;-0.3525536;-0.20954944;-0.27388367;-0.32581773;-0.060363255;0.18398108;0.21166594;0.0081008915;0.0582542;0.05614311;0.22072984;0.2261785;0.17544018;-0.1054226;-0.16154906;-0.3435964;0.33983755;-0.07867936;-0.36285058;0.12822601;0.028665053;-0.21439679;0.18326183;0.1591305;-0.056736276;-0.11727451;-0.20053613;-0.0725956;-0.11574536;0.41821167;0.15982467;-0.2564826;-0.1314796;-0.25933507;-0.6022173;-0.21052662;-0.44070533;-0.43947777;-0.2953376;-0.73450613;-0.18020016;-0.05221527;0.090618476;-0.058519796;-0.1369384;0.038373124;0.13688369;-0.228282;-0.2155039;0.11908045;-0.077495284;0.4600674;0.08653504;0.08611415;0.7479729;-0.11833982;0.14338376;0.40950114;-0.1369029;0.09915876;-0.050559793;-0.4808761;-0.6862898;-0.72674364;-0.5124645;-0.57705015;-0.48315132;-0.0035657322;0.00097447564;0.37699822;-0.08307498;-0.2995181;0.0883567;0.23033178;-0.031200856;-0.8960651;0.118253075;0.037076395;-0.11185938;-0.31494993;0.057138156;0.003695637;-0.45145494;-0.17152686;0.27512297;-0.3254358;0.07697376;-0.3563554;-0.11214861;0.19320844;0.022754174;-0.23788863;-0.20772566;-0.24450827;-0.07758072;0.0050221104;-0.16174757;-0.590104;0.08068691;-0.23656578;-0.3723796;-0.11056514;-0.095364936;0.07214387;0.43999413;0.66170263;-0.16906656;-0.107080296;0.0073944167;-0.045857895;-0.5021812;-0.41640756;0.10745459;-0.2806899;0.22587553;0.3732863;-0.1560119;0.038569007;0.18468568;0.290405;0.33595368;0.0675062;-0.1307336;-0.10225428;-0.0015100767;-0.1557294;0.23707739;-0.26508653;0.040222708;0.19696067;-0.23629102;-0.11826544;-0.09706475;-0.33113858;-0.33308887;-0.15981735;-0.027079063;-0.24316716;-0.1021218;-0.601302;-0.5851224;-0.8922739;-0.005988783;-0.06625062;-0.119388595;0.29345533;0.22056678;0.14748555;0.35822612;0.32466006;0.13506223;-0.038394205;-0.23624344;0.09138961;-0.44671154;-0.44353685;-0.33827806;0.25313818;-0.04028518;-0.13081601;0.15087844;-0.23665385;-0.17022562;0.15245795;-0.18957236;0.25181076;-0.18019742;-0.17307945;-0.1761386;-0.04942209;0.013500688;0.048781067;-0.52105933;-0.1793004;0.103247575;0.1383772;0.17711212;-0.101582326;0.2245004;0.05246091;-0.047205534;0.42979568;0.1609551;-0.06744775;0.18184851;0.44515598;0.52625203;-0.06639251;0.1837676;0.16056974;-0.018045656;0.12478974;0.49162525;-0.37023845;-0.039153613;-0.10636034;-0.14011723;0.013097253;-0.089417845;-0.297694;-0.24942322;-0.08606147;-0.032163013;0.09093737;-0.115110464;-0.30157816;-0.3106049;-0.041317143;0.06278466;-0.19423008;0.1668698;-0.38734388;0.07288918;-0.050392944;-0.14034088;-0.07711703;-0.090592355;0.010864226;-0.25192183;-0.26845163;0.015111408;0.0319881;-0.16672288;0.25771174;0.2818212;-0.05770504;0.38243064;0.59600466;0.24277817;0.10983461;-0.1264829;-0.34668162;-0.19021809;-0.27345666;-0.40443337;-0.037116893;-0.3207739;-0.48095602;0.016086414;0.15756807;0.13498354;-0.08875369;0.06429881;0.05416468;-0.12390809;0.09207712;0.22587334;-0.5648209;-0.22827959;-0.21390177;0.07382091;0.19737522;0.16086277;0.59454376;0.44449756;0.55983335;-0.39163586;-0.3988843;-0.08959505;-0.18689117;0.02815376;0.1000867;-0.0868248;0.30117863;0.3366105;0.13936658;0.17767347;0.17426029;-0.18556301;-0.1672559;0.021603215;0.38309976;0.21692483;0.2688283;-0.45447075;-0.39204007;-0.41425282;-0.34761772;-0.4712438;-0.24160478;-0.30120575;-0.8876885;-0.68150455;-0.417001;-0.19200636;-0.09319699;-0.2900419;0.22325365;-0.029450161;-0.32513043;-0.12364925;-0.15996483;-0.28114277;0.096948884;0.06689645;-0.6083838;-0.059040442;-0.04020006;-0.47223234;-0.15968645;-0.12751988;-0.6798372;-0.83687997;-0.3361185;-0.101380125;-0.45480928;-0.18673792;0.2357751;-0.1728166;0.08411782;0.4250691;0.3517149;0.1522986;0.09888549;0.1397562;0.23384835;-0.4080381;-0.24650408;0.05943294;0.05705925;0.11449604;0.2797507;-0.29222798;-0.38648075;0.12826596;-0.35739064;-0.31917924;0.06345796;0.21549666;0.2830403;0.19967367;-0.0010877448;0.35832682;0.3299575;0.24949542;0.49690083;0.27566716;-0.21628428;-0.27683753;-0.63500625;-0.023398878;-0.29913607;-0.32789323;0.02952952;-0.1310039;0.21256633;0.12886354;-0.17278966;0.1353498;-0.20164542;-0.20503826;0.052472867;0.26007196;0.21451502;-0.06298102;0.13685016;0.105674475;0.38962746;0.37535143;0.13487688;0.28779614;-0.11605533;-0.059767593;-0.012373114;0.45815152;0.07140708;-0.16854414;0.42826048;-0.11703617;-0.032453135;0.3550964;0.0021582833;0.18925609;0.109446615;0.4112022;0.4186648;0.117098115;0.20859277;-0.20103878;0.20903789;0.28962043;-0.19340263;-0.13942596;-0.36950588;-0.08938964;0.15357904;0.013414241;0.028554657;-0.5741472;-0.49739945;-0.23585229;0.13826631;-0.11641153;0.15467009;-0.55998474;-0.5573936;-0.2756352;-0.38757497;-0.546593;-0.34898996;-0.24244006;-0.045312215;-0.2640355;-0.4971467;-0.3559168;-0.7177606;-0.50963914;-0.6569845;-0.6503905;-0.027982105;0.1045741;0.004477675;-0.10971063;-0.010777912;-0.14632818;-0.3489532;0.28810632;0.3337028;0.035573125;0.016544553;0.0097331675;-0.21393184;-0.33065587;-0.16074666;-0.09019713;-0.38472217;0.14635202;0.12626691;0.17205165;0.12630418;-0.35467294;-0.57969457;-0.22898339;-0.15503553;-0.43342653;-0.19677669;0.15173392;0.03270696;-0.08857046;-0.033823684;-0.06079971;-0.33684093;-0.12059567;-0.099516004;-0.13733527;-0.114403576;0.14618862;-0.15312238;0.031864364;0.3501392;-0.024159217;0.35763124;0.4246513;0.08119991;-0.20664237;-0.8162553;-0.7659703;-0.12555282;-0.4239254;-0.40737948;-0.18518126;-0.026646668;0.13816574;-0.29653078;0.23361951;0.16941844;-0.3007306;-0.13932449;0.15757357;-0.63021445;-0.074332826;0.044860024;-0.03019844;-0.0018048272;0.34760454;-0.05322888;-0.16166155;-0.14518726;0.027664842;0.042187206;-0.13418658;-0.42515403;0.036367442;-0.035057936;-0.202459;-0.12443602;-0.2879034;0.23065372;0.22723953;-0.18140681;-0.031617574;-0.13831915;-0.53665143;-0.15298706;-0.20957378;-0.17849186;-0.08296715;-0.273872;-0.368712;0.17486185;0.110204555;-0.16195497;0.438959;0.46304786;0.44890213;0.2898951;0.17429717;0.1341065;0.6123793;0.5247365;0.37754852;0.6855692;0.23819305;0.4725602;0.42194095;0.3530588;0.5011423;-0.25390822;-0.0017726368;0.14061145;-0.3327473;-0.15770769;-0.19704287;-0.1797528;0.03901728;-0.15311718;0.008653911;0.11892052;-0.06591807;0.120019756;-0.035488393;-0.0723932;0.110774785;-0.2762862;-0.47942948
10;-0.00054337096;-0.121907584;0.08737759;0.3122983;-0.12371846;0.086520635;0.23792428;0.37956908;0.33320045;0.39992785;-0.46255293;-0.5135598;-0.02642969;-0.20062457;0.16068578;0.48160604;-0.031012366;0.08567328;0.053680938;0.19312142;-0.31275725;-0.6375025;0.27172422;-0.10327329;-0.23721464;0.15996476;-0.07919739;0.07780708;-0.2849519;0.11217907;0.51518786;-0.08728759;0.3280872;0.5151124;0.14009517;0.5684379;0.241609;-0.30205375;-0.27870733;-0.031448785;0.0048090485;-0.23369537;0.14664404;-0.0051262053;-0.319279;0.038568728;-0.534352;-0.6227878;-0.2462852;-0.14275023;-0.46604064;0.18498118;-0.042870175;-0.23010944;0.15140468;-0.29958016;-0.06790844;0.18070097;0.38086116;0.22676376;0.20911734;0.19419675;0.22297056;-0.016645102;0.2308911;-0.2542799;-0.6858287;0.20156763;-0.34568852;-0.2204628;0.32696715;-0.14998694;-0.22293535;0.0018221955;0.2778182;0.42746946;-0.16917156;0.20849155;0.3812856;-0.2610444;0.156576;-0.053272787;-0.19895038;-0.31690893;-0.11978493;-0.087753296;-0.0027345761;0.4111192;-0.068043254;0.23948604;0.6532415;0.018694531;-0.084735386;0.008160497;-0.1460332;-0.12844396;-0.061966296;0.21632987;0.026469074;-0.118263535;-0.29067656;-0.47227338;-0.41470823;0.005395142;-0.07221402;-0.17092586;-0.05013501;-0.12637377;-0.11322768;0.157601;-0.3319926;0.5072677;-0.34163436;0.34817737;0.3813729;-0.28617007;0.20691378;0.12971278;0.16931166;0.26617968;0.51121384;0.06801007;0.19528507;0.03911251;-0.11734923;-0.03477266;-0.48774895;0.20989096;-0.0044306843;-0.13452794;-0.07700179;0.019488713;-0.09689115;0.1845665;-0.036335118;-0.036639746;-0.029842429;-0.15142418;0.094216175;-0.026456125;-0.12058689;-0.014541572;0.0028979583;-0.36900592;-0.050206695;-0.5985644;-0.39576808;0.26562425;-0.13302812;0.20682399;0.4024585;-0.03880117;0.32364073;-0.26449302;-0.004011572;-0.16077694;-0.15929912;0.3328589;-0.044972606;0.019494059;0.21853945;-0.70065093;-0.074243195;-0.08489252;-0.13752374;-0.32960182;0.35090902;0.29979214;0.17059915;0.39696658;0.10178811;-0.02558879;0.32478958;0.16437441;0.13125592;0.5989469;0.3084219;-0.053960923;0.06027287;-0.20590845;-0.8058126;-0.20965235;-0.69902545;-0.16730385;-0.46513855;-0.81096655;0.19374523;-0.20565638;-0.20799348;0.26123908;-0.5451932;-0.15180695;-0.073725656;0.24288554;0.40979418;0.26800784;0.040791426;0.25525096;0.1252658;0.30505577;0.27113017;0.30824488;-0.15821435;0.0064133974;-0.052258812;0.051721748;-0.07309945;-0.28820312;-0.7025315;-0.21941042;0.2206848;-0.10871743;-0.095065385;-0.10732991;0.0048922007;0.09666839;0.22171284;-0.35540336;0.114240065;0.49736756;-0.18677954;0.33270627;0.31070867;0.052530773;0.25447482;0.16681167;-0.22836304;0.037985545;0.24850847;0.20468962;0.19287503;0.23676115;0.32679498;0.25888205;-0.024395911;0.28146622;0.1285388;-0.07754498;0.5315152;0.03569714;-0.15009184;0.11888117;-0.14117251;0.28774476;0.062363386;-0.12871735;-0.13949122;0.171026;-0.038597103;-0.081797294;-0.24482423;-0.043899324;-0.35810786;-0.21765646;0.032696933;0.4742707;0.0052937116;0.11425733;0.21109286;0.29352137;0.220532;-0.11624301;0.44499102;0.7524689;0.35270533;0.31216133;0.32151306;-0.19184794;0.09485891;0.05040345;-0.14055239;0.095136724;-0.36734664;-0.22806291;-0.13052952;-0.27984303;-0.22234787;0.14402497;-0.25382614;-0.21271162;-0.4285132;-0.25145602;0.34192404;-0.36123013;0.08900403;0.46049565;-0.11114097;0.37790373;-0.052091252;-0.2625413;0.21366033;0.48508257;-0.27164793;0.3045248;0.39443716;0.08573442;0.37836805;0.3330118;0.23515801;0.267385;0.2657438;0.30610606;-0.15804055;0.22149993;0.15344484;0.28645837;0.40406615;-0.36432093;-0.13155946;0.22059587;-0.19075851;0.3976454;0.15067798;0.41531837;0.47410303;0.0010261273;-0.22053975;-0.48135138;-0.7659674;-0.48440695;-0.5454145;-0.3669604;-0.5106832;-0.528643;-0.117795795;-0.3918035;-0.24898541;0.13637093;-0.029409822;-0.14453419;0.5463506;-0.017311651;-0.0041011167;0.342597;0.08208123;0.11800713;0.14227623;-0.18544641;-0.0005194065;0.28800035;0.33357653;0.29611325;-0.088935986;0.14095652;0.38549477;0.30668917;0.0788654;0.38708976;0.1262836;0.425406;0.109421;0.18774728;0.29159588;0.16204928;0.085401386;0.20380098;-0.031743664;0.26512587;-0.14902319;-0.19930957;-0.16951357;0.30719438;-0.020506985;0.011371028;-0.0065341312;-0.0428088;-0.24407722;-0.1270726;-0.33852044;-1.1162691;0.19954222;-0.028032022;-0.058154773;0.118420444;0.044481363;0.011722906;0.22931403;-0.04702039;0.023388784;-0.31949553;0.24568008;0.33121803;-0.030038165;0.044408534;0.33601168;-0.2446794;0.12448884;0.42058396;-0.6402255;-0.5166553;-0.4874783;-0.54663867;-0.13976593;0.19195576;-0.16351873;-0.009607837;0.33368257;0.097903736;-0.32958275;-0.04125468;-0.6117315;-0.509399;-0.23356058;-0.36724675;-0.4124103;-0.2450843;0.4339292;0.058474217;0.031113803;0.28759864;-0.05593985;0.05537847;0.040437836;-0.2328504;0.09930904;-0.9061018;-0.38443536;-0.030170254;-0.30511892;-0.003588909;0.31477836;0.17275895;0.080415115;0.14781538;-0.051045;-0.4067161;-0.6141079;-0.34551415;-0.3932025;-0.19846092;-0.43522367;-0.3343286;-0.16113146;-0.584587;-0.13665663;0.14265698;-0.20528838;0.09686445;0.13362136;0.118039116;0.13324417;-0.16312376;-0.36559308;-0.5177533;-0.2783186;-0.025628572;-0.34136227;-0.05564727;-0.7600988;-0.20653228;0.12676075;-0.13238169;-0.33768108;-0.22508283;0.035143923;-0.022782255;0.11948748;0.09276439;0.02140015;0.092507504;-0.0062430757;0.5117682;0.43482623;-0.026577704;0.33898607;0.015910782;-0.11481369;-0.22660556;-0.18978472;-0.41240752;-0.5399551;-0.33792758;0.041377924;-0.25998798;-0.3976749;0.074161455;-0.13540615;-0.5405686;-0.33710432;-0.1993504;0.13995674;-0.28050068;-0.25169924;-0.21487606;-0.12606037;-0.11044741;-0.10581485;0.31841424;0.36907658;0.24730884;0.47353497;0.37863103;-0.073417425;0.3969894;0.1074831;-0.017213011;-0.38984513;-0.12144986;-0.051539302;-0.23535971;-0.13274778;0.20975365;0.31163758;-0.1025123;-0.013049497;-0.28543413;-0.1318628;0.13382909;-0.08477621;0.032360177;0.38031715;0.069767915;0.45876375;0.15142463;0.12775351;0.033695005;0.45627567;-0.1309641;0.09144531;0.40694386;0.09319662;0.13954861;0.20812623;-0.2804943;0.23410903;0.5731224;0.48452076;0.45198825;0.5650827;0.25771812;0.31310877;0.37849146;0.12352333;-0.12335726;-0.33551434;0.14983898;0.039568458;-0.09260607;0.36035994;-0.049849667;-0.17049581;-0.09756951;-0.4623983;-0.47578543;-0.52085584;-0.3763351;0.054177802;-0.2251325;0.113498144;0.05189533;0.07085967;-0.035557456;-0.24040727;0.1196165;-0.35994205;-0.18777123;0.037923604;-0.3409745;0.07598362;-0.25921845;-0.2531147;0.082610965;-0.3182333;-0.17921567;-0.26718256;0.04163636;-0.14955075;0.0040814136;-0.33067897;-0.25450534;-0.116334245;0.16539927;-0.26131558;0.025196867;0.14294767;0.024183746;0.11668715
11;0.00053614314;-0.059496127;0.16420454;0.46616086;-0.1308466;-0.046785105;0.07213298;-0.20824572;0.031231001;0.10717439;0.45314482;0.33363625;0.14518867;0.13829862;0.40321454;0.14295949;0.05316947;0.2710514;0.36442584;-0.020516675;-0.047011357;-0.2525236;0.27631265;-0.023615733;-0.0036812068;0.3404456;0.096788995;-0.029182043;0.6985124;0.403167;0.32562232;0.6179979;0.38542357;0.18943739;0.36225876;0.39951357;0.28495046;-0.16017258;0.037567385;0.24207345;-0.21864153;-0.058244668;0.22351302;-0.083441496;0.07251816;0.024279293;0.5672428;0.63658273;0.32006344;0.2523754;0.30251366;0.32651377;-0.06707627;0.39622054;0.43598086;0.10376832;0.1914562;0.030937174;-0.12972242;0.052486867;-0.2301323;-0.23876218;-0.20701112;-0.04378637;-0.031080853;0.022821758;-0.31180215;0.096947394;-0.0007503141;0.043550692;-0.12696925;-0.2557186;-0.15191343;0.11170456;0.2847913;0.0074977423;-0.20134857;-0.36377096;-0.29158813;-0.5641447;-0.8551398;-0.810908;0.27661797;-0.068548165;-0.066887625;-0.411612;-0.47372833;-0.28474241;-0.10169839;0.08997032;0.07414617;0.2715154;0.26682597;0.16061926;0.1974414;0.059633818;0.079048954;-0.21678433;-0.116956875;0.037709713;0.1958219;-0.060305424;-0.0076442;-0.050298877;-0.21567431;-0.3324571;0.04812136;-0.05366545;-0.32538685;-0.19398527;-0.09240729;-0.1513935;-0.096634455;-0.07473352;-0.35008535;-0.016048579;-0.14320469;-0.11709585;-0.8141629;-0.6902385;-0.19762045;-0.5440135;-0.39393252;-0.26787496;-0.16647144;-0.08761711;-0.26864642;-0.39300603;-0.1983555;-0.26368102;0.03794871;0.099518314;-0.41944715;-0.013018593;-0.19232704;-0.19364026;-0.0772311;0.21425241;0.44339624;-0.34241113;-0.07179459;0.18216039;0.03657067;0.14295642;0.07015982;-0.014169588;0.076948114;0.29204178;-0.09707788;0.22737136;0.20537594;-0.1866637;-0.101829745;-0.32423654;-0.045526065;-0.14520839;0.39376527;0.43346548;0.28341746;0.4227786;0.2728953;0.2414901;-0.12678342;0.3566219;0.2531094;0.45646933;0.43293306;0.2404644;0.35534573;-0.17441757;0.08194464;0.052667852;0.27758196;0.41698986;0.1390346;0.38081914;0.3947353;0.26207098;0.3639399;0.20229201;0.22969757;-0.032690678;-0.33513144;-0.39236835;0.045110513;-0.22857001;-0.041026663;0.063279524;-0.08234894;0.17928417;0.12808636;0.28000212;0.17555101;-0.0041787387;-0.16026706;-0.13484047;0.059936695;0.043116678;0.06867322;-0.48302993;-0.21384765;0.24789996;-0.18822388;-0.14602147;-0.08976578;0.14574386;0.020716086;0.113630876;0.42652082;0.011219458;0.22642732;0.28410605;0.07902133;0.26067153;0.23854919;0.18843317;0.34418032;-0.16627821;-0.15358661;-0.19331335;-0.21722104;-0.3066305;-0.20250489;-0.41873616;-0.25735825;-0.04512244;-0.039888464;0.058732793;0.19092391;-0.08793221;0.15023421;0.19582534;0.10097908;0.18786436;0.25220373;0.12980808;0.24282242;-0.1575227;0.06661899;0.44254917;0.09423555;-0.052321967;0.13264523;-0.010087471;0.47928286;-0.21235342;0.023181932;-0.5086236;-0.61007905;-0.3730903;-0.16822723;-0.14106004;-0.41501918;0.0947213;0.10602038;-0.42530367;0.008844839;-0.22684263;-0.39940563;-0.2693516;-0.08279383;0.061001923;-0.20931901;-0.03933519;0.092447676;-0.13550335;-0.12027662;0.07743131;-0.3125313;-0.18931417;0.07854828;-0.20386124;-0.105145626;-0.6128113;0.0063140416;0.21741232;-0.10498568;0.21882504;0.11361971;0.092788875;0.24432261;0.1380206;0.3799744;0.40987533;0.23599209;-0.14400503;0.10519932;0.26651913;-0.00020530428;0.119648494;0.013792793;-0.17503606;0.0077054095;-0.026373917;-0.18958183;-0.0040227575;-0.0807373;-0.26161906;-0.41101113;-0.16684394;0.574097;-0.27045825;0.31258142;0.34937257;0.07129191;0.34518307;0.34427345;0.27448258;0.038147185;0.028886512;0.15252195;-0.026390176;0.22634968;-0.11001467;-0.06841263;0.29496366;0.017831879;-0.11036562;-0.15523963;0.117370605;-0.17286824;-0.1348679;0.23288436;0.12384919;-0.35043204;-0.2567628;-0.0031463418;0.024195667;-0.21174623;-0.09002242;0.014958154;-0.118632846;-0.1887438;-0.15089168;-0.19818957;0.11866208;0.038889114;-0.3309962;0.05139993;0.024497068;-0.14596967;0.17101786;0.18242593;-0.30576524;-0.37093875;0.14132424;0.046327405;-0.22591846;-0.3270489;-0.090874374;0.029479962;-0.05932551;0.13987166;0.16919783;0.3411354;0.25887072;0.28746867;0.16534156;-0.1004747;-0.16466144;-0.3476905;-0.24934317;0.25533256;0.39953536;-0.25121215;-0.18691131;0.18897459;-0.24441086;-0.26696512;0.032866973;-0.54129636;-0.20712388;-0.30375156;-0.18654892;0.29059365;-0.041740485;0.36594287;0.4258844;0.1673429;-0.13509808;-0.26671275;-0.5375877;-0.4629725;-0.5538189;-0.22672945;-0.2453305;-0.17578866;0.16855735;-0.2279246;-0.5495548;-0.061678085;-0.66485035;-0.61437607;-0.41557568;-0.29825482;-0.12544015;-0.46981847;-0.81294394;-0.4309791;-0.08611193;-0.52766246;0.059201136;0.0490496;-0.4809197;-0.16110237;-0.10906048;0.64132345;0.47938135;0.3524044;0.3358911;-0.09979977;-0.121728;0.21049635;-0.16794102;0.01416211;-0.010457495;0.31867275;0.108946465;0.057851523;0.27849182;0.095883965;0.09518155;0.19183804;-0.0049108975;0.08049277;0.22242661;0.10147532;0.15366252;0.28636986;0.15535337;0.35455832;0.5699503;0.18990713;-0.15497622;-0.2878436;-0.10278854;-0.05375192;-0.002349802;0.084840566;-0.04543623;-0.15424371;-0.013941104;0.3839156;0.614898;0.50150263;0.28844467;0.5756598;0.27667436;0.17945701;0.13745657;-0.07558875;0.12669837;0.43943867;0.54382706;-0.17385198;0.4694127;0.6006966;0.12801298;0.2642849;0.41099948;0.1205909;0.062343642;0.16391766;0.5354571;0.2479794;0.22847213;0.5188452;0.51294094;0.46048337;0.39989978;0.26703972;0.45517406;-0.12351737;0.07010836;0.32127655;0.18578963;0.14125097;-0.07920245;0.42924377;0.4465627;0.3449467;0.58554757;0.42582047;0.630826;0.18849707;0.2899222;0.08263483;0.2108321;0.3668489;-0.020218154;-0.054814905;-0.022798717;-0.39710677;-0.07654627;-0.12592159;-0.5521588;0.028835563;0.22148997;0.36031714;0.31450462;0.4790984;0.13434859;-0.09981103;0.00036221647;0.20859914;0.48754805;0.41691884;0.40600646;0.54488117;0.49510694;0.13820633;0.203316;0.5617159;0.1514217;-0.40405616;-0.40941045;-0.35861883;-0.46565753;-0.36192495;-0.31466442;-0.6130825;-0.55942935;-0.43382305;0.41737276;0.25191003;0.034201466;0.13613504;0.24094917;0.22090423;0.16873953;0.25916424;-0.16647422;0.3542021;0.0913569;0.50632805;0.28211206;0.21590558;0.35357264;0.33221996;0.3182769;0.2763267;-0.1779134;-0.8138769;-0.24506867;-0.43947864;-0.28128;0.31453615;0.3032137;0.33919552;0.2030333;-0.076039955;-0.008004927;-0.031397667;0.13747945;0.2893192;0.18961592;0.35568953;0.118128836;0.17559913;-0.1121438;-0.0866215;-0.25593758;-0.07154065;-0.2685085;-0.32921037;-0.24800625;-0.2006022;-0.36100385;-0.32699627;-0.05390574;0.02443895;-0.18431517;0.09158542;0.1113184;0.07704618;0.16995911;0.044299766
12;0.0013900604;-0.0063424385;-0.2593233;-0.13377479;0.3512934;-0.32594982;0.013138833;0.1421771;-0.15696977;0.14485623;0.028278334;0.2158323;-0.19028543;0.004487432;0.039857026;-0.48084286;0.09589627;0.17748252;-0.18680729;-0.30741018;-0.40591916;-0.13490175;-0.15171388;-0.30833215;0.15119506;-0.25586003;-0.30816108;0.3358579;-0.19181749;0.2635843;-0.096626885;0.0956564;0.2790646;0.31789696;0.21463382;0.08618119;-0.12587607;0.51328313;0.34279832;-0.12485728;0.1072531;-0.17079273;-0.062563226;-0.09655415;-0.07368587;-0.0035067056;-0.4577271;0.19603898;0.22121231;0.4661433;0.3545349;0.37760925;0.4119697;0.19736412;0.21811572;0.36580074;0.13928379;0.563481;-0.03886335;-0.30475852;0.33398473;0.21101391;0.2414784;0.04107898;-0.13726878;-0.14776962;0.19469091;-0.5265641;-0.14011022;0.18722367;-0.52366143;-0.31565344;-0.3584312;-0.19770604;-0.12576233;-0.25420207;-0.054286335;-0.13447717;0.05396981;0.13855286;0.083115146;-0.008903397;0.35104004;0.2618087;0.082670614;0.24101906;0.10028837;-0.563116;0.3192075;0.15490349;0.19132115;-0.11361161;-0.32770896;-0.3090176;-0.1976239;-0.22072043;-0.09760867;-0.18761764;-0.36667287;-0.07070512;0.13675945;-0.36336315;-0.17101325;0.31604806;-0.13872835;0.09128219;-0.16237353;0.10781941;0.411598;-0.01667577;0.4125999;0.2995222;0.16419564;-0.019251233;-0.079934694;-0.036912587;-0.00021700033;0.47752276;0.08259907;0.1322774;0.08070774;0.29455137;-0.018725723;-0.15228353;0.13486567;0.045914777;0.25592354;0.18924698;-0.026352938;-0.03280145;0.117292345;-0.5033554;-0.31573954;-0.039081007;-0.1748179;-0.61102617;0.17031299;-0.21421698;-0.055481296;0.5213388;-0.6522049;-0.50946677;0.17027825;-0.74627095;-0.22384804;-0.3343384;0.2871455;0.38370094;-0.053407207;-0.09313621;-0.13676688;-0.42472747;-0.1673076;0.49329612;-0.42886528;0.2923587;0.5056543;-0.34854826;0.45184138;0.14154917;-0.25752425;0.3212324;-0.009986844;0.29039463;-0.22759788;-0.6204259;0.36046934;-0.49434847;-0.34740406;-0.12547417;-0.21829805;-0.038163047;0.100436635;0.124595575;-0.41382685;-0.14501047;-0.39734855;-0.5092409;-0.28179416;-0.4829714;-0.3778861;0.21208492;-0.45162058;-0.6753273;-0.46011838;-0.29012147;-0.29189858;-0.4757476;-0.047811795;0.34547088;0.0019396751;0.13533285;0.15470436;-0.05598326;-0.057517353;0.13750796;-0.33429468;-0.011646561;0.022768468;0.43255237;-0.025823595;0.12748143;0.3183416;-0.4029771;-0.06116952;-0.7690138;-0.47449544;0.5637344;-0.03230137;-0.20691541;-0.13311802;-0.050835572;0.16234407;-0.0555011;0.036902737;0.059231848;0.14997378;0.20600517;0.5800514;0.1158019;0.30343783;0.353044;-0.44156006;0.0720438;-0.21218048;-0.41599405;-0.19437923;-0.27290082;-0.16536976;-0.049058154;-0.2082178;0.290429;-0.32866815;-0.4606234;0.23822963;0.11205968;0.021881424;-0.2839554;0.16064547;0.011128238;0.13202095;-0.059375744;0.117491856;0.13386503;-0.22947179;0.09250461;0.44334772;0.37725505;0.28156888;-0.05434496;0.46579435;-0.30107126;-0.020030921;0.24146694;0.16045764;0.015946398;-0.059371527;0.06952865;-0.13987812;-0.04897336;0.11449542;-0.101149596;0.0801164;0.040158138;-0.046484284;-0.06378856;-0.10896391;0.33536258;-0.40562525;0.10326656;0.3574664;0.07226044;0.07225567;-0.25460586;0.09816965;-0.08962863;-0.597052;-0.040811475;-0.23731068;-0.33579606;-0.31421915;0.38690796;0.45552713;0.19349055;0.33348656;-0.018711861;0.22255221;0.3890832;0.23747736;-0.012510899;0.0966846;0.29456323;0.19739719;0.15333205;-0.03368593;0.11401032;-0.09703878;-0.029975956;-0.20925842;0.3872274;0.55526483;0.041540336;0.47757095;0.12782918;0.12685908;0.1439253;0.35553017;-0.085753694;0.41941023;0.7043125;0.10891373;0.092543334;0.12404285;0.096949436;-0.061659988;0.09901023;0.03351637;-0.07421113;0.082049854;-0.14174752;0.06198893;0.20599192;0.005065297;0.17538789;0.12298397;-0.27126876;-0.039520737;0.5206049;-0.2972218;-0.24953048;-0.13123342;-0.29885828;-0.28263852;-0.14983408;-0.15591435;-0.07238822;0.008271181;-0.026497023;-0.5293952;-0.22893387;-0.21549606;-0.5968583;-0.13611187;0.13626862;0.044817425;0.20462781;0.056268018;-0.15533319;0.048194956;-0.21604767;-0.23226939;-0.066067606;0.16067916;0.18876933;0.07210133;0.6940102;0.19394098;-0.21911727;0.5049795;-0.113517106;0.063075915;0.07697377;-0.43205228;0.38588595;-0.7640655;-0.07891596;0.41180396;-0.27833405;-0.06709439;0.061935302;-0.034531273;-0.031947665;-0.27085298;0.04324949;-0.20367318;-0.15755486;-0.15996774;-0.31834272;-0.4410482;-0.15832533;-0.13757205;-0.13507466;-0.4386733;0.029555198;-0.05455998;0.08112426;0.3817806;0.15652153;0.12541898;-0.31020755;-0.18858522;-0.041783016;-0.032025613;-0.013723989;0.033358105;-0.21898937;0.099010594;-0.12218578;-0.25134706;-0.2294065;-0.07575492;-0.1715439;0.001954148;-0.26756778;-0.05180679;0.09575122;-0.44127303;-0.6921192;0.12287604;-0.2891911;-0.5687681;0.04067211;-0.4407403;-0.27288568;0.111469924;-0.35422632;0.13526471;0.32103688;0.19496828;-0.3514237;-0.51779515;0.04326439;-0.5049272;-0.4073867;-0.27801526;-0.017579064;0.0043579238;-0.3559707;-0.1499789;-0.093176916;-0.32358816;-0.21666615;-0.1435955;0.04557827;0.34431377;0.91068155;0.22098078;0.24958648;0.35162228;0.20804723;0.19010134;0.14810747;-0.15751126;0.30982825;0.43358302;0.38209268;0.30017155;0.27066898;0.06271725;0.06193062;0.14643222;-0.29224375;-0.3107372;0.12248187;-0.57345635;-0.09898339;0.059408803;-0.48935017;0.061534356;0.2803811;-0.03895956;-0.38043493;-0.5693663;-0.17934474;-0.78740054;0.32321155;-0.28731048;-0.17484018;0.517371;-0.3406559;-0.19237094;0.16613743;-0.2010589;-0.2761456;-0.20040521;-0.083376564;-0.43966177;-0.30886918;0.20038824;0.26339796;0.023293663;-0.15137151;-0.37230524;0.15112898;-0.025474815;0.366215;0.40249383;0.74323916;0.2374922;-0.449359;0.22983618;-0.25236574;0.045337882;0.25286883;-0.16531213;0.1334537;-0.4520556;-0.20315415;0.17338333;-0.70556724;-0.09386006;0.23920974;-0.44881597;0.6227738;0.51644605;-0.014206862;0.33978534;-0.30490094;0.009352055;0.19468355;-0.3880595;-0.10228168;0.26714766;-0.22619455;0.031014787;0.14431706;0.29491365;-0.2300702;0.032416422;0.12309519;-0.27422845;-0.15674031;0.24514294;0.25345865;0.24322492;-0.5468497;0.4118338;-0.07241411;-0.6205594;0.4230731;-0.3134225;-0.44384387;-0.034786064;-0.016964331;-0.43220648;0.4411487;0.11394988;-0.8027498;0.26295537;-0.53093743;-0.15548344;-0.13548167;0.20357172;0.0074255667;0.14581318;0.18062152;-0.13486409;0.004397741;-0.14100225;-0.2179313;-0.29387286;-0.2075997;0.1925495;-0.14541036;0.064981066;0.11286512;-0.11415176;-0.06768251;-0.036673266;0.115392156;0.22759792;-0.1534147;0.31040946;0.08747991;-0.37812456;0.030869324;-0.11048763;0.10637129;0.47634903;-0.1471103;0.160436;0.5503208;0.047842104;-0.25612396;0.33338898;-0.2970775;-0.1648038
13;-0.0023887435;0.05335306;0.03210038;0.02382254;0.27711746;-0.04366216;0.28079274;0.47702208;0.1643631;0.32571492;-0.10315497;0.007075258;0.17963308;0.07782146;0.07150865;0.039928805;0.0106633585;0.10995659;0.22286345;0.17446323;0.28615183;-0.098037966;0.06860164;0.24739659;0.008554547;-0.23111275;-0.21785429;-0.15293296;0.053606413;-0.1156676;0.32711717;0.030152828;-0.20682454;-0.04534005;-0.1259282;-0.26289275;0.016621921;0.27200806;0.15513474;0.29041308;0.16542606;0.028497461;0.0755674;0.07431226;-0.21695387;0.024106348;0.24191014;-0.2266329;0.011559856;0.35520998;0.19638449;0.5853597;0.49926898;0.35231927;0.31358796;0.23083049;0.57516456;0.7313335;-0.32464066;0.12854175;0.02521857;-0.41706076;-0.3957012;-0.6144621;0.14526652;-0.061638936;-0.2601819;0.3013079;0.32019374;0.16997238;0.28660077;0.37006778;0.33473787;0.275139;0.19166456;0.05029206;0.47322178;0.3537469;0.26509684;0.21684979;0.3085208;0.23700488;-0.4197616;-0.23877156;-0.061749175;-0.63521236;-0.6000261;-0.6060128;-0.41651547;-0.2874214;-0.2366172;0.2552668;0.04252552;0.11084463;0.1284712;0.11487331;-0.07078736;-0.24396095;-0.31590897;0.02188344;-0.124173604;-0.17462187;0.20411769;0.055389434;0.0752833;0.14150229;-0.075953126;0.04650745;0.025239032;0.49975505;0.11056583;-0.046457317;-0.21756785;-0.2767197;-0.39778987;-0.07381456;0.072528504;-0.016734833;0.30586186;0.2509653;0.21889956;0.37942907;0.24225247;0.10179163;-0.07178691;-0.16713682;-0.50482285;-0.054354884;-0.12581114;0.12317383;-0.077596165;-0.010811178;0.034744736;0.20434754;0.021595677;-0.12774672;0.18455058;0.05522941;0.033046298;0.063123025;-0.04694029;-0.056955013;0.043082625;0.21116897;0.085091196;0.2652683;0.31485027;0.35252744;0.093092166;-0.010121839;-0.0679241;0.09280561;0.029585851;-0.14759041;-0.02847827;-0.12315082;-0.05917805;-0.21507025;0.24976322;-0.028354522;-0.1246667;0.057439126;0.023275513;-0.20452252;-0.2629324;-0.21746962;0.00946512;-0.039538156;-0.084204905;0.34218538;-0.039655883;-0.05320806;-0.006972385;0.19655748;0.0098585365;0.21086128;0.48581696;0.35670453;0.14234021;0.05620634;0.015263576;-0.22224154;0.19790041;0.26819396;-0.13934901;-0.015272697;0.31095973;0.10902375;-0.11497418;0.094391;0.20697932;-0.0699143;-0.057283986;0.19306512;0.034015384;-0.14627694;0.39400852;0.16685383;-0.031458993;-0.07757579;-0.15361385;-0.47505876;0.1364375;0.060278736;-0.15958375;0.111519225;0.012703018;-0.4618476;0.016795075;-0.25347608;-0.20846297;-0.23007973;-0.20969741;-0.33952227;-0.082164854;0.028785266;0.06184268;-0.37022543;-0.35991713;-0.26783141;-0.20260103;-0.46276757;-0.25109276;-0.41123453;-0.3580688;0.0026509867;0.4329988;0.5201224;0.6232321;-0.14348522;0.005814194;-0.002118354;-1.1895446;-0.7388331;-0.33350888;0.02378613;-0.21817726;-0.18696481;-0.32102033;-0.13511683;-0.020973882;-0.40109244;0.19972856;0.2982004;0.035728145;-0.1368972;-0.5148148;0.16656783;-0.396552;-0.17117712;-0.18079716;-0.27927196;-0.22080448;-0.4515189;-0.12650962;0.29244852;-0.52181596;-0.44600645;-0.14968555;-0.33302885;-0.08344157;-0.05189427;0.23720542;0.40797126;0.29666463;-0.043975793;0.2546455;0.18360838;-0.13491122;0.030737884;-0.1490616;-0.15962419;-0.26966113;-0.4260569;-0.32866088;-0.28694952;-0.29061013;-0.34962508;-0.46687937;-0.4074491;0.14121144;-0.19547057;-0.21416672;0.13526255;-0.17893362;-0.32250726;0.32470867;0.16775076;-0.1428109;-0.27007756;-0.30434838;0.092001855;-0.4193758;-0.6563791;-0.44775364;-0.28080454;-0.15266556;0.010214799;-0.32139048;-0.5086733;-0.53722;0.23251475;-0.13718925;-0.06432693;0.45668367;0.50570095;0.4124323;0.5059176;0.4650571;0.29563993;0.2704272;0.35289496;0.4201063;-0.34555262;-0.37444767;-0.37555903;-0.1455133;0.097526155;0.058324315;-0.07707149;0.13735814;-0.16239686;-0.26161018;0.011523069;-0.022295162;-0.09757548;0.1497071;0.25381115;-0.39833966;-0.3163307;-0.4099737;-0.14835863;-0.10112949;-0.07522164;0.21575159;0.44051626;0.14820576;0.10039913;0.23295696;0.2140915;-0.47280046;-0.36509052;-0.48594412;0.3511358;0.3415865;0.21574941;0.5656396;0.33551082;0.2669423;0.32347703;0.110594325;0.26418272;-0.5047825;-0.43717408;-0.24543291;0.1695495;0.060354624;0.0051395437;-0.36605573;-0.06054952;-0.09491212;-0.07539444;-0.3294019;-0.09097121;0.22270188;0.17874245;-0.12219826;0.29915118;0.26325157;0.09227963;-0.67017764;-0.7989737;-0.93189234;-0.06505811;-0.13867892;0.11224607;0.031411804;-0.011121413;-0.053438835;-0.17312251;0.29906425;0.2541771;0.09203873;0.2474469;-0.12784705;0.039648913;0.2586061;-0.18582974;0.0074333777;-0.14883791;-0.044335626;-0.13094565;-0.08646209;0.06901475;-0.0416471;-0.14440589;0.13388005;0.2736344;0.20343001;-0.009881707;0.35501963;0.3104534;0.20140232;-0.13553289;-0.17049524;-0.15830967;-0.006086813;0.2674658;0.35355657;-0.13118377;-0.16658078;-0.4054405;-0.11276909;-0.21203107;0.046056278;0.062468123;-0.10052513;0.2571572;-0.1755735;-0.1355235;0.0888193;0.07578092;-0.047487866;-0.06345254;-0.51010746;-0.38330257;-0.47963795;-0.25851998;-0.04022098;-0.15914929;0.21080445;0.09877329;0.14098446;-0.56859034;-0.37965444;0.088317394;-0.1335283;-0.17165159;-0.008765256;-0.06177408;0.10701307;0.07177812;0.1848664;0.080848634;0.14335762;0.29821554;0.2617197;0.13121708;0.3976986;0.18128228;0.14321034;0.14835179;0.11062969;-0.007749979;-0.0719208;-0.22873175;-0.41928104;-0.1813984;-0.34675124;-0.56125337;-0.13614193;0.04905479;0.06081596;0.0069101476;0.19427653;0.09613442;-0.46591058;-0.19478656;-0.14548147;-0.17103055;0.15399495;-0.0061790994;0.3025751;0.13724764;0.29905275;0.42398176;0.38780418;0.45008746;-0.16284736;0.052855674;0.25723463;-0.2844596;0.038628124;0.025085753;0.5433171;0.4544924;0.660097;-0.7185419;-0.76298;-0.5632739;-0.37094045;-0.27749172;-0.72510433;0.071080424;-0.15123676;-0.37646508;-0.19788006;-0.1827454;-0.21958365;-0.25807714;-0.1450342;0.15299152;-0.47520384;-0.86388946;-0.87783223;0.40268525;0.6996712;0.64648676;-0.0032534765;0.10846397;-0.11623926;0.028578727;-0.48366988;-1.0389211;-0.24621142;-0.029514361;0.29858378;-0.12617126;-0.10645472;0.053867996;-0.4459648;-0.1457734;-0.037562914;-0.3993109;-0.38759035;-0.29367143;-0.12894621;-0.088229;-0.04846332;-0.1212111;0.116051085;0.13078415;-0.1407663;-0.17356108;-0.09868804;-0.06859191;0.045419503;0.124662966;0.47392955;0.45434096;0.18461859;0.10350482;0.13164172;0.1901859;0.061576013;0.13290685;-0.08981071;-0.0028597214;0.056132875;0.274056;-0.09893749;-0.33512565;-0.071121015;0.37670907;0.24886854;0.34664473;0.3604352;0.29596478;0.23812741;0.32147735;0.13926895;-0.048210844;-0.14576086;-0.040687878;0.010766529;0.19570547;0.34449995;0.08250343;-0.22323442;-0.06336063;-0.3082918;-0.27799937;-0.2850271;-0.17170519;-0.2726166;-0.4297068;0.04678962
