kernel;gamma;beta;moving mean;moving variance
0;0.40943316;-0.3871562;-4.517702;16.40145
1;0.48402855;-0.5602187;-4.565401;14.513756
2;0.4900577;-0.60801536;-6.550434;17.374199
3;0.4789904;-0.59173846;-5.742069;13.616465
4;0.46551108;-0.62110865;-3.6232433;14.325129
5;0.39595348;-0.49128303;-3.492025;12.699986
6;0.48755634;-0.6469095;-7.072175;17.975496
7;0.477315;-0.6663355;-5.9671187;13.00581
8;0.4685846;-0.60870516;-3.705072;15.936433
9;0.4228231;-0.5540942;-4.357644;13.46549
10;0.48555377;-0.534788;-3.961734;18.97279
11;0.5008642;-0.6458372;-5.987076;16.669682
12;0.528016;-0.6150067;-5.058995;17.346743
13;0.35840613;-0.43976274;-4.9659305;12.351437
14;0.50296324;-0.6768124;-5.3160777;14.188474
15;0.49201474;-0.72845685;-6.5632977;15.842691
16;0.48701227;-0.6897398;-7.344103;16.702444
17;0.45972013;-0.6078759;-4.9863224;18.562979
18;0.5129807;-0.7260021;-4.2008395;15.595629
19;0.496398;-0.70216465;-5.540177;16.009087
20;0.51814497;-0.5742726;-3.9309728;19.384802
21;0.45798445;-0.6794042;-5.481661;12.57671
22;0.5113494;-0.6935508;-5.4616046;15.214818
23;0.418416;-0.5632814;-5.1291966;13.432406
24;0.45603245;-0.555445;-3.9454346;14.368402
25;0.45985314;-0.7183256;-4.29594;13.28483
26;0.3918919;-0.5150604;-5.4484468;14.261866
27;0.4498229;-0.5424233;-5.7273836;14.358395
28;0.5492359;-0.702774;-7.1497097;18.905178
29;0.44344816;-0.5745376;-5.3133116;14.7863035
30;0.56479967;-0.69646966;-6.773288;20.120241
31;0.5296786;-0.77432054;-5.8129215;16.482958
32;0.42355448;-0.5563494;-5.0412817;16.759155
33;0.47431362;-0.7019724;-5.629487;17.082724
34;0.43798938;-0.6226299;-4.746308;15.6112585
35;0.5115521;-0.54737127;-5.092576;20.798891
36;0.48833618;-0.59212923;-5.623565;16.01058
37;0.43406674;-0.59722894;-6.2326756;16.018526
38;0.43754572;-0.59254616;-4.495553;16.439253
39;0.42602012;-0.57391375;-4.1170855;16.101597
40;0.4454448;-0.4705113;-5.813597;17.398561
41;0.40210626;-0.50926864;-4.6236963;12.882829
42;0.4777326;-0.6347723;-5.412705;16.414686
43;0.4172434;-0.35087943;-3.9402938;15.482831
44;0.55012536;-0.62141085;-4.6051865;20.433708
45;0.41689706;-0.31466165;-2.7606947;22.02366
46;0.48301965;-0.58529395;-6.170772;15.837879
47;0.43399334;-0.4918967;-6.2101727;17.320318
48;0.47238705;-0.69003105;-6.17407;17.737648
49;0.45489162;-0.6312163;-4.8524246;14.968814
50;0.45458755;-0.66603833;-6.0939336;15.192536
51;0.43099034;-0.58867633;-1.4566418;15.31478
52;0.46947736;-0.5948111;-5.1238627;16.23498
53;0.37856758;-0.550802;-4.2794666;14.002408
54;0.5086932;-0.65638185;-3.7262921;16.594995
55;0.5431793;-0.77327937;-5.9940486;16.755476
56;0.4390671;-0.55047035;-4.098849;15.756507
57;0.45461494;-0.541752;-6.333468;17.263147
58;0.48641634;-0.6583031;-6.3002357;17.43761
59;0.49290445;-0.60539967;-3.3687854;16.014692
60;0.48785913;-0.6821827;-3.4638374;13.897234
61;0.5530228;-0.768934;-3.5452483;17.138655
62;0.43317997;-0.483734;-4.6020865;16.70272
63;0.42349738;-0.59369;-1.1919411;14.551077
64;0.43415543;-0.4555811;-3.5299754;17.251354
65;0.484036;-0.65390605;-6.617524;19.163025
66;0.40825167;-0.42966363;-4.040121;15.538286
67;0.3883653;-0.41748467;-5.3334165;14.635354
68;0.5089623;-0.6570897;-6.0222225;17.07712
69;0.53409797;-0.7184395;-5.371555;15.0314
70;0.4833112;-0.6043397;-3.4356098;16.64309
71;0.47389448;-0.59478414;-5.0211005;20.34577
72;0.46185324;-0.5671387;-3.803922;15.101648
73;0.49765494;-0.5802648;-6.325097;17.459118
74;0.4844865;-0.6337587;-5.8380747;15.976479
75;0.43580732;-0.5480011;-6.0540204;16.383846
76;0.4543727;-0.5002723;-4.844466;18.82396
77;0.42975423;-0.5184614;-6.184674;15.242925
78;0.42508018;-0.54656214;-2.401607;13.259552
79;0.49492702;-0.5201132;-5.345036;20.038841
80;0.44299573;-0.5461623;-2.3612282;15.572318
81;0.4696863;-0.7000399;-6.2076497;15.500837
82;0.4805526;-0.52541703;-4.6963663;15.710022
83;0.56394;-0.8466269;-5.8192916;16.817978
84;0.4476012;-0.53936094;-4.139445;14.87472
85;0.480742;-0.6270207;-6.629966;21.02861
86;0.45772707;-0.56719625;-4.165358;15.904145
87;0.47848222;-0.56132036;-5.732468;19.172245
88;0.49878767;-0.5732548;-6.419246;19.352106
89;0.45387268;-0.6000699;-6.8221107;17.831726
90;0.44519225;-0.65005106;-3.1846454;12.472216
91;0.49421787;-0.6063301;-3.963352;18.689228
92;0.4726395;-0.4927642;-3.7063944;19.857029
93;0.55708385;-0.7838911;-6.3130717;17.483957
94;0.43548915;-0.5015017;-3.8376157;16.138485
95;0.36071575;-0.44584712;-2.782479;14.278234
96;0.5222217;-0.55395013;-4.6364627;25.342903
97;0.521001;-0.49070734;-7.1187863;20.041862
98;0.46470317;-0.6115057;-5.0598145;19.553158
99;0.5303021;-0.6970718;-5.9481096;18.319973
100;0.45777738;-0.5696842;-6.5451717;17.20016
101;0.4618061;-0.5737326;-2.7368603;15.045595
102;0.46044847;-0.5287245;-4.3221226;15.347151
103;0.49764445;-0.59026366;-5.8535576;17.152153
104;0.43713704;-0.54397094;-5.8436284;13.596678
105;0.49836624;-0.7584336;-4.9487753;14.419525
106;0.5194842;-0.68278235;-5.141628;20.883863
107;0.47270685;-0.5163177;-4.9069743;17.723444
108;0.4857741;-0.63487536;-3.7418354;14.157065
109;0.43082532;-0.5339302;-4.425189;13.759167
110;0.512106;-0.6027136;-4.555474;19.282396
111;0.48159537;-0.56758046;-7.2717524;18.264317
112;0.43827036;-0.5947186;-6.0727134;15.669798
113;0.51458275;-0.6362663;-6.925677;19.756704
114;0.49464247;-0.7017533;-6.2482595;14.515364
115;0.42588946;-0.5583984;-3.955067;14.235863
116;0.46564373;-0.55470705;-5.4818196;13.921369
117;0.43964735;-0.5376796;-5.5371633;17.12818
118;0.43999937;-0.50222826;-5.700354;15.559699
119;0.51098937;-0.6589654;-5.387925;15.273267
120;0.44207862;-0.5206298;-4.823863;15.231795
121;0.4841413;-0.5855013;-4.299925;17.8367
122;0.45529336;-0.59653956;-6.336038;15.261002
123;0.55045474;-0.62650985;-5.204205;22.736862
124;0.48441502;-0.6970422;-5.704243;15.822339
125;0.46356884;-0.56600946;-5.2522397;19.257301
126;0.4001107;-0.4051017;-4.93313;20.028105
127;0.47812426;-0.61935157;-5.0223327;12.704625
