kernel;bias;d0_w00;d0_w01;d0_w02;d0_w10;d0_w11;d0_w12;d0_w20;d0_w21;d0_w22;d1_w00;d1_w01;d1_w02;d1_w10;d1_w11;d1_w12;d1_w20;d1_w21;d1_w22;d2_w00;d2_w01;d2_w02;d2_w10;d2_w11;d2_w12;d2_w20;d2_w21;d2_w22;d3_w00;d3_w01;d3_w02;d3_w10;d3_w11;d3_w12;d3_w20;d3_w21;d3_w22;d4_w00;d4_w01;d4_w02;d4_w10;d4_w11;d4_w12;d4_w20;d4_w21;d4_w22;d5_w00;d5_w01;d5_w02;d5_w10;d5_w11;d5_w12;d5_w20;d5_w21;d5_w22;d6_w00;d6_w01;d6_w02;d6_w10;d6_w11;d6_w12;d6_w20;d6_w21;d6_w22;d7_w00;d7_w01;d7_w02;d7_w10;d7_w11;d7_w12;d7_w20;d7_w21;d7_w22;d8_w00;d8_w01;d8_w02;d8_w10;d8_w11;d8_w12;d8_w20;d8_w21;d8_w22;d9_w00;d9_w01;d9_w02;d9_w10;d9_w11;d9_w12;d9_w20;d9_w21;d9_w22;d10_w00;d10_w01;d10_w02;d10_w10;d10_w11;d10_w12;d10_w20;d10_w21;d10_w22;d11_w00;d11_w01;d11_w02;d11_w10;d11_w11;d11_w12;d11_w20;d11_w21;d11_w22;d12_w00;d12_w01;d12_w02;d12_w10;d12_w11;d12_w12;d12_w20;d12_w21;d12_w22;d13_w00;d13_w01;d13_w02;d13_w10;d13_w11;d13_w12;d13_w20;d13_w21;d13_w22;d14_w00;d14_w01;d14_w02;d14_w10;d14_w11;d14_w12;d14_w20;d14_w21;d14_w22;d15_w00;d15_w01;d15_w02;d15_w10;d15_w11;d15_w12;d15_w20;d15_w21;d15_w22;d16_w00;d16_w01;d16_w02;d16_w10;d16_w11;d16_w12;d16_w20;d16_w21;d16_w22;d17_w00;d17_w01;d17_w02;d17_w10;d17_w11;d17_w12;d17_w20;d17_w21;d17_w22;d18_w00;d18_w01;d18_w02;d18_w10;d18_w11;d18_w12;d18_w20;d18_w21;d18_w22;d19_w00;d19_w01;d19_w02;d19_w10;d19_w11;d19_w12;d19_w20;d19_w21;d19_w22;d20_w00;d20_w01;d20_w02;d20_w10;d20_w11;d20_w12;d20_w20;d20_w21;d20_w22;d21_w00;d21_w01;d21_w02;d21_w10;d21_w11;d21_w12;d21_w20;d21_w21;d21_w22;d22_w00;d22_w01;d22_w02;d22_w10;d22_w11;d22_w12;d22_w20;d22_w21;d22_w22;d23_w00;d23_w01;d23_w02;d23_w10;d23_w11;d23_w12;d23_w20;d23_w21;d23_w22;d24_w00;d24_w01;d24_w02;d24_w10;d24_w11;d24_w12;d24_w20;d24_w21;d24_w22;d25_w00;d25_w01;d25_w02;d25_w10;d25_w11;d25_w12;d25_w20;d25_w21;d25_w22;d26_w00;d26_w01;d26_w02;d26_w10;d26_w11;d26_w12;d26_w20;d26_w21;d26_w22;d27_w00;d27_w01;d27_w02;d27_w10;d27_w11;d27_w12;d27_w20;d27_w21;d27_w22;d28_w00;d28_w01;d28_w02;d28_w10;d28_w11;d28_w12;d28_w20;d28_w21;d28_w22;d29_w00;d29_w01;d29_w02;d29_w10;d29_w11;d29_w12;d29_w20;d29_w21;d29_w22;d30_w00;d30_w01;d30_w02;d30_w10;d30_w11;d30_w12;d30_w20;d30_w21;d30_w22;d31_w00;d31_w01;d31_w02;d31_w10;d31_w11;d31_w12;d31_w20;d31_w21;d31_w22
0;-0.0049113017;0.18760522;-0.25936788;-0.30622774;0.43355298;-0.062381413;-0.75706416;0.20726462;0.24339573;-0.24581109;0.13305026;0.37239537;0.14755209;-0.38923413;0.18140289;0.30236912;-0.4109358;-0.26796007;0.20264512;-0.3023295;-0.2771642;0.047893178;0.09244575;-0.28475344;-0.05997453;0.14853722;0.33167958;-0.15456496;0.18434733;0.120914154;0.09589627;-0.37050444;0.034641266;0.3255049;-0.20295875;-0.7171734;-0.030831043;0.13999562;-0.35714304;-0.022523819;-0.012182709;-0.07558787;-0.2602124;-0.45007047;-0.018995997;-0.49961105;-0.05770399;-0.072176196;-0.13984247;-0.14792304;-0.12816028;-0.30875567;-0.12975703;0.23363362;0.105416365;0.3962591;0.20805836;0.0103505645;0.45479885;0.27299994;-0.004557507;0.019398386;0.48756376;0.5145425;-0.46777707;0.10110931;-0.13180493;-0.40902135;-0.57074785;-0.4272283;-0.19441079;-0.18202105;-0.22648035;-0.048929874;0.089825;0.59472954;-0.20825717;-0.42076325;0.12224282;-0.030401614;-0.5237884;-0.18135904;0.28284305;-0.02545633;-0.11808286;0.28789055;0.0032557435;0.019444043;0.6239961;0.29678527;0.45811823;0.14317662;0.08145443;-0.2085014;0.08428468;-0.008179188;-0.09997384;-0.71669126;-0.34935474;-0.076679;0.052331943;-0.28972208;-0.2687149;0.44644785;-0.24852315;-0.62161493;0.5564709;0.27465585;-0.19785316;-0.3172471;-0.22122519;0.11991584;-0.092358805;-0.62238014;-0.31230983;0.2818625;0.20920725;-0.5867042;-0.28064883;0.273062;0.017386392;-0.50083435;-0.21208212;0.04928187;-0.11079701;-0.146919;0.3899353;-0.34182942;0.01939622;0.03545699;0.13395625;0.39721674;0.09489092;-0.6404768;0.22511853;0.4277133;-0.0669781;-0.13256727;-0.31619427;0.09431271;0.0020309729;0.06046754;-0.014643751;0.25178432;0.08654398;0.2579438;0.22268267;-0.047145195;-0.07974136;-0.0038536943;0.07054893;0.0490159;-0.13952774;-0.14390467;-0.07973612;-0.20507866;0.07240333;-0.10801935;-0.47527683;-0.238502;0.41508538;0.046774924;-0.066361316;-0.022646986;-0.13061588;0.41936222;-0.33909222;-0.43745598;-0.14618888;0.39720896;-0.13215317;-0.31383812;0.49312156;0.118809536;-0.35667497;-0.07747997;0.59057873;0.024011338;-0.74070334;0.057941537;0.69091356;-0.14960736;-0.20927994;0.01784417;0.19430742;-0.13832344;0.15104425;0.22849607;-0.10631122;0.48757106;0.35196504;-0.36734825;-0.14218143;0.26496467;0.17152822;-0.1308768;-0.092432104;-0.060225766;-0.061719045;0.080117986;0.13694943;-0.29955038;-0.010267151;0.20171498;-0.2678796;-0.013097917;0.109880656;0.22875597;-0.10776308;-0.13386558;0.21713668;-0.41129985;-0.5502317;0.10862971;0.48655695;-0.57631284;-0.20346087;-0.16731665;-0.49373496;-0.17637591;0.29711357;-0.07401228;-0.60647327;0.26298857;0.3901464;0.015630787;-0.20666528;-0.33565775;-0.13203758;-0.086550914;0.1719978;-0.4663772;0.119357064;0.57655007;0.35090443;-0.13501461;-0.13323948;-0.1618537;0.01553519;-0.26093793;-0.13583882;0.05595287;-0.18661734;-0.31783918;0.14062934;-0.18292321;0.02976871;-0.03243743;-0.23422359;-0.081736155;-0.037607532;0.014149946;0.36566067;0.084781915;0.04060862;-0.059854645;0.03544166;0.20160082;-0.14844914;-0.38747644;0.04152516;0.1618509;0.4433428;0.052167166;-0.13213952;0.03752262;-0.110834174;-0.23859692;-0.017550966;-0.05230847;-0.12610605;0.048054036;-0.3418477;-0.05106511;0.15068051;0.19610634;-0.08913362;0.16323444;0.4596243;0.3294768;-0.038408224;-0.33247864;-0.015562203;0.20173667;-0.15794933;-0.556411;0.33881176;0.33863282;-0.12826487
1;-0.0016762994;0.015601905;-0.0023817061;-0.023214038;-0.031359278;0.21081637;0.18525885;-0.23431641;-0.24480194;-0.13403521;0.25074568;-0.28330585;-0.3033306;0.12291233;-0.46885177;-0.39035597;0.1679472;-0.39665526;-0.18583362;0.07215396;0.1315449;-0.10600762;0.18811734;-0.08003827;-0.29817954;0.79305685;0.09455692;0.11947648;-0.26321316;-0.38853925;-0.18044819;0.12594314;0.063505754;0.25077257;0.038901366;-0.35660622;0.043631796;0.5052018;0.21870686;0.21195123;0.29386446;0.101182126;0.042830143;0.07391599;0.10522834;0.3589925;0.0941121;-0.02506905;-0.14120829;-0.0049257656;0.03582244;0.2073987;-0.20748238;0.06626634;0.30703408;-0.9103372;-0.3481106;-0.22901565;-0.6629554;-0.37252116;-0.2806758;-0.66671467;-0.59907955;-0.17513695;0.086232685;0.29848817;0.60468864;0.25144824;0.26615125;0.4074272;-0.2896898;-0.05039801;-0.08757858;-0.6720701;-0.74553615;-0.7173477;-0.13432659;-0.20226988;-0.60609096;-0.121527225;-0.35730028;-0.944108;-0.15841977;-0.09537575;-0.070853874;-0.06641263;0.13755633;0.060348418;0.5264442;0.6014105;0.39955065;0.096312344;0.13150294;-0.079800874;0.41866848;-0.093088776;-0.28836027;0.13438357;-0.586126;-0.623146;0.17570347;0.25555506;-0.24231587;0.08689137;0.33424672;0.18331738;0.06903321;0.15570313;0.096449055;-0.081329994;-0.19446076;0.09905591;-0.059128564;-0.030564414;0.055046458;-0.15376185;-0.09817338;0.0038472724;-0.31262788;0.29514974;-0.29406786;0.01030387;0.038644012;-0.31735328;-0.36059168;-0.32138938;-0.5399314;0.3699802;-0.11166018;-0.25187317;0.27187225;-0.12503423;-0.12214933;0.3533997;0.095860936;-0.14446682;-0.12815745;-0.09658628;-0.4613524;-0.11657368;-0.115505144;-0.02244537;0.58600867;0.16302204;0.11583315;-0.32788298;0.20342723;0.15021746;-0.45335957;-0.22776641;0.17052431;-0.23097232;0.025465533;0.28776652;0.05109;-0.49518308;-0.390138;-0.22870065;-0.5963159;-0.42256334;0.4386416;0.05789795;0.39621523;-0.3637104;-0.18053208;0.26428246;-0.3213188;-0.29846695;0.09964076;-0.16248205;-0.25469908;0.101491146;-0.17396508;-0.17468363;-0.19336982;-0.25086948;0.24059813;0.017704574;-0.47253737;0.07471268;0.32151327;0.048382957;0.138989;0.39403027;0.039219055;-0.07532398;0.19874758;0.08022056;-0.09841197;-0.13364051;-0.19730496;-0.29302856;-0.29719868;-0.3822459;-0.4301326;0.049431656;-0.22942798;-0.27705437;0.5262238;-0.56316835;0.13833062;0.093064725;0.02669833;0.3028634;0.1673532;0.2621331;-0.04649199;-0.063771546;-0.18709086;-0.595963;0.0008721007;0.03960806;-0.07278461;0.29198992;-0.63096696;-0.8141713;-0.14853667;-0.0019472392;0.3090023;0.0839741;-0.029723294;0.27673164;-0.07017018;-0.03224294;0.14113443;0.011619734;-0.19819316;0.28489408;0.0264818;0.08683344;0.22839421;0.07602053;-0.10176875;0.21727555;-0.059481718;-0.2612862;0.09394437;0.44072732;0.3395888;0.61743355;0.5838206;0.8087505;0.9699816;0.7214143;0.10255314;0.13525018;0.2203958;0.009704099;0.011141974;-0.08432342;-0.11757372;-0.62329394;-0.40700063;-0.23935;0.28373086;-0.2723705;0.23346506;0.4172668;0.026859926;0.44342488;0.33773726;-0.12805206;-0.26551944;-0.016517414;-0.5201625;-0.12293136;-0.32891837;-0.23350894;-0.5056039;-0.41251874;-0.38700026;-0.027990043;0.4278512;0.4276477;0.2844825;0.5121983;0.25206316;0.43223375;0.3805717;0.04170414;0.056971442;0.14001101;0.017771311;-0.017733844;-0.09550578;0.020459203;-0.111957796;-0.12745294;0.08991757
2;0.0034152484;0.15250221;-0.035230204;-0.78267;0.42516395;-0.10543275;-0.82769537;-0.07313897;-0.46124706;-0.3305628;0.07562896;-0.28416952;-0.06704306;0.15638314;-0.105348274;-0.17524894;0.15928978;-0.16059792;-0.030706326;0.19561179;-0.26037753;0.08060959;0.2305676;-0.34155416;0.22835875;-0.04707022;-0.15931493;0.20522386;0.19398974;-0.052122466;-0.13101642;0.022349564;-0.09575426;-0.04263167;-0.078562886;-0.029153062;0.03140887;-0.24253136;-0.1592845;0.25705054;-0.09915422;0.10048885;0.4204814;-0.36551666;-0.41580597;0.14605905;-0.32799593;-0.10230841;0.6645359;-0.19048372;0.24802965;0.60448027;-0.26331133;-0.046741303;0.6724616;-0.011001025;-0.15396725;0.48507574;-0.012276112;-0.36561167;0.14380528;-0.013497308;-0.31284398;0.19496094;-0.019327508;-0.36503747;-0.65458167;0.264665;-0.12257558;-0.35742447;-0.15752196;-0.25496075;0.033040263;-0.05891092;-0.18835542;0.27930257;-0.032772895;0.2602968;0.65456617;-0.14253196;0.1482992;0.68232894;-0.0340445;0.062841125;-0.14594075;0.04875567;0.24050766;0.03725352;-0.120955326;0.2174016;-0.03675903;0.13526087;-0.020301385;-0.14371327;0.06946953;0.07904379;-0.11793765;0.1653984;0.17308724;0.027349394;0.2548111;-0.12682566;-0.05732115;0.2153598;-0.05554311;-0.038578443;0.2227046;-0.23982537;0.080341846;-0.5058747;-0.12993337;0.5123607;-0.55010676;0.02390155;0.58311266;-0.22677639;0.049800634;0.38203552;0.016478775;0.34814042;-0.25002623;-0.16911311;0.34912032;-0.2797306;-0.21065307;0.19675644;0.017802991;0.70025116;-0.87664646;-0.09640385;0.7336719;-0.6913275;-0.31036204;0.31863606;-0.4490599;-0.25282067;-0.186631;-0.32089296;-0.11767788;0.22833155;-0.07873344;-0.087509766;-0.089664124;-0.089780696;-0.5659925;0.13571754;-0.058274396;0.015741127;0.22028762;-0.08963069;-0.110093005;0.09814274;-0.2864132;0.124511324;0.22441335;-0.14373702;-0.23621166;0.092555426;-0.14381634;-0.24829485;0.1852072;0.08550841;-0.20386893;0.110014915;0.022504302;-0.16474321;0.13419926;-0.07786219;-0.011998501;0.13357662;-0.005489355;-0.16621612;-0.36759502;0.16212401;0.19546072;-0.3712801;0.20278934;0.21377854;0.07344716;0.060205568;-0.085047685;0.32985443;-0.32837212;-0.00044265809;-0.86089015;0.07247905;0.18218583;-0.9120178;0.024649652;0.08923298;-0.32445025;-0.10391592;0.31669885;-0.20922369;-0.09176161;0.36233178;0.15889819;-0.2589143;0.17414975;0.17731634;0.17738502;-0.33456182;0.042427294;0.29834312;-0.36718002;-0.07536273;0.11608653;-0.17059907;-0.085618466;-0.07302004;-0.27813864;0.2547357;0.17256942;-0.34713796;0.117317304;-0.2351489;0.018788101;0.19868822;-0.15533085;-0.0461261;0.1290474;-0.08605842;0.10657138;0.084575355;-0.12696083;-0.18467832;-0.6171871;0.21726035;0.36560413;-1.0619711;0.116829984;0.8234843;-0.6691538;-0.031361464;0.67825097;0.17818771;0.04014317;-0.13864848;0.21063961;-0.11259289;-0.20796417;0.02647798;-0.08699224;-0.045407757;-0.28548726;-0.4606733;0.39021105;-0.2597606;-0.3156;0.5458461;-0.10048038;-0.1269705;0.16836642;-0.028490098;0.06260867;-0.24414329;0.10584932;0.035832707;-0.2316125;0.20202132;-0.066791795;-0.053905353;0.052477904;0.29858857;0.018565208;0.006065354;0.06249914;-0.109687455;0.101367876;-0.09355422;-0.16995214;-0.57802206;-0.27763894;-0.007397142;-0.6509995;-0.2630886;-0.15149085;-0.82964;0.087686166;-0.4289461;0.014441673;0.033235356;-0.049292807;-0.09987782;-0.47671556;0.56657624;0.06578178;-0.40956366;0.26227027
3;0.025849536;-0.07993623;-0.11416061;-0.12040336;0.22956744;-0.16828033;0.02538927;-0.100137405;0.080731355;0.0476699;-0.10348164;0.18106596;0.17888083;-0.25728092;-0.072300404;-0.054770928;-0.17452541;-0.15279564;0.104087114;-0.050088324;-0.07916986;0.22750928;-0.37665352;0.4571183;-0.29494503;0.06892593;-0.035040446;0.028763268;0.052869067;0.21561122;0.40176025;0.12476651;-0.3477827;0.05054404;-0.37834805;-0.24631983;0.13286155;0.10625016;-0.29554167;-0.22676027;0.38653094;-0.06557123;-0.08009442;0.1263249;-0.27142695;0.11932284;0.23641369;-0.07807738;0.12272005;0.18544438;-0.12842254;0.07826309;0.09542346;-0.16988584;-0.092075564;0.36211357;-0.2968888;0.16129114;-0.16455199;-0.20107163;-0.018256145;-0.40219355;-0.2649424;0.031608455;0.007070361;0.23252517;0.15947048;-0.20245183;0.055852614;0.06052819;-0.053768348;-0.03356259;-0.02268258;0.37927464;-0.01084848;0.24154219;0.21891901;-0.0540117;-0.049003582;0.2742436;-0.1457066;0.043031316;-0.31166273;0.056836035;-0.36951333;0.04588127;0.24254113;0.04100476;0.2297033;0.111095995;0.4206519;-0.32772768;0.12352272;0.08057069;0.10654366;0.008556118;-0.36784273;-0.08460139;-0.15322673;-0.105019175;-0.12745796;-0.0033475072;-0.23655128;0.37170544;-0.5087005;0.19963953;0.04605729;0.052166853;-0.088463455;-0.4473252;-0.330212;0.16636527;-0.1924437;0.25036132;-0.010067785;0.14089939;0.15657207;0.0004906978;0.22473043;-0.12176035;-0.16595902;0.0608514;-0.2546534;0.09136529;0.07847276;-0.25202608;0.19900616;0.22193493;-0.5861682;0.38164747;-0.24540433;0.3417965;0.18645045;-0.09813457;0.33746487;-0.22988795;0.010955169;0.02461854;0.03810436;-0.16371247;-0.24377997;0.107155;-0.20152469;0.083753124;0.16513358;0.14949976;0.11952121;0.13047981;0.09222487;-0.18534768;-0.12502584;0.010873142;-0.02384775;-0.021820107;0.22510523;0.10901977;-0.39879858;0.34928906;0.04006853;-0.27171385;0.19344755;-0.00960256;-0.30159175;0.8244457;0.23472285;-0.3585195;0.54996824;-0.16913775;-0.7866681;0.27759185;-0.5630901;-0.44261652;0.24244012;-0.29932088;-0.38236493;0.14542744;-0.36756462;-0.029366726;-0.11768193;-0.29529434;0.34189245;0.21287623;-0.78420246;0.1390979;-0.696102;0.1718902;-0.032465894;0.09632297;-0.05676518;-0.35512802;0.04819843;0.095862806;-0.14497845;0.33152714;0.041538052;-0.29017046;0.34618253;-0.080234855;0.010299098;-0.48682854;0.34947887;0.28016716;0.2072376;0.15449876;-0.410778;0.29325235;-0.48575392;0.20158967;0.17081508;0.043170057;-0.3648956;0.0702684;-0.7465831;-0.32656014;-0.10199647;-0.399135;-0.10772089;-0.20891818;-0.30484012;0.38757256;-0.36401293;0.53806895;0.22106957;0.11312208;0.32831493;-0.5306874;-0.38756523;0.054464106;-0.10093064;-0.2829548;0.18856862;0.11054869;-0.10600103;0.1867071;-0.012256529;-0.20801851;-0.18400119;0.03316698;-0.10593636;-0.104045935;0.10787979;-0.10633675;-0.009403784;0.15348506;0.06977338;-0.19394368;-0.099487714;0.13107839;-0.3757409;-0.4308499;0.41026083;-0.22123301;-0.49807525;-0.2944168;-0.5914374;0.6913237;-0.41077062;0.04636581;0.2961212;-0.12659124;0.15585896;-0.07023277;-0.22474994;0.19309685;-0.03131193;0.13358049;-0.09178641;-0.384121;0.017823275;-0.68516916;0.18837422;-0.37069678;-0.114646584;-0.45592394;0.16423303;-0.07615781;-0.15331674;0.010141494;0.09147891;-0.14115125;0.56063086;-0.83895814;0.064594045;-0.3050081;-0.12850055;0.61627233;-0.27088404;0.11620519;0.0047804792
4;0.00036749453;0.2688059;0.36060697;0.121515475;-0.4647439;-0.38866326;0.102624476;0.35236365;-0.12745713;-0.44042218;-0.18146431;-0.031629596;0.32428703;-0.20410031;-0.3637183;-0.38208658;0.08213968;0.049871277;-0.0071983235;0.050458875;0.086209364;-0.28482473;-0.050765514;0.17539005;-0.020654391;-0.20169751;0.14156869;0.047028214;0.2476093;0.25099358;-0.06571204;-0.3422104;-0.10262023;-0.08263746;-0.4744075;-0.14610757;-0.042964306;-0.48473147;-0.17875999;-0.11686508;-0.40993917;-0.008296016;-0.015277843;-0.29301295;-0.06412447;-0.0575092;0.21492527;0.08545803;-0.04992492;-0.35892063;-0.057610914;0.14778332;0.11461394;-0.008082069;-0.29311255;0.0382712;-0.09609663;0.43696308;0.114868335;-0.2773294;-0.47199842;0.531824;0.27731514;-0.21486366;0.018242322;-0.42888284;-0.7722622;-0.28423506;0.067364134;0.061802607;-0.15611786;-0.3844345;-0.368136;0.21404015;0.17387462;0.10851972;-0.11729882;0.06933823;0.062356412;-0.46408692;-0.32054874;-0.13609147;-0.23342466;-0.17519021;-0.24132669;0.1379744;-0.048782967;-0.31212437;0.37453008;0.28126818;-0.111513786;0.1550841;-0.02110555;-0.1723292;0.06286951;0.10755644;0.08428309;-0.09080344;-0.12673454;-0.12905481;0.03609923;0.3363332;0.40582147;-0.11920957;-0.7873897;-0.26257977;0.35839438;0.35131887;-0.16050616;0.2899728;0.09831043;0.05120871;0.025371775;-0.052035842;-0.015331982;-0.11676325;-0.03699856;-0.09522867;0.0589653;-0.15310988;-0.051895633;0.093280844;-0.007880929;0.14165623;0.12184553;-0.12935673;-0.14603116;-0.21225671;-0.4108062;-0.07190358;0.39050952;0.46044737;0.13952352;-0.12831187;0.04360278;0.2486064;-0.51831204;-0.4116777;0.019087534;0.20378071;-0.14398639;-0.39900437;-0.18254058;0.019482872;0.005389736;-0.80866045;-0.03256412;0.1439344;-0.19897771;-0.27824044;-0.7224776;0.6334207;0.5318842;0.1507954;0.017399551;0.26223212;0.2363665;-0.13243759;-0.14322262;0.0768732;0.025790455;-0.059757903;-0.093550004;0.05862133;0.04557029;-0.180111;-0.02294565;0.11170919;-0.035772968;0.0027895973;0.12859271;0.08988857;-0.033001415;-0.23047361;0.12659484;0.090654574;0.060297426;-0.34913868;-0.17765081;0.35350963;0.06557959;-0.22851847;-0.16639212;-0.25868765;-0.12183241;0.24901895;0.027828913;-0.3115504;0.07645206;0.2100063;-0.27506307;0.4521118;0.55068517;-0.38003343;-0.83814895;-0.19723386;0.5839987;0.42045245;-0.43142858;0.06855152;-0.20891853;-0.10620978;-0.054141097;0.21650206;-0.026842222;-0.16974793;-0.07346016;0.13133428;0.36572394;-0.060584515;-0.19127962;-0.11613742;-0.15052684;0.041249733;-0.20935683;-0.26426366;0.37148216;0.42953905;-0.3123625;-0.45133823;-0.04542406;0.2288821;0.05446328;-0.4321427;-0.16625357;0.38099605;0.42219132;0.25326025;0.0882876;-0.3732543;-0.121430345;-0.010169291;0.20450915;-0.37286037;-0.30848214;0.05024247;-0.045719437;0.03813405;0.04750592;-0.12564978;-0.04890627;-0.17128447;-0.04624824;-0.13330331;-0.16668253;-0.17993477;0.23730914;0.045397554;-0.31377414;-0.4318776;0.40448034;0.37600112;0.21186951;-0.38006416;0.5051668;0.54917115;-0.2931578;-1.0556889;-0.29507536;0.57983035;0.52626383;-0.03351887;0.027822457;0.068505846;0.32462087;-0.2852102;-0.18514775;0.0073193745;-0.07819189;-0.1680389;0.02194454;-0.2935998;-0.70119834;-0.38200745;-0.051016252;-0.7119979;-0.3562823;0.21376136;-0.09199254;-0.34667245;0.18033475;0.71036166;0.061258033;-0.8304246;-0.5203622;0.26820955;0.5527741;-0.22921807;-0.2940041
5;-0.015868371;0.26726452;0.19034025;0.11003588;-0.14062354;-0.15736222;-0.16972913;-0.4395896;-0.047830075;-0.05351053;-0.019640626;0.07145993;-0.15592654;-0.07248549;-0.16091344;-0.07442857;0.24800706;0.242031;0.0675298;0.06375142;-0.123325504;-0.21925648;-0.4763093;-0.32066065;-0.21146981;0.57498044;0.55694175;0.5524795;-0.5959864;-0.23766056;-0.6565018;0.29488707;0.38496932;0.24432969;0.20872055;0.07362623;0.3034772;-0.2799063;-0.04418259;-0.19464903;-0.40671784;-0.33871832;-0.5759786;-0.2017472;0.09097223;-0.045030605;0.23920366;0.44791704;0.21731496;-0.2912331;-0.23952147;-0.18915845;-0.42090794;-0.5787591;-0.595913;-0.27566108;-0.0028546927;-0.26997444;0.10794103;0.23278132;0.07731715;0.5880304;0.51356626;0.38609323;0.11048008;0.18959892;0.08940979;0.01950237;-0.360004;0.27817494;-0.49224177;-0.4824917;0.06892309;0.059365824;0.24052088;0.057965145;-0.18353982;-0.2354454;-0.25410068;-0.13555211;-0.22315498;-0.20519479;-0.73550725;-0.6176466;-0.5498238;-0.032881163;-0.08476643;-0.042621512;0.4534942;0.18765752;0.0933467;-0.11500797;-0.004445642;-0.09932163;0.2889708;0.12979235;-0.1519538;-0.14315699;-0.22646424;-0.11707264;-0.38488236;0.06141872;-0.061781604;-0.1125767;-0.65498716;-0.19475625;0.21358065;0.80850023;0.59892416;0.3129892;-0.063398;-0.19158632;0.07883706;0.029901408;0.25091738;-0.16424441;-0.15744144;-0.34686407;0.45032704;0.26292095;-0.12021504;0.17908943;-0.14170657;-0.12185923;-0.108116895;-0.2739973;-0.34473163;-0.021374395;0.4249737;0.16962747;-0.21715531;-0.062834114;-0.1931599;-0.3828957;-0.33528674;-0.09283353;-0.15346803;0.019323733;-0.07362556;-0.18356611;0.07323592;0.07495809;0.101437;-0.20040323;-0.05258835;-0.069661506;0.23740314;-0.10112884;0.15999804;0.23233053;0.12621857;0.26262307;0.3015586;0.24407679;-0.6046938;-0.5237901;-0.5549662;-0.043584283;0.15083086;0.07249888;0.49047384;0.688508;0.7408623;-0.24688296;-0.3420267;-0.19786686;-0.1978867;-0.15675896;-0.2224175;0.37106964;0.25247598;0.1720803;0.19886132;0.2520946;0.08554964;-0.14230871;-0.099783085;-0.096660234;0.12526974;-0.20372988;0.1437142;0.07701866;0.21308036;-0.24348894;-0.46507195;-0.31927162;-0.2226602;-0.31980005;0.08087872;-0.14623976;0.05681666;0.11626506;-0.12915304;0.040440015;-0.09257335;-0.14972684;-0.24099916;-0.047146436;-0.2359256;0.0643909;-0.1982269;-0.34710073;0.31259358;0.21025984;0.20215155;-0.12739427;-0.19517924;-0.43641606;0.16939415;-0.17677565;0.0842102;0.08797058;-0.19689722;0.08045917;-0.21546206;-0.52540964;-0.7436747;-0.03248615;-0.33553073;0.103109725;0.17522149;0.0784882;-0.06173606;-0.18839371;-0.009827643;0.13332045;0.08006254;0.24449815;0.22529413;0.08235743;-0.23272495;-0.018379206;-0.22959846;-0.3743135;-0.10498374;-0.02530103;-0.004199661;0.022481978;-0.07534436;-0.0034099268;-0.11877403;0.16343962;0.116405345;0.0208295;-0.46492228;-0.41881245;-0.52572227;0.12086309;0.11650927;-0.08353093;0.5542761;0.46890578;0.4447766;0.24080637;0.48190463;0.28469238;-0.22266573;-0.7296004;-0.44370753;0.03794287;-0.023404505;0.07998532;0.16647957;0.09412113;0.03839321;-0.003672727;-0.17039089;0.09272773;-0.11930254;-0.32932845;-0.12892601;-0.08684236;-0.13817385;-0.0697608;-0.11290114;-0.35773912;-0.2323735;0.09251376;-0.60733485;-0.22710589;0.12598838;-0.11159455;-0.20309705;-0.12008026;0.15369175;0.07828129;0.228697;0.09583121;-0.10614866
6;0.0037310312;-0.204622;-0.029718982;0.31504828;-0.0704107;-0.2711525;-0.21677917;-0.121468425;0.18918143;0.21228093;-0.42675707;-0.119524404;-0.25543442;-0.26173356;0.032642867;0.023221815;0.09951534;0.28553104;0.37622955;0.05250083;-0.26161414;0.19804999;-0.24484085;0.27796176;-0.057429895;0.30293888;-0.0809823;-0.5811244;-0.15376665;0.19047105;0.126295;-0.12407198;0.07397994;-0.040325936;0.18219052;-0.03171403;0.0053771823;0.027652653;-0.0066919257;0.07611709;0.10393502;-0.010102587;-0.03632619;-0.2278275;-0.14373523;0.016183069;0.015009638;0.4742173;0.086563244;-0.17368811;-0.3207016;-0.33257788;-0.33794695;0.031388216;0.02829698;0.3951471;0.1658943;-0.29978323;-0.30498457;-0.37920368;-0.31762016;-0.087094456;0.20040686;0.34819138;-0.23500448;-0.20176022;-0.15998757;-0.08169991;-0.6065553;-0.102371044;-0.14438345;0.007703794;0.14125331;-0.02003493;0.16858731;0.077124834;0.010509857;-0.11174417;-0.21002601;0.11257391;-0.012982834;-0.17997988;-0.8313193;-0.4878388;-0.3397445;-0.2582481;0.23001447;0.030106535;0.43867877;0.55581856;0.14977145;-0.6348653;-0.36258957;-0.07404009;-0.20619464;0.19053577;0.3013848;0.21545295;0.22652547;0.5248758;-0.025769463;0.6375331;0.47742274;0.2444184;-0.7039807;-0.82885665;-0.45728147;-0.24967441;0.52192116;0.05353974;-0.024003895;-0.36869916;-0.310983;-0.11935165;-0.07079172;0.40440184;0.14180017;0.36081827;0.29116505;0.23459597;0.07207289;0.23037654;0.08427451;0.06452501;-0.20367046;-0.15146556;-0.053136874;0.0014311984;0.08309494;0.21773688;-0.17926778;-0.26945564;0.022085804;-0.14422037;0.24216577;0.036046896;-0.025172774;-0.52922076;-0.94856054;-0.719603;-0.47071877;-0.36046487;-0.15677045;-0.0319993;-0.27998602;0.23676531;-0.09837698;-0.21800116;-0.30366686;-0.17535175;-0.04937049;0.14500648;0.16726227;0.12290486;0.06184269;0.07926464;0.095004395;0.037051618;0.063688636;-0.19212094;0.08897606;-0.077002205;0.021451123;0.38983232;0.115065485;0.1055922;0.107688144;0.07007928;-0.19174083;-0.049785145;-0.22218403;-0.20058867;-0.36624584;-0.13683313;0.34579015;0.16911833;0.42975092;-0.15237202;0.09002995;-0.46241742;-0.20689324;0.024039147;-0.04712016;-0.29581222;-0.1902234;-0.38668263;-0.1697053;-0.3868596;-0.098329335;-0.048020117;0.59310514;0.16462699;0.06729169;-0.10574449;-0.15123911;-0.005470112;0.18703893;-0.103259236;-0.10294436;-0.46127653;-0.27282688;0.30182686;-0.06425787;0.36260825;0.074223466;0.40328985;-0.039875977;-0.39180768;0.13995738;0.23542637;0.2227471;-0.28952035;-0.39985737;-0.50456834;-0.30451733;-0.44305137;-0.20723125;-0.22459337;-0.17782925;0.18202592;-0.07170363;0.0020156081;0.040692974;0.41081846;-0.084314026;-0.22598276;-0.33948153;-0.39684063;-0.17537768;-0.064392045;0.19201602;0.07797182;0.28558874;0.06762623;-0.02645491;-0.28480268;-0.40808484;-0.021280034;0.21236794;0.1486145;0.18458644;0.31817418;0.32444778;0.14937554;0.09559975;0.21076879;0.20999072;-0.050327793;-0.11189937;0.07975882;0.011240426;0.05077271;-0.024071073;0.37491778;0.04228039;-0.21355204;-0.31485894;-0.47085628;-0.023664359;-0.1762215;0.46114662;0.2640911;-0.71324635;-0.53403705;-0.2763781;-0.43459865;0.009048315;0.3743277;0.1905152;0.5810465;0.6774389;0.01913084;0.17524353;0.021435227;0.054108802;0.13551106;-0.21637958;0.04280815;-0.17987628;-0.073446915;0.49003074;0.33161235;-0.12702501;-0.23009782;-0.81178963;0.055814218;-0.22156689;0.25671938;0.23642081
7;-0.012338022;-0.034159046;0.14091831;-0.07772573;0.012198158;0.018000517;0.021900415;-0.16888578;-0.010229354;0.28482264;0.112026155;-0.0648575;0.21617709;-0.024691109;-0.28199184;0.2835375;-0.17420009;-0.14512119;0.23484063;-0.046778224;0.29586026;-0.38902494;0.0070147947;0.2956502;-0.2641836;0.17399012;0.21726562;-0.2957121;0.3746477;-0.17913552;0.073452905;0.32453212;-0.27946293;0.23223175;-0.057802573;-0.299416;0.15785505;-0.23139456;0.09766578;-0.39591822;-0.11663372;0.25784913;-0.3121006;-0.33642116;0.20320272;-0.31485736;-0.24781515;0.086042024;-0.12544385;-0.2265027;0.0075819767;0.07621473;-0.11382342;0.08545128;0.0030722534;-0.35739756;0.058831833;0.15744978;-0.28876975;0.16577739;0.21743006;-0.33649606;0.10872458;0.17907876;0.23243894;0.012097209;0.1019672;0.032788023;-0.36037964;0.10634722;0.067038365;-0.050525654;0.16392955;-0.0606997;-0.07578235;-0.14931808;0.07623804;-0.016111532;-0.024777036;0.18524681;-0.14938235;-0.19172475;-0.032155085;0.016508339;-0.047174327;0.10089361;0.012146602;0.043833915;0.06781532;-0.16365099;-0.05608571;0.22248073;-0.07027327;0.14438331;0.22060356;-0.28058583;0.16588321;0.23139682;-0.064771205;0.033532612;0.15595262;-0.10084788;-0.10910042;0.21637091;0.0240811;-0.37727916;0.22144401;0.11913228;-0.1994294;-0.11229887;0.3802841;-0.54456323;-0.2221247;0.6815408;-0.5176563;-0.36263683;0.43127817;-0.21783379;-0.15265921;0.037826702;-0.18956123;-0.058679413;-0.117939524;-0.08442748;0.00079294934;0.058707446;-0.0937423;-0.19070116;0.8675286;-0.6690576;-0.5477653;0.6352488;-0.30671114;-0.2432484;0.48690146;-0.31266692;-0.17875919;0.012153877;-0.29341245;-0.08015088;0.1851244;-0.23670611;-0.07051235;0.14351276;-0.32461232;0.0938221;-0.2109417;0.28405756;0.2325512;-0.15494597;0.165423;0.15493622;-0.0024675427;-0.054356113;0.010083366;-0.003441706;0.01743968;0.12400702;-0.22460967;-0.0065399427;0.1254846;-0.09626249;0.10503964;-0.0001669508;0.11676854;0.024588361;-0.06266899;-0.07870607;-0.005855295;0.017961314;-0.070089445;0.055145342;-0.4131884;0.19575568;-0.12060962;-0.3634611;0.2141796;0.07689243;-0.23857473;0.09852391;0.013110326;-0.5036925;0.13154536;-0.601202;-0.59427834;0.4069149;-0.5302141;-0.5216488;0.11977418;-0.2990906;-0.11983666;-0.04676969;0.0042891935;-0.1462739;-0.15022126;0.026531871;-0.1851149;-0.04745343;0.012523346;-0.003949037;-0.011824842;-0.15168872;0.28691027;-0.32947695;0.26578292;0.17869401;-0.10948786;0.14721017;0.17037058;-0.078845665;0.06483644;0.08113589;-0.34789467;0.09323201;0.07742075;0.0006015019;0.029788187;-0.057186503;0.36056438;-0.74719864;-0.24614236;0.6193578;-0.39770913;-0.39419365;0.74058557;-0.24071276;-0.36580026;0.49217504;-0.16361916;-0.3450204;0.64619994;-0.5832059;-0.5001234;0.7145254;-0.3975243;0.12267159;0.033851787;0.21940233;-0.012344516;0.21008635;-0.062349174;0.11780733;0.20060126;-0.009971648;0.09380115;0.017137825;-0.017138405;0.13243777;-0.2234232;-0.09524097;0.0782751;-0.075224176;0.09439935;-0.025022648;0.37586337;-0.1822495;0.037242472;0.11904075;-0.2630886;0.04141775;0.13698271;-0.23650226;0.0065284576;0.080609605;0.25087258;-0.06776407;-0.117693774;-0.0037203792;-0.00511087;-0.028689783;-0.38633528;-0.5712621;0.2769557;-0.43332976;-0.48391157;0.45282942;-0.35407072;-0.34046882;-0.036763836;-0.5574822;-0.34594506;0.46527094;-0.32388574;-0.6663091;1.1848899;-0.40357244;-0.5811404;0.63589334;-0.36196783
8;0.006230476;-0.38314554;-0.31490245;-0.13465694;-0.09297869;-0.15735257;-0.12689637;0.046345893;0.13773711;0.044294786;0.22470888;-0.26211095;-0.6889008;0.23437284;0.18884976;-0.32870242;0.20681712;0.06652882;0.120559506;-0.0928804;0.12181512;0.28462452;-0.22136052;-0.0479882;0.15151338;-0.3127608;-0.15577932;-0.027448535;0.0698345;0.23795459;0.17059332;-0.12443496;0.092234105;0.2693484;-0.9114632;-0.52806324;-0.14830834;0.21872675;0.18501489;0.029745523;0.4202714;-0.03196961;0.015314332;0.44995698;-0.01845535;-0.06717961;0.19564396;0.60921514;0.09163579;-0.40943375;-0.14626825;0.48431918;0.078264385;-0.36762306;0.13043958;-0.21818207;-0.34563398;0.35038894;-0.2584462;-0.5969052;-0.24928683;0.159828;-0.2984144;-0.47366554;-0.16017205;0.10866982;-0.0066810874;0.10535688;0.10852441;0.14431158;0.2266089;0.047800884;0.09012367;-0.084683076;0.14521018;0.23855036;-0.3127854;0.17277561;0.29242328;0.022280091;0.23678327;0.5089796;-0.35885748;-0.49645296;-0.4215258;0.3053958;0.21960208;-0.471799;0.38683096;0.29238492;-0.14824428;0.14999199;-0.009906467;-0.7504604;0.2151702;0.34711188;0.082781106;-0.071449585;0.20454061;0.20742482;0.0087334355;-0.22597885;0.09322466;0.22582522;-0.24233484;-0.34728482;0.18287338;0.111376666;-0.35823628;-0.01630193;0.13059834;0.013288459;-0.10806359;-0.2788688;0.34738111;0.15683037;-0.2830463;-0.04965868;0.431004;-0.010576847;-0.35710803;-0.049451146;0.19989787;0.066544995;-0.023647409;0.101758406;0.32261023;0.26373744;-0.5862422;-0.26199338;0.043394487;-0.17177406;-0.41746294;0.15632685;0.23009506;0.0040297564;-0.20127542;-0.53128284;0.4407913;0.16267478;0.051133182;0.03724676;0.106573224;0.13435897;0.0005917136;-0.18365067;-0.3570678;0.25090986;-0.22143887;-0.5345176;-0.074860364;0.04064143;-0.44131294;-0.46134046;-0.07845756;-0.2670264;0.14457814;-0.0029025855;-0.33075392;-0.31559995;0.26625225;-0.06945081;-0.21635659;-0.3826477;-0.06582269;0.33806008;-0.12693675;-0.22214672;-0.20292337;0.016449664;-0.32257625;-0.5465548;0.16756056;0.1369012;-0.3274606;-0.027331857;0.25805095;-0.17994772;-0.15587527;0.07954775;0.05244852;0.26952893;0.33255368;-0.4415787;-0.38383514;0.31137648;0.15045999;-0.26384437;-0.30600417;0.3401207;-0.12657371;-0.028249117;0.4082281;-0.107670225;-0.49571228;0.3080483;-0.20228538;-0.13427208;-0.15169561;-0.08332909;0.16576163;0.114214934;-0.40742543;0.29378796;0.2506065;-0.08294574;-0.17999639;0.22879715;-0.41206324;-0.059014834;0.47095737;-0.46342143;-0.41093498;-0.00725239;-0.49378762;-0.780459;0.060247973;-0.19387798;-0.12271527;-0.42356884;0.021195116;-0.005451514;-0.30367857;0.17853282;0.32205296;-0.28820387;-0.29368275;0.334904;0.41687807;0.012497685;-0.36115587;0.46852344;0.14181086;-0.14522164;-0.32845628;-0.69209266;-0.42610997;-0.20507179;0.024547998;-0.0856763;-0.16800538;0.54842573;0.3482798;0.23086433;-0.08109309;-0.14381228;0.06057289;0.11074413;-0.1551354;-0.29796696;-0.091054335;-0.3977833;-0.5871953;0.23229034;-0.5336479;0.3291215;0.3655522;0.038029857;-0.44133547;-0.34549126;0.2926025;0.09622693;-0.16035905;-0.18573956;-0.32312158;0.15958866;-0.5454421;-0.22612153;0.5614702;0.041343816;-0.38063544;-0.16202302;-0.112065084;0.3970551;0.0682919;0.0071926545;0.3018489;-0.0022445754;-0.07072827;-0.13660426;-0.5398852;-0.11545033;0.4792129;0.18597877;-0.9932416;0.05660228;0.3176415;0.09900534;-0.4370028
9;0.0025618963;-0.22756405;-0.30830044;-0.45762613;0.3507188;0.47508648;0.19063596;-0.21473219;0.12483533;-0.059816368;-0.3044388;-0.19370022;-0.2859774;0.25242615;0.43129462;0.39006886;-0.2120363;-0.121162474;-0.29731327;0.20909539;0.2093507;0.31072322;-0.079612315;-0.25088355;-0.39445853;-0.117899224;0.042153217;-0.015478123;0.16022916;0.39177635;0.31146803;-0.10511947;-0.052125603;-0.1358297;0.07019027;0.03580305;-0.011536425;0.41481572;0.18550068;0.3269501;0.005890792;-0.34139106;-0.09631632;-0.005524715;-0.19388391;0.12044155;-0.084643796;-0.09351153;-0.3645912;0.33800113;0.2980887;0.019967096;-0.048839875;0.11843696;0.04164821;0.41497058;0.07649449;0.22280665;0.46681622;0.53423166;0.5137212;0.14209968;0.07062159;0.007305066;-0.8671489;-0.5256932;-0.46371132;-0.14452535;0.3218907;-0.26070732;-0.7243257;-0.25402686;-0.4487969;0.121048994;0.19929236;0.1703468;0.20227534;0.024228727;0.08369917;-0.2188513;0.0063032056;0.15507591;0.41383773;0.49365214;0.3208134;0.19269185;0.1913169;-0.037354376;-0.12336203;-0.15074837;0.08536532;0.3778206;0.540579;0.3652331;-0.17897466;-0.10045287;-0.07014734;0.074906595;0.11903511;0.12680416;-0.33593756;-0.38907477;-0.11906741;-0.022052912;0.04089755;0.11183084;0.25063127;0.101354055;0.122199975;-0.19251892;-0.099220484;-0.13917153;0.0096606985;0.016665392;-0.016859269;0.075542875;0.11892778;0.088016346;-0.47988176;-0.48261502;-0.6804581;0.15866554;0.3791542;0.011138931;0.13138269;0.18141831;-0.15866038;0.28714025;0.21198402;0.07033037;0.07647795;0.003611472;-0.11959749;-0.11274749;-0.27713537;-0.3090427;-0.09045947;0.34535143;0.454454;0.3495937;0.5630592;0.21399538;-0.3825904;-0.1751864;-0.46173567;-0.15583897;0.099309616;0.090393916;0.46556267;0.6052732;0.40306783;-0.71911234;-0.77496415;-0.9223971;-0.037698306;0.26196727;0.10307234;-0.06919073;0.026171947;0.096022256;-0.44933704;-0.40152118;-0.18675113;-0.03320518;-0.037425607;-0.0334663;0.14229788;-0.14657651;-0.15480399;-0.113300756;-0.21792653;0.060140792;0.13211286;0.2681991;0.17925248;-0.4626619;-0.48043635;-0.34105456;-0.09884484;0.031167129;0.3338346;-0.19858365;-0.011182035;0.25292268;-0.056194846;-0.33828714;-0.047062505;-0.23173776;-0.30799156;-0.19436985;0.2311729;0.34669378;0.46858588;-0.0119200675;0.053517256;0.23101738;-0.12814318;-0.085922055;-0.46586266;0.58763677;0.7830719;0.5153703;0.3539609;-0.17851745;-0.2906568;-0.7417121;-0.5999379;-0.49359632;-0.05460008;-0.0778553;-0.35431507;0.48872596;0.39638793;0.1025446;0.1569426;0.029648796;-0.12377588;0.30325446;0.4587987;0.24385603;-0.13222894;-0.27648222;-0.51222086;-0.07144802;-0.11974068;-0.21416384;0.16557649;0.31083593;0.20693755;0.018017722;-0.029805757;-0.107474245;-0.0844932;-0.12390649;-0.0635651;0.25251517;0.18151464;0.056231804;-0.15970491;-0.26835495;-0.3733838;-0.69604933;-0.5563944;-0.5388466;-0.0028917445;0.020291809;0.03871968;0.09176034;0.11837692;0.19993468;-0.2583205;-0.15058888;-0.004619815;-0.17445175;-0.026001077;-0.058471594;0.07322942;0.14211145;0.3215973;-0.021525322;-0.15178466;0.0079011135;0.18154699;0.107618436;-0.06267632;-0.014016958;-0.29591465;-0.3074288;-0.047954004;-0.06180387;0.027075432;-0.19577318;-0.2231236;-0.21141022;-0.11863782;-0.30820006;-0.15424792;-0.17257227;-0.2969405;0.0006692054;-0.35896835;-0.24076262;-0.23308477;0.051561885;0.1614242;0.10781584;-0.08390483;0.19982378;0.1121841
10;0.010548671;-0.09207324;0.007953887;0.01202695;-0.5120998;-0.15959793;0.011893654;-0.23052493;0.041500244;0.16568156;-0.08939317;-0.17456752;-0.09166342;-0.8068312;-0.75539386;-0.61522466;-0.6241041;-0.60960037;-0.3359183;-0.046786748;0.0802207;-0.4271958;0.30636394;0.26288646;-0.018211216;-0.003206034;0.16857997;-0.19388081;-0.49388465;0.045978446;-0.15138341;-0.92329526;-0.32158265;-1.3330417;-1.1384944;-0.63900286;-1.4365499;-0.30776674;-0.041231435;0.07233385;-0.035108905;-0.0008199378;-0.14525408;-0.03802817;0.12738371;-0.022843802;-0.07451186;0.0032637054;-0.0005650086;0.03660467;0.054031935;-0.07650289;0.08567696;0.05583886;0.14701548;0.02221219;-0.20694768;-0.3025243;-0.025213592;-0.15576626;-0.15116255;0.074226476;0.19707641;0.13761114;0.20185606;0.13966763;0.06497359;-0.4136722;0.07775092;-0.1383097;-0.07680673;-0.026812363;0.06303572;0.1439553;0.050366107;0.5002064;-0.32470772;-0.15645024;0.36125535;-0.3330755;-0.21684752;0.41778407;-0.3834435;-0.4662928;-0.6401868;-0.19221945;-0.26526916;-0.17217265;-0.32085755;-0.3617601;-0.4054565;-0.007942973;-0.09572072;0.12542519;-0.83882934;-0.71913177;-0.07200074;-0.89264804;-0.6487214;-0.0061386665;0.21659127;0.018943006;-0.18130451;0.12078873;0.16728505;-0.11838747;0.02239088;-0.08445645;-0.3454125;0.4299744;-0.18378532;-0.21415918;0.1041797;-0.1996194;-0.5950334;0.10816215;-0.06424208;-0.29368734;-0.2025668;0.34191445;-0.055425122;-0.09158837;0.44886473;0.028552238;-0.13036819;0.3383637;0.04490674;0.20738082;0.07128779;0.010960778;0.013555096;-0.12815273;0.036291152;-0.023404218;0.0067006513;-0.29832938;0.26188755;0.25336543;0.13371791;-0.048766315;0.081597425;-0.10636396;-0.1409093;-0.09972794;0.0123238135;0.4230714;0.6949106;0.54617316;0.100478664;0.24526976;0.088793576;0.15380365;0.22142377;-0.019496331;-0.6654852;-0.3906292;-0.47219;-0.50294113;-0.3799318;-0.21653703;-0.37503874;-0.2610859;-0.07090114;0.04008076;0.1940515;0.36855945;0.08923567;0.12018055;0.13819933;-0.12551202;0.055156678;-0.024020696;0.04835118;0.27930725;0.32698375;-0.25442454;-0.31039613;0.5379021;-0.41604838;-0.06651208;0.70519423;-0.038891044;0.036321007;0.5612033;0.01409601;0.09019809;0.13708094;-0.25910118;-0.17852783;-0.18423921;-0.5954742;0.020557951;0.14846137;-0.23821023;-0.004570875;0.3800224;-0.0023417633;0.31735906;0.40093765;-0.16272354;0.32943633;-0.083622694;-0.008882232;0.24361193;-0.3434954;0.1676654;0.30721408;-0.14402013;0.61190987;0.29604074;0.33320713;0.3653855;-0.15530701;0.278359;-0.05334963;-0.4774253;-0.029552694;-0.23010382;0.09682164;0.18277933;-0.34638935;-0.112000845;-0.013737079;0.1019282;0.28453267;0.004699157;0.4204713;0.2940974;-0.009148639;0.28431076;0.06826247;-0.041078657;-0.27210784;-0.4691511;-0.41515338;0.38188282;0.10846932;-0.27173728;0.17297915;-0.047207016;-0.24357174;0.08082958;-0.02944688;0.10242738;-0.5086649;-0.30790487;0.2796265;-0.8906211;-0.5889841;0.053613607;-0.5671746;-0.4048679;0.14549409;0.16876283;0.039857976;-0.21819404;0.43997735;0.112550825;-0.506293;0.42731985;0.14574538;-0.270195;0.0061734295;0.19934559;0.55400205;-0.06142013;-0.14604104;0.14300102;-0.15331104;-0.05052032;-0.3785098;0.3687988;0.065272324;0.14356883;0.22121224;0.12590607;0.3879247;-0.40441;-0.008048947;0.49021795;-0.06592409;0.36812878;0.022463579;-0.21710196;-0.025786916;0.0054067355;-0.041735567;0.05889738;0.114527956
11;0.009891345;0.05471083;-0.11232956;-0.0004433935;0.10496891;0.0045728316;0.12879062;0.03693804;-0.30139053;-0.073357254;0.10793848;-0.3903183;-0.4691838;0.2224071;-0.2697796;-0.5880016;0.637351;0.1520123;-0.068362705;0.27123362;-0.10820088;-0.16877893;0.46963528;-0.081797;-0.39197257;0.044461053;0.26108623;-0.09470132;0.10609073;0.16448542;0.07521982;-0.18790592;-0.103879;0.019958006;0.23880132;0.23700131;0.12576367;-0.122941546;0.056888994;-0.28900906;-0.43984637;-0.05988096;-0.006972205;0.06165292;-0.090523675;0.07035039;0.29031453;-0.34065;-0.120927945;0.11666737;0.17904918;-0.083442055;-0.31547475;0.087027274;0.30211678;0.39776906;-0.36675096;-0.38992262;0.40106368;0.29902896;-0.50667274;0.2953898;0.21843146;0.09515317;0.04791064;-0.008094598;-0.23083782;-0.057978738;0.07897241;-0.00068302674;0.037557516;-0.108126536;-0.071385235;0.3137152;0.0029604444;-0.016113134;0.11639803;0.2715485;0.106764935;0.10927284;0.14444837;0.39732662;0.14223571;0.013143646;-0.276377;0.4730962;0.15840921;-0.36805487;0.11061358;0.19552258;-0.025950374;0.17970377;-0.15165907;-0.2679948;0.06663405;-0.35713175;-0.34902045;0.10747028;-0.29689974;-0.0871466;-0.23466556;0.31366944;0.30986467;-0.45275834;-0.1642109;0.67861396;-0.34205577;-0.31010392;0.19936417;0.09831635;-0.37689134;-0.5249856;0.25349748;-0.29544705;-0.12699948;0.18312882;-0.108995795;-0.009339612;-0.18327369;-0.41432807;-0.33974242;-0.2215607;-0.14742649;0.018743623;-0.08003174;-0.1621596;0.20379545;0.02076532;-0.025711512;0.13274047;-0.08582705;0.16900682;0.02080525;-0.13681634;-0.086470924;0.09570975;-0.13038449;-0.11177042;0.1029469;-0.39680764;-0.0764086;-0.011328752;-0.4014256;0.085184395;0.18797567;0.021037381;-0.055781778;0.11119818;0.053972527;-0.038775753;0.040874988;0.12092999;-0.15260196;0.09907704;-0.49448773;0.05927784;0.22151688;-0.5667296;0.079721734;0.38917848;-0.40691477;-0.14421768;0.33938596;-0.31874937;0.5559422;0.67181814;-0.66811764;0.15016566;0.614115;-0.89490473;-0.2175366;0.119722605;0.20717454;-0.043702573;0.0057097054;0.14065775;0.06493246;-0.1520114;-0.18267076;0.24702126;-0.16671392;0.13001287;-0.1040341;-0.0017555364;0.11972403;0.14691919;0.11282885;0.1277537;0.038859427;0.22579825;-0.033092014;-0.19329257;0.086277574;-0.23953024;-0.024140604;-0.10302035;-0.30527666;0.5196996;0.08537714;-0.09166987;-0.13431998;-0.107113585;-0.27318835;0.28969735;-0.12086076;-0.41817403;0.08929192;0.24196543;0.23337802;-0.116532154;-0.11491226;-0.14333262;0.0061003654;0.17739567;-0.26667756;-0.36511847;0.108777754;-0.2911375;0.41982684;0.31892896;-0.8425068;-0.5111891;0.89504534;-0.18284357;-0.5047104;0.32135504;0.048940554;0.18325333;-0.4214962;0.1454787;-0.24282439;0.11316317;0.37478998;-0.10345155;-0.028126232;-0.109040216;0.063402735;0.01736941;0.007946521;-0.1371617;0.060524147;-0.09437214;-0.33014593;-0.12979078;0.0018302968;-0.043970607;0.28135157;-0.268908;-0.039746195;0.007895696;-0.107723445;0.21092685;0.37116858;0.35891715;-0.39557254;-0.1093387;0.6153638;-0.20122561;-0.1966664;0.26045427;0.16034155;-0.19357339;-0.09632202;-0.3331417;-0.35129085;-0.1548797;-0.3304696;-0.243315;0.1094343;-0.42092553;0.08225758;0.11756904;-0.051274545;0.04233802;0.33792955;0.025542697;-0.05494881;0.12682533;0.22961761;-0.00029036225;0.03908463;-0.043407854;-0.03843425;0.048276395;-0.37769613;0.17590116;0.2639296;0.0036226276;-0.029513055
12;-0.0024826142;-0.49979696;-0.6688834;-0.6065906;1.006568;0.91603905;0.34815332;-0.25628316;-0.20078732;-0.04592586;0.01921402;0.05924842;-0.00094516715;0.19879691;0.21483022;0.16570343;-0.43162274;-0.35471174;-0.20003551;-0.079547726;0.111540094;0.12572959;0.086813286;0.054096144;-0.049671818;-0.1312933;-0.05360501;-0.14037411;0.05947366;0.19411254;-0.09426627;-0.28667992;-0.28957137;-0.3828442;0.31645897;0.22895846;0.04209189;0.12590075;0.2104152;0.10727538;-0.06481322;0.023793215;0.22675598;-0.10684711;0.09374608;-0.05834534;-0.43845946;-0.5631367;-0.4426073;0.79697615;0.7588606;0.28625727;-0.3443943;-0.082137674;-0.05988078;-0.09066844;-0.10386605;-0.23450965;0.06286713;0.11960652;0.013316696;-0.20359792;0.07912388;-0.17520465;-0.23974918;-0.27717388;-0.44729307;0.26147854;0.11548179;-0.33267915;-0.04007927;-0.047923632;-0.31666785;-0.074772246;-0.07709409;0.009343775;0.028713742;-0.017842146;-0.13354886;0.16919334;0.2623896;0.096775286;-0.24623041;-0.16403149;-0.086779304;-0.0018814544;0.08046841;-0.0446499;0.004535357;0.109141015;0.18828063;0.3874545;0.2278537;0.11155912;-0.17610131;-0.23633282;-0.1928655;0.094787546;0.066725865;0.10341299;-0.07194383;-0.3056199;-0.21547228;0.4378326;0.8085545;0.3459794;-0.38601726;-0.5275001;-0.41279507;0.04203541;-0.046817195;0.115752116;-0.07177967;-0.22418047;-0.019946339;0.111461826;-0.10561621;0.060633272;-0.21577762;-0.21776131;0.020891663;0.023488289;-0.09479597;-0.10246738;0.32621324;0.13731249;0.26960146;0.1107466;-0.08269274;-0.2638207;0.023633229;0.23532166;0.17796035;-0.2040782;-0.008135359;0.01753241;-0.28424683;-0.089000635;-0.050454177;0.7267365;0.36637804;0.3001107;-0.36993673;-0.27045974;-0.21211281;-0.17441773;-0.2164056;-0.23032072;0.7338067;0.7658769;0.32260305;-0.7880999;-0.6925064;-0.8442393;-0.2944599;-0.27790016;-0.25537142;0.090970844;0.094414;-0.009554928;-0.003551033;0.0178445;-0.12353762;-0.16918856;-0.0037624585;-0.012802294;0.038778596;-0.05919366;-0.17604508;0.14461564;0.21764028;0.27232575;0.0061717704;0.14553913;-0.057996564;-0.4099482;-0.17727323;0.028409265;0.41153905;0.22195536;-0.025125954;-0.20459086;0.08739699;0.021078657;-0.11285685;-0.2939112;-0.24218224;-0.5262832;-0.53452027;-0.3091938;-0.20553136;-0.13692117;0.12185389;0.1764077;0.23466815;0.29535767;-0.3890977;-0.45186442;-0.3041765;-0.060960673;0.06689946;-0.20750125;-0.29886916;-0.26891527;-0.05805736;0.3189005;0.4062174;0.15912634;-0.21351272;-0.21453357;-0.24629675;-0.08946472;-0.36740887;-0.36922;0.41170862;0.32467726;0.11951741;0.27692536;0.17149644;-0.19895087;-0.30485654;-0.40967086;0.100373216;0.13456973;0.2657605;0.30801025;0.071843214;0.03808284;0.1602309;0.07586036;-0.056623064;0.02645606;0.03569528;0.050513312;0.015742691;-0.3318189;-0.30083784;-0.340428;-0.027143525;-0.011133806;-0.13541318;0.06144668;0.27447093;0.17300962;0.10813229;-0.09510453;0.022569312;0.43772435;0.27430257;0.45663813;-0.6927627;-0.543435;-0.4229888;-0.24822451;-0.4688081;-0.27141133;0.6496482;0.7422869;0.42057213;-0.34136197;-0.4474761;-0.24435027;-0.04599566;-0.0007366347;0.02552777;-0.07510419;-0.17557314;-0.1517267;0.012381988;0.12813783;0.15381211;0.119560696;0.040657967;0.124403425;-0.19261949;-0.3654774;-0.10596183;-0.17105028;-0.34451655;-0.055841625;-0.09062224;0.14542332;-0.0012723636;-0.10886511;-0.02099824;-0.13017586;-0.052675653;0.07270127;-0.02631478
13;-0.009039194;-0.45607847;-0.24815801;0.3227747;-0.11443403;-0.06752532;0.18845734;-0.1695737;-0.090563454;0.13506456;0.046154637;0.0167081;-0.19983248;0.115554534;0.14057042;-0.28007507;0.1986243;0.31278908;-0.01755452;-0.24961843;-0.048078448;0.037253406;-0.02835305;0.44602653;0.6542455;-0.8116456;-0.33433196;0.1465135;0.02516796;-0.18810713;-0.082767464;0.06716364;-0.08560023;0.30721885;0.34299693;0.7848983;1.0251182;-0.123835966;0.15316689;-0.34619617;-0.12614708;0.0033799198;-0.34424406;-0.21629024;-0.10336167;-0.48731458;-0.08231158;-0.2523158;-0.46749628;0.039023135;-0.05095196;-0.46957523;0.093176916;0.0054879617;-0.14734186;-0.13337892;-0.058328662;0.003572512;0.2264128;0.111522205;0.2059165;0.30886838;0.18526615;0.28510007;-0.74931026;-0.51293623;-0.1658992;0.16105917;0.077514976;0.08135429;0.14041485;0.37793934;0.27723202;0.075803064;0.07451786;-0.018139089;0.2390366;0.21203919;-0.13964571;0.46388432;0.6761282;0.26552963;-0.10473285;0.15831769;0.54647;-0.17520526;-0.123609856;0.32895908;-0.14408338;0.02420498;0.43700433;-0.43929327;-0.36027715;-0.46872318;-0.26670203;-0.17076229;-0.4906797;-0.27672282;0.03682639;-0.156965;-0.15675338;-0.38237458;-0.10876698;-0.16069;-0.3342717;-0.035083782;0.16676064;0.044518963;0.45167398;-0.24473952;0.256531;0.05444389;-0.16437131;0.49667716;0.3264494;-0.41189143;-0.048806384;0.016903719;-0.06403646;-0.5066577;-0.05572893;0.034847446;-0.37555882;-0.16701992;0.26559982;-0.00393581;0.23744525;0.22202724;0.03390458;-0.12005091;0.2339073;0.11078447;-0.33291087;0.08867522;-0.077978626;0.005987175;0.13836214;-0.24975064;-0.2801815;0.3763421;-0.20816112;-0.21974485;0.20909628;0.08674614;0.19839922;-0.013400075;0.042926155;-0.09401842;-0.22619516;-0.038937084;-0.08148617;0.19817214;0.18290032;0.20397432;-0.37023792;-0.52216506;-0.31025735;-0.17000332;-0.330578;-0.11576107;-0.0027988846;-0.06795925;-0.02349571;-0.7857842;-0.3695899;-0.1499335;-0.5980387;-0.32799807;-0.40027118;-0.034074143;-0.026789866;0.051663034;0.21014977;-0.14936209;-0.06255151;0.267544;-0.41055757;-0.28797352;0.54814297;0.12689216;0.15367939;0.017237488;0.23769301;-0.2727157;-0.054361425;0.21420914;-0.1803127;0.0043319906;0.4182632;0.0034205413;0.45563158;0.0937477;-0.33619213;0.30475608;0.07170994;-0.036025982;-0.3072412;-0.75943637;-0.4937356;-0.16213946;-0.094998844;-0.07800749;-0.05334736;-0.09477009;0.18477331;-0.061879255;-0.27500647;0.053631186;-0.52613395;-0.5037038;-0.16894872;-0.3487906;-0.59313804;-0.37426507;0.14252725;0.08421909;-0.07289695;0.02361274;-0.26108077;-0.10758225;-0.1322736;-0.058076058;-0.07447225;0.07149159;0.061802957;0.1304446;-0.3959532;0.13222484;0.29335988;-0.4330705;-0.10218252;0.08621311;0.22431219;0.029224172;0.20409766;-0.32604685;-0.369147;-0.35265595;-0.395137;-0.2995737;-0.35847318;-0.44034755;-0.30644986;-0.2571742;-0.15400901;-0.21418548;-0.36680123;0.2793667;0.44220147;0.14617775;0.9776113;1.015043;0.9179376;-0.25102413;0.27564865;0.39205655;-0.44729507;0.21340697;0.062356886;-0.45802474;0.036649976;0.13225852;0.023874491;-0.112865664;-0.5082809;0.3648184;0.15970173;-0.29069752;0.4784762;0.3890065;-0.29062694;0.05181376;-0.047512475;0.12841205;0.17433198;0.045049425;-0.0006302405;0.28802824;0.07088251;0.097401805;0.09669597;-0.02300389;0.056969468;0.08786959;-0.0424281;0.18579555;0.07945735;-0.33105016;0.10648348
14;0.0048783454;0.19377315;-0.08538195;-0.13571174;-0.047597624;0.061354805;-0.025375921;0.050688256;0.09509581;0.18892376;-0.024303231;0.18350814;0.078899644;-0.19682188;0.14611459;0.070269614;-0.24219908;-0.002649504;0.07720086;0.17160828;-0.104653336;0.070546515;0.2218869;-0.09056819;-0.10568426;0.17278625;-0.14433564;-0.17803663;0.20692144;0.07462593;0.19918714;-0.26118746;0.102240905;-0.2569636;-0.07041965;0.18870908;-0.050560974;-0.07731693;-0.08334885;-0.19119585;0.33620855;0.12453155;-0.16981071;0.38899168;0.01427006;-0.19914606;-0.13003463;-0.49637032;0.2803055;-0.3867027;-0.82114434;0.39410096;-0.20376414;-0.6698308;0.4132911;0.14935094;0.22151287;-0.004950355;0.40630624;0.2377347;-0.046986006;0.09699482;0.021570578;-0.3639383;-0.21482487;-0.238384;0.12928051;-0.83017737;-0.84978014;-0.31517282;0.14084232;-0.39050674;-0.24852332;0.08082434;-0.038361184;0.1745078;0.009657698;-0.23242329;0.11040744;0.09484614;-0.5611977;-0.021112762;0.011354072;-0.033759013;-0.059054002;0.102882475;0.031052688;-0.07412538;0.31558934;0.080691636;-0.0080132475;-0.11100314;-0.010056377;-0.06479875;-0.4399048;-0.10574234;0.040681407;-0.31514823;0.11853802;0.18373407;0.004674719;-0.030629085;0.020721281;-0.12897958;-0.06075051;0.019023187;-0.007958848;-0.12976219;0.24641629;0.5350915;-0.5461724;0.10645872;0.62255687;-0.707153;0.14366883;0.74001956;-0.46826226;0.033978406;0.24382493;-0.18046048;0.14843693;0.07902376;-0.32810256;0.066355646;0.20014293;-0.03283581;0.107214525;0.34830412;-0.061146777;-0.06023788;0.58993924;0.21165547;-0.40485644;0.25482813;-0.029730774;-0.37648773;-0.056819614;-0.3999369;-0.46759152;0.16364546;-0.03194717;-0.28085566;-0.09597539;-0.15289523;-0.03995483;-0.25074473;0.1667384;0.20860523;-0.46163332;0.017788982;0.18049304;-0.23967241;-0.13377649;0.20469065;-0.08066717;-0.1436684;0.23662929;-0.1834088;0.040174607;0.15360565;-0.15007547;-0.09937041;0.025405878;-0.08782242;-0.065659575;0.40081674;-0.20511377;-0.060707137;0.23855145;-0.20161317;-0.042866193;0.04620175;0.27509215;-0.6728511;0.23120913;0.4121067;-0.5770068;0.20706473;0.5906755;-0.34622636;-0.20559072;-0.2642809;-0.3165373;-0.22857034;-0.8142187;-0.59348273;-0.5242857;-0.13994852;-0.53517747;-0.21093862;-0.023021733;-0.31114745;0.1872428;0.30458227;-0.30794063;0.12806845;0.2773028;-0.39961693;-0.0328419;0.08151751;0.11456138;0.08208309;-0.45082915;0.100217536;-0.056964207;-0.3525469;0.09986757;0.21479754;-0.09958119;0.19852516;0.35930085;-0.49470553;-0.09671182;0.16808258;-0.24727073;-0.20160788;0.17477588;0.22687984;-0.23245935;-0.13700359;0.3922985;-0.12155061;-0.051132742;0.41301873;0.069635175;-0.09950389;0.21216826;-0.40372238;0.31774697;0.4706725;-0.9620757;0.3831981;0.71220607;-0.675754;0.10502107;-0.0260894;0.09199611;-0.08961418;-0.04022989;0.17041075;0.14405124;-0.16969937;-0.3440708;-0.14784734;0.2891228;-0.18146513;-0.024365317;0.25517425;-0.35911313;-0.056703888;0.3755305;-0.17210385;-0.07461789;0.049986396;-0.005911442;0.1463659;-0.035535406;0.049716864;0.04938211;-0.086020336;0.013443486;0.039036814;0.03240028;0.093400106;0.08058756;-0.15134332;-0.054339085;-0.016973455;-0.14428453;3.7104488e-05;0.06328812;0.0164557;-0.5427604;-0.48839054;0.102153294;-0.20704488;-0.6416297;0.20201156;0.15873471;-0.6745501;0.17686382;-0.6714791;0.33920392;0.5264665;-0.6658509;0.38563076;0.58771026;-0.5297291;0.15404491
15;0.00424574;-0.30194682;0.26087642;-0.12993772;-0.08468734;0.20399898;-0.2062242;-0.17916156;0.28557023;0.0003675373;0.100606546;-0.033843227;-0.06652443;0.015375885;-0.14360167;-0.0704695;0.042703357;-0.062336355;0.21379147;-0.14515696;0.059669886;0.09983423;-0.28190458;0.07300087;-0.002002985;0.0077968817;0.16807681;-0.10221423;0.047308523;-0.25086874;0.083702244;-0.10770197;-0.2814262;0.24448039;-0.22205654;-0.084468484;0.23310718;-0.15875487;-0.26046363;-0.41173223;-0.2217192;0.056446318;0.072150275;-0.7571179;-0.4029872;-0.21446256;0.315413;0.2139734;-0.489515;0.18896079;-0.024850124;-0.28256667;-0.15535904;-0.17289951;-0.025535418;-0.23111387;0.060837343;0.18862323;-0.16528487;0.07311974;-0.23576747;-0.10877993;0.06140062;-0.22870998;0.4624388;-0.111953594;-0.057501297;0.29411516;-0.0958076;-0.25628102;0.34072438;0.07440506;0.036327384;0.060664203;-0.01826355;-0.5485704;0.12576109;0.0012083866;-0.26305023;0.3135452;0.17918423;-0.16146937;0.08992027;-0.19016932;0.051284246;-0.09733797;-0.0046694716;0.13122584;-0.121865146;0.11273667;0.2629819;0.0818119;-0.28324986;0.13656309;-0.039457925;-0.14297618;0.38439748;0.07441946;0.19977953;0.2839036;-0.17854911;-0.112870336;0.060453515;-0.05383259;-0.13175596;0.10275845;-0.14417928;-0.11187381;0.22919048;0.29174963;0.4711674;-1.1654825;0.2053714;0.30232763;-0.80367845;0.17359725;0.26294738;-0.2516771;0.3462778;-0.042208135;-0.27301702;0.25416297;-0.07587854;-0.17156135;0.41273603;0.03649829;-0.066707864;-0.51791835;0.39950833;-0.17528397;-0.121401295;0.65000284;-0.47026062;0.03960091;0.3254167;-1.0320264;0.17255023;0.20374423;0.25044647;0.054130863;0.45632148;0.28653747;0.2891964;0.29616657;-0.46135092;0.38343287;-0.32105106;-0.09133836;-0.019390354;-0.43043473;-0.24353589;0.1374749;-0.3223191;-0.18188909;0.13217947;-0.29696116;-0.3378414;-0.13559704;-0.19910766;-0.17413318;0.08542415;-0.08229403;0.17933871;0.29344478;-0.08059771;-0.18165365;0.022449624;-0.30276835;-0.10316221;-0.008027489;-0.30262944;0.0693885;-0.2820634;0.18223293;0.0013931994;0.02638235;0.074517585;-0.14505722;0.45510876;0.022421123;-0.12185232;-0.5596315;-0.43896297;-0.47957596;0.12338593;-0.27257684;-0.43042442;-0.3919167;-0.14023529;0.036715575;0.37198725;0.06686128;-0.12973465;0.11893662;0.116318524;-0.2035266;0.27986428;-0.1926344;-0.23647048;0.058041953;-0.063032925;-0.2893732;-0.15358075;-0.203039;0.10298424;-0.2781642;0.041711036;0.049737412;-0.07271564;-0.2895003;-0.0022205806;-0.051220834;-0.2507695;0.21795265;0.2527365;-0.032798816;0.10861708;0.1789657;0.27862415;-0.59190494;0.10650606;0.22149423;-0.049581155;0.24496278;0.14799042;-0.08974127;-0.13164806;0.20189725;0.20019343;-0.015938997;-0.18817747;-0.23783559;0.053024214;-0.38413048;-0.1891471;0.074506186;-0.12847868;0.06863331;-0.06053515;-0.2004125;-0.03529057;0.05942426;0.09951234;-0.076657124;0.5211657;0.18810306;-0.48677915;0.4044133;0.063364975;-0.4003377;0.23455656;0.02015972;-0.1906104;0.07267218;-0.35360667;-0.03211824;-0.08376286;-0.3762127;0.2864007;-0.10921213;0.025152987;0.18914028;0.048930377;-0.10849605;0.16060473;-0.43787953;-0.15636644;0.21967661;-0.40942705;0.09074914;0.24520503;-1.0512339;-0.16336824;0.13700858;-0.62668353;0.4953259;0.2977724;-0.5861558;0.42614722;-0.11064417;-0.12026002;0.44333455;-0.5337765;0.3149222;0.76081145;-0.9625354;0.21367122;0.17483816;-0.690397
16;0.008512384;1.1013789;0.9039998;0.49658746;-0.037036862;0.10882709;0.22258127;-0.0977568;0.06800934;0.20883738;-0.10182116;-0.024146898;0.24452527;-0.0792684;-0.079297654;-0.21353321;0.2706745;0.2334425;0.028040154;0.20904139;-0.030541418;-0.18000425;0.02374197;0.32522187;0.13466555;-0.2523245;-0.12647669;0.1267844;0.064264275;0.21481349;-0.33511412;-0.026115239;0.25811055;0.11640053;-0.43559828;-0.25826657;-0.29163373;-0.029406803;-0.13080072;0.12415356;-0.01024874;0.108749025;0.51063937;-0.43903527;-0.28933957;-0.21037245;0.19371812;0.45841533;0.60214734;-0.0071591977;0.3290778;0.3343951;0.39302325;0.5607662;0.38135153;0.8796543;0.8520192;0.8793733;0.22051744;0.052885443;0.25728694;-0.61981463;-0.67441344;-0.6333647;0.63592434;0.8731272;0.2856114;-0.36784655;0.0032074829;-0.24347074;-0.005620906;0.096259005;0.31438616;0.44117934;0.40845865;0.3771332;0.11601477;0.2269027;0.32170197;0.51398045;0.5185193;0.65656805;-0.680322;-0.23057216;-0.5361509;0.23166704;0.34038165;-0.07453817;0.48279366;0.53132397;0.098289736;-0.3867331;-0.3792706;-0.24320333;0.19891435;0.01428295;-0.086286314;0.4466784;0.3552153;0.19558962;0.111982375;0.05773112;-0.10299298;0.18347159;0.36758596;0.43259367;-0.18185078;-0.26556793;-0.3191535;0.09445075;0.1827494;0.032647286;0.08946258;0.055397756;-0.08772594;-0.0025532963;-0.22969426;-0.1651835;-0.7462213;-0.3959743;-0.3997611;0.2986332;0.25095758;0.24000944;0.3696358;0.25408816;0.37060514;0.08670907;-0.17284454;0.13216965;-0.14641821;-0.11762079;0.13930835;-0.33080992;-0.2751871;-0.026256794;-0.39135996;0.57700115;0.05442281;-0.09084864;-0.07814617;-0.2825321;0.06267185;-0.13070053;-0.6669305;0.42854095;0.28038725;0.05807361;-0.35739732;-0.17526643;-0.25843728;-0.34047443;0.18185915;-0.3406544;0.18033339;0.17048697;-0.012682986;-0.011750991;-0.010315565;-0.111172386;-0.0465072;-0.009026486;-0.14624359;-0.27941358;-0.37754732;-0.28542838;-0.12414399;-0.08089008;-0.011487466;0.30901507;0.27422056;0.16890626;-0.1861946;-0.26374373;-0.012511929;0.19729675;-0.028242152;0.1158017;0.2662832;-0.02091661;-0.16818988;-0.09022275;-0.43284982;-0.49664396;0.14081031;0.07748138;-0.35459155;-0.13341121;0.06193976;0.11592951;0.23197359;0.3994472;0.46425828;0.29003382;0.25176182;0.19907896;-0.44589943;-0.41089085;-0.5815844;0.25195953;-0.029568812;-0.068760864;0.11894492;0.31491083;0.44251558;-0.10752775;0.102768615;0.10559;0.090429254;0.22952099;0.08828289;-0.122740746;0.182731;0.1992468;0.28613403;0.33517513;0.67078227;-0.052589968;-0.39496002;-0.17403048;0.25210106;-0.045025684;0.2806068;-0.083307855;-0.1236028;0.08252425;0.14074652;0.08590965;0.24017924;-0.0055336785;-0.04704067;-0.08818284;-0.05369228;-0.13875833;-0.17575319;-0.097464286;-0.37336746;-0.5680894;-0.20248766;-0.24414282;-0.2461951;-0.45593184;-0.26466575;0.009506332;-0.08705577;0.10727764;0.20672809;-0.18572287;-0.050008334;-0.2663886;-0.2530243;-0.1929698;-0.37068686;0.06357176;0.22481062;0.24667959;-0.2078356;-0.20534885;0.11031291;0.055883605;-0.08407915;-0.16395247;-0.40749133;-0.44767052;-0.25977787;-0.25168717;-0.044083785;0.14069094;0.5156212;0.2327725;0.32313904;-0.2205592;-0.013662548;-0.010463992;0.10935185;0.18079257;0.37853825;-0.020110762;-0.039544526;-0.0012638649;0.1359805;0.23241715;0.035807405;-0.08793211;0.10810813;-0.053657215;-0.20721243;-0.17610805;-0.067216955
17;-0.00014917388;-1.0877799;-0.8486826;-0.62328696;-0.8148425;-0.6307294;-0.99123996;-0.2129464;-0.088468164;-0.3054659;0.25363955;0.3052728;0.04583221;0.034153424;0.18465894;0.024198886;-0.07876821;0.1666325;0.12918869;-0.069931656;0.29008713;0.3802931;-0.010496804;0.027547453;-0.06705985;-0.3071726;-0.13643804;-0.18772112;0.23134884;0.80034435;0.8618968;0.06561616;0.72993296;0.3609008;-0.670111;-0.4862905;-0.9422455;0.19145507;-0.28972152;0.1809967;0.1232928;-0.32440704;-0.14846255;-0.21553293;-0.42676747;-0.47925586;-0.72640973;-0.3728937;-0.1928697;-0.07908206;-0.009527753;-0.8378615;-0.16000691;0.08313902;-0.38217416;-0.017313277;-0.38874334;-0.42356393;0.44748843;0.19071177;0.2730183;0.19616325;0.15294828;0.3321527;-0.12712842;0.004960468;0.02463453;0.076612964;0.20712934;-0.1589315;-0.14298885;0.32474163;0.26961172;-0.4322495;-0.41168806;-0.21800901;-0.2486393;-0.3049663;-0.15193185;0.1550334;0.28800425;0.24713746;-0.052610442;0.30223078;0.23351781;-0.06772621;0.345626;0.35028264;-0.4602689;-0.11036369;0.07393914;0.30402973;0.5090947;0.14087442;0.12771475;0.39682543;0.24740183;-0.44457793;-0.07343673;-0.11789368;-0.08214124;0.04373431;0.036834992;-0.10155761;-0.26847768;-0.3591277;0.2520854;0.30383793;0.03697017;0.086301975;0.054661307;-0.037774052;-0.32945055;-0.30515227;-0.37089428;-0.114180855;0.051642574;-0.0058170245;0.32093894;0.38781598;0.6778761;-0.616938;-0.09903303;0.10281028;-0.38232788;-0.25083944;-0.2647433;0.28800103;0.054952573;0.42228997;0.42317206;0.08823866;0.28796902;0.16008492;-0.08216424;-0.10863124;0.056319114;0.4625422;0.5498358;0.09189322;0.58645654;0.4474237;0.09149451;0.45301905;0.18299192;0.3321496;0.21198894;-0.039679248;0.2488633;0.26516116;0.12649865;0.41020837;0.7003813;0.73260194;0.12738352;0.36452913;0.48218793;-0.29256746;-0.031622387;-0.08252783;-0.3402285;-0.30390355;-0.34951964;0.08460273;0.15273444;0.3158559;-0.15933022;-0.061976805;0.05488537;-0.030701263;-0.16237311;0.03710052;-0.11428999;0.11472801;0.21631289;-0.028969992;-0.062094733;-0.15818016;-0.178987;0.055778783;0.058658693;-0.23024565;-0.55314785;0.45003042;-0.007239066;-0.7794275;-0.291092;0.23236105;-0.4913512;-0.20409237;0.14838262;-0.17297955;-0.358311;-0.12206235;-0.18693165;-0.19978642;0.07511111;-0.044409644;-0.3344141;0.27148032;0.12389887;0.22769059;-0.0666322;-0.19672868;-0.22502539;-0.0063002827;0.01856228;-0.040874667;-0.026956774;-0.050536595;0.11517132;0.0050339955;0.0064848457;-0.112151176;0.16242316;0.1043644;0.3287631;0.37731963;0.3384562;0.061382476;-0.24374884;-0.11519537;-0.09670246;-0.109514005;-0.118458204;-0.112993345;-0.10679929;-0.4015829;-0.59653234;-0.0236243;0.20333844;-0.06335829;0.14372227;0.23184392;0.15206896;-0.042887997;0.002836538;-0.042946525;0.0020683997;0.21696097;0.11594989;-0.21831195;0.09503812;0.22266838;-0.00084863964;0.09144999;0.019925984;0.0870464;0.21322207;0.34849787;0.1286591;0.04778037;0.31104293;0.06170131;-0.3450006;-0.46258155;0.10240419;0.080625825;0.21205026;0.023416333;0.16579801;0.2938672;0.3277606;0.46008977;0.18009995;-0.22865064;-0.07166268;0.026764033;-0.4559261;-0.17794995;-0.004399913;-0.3091817;0.060257502;0.1452829;0.024146805;-0.07201638;-0.31279793;-0.024960114;0.042796094;0.015869366;-0.22701032;-0.12068047;0.19412611;-0.18270189;-0.24043524;-0.14778432;0.25675914;0.3823672;0.15896325
18;0.0078312475;-0.062392313;0.28083932;0.06578692;0.2567042;0.21393354;-0.29265988;0.5564657;0.02333755;-0.34693232;-0.18187156;-0.06625994;-0.026185649;-0.038715143;-0.09026982;0.19518262;-0.04710191;-0.09161276;0.34658444;0.08042904;0.05276843;0.06537474;-0.0044625136;-0.30880466;0.17112349;-0.43913987;0.22742113;0.32604662;-0.21399194;-0.093242146;0.094141774;-0.06692869;-0.08992923;-0.17864239;0.21876702;0.14365262;-0.11476098;-0.18021575;-0.42437524;-0.19679402;-0.63045675;-0.7167014;-0.045589853;-0.5804937;0.0149957575;0.47492224;-0.17506075;0.6269467;0.2285918;-0.024635738;-0.041408557;-0.45559514;-0.034434687;-0.15173365;-0.110160396;0.19070925;0.20470347;0.027938593;0.5491088;0.20400298;-0.44973862;0.451703;-0.30609637;-0.49919596;-0.5287376;-0.0026022943;-0.397044;-0.22229402;-0.11297922;-0.27690452;0.04523279;0.08256385;0.08696276;0.4776584;0.4336383;0.056272034;0.4929272;0.13926588;-0.066138305;0.24782597;-0.16870189;0.24101701;0.14196399;-0.16565113;-0.19581327;-0.029796487;-0.1023175;0.1274662;0.033183664;0.074171044;-0.21753949;0.19684102;0.1259521;0.23742561;-0.12894736;-0.13498488;0.23725636;0.14530432;0.060097653;0.3439636;-0.3273216;0.19608118;0.28553253;0.112026386;0.37894085;-0.15264629;0.41829032;-0.06331629;-0.497192;0.16034095;-0.045763925;-0.49336103;0.098370105;-0.7231079;-0.2229051;-0.14291544;-0.36975154;0.31422794;-0.6614556;-0.014265519;0.09101073;-0.2428726;0.057574354;0.3179803;0.18273747;0.17245011;0.11043587;-0.07677836;0.5668173;0.3196921;0.6097469;0.22607456;-0.174957;0.15929358;-0.549181;0.045887366;-0.26298422;-0.041589934;0.17617139;-0.67063826;-0.28086668;0.15052512;-0.90558517;-0.52872175;0.35065407;0.3604597;0.07930154;-0.2035182;0.26652247;-0.22344719;-0.35988614;-0.31620196;-0.11378662;-0.20328031;-0.2008089;-0.17799535;-0.02920996;0.06374009;0.10024288;0.06570049;0.012894548;0.11026397;-0.10319127;0.3528749;-0.13865356;0.027344473;-0.10788915;-0.26754987;-0.014929083;-0.2129057;0.03902958;0.22162755;-0.038670752;-0.27742314;-0.10124056;-0.1852002;-0.025612026;0.38223574;-0.025083037;0.009791268;0.06881775;0.01793637;0.06813676;-0.3174235;0.18300396;-0.25870225;-0.6497822;0.052866336;-0.47695068;-0.01818997;0.36065504;-0.0013382446;-0.035602983;0.5907886;-0.20330109;-0.051863085;0.34558934;-0.54342973;-0.074017;0.19481072;-0.34162292;0.015584709;-0.21621615;0.18861389;0.11478486;0.2995332;0.07229037;-0.16077434;-0.41130227;0.17685005;0.41368866;0.04825008;0.41579565;-0.08723577;0.46228868;0.36729223;-0.17209639;0.22387196;0.27095634;-0.23669544;0.101779215;-0.052401192;0.07545168;-0.18923391;-0.07397723;0.11916424;0.3584288;0.06060817;-0.09338885;0.0679154;-0.33885315;0.0028063604;-0.4394207;-0.38576245;0.11776183;0.12915747;-0.14340377;-0.062056553;-0.05287857;0.08228404;0.23337737;0.21760724;0.28275323;0.09219968;0.62649053;0.11209507;-0.24458556;0.450414;-0.41017112;-0.5485549;-0.3037959;-0.5131727;-0.10043372;0.18624412;0.26934603;-0.3796701;0.10160695;-0.012891742;-0.2627035;0.22439215;-0.3272653;0.11739656;-0.36742288;-0.359053;0.13611478;-0.7960526;0.11389555;0.43782842;0.01633166;0.5702231;0.54434216;-0.19921626;-0.6549516;-0.30836183;0.05845125;0.24662289;0.26889896;0.42360693;-0.008577159;-0.12207678;0.047662377;0.3035054;0.21853831;0.50614697;0.03854757;-0.30351415;0.0073326183;-0.44250515;-0.12483223
19;0.007506063;0.6041883;0.23398498;0.51062244;0.010766918;0.034789704;0.46384564;0.1696642;0.050810277;0.28275973;0.40916854;0.116344824;0.025582438;0.054419976;0.054072328;-0.112628035;-0.04700649;-0.22731236;-0.033835854;0.22249964;0.16373146;-0.30517676;0.094248526;0.22312826;0.0395245;-0.19844462;-0.041691314;0.07623173;-0.47839788;0.12760623;0.4094546;-0.7501829;-0.107735015;0.21139516;-0.5529521;-0.25481352;0.40650818;0.07541552;-0.6679813;0.03498243;-0.3817439;-0.81804967;-0.12262311;-0.15022528;-0.54444027;-0.2751587;-0.44212034;-0.24910426;-0.23626149;-0.9563539;-0.5067988;-0.7599036;-0.17925774;0.00047068263;-0.62814385;-0.08774694;-0.20414294;-0.0858882;0.18448526;0.099585906;0.2094573;0.06305875;-0.04534417;-0.10459118;-0.82010734;-0.40604648;0.34036723;-1.0087719;-0.85106575;0.060031902;-0.12066254;-0.045285136;0.08674191;0.4417072;0.020262685;-0.17936288;0.368191;-0.15299661;-0.5528188;0.37248793;-0.39111766;-0.5580794;-0.19309978;-0.13144022;-0.10738323;-0.2638893;0.10357415;0.18069182;-0.09915701;0.11784255;0.6290749;-0.016717957;-0.047619876;-0.087820224;-0.051891558;-0.0071419547;0.083553866;-0.16293055;-0.13482904;0.07717426;0.03940939;0.017780332;0.1804265;0.1581419;-0.07128417;0.1115147;-0.16123222;0.044455647;0.008632228;-0.19971012;0.03696473;-0.029093215;0.026497073;-0.19461867;-0.22559069;0.040682517;0.07240508;-0.28438136;-0.7347464;-0.31375742;0.6428083;-0.6764221;-0.44655955;0.70401347;-0.338317;-0.14372523;0.66469103;0.3728598;0.15908395;0.15410753;0.41484973;0.4877318;0.011091563;0.3260305;0.11393833;0.092372485;0.30940914;0.25334522;-0.27602312;0.31484738;0.40667936;-0.013189926;0.32641587;0.40510038;0.1513314;-0.11210842;-0.23037823;-0.20398146;-0.43840352;-0.47574243;-0.18084319;-0.35879508;-0.32523075;-0.2573654;0.46563306;0.12351829;-0.22944613;0.2075162;-0.16704993;-0.11603234;0.19514424;-0.1797633;-0.13049757;0.24102165;-0.15981805;-0.1412613;0.10640723;0.017707773;-0.030030623;0.13941827;-0.06974986;-0.008060972;-0.329713;-0.34323674;0.32827193;-0.23107532;-0.69372815;0.08380946;-0.049691603;-0.27173766;0.04409055;-0.0833516;-0.26963916;0.30719513;0.009058361;-0.66120327;-0.0062021133;0.04366613;-0.74476624;-0.44824862;-0.15974545;-0.46549362;-0.1119784;0.21730663;-0.32036033;-0.033512473;0.34325126;-0.20911409;-0.2794076;-0.33546126;-0.028828548;0.43528983;-0.2419145;-0.017005421;0.44786143;-0.17908572;-0.30664626;0.11783607;0.07024362;0.020546777;0.38887027;-0.27236804;-0.4045029;-0.037060767;-0.011404319;-0.100504965;0.04635344;-0.22130112;-0.14866872;-0.03036674;-0.061963074;0.11126722;0.30067435;-0.28149778;0.44878912;0.38603026;-0.100251056;-0.2568414;0.041205693;0.11702819;-0.31781304;-0.36304128;0.113911666;-0.15526377;-0.27819058;0.10275456;-0.079961725;-0.22580554;0.041580707;0.11574831;0.24572876;0.013948141;0.3778254;0.4183256;0.66285115;-0.2175371;-0.5904002;0.7677873;-0.16684541;-0.5686739;0.5395798;-0.09449299;-0.59338886;-0.2386155;-0.032933358;0.32753855;0.019461019;0.01772587;0.3056336;-0.16000175;-0.05266342;0.11863896;0.1811822;-0.16769482;0.12727562;0.117434114;-0.2618432;-0.034994874;0.024122884;-0.102927856;0.15372586;-0.02259243;0.037738744;0.51502764;0.1300206;0.05825281;0.869144;0.1768159;0.021816138;0.78076637;-0.042695776;-0.10347304;0.07339556;0.019190183;-0.03942979;-0.000109761124;-0.031688623;0.17468092;0.026841048
20;0.003784775;0.34154004;-0.07963975;-0.6088111;-0.17234088;-0.39940387;-0.18051149;-0.06726244;0.062200017;0.07706901;-0.54413813;-0.32950056;0.16866806;-0.21422236;0.13431963;0.37160054;-0.0715071;0.036227737;0.056306645;-0.3593019;-0.27889854;0.4052101;-0.65853536;0.37067434;0.26297167;0.1584404;0.36536267;-0.12200141;-0.036039326;0.16449709;0.09757831;0.39360768;0.0054279007;-0.3179982;-0.09831398;-0.4348433;-0.5581996;0.19875573;0.15652746;0.29311177;0.44890186;0.11934832;0.1804411;0.31177437;0.2786669;-0.1793981;0.13842961;-0.5023952;-0.3693491;-0.21694124;-0.31436872;-0.2561778;-0.20437111;-0.38558826;-0.14217213;0.21072823;-0.07237338;0.20337778;-0.12818879;0.056123722;0.04677262;0.21415241;-0.04002356;-0.31941873;0.2206412;-0.19949265;0.026010191;0.16588688;-0.08757271;0.73014987;0.6878701;0.042242415;-0.2609219;-0.03148392;-0.48827735;-0.48466542;-0.23832966;-0.22623375;0.07880744;0.12637453;0.30691624;0.5367395;-0.11164434;0.35092118;-0.07786337;0.36905226;0.3007105;-0.09264255;0.33850598;0.031115469;-0.23410074;-0.10832291;-0.05886065;0.045078866;-0.09996181;-0.020163357;0.12843087;-0.20981638;-0.12941416;0.09971388;0.2869595;-0.41938347;-0.24169478;0.027536472;-0.5785849;0.16963309;0.04142621;-0.1757279;0.25642565;-0.50199926;0.06410347;0.13752846;0.029948791;0.3659125;0.10158562;0.0870185;0.016416198;-0.1203275;0.4451493;0.35485727;-0.23129255;-0.10034647;-0.37323314;-0.19278117;-0.35945925;0.0063209687;-0.19161782;0.088661134;-0.5447959;-0.35608074;-0.75585884;-0.26033127;0.11635717;-0.26345617;0.26772496;0.2801395;-0.23808922;-0.30870003;0.067443855;-0.23626576;-0.20496075;-0.04711271;-0.12125973;-0.25626072;-0.03983544;0.06147718;0.3216285;0.21224579;0.24723074;0.12719284;-0.18994083;0.31208363;0.07928836;-0.34604752;0.111370854;0.09423962;0.11073021;-0.0649246;-0.1739012;-0.27516934;0.14354472;-0.29929382;-0.28717408;0.5341763;0.30747318;0.04450705;0.27926862;-0.06924067;-0.24868163;-0.09085719;-0.4314828;-0.29104576;-0.57109165;0.24843097;0.39072922;0.30012023;0.33161095;-0.09564266;0.21034026;-0.18176469;-0.28450447;-0.13132465;-0.034052778;-0.015043133;0.016455801;0.1438444;0.24479195;0.020651119;0.06133462;0.057469394;-0.44476902;0.053730126;0.65657496;0.19480033;0.39054978;0.34275308;0.23973899;-0.036914192;-0.57250243;0.5537858;-0.15275285;-0.4320025;-0.5154111;-0.34618786;-0.23242177;-0.31714335;0.07678669;0.19627723;0.007067182;0.034281664;-0.09171438;-0.14120133;-0.24672616;0.008307284;-0.35792613;-0.09046918;0.20787974;0.060574204;0.15124655;-0.034911163;0.12562993;-0.25795966;-0.11064087;-0.0323145;-0.22608273;0.10874538;0.33949628;-0.3650579;-0.2587942;-0.25067517;-0.4044832;0.2655764;-0.39442655;0.250696;0.3453812;0.14392832;0.009166288;0.009952147;0.119645;0.18828088;-0.036191843;0.37514836;-0.028516736;0.2050578;-0.6043548;-0.24572325;0.059957445;0.14546475;0.3023232;0.56470513;0.3551857;0.45915818;0.14244317;0.36021483;-0.25647974;-0.58780813;-0.20001559;-0.5307533;0.07384662;-0.41194183;0.048218768;0.5325842;-0.2597317;0.15244149;0.42671958;-0.08410368;0.17489679;-0.17729126;-0.010066229;-0.18276177;-0.010597599;0.3931778;0.15624668;-0.24423821;0.19582702;-0.34583196;0.18614899;-0.2474101;-0.011872506;0.40596455;-0.036851507;0.014678282;0.07303016;-0.15219042;0.31289235;-0.05339503;0.09155622;0.017262857;-0.21001825
21;-0.0028304697;-0.3448936;-0.530862;0.08602613;-0.2188712;-0.61469454;-0.22825219;0.07312884;-0.11516223;0.051418047;-0.2558263;0.13871066;0.3713356;-0.28577492;0.08524425;0.36806628;-0.39145675;-0.1287225;0.09680818;-0.6459686;-0.040175952;0.6906807;-0.41863135;-0.4433344;0.5570208;-0.14086212;-0.3152065;-0.11792982;0.08575235;-0.22132076;-0.4932044;0.51427174;0.13353403;-0.1751312;-0.032514665;0.21680047;-0.05166559;0.1643992;0.22404478;-0.25047702;0.5233357;0.36102748;-0.039805345;0.33753404;0.32893488;0.36462656;0.48206055;0.5699407;0.28345677;0.17899607;0.44019464;0.20117125;0.31223816;0.47777307;0.4232472;0.045664385;-0.07235093;-0.039076418;-0.08462058;-0.12636991;-0.16203561;0.06561858;-0.14725398;-0.042359356;-0.00786232;-0.4682188;-0.49494737;-0.025150282;-0.68739694;-0.611464;-0.0346549;-0.3508487;-0.25429827;0.2940369;0.39859343;0.11728569;0.074983306;0.45926175;0.12141046;0.032538746;0.116627865;0.012538461;0.26820037;0.33103836;0.2651965;0.12959732;-0.08399885;-0.048168994;0.034320164;-0.40338326;-0.40615213;-0.13309674;-0.074390486;0.15036061;-0.23986763;-0.15467833;-0.2178508;-0.28822875;-0.13523732;-0.094133794;-0.0048280335;-0.17917512;0.11189678;0.09107632;-0.34143424;-0.083285116;0.14459708;-0.17858438;0.02894615;-0.28813526;0.2863809;0.0029100152;-0.08075377;0.2694962;0.17532833;-0.13721536;-0.046004012;0.0047334605;0.13212155;-0.36614022;0.23578264;0.15992866;-0.5488825;0.24680686;0.31344864;-0.6341398;-0.2251582;-0.5448167;0.24792357;0.57644457;-0.75619966;-0.19457549;0.086452276;-0.24298233;-0.030603057;0.02060953;-0.11531185;0.36021712;0.09045762;-0.41027677;-0.09282934;0.15331608;0.18090586;-0.13544935;-0.042752277;0.033164747;-0.18256932;0.19929224;-0.2485862;-0.3713211;-0.0062923734;-0.14369074;-0.32684875;-0.14375837;0.07038877;-0.08995844;0.070289396;0.15597335;-0.14358376;0.1608587;0.0033661572;-0.33248097;-0.17658259;0.11230601;-0.19586469;-0.2355079;0.27109036;-0.19350015;-0.030193498;0.27664563;-0.14618617;-0.10903784;0.9897143;0.076335065;-0.73163635;0.6003977;0.36955038;-0.5938464;-0.068665445;0.46169072;0.031402454;-0.05344644;0.21729614;0.0033689057;0.20967562;0.39663988;-0.18340793;-0.20101158;0.121211715;0.022341913;0.3432231;0.121544085;-0.3072245;0.08699476;0.0481341;0.06950989;-0.17106329;-0.10656913;0.13841254;0.30608347;-0.48928255;-0.11996181;0.6383907;-0.31769198;-0.2146779;0.5719662;-0.12215305;-0.38551795;0.4681602;-0.35278457;-0.16239704;0.41969392;-0.25453407;-0.33548415;0.091066554;-0.17144455;0.02233351;0.084935516;-0.33220962;-0.11079336;0.22240071;-0.20976862;-0.05050079;0.18725394;-0.32829705;0.123195454;-0.038730364;0.1842693;-0.09184003;-0.2874073;0.03731487;0.09812324;-0.1795194;0.025889406;0.10171776;-0.0735352;0.044377998;0.08907301;-0.08950971;-0.31789157;0.012340902;-0.15751211;-0.27556548;-0.008691533;-0.091108404;0.42141408;0.5908807;-0.26471403;0.06729925;0.33274275;-0.6294675;-0.3194127;-0.10717598;0.16499807;-0.10395276;-0.03071284;-0.102805965;-0.21831669;0.25031686;-0.1792521;-0.33473554;0.23525703;-0.14813522;-0.29502797;0.08290595;-0.46342996;-0.26589864;0.085396186;-0.16100992;-0.052238684;0.25287023;0.017663201;-0.06987756;-0.097937286;-0.15589075;0.20757367;-0.08007078;0.18178557;0.38767833;0.16105415;0.073461734;-0.078813426;0.023755947;0.13602787;0.00059592235;0.0021418785;0.04933921;0.061108995;-0.11954113
22;0.011832448;0.021663114;-0.0426742;-0.017014066;-0.03136166;-0.068638034;-0.03445348;0.07882627;0.045791;-0.048798535;-0.3742627;-0.5679977;-0.5811183;0.25027385;0.15989804;-0.15687132;0.37565643;0.47117466;0.2574749;0.3880555;-0.24657401;-0.6558693;0.19593139;0.5200529;-0.25663733;-0.3166076;0.5901951;0.87728584;-0.22140928;-0.23941736;-0.29425436;-0.07914177;0.12980713;-0.117727205;-0.15156543;0.03179961;-0.08904132;0.07319771;0.024327992;0.26812667;-0.2113885;-0.1707984;0.11960552;-0.13387164;-0.2032851;0.06094965;-0.04059283;0.19329457;-0.09465949;-0.30159736;-0.114740476;-0.14035586;0.16055588;-0.16719297;-0.48522696;0.508449;0.30699033;0.51175636;0.040543787;-0.22952388;-0.21610701;-0.4239921;-0.5462876;-0.6844964;0.114953704;0.02894988;-0.055163044;-0.19718924;0.0039321696;0.04319096;0.10637208;0.15959975;0.063125506;0.030289428;0.15523061;-0.013841183;0.04910325;-0.11989895;-0.08056184;0.14887202;0.07295271;-0.22457586;0.11132399;-0.004864164;-0.1315689;0.22602968;0.23991755;0.14301722;-0.40824765;-0.07666661;-0.19350596;-0.7256571;-0.6624568;-0.5105811;-0.24265395;-0.30246454;-0.33848897;0.1482481;0.030598274;-0.10083119;0.16734011;0.1049214;0.18532896;-0.25355566;-0.092080645;-0.10714941;-0.14843965;-0.17589551;-0.20019585;0.15214102;-0.24762297;-0.2660894;0.26611495;0.21470496;0.031869598;0.06274371;0.06680966;0.1253349;0.35147125;0.16543125;0.35397476;-0.091764964;-0.140191;0.28857213;-0.35589808;-0.60991544;-0.5102865;-0.1592623;-0.08351723;0.1267246;-0.1471723;-0.24090339;0.13494875;0.30206174;0.07507387;-0.1146662;0.17096865;0.3487673;-0.17090523;0.18944521;0.14792109;0.07600065;0.20608714;-0.20013285;-0.021687437;0.012237639;0.0040316293;-0.035482083;0.07468692;0.12519185;-0.07289052;0.088366546;0.09965477;0.31716564;0.2175553;0.29084074;0.527652;0.0863369;0.30967474;0.2403944;-0.08626083;-0.16642578;-0.40352666;0.16178916;0.56709284;0.6808522;-0.24380875;0.06719406;0.22845021;-0.6555057;-0.71406853;-0.59281296;-0.2440636;0.3506297;0.2960414;-0.65493405;-0.71683425;-0.18002442;0.35276356;0.027434222;-0.15756078;0.13521813;0.19198576;0.13460907;-0.09832904;-0.018702233;0.11761942;0.05484058;-0.057498507;0.0950614;0.13759646;0.08726764;0.28950042;0.40039682;0.47460574;0.27033362;-0.06897961;0.05897393;-0.36411583;-0.014210648;0.30397278;-0.17460589;-0.12099499;0.090642795;0.28848904;-0.037091102;-0.19263065;-0.096080326;0.023319596;0.018561091;-0.13777277;-0.06254582;0.05065332;-0.0038758765;-0.7497422;-0.49631572;-0.18148495;0.090771124;-0.008122045;0.24189259;-0.051496234;-0.030444942;0.020770185;0.0070656454;-0.1331392;-0.16463582;-0.18124089;0.07501155;0.15013926;-0.21439958;-0.5004214;-0.3510653;0.21171945;0.1990323;-0.04763993;0.14480941;0.06353245;0.018181091;-0.070873596;0.0018346413;-0.15295778;-0.3232865;-0.034926057;0.044119623;-0.32965952;-0.13098457;-0.13941312;-0.051261317;0.16545391;-0.020353297;-0.37829122;-0.24432352;-0.38764212;0.12062913;-0.13634352;-0.014749888;-0.11988749;-0.16916317;-0.0614221;-0.084510095;0.051613115;0.18479587;-0.28608772;-0.46196607;-0.6947834;-0.1253824;-0.23072724;-0.35803345;0.56264025;0.6341753;0.29058427;0.04240336;0.3293296;0.20304787;-0.25374871;-0.26982692;-0.10788718;0.1315732;-0.2815509;-0.06640852;0.075743675;0.18178472;0.12563312;-0.05313796;-0.0946385;-0.01907091;0.079373226;0.03270071;-0.024032252
23;0.0045584072;0.26160923;0.28939164;0.07117061;0.3778716;0.020743212;-0.08668651;0.04726064;0.07317008;0.08694838;0.743546;0.65493584;0.388078;0.3685204;-0.23238906;-0.75234324;-0.45996824;-0.8747297;-0.76735556;-0.31891316;0.27496824;0.20392433;0.39604583;0.2085504;-0.36134088;-0.22469653;-0.31463444;-0.1916367;-0.1642773;-0.22528732;-0.06434913;0.060968857;0.025823839;0.17966925;-0.3851655;-0.24175927;-0.3102141;0.057146937;0.07114158;-0.08096146;0.03768995;-0.4361343;0.063370764;0.01593925;0.0039755744;0.38312465;0.10729286;0.15033011;0.26577738;0.027959062;0.018851135;-0.042270083;0.0660367;0.07047499;0.13347816;0.32471886;-0.27681822;-0.27001348;0.1592283;-0.12064965;0.04433173;0.048802152;-0.18930984;-0.039549205;-0.167324;-0.0020095764;-0.31431273;-0.046414066;-0.26978368;-0.04415963;-0.15299147;-0.07349915;0.1629405;0.49433938;0.14422376;0.23110259;0.28947645;0.14820237;-0.114991024;0.07030001;-0.003458704;-0.010897349;0.34355703;-0.12648164;-0.13997693;-0.25012553;-0.24716592;0.37280443;-0.2696942;0.09104287;0.37823913;-0.13083044;-0.3087091;-0.104571566;-0.5064457;-0.110075705;0.041570917;0.10144522;0.15214176;-0.56556773;-0.19953899;-0.41518703;0.21909502;-0.36012983;0.2179299;0.3694533;0.22258231;0.34557047;-0.17017749;-0.11369623;0.32931307;-0.16825952;0.1848645;-0.030153308;-0.56924665;0.050459087;-0.3480249;-0.17529884;0.10206405;-0.16123284;-0.3202948;-0.28849375;-0.445891;0.01922102;-0.31440884;-0.37112197;0.10723307;-0.21757607;-0.01104179;0.12596634;-0.043598674;0.29449087;0.114620574;0.12948626;0.18444791;-0.14887771;-0.098681144;-0.47972602;-0.075000055;-0.49066672;-0.53408545;0.24280311;-0.48198086;-0.04283267;0.50072974;0.2397878;0.082411245;0.0056264885;0.18306562;-0.2099227;0.024554737;-0.3284895;-0.21660145;0.0048607467;0.38229653;0.15035772;0.06597167;0.09427682;-0.1801883;-0.034640323;-0.3326357;-0.2136524;0.071193315;-0.52267563;-0.63103133;-0.14112265;-0.4468987;-0.3320623;0.2850922;-0.09417441;0.32497078;1.0677698;0.19925918;0.17493375;-0.12521017;0.041170854;-0.38385898;-0.009764687;-0.06274035;-0.53089124;-0.051347762;-0.009610629;0.19091238;0.17149048;-0.0498575;0.08977209;-0.676138;0.17702767;-0.5092499;0.2567476;0.3415186;-0.06219523;-0.40655285;-0.29431504;-0.48425955;-0.63739866;-0.59652376;-0.81117386;0.23817162;-0.30628875;-0.23069163;-0.069780484;-0.14927195;-0.17858453;0.400774;0.14929318;0.35570428;-0.0608549;-0.18114088;-0.34849453;0.31417805;-0.1655205;-0.25164953;0.05632869;-0.3608934;-0.5114865;-0.14297113;-0.031755812;-0.18919395;-0.19080856;-0.214268;-0.2968138;0.17694539;-0.14508006;0.11413205;0.16709843;-0.14325862;-0.03240877;0.13946049;-0.13610882;-0.18618532;0.10512473;0.35145074;0.30773517;-0.022468915;-0.020948622;-0.46684888;-0.76113087;0.03629064;-0.25334898;-0.15514688;-0.07707816;0.03279317;-0.19003278;0.48136884;-0.01169373;-0.063951485;0.014921845;-0.024121959;-0.09905329;-0.16816458;-0.2686347;-0.21060471;-0.22912298;-0.23733543;0.327407;-0.052517515;0.25442255;0.18793659;0.31530026;-0.08868992;-0.17567448;0.12279872;-0.14444083;0.022053331;0.22754698;0.25148374;0.06659311;0.34980357;-0.20388648;-0.6957432;0.2653833;-0.07224778;-0.11823585;0.20619702;0.15130644;-0.11375669;0.13904516;-0.010188396;-0.233851;-0.024963241;0.08393761;0.014166858;-0.0046723774;-0.094940275;-0.17559251;0.09190659;-0.06501333;0.102672234
24;0.0027669037;0.15007406;0.03857705;0.13838871;0.1706483;0.04521341;-0.1022627;-0.13943756;0.057464886;0.042677887;-0.1668243;0.46048188;0.3680301;-0.06627992;0.30887976;0.57511145;-0.41374254;-0.2607275;0.018117992;-0.3068171;0.5902732;0.35864508;-0.71498555;0.07233155;0.35265556;-0.102941796;-0.42613134;-0.16397291;0.0144280875;-0.22817114;0.005098767;0.32068226;0.13097972;0.30640167;0.16900258;0.051525254;0.3320174;-0.34309018;-0.17390956;-0.20872767;-0.49992475;-0.2197678;-0.36909738;0.12660317;-0.031007376;0.03386665;0.073085144;0.036474828;0.21319601;-0.09264112;-0.085346214;0.14085634;-0.13804021;-0.07029868;0.20615526;0.13768797;0.23685671;0.35829416;-0.17824282;-0.02241273;0.018652307;-0.19820324;0.03102367;0.044072334;0.19419485;0.096816726;0.10166716;0.14223385;0.1508124;0.1751778;-0.4850074;-0.22653453;-0.01988641;0.00022272176;0.12387167;0.034707136;-0.06390571;-0.31451583;-0.16929331;-0.040332496;-0.06665035;0.10182437;-0.0074062026;-0.27356878;-0.29542282;0.2758578;0.21065298;-0.089692734;0.90380806;0.7182164;0.4486892;-0.1840918;0.026308589;0.11122945;-0.07970454;0.18802696;0.38727835;0.020400943;0.12102238;0.3927174;0.051985685;-0.41357088;-0.7139482;0.6106872;0.115724444;-0.23308083;0.5434089;0.43174148;-0.025630653;-0.0626763;0.54101396;0.3895518;-0.17453478;0.27131924;0.36851427;-0.22421473;-0.29511482;-0.059188753;0.16524135;0.28081626;0.033226978;0.02117863;0.06299877;0.032006063;0.008601394;-0.05110977;0.10219307;0.20024797;0.1382639;0.10202748;0.17966114;-0.09675331;-0.13170792;0.055079103;-0.05453091;0.030264694;-0.02437954;-0.34857392;0.09927283;-0.24189262;-0.5309877;-0.038582984;0.24902943;0.10473408;0.1304011;-0.10667081;-0.18822573;-0.23532565;-0.21729043;0.096125074;-0.031734183;0.16414194;-0.029044425;-0.18273404;-0.1539282;-0.5914652;-0.9972864;0.07021745;-0.54069734;-0.93557274;0.6166247;0.38327172;0.061884526;-0.29880908;-0.26510957;-0.62653553;0.118400715;0.08996519;-0.33465603;0.41378823;0.28619683;0.07446355;-0.038366303;-0.06112921;0.021860057;0.09128039;0.11202799;-0.15269804;-0.17902221;0.14626424;0.111156754;0.011370765;0.15185477;0.022865858;-0.08152537;-0.014341094;0.089003295;0.048117023;-0.026056314;0.11880307;0.5189822;0.56751573;0.081783764;-0.29850966;-0.44216278;-0.2921043;-0.29557475;-0.17052285;-0.14546609;0.10467799;-0.050684746;0.05881523;0.14068869;0.026610268;-0.08804908;0.07061458;-0.095042646;-0.31468043;-0.016008731;-0.13971478;-0.21803054;0.07108146;-0.081849664;-7.3524105e-05;0.5208192;0.3654745;0.36571953;0.41379058;0.069669805;-0.5682461;0.5515705;0.040369876;-0.6691254;0.5159226;0.21610449;-0.20345235;-0.3429365;-0.12248883;0.047437593;0.11431041;0.21608375;0.19853176;0.36299995;0.0009822032;-0.121257365;0.07489863;0.21352877;0.056901645;0.29056865;0.31814808;0.41057098;0.20403264;0.27196416;0.28386804;-0.09699354;-0.26120853;-0.03675145;-0.16846143;-0.25560334;-0.063028;0.13442895;-0.14363973;-0.18338269;-0.24600925;0.18393497;0.1729648;-0.4731328;0.15356703;0.6503379;-0.5770562;-0.11093246;0.095465615;-0.11896917;-0.27323514;-0.4752718;0.20878443;0.6932136;0.42681926;-0.13549757;0.31887448;0.31190288;0.22477631;-0.09708508;0.21871184;-0.095593706;-0.13345455;-0.25079095;-0.06990805;0.029557623;-0.15045772;-0.17257433;-0.04802995;0.10111658;0.10175976;-0.06688212;-0.0473932;0.14611782;0.01739371;0.043323923
25;-0.0024583235;-0.57554656;-0.8363544;-1.0101451;-0.7883961;-0.7267543;-0.29343247;-0.44759798;0.30532056;0.22174215;0.28709295;0.15036343;0.16616373;0.1002657;-0.034721747;-0.11588357;0.15473944;0.030967297;0.10394086;-0.16340071;-0.12252386;-0.014112584;0.07971063;-0.05085446;0.02214057;-0.23242448;-0.2704677;-0.07204386;0.55435914;0.42294315;0.21828787;0.60116863;0.23835169;-0.15913275;-0.2934586;-0.72014546;-0.7481895;0.1298119;-0.12436753;-0.10565932;0.29254806;-0.00761071;0.26817995;0.28721097;0.05341741;-0.069365606;-0.009594496;-0.45888644;-0.23396556;-0.7416824;-0.7293467;-0.12686756;-0.43005213;-0.50199604;-0.062770955;0.005502287;-0.18247081;0.1423682;-0.34372684;-0.050611116;0.31944802;-0.046040427;0.29329282;0.50283086;0.12628071;0.5220586;0.16032061;-0.35768473;-0.55275095;0.095983066;0.21972555;0.44261158;0.5042793;-0.13803183;-0.04485224;-0.0062150434;-0.15658422;0.01092672;0.21932021;0.09075959;0.08884973;-0.013742375;-0.045303542;0.23169628;-0.10524573;0.2682317;0.33950636;-0.124799944;0.550265;0.53853655;-0.2667886;0.13542242;-0.0539928;-0.14647906;0.08004766;-0.13833034;-0.1466322;-0.11051695;-0.45401397;-0.4831777;0.011376475;-0.14253554;0.030932808;-0.10781452;-0.30517998;0.010627407;-0.124984115;-0.022296961;0.3627193;-0.04708312;-0.040614095;-0.065377;0.06627784;0.08156677;0.19074486;0.36978853;0.42285585;0.27386025;0.6982764;-0.024163058;-0.8354685;0.2503657;-0.7216526;-0.8865175;0.46843612;-0.11439422;-0.00024886607;-0.4945322;-0.18898101;-0.08704925;-0.56049645;-0.09671445;-0.23031367;0.28556103;0.577132;-0.09502078;-0.049829613;-0.47891575;-0.21257895;-0.6972737;-0.6609807;-0.31534043;-0.622639;-0.51747;-0.26965123;0.32441828;0.26986963;0.15249717;0.16108248;0.20456408;0.23127423;0.7044683;0.5711016;0.31762213;0.20638698;0.050964;0.08394592;-0.09339049;-0.39007646;-0.27317435;-0.3323682;-0.38869807;-0.13275851;-0.027161762;-0.30644223;-0.032850765;-0.35399178;-0.28497794;0.22561292;-0.19319831;0.019395184;0.5492457;0.004936967;-0.24946132;-0.12584956;0.08929097;-0.018783683;0.04858085;-0.14947845;-0.25776777;-0.09368618;0.121039085;-0.14336178;-0.21133383;0.039218422;-0.087265596;0.14851221;0.27611956;0.051874023;0.14571209;0.18852466;-0.34973827;-0.12164842;-0.10664082;-0.30874828;-0.23088296;-0.280571;-0.026639575;0.3011617;0.14740321;0.17271754;0.35752314;0.099773;0.19465081;-0.03984903;0.07530901;-0.17477588;-0.38577017;-0.355802;-0.23615307;-0.16313374;-0.17841685;0.0041485867;0.08692305;-0.493463;-0.08229586;0.41193882;0.029488565;0.07096065;-0.18266317;0.21785289;0.037372645;-0.020508014;0.17441075;-0.047777247;-0.22186284;-0.31587312;-0.12219093;0.319207;0.31473732;0.3084874;0.5502885;0.40682703;0.055381846;-0.20967314;-0.4280367;-0.29086715;-0.21105559;-0.19907239;-0.02525172;-0.35574406;0.13310649;0.007868349;-0.42779842;-0.32827905;0.048803214;0.13037401;0.25961864;0.19940716;0.08387407;0.2502899;-0.0076642125;0.012677927;-0.12576108;-0.08336485;0.16798332;0.07315876;0.07104418;0.18989937;0.15951769;0.034296725;-0.09252129;0.3439706;0.08806744;0.24082884;0.37680176;-0.01734563;-0.19112213;-0.08080105;-0.51348627;-0.5806543;0.2718781;-0.1356187;-0.27627802;0.1677288;-0.20790313;-0.081109114;0.12782604;-0.024342721;0.3744907;0.21628243;-0.094274595;-0.30279043;-0.07863149;-0.22671746;-0.004400892;-0.2043887;0.30554292;0.3095763
26;0.00808937;0.2784739;0.01218758;-0.010155905;0.2864042;0.30863693;0.013402593;0.054064527;0.30096942;-0.22646043;-0.18985736;-0.04308826;0.026395658;0.04644982;0.0032317243;0.0015522449;-0.20731977;-0.2476797;-0.34840605;0.07397667;-0.0936123;-0.44300744;-8.51918e-05;0.031251382;-0.25776535;0.21367793;0.62763476;0.52695274;-0.2066258;-0.047992665;-0.005784617;0.41300002;0.34975475;0.3002406;0.6207353;0.7222862;1.0981205;-0.06919;-0.17086808;-0.24830158;0.15753938;-0.032413866;-0.059588112;0.3560243;0.41664118;1.0807115;-0.07376162;0.030849032;-0.02474591;-0.07331922;0.09499714;0.08157023;-0.1826043;0.061594304;-0.15745266;0.02854237;0.117614865;0.27541566;-0.051377375;0.11977013;0.30869797;-0.2241183;-0.30697164;-0.5102183;0.40593016;0.13838623;-0.2576975;0.25135896;0.6205179;0.47624052;0.22992603;0.5401751;0.49567798;0.008933586;-0.018752465;0.1918666;-0.32233554;-0.40243635;-0.27945966;-0.1318888;-0.03928058;0.11510938;-0.34275815;-0.37262666;-0.43156087;-0.18452513;-0.32112142;-0.25235578;0.18079749;-0.009703696;-0.0866676;-0.8703494;-0.80449057;-0.8842698;-0.0017254013;-0.21184027;-0.33331499;0.32451037;0.20185694;0.18110414;-0.077099204;0.03236598;-0.10543583;-0.094754115;0.16993977;0.4956547;-0.06734728;0.03855274;0.24005066;-0.003041424;-0.08717952;-0.023869796;0.11551406;0.06922518;-0.20358247;-0.13957447;0.1002565;0.027826449;-0.40833765;-0.37087503;-0.19155157;-0.10811518;-0.08022229;-0.26301396;-0.015475183;0.11232027;-0.3837268;-0.14500658;-0.2623409;-0.04326807;-0.3470448;-0.26961094;-0.34271184;-0.010038657;0.066023305;-0.008072695;-0.006547193;-0.039452557;-0.36588898;0.58334124;0.47720242;0.2189509;0.21315464;-0.025236044;-0.0016012529;0.05672338;-0.0656487;-0.04448362;0.0016024531;-0.19915126;-0.29632458;-0.6621944;-0.67843074;-0.28612268;-0.25772178;-0.27443424;-0.47224027;-0.110210605;0.024107179;-0.19299845;0.34234327;0.35180232;0.2629601;-0.0051465486;-0.069941536;-0.22838044;0.007323676;-0.084064774;-0.15791601;0.10647719;0.18321566;0.025318123;-0.052467622;-0.08900022;-0.00509027;-0.23705377;-0.39597332;-0.52118176;0.3342575;0.41078037;0.009380289;-0.13262336;-0.1599321;0.061329924;0.0904399;-0.16450639;-0.6561937;0.16066699;0.3537169;0.27545488;-0.26242438;-0.12842141;0.08119013;-0.07459077;-0.16923784;-0.0572674;0.21350849;0.42903742;0.068973266;0.16751792;0.11913565;0.21295995;-0.4205734;-0.50138664;-0.5796347;-0.44762993;-0.7033637;-0.67894435;0.14287044;0.17611572;0.22405365;-0.21622612;-0.111113325;0.058267545;-0.40745053;-0.42643267;-0.018579183;0.11166483;-0.09178045;-0.16278832;0.115767054;-0.4032728;-0.45223135;0.049627673;0.26169014;0.1903634;-0.07838315;-0.1400309;-0.28093278;-0.37249672;-0.30783185;-0.05997892;-0.14328137;0.017091667;0.3459981;0.11151372;0.12604888;0.18726428;0.08465715;-0.067221545;0.059965752;0.2149654;0.21883729;0.34442562;-0.8463712;-0.93214965;-0.8416171;0.043968085;0.23139;0.25472432;0.16483617;0.3372354;0.34994677;0.25196624;0.102778256;0.26051083;-0.23428626;-0.20254229;-0.045608405;-0.3595504;-0.26119456;-0.26028046;0.18784435;0.13438521;-0.029835774;-0.053270698;-0.11728923;-0.057875812;-0.038860302;-0.07859069;0.11259948;-0.25586218;-0.13480493;-0.2917006;-0.6102252;-0.62274796;-0.39781803;0.2652361;0.2686781;0.13867739;-0.04474986;0.056122363;-0.03876001;-0.11850814;0.05361329;-0.0054357676;0.05220304;0.004670514;0.124097094
27;-0.0026125533;-0.09290907;0.32592148;0.18074542;-0.22093292;-0.0012384919;-0.045355882;0.09257154;0.15589947;0.15683816;-0.2850928;-0.36609563;0.077855155;-0.12671176;-0.10600262;0.016792798;0.025766749;-0.2072687;-0.18149732;0.1687147;0.26558435;-0.11644949;-0.0911177;0.2537169;0.03894218;0.12518224;0.2539706;0.08868947;-0.33120248;-0.473662;-0.21245506;0.1004772;-0.12367678;-0.30609062;0.25764003;-0.16374047;-0.2499873;0.49238607;-0.15988342;-0.09372628;0.6307554;-0.05491211;0.20935878;0.67897046;0.1476389;0.38002315;0.16815668;0.1294462;0.6394185;0.03258929;-0.12941943;0.33280084;0.12640391;-0.12344348;0.09072727;-0.35026827;-0.04476477;0.7174273;-0.52746624;-0.12623227;0.85766333;-0.55477464;-0.29605386;0.7603882;-0.30954358;-0.34189454;-0.48129788;-0.6088503;-0.76326054;-0.17953809;-0.35894367;-0.3358892;-0.09907201;0.13920338;-0.0785042;0.11805312;0.025773395;-0.20848368;0.25405452;-0.0162497;-0.081809886;0.083018795;-0.49233422;-0.2882907;-0.2627433;-0.11206797;0.02605875;-0.20646286;0.31159797;0.3402181;-0.123705864;-0.32654324;-0.22657882;-0.33233917;-0.14475304;-0.06950404;-0.3526016;0.18305865;0.13290317;-0.11646704;0.29854563;-0.11904016;-0.04121455;0.13165727;0.22411305;0.065686144;0.4248028;0.32550845;0.16268244;-0.14231737;0.13653171;-0.031066082;0.14740981;0.4292909;0.4246295;0.34361503;0.6840152;0.47669083;-0.39219064;-0.7405814;-0.5012376;-0.21004711;-0.5355465;-0.2260765;-0.09579298;-0.07889306;0.20857376;-0.08182829;0.3285389;0.14706886;-0.2531165;0.03337519;-0.021086616;-0.14699845;0.053270444;-0.22887169;-0.43741006;0.08582988;0.38858384;-0.6699299;-0.60112447;-0.23137982;-0.18972881;-0.51356673;-0.37444264;-0.33627355;0.02450966;0.24142544;-0.33810118;-0.1980054;-0.053152278;-0.014647028;-0.26838174;-0.33708963;0.36654887;-0.19993445;-0.36743754;0.40844944;-0.05306783;-0.59924155;0.5543495;0.13635375;-0.41124412;0.0276528;-0.06303905;0.050949313;-0.08171922;-0.1091788;0.10306786;0.09728221;-0.03594523;0.079266325;-0.5589365;-0.80730706;-0.050372604;-0.17204519;-0.83543324;0.051986266;-0.39547712;-0.5530204;0.027608247;-0.041450948;0.011015669;0.10496251;-0.08060538;0.08131915;0.1880755;0.4274158;0.39336237;0.30641642;-0.0048672566;-0.11243481;0.09256087;-0.105953634;-0.110156566;0.103741035;-0.27903706;-0.17768294;0.030641349;-0.18052559;-0.01889035;-0.060110003;-0.036603656;-0.24299692;-0.18619825;0.10374733;-0.07649288;0.011766259;-0.1959808;-0.017581768;0.25401375;-0.20332123;-0.34996265;0.1414998;-0.3558446;-0.7332373;0.19330518;0.4960262;0.2666159;-0.16007052;0.34315678;0.28135863;0.11733902;0.51442707;0.5970706;0.4101595;0.18889004;0.09965327;0.15760899;0.1541033;0.2431458;0.4008492;0.024470272;0.20888363;0.13526013;-0.6495872;-0.37051308;-0.11992657;-0.67212147;-0.53195626;-0.6359351;-0.46416438;-0.44449878;-0.3403301;-0.24793044;-0.6408387;-0.2967221;-0.100154184;-0.43963274;-0.1961523;0.41055152;0.09078891;0.14522207;-0.14005205;-0.10044872;0.1645879;0.075300545;0.2894125;0.26589492;0.05200666;0.08356132;-0.028790226;0.19876418;0.07038122;0.06698782;0.27904096;-0.10595509;-0.22273068;0.117036216;-0.17651619;-0.19956459;0.3119716;0.12458394;-0.16056523;0.3983846;0.2102465;-0.039197367;0.4371498;0.0009819965;0.21433342;-0.14852446;0.07182449;0.069450535;-0.28876325;-0.010955111;0.017586645;-0.2583413;0.09521118;0.12598278
28;-0.0044418415;-0.20848317;0.23342526;-0.4759434;0.0017412174;0.33005166;-0.15488121;0.086907215;0.18092088;0.11949501;-0.1438162;-0.3218323;-0.62021565;0.10522674;-0.34277147;-0.5846149;0.2630527;-0.21508896;-0.06188981;0.07551534;-0.11427673;-0.010806043;0.057916954;-0.18674377;-0.13410762;0.18823177;0.14658856;0.20451932;0.3329233;-0.5347348;-0.75641406;-0.13272017;-0.5797634;-0.92811644;0.3662786;-0.19942527;-0.70255136;-0.06607106;-0.15785758;-0.3314915;0.19995745;-0.27399194;-0.18097621;0.24709442;-0.08076918;0.39574096;0.14862882;-0.22095424;-0.4209953;-0.028580027;-0.13486624;-0.13802694;0.12284869;-0.058179352;0.060700014;0.37385926;0.3391893;-0.050633427;0.694137;0.8718274;0.32839337;0.6022627;0.7421765;0.4112331;-0.23985767;-0.23388186;-0.41360477;-0.13565145;-0.23609833;-0.24119726;0.17486556;0.2779618;-0.09377733;-0.055896353;-0.5132589;-0.27368477;-0.10385731;-0.32977054;0.10805653;-0.114928;-0.51063246;-0.057690658;0.14225446;-0.15367499;-0.4312544;0.1311536;-0.30662993;-0.5254849;0.23031813;-0.395551;-0.48386028;0.65586406;-0.17458244;-0.4687973;0.39112467;-0.23395678;-0.8283853;0.51218295;-0.059248105;-0.6218079;0.28947896;-0.042349946;0.03479416;0.12831974;-0.35073322;-0.06745758;0.19135268;-0.3242182;-0.2764763;0.12845832;0.13158694;-0.28717536;0.20103405;0.04880751;-0.34832475;0.30686003;0.17585036;-0.05928185;-0.33465123;0.2536917;0.11262256;-0.023614148;0.6218785;0.4004205;-0.03362289;0.47546154;0.099912785;-0.11671156;-0.27853635;-0.17283842;0.24720953;0.11705813;0.16821435;0.1797113;0.00270276;-0.15547659;-0.0011650395;-0.37489438;-0.3703652;0.17927136;-0.16217954;-0.3950224;0.51606226;0.1828767;-0.055949066;-0.0645722;0.012333996;-0.15167734;-0.058311652;-0.28409255;-0.5968462;0.029991958;-0.32003087;-0.18707792;0.08922263;-0.61056775;-0.86809254;-0.039617915;-0.63262993;-0.63830143;0.43821728;-0.039037216;0.02213385;0.58053416;-0.29560295;-0.44556433;0.3917013;-0.25745264;-0.5625347;0.31377497;-0.2294435;-0.23600727;-0.07967499;-0.07037108;0.15729438;0.09323353;-0.063961186;-0.0110090645;-0.29458416;0.08772084;0.16409902;-0.022713056;0.027232874;-0.1083216;0.2946425;0.037704457;-0.22889286;0.3277413;-0.10029695;0.07733459;-0.08399967;-0.08098307;-0.3039679;0.013716291;-0.22081695;-0.36259854;0.059178896;0.16665721;0.115783855;0.09799155;-0.30029562;-0.04915235;0.050828826;-0.37462094;-0.1532448;0.16904213;-0.07098428;0.023011563;-0.4103216;-0.340836;-0.46436018;-0.07870383;-0.119642586;-0.1474859;-0.18221827;-0.36844122;-0.67243606;0.024816029;-0.09405968;-0.50123686;0.040912133;-0.1026468;-0.22488402;0.17645565;0.2361946;0.23611058;0.024097182;0.059703972;-0.1279005;0.09209749;0.1244649;-0.16577072;-0.081482954;0.21379498;-0.1704116;0.48622817;0.13704883;-0.36862049;0.0017894435;-0.21672897;-0.47057232;0.07991831;-0.15239093;-0.3796679;-0.17796384;-0.70034266;-0.23590557;0.21089323;-0.4927328;-0.23850231;0.34165686;-0.50922376;-0.44265833;0.42804274;-0.04817297;-0.24945791;0.27537525;-0.30457157;-0.21026112;0.1457404;-0.15380688;-0.2916827;0.40196124;0.18152896;-0.19731322;0.19528629;-0.012945032;-0.45003983;0.011611824;0.059271708;-0.584807;-0.22690304;0.45039454;-0.23729238;-0.19144511;0.33274212;-0.24187417;0.3212963;0.39169395;0.07009683;-0.13955072;-0.029286757;0.1286874;-0.06306612;-0.096226774;0.09759406;-0.09943942;0.05049502;0.19430092
