kernel;bias;d0_w00;d0_w01;d0_w02;d0_w10;d0_w11;d0_w12;d0_w20;d0_w21;d0_w22;d1_w00;d1_w01;d1_w02;d1_w10;d1_w11;d1_w12;d1_w20;d1_w21;d1_w22;d2_w00;d2_w01;d2_w02;d2_w10;d2_w11;d2_w12;d2_w20;d2_w21;d2_w22;d3_w00;d3_w01;d3_w02;d3_w10;d3_w11;d3_w12;d3_w20;d3_w21;d3_w22;d4_w00;d4_w01;d4_w02;d4_w10;d4_w11;d4_w12;d4_w20;d4_w21;d4_w22;d5_w00;d5_w01;d5_w02;d5_w10;d5_w11;d5_w12;d5_w20;d5_w21;d5_w22;d6_w00;d6_w01;d6_w02;d6_w10;d6_w11;d6_w12;d6_w20;d6_w21;d6_w22;d7_w00;d7_w01;d7_w02;d7_w10;d7_w11;d7_w12;d7_w20;d7_w21;d7_w22;d8_w00;d8_w01;d8_w02;d8_w10;d8_w11;d8_w12;d8_w20;d8_w21;d8_w22;d9_w00;d9_w01;d9_w02;d9_w10;d9_w11;d9_w12;d9_w20;d9_w21;d9_w22;d10_w00;d10_w01;d10_w02;d10_w10;d10_w11;d10_w12;d10_w20;d10_w21;d10_w22;d11_w00;d11_w01;d11_w02;d11_w10;d11_w11;d11_w12;d11_w20;d11_w21;d11_w22;d12_w00;d12_w01;d12_w02;d12_w10;d12_w11;d12_w12;d12_w20;d12_w21;d12_w22;d13_w00;d13_w01;d13_w02;d13_w10;d13_w11;d13_w12;d13_w20;d13_w21;d13_w22;d14_w00;d14_w01;d14_w02;d14_w10;d14_w11;d14_w12;d14_w20;d14_w21;d14_w22;d15_w00;d15_w01;d15_w02;d15_w10;d15_w11;d15_w12;d15_w20;d15_w21;d15_w22;d16_w00;d16_w01;d16_w02;d16_w10;d16_w11;d16_w12;d16_w20;d16_w21;d16_w22;d17_w00;d17_w01;d17_w02;d17_w10;d17_w11;d17_w12;d17_w20;d17_w21;d17_w22;d18_w00;d18_w01;d18_w02;d18_w10;d18_w11;d18_w12;d18_w20;d18_w21;d18_w22;d19_w00;d19_w01;d19_w02;d19_w10;d19_w11;d19_w12;d19_w20;d19_w21;d19_w22;d20_w00;d20_w01;d20_w02;d20_w10;d20_w11;d20_w12;d20_w20;d20_w21;d20_w22;d21_w00;d21_w01;d21_w02;d21_w10;d21_w11;d21_w12;d21_w20;d21_w21;d21_w22;d22_w00;d22_w01;d22_w02;d22_w10;d22_w11;d22_w12;d22_w20;d22_w21;d22_w22;d23_w00;d23_w01;d23_w02;d23_w10;d23_w11;d23_w12;d23_w20;d23_w21;d23_w22;d24_w00;d24_w01;d24_w02;d24_w10;d24_w11;d24_w12;d24_w20;d24_w21;d24_w22;d25_w00;d25_w01;d25_w02;d25_w10;d25_w11;d25_w12;d25_w20;d25_w21;d25_w22;d26_w00;d26_w01;d26_w02;d26_w10;d26_w11;d26_w12;d26_w20;d26_w21;d26_w22;d27_w00;d27_w01;d27_w02;d27_w10;d27_w11;d27_w12;d27_w20;d27_w21;d27_w22;d28_w00;d28_w01;d28_w02;d28_w10;d28_w11;d28_w12;d28_w20;d28_w21;d28_w22;d29_w00;d29_w01;d29_w02;d29_w10;d29_w11;d29_w12;d29_w20;d29_w21;d29_w22;d30_w00;d30_w01;d30_w02;d30_w10;d30_w11;d30_w12;d30_w20;d30_w21;d30_w22;d31_w00;d31_w01;d31_w02;d31_w10;d31_w11;d31_w12;d31_w20;d31_w21;d31_w22
0;0.0020865367;-0.011289158;-0.09191484;0.02281163;0.053507064;0.050647236;-0.08043017;-0.07347214;0.004306164;0.062426116;-0.011507979;0.0961872;0.030576345;-0.06498689;-0.045301527;0.086722635;0.06751656;0.097853966;-0.06890572;-0.047321845;0.019670876;-0.014804509;-0.032115556;-0.0413514;0.02572837;0.020303363;0.042843726;0.0013355121;0.021820288;-0.033979658;-0.05652601;-0.0051491177;-0.0042070467;-0.056267343;0.050681658;0.06824958;-0.07558572;-0.0064145955;-0.027804032;-0.07816998;-0.019987691;0.017862434;-0.050739486;0.04887534;-0.06106496;0.095156826;0.014720626;-0.072374925;-0.07322515;0.10581117;-0.06382198;0.024769513;-0.043282066;0.11217723;0.022411231;0.051324684;-0.015141487;-0.024124557;0.025453554;0.016426472;-0.005146547;0.04164218;0.028713081;0.068877526;-0.04155405;0.061500296;-0.059313282;-0.042489067;-0.075554244;0.050562426;-0.059963804;-0.046347417;0.010721154;0.078269176;0.06941934;-0.026793128;0.030793834;-0.055214852;-0.07016083;0.08360531;-0.06956145;-0.010177859;0.03728776;0.045202803;0.056235425;0.059980907;0.083584614;-0.030848956;0.025520472;0.017501827;0.00860363;-0.036208235;0.06995341;0.02386318;0.043204397;-0.061308134;-0.010775423;-0.08363912;0.049698066;-0.06884914;0.043523937;0.07418101;0.009420873;0.04877894;0.03393706;-0.043044064;-0.0024374907;-0.017323881;0.14618507;0.061373103;0.007188697;0.024401274;-0.009911385;0.04656381;-0.012950353;0.01593857;-0.06850347;0.03272221;-0.065815136;-0.08246146;-0.00814981;-0.038801115;-0.009140435;-0.041816767;0.08452689;0.0071648657;-0.015233976;-0.0088872695;0.0245074;0.016948842;-0.029064925;0.055567503;-0.06973492;-0.09478716;-0.0011000291;-0.048248623;0.036363687;-0.0799067;-0.054102845;-0.07446811;-0.046634793;-0.075463876;0.040756952;-0.08187324;0.056956097;-0.08827902;5.5164805e-05;0.04347631;-0.03338181;-0.08642443;-0.009207995;0.018012254;-0.05286597;0.03400133;-0.0006409658;-0.032998845;-0.010920933;-0.00380523;0.0021119195;-0.06315124;-0.09163086;-0.024250306;0.062061008;-0.035154857;-0.083107024;-0.07088571;0.006715397;0.010343644;-0.036167253;-0.055875134;-0.076131664;-0.060630657;0.007754968;-0.09063695;-0.093009084;-0.02059079;0.010194506;0.03987858;-0.038569763;-0.07389993;-0.043975033;0.007835634;0.035998687;0.084639244;-0.0473211;0.025309592;0.074606076;0.07115145;0.07144592;0.016840294;-0.0015851818;0.07877988;-0.06473434;0.04795252;0.061041787;-0.050474454;-0.057570748;-0.08209275;-0.017629648;0.062334906;-0.0013902697;-0.06627054;-0.009084519;0.044056427;0.07037248;0.004063718;0.045603387;0.039281834;0.0017536175;-0.0078081437;0.055596635;0.06959419;-0.03664936;-0.016659988;-0.034627;0.033842314;0.031458233;-0.047161113;-0.043802395;-0.012950468;0.060936533;-0.067284994;-0.013440572;0.07500637;0.0098171625;-0.037541118;0.04616706;-0.059694957;-0.027678827;0.06863544;-0.0151723;0.05130148;-0.049120046;0.054513045;-0.03157833;0.0060441177;0.004699489;0.002207445;0.013320025;0.031426538;0.0678752;0.047029853;-0.011866655;0.06412607;-0.06178081;-0.027994439;-0.06460848;0.02619521;0.03424093;0.05177826;-0.050858695;0.0039010404;0.07652177;-0.026474377;-0.06288626;0.06589399;-0.021003732;0.03227786;-0.04204283;-0.040632702;0.0005482582;-0.08357481;0.037337862;-0.03436891;-0.052998304;-0.05164038;0.00053788867;0.02522773;-0.010949652;0.04282252;-0.046637032;-0.017048197;0.07273956;-0.052163932;0.025902294;-0.07246265;0.05621983;-0.05178238;-0.021739936;-0.014770334;0.014865577;0.016302213;0.044875182;-0.016422376;-0.021903781;-0.019927742;0.07741079;-0.05494393;-0.027158255
1;-0.0015503756;-0.060231153;0.07672947;-0.025970366;-0.01755716;0.025417535;0.098344855;-0.033120308;0.03557512;0.083401196;0.06381164;-0.027760476;-0.03673635;0.047873683;0.04008859;-0.019884082;-0.08460003;-0.11734737;-0.12092331;0.03761874;-0.058776736;-0.0006691146;-0.017617218;-0.038217574;-0.02341857;-0.012441748;0.02378225;-0.03922944;0.07485043;0.0032029205;0.018468462;0.060517985;-0.08257216;0.01480712;-0.02778119;-0.07156037;-0.0062546036;0.015965393;0.039790116;0.043404695;-0.04697452;-0.07053941;0.050097853;-0.06504027;-0.084829934;0.017884474;0.02386532;-0.07209591;0.05442793;0.0681086;0.03633534;-0.0040527815;-0.0410434;0.04577717;-0.09504771;0.054317866;0.06450439;-0.048545945;0.056401998;-0.06848861;-0.017862082;-0.043562394;0.015185585;0.059288904;0.03856736;0.015408419;0.045597415;-0.030987598;0.028308915;-0.056122065;0.005721373;-0.025491348;0.0024546026;-0.010205591;-0.046946507;-0.030543806;-0.07189193;-0.030985387;-0.009520777;-0.037917607;0.017535115;0.08301066;-0.07789774;0.036172744;0.06826803;0.008854683;-0.05544484;-0.038668253;0.07389148;0.0023454898;-0.027383862;-0.05956518;0.02477316;0.06863096;-0.03421949;0.0017554896;0.022761138;0.009188056;0.023017408;-0.018890752;-0.047844898;-0.0048844237;-0.025825715;-0.080924526;-0.04930043;-0.013672848;-0.054176103;-0.06415836;-0.069041416;0.01733083;0.04037412;-0.08481719;0.034450315;-0.0396493;-0.12103965;-0.09813031;0.017276937;-0.06151201;-0.031968508;0.060451902;0.09142133;-0.035923313;-0.08459055;0.003951369;-0.030547779;0.044401154;-0.028933123;-0.03819752;-0.03146495;-0.019501688;0.08791468;-0.040736593;-0.047885515;0.01328801;0.049593367;-0.00772083;0.010247976;0.04052055;-0.073232435;-0.08805389;-0.03459427;-0.035520192;-0.07235954;-0.016445257;0.021509793;0.02932639;0.003693006;-0.008225495;-0.07658196;0.03512674;-0.056464586;0.07721978;0.057952758;0.07849897;0.059351176;0.0059406008;-0.019317873;0.033007722;0.015491125;-0.063032545;-0.0026408334;-0.030882262;0.011600813;-0.0843456;0.041600153;-0.02749295;0.003042194;-0.01616222;-0.07089269;-0.083383;-0.060425483;-0.014209587;-0.012310984;-0.056242436;0.0663413;0.07867689;-0.056189314;0.03417607;0.021856748;0.036134318;-0.04494179;-0.056280907;-0.0929168;-0.09102009;-0.010923192;0.010203528;0.041924573;-0.07940104;0.003904491;0.059028275;-0.061893363;0.07071311;0.047676533;0.021178726;-0.054390337;-0.011083951;-0.033163533;0.016460497;-0.00607023;-0.030117732;-0.07624905;-0.09613514;-0.06018812;-0.008984482;-0.09088322;-0.02550103;-0.07192191;-0.09518959;0.023187125;-0.075299084;0.001193036;-0.06803572;-0.023472726;-0.08285278;-0.08539682;0.02281591;-0.09839318;0.028349748;0.06518133;0.071318276;-0.049242686;-0.030081866;-0.06470487;0.008825582;0.03182577;0.03400089;-0.03595351;-0.044548582;0.05117728;0.03960924;-0.064350106;-0.07029122;0.05723373;0.058746006;-0.0066057737;0.008305924;-0.064493865;-0.058730982;0.046614442;-0.063579805;-0.06251816;0.028081339;0.061922368;0.012742396;-0.0074899434;-0.08443523;-0.02709125;0.059181564;0.0006667096;-0.074076615;-0.067713276;0.011766823;-0.014353379;-0.017930465;0.0686827;-0.054233648;-0.07047037;0.037485793;0.08613418;0.0672415;-0.053869214;-0.016669903;-0.0151276905;-0.009674087;0.041713197;-0.0745057;-0.1029805;0.025299117;-0.05975791;-0.016366312;-0.09350052;-0.045185074;0.04437735;0.085204095;0.05788896;0.070839524;0.0005801957;0.056828074;-0.035823498;-0.06222675;-0.029619405;-0.02786546;0.009276303;-0.07178417;-0.04708169;0.065619;0.029925585;0.077634975;0.0033293853
2;0.0024990707;-0.06575957;-0.08182408;0.03666418;-0.05337391;-0.07290445;0.11081903;-0.07145321;-0.033604193;0.07985704;0.004712309;-0.04858012;-0.00035050767;0.039246734;-0.09794436;-0.01798362;-0.0149478;-0.008624162;-0.052280363;-0.01670449;0.016874729;-0.08690696;0.004236658;0.029870545;-0.03548761;-0.04864429;0.023342514;-0.049272213;0.0039444184;0.07937535;0.023230344;-0.02150983;0.076428644;0.0739335;-0.014226494;-0.019822333;-0.041545343;-0.037352845;-0.047881193;0.0078221625;-0.052939013;0.059185576;0.030125178;-0.08609955;0.04871486;0.0049371277;-0.057090342;0.029997528;-0.010890989;0.001369193;-0.028468031;-0.06815554;0.054593306;-0.004056457;0.02540186;-0.0037181068;0.028655924;0.056731932;-0.022124127;0.0054536313;-0.06228005;-0.04490199;-0.07704313;0.0047598435;-0.03564887;0.005076857;-0.003465917;0.076246366;0.13203005;0.0055273664;0.040636856;0.1100602;0.10286414;-0.06338872;0.007941972;0.04936429;-0.040503804;0.0555179;-0.05951608;-0.048585787;0.0091626495;-0.042994518;-0.0067497427;-0.012489448;0.029585352;-0.0038780184;-0.0032462957;-0.06804193;0.012946766;0.03808893;-0.0109541975;0.0004341739;0.07603037;0.010050424;0.0032557007;0.04995405;-0.06861747;0.08165393;-0.052415933;0.001176156;-0.068263486;-0.08516304;-0.07857384;-0.02483954;0.034573846;0.025580185;-0.0022052098;-0.058927;0.016868839;0.046179842;-0.08484695;-0.10102242;-0.026096988;-0.061580796;-0.03619493;-0.004158877;0.07565386;0.047046952;0.045530632;0.098199174;0.10648573;-0.05536561;0.11173739;-0.018257108;0.0005140287;-0.005840596;0.04842749;0.07572611;0.016401561;0.029041816;0.05905445;0.011123253;0.073554456;0.035395805;-0.064012;-4.3914537e-05;-0.080654345;-0.107519954;-0.06561768;0.050228365;-0.074616686;-0.022172183;-0.040420406;-0.0426162;0.1007164;-0.07723709;-0.042175684;-0.0783366;-0.078824654;0.034027815;-0.055030446;-0.03613394;-0.08160923;0.00025871675;0.0765936;0.020255834;-0.047136243;-0.060044445;0.02281361;0.08865625;-0.034107205;-0.007960982;0.089586645;-0.08912128;-0.017616933;0.03581898;-0.056808874;-0.03222438;-0.024332888;0.0002106873;0.0029802253;-0.065354295;-0.010968981;0.011681567;0.04683106;0.06682324;-0.07251901;0.0048733614;-0.079451025;-0.07942259;0.017080067;-0.06031293;-0.026739987;0.0053322003;-0.037791774;0.06479301;-0.023875829;-0.07386854;0.0534675;-0.04437079;-0.051383853;0.00611869;0.051225904;0.0042129327;0.02936717;0.015715761;-0.00055523874;-0.019503443;-0.022466244;-0.009506972;0.065735996;0.058610544;0.01215058;0.05099699;-0.01741829;0.030514397;-0.080144405;0.043037508;-0.017041523;-0.00058314734;-0.0098894425;0.011384643;0.0011388026;-0.06119074;0.053664163;-0.03647939;0.04366064;-0.035020754;0.0005604573;0.04910198;0.07137844;0.004381648;-0.037286114;0.08406507;0.021178532;0.035294864;0.017514013;0.0774609;-0.05355958;0.057225324;0.09584561;-0.03274838;0.026062455;-0.04729922;-0.060782064;-0.01762614;-0.07052895;0.040533625;-0.0065526124;0.069724604;0.071612306;-0.0037085083;-0.04738397;0.03631442;0.055957794;-0.057388287;0.021047944;0.06408272;0.022375438;0.06460309;-0.01802441;0.064264774;0.038524598;0.08670364;0.06511924;-0.06213459;0.044187482;-0.03640038;0.06798196;-0.055877358;0.070346974;0.014666652;-0.068012446;0.059452724;0.0040511466;0.041659843;0.062749326;0.065457955;0.046828736;0.050572865;-0.054973636;0.048384268;-0.013207282;0.021037545;0.08170243;-0.077317536;-0.0014584429;0.053953562;0.04201311;-0.07010239;-0.029370883;-0.123819254;0.045348708;-0.00412588;-0.053115383;-0.08938114;-0.01511954;0.07145352;0.0562932
3;0.00099194;-0.019085037;-0.06992221;0.033435676;0.05415298;-0.066828355;-0.04005502;-0.06715398;0.030254606;0.016311882;0.06581599;0.097692296;-0.055568308;0.0020140877;0.047882035;-0.066038094;0.02630142;-0.021432238;-0.028025934;-0.07310545;-0.015769314;0.007163895;-0.061871015;-0.07417741;0.045973074;-0.016330581;-0.046448447;-0.05739464;-0.07177164;-0.019387191;0.040443145;0.024152791;-0.06679905;-0.023357933;0.066344194;0.04986335;0.053604376;0.06456936;-0.024262004;-0.08998779;0.03111944;0.0116383135;-0.055044506;-0.06461384;0.064647056;-0.07544085;0.038897373;-0.03632212;-0.0027834186;-0.072887294;-0.021543097;0.022889419;0.03162238;-0.08132306;-0.08216311;-0.010875633;0.002693395;-0.013543615;0.068051025;-0.014379829;0.040108245;-0.04473199;-0.042677123;-0.024257788;-0.04107076;-0.07476107;-0.06696965;0.00848623;-0.0024500806;0.03334166;0.0046239193;-0.03570578;-0.063886404;-0.026874455;-0.043281347;-0.03730587;0.08724774;0.036163818;0.060623918;0.041440304;0.060451284;-0.015522479;0.04178955;-0.024221089;0.017223507;-0.005244915;0.06678876;0.04758739;-0.030360179;-0.02997404;-0.049064074;-0.07258369;-0.07987248;0.012893525;-0.05794294;0.0850274;0.0658912;-0.00290415;-0.06512286;0.035548143;0.01970156;0.026471496;-0.040374666;-0.038247;0.0815635;0.070757486;-0.0067787035;0.00336271;-0.0179841;-0.060564134;-0.027627492;-0.038891442;0.02033773;-0.03515381;0.027518312;0.06622534;0.06144826;-0.054323833;0.056193203;0.02629413;0.092918515;0.0755628;0.06394092;0.044128127;-0.030207453;-0.05223804;-0.066800624;-0.038436547;-0.023211367;-0.053981546;-0.07567523;-0.07344561;0.04695251;-0.10285574;-0.079326354;-0.00042224902;-0.0014142473;0.003424683;-0.014182748;-0.06572936;-0.054124027;-0.032209147;0.011327482;-0.010028339;0.061357573;0.008984183;-0.08654637;0.07108032;0.09645615;0.07829164;0.08496734;-0.058909975;-0.013373496;0.0062048566;-0.007570468;0.02325289;-0.0046471693;0.00030467537;-0.0565423;-0.021744616;0.061518367;0.016593846;0.06262508;0.07399082;0.005161746;-0.0341149;-0.023100318;0.03777253;0.07791267;-0.017076919;0.02717085;0.065523215;0.035535045;-0.05056338;0.043719545;-0.014208493;-0.01968351;-0.03726305;0.0006629439;-0.036735244;0.028851544;-0.00021407387;0.07930655;0.05546204;0.06379633;0.037532844;-0.016285697;0.030282654;0.08127471;-0.03794045;0.053315356;0.0777322;0.061305206;0.076497525;0.026213396;-0.0042216415;-0.07938438;0.070829704;0.0012862722;-0.06546505;-0.017589;-0.031873763;-0.055021957;-0.002183315;0.06497535;-0.08104489;-0.051562432;-0.029329062;-0.04008168;0.006424155;-0.038670015;-0.033204183;-0.05607838;-0.059790734;-0.0169867;0.09518466;-0.008511994;0.019076485;-0.039785486;0.02159329;0.043674767;0.037776355;0.059607066;0.0025540898;0.09466282;0.030726574;-0.0058708936;0.079503715;0.030055024;0.07134892;-0.008529431;0.06535419;-0.01942801;-0.0129853645;0.049104016;0.09378064;0.08029383;0.03803855;0.061598554;0.032377336;0.06714809;0.043441862;-0.013718862;0.0025116594;-0.07993607;-0.020155268;-0.04772501;-0.008161721;-0.025660248;-0.076788045;0.039330974;0.017559469;0.005484633;-0.009779855;0.06312798;0.08062244;0.06496461;-0.020412307;-0.053320665;0.013956972;0.036336046;0.07498478;-0.058195267;0.041188642;-0.038287062;-0.04367599;0.01076201;-0.08297332;-0.023740482;-0.07487694;0.055071075;0.024388712;0.0024500894;0.027329756;-0.00888056;-0.0058269827;0.022841422;0.09653954;0.007309224;-0.032564253;0.03930535;0.0796312;-0.03783951;-0.047508635;-0.03568359;-0.054058343;0.06652032;-0.018151965;-0.07095162
4;9.643435e-06;-0.050912734;0.052352108;0.072207525;0.082035616;0.08621822;0.04190889;-0.019884551;0.10625888;-0.037391588;0.014883461;0.005172558;0.05229316;-0.029423632;-0.03854236;-0.0010029589;-0.016538188;0.01670417;-0.029770007;0.08010531;-0.039644394;0.006699155;0.078413844;0.06294892;0.0515283;0.023154777;-0.039623704;0.022368478;0.09321731;-0.06841184;-0.055933546;0.10584259;0.10374841;0.054254115;-0.029582802;-0.037690848;-0.07111871;-0.039022934;-0.09001777;0.048385836;-0.011202452;-0.0056755785;-0.0038236885;-0.03937411;-0.06590865;-0.05863449;0.020428585;-0.029773515;0.0050835703;-0.01663334;-0.07099315;0.04623154;-0.0011055309;-0.059933703;0.004344842;-0.007156667;-0.06412722;-0.019945338;-0.09383835;0.02652183;-0.080115415;0.04258012;0.0006833417;0.05391936;0.033521716;0.023345053;0.036362674;0.02806743;-0.023806842;-0.012906281;0.04452633;0.0850694;0.04620423;-0.06759437;0.05221441;0.06997458;-0.046632323;-0.05232026;-0.055794932;0.04768578;-0.0779967;-0.08865294;-0.020498717;0.061563242;0.06984682;-0.03928522;0.050757214;0.08393592;0.023936069;0.02526884;-0.052313957;-0.06280265;-0.017223362;-0.0061356747;-0.08981653;-0.10974529;-0.07024686;-0.047968637;0.037092336;-0.076649666;-0.00066248444;-0.008948692;0.10597842;-0.08519491;0.04582706;0.064476475;-0.039067265;-0.0072959564;0.052015234;-0.007321385;-0.09445053;0.07241936;-0.06650051;0.078178704;0.03611203;0.018050138;7.65582e-05;-0.045202583;0.026542014;0.045359235;0.0035601384;-0.018348971;-0.075063206;0.03499201;-0.06124408;0.023990419;0.08372068;-0.043373216;-0.02885697;0.05632221;-0.09736821;0.0162575;0.05113413;-0.05982916;0.07026747;0.03583711;-0.050842877;0.029028716;0.004140934;-0.057280924;0.06041122;0.058171734;0.03945202;0.06704362;0.056366958;-0.07657319;-0.08854093;-0.067172304;0.021442195;-0.077923186;0.068143524;-0.009917808;-0.030208617;0.006275003;-0.021283751;-0.068473846;-0.055309504;-0.036786314;-0.016207576;-0.081994765;0.05156528;-0.07834849;0.04800003;-0.078444526;0.002508594;0.034203403;0.017982272;0.025316136;-0.037496276;-0.08838246;-0.035385992;0.021765595;0.06723708;0.059760336;0.051836416;0.04802401;-0.057586696;0.046775557;-0.004303182;0.08079819;0.06722532;0.08511891;-0.06371385;-0.048740998;-0.06186994;-0.06831465;-0.03921964;-0.09557526;-0.014732723;0.00013179764;-0.054816827;0.06718262;0.042982314;0.043678228;0.03987228;-0.058640283;0.012515827;-0.028053977;-0.03215673;0.015671222;0.077132486;-0.036799114;0.082978;-0.04494418;-0.032084562;0.086880185;0.0785932;0.03781366;-0.046226528;-0.07304268;0.040736694;-0.03650425;0.03642311;0.07995527;0.06537834;-0.058293488;0.080908746;0.038218703;-0.03945853;-0.067249924;-0.015133762;-0.04839641;-0.037527323;0.08748367;0.008492729;0.02154214;0.052106325;-0.04430259;-0.055219762;-0.040722486;0.09146469;-0.074761175;0.03161022;-0.057755098;0.057943244;-0.040140785;0.052040845;0.083870485;-0.02391261;-0.07819815;-0.06700702;0.008210904;-0.014323364;0.05336075;0.01126955;0.067437634;-0.039576128;-0.013365379;-0.070630655;-0.07248223;0.07660748;-0.034976337;0.005990422;0.001331386;0.035214163;-0.022284232;-0.028885853;0.073627025;0.004641932;0.07050594;0.06325293;-0.044860628;-0.07469872;0.025988908;0.102312185;0.04152692;-0.08993758;-0.056485474;0.035037283;-0.022082046;0.06530287;0.077690676;-0.075095594;0.059515994;0.0055147205;0.016836004;0.06391105;0.04212227;-0.06995187;-0.02385563;0.006586468;0.019824997;0.038906075;-0.09252877;-0.023548312;0.024574678;0.06358901;-0.045303915;0.03353224
5;-0.002540787;0.040452734;0.02145077;0.03095298;0.013310044;-0.028341623;-0.0056947325;-0.034512036;0.039094254;-0.04506155;0.052748635;0.049322885;-0.010689877;0.06822458;0.0005825859;0.053846367;-0.037092526;0.025448237;0.051155195;-0.0420706;-0.021725306;-0.02856554;-0.005479714;-0.091099925;-0.054982033;0.06492125;-0.0064825253;-0.08006188;0.09149933;0.042098936;0.04741048;0.07190633;0.021387478;-0.042209603;0.032208446;-0.030942792;0.06303551;-0.05024079;0.04603121;0.065648116;0.012687563;0.02178789;-0.06783551;-0.084741704;-0.020368496;0.08358348;-0.031815067;0.04227712;-0.0074865893;-0.050956547;-0.09154717;0.036650605;-0.036235545;-0.08926025;0.034973394;0.06573306;-0.059127815;0.023580031;0.03390691;0.02176125;0.019215776;-0.029765498;0.091706835;-0.008769247;-0.023736726;-0.03146798;-0.015990062;0.063351505;-0.001225215;-0.048701707;0.034253784;0.015834505;-0.05992745;-0.052298766;0.031172104;0.025386339;-0.08508894;-0.076344736;0.052649606;0.021350387;-0.046543196;0.026236214;-0.046838947;0.021970434;0.054282237;-0.08556367;0.028279765;0.032969374;-0.023150947;0.020647695;-0.06608248;-0.011037506;0.0444337;0.008875065;-0.07719811;0.05143093;0.082068555;0.024634916;0.020665858;-0.017109191;-0.020759063;-0.0045297723;-0.061520986;0.09337432;-0.022530014;-0.021239828;-0.025678009;-0.017465457;-0.032803647;0.017492544;0.06701418;-0.048764247;0.06574745;-0.052465595;0.011253723;-0.06558246;0.034955647;0.010887713;-0.045356996;-0.03144217;0.024882175;0.043309864;-0.04933127;-0.0014353767;0.032745995;0.0592613;0.045296498;0.020760557;0.06738877;-0.011551489;0.062517785;-0.013530004;0.020851342;0.06292087;0.0052035274;-0.007708912;-0.028412241;0.08549816;-0.07820258;0.03143568;-0.021214627;-0.03256678;0.076077305;0.028479796;0.0010308467;0.023539666;-0.021074899;-0.058396067;-0.041139726;0.045460194;-0.036349636;-0.029768031;-0.02212669;-0.0006991779;0.04857075;-0.0291703;-0.008177829;0.042625554;-0.08671172;-0.0701984;0.030924078;-0.010098409;0.03915643;-0.0856173;-0.022851473;0.06446219;0.02021055;0.02096494;0.02444633;-0.071227066;0.015211831;-5.136775e-05;-0.084495075;-0.056997832;-0.058903098;0.041126736;-0.018788867;-0.079308525;0.059966076;0.01014299;-0.004100205;-0.021777423;0.0361365;-0.070569746;-0.0035146584;-0.061262447;0.048567332;0.023373278;-0.03813505;-0.07913708;-0.0919806;-0.08344174;-0.106507584;-0.05151934;0.016231997;0.020659398;-0.019794874;-0.06725501;-0.042756006;0.026111363;0.0056109484;-0.014978655;0.1012552;0.06411009;0.012514314;-0.011956401;0.056998227;0.06560608;0.014673843;0.07126475;-0.06354226;-0.06518967;0.05418679;0.0068331305;0.013907252;-0.044585586;-0.0066753617;0.0333047;0.032935806;0.052739028;-0.06549208;0.03899374;0.012679348;-0.062122516;0.028877491;0.07080334;-0.02582935;-0.049071617;0.012681872;0.046298094;-0.036714904;-0.006116603;0.013892252;-0.024446456;0.039259445;-0.057833172;-0.005601943;0.02575041;-0.07491416;0.022215532;0.07024287;0.067177474;-0.049653795;0.053149723;-0.011122938;0.069779895;-0.08296242;0.069767505;-0.010340082;-0.012223535;0.0044116927;-0.03568973;-0.04574144;0.0069936817;-0.03908613;0.043304533;-0.027697997;0.034505576;0.033094715;0.003869268;-0.0534012;-0.019193757;0.0011203587;-0.07801366;0.08307877;-0.064802;0.008368766;0.003752767;0.07779214;0.049718324;0.086934805;-0.042978745;-0.07572945;0.0278887;-0.030466456;-0.100501284;0.023158126;-0.06130114;-0.017674591;0.079733804;-0.041280985;0.060174387;-0.091415145;-0.054615457;-0.0022268277;0.08418859;-0.017053049;0.032212872;0.00085996627
6;-0.00046711604;0.0020375557;0.028219424;-0.041006263;0.06291958;-0.0012897671;-0.054499924;0.07108108;-0.061406754;-0.037808437;0.09473464;-0.04545434;-0.03531971;-0.05663737;-0.06015438;-0.06649808;0.002346272;-0.019607833;-0.069210805;-0.041774634;-0.101581275;-0.037411768;-0.02122789;-0.10186424;-0.056377735;-0.047098212;0.0055467803;-0.040802304;-0.06169435;0.040808916;0.016332505;-0.020482859;0.04658034;0.009338671;-0.053915344;-0.09748557;-0.032076605;0.09137479;0.10691113;0.022541178;0.054902855;0.034495868;-0.035611153;-0.05464204;-0.061785016;-0.02804967;0.027950322;-0.04588079;0.06480662;0.028712977;-0.012456716;-0.02771266;-0.048469625;-0.04246931;0.026157416;-0.04372271;-0.027368098;-0.079268456;-0.06644327;-0.071656734;-0.0040175715;-0.047808126;-0.091429844;-0.03772441;-0.08068509;-0.071209475;-0.05067961;0.010366682;-0.0050801337;-0.021352522;-0.07442087;-0.009776862;-0.060995758;0.052441638;-0.102351554;0.030375523;-0.06292768;-0.008231992;-0.042614926;0.059882566;-0.06872011;-0.02418632;-0.029820064;-0.030583;-0.04300504;-0.057280764;-0.04921119;0.06164819;-0.001606297;0.024074249;-0.05952478;0.032680005;-0.009908894;-0.007600562;0.08325469;0.022996793;0.028758487;-0.046585742;0.07001076;0.06811739;0.07986873;0.06020768;-0.048350442;-0.0021007375;0.05839787;0.025511991;0.06236509;0.09043729;-0.058198206;0.034742203;0.10852416;0.11441651;0.04402746;0.091698445;-0.020271016;-0.086319916;0.045963343;-0.046575468;0.037852332;-0.068556145;-0.014394233;-0.061081767;0.03557781;-0.07267461;-0.0071109957;-0.068625316;-0.04618106;-0.054322105;-0.054025058;-0.081519745;-0.069507495;-0.07485835;0.019396855;0.06146761;-0.031238819;-0.10893145;0.07363964;-0.071809515;0.053030733;0.0015151545;0.05690169;-0.045896165;0.049382523;0.04328745;0.078373455;-0.01473707;-0.052858774;-0.048295353;0.026457803;-0.0543409;-0.03304503;-0.08985578;-0.027076175;0.0033165382;-0.022066612;-0.068368055;0.023663795;0.011745776;0.054801665;-0.021573465;0.058655865;-0.021122737;-0.04631248;0.05038502;-0.020301746;0.06226021;0.007983926;0.013739437;-0.023779351;0.059927355;-0.06753969;0.068643406;-0.031122586;0.015848622;-0.018101506;0.0014896702;-0.02789163;-0.0011267845;-0.058844626;-0.07359564;0.041775804;0.0252585;0.033551075;0.0464856;-0.07074836;-0.012068427;-0.0022095216;0.052628312;-0.059972275;0.0051767156;0.020569887;-0.011415162;0.0062255543;-0.09713381;-0.037155017;-0.03803467;0.0072448924;0.024783377;0.02327641;-0.011018303;0.062950514;-0.061223112;0.06057964;-0.021881681;-0.04900031;-0.052715704;0.034959085;-0.058945768;0.026055884;0.0258505;-0.02431384;0.018062804;-0.028216062;0.04048689;-0.008716814;-0.044749416;0.025400031;-0.08270926;0.08106854;0.05661324;-0.01818355;-0.0021316016;-0.035214692;-0.06915262;-0.06431303;-0.090510935;0.079767466;0.05259771;0.07719189;-0.0150530785;-0.019963682;-0.020000674;-0.062011886;-0.08324681;-0.07051623;-0.089467086;0.0013209181;-0.017042715;0.031531196;-0.02181545;0.031443007;-0.001241457;-0.10223045;-0.086977445;0.021305764;-0.029227182;-0.069335654;0.020072727;-0.09152401;0.050279327;-0.072579004;-0.004047178;0.020888489;0.050723724;0.03553736;0.00124149;-0.0038444155;-0.006826327;0.058612835;-0.017410196;-0.08776229;-0.037779707;-0.013340799;-0.028558316;0.036418524;-0.03125032;0.100999;0.08314977;0.08434401;0.029078329;0.039993092;-0.08885561;-0.049697276;-0.07547718;0.011049682;0.0076155765;-0.07706674;0.014274749;-0.07956652;0.043851808;-0.025952738;0.07035426;-0.036176622;0.025228806;-0.053634167;-0.07264946;-0.04027268;-0.074034184;-0.061226137
7;-0.0017525292;-0.031354774;-0.034959283;0.0028311394;-0.007210519;0.05977184;0.0584092;-0.016813485;-0.005884557;0.053725988;0.0070843766;0.004922236;0.0061455374;-0.0340367;-0.082575135;-0.03870067;-0.04413199;-0.042027675;-0.016762633;0.04074159;-0.02138028;0.022862682;-0.043373138;0.09503434;0.0907701;0.016980257;-0.05339355;-0.07016262;0.030936979;0.06311193;-0.09002703;-0.01886983;-0.04350028;-0.02514134;0.033881538;-0.04663563;-0.016773298;0.06939837;0.0662772;0.011370272;0.023065858;-0.04375514;0.047292836;-0.062374465;-0.051539496;-0.08296623;0.076348;0.066382565;0.06318841;-0.034181796;0.07735284;0.012775088;-0.002341155;-0.08438851;-0.06086225;0.06509196;0.08500383;-0.03597057;-0.017752232;0.044537693;0.04663666;0.0075870967;-0.077485874;-0.12675989;0.08152686;-0.007380648;-0.04377556;0.0089972215;0.025744513;0.030146552;-0.09274055;0.049383063;-0.07082792;0.1168423;0.034278862;-0.018327164;0.0577082;0.0799416;0.080837384;-0.005009476;0.03127852;-0.045239408;0.003882271;0.036286574;0.032728057;-0.008683956;-0.0010521029;0.0663254;0.004190178;-0.025942747;-0.06870018;-0.004522245;0.0005663103;0.0035696083;0.09755981;-0.022334287;0.0185539;0.048186697;-0.06060435;0.025899732;-0.068331145;-0.006158056;-0.08729073;-0.08720751;0.0377588;-0.0014982971;-0.002976833;0.040156472;0.05629912;0.06874543;0.03382934;-0.0045341784;0.013222561;0.010257737;0.031159364;-0.032830518;0.0071883216;0.07197178;-0.02986025;-0.018780084;-0.04316062;-0.038064275;-0.07886479;0.03315598;0.058049828;-0.032859087;0.055148974;-0.071060516;-0.07474943;-0.0940661;0.047312886;0.049194083;-0.0523703;-0.0014898428;0.050928432;0.033325657;-0.03481406;0.040679626;-0.022432802;-0.081543535;0.051008817;0.06361269;0.07905064;-0.026940692;0.025432773;0.06286208;0.02634336;0.027580565;0.014566795;0.069173485;-0.041437246;-0.046658885;0.037553657;0.0600239;0.09096994;0.05696548;0.06493221;0.09305675;0.034778453;0.006932906;-0.0533055;-0.064577356;0.0025834644;-0.0575401;0.03912603;-0.056832366;0.046721753;-0.03258883;-0.026557984;-0.068053775;-0.028236281;-0.066442825;0.02649951;0.01104724;0.06922953;0.067607015;0.014786195;-0.05653141;0.06493963;-0.09627534;-0.035700615;0.067833185;0.05947951;-0.029938795;-0.055728965;-0.06309989;-0.014639849;-0.041539356;0.060134;-0.047257;-0.04024646;0.009145959;0.07760816;0.0129369125;0.018091142;0.08536715;-0.07859676;-0.06897807;-0.03521874;0.0236402;0.055144098;0.052547827;-0.08277799;-0.036493924;0.04968138;-0.06607081;0.029504018;-0.0012406886;-0.04035128;0.07057347;0.102639735;0.10279789;0.08299347;-0.025071613;-0.005260069;0.052869916;0.009108675;0.0045873467;-0.008384253;-0.020494474;0.071749955;0.00215426;0.070337966;-0.015658408;0.03211148;-0.028097363;0.0030669104;0.06056131;0.059132103;-0.048974965;0.0625278;-0.013590946;0.06419223;-0.034640614;-0.022796368;0.082465656;0.048575923;-0.06714214;0.05346195;-0.06469229;0.06872073;0.052148577;-0.015035439;-0.085119046;-0.012325514;-0.050990034;-0.050456222;-0.07095574;-0.04945911;0.05152782;-0.021360863;-0.003203453;0.042602673;-0.011270391;0.01131774;0.059086107;0.055221874;0.099081874;0.01822525;0.082953945;0.0993649;0.092345;0.017222699;0.04240129;0.035802368;0.05532186;0.04820347;0.054925896;-0.0751507;0.035054985;-0.0035710037;0.035102844;0.0233622;0.03057956;0.0073326495;-0.056325093;0.106075056;-0.0024692505;0.08150449;-0.021740709;-0.04639447;0.06622925;-0.07221842;0.028176308;0.07608692;0.08918462;-0.050255407;0.04297305;-0.0023301218
8;0.0003499757;-0.03596463;0.04737856;0.008086602;0.05533441;-0.008310194;0.058455803;-0.0027505911;0.04897684;0.09712328;-0.013806832;0.10369266;-0.028605906;0.03362259;-0.0033740096;-0.030731473;0.014829204;0.04933103;-0.03567077;-0.004515908;0.053826015;-0.054077845;-0.044333976;-0.037243403;0.045720022;-0.030066777;-0.07000872;-0.04438574;0.079447486;0.08798375;0.10260823;-0.023516506;-0.045435395;0.10609321;0.039919674;0.07753857;-0.032220718;0.021970216;-0.012557464;0.08994586;-0.07430247;-0.056406558;-0.008641198;-0.110733114;-0.008495679;-0.0028898325;0.051599003;0.08255107;0.023058861;0.05554707;-0.007902826;-0.010429111;-0.12707195;0.044714384;-0.060350873;0.05334306;-0.027206758;-0.07809859;-0.021404112;-0.039655194;-0.053405717;0.07782649;0.08542579;0.07059555;0.10024851;0.0638731;-0.043465603;0.01132718;-0.04003629;-0.016069219;0.052749325;0.04789174;0.0038241942;0.03933654;-0.031993415;0.05681873;-0.0054864367;-0.058144018;0.008348776;0.08445333;0.026457788;-0.050709385;0.047471132;-0.038158666;-0.02675195;0.056838613;-0.026038917;0.08780413;-0.063430406;-0.061136335;0.05780203;-0.017481439;-0.06456874;0.052545648;-0.034389794;0.048643913;0.037797548;-0.05516277;0.025447665;0.021069383;0.06545354;0.06566456;0.025411297;-0.0010238509;0.06280263;0.016115531;-0.04969136;-0.0013921484;-0.0061836545;0.091322705;-0.052628033;0.013966805;0.019806992;0.0843554;0.069176085;-0.008228146;-0.05427832;0.08786266;0.04566659;0.025712855;0.005814895;-0.030280072;-0.02256142;-0.08103199;0.089359455;-0.047806963;-0.044323213;0.03530216;-0.0040922556;0.03706585;-0.020771476;-0.019712197;-0.03151214;-0.02058216;-0.023400152;-0.07444102;0.02449678;0.016661486;0.06911136;0.06483809;0.049998913;0.050482646;-0.03869205;-0.054990154;-0.034954097;-0.0012564622;0.015996447;0.059622258;-0.03197249;-0.004622381;0.044416364;0.037594415;0.03699472;-0.014060576;0.012238172;0.08732406;-0.021055415;0.035283305;-0.018932316;0.020959055;0.06048005;-0.042395543;-0.005717369;0.05231305;-0.0127594685;0.06501533;0.062906384;-0.017607454;0.052661117;0.07649141;-0.03153523;0.013216031;0.027559517;-0.017798627;-0.07962068;0.048223197;-0.048206434;-0.060127977;-0.07787877;-0.059995916;-0.021701802;-0.07263515;0.021978078;-0.06790732;-0.09871987;-0.03002146;-0.05650135;-0.07778526;-0.07813855;-0.0617605;-0.03241631;-0.07148427;-0.05749213;-0.08189615;-0.0004062683;-0.04144793;-0.08095796;0.020939795;-0.0012808118;0.001299896;0.07527311;-0.04476689;-0.0920401;-0.061925348;0.040261157;-0.008889543;-0.0033946105;0.0065462096;0.012464666;0.019680837;-0.042088334;-0.08692409;-0.042182595;-0.013499828;0.059386615;-0.027406424;-0.054844555;-0.013836975;0.08709478;0.013794486;0.047377255;-0.04052679;-0.06695187;-0.08227362;-0.04524295;0.02475273;-0.05676802;0.019879814;0.031448163;-0.034415804;0.071268395;0.04894331;0.020760579;0.003324099;-0.07567867;0.057366073;-0.053355236;-0.06127375;-0.05594353;0.036158405;0.06810066;0.018231757;-0.015961798;-0.07571713;0.033479314;-0.0705299;-0.042602137;0.044616833;-0.08748161;0.019484168;-0.04163107;-0.038893424;-0.03166998;-0.042358615;0.039502878;0.068210654;-0.042259965;-0.061556477;-0.029357385;-0.044682346;-0.026175136;-0.002385537;0.06744784;0.051116202;0.05897583;0.062366314;0.111574925;0.07631405;0.000648509;-0.064530976;0.03792791;-0.08489041;0.02921192;0.024252202;-0.01748378;-0.080696054;-0.09667236;0.06712547;0.03360935;-0.10237938;-0.020808462;0.09762854;-0.0024246795;0.027959153;-0.010505606;0.012372959;0.038920708;-0.004826352;-0.0046898243
9;0.0019647796;0.0574297;0.019046502;-0.055095512;0.048289664;0.09026796;0.04038152;0.024511704;0.07206404;-0.0863192;0.0096272165;-0.007329311;0.059569534;0.0004172549;-0.07285691;0.08385025;-0.043933034;-0.023635074;-0.030415835;-0.027532222;0.04534036;-0.04333292;-0.040088076;0.07826849;0.04517224;-0.04219946;0.06000612;-0.028828774;0.07302834;0.0022082506;-0.023329165;-0.040189117;-0.028349696;0.020109244;0.010418576;0.057081908;-0.031460978;-0.053007524;0.05264739;-0.009229065;0.032752156;0.03542312;0.055741873;0.06896873;0.06054844;0.030405456;0.031982195;0.023608726;-0.0015685429;0.049225952;-0.06915642;0.03901583;-0.00768799;-0.056902576;-0.08557698;-0.032889076;-0.02722972;-0.031108994;0.019954002;0.027578415;0.01288087;0.021116761;-0.039291438;0.034559418;0.07948249;0.029657226;0.063496344;0.08108277;-0.046900738;0.066690505;0.07090184;-0.013522611;-0.06842783;0.01084403;0.03651577;0.010246936;-0.044598866;-0.0052493387;-0.089517765;-0.06961996;-0.051138416;0.019914912;0.023924705;-0.07794923;0.052685533;0.080020435;-0.04729859;-0.06497705;0.06401994;-0.046864025;-0.04574007;-0.02718687;0.0520683;-0.010997524;0.023395082;-0.022273274;-0.0978788;0.051669423;-0.08425056;-0.046053197;0.03367263;-0.027675083;-0.029289037;-0.0056066923;-0.043943502;0.0015273063;-0.036913045;-0.01656489;0.030426499;-0.06276754;-0.009017833;-0.06258977;0.03467565;0.015172487;0.010101679;0.07618144;0.058138184;-0.0098242415;0.052821983;-0.08298274;-0.07522927;-0.020250436;-0.063178465;-0.023562096;-0.057241544;-0.059418548;0.029172517;-0.05410871;0.0006839422;-0.009276488;-0.019866316;-0.005848918;-0.07408851;-0.03327301;-0.06566808;-0.06373805;0.061077673;0.002426184;-0.03464901;0.0897477;0.104321435;-0.0152709205;0.023995098;0.0039794925;0.048889738;-0.05455011;-0.039162654;-0.058807135;-0.062878706;-0.09325235;-0.09020638;0.013954386;0.024065858;-0.00957773;0.07449518;0.06013298;0.0066389376;0.0039155846;0.008754332;-0.0056191552;-0.02043872;-0.06611769;0.01997597;-0.025190774;0.04784636;-0.050883308;0.050609566;-0.029856585;0.039269216;-0.035301495;0.042862583;-0.0059200423;-0.08167787;0.034917943;0.054748725;-0.06854366;-0.015193183;-0.072883956;-0.06609742;0.019222585;-0.07593331;-0.056390863;-0.045022864;-0.064819165;0.0034246906;-0.03821624;-0.036907345;-0.05548364;-0.037116338;-0.07263273;-0.04447078;-0.04813036;0.027847698;0.041113887;0.0079948185;-0.068349384;-0.0038236026;0.017901031;-0.042966083;0.078784965;-0.03978864;0.067559354;-0.033604745;0.063328676;0.028200623;-0.08145502;0.08930304;-0.059718937;-0.04119586;0.06731365;0.018393278;-0.012325801;0.053205285;-0.016813656;-0.04337617;0.06695499;0.06256704;0.07542753;0.053484432;0.04526941;0.036564417;0.011762524;0.04246704;0.04682845;-0.03910025;0.07053597;0.031833354;0.07835367;-0.025012398;0.025311628;0.07531106;0.030832162;-0.044151198;0.021687241;0.042119578;0.003377908;-0.037408445;0.036023628;-0.017917277;-0.04253385;-0.09003871;0.07283875;0.03441613;-0.08877962;-0.04248918;0.051316973;0.03860807;-0.030366385;0.067879416;-0.02147616;-0.11293795;-0.06920443;-0.024879748;-0.052552883;0.031139126;0.028075218;0.033476166;0.010811361;-0.03873177;-0.041341558;-0.0672275;0.072778895;0.07240172;-0.049637955;0.07571468;0.052787833;-0.032316558;0.043899238;0.09495209;0.0012602553;0.03942404;-0.071591295;-0.09512752;-0.02398057;-0.052817136;0.014119129;0.0065480405;-0.020835923;-0.010795944;0.042068433;0.07432717;0.019515166;0.047677472;0.056157257;0.021157429;0.081447445;-0.05117564;0.037781805;0.032863986
10;0.0024872818;-0.042702004;0.004981692;0.056852788;-0.06448597;-0.08088526;-0.035442743;-0.04764253;-0.090191424;-0.06890059;0.056918316;0.015162432;-0.055264432;0.01890922;0.038168967;-0.074698396;0.014895008;0.054841023;-0.031800766;-0.07821713;0.0026260111;-0.03019323;-0.03422593;0.018478103;-0.046286818;0.025883486;-0.011898542;-0.092554554;-0.0607923;0.0015703767;-0.0143758645;0.04395269;-0.038793806;0.020552848;0.077868834;0.05711193;-0.0031509341;-0.016628308;0.055766806;0.040159214;0.02953545;-0.07727598;0.0819518;0.00804803;0.036006693;-0.0044038687;-0.0824694;-0.032932635;0.038337756;0.07225448;0.02775416;-0.005326881;0.01383483;-0.08487731;-0.049499813;0.025615133;0.0721548;-0.007436155;-0.034648534;-0.07731491;-0.020705951;0.02412923;-0.09332573;-0.07635169;-0.031042429;-0.025949582;0.08462753;0.08304392;-0.039270736;-0.065952435;-0.022188583;-0.07074826;-0.023530569;0.012366237;-0.013170766;0.04340823;-0.06539294;-0.0049896664;0.07530205;0.01411219;0.011982296;-0.044377547;0.058916572;0.05273469;0.0167778;0.0678892;0.09373758;-0.019269947;0.0022477112;0.07241184;0.067593545;-0.0020310322;0.07128897;0.011718537;-0.06605065;0.028655438;-0.04214039;-0.05489323;0.0034224242;0.052691612;-0.028559074;-0.05729453;-0.00352448;-0.052628946;-0.018674828;-0.040369544;0.0596897;-0.057776146;-0.039475836;0.020851789;0.01202559;-0.02842264;-0.024192803;-0.018798443;0.001392958;-0.001021714;0.05987714;0.036874108;0.0016791021;-0.030147148;0.06420094;0.008094044;-0.101651296;0.014412915;-0.09490653;0.030918967;-0.015291068;0.073918425;-0.01397088;0.036526617;0.0062892404;-0.08198835;-0.023520553;-0.10424418;-0.09538567;-0.018268472;-0.08464868;-0.0121924225;0.04714646;0.07596795;-0.04918088;0.03002433;-0.019749105;0.07049659;0.06089552;-0.095560335;-0.076458365;-0.012129356;-0.071835354;0.01618991;-0.039015215;-0.064700775;0.033183474;-0.015716711;0.009076227;0.0862443;-0.04744006;0.0059679723;0.0449323;0.02744653;-0.07809561;-0.008455363;0.01654704;-0.008649026;0.03700111;0.0563464;-0.051984254;0.05508319;0.07629526;-0.034680482;-0.09537306;0.011386308;0.035383593;-0.015401983;0.088546924;0.04091694;0.0016522363;-0.03819981;-0.09201821;-0.013303245;-0.016331486;0.065797694;0.07653769;0.06336996;-0.08543835;0.059916064;-0.05726394;0.00496785;0.002959345;0.0059755477;0.040936388;0.015766894;0.06956271;-0.07552438;-0.07967679;0.05381285;-0.081038855;-0.06616988;-0.05532395;-0.07446509;0.054283347;0.04119513;-0.0743803;0.009568572;0.060373314;0.078189924;-0.006334111;0.07333026;0.12377633;0.071718216;-0.0026707954;0.010625299;0.13281089;-0.03212097;0.022664443;0.07240967;-0.047135122;0.0063138725;-0.07768292;0.025849678;-0.04018406;0.041171376;-0.03862592;-0.034007683;-0.009976247;-0.03301497;0.07104452;-0.019272912;-0.059067167;-0.027784565;0.08598188;-0.045381997;0.05193564;0.082644954;-0.05555399;0.023497794;-0.07393847;0.026237862;0.08969604;0.047981583;-0.07551013;-0.04058359;0.03700313;0.010099663;0.06849409;-0.004615228;0.045929104;0.043830197;0.011181327;-0.01952627;-0.050322775;-0.036092997;0.03895605;0.07685342;-0.063867204;0.016112145;0.087318845;0.079418786;0.05544647;0.0020128163;0.015105062;-0.03691947;-0.013719146;-0.075974904;0.021903714;-0.0740839;-0.10769666;0.047888875;0.007090007;0.0012508959;-0.10249169;-0.018698798;-0.015455935;0.044233978;-0.06539346;0.053458784;0.048862685;0.039857645;0.0060747303;0.0762458;-0.049027387;0.08111606;0.08495993;-0.038741484;0.04276474;0.026626559;-0.06600029;0.025369687;0.06968343
11;-0.006537344;0.0146336565;0.017757015;-0.015511856;0.05505272;-0.04794316;-0.023119427;0.01542215;-0.021480242;0.09442158;-0.0059158364;0.026591774;0.091049336;0.020938396;0.042901967;-0.020316657;-0.04407673;-0.0071693105;0.007593416;0.053634897;-0.010668784;0.048887994;-0.0049861;0.057031672;0.04414845;-0.04647997;-0.041161947;0.033567615;0.06453942;-0.09775706;0.035298184;0.030732037;0.024564324;-0.061954122;-0.07070902;0.004968922;-0.05206181;-0.035592828;-0.01529932;0.027776845;0.015064062;0.0999371;0.114130676;0.017446943;-0.035883747;0.035340548;-0.040151406;0.070533894;-0.04830574;-0.030133618;0.044920217;-0.030477043;0.04984583;-0.012406525;0.06860458;0.06854542;0.024532428;0.08715311;0.046781972;0.089957744;-0.060376044;-0.051204972;-0.042831797;0.07359234;0.04720392;0.03411207;-0.10394334;0.06917873;0.0070433468;0.04488559;-0.06377869;-0.0029832586;0.084947854;0.03907697;-0.057091746;0.020150332;-0.039648257;0.0289679;-0.027780725;0.0044609816;0.032631814;0.0073591247;0.06908988;0.013721879;0.05754255;-0.046205018;0.017491236;-0.029970203;-0.02052437;0.013649189;-0.06934462;0.0320348;0.07618846;0.05294207;0.0035631657;0.037683222;0.0050420756;-0.020309446;0.008120294;0.076513834;-0.07187906;-0.10089976;0.021105083;-0.1009492;-0.018995732;-0.030550059;-0.027159434;-0.052015413;0.045323025;0.048640747;0.050053276;0.071681194;-0.06733813;0.075969666;0.041045304;-0.04411806;-0.008188692;0.040936604;-0.053770013;-0.04616652;0.016545793;0.07759634;-0.058009118;0.03555615;0.02671858;-0.048377622;-0.031253632;0.035828672;0.09832026;-0.06578882;0.017101489;0.044028513;0.0035773832;0.01673357;0.06437153;0.109659106;0.06975666;-0.02353073;-0.05626254;0.03227992;0.083472766;0.057372045;0.084484234;-0.06818222;0.03594539;0.05928018;0.018901236;0.09882827;-0.04357062;-0.015625676;0.018184843;-0.07137943;-0.0285115;0.064318374;0.01011688;0.013726937;-0.026129244;0.038246322;0.025383374;-0.051238667;-0.026334852;0.060354892;0.006153107;0.009617634;-0.053923286;0.0055919485;-0.06294818;0.079260744;0.083624244;0.0594397;0.059001595;-0.0037299583;-0.046478536;0.023284648;0.030275993;0.022805164;0.028068434;0.034835763;0.026174705;0.008450718;-0.04298622;0.08237994;0.0055716624;-0.052753232;0.06903336;0.02028153;-0.06902478;-0.04747619;-0.03334328;0.060462147;-0.056136742;-0.07583617;0.03977442;0.05630798;0.06574435;-0.077068955;-0.036512606;-0.04392024;0.031143228;0.0090814615;0.034982834;0.05649246;0.063417025;-0.05388891;0.06640258;-0.035990346;0.0033849766;-0.10272042;-0.031508226;0.014206568;0.050733425;0.039882965;-0.0053729583;0.04953309;-0.001393676;-0.053909797;-0.015557442;-0.07504205;0.08619852;0.057777524;0.019049967;-0.06810326;0.043837193;0.029372303;-0.03087085;0.0787849;-0.05127777;0.010659779;0.05861216;-0.010367391;-0.04350958;-0.039892998;-0.058712486;-0.0018426605;0.028384667;0.010417565;-0.0020858652;0.07844387;0.062220164;0.08010251;0.0074639875;-0.02731597;0.046384484;0.03636322;-0.025951121;0.037967555;-0.095118366;-0.004659959;0.06378755;-0.064017124;-0.04349915;0.06772169;-0.017352236;0.005747977;0.079823256;-0.055228483;-0.010125866;-0.014848947;0.07561983;0.0040428536;0.0752472;0.04217542;0.045986183;-0.08060623;0.024717573;0.083974086;0.041905947;-0.032010064;0.07699954;-0.03240963;-0.05152951;-0.06702515;0.064697094;0.048761714;-0.014031746;0.064940885;-0.026948776;-0.06468513;-0.0021575245;-0.06598893;-0.105938375;0.03788902;0.0102781365;-0.018418077;-0.03677753;0.018693136;-0.04429957;-0.07976328;0.0066985623
12;-0.0009301278;0.010179495;-0.046175607;-0.016715;0.039246883;-0.080085725;0.07248656;0.08803375;0.0314907;0.0052037775;0.03351831;-0.061838754;-0.03284375;-0.0068923607;-0.09000034;-0.07095985;-0.09592589;-0.06755335;0.0039005852;0.05177047;0.046532;0.0006273168;-0.03515872;0.08158523;-0.05188277;0.026417434;-0.010040792;-0.036317468;-0.05807442;0.031557497;-0.035163105;0.047495443;0.060806118;-0.004008461;-0.015549019;-0.035903428;0.05814837;0.027771553;-0.005027561;0.07381639;0.034048185;-0.07272592;0.0056720143;-0.034323487;0.03554282;0.041096896;0.04726924;-0.039387982;0.11594463;-0.050557114;-0.052976124;-0.007162118;0.0032885591;0.027358958;0.046142153;0.08600238;0.07281393;-0.009772813;0.0078073186;0.026198199;-0.088678114;0.015301217;-0.044552956;-0.034824517;-0.060978346;0.07039127;0.028478475;0.03907499;-0.035165437;0.03875867;-0.028030599;0.058990244;-0.051267434;-0.056899197;-0.06737891;0.0527293;0.05435445;-0.010136582;0.06366547;-0.032532193;0.0055194413;-0.060859192;0.047789592;-0.073781885;0.07989551;-0.06895532;-0.06581121;0.06463392;-0.010311337;-0.050414443;0.06219616;0.043202113;0.104579456;0.08905248;0.011417326;0.048309583;-0.022962792;0.0037035872;-0.09660483;0.030315515;-0.07221538;-0.08749665;0.07773698;0.0016206352;-0.050789993;-0.07400366;0.083349876;0.014303439;-0.006763403;-0.028679661;0.083298855;0.014270651;-0.03596648;0.013387041;-0.027880548;-0.05069931;-0.056416996;-0.058223408;-0.017586883;0.077513434;-0.031545497;0.07129741;0.0046683154;-0.019677114;-0.013876543;0.027096158;0.060962196;-0.013816995;0.02640236;0.055525567;-0.043441266;-0.031433668;0.008590507;0.06083691;0.012357104;0.0095863165;-0.09547558;0.014516628;0.032229986;0.005533586;-0.075772725;0.03859324;-0.0722611;0.06388234;-0.0062521384;0.06429991;0.001299907;0.08878111;0.0008500827;0.0036070333;-0.0116445;-0.012067054;-0.010042757;0.011352705;0.05781972;-0.00126485;-0.06978353;-0.0041014156;-0.037331693;-0.0057222643;0.06724304;0.017380051;0.050736003;0.062940784;0.009923822;0.011629286;-0.046673756;0.0015277303;-0.02607662;-0.062291194;-0.05023146;-0.045929506;-0.01749164;0.08734542;0.033696376;0.08857309;0.06176919;-0.010103267;-0.017262531;0.057691548;0.040310334;-0.042703506;0.049948428;-0.02127626;-0.048972674;0.052483287;-0.013087431;-0.02226624;0.05594336;-0.05650265;-0.05615111;-0.028926607;-0.010439921;0.07001767;-0.05178174;0.07098467;0.0064685023;0.089092836;0.059885595;0.07545391;-0.019662505;0.05592552;0.020505056;0.054439135;0.00046211554;0.021569079;-0.011805536;-0.104700714;0.084221594;0.05770383;-0.07486429;-0.08211215;-0.008962607;-0.04512267;-0.051917937;-0.024317198;-0.041491978;-0.060818028;-0.032700457;0.021493101;-0.0038686118;0.027968377;-0.012339333;0.022482855;-0.021366125;0.030544829;0.00285629;-0.033102874;-0.019629786;0.07143785;0.0027061356;0.080285124;-0.055708032;0.059309214;-0.025171595;0.022421505;-0.05698238;0.034706574;-0.011655331;0.039858863;0.035330374;-0.028964376;0.017943425;-0.0104947295;-0.013685353;0.020330299;-0.027684972;-0.030168474;0.093916826;0.025989141;-0.07349196;0.0095541505;0.083223686;-0.0076308064;0.013016099;-0.051791925;0.05087446;0.038851783;-0.024110889;-0.045501433;0.004138045;-0.033225562;0.01917825;-0.09510284;-0.08406546;-0.03325953;-0.07203531;-0.09510583;-0.08089647;-0.084897615;0.054947536;0.0020855311;-0.04903993;0.0015128958;0.07918186;-0.040715385;-0.07726204;-0.03677173;0.07465207;-0.08555017;-0.09981803;-0.010065531;-0.047414053;0.017153444;-0.009727719;-0.054650303;-0.06088886;-0.072589986;0.05125843
13;-0.002631014;0.012577959;0.024153898;0.05017939;-0.003916481;0.001141571;0.0056238757;-0.026422681;-0.03842115;0.0049418067;0.06577241;-0.0020657356;0.07024271;0.0744538;0.0041149147;-0.06329357;0.061883368;-0.05221069;0.01934878;0.029413812;0.022988783;0.02834433;0.04312951;-0.06378843;0.0036515512;0.0360672;0.078011535;-0.046342857;-0.04236449;-0.05220464;0.003646227;0.055606518;-0.033134304;0.08270119;0.07227683;0.039788894;0.034905866;0.021230115;-0.10503352;-0.06392237;0.056742705;-0.057413563;-0.019266844;-0.034474745;-0.07442105;-0.04419563;0.0007053333;-0.053303894;-0.019307425;-0.031445358;0.040513758;0.032813393;-0.022657303;0.07459963;-0.06312881;-0.047802754;0.0173137;0.089690395;-0.025205385;0.10921833;0.039316844;0.052427813;0.0029119952;0.06389466;-0.07226947;-0.021412712;0.007946199;0.058314815;-0.005428439;0.017925521;0.06615604;-0.007070025;0.08016384;0.016592508;-0.048397075;0.059337664;0.0131696435;-0.019822413;-0.074133255;0.030414065;0.011670983;0.025322357;0.016696112;-0.07853758;-0.019710544;0.040169325;0.0677539;-0.020991769;-0.044516295;0.018024852;-0.0007503916;0.0012917958;-0.048941404;-0.07684596;0.020045953;0.0686545;-0.10559623;-0.056588385;-0.050526593;-0.04072435;-0.056790616;0.053318065;-0.008789217;-0.057956293;-0.054030698;0.013822416;0.007997716;-0.037927907;-0.04880818;0.018149463;-0.026916867;-0.0072731804;0.042393062;-0.088832304;-0.010470508;-0.08340091;-0.010952562;-0.07676091;-0.04531428;0.007343233;-0.06298975;-0.021480344;-0.020894246;-0.065796785;-0.010949021;-0.049793467;0.033875335;0.009808289;0.022591148;0.033105034;0.047660958;-0.03202326;-0.034923483;-0.014721544;-0.050884694;-0.08200462;0.016518023;0.05259737;0.02311579;-0.056222677;-0.1082724;-0.07844775;0.023096193;-0.016507199;-0.016651094;0.033806108;0.012882271;-0.07612188;0.024207303;0.057181858;-0.042349093;0.026535872;-0.06875021;-0.034015242;0.007547222;-0.08066594;0.0002007286;0.009117167;-0.0009938115;-0.06122802;0.033960648;0.06085347;0.07241562;-0.011789674;-0.0614198;-0.024635747;0.028700406;0.03696036;-0.041185472;0.039700694;-0.05044501;-0.05047351;-0.039624292;-0.05044148;-0.0936674;0.06838382;-0.061041642;-0.044414673;0.050735887;-0.008797386;-0.014424471;-0.06837579;0.02295765;-0.08630454;0.026294464;0.037717335;-0.056583803;0.053144056;-0.056702055;-0.060015775;-0.01924093;-0.034642674;-0.08463998;0.010046497;0.04546865;-0.056056567;-0.03340104;0.0117078;0.05614961;0.016349288;0.05846053;0.024975743;-0.07520869;-0.037499715;-0.028041044;-0.05363659;-0.099011354;0.034887787;0.059501033;0.04773295;0.031727023;0.08010689;-0.01750918;-0.023845235;0.04299496;0.063722715;-0.029453516;-0.022086054;-0.07161598;-0.047780402;-0.103911616;-0.06706029;-0.014481495;-0.07651576;-0.08504249;0.050197355;-0.055264413;0.0474623;0.02392667;-0.068320066;0.052972507;0.008172305;-0.017123325;-0.097793184;0.05031359;-0.09056962;-0.07517504;-0.015981024;-0.047609054;-0.05528735;-0.029494816;0.065418914;-0.017470121;0.00056712586;0.020200092;0.050501492;-0.050946675;-0.095504515;-0.040214438;-0.04677079;0.04144327;0.05041972;-0.04366549;0.060257617;0.066095926;-0.0157319;-0.013876142;0.0057307007;-0.007970522;0.059077933;0.02362733;0.06154897;0.05196029;-0.014033075;-0.04508827;0.06524809;0.0017663721;-0.011263245;0.04899968;0.04705454;-0.06857597;-0.02736999;-0.030214893;0.027799526;-0.009592398;-0.117218;-0.07854564;0.02129766;0.009859665;-0.036169726;-0.05695929;-0.089784704;-0.040750008;-0.097897865;-0.07213297;-0.07376984;0.036295112;0.019268608;-0.074267305
14;0.0017345678;-0.10345845;0.015579755;-0.025233923;-0.0982709;0.0044936794;0.031956192;-0.017796226;-0.052798066;0.03091109;-0.032137323;0.037925024;0.0029124017;-0.012880031;0.06394211;0.02586842;-0.055637967;-0.0027118153;0.0072333463;0.031595785;-0.052629303;-0.03562648;0.06599488;0.0041773715;-0.015269976;0.09533349;0.023371568;-0.064070866;0.0055421903;-0.07996164;-0.0146952;0.03900342;0.024832183;-0.05961286;-0.041946165;0.006608465;0.032716103;-0.07177429;-0.07491259;0.031141361;0.05591917;0.020795925;-0.025495227;-0.10523594;0.0026828665;-0.023030514;-0.023458922;0.037229892;0.05677188;0.114627734;0.0959793;0.08396905;0.061974145;-0.025542269;0.021571256;-0.042400923;-0.028870344;0.013577328;-0.03326617;-0.06971056;0.01092212;0.08571865;0.045603972;0.046028987;0.12572181;-0.039846383;0.023456799;0.05206583;-0.05103257;-0.09587709;0.08875527;0.025298882;-0.001721024;0.05494428;-0.026042627;-0.0010685507;0.008263267;0.023897681;-0.03557577;0.05535326;0.007511387;0.0067842775;-0.053704564;0.06719928;0.03946458;0.04243128;-0.026632579;-0.049006443;-0.03668118;0.073058456;-0.06950218;-0.01196168;-0.005598908;-0.007657416;-0.0054950244;-0.043793093;-0.025193151;0.005905463;0.045264162;-0.005960579;-0.041436855;0.04588826;0.020439448;0.026616734;-0.048157096;-0.005867179;0.01135496;-0.021602672;-0.036909577;-0.02366313;0.0478483;0.0015645494;0.062224764;-0.01518792;0.0635646;0.07450496;0.07547519;-0.07661711;-0.068783514;-0.0860739;-0.03028278;-0.078472845;0.0014371024;-0.0009527211;0.08486501;0.0053307684;0.01785868;0.045124426;-0.01572478;-0.01698748;0.033193074;-0.109716445;-0.014720321;-0.11191329;0.041303;-0.016557653;-0.04375352;-0.03794089;0.003397982;-0.050952647;-0.06409104;-0.04453261;-0.041618586;-0.06410909;-0.06782497;-0.051043406;0.026462581;-0.07677016;0.02991352;-0.0060452167;-0.02376658;0.09153965;0.064299814;0.0052734017;-0.054261733;-0.06809718;-0.033271946;-0.004649735;0.016533699;-0.00088077935;0.05432325;-0.08661946;-0.074343584;-0.007123338;0.030653773;-0.032191046;-0.026982622;-0.023284128;-0.048726857;-0.010869181;-0.009594691;0.065325424;-0.073384635;-0.07666738;0.03720996;-0.05619309;0.045977894;-0.045237277;0.009219746;-0.039298277;-0.060950376;-0.08462379;-0.024359388;0.0616959;0.04828141;-0.014756742;-0.0541385;0.040770214;0.012545232;-0.06527992;-0.05192631;-0.05786702;-0.027879909;-0.024250789;0.00010457625;-0.030924685;-0.051454723;0.053408965;0.061795987;0.034506164;-0.040672492;-0.07982752;0.021486126;0.08058609;0.036001008;0.02684557;0.028372027;-0.01624951;-0.048018146;0.052420795;-0.012178642;0.035104245;-0.030284356;-0.0012136308;-0.02306248;0.014413063;0.07191852;0.004585732;0.0006631197;-0.013436886;-0.087722726;-0.07458149;-0.019039184;0.026142607;0.008369108;0.07241638;0.017962871;0.04988377;0.04155925;0.06533917;0.056628045;-0.007976075;0.017976338;0.045566764;0.04595667;-0.02715421;0.01384119;0.022576936;0.031426687;0.054967392;0.047026817;-0.038084973;-0.04691808;-0.080605224;-0.07958073;-0.050852988;0.054665048;-0.0016863843;0.026057573;-0.06953798;-0.021078432;0.008492051;-0.02341687;-0.012397665;-0.07810673;-0.011385515;-0.10220037;0.0033467312;0.0060245935;0.022054026;0.036730066;0.009881013;0.0027040145;0.006343923;0.038395744;-0.068984725;0.05105343;-0.08025058;-0.07728015;-0.018766604;-0.09283709;-0.072164916;0.0064848936;0.006457958;0.018449487;-0.084132664;-0.0710298;0.018140275;-0.00042499957;-0.038658686;-0.008960439;-0.061633833;0.013429725;-0.035409506;-0.014200628;-0.087165676;0.07485472;0.030126978;-0.022570638
15;-0.002655201;-0.04911273;-0.047318317;-0.089134336;-0.047938623;0.06377041;0.039262995;0.024238227;0.0879883;0.012041229;-0.07518944;-0.0639727;-0.06943566;-0.0033159573;-0.047672722;0.08691581;-0.050906435;-0.05605097;0.06473835;0.00065964926;-0.067682154;0.059386604;0.050252177;0.07374592;0.07399567;-0.012748735;0.060577042;0.035447795;0.044154245;0.014344057;-0.059573017;-0.01288794;-0.06512031;-0.106057756;0.025145685;-0.038986415;-0.04525664;-0.023647618;-0.032554097;0.05296265;-0.0062352056;0.055984013;-0.08798768;-0.049197964;0.05341487;-0.012240602;0.057345625;-0.09612656;-0.054995794;-0.024238622;-0.074812286;-0.050002914;0.041461732;0.015707998;-0.043340113;0.07227067;-0.054947205;-0.056825213;-0.0047591287;-0.027234128;-0.047065377;-0.05591219;-0.07408294;0.07912215;-0.047534335;-0.07877959;0.04513095;-0.06122221;-0.055057194;-0.0661863;-0.0011566323;0.016503407;-0.0049293246;0.004772032;0.058805052;-0.052407105;-0.06059985;0.01997013;0.026772976;-0.005654466;-0.027572202;0.016073909;0.002443937;0.071461245;-0.056502737;0.039413806;0.014885564;-0.09387687;-0.035339195;-0.045124844;-0.077400476;0.030283256;0.01113597;0.036316328;-0.07528279;-0.012381731;0.01231065;0.042103477;0.011800385;-0.047357213;-0.029832752;0.069960155;-0.08589451;-0.028459996;0.010784241;-0.047723416;0.0633039;-0.014455708;-0.089792214;-0.0059595252;0.052697368;0.017859254;0.00493336;0.079134524;0.02332293;-0.020572316;-0.033227675;-0.07237323;0.06614692;0.021641687;-0.067825444;-0.0062657706;0.05925343;-0.01626169;-0.019674132;0.02819531;0.005541332;-0.08544971;0.011467066;-0.090262026;-0.099633284;-0.05135429;-0.09121206;-0.01741984;-0.06449023;-0.056574967;0.0009202399;-0.07959761;-0.09815548;-0.074560836;-0.04054941;-0.045842137;-0.06257736;-0.008617726;-0.012945355;-0.0022243303;-0.010502755;0.050040092;0.091821365;-0.03209534;0.050626703;-0.07269254;-0.017242206;0.0806153;-0.07769589;0.012911004;-0.10162301;-0.0598742;0.05459332;-0.030935029;-0.037800252;-0.055544313;0.043959476;-0.012854626;0.049966875;-0.032361496;0.034883052;0.037642743;-0.052420508;-0.051128082;0.07410781;-0.079201825;-0.059296593;0.002778573;-0.098503955;-0.08913204;-0.04563204;-0.017096639;-0.012421955;0.047809474;0.054861814;-0.06171673;-0.06583082;0.01587908;0.02229376;-0.021189624;-0.10005797;-0.064621545;-0.009994354;0.020333834;0.06077304;0.058780275;0.04342994;0.023908287;0.012397814;-0.06863966;-0.0059661814;0.06610073;0.052435488;0.0481449;-0.01943402;0.024667412;-0.050877903;-0.07557807;-0.06976552;0.010930984;0.026763054;0.04613274;-0.057165086;0.03609817;-0.016228775;-0.09071082;0.011733247;-0.014212093;-0.049832504;0.041820314;-0.064596236;0.030111311;0.041739937;-0.057636958;0.011973486;0.070483394;0.09097574;-0.042160735;-0.023549682;-0.07648677;-0.06779137;-0.08211871;-0.018207857;-0.059673008;-0.038424548;-0.0003989058;-0.021087283;-0.06598372;-0.00049972674;0.017826408;-0.05940074;0.017484818;-0.040069614;0.053070746;0.058611117;-0.030405395;0.04989542;-0.0032251535;-0.007882555;0.050996076;-0.0828128;-0.007632022;0.093737915;-0.015096901;-0.06472005;0.022439303;-0.052193232;-0.06446081;0.04815272;0.012970569;0.01798693;-0.022039777;0.035077754;0.060874876;0.032979865;0.0011819374;0.012403992;-0.054305978;-0.033393454;0.0001622868;-0.027774973;0.040900536;-0.007885611;0.010844025;-0.033413686;-0.062484667;-0.03931469;-0.09022021;0.023476247;0.054449283;0.069268964;0.025135146;0.06140253;0.0011899405;-0.07573573;-0.07313974;0.054984313;0.010405772;0.018905098;0.037486825;0.06831014;-0.044942014;-0.034250963
16;0.0021580802;-0.047850337;-0.095806494;-0.039499853;-0.002995007;-0.04467201;-0.026287025;-0.06961883;-0.092162795;-0.10283855;-0.04649427;-0.0703179;0.05108088;0.024405329;-0.017136747;0.041621175;0.09076115;0.06338927;0.028671497;-0.0640098;-0.03213486;0.027541121;-0.019537635;-0.122009516;-0.06450908;-0.10999077;-0.12580748;-0.03983159;0.025455251;0.0028508229;0.092244975;0.014326986;-0.0065084663;0.0323824;-0.05140305;-0.033203144;-0.060802113;-0.059380323;0.034768723;-0.012210761;-0.0046886625;-0.092106365;-0.05178393;0.05254967;-0.083266325;0.04489118;-0.08100244;-0.019895844;-0.09009389;-0.08764006;-0.05782475;0.0409717;-0.08592841;-0.03675348;0.015381615;-0.037551668;0.06805457;-0.04113094;0.03958496;0.027019847;0.042591963;-0.007477948;0.026219793;-0.008273645;-0.10668005;0.030780932;0.02185093;-0.0021533077;-0.008044496;-0.07433228;-0.05346317;-0.087124705;-0.05616182;-0.03703081;0.03747531;0.040691603;0.008989747;-0.033683695;-0.09006776;0.048482925;-0.04298224;-0.029287469;0.020143064;-0.021234961;-0.007504088;-0.041349974;-0.0150879035;-0.0031586022;-0.054584287;-0.03180294;0.030174272;0.012220368;0.008781648;0.04661653;0.028689796;-0.04086148;-0.015905496;0.056188982;0.07390804;0.026436677;0.06007591;0.013344583;-0.042813316;0.002437494;-0.06405608;-0.0699942;0.089613;-0.014043373;-0.0627051;0.0032440508;-0.07515901;-0.051822204;-0.014224548;0.009186177;0.07935933;0.10072574;-0.004509738;0.020118045;-0.03791089;0.04780988;0.00054526166;-0.0333691;-0.029343273;-0.022722792;0.08078894;0.0117195835;0.050084177;0.05416469;0.0284908;-0.049207035;-0.07162768;-0.06925616;-0.08338072;0.06412116;-0.035340436;-0.06708878;-0.096500866;-0.008282029;-0.021323476;-0.001444081;-0.07662468;-0.020413484;0.018963441;-0.040165745;-0.06610406;0.009487822;0.01422979;-0.07147944;-0.047668964;-0.07252772;-0.05958158;-0.009037521;-0.0850737;0.06578994;-0.00735999;0.09274835;0.0853105;0.04244577;-0.041738644;-0.012423999;-0.043902047;0.101071134;-0.041914318;-0.034992687;-0.036912486;-0.06412055;0.0693371;0.000447999;-0.0660132;-0.008392901;0.009623673;-0.02290525;-0.043238938;-0.025656225;0.009372505;-0.044724755;-0.018576762;-0.11724284;0.06337024;0.009900764;0.043188557;0.07557841;-0.026205597;-0.028189773;0.040594712;0.015427558;0.08066768;0.04433824;0.04245535;0.089721605;0.04746353;-0.07738382;0.059348725;-0.10101748;-0.018014325;-0.082936525;-0.020900374;0.010221888;-0.029619275;0.031939313;-0.011555345;-0.06866736;0.0600501;-0.012817638;0.023416273;-0.024260541;0.047921386;0.0028614528;0.023861986;0.0036084738;0.019177726;0.07492928;0.05241637;0.09754565;-0.07454324;-0.0049507883;-0.0036401101;0.027471542;0.063818924;0.0873825;-0.040806007;-0.04934686;-0.09189759;-0.038608868;0.042270727;0.019211119;0.037234504;-0.03561579;-0.0021055376;-0.06255044;0.04024428;0.08102175;-0.025505453;-0.00050773495;0.09593155;0.02535303;0.032136157;-0.016674187;-0.044304006;-0.004343958;-0.046691556;-0.05120718;0.08191639;-0.03746454;-0.0781157;0.042856798;-0.013735355;-0.052598484;0.011176048;-0.010920415;-0.07054171;-0.017405631;0.039969202;0.017218033;-0.037862062;-0.11132436;0.055623546;-0.014998929;-0.028863989;0.07267365;0.017203521;-0.06869734;0.068990685;0.029539727;-0.017244648;-0.067559995;-0.072278745;0.051959176;-0.037222836;-0.049847864;0.05323781;0.014860982;-0.072117925;-0.08007415;-0.012411286;0.03229312;-0.07873912;-0.08560727;-0.02815307;-0.09408554;-0.017329674;-0.052916143;-0.005375332;-0.008526551;-0.09019045;-0.005576559;-0.06704267;-0.08840129;-0.02441949
17;-0.0004541669;0.029763848;0.048384126;-0.07188157;-0.09109967;-0.010163205;0.048157446;-0.040391155;0.0034947917;0.029427677;-0.033098258;0.028070644;-0.0011021155;-0.07861223;-0.068914056;0.05799095;-0.032282453;-0.0034332774;0.061953254;-0.028968556;0.043141864;0.060986537;-0.005631855;0.12298296;0.10017708;0.1095249;0.021920513;0.0770737;-0.058986165;0.018630933;0.079361096;-0.020161599;0.063504726;-0.05780848;-0.10644883;-0.06027938;-0.04002;-0.062069446;-0.09740275;-0.074793614;-0.09843371;0.010015694;-0.014745344;-0.053286936;0.06817625;-0.0644513;0.013599673;0.09991857;-0.03474692;-0.018377028;0.13246346;0.08428553;0.05534011;0.096606;-0.04808008;-0.076666825;-0.0025021727;0.0026856614;-0.06601391;0.01589394;0.04755806;-0.07281813;0.04968708;-0.0402023;0.0826771;0.09916173;-0.014524319;0.072433956;0.0035933189;-0.012701045;0.0279858;0.05158345;0.04933552;-0.008477804;-0.0057168114;-0.05506552;-0.023519857;-0.08684625;-0.012522778;0.043974362;-0.02782064;-0.09103335;-0.07338419;0.065750144;0.00478175;-0.054543477;0.09254603;0.02818347;0.080915816;0.028556228;2.2060703e-05;0.08416425;-0.015200973;0.051714122;0.06692785;-0.062172674;-0.018148094;0.016414043;-0.07774957;-0.017285187;-0.008345311;-0.0015768767;0.064939745;-0.020626184;-0.06378753;0.03985914;-0.047927704;0.010010622;0.0645654;0.05960693;-0.0075677927;-0.04049446;-0.029674917;0.0895303;0.07582238;0.07414673;-0.009405006;-0.026252303;-0.03669099;-0.061444726;-0.06436139;0.0366431;-0.037573177;0.025719104;0.061064523;-0.06296577;0.043862697;-0.057975963;-0.032314893;-0.07231589;-0.017670099;-0.024241552;0.0439727;-0.025176646;0.009743321;0.04474303;0.032216385;0.0028703145;-0.062838316;-0.10925174;-0.07190461;-0.0042458414;-0.010761305;-0.026857777;-0.0021664975;0.023554148;0.055159625;-0.0055988417;-0.06379188;0.08017602;-0.06902041;0.030985042;-0.020677952;-0.04715759;0.039126724;-0.05581523;-0.05424872;-0.045010425;0.03661464;-0.017589532;-0.0015333727;-0.07357277;0.0072393967;-0.02603418;-0.084364735;-0.098490976;0.01898052;0.06592216;-0.058326717;-0.058515657;0.0017548528;0.01590073;-0.06449965;0.0045206174;-0.057059925;0.06844198;-0.08320586;0.035104174;-0.027567932;-0.08999539;-0.07748654;-0.006417282;-0.0851414;-0.0799524;0.05284543;0.06335502;-0.10417402;0.039102934;-0.025778107;-0.02709982;0.03437088;0.047529537;0.047709048;-0.037845843;0.045692567;-0.0023167215;0.042890403;0.004535836;0.05580292;-0.06847748;-0.08095398;0.08711507;-0.07855371;-0.037841626;0.07372713;-0.045223612;0.05100958;-0.0805151;0.024403218;0.038051456;-0.016131876;0.055240143;0.05901121;-0.09423354;-0.007025781;0.04754338;-0.044190597;0.017701834;-0.01622736;-0.039982796;-0.07330094;-0.03247884;-0.049204588;-0.03347095;-0.08066208;0.043090828;0.045467176;-0.020878872;0.04051611;0.058509033;0.017944042;-0.053873982;-0.07002945;-0.028919881;-0.062278118;0.019667929;0.011044157;-0.006592388;0.0476137;0.0059557;-0.055929918;0.05039118;0.036745008;-0.075338006;-0.023125183;0.032654446;-0.045861576;-0.04541782;-0.033917997;-0.00049442693;0.021957438;-0.07199722;-0.034633707;0.027436867;0.045503296;0.010967129;-0.05133826;0.05528254;0.036507882;-0.050464503;-0.029817838;0.009566749;-0.03370682;0.026224108;-0.000986991;-0.0426512;0.037983526;-0.06809235;0.04970868;-0.009727483;-0.05274191;-0.0075419876;-0.04094681;-0.0381625;-0.017841099;-0.039431065;-0.006656478;-0.02208192;0.037055615;-0.034777492;-0.02175891;-0.036195133;-0.09426033;0.009164089;0.0066890414;-0.07817166;0.04500426;0.064301066;0.043275934
18;-0.00078863325;-0.098883726;-0.07801601;0.06539093;-0.07633841;0.05161871;0.04516069;0.0038893076;0.029438607;-0.040648047;-0.101365104;-0.04081301;-0.0031330267;-0.09232029;-0.07842818;-0.12497866;-0.103226565;-0.098992996;0.008334404;0.09106255;-0.0673804;-0.01874501;-0.03185247;-0.06477512;0.019205594;-0.0455245;0.0049097114;-0.057491038;-0.08570136;0.059004284;-0.061203834;-0.011592585;-0.044838957;0.0206119;0.033135287;0.05298911;0.042338535;-0.1111634;-0.015846208;-0.023757232;0.026646903;-0.050945528;-0.1042472;-0.09292444;0.0003685136;-0.102902964;-0.04840214;0.034549873;-0.037185624;-0.077094145;0.063611045;-0.031102229;0.010142312;0.0648176;-0.070029885;0.048775464;-0.0013860813;0.060835734;-0.06484731;-0.039072193;0.0028799996;-0.03203361;-0.06502414;-0.1027632;-0.066647835;-0.07669808;-0.017093543;0.028754845;0.05379604;-0.01837849;-0.0608919;-0.07277243;-0.009962022;-0.027082881;-0.060759094;0.038386222;-0.047949437;-0.03554573;0.013510706;0.004390555;-0.039794073;-0.075651675;0.01271143;-0.06162619;0.030165765;-0.024700528;0.01804218;-0.033349205;0.014776555;0.057506677;0.047053423;-0.096316986;-0.044709485;-0.004424512;-0.048790455;0.05314141;-0.06118585;0.0008613608;-0.056741092;-0.088799946;-0.04173921;-0.058088884;-0.0803992;0.02626258;0.048250232;-0.09047905;-0.07117137;0.024443347;0.054567188;0.014056276;-0.04103599;-0.075820066;-0.065229386;-0.010592147;0.025703011;-0.13023639;-0.06375407;-0.10821237;-0.008251622;0.07131765;0.014778969;-0.00070333015;-0.026212094;-0.0056205564;-0.007626491;0.0020134302;0.051152498;0.05780828;-0.060703795;0.09491413;0.03896993;0.03750064;0.048944075;0.053876348;0.014631603;-0.08045552;-0.058709744;0.040514227;-0.0053548086;0.016766118;-0.009336492;-0.07082208;-0.09163549;0.024575341;-0.08864678;-0.03993906;0.023859924;-0.07419839;-0.08658377;-0.012691457;-0.018346066;0.035896495;-0.026476942;0.020563055;-0.051002946;0.08429912;-0.00058504485;0.07240085;0.00893869;0.011860465;0.05140389;0.0068887575;0.018436207;-0.0042929826;0.036935147;0.06668821;0.010011932;0.036933225;-0.059968237;-0.00093192124;-0.047887214;-0.045751892;-0.017911788;0.09302954;0.032682374;-0.0030940592;0.06316513;-0.06779533;-0.043041997;0.040749703;-0.033057626;-0.026712928;0.0756685;0.002306207;-0.0096037835;-0.02520253;-0.07338213;-0.008361816;-0.023513287;-0.024972986;-0.0028037233;0.006795965;0.039631255;0.007996604;-0.06291838;0.04608094;-0.022487262;-0.039987855;-0.018171418;-0.055221505;-0.11062895;0.018487325;0.004224253;-0.0959136;-0.018848436;0.05954973;0.036026563;-0.036933653;-0.05286235;-0.025403753;0.04865443;-0.04045041;-0.09264976;-0.0797718;-0.08862521;0.048524227;-0.02069536;-0.040629167;-0.023403162;0.036772024;-0.011502505;0.027539188;0.030327497;-0.057325993;-0.03730629;0.00567664;0.05808936;0.009606582;-0.06735081;-0.06871911;-0.06728264;-0.07926883;0.0012160649;0.012292623;-0.014918633;-0.04417344;-0.049399145;0.018081674;0.06475106;0.050199516;0.01250504;-0.0013809525;-0.06962794;-0.057836615;-0.019691795;-0.04249358;0.010078284;0.06416759;-0.008837885;0.017788902;0.0651975;-0.028385883;0.08897216;-0.035208806;-0.005064536;-0.07140566;-0.006525856;-0.0031546839;-0.023498222;0.05730331;-0.012599217;0.06961517;-0.024005188;-0.036440015;-0.06754458;-0.10012533;-0.06761441;-0.050585844;-0.07042471;-0.100146376;-0.045475464;0.0078011323;-0.0485411;-0.065903716;0.052593138;0.06573049;0.03677311;-0.026690466;-0.07567524;-0.06289245;-0.043366436;0.07064032;0.029831376;-0.08268683;-0.07478235;-0.0064902627;0.011600523;0.039628204;-0.089448735
19;0.0043641897;-0.020473327;-0.037671827;0.066226356;0.03665741;0.06377437;-0.056706194;0.029997934;-0.0793297;-0.01897669;0.047796514;-0.07241407;0.075260594;0.012188625;0.026235087;-0.009530526;0.07851443;0.0021730082;-0.008622922;-0.026148891;0.058326147;-0.053158443;-0.09045568;0.011302445;-0.06994319;-0.06837653;-0.03677379;-0.004872438;0.070877925;-0.042387296;-0.006712324;0.041312203;-0.012871859;-0.012945762;0.0004459845;0.043025564;-0.061526865;0.05604311;0.0066074017;-0.06962973;-0.07796947;-0.0041531003;-0.036137637;-0.07905226;-0.08460693;0.060243033;0.016150054;-0.034572504;0.011797277;0.01831516;0.08201701;0.04838261;-0.021145748;0.010683008;-0.07127435;0.06207367;0.050077297;-0.02897128;0.050004844;0.03647072;0.048369028;0.008531538;-0.011322753;0.0482742;0.08895492;0.02255352;-0.008549783;0.012655881;0.014034593;-0.03299157;-0.07415321;-0.02825326;-0.006636214;-0.0054047904;0.06957703;0.048395313;-0.045506254;-0.020654725;0.08355245;0.053276286;0.0071167825;-0.026620543;-0.009860693;-0.016681062;-0.028346444;-0.0031998851;0.06355652;0.0052063796;0.019677147;-0.0042744875;0.0064428574;-0.06498557;0.0064042336;-0.08821273;0.030844556;0.0681256;-0.02222525;0.08237992;0.081531316;0.041350506;-0.074810654;-0.011095769;0.0005860285;0.030360471;0.05466635;-0.018020933;-0.032585718;0.013028712;-0.0029092017;0.07148249;0.02397213;-0.08885959;0.025796045;-0.06137802;0.060458343;-0.08719975;-0.0943311;-0.041731212;0.058124352;0.055436213;-0.046177033;0.009106552;-0.08676263;0.045368757;-0.08909666;-0.076149665;-0.012513049;-0.01626225;-0.015587385;-0.0963868;0.02232074;0.03134368;-0.085140094;-0.06607728;0.052321948;0.041530363;-0.07241663;-0.025966452;-0.12040843;-0.092921324;-0.08469144;-0.005902228;-0.047101784;-0.094780885;0.010491499;0.046862572;0.055400997;0.009780507;0.037011586;0.08086642;0.0960242;0.061023626;0.05811868;0.03659872;0.05815874;0.038580284;-0.05129682;0.07537317;-0.054692466;0.03386084;0.06753527;-0.005101268;0.041948084;-0.08614075;0.024895003;-0.060925297;-0.025319293;-0.0054708403;0.020298231;-0.0547788;-0.045809347;-0.040015895;0.06321607;0.03063627;0.051607735;0.030948782;-0.05696073;0.05565567;-0.0134738805;0.083204515;-0.035043266;0.00403408;0.05301987;0.028642336;-0.032615975;-0.0041241073;0.03327157;-0.08374625;-0.03218734;0.04360882;-0.04999834;0.06586267;0.024878794;0.026645534;0.0050180918;0.043525435;-0.10751239;-0.027015243;0.056053735;0.0764882;-0.010829933;0.057448406;-0.029947529;-0.03386073;0.038847703;0.0022444008;0.04490793;0.039117713;0.032454286;0.09007215;0.015030638;0.06977976;0.05013168;-0.03382431;0.023282187;-0.02114395;0.0037621604;0.0056398357;-0.0034756071;0.04936106;-0.06331825;0.0126375565;0.027039083;0.09251079;-0.007493166;0.025502862;-0.023629965;-0.009028265;0.086063065;0.006120966;-0.009571878;0.088945776;0.10219228;0.09150017;-0.036745;0.08514315;0.02400107;-0.028594086;0.08819046;0.06446465;0.030981569;0.058080174;0.045105685;-0.036319625;0.044299386;0.073513865;-0.04352274;-0.056452665;0.0021138063;0.062895045;0.08068888;0.0021472224;-0.055657327;-0.020256894;0.033293918;0.04796206;-0.010359423;-0.054326784;0.046161886;-0.00478118;0.0912586;0.053688817;-0.007675205;-0.09102553;0.05984305;-0.048054937;-0.087422654;-0.09497766;-0.03479225;0.021376235;-0.11283716;0.0046363366;-0.08066278;0.09054933;0.030849034;0.06695194;0.08309654;-0.040722422;0.022344423;-0.052080315;0.030351756;0.0110930605;-0.009371373;0.059698865;-0.011637325;0.001439824;-0.055796485;0.029763764;-0.08024659
20;0.002059239;-0.024953226;0.04928553;0.04271379;0.052969135;0.07497801;0.014954297;-0.039120447;0.032852173;0.024192227;-0.053258516;-0.006527714;0.011656106;-0.08639516;-0.059621524;-0.039665382;0.0016711743;-0.020316327;0.0027274608;0.048980385;0.020789824;-0.02641181;-0.03566867;-0.033724684;-0.0804722;0.06253579;0.0050870655;0.009734666;-0.015232584;-0.0053933375;-0.027123084;0.08108412;0.024093812;-0.038005803;-0.024312554;0.043601546;-0.03803735;-0.09616684;0.005223689;-0.05636139;0.051607538;-0.0190886;0.0051597804;-0.017508654;-0.026221925;0.027566759;-0.009663132;0.04196279;0.021882972;0.004731041;0.06794248;0.054328915;-0.0469789;0.036564976;0.00987157;-0.036730107;0.037278704;0.004494508;-0.012776923;-0.010526881;-0.047540475;-0.085543744;-0.07770603;-0.06089965;0.059244514;0.066016465;-0.03592947;-0.045326814;0.040518165;-0.0061920616;0.106988475;-0.04985373;-0.00063910254;-0.03221245;0.04238507;-0.06052101;-0.08949179;-0.03031414;0.036694977;-0.024352048;-0.0025926854;-0.09234002;0.02899542;-0.0010447862;-0.059465114;0.042217642;-0.042214148;-0.08004922;0.046860952;0.011346223;-0.014201805;-0.009165796;0.041222554;-0.07566654;-0.072867215;0.057926178;0.044492584;0.03905826;0.0045574475;0.028325442;-0.056341715;0.011797246;-0.008945545;0.026529206;0.0663301;0.05745302;0.023457605;-0.05240258;-0.062251594;0.0073011373;-0.018499855;-0.03446638;0.06256951;-0.083282165;-0.07225766;0.041387595;0.06127546;0.01563293;-0.059174974;0.031190615;-0.090795256;-0.12136115;-0.10076644;-0.07924734;-0.109743595;-0.01330337;0.07079068;0.0025515219;-0.06681384;-0.01922477;-0.008161314;0.03308518;0.013525247;0.07294878;-0.013830091;0.09285331;-0.02442242;0.0126713505;0.034718532;0.058093872;0.09401931;0.031528257;0.09010463;0.10478485;-0.048991606;0.055515047;0.068339966;0.08634984;0.044916373;-0.0740328;-0.023425154;0.08051742;-0.057898633;0.006486851;0.03319431;-0.04228229;0.00017638164;-0.039268464;0.050410178;-0.042690303;0.03718391;-0.033093855;0.04951619;-0.08894895;-0.04501872;0.04969809;-0.07192553;0.01647212;0.069344744;0.051225524;-0.06782804;-0.060866956;0.00077973504;-0.036375415;-0.014565109;-0.056293037;0.012616531;0.051885426;0.047339626;0.004474901;-0.036963183;-0.06559019;-0.016951365;-0.053321514;-0.005037813;-0.088213764;-0.008538184;0.023115396;-0.047572087;0.03888142;-0.021631045;0.021747116;0.06728374;0.047977384;-0.08148101;-0.0043331943;0.02393709;0.011915909;-0.10679395;0.06080658;-0.03672136;0.09473464;-0.028658707;0.018769048;0.0198973;0.028911246;-0.053800113;0.03849248;0.033416435;-0.012617912;-0.040659394;-0.04638422;-0.013237255;-0.0793904;0.005572605;-0.019177962;0.04782146;-0.05867688;-0.06512598;0.022068968;-0.060746558;0.0898372;0.041998684;-0.043472517;-0.0057520256;0.079135716;0.096216954;-0.0024919622;0.07262331;0.024131892;-0.05963976;0.052552667;-0.020008463;-0.03573044;0.014459598;0.03460192;-0.0554696;-0.07652804;0.09353238;-0.018864313;0.07981726;-0.0064688264;0.008811917;-0.06606686;0.020809421;0.052661438;-0.08595852;-0.077804655;-0.0045531997;0.046849184;-0.04152908;-0.041947972;-0.036221292;-0.061678797;0.06670902;0.049665168;0.047327455;0.08401011;0.05066867;0.009295717;-0.028580362;-0.01688533;-0.027621724;-0.007943149;0.01635932;0.014928259;-0.061104972;-0.04697477;0.07253735;-0.035969257;-0.03498478;0.033443917;0.044147268;0.06354008;-0.019936256;0.006420526;0.0362138;-0.09376326;-7.228939e-05;0.07862352;0.084589094;0.117997624;-0.056909412;0.08544279;0.014980972;0.053549357;0.061145145;0.04932485;0.04004133
21;-0.0008606357;-0.015173727;-0.011925436;-0.028754635;-0.050693795;0.06834849;0.07048051;0.009560799;0.034374997;0.027936067;0.01850941;-0.07311695;0.06665302;0.026285775;0.070001826;0.06193825;-0.014315455;0.045111444;0.06560707;0.039256945;0.017968684;-0.0034518372;-0.042111874;-0.08683326;-0.08320287;-0.0036302798;-0.057829484;0.022800738;0.0049827043;0.07015967;0.018060176;0.028202903;0.005245136;-0.05230911;-0.029252168;-0.028491728;0.08695398;-0.016567854;-0.040227707;-0.10284093;-0.0028631263;-0.067348965;0.016995963;-0.065351985;-0.028001638;0.027329927;-0.01963189;0.042773068;0.026967572;-0.0011211738;-0.031208744;0.07780742;0.022904612;0.05226735;-0.05387599;0.018617617;0.061206035;0.07951807;0.051872615;0.0661362;-0.034192845;0.023171965;0.01833846;0.05559083;0.07289214;0.033671938;0.024500057;0.040188063;0.044684395;0.086414695;-0.027725635;0.045684196;0.03414657;0.056472022;-0.06025786;0.04314436;0.09158987;0.055295672;0.011173459;3.6941383e-05;-0.05459003;0.01997244;-0.040053338;-0.07828206;-0.007202291;0.035126127;0.033141293;0.038376514;-0.035046525;-0.022346338;-0.04163436;-0.043812405;0.024879318;0.025575606;0.014529119;0.06954637;-0.0120175695;-0.04659879;0.019733485;-0.025820488;0.03669098;-0.05053222;-0.06967045;-0.055399425;0.023783147;0.013217397;-0.041502055;-0.07229102;-0.057692602;0.032541055;0.045607753;-0.020206189;-0.08152336;0.051309023;-0.07588755;-0.013762264;-0.055649314;-0.052603837;-0.0048100725;0.06413528;-0.021692576;-0.009719413;-0.0031690206;0.09600672;-0.023585845;0.04627224;-0.00015272934;-0.07419665;-0.06844406;-0.07696802;0.043205947;-0.066472925;-0.04122065;0.039893247;0.065976895;0.031890888;-0.0366339;0.0006118407;-0.09399228;-0.021672254;-0.056156956;0.038344935;0.05328314;0.022445833;-0.05791965;-0.042478636;0.04998832;-0.01572138;-0.035088133;-0.020476528;0.007740809;-0.10165237;-0.02476964;-0.020113073;0.076991536;0.08812142;0.061114874;0.107028306;0.029166395;0.096987136;-0.014247857;0.1067962;0.021239389;0.011407822;0.05718595;-0.03694944;-0.015615464;-0.046466168;-0.0074765733;0.10346622;-0.032414116;-0.046706133;-0.028080532;0.043233044;0.06233782;0.06966145;0.048306663;0.033062443;-0.046996675;-0.06022054;-0.061738178;-0.038823344;-0.07033561;-0.005804843;0.0082828775;-0.059937574;-0.061365258;-0.038464673;0.027595688;-0.055944286;-0.06996605;-0.050067972;-0.068944074;-0.105105676;0.030413704;-7.154176e-05;-0.063319474;0.026991967;0.0020673885;0.018530544;-0.056823414;0.01209009;-0.0025375274;-0.0061286404;0.06288317;0.071929276;0.03622473;-0.006667819;0.03358533;0.120071165;0.063249126;-0.04454343;0.040993985;-0.0016059943;-0.036613677;-0.026106926;0.028670024;-0.02405374;-0.027729137;-0.01669693;-0.04127648;0.019617382;-0.041923646;0.09116184;-0.015057018;-0.066825725;0.07138726;0.110640705;0.072266236;0.056375027;0.014005656;0.02185391;-0.038369667;0.03208927;0.11590743;-0.001305511;-0.010331927;-0.05200024;-0.00785011;0.00020206565;-0.010226807;-0.04392999;0.061030142;0.08606159;0.013119789;0.04364143;0.004882655;-0.057235014;0.016834687;-0.021599649;-0.05553465;0.07557896;-0.028034752;-0.022782682;0.08326204;-0.024012076;0.006348071;0.09984959;-0.04044299;0.07294654;-0.020843754;0.07723636;-0.061474252;0.034998618;-0.0387175;-0.07013131;-0.030727103;0.010466859;0.034918662;-0.016102798;0.008728051;0.015848823;-0.04158583;-0.016081039;0.03540537;0.0026680292;0.026268922;0.037734434;-0.050104346;-0.05788966;-0.06268374;0.04387502;-0.015114857;-0.009893138;0.0055357777;0.030557092;0.022997586;-0.020617032;-0.04314119
22;0.003714736;0.048167888;0.024958735;-0.03999976;0.047074396;0.07119526;-0.028875105;0.019458031;0.036424804;0.060141314;0.03827;-0.015691204;0.058948003;0.05469535;0.019800086;-0.0388306;0.06801258;-0.017309945;0.0011587535;-0.031533714;-0.0037666592;0.0058739;-0.06727048;-0.0787517;0.035652142;-0.030286837;0.05059016;-0.031488307;-0.030867329;-0.016234467;0.07841545;-0.01303091;-0.0549215;0.037202522;0.04999056;0.034116983;0.020747192;0.014934318;0.023401361;0.017686361;0.06668193;-0.07683111;-0.056175884;-0.029035553;-0.010302631;-0.03712391;-0.053715695;-0.056635194;-0.03877609;-0.062080618;0.039778586;-0.08049239;-0.0838806;-0.072547585;0.027188655;0.04865842;0.078960724;-0.026726479;0.032862704;0.026870413;-0.053599488;0.101771384;-0.0185905;0.018599922;0.032819863;0.061697382;-0.017217336;0.08511014;0.04571673;-0.04793264;0.07679469;-0.039843824;0.08367547;-0.047175214;-0.05750796;0.061231732;-0.01895684;0.048393045;-0.035345398;0.006889291;0.04585077;0.068942554;0.030599104;0.042493273;-0.015256217;-0.018503945;-0.0739542;-0.04460279;-0.014971659;0.043280084;-0.023125239;0.037566025;0.0044752304;-0.039135702;0.09113828;0.01340796;0.08426137;0.008605783;-0.030579817;-0.046575747;0.055827476;0.08289072;0.007487161;0.082048155;0.061788954;-0.016214425;0.068865635;0.0075465078;-0.039133795;0.04575649;-0.040743988;-0.010045088;0.05623592;-0.03945817;-0.055873748;0.07567152;0.05596465;0.08325536;0.06787566;-0.012277439;-0.066535816;-0.03844249;-0.0030168865;-0.0136680035;-0.07840317;0.020317497;-0.035321627;0.039675985;-0.07277744;-0.0344137;0.050904483;-0.07365515;0.038629755;-0.057677828;-0.01142273;0.026621297;-0.0404414;-0.0179697;0.09742226;0.10651708;0.109541945;-0.005533821;0.03972769;0.067420095;0.00013977151;0.005532876;-0.08092344;0.03793339;0.04317234;-0.09153257;0.052386373;-0.02949883;-0.075948305;-0.09772674;-0.04202389;-0.039961897;0.06621977;-0.056753036;0.015181963;0.023587588;-0.0346627;-0.070454516;0.07505674;0.07504685;-0.00700294;0.010952804;0.021301674;0.036803808;0.028342813;0.07375171;0.06761114;-0.0121175805;0.023746543;-0.02337326;0.007651518;-0.09875359;-0.103136495;-0.060125027;0.052412614;-0.08207202;-0.08903458;0.062508166;-0.044937328;0.08327135;-0.00937652;0.071346276;0.045553606;0.06734077;0.048091598;0.08616465;0.020251254;0.0914239;0.039622027;0.0012321268;-0.01386898;0.012179528;-0.075821355;0.05385272;0.02860688;0.05859336;0.06239051;0.0013799928;-0.022530671;0.039810598;0.031335592;-0.0500085;0.0070727807;0.09119267;0.094001345;0.0059631895;0.033940546;-0.053879462;-0.03854228;0.05890788;-0.07068152;-0.07540983;-0.02915989;-0.006731268;0.075566076;0.011760191;0.008540973;-0.045487557;0.027447145;-0.07699441;-0.011028219;0.074394256;0.023562612;-0.012698784;-0.023955975;0.012289558;-0.026835768;-0.048053183;-0.086837575;-0.108037725;-0.057823792;0.03110399;-0.0147823;-0.034958158;0.014630804;0.08202281;0.030216655;-0.03730876;-0.031101821;0.037189666;0.00319427;-0.044379476;-0.043007445;-0.054516643;-0.032006897;-0.113074444;0.00087870355;-0.08111023;0.010269045;0.027952641;0.06841247;-0.035014126;0.020936044;0.067616835;0.06043739;0.019416805;-0.014149521;-0.005019681;0.004444891;0.07548304;0.08084146;0.06186041;0.03165781;0.040007867;0.07971714;0.05194738;0.049796153;0.012615223;0.020976543;0.045259994;-0.062815785;0.055264935;-0.0030609374;-0.0051719984;-0.075915545;0.003138124;-0.004375834;0.04153709;0.07728853;0.06233006;0.019306554;-0.022458717;-0.03412981;0.07803829;0.06314463
23;-0.0005953741;0.003601493;-0.08788025;-0.026569111;0.066104226;0.058612056;-0.036371894;-0.0008574337;-0.017847616;0.034886744;-0.042917363;-0.028754693;-0.0008925018;0.03157916;-0.081845164;-0.04257784;0.04259734;-0.008583674;0.016098574;-0.018922219;-0.014890308;-0.08030483;-0.053864233;-0.0015718178;-0.05125575;-0.0806167;-0.009927939;0.049195137;-0.04631692;0.0412344;0.06287561;-0.031932477;-0.0650512;-0.058768544;-0.06985512;-0.014588282;-0.024925098;0.029944064;0.023628011;-0.0592017;-0.043749176;0.025185749;-0.0062158774;0.0098685045;-0.08391267;-0.065213874;0.038026087;0.028119164;0.006667601;-0.01978153;0.04631567;-0.019890906;0.025061449;0.05049477;0.048572626;-0.0019962206;0.06781826;-0.031914793;-0.0058382982;0.026556602;0.063221134;-0.062265247;0.056598153;0.06199388;0.024175543;-0.005972614;-0.025800923;0.07692707;0.009368413;-0.049333304;0.005788256;-0.014307509;-0.02946068;-0.08012499;0.027724504;0.009576952;0.05272799;0.037262037;0.047379714;0.0079425145;-0.052852817;-0.04014648;0.014211578;-0.07383246;0.06445624;0.08770813;-0.021284532;0.07056221;-0.0035316998;-0.08521342;0.00033741206;0.0010290226;0.017009728;-0.07757264;-0.072198674;-0.06385808;0.029256815;0.06314489;-0.06587639;0.04006863;-0.020196185;0.018779928;0.02608233;0.01918473;0.01138155;-0.03303322;-0.008351696;0.011948546;-0.06321119;-0.04797394;-0.048765674;-0.03372923;-0.09053089;-0.040265057;0.03302375;-0.029593667;0.04225287;-0.040493384;0.025868883;-0.019362938;-0.05079382;0.024935532;0.01511347;0.05025902;-0.052493915;-0.069201;-0.018081749;0.03760976;0.017285256;-0.009340575;-0.06639191;0.10004761;0.07586215;0.0776283;-0.032709517;0.05213897;0.054562602;0.050699983;-0.08544931;-0.019253682;0.022696301;-0.010855297;0.060477298;0.041320205;-0.054297175;-0.028014295;-0.06877054;-0.09611134;-0.040228803;0.03656874;0.05888333;-0.052466433;0.06316639;-0.034509383;0.057083882;0.05451361;-0.043620393;0.09269351;0.044710606;0.07360989;0.07645874;0.085112244;-0.04478441;0.041724153;0.0683891;-0.07897426;0.032022227;0.09239617;0.046644535;0.0025679416;0.02782901;0.0327266;-0.008029627;-0.037036467;0.021641998;0.0676893;0.057528146;-0.010738965;0.028850272;-0.04288235;-0.055561166;-0.0051148105;0.022355318;-0.095285565;-0.0632988;0.035792198;-0.012108647;-0.04607905;0.037883073;-0.09543776;-0.09613126;-0.08466315;0.022121904;-0.04064425;0.03160486;-0.026017347;-0.0058773435;0.050450746;-0.07539649;0.087690264;0.045353245;-0.0511558;-0.015953407;0.056755465;-0.030849118;-0.04448836;0.008909886;0.042679504;-0.031290866;-0.009114766;0.09560136;0.08385308;0.06974304;-0.05490059;0.06782083;-0.008402891;-0.011086002;-0.010126366;-0.038992684;0.019713202;0.062057734;-0.028314753;0.055200864;0.055233028;-0.04102683;-0.037578963;-0.036184434;0.09017401;0.03489882;0.111163706;0.09803883;-0.03420232;0.020005662;0.040628877;0.0017561583;0.07401418;0.04744354;0.017374653;-0.06542747;-0.03697518;0.08256503;-0.06829586;0.012806348;-0.0015007603;-0.0603662;0.093136534;-0.023147581;0.09219751;0.07406956;-0.009408871;-0.020299839;-0.029666232;0.023983993;0.015870461;-0.051393785;0.07364755;0.083279;0.030155756;0.066308744;0.012269194;-0.0016475236;0.042216152;-0.07229432;-0.01123656;0.008680432;0.06963643;0.0434793;-0.07614718;-0.08593951;0.008215573;-0.016800812;-0.08929146;-0.08220461;-0.0015784119;-0.052083943;-0.076948196;0.07124357;-0.012981842;0.07030062;-0.07225899;-0.08588525;0.02431602;-0.018052723;0.021963084;-0.038325667;0.014819336;-0.0057242857;0.08005;-0.060279895
24;-0.00021020122;-0.06741153;0.031434983;-0.052400965;-0.022832416;-0.030740993;0.04828059;-0.040132362;0.048221838;-0.080011755;0.058489665;0.025087088;-0.07397394;-0.06502599;-0.02364345;0.010480446;-0.07330975;0.02872389;0.073943004;0.013316978;0.034615442;0.059114605;0.076016136;0.040821142;0.0046241307;0.053901635;0.02686926;-0.04634383;-0.013130146;0.02796635;0.023983633;0.03448903;0.068541795;0.03605552;-0.031056697;-0.05203011;0.036557965;0.012324161;0.09413591;0.03235605;0.07111259;-0.057929322;-0.041776665;-0.0258772;-0.032571077;0.06854492;0.07780457;0.053954717;0.037598863;0.07984915;0.08214107;-0.07426667;0.07439671;-0.032654516;0.06276064;-0.05388635;-0.08390805;0.03842993;0.049391963;0.03118871;-0.046001;-0.027573355;-0.08589655;-0.0126397945;0.09702011;0.0811515;0.070886105;-0.04942504;-0.044253647;-0.06828485;-0.06740238;0.052970372;0.028394945;-0.044473007;0.08436663;0.016431628;0.064465776;0.062952474;-0.026208345;0.07215485;0.0037713163;-0.04785021;0.06177021;-0.063135274;-0.013650386;-0.054870233;0.03414656;-0.0378986;0.019975854;0.0841438;0.030500988;0.07644512;-0.040559527;0.04285099;-0.005769907;0.09445009;0.04133342;0.012577323;-0.026936192;0.01678484;-0.05538332;-0.011775934;0.068192594;-0.013508393;-0.020716956;0.09453818;-0.05078707;-0.055448834;-0.08287789;0.08154513;0.01956435;0.025719589;0.014403428;0.047962602;0.034855958;0.07579564;0.07409827;-0.031126505;0.029012218;-0.009713894;0.029779438;-0.056077935;-0.0013222246;0.035555664;-0.041814342;0.013827073;0.055317152;0.06137175;-0.055426948;-0.034723498;0.064264484;-0.0050625377;-0.015125258;0.067684606;-0.059674148;0.09955188;-0.07364589;0.06536339;0.0542474;-0.06266606;-0.03323108;0.058760926;-0.06659595;0.021293677;-0.029287474;0.09231857;0.031253986;-0.014861486;0.08406388;0.00014818223;-0.012332069;-0.03509669;0.06253706;0.037615042;0.06862832;-0.0314911;0.051959082;0.05318945;-0.003231377;0.0015030338;0.00042542012;0.0003501543;0.02193166;-0.04186776;-0.0005415063;0.009440827;0.09240851;0.044632915;0.057479374;0.050801408;-0.03351631;0.0918598;-0.005358739;0.025827253;-0.054358855;0.009110651;0.012640477;-0.006183645;0.024107924;-0.03053877;-0.09180121;0.104659945;0.009824371;0.058131374;-0.00820523;-0.0044475873;-0.06276395;0.0050735953;0.026741644;-0.031653002;-0.04259555;0.049389996;-0.020412356;-0.034932535;0.0565014;-0.008138813;0.0346397;0.023932759;0.00017165024;-0.037174877;0.058783807;0.048077893;-0.04746386;-0.009623637;0.038313914;-0.02644028;-0.024201576;-0.027726803;-0.060749248;-0.0020338215;0.02056541;0.04446457;0.030427925;-0.07957621;0.025067551;0.011389324;-0.030571695;-0.05664414;-0.0689418;-0.086493865;0.073907726;0.07003691;-0.03998498;0.021963691;-0.038247354;0.044738404;0.07581544;-0.08434403;-0.0659653;-0.009470251;0.058041144;-0.052408524;-0.0073281564;-0.074429825;0.07986038;-0.0047731814;-0.011293399;0.030818293;0.0062965187;0.017273199;0.002542913;-0.039414484;-0.06521072;-0.05716337;-0.023732565;0.08456494;0.047886074;0.0069741807;-0.03900624;0.041560914;0.055548392;0.070651464;-0.058499366;-0.087524734;-0.11082855;-0.1388175;-0.0056888387;-0.077407025;-0.117197394;-0.10971999;-0.13781963;-0.037600182;-0.048579574;0.0020476468;-0.07183507;0.049646415;-0.0025479202;-0.08731137;-0.011081291;-0.042484622;-0.030178208;-0.055241417;0.053275198;-0.012101651;0.07502268;-0.024202121;-0.010505117;0.03430875;-0.030767307;-0.027879633;0.07119166;0.01868747;0.0053693834;0.0246578;0.005450664;-0.032801755;-0.051785216;-0.07696316;0.04517827
25;0.0012686778;0.031221788;-0.015426398;0.057709284;-0.031208506;-0.06736491;0.02428464;0.02663893;0.028125098;-0.048252877;0.031711783;-0.04008983;-0.09363788;0.010996136;-0.0011682922;-0.09476031;0.08617511;-0.062523216;0.018241273;0.071748264;0.052189842;0.056865476;0.09071911;0.0045583085;-0.027416466;-0.052142806;0.0026149275;-0.035782274;-0.05644998;-0.030686697;-0.073028535;-0.024245255;-0.10672025;-0.046954196;0.03230287;-0.04565973;0.045727547;0.06682353;-0.07836433;-0.025874011;-0.02472236;-0.004113917;0.030372616;0.0026209354;-0.0740334;-0.083172;-0.09200518;-0.09309735;-0.10077337;-0.024401914;0.010748438;-0.023407891;-0.051586084;-0.0054757884;-0.0071565397;-0.06550276;-0.00079915527;-0.086635;-0.017533185;0.026960539;0.07796837;0.06297539;0.05228262;0.009914663;-0.02041517;-0.07507591;-0.058818605;0.08313971;-0.017125893;0.014736218;-0.016764944;-0.05236831;-0.034172427;0.07927192;0.05513554;0.06945008;-0.0029097719;0.024740513;0.025719568;-0.064507134;0.019301016;0.040361244;-0.02509467;0.02169424;0.05752478;-0.057054937;0.043092996;0.035317034;-0.014795849;0.06629856;-0.03452124;-0.019641532;-0.034600824;-0.0076002204;0.058741145;0.0073861;-0.05066468;-0.06382921;-0.035912942;0.08801229;0.0021836993;-0.061571263;0.06153119;0.035849597;0.062833816;-0.05607721;-0.02188812;-0.06789126;0.06102088;-0.021667596;0.041878436;-0.054381225;-0.062348682;-0.010819978;-0.028228229;0.042431396;0.021752551;0.07785633;-0.040512003;0.02280693;0.019009933;0.001545686;-0.052096378;-0.0045273975;-0.023513027;-0.052199148;-0.07801324;-0.044701636;0.03702763;0.014261242;0.02301368;-0.021617431;-0.032823797;-0.09859928;-0.053200208;-0.03258672;-0.055638;-0.09258139;-0.008375907;0.09127062;-0.04382267;0.0014177811;0.006254793;0.0011874014;0.06896269;0.07920455;-0.05455627;0.0020161904;-0.09155646;-0.08330791;-0.024067942;-0.06766755;0.026909439;0.032327082;-0.05214491;0.023043854;-0.07370688;-0.04730375;0.061505098;0.037694685;0.06723072;-0.0011405142;-0.014573442;0.029197546;0.037344612;0.014538202;-0.062132698;-0.024903188;0.00434772;0.07579974;-0.042002905;-0.029446704;0.032169763;-0.062452983;0.0612997;-0.0047620116;0.04285025;-0.03183535;0.023910765;-0.08596236;0.005504705;0.050123926;-0.011628798;0.025160164;0.031243717;0.0025323124;0.015175894;0.020145593;0.015636107;0.069265716;0.05094902;-0.026833816;0.062441003;0.07236479;0.03430794;0.034169894;-0.08815819;-0.0065808175;0.048937213;0.0036525289;-0.0033439652;0.050151072;-0.057097923;-0.052278217;-0.052973587;-0.0411571;-0.062229287;0.082808405;0.004976905;-0.07539343;0.027736552;-0.01845078;-0.01227726;-0.042377483;0.060258523;0.036052443;0.021906918;0.00858449;-0.069229275;-0.07167413;0.01865269;0.02279992;0.08817278;-0.021797698;-0.08172346;0.006506981;-0.033042606;-0.069279425;-0.016361305;0.024758363;-0.07893756;-0.032801535;-0.059702925;0.00949137;0.08339035;-0.00812913;-0.06364115;0.06964476;0.055065185;0.06377789;-0.06520705;0.07678064;0.0024899615;0.05464014;-0.010928085;-0.042619463;-0.012026165;-0.0068986677;-0.09142337;-0.012079189;-0.06527429;0.026298564;-0.015994865;0.054775275;-0.06125635;-0.03046578;0.074948005;0.06250605;-0.0035485534;0.08977297;-0.03518292;0.10913761;-0.059917968;-0.04394334;0.05966582;-0.018959127;0.046807103;0.019994037;0.030603662;-0.037697222;0.021334674;-0.029394355;0.028998645;0.028677646;-0.022839012;0.06252567;0.015610807;-0.06300691;-0.068805754;0.020535152;-0.056164816;-0.0350072;-0.064930044;0.06757932;0.09266261;-0.058983922;-0.05475762;0.004578504;0.08891769
26;-0.0027770007;-0.0017508748;-0.08795906;0.04666242;0.060446225;0.011381789;0.058572855;0.016913775;0.008989854;-0.04368623;-0.067130685;0.060634337;0.089566946;0.038938195;-0.06154482;0.08478786;0.0738679;-0.01642706;-0.037056923;-0.033128727;-0.036908545;0.065198086;0.037651334;0.0121016195;0.03559607;-0.03906752;-0.04123491;0.06995188;-0.018651638;0.06738782;0.06381168;-0.055958595;-0.01219738;-0.017343843;0.05494759;-0.0036245475;0.027584625;0.04068395;0.06530024;-0.01810565;0.07342354;0.08256011;0.010993354;0.038046196;0.029176345;0.05306828;-0.01856095;-0.002881811;-0.012643397;-0.11499782;-0.04620253;0.068868294;0.025776401;0.03189796;0.0096494565;0.08602439;0.029677548;0.06557324;0.0063833576;0.058470976;0.08563063;-0.035962403;0.032125775;-0.038610056;-0.106230915;0.024539609;-0.020664163;-0.0793304;0.042500183;-0.032205224;-0.09688687;0.026448129;-0.017160803;-0.013943711;0.02868422;-0.062457807;0.0064079994;-0.06958994;-0.003699517;0.0004439517;0.048318833;-0.03626489;-0.06266672;-0.06793703;-0.00746377;0.049516656;0.06145513;0.01923904;-0.029897144;0.06907186;-0.038706627;0.0129450625;-0.046692416;0.008194054;-0.039457276;0.009491477;0.046840142;0.042423982;-0.028900761;0.07412846;-0.05097572;-0.022906896;0.07579712;0.003616782;0.031190438;-0.069745004;-0.079455934;-0.07097162;-0.06467178;0.058371834;0.02258147;-0.0023361286;-0.028666351;0.108297236;-0.009344801;-0.042904757;0.026600342;-0.034571163;0.07830525;0.005563655;-0.094372004;0.059848692;-0.03447256;0.005204649;0.07209995;-0.08597661;-0.007225956;-0.047363535;-0.021122849;-0.07988637;0.08135966;-0.07636719;0.05067246;0.03863137;-0.05759909;-0.020261306;0.019733638;-0.002270612;0.045110587;-0.046912577;-0.03626595;-0.009065383;-0.00925776;0.09057965;0.010399707;0.03175246;0.039875295;-0.027232377;-0.0036758245;-0.023942498;0.002030467;0.026304824;0.0753122;-0.0832247;0.07335785;0.048026055;-0.025797505;-0.05930753;0.07016233;0.015153483;0.037884466;-0.0017552618;0.03560781;0.019999554;0.0030171466;-0.023468697;-0.054624744;0.008541555;-0.051452782;0.06601233;0.062015828;-0.011879423;-0.06699547;0.014876705;-0.07564364;0.068175465;0.037147395;-0.00087912264;-0.035436887;-0.06422459;-0.044043727;-0.068922944;-0.05137201;-0.0772061;0.06929129;0.041986715;0.016554458;0.06499307;-0.015087235;0.043543316;0.004931331;-0.07284099;0.060444295;0.007650098;-0.002669602;-0.040059593;0.03809274;-0.05814299;0.0686558;-0.06986231;-0.08359366;0.055797648;-0.09617747;-0.045988612;0.054172732;-0.0872163;-0.09433065;-0.073387824;-0.01789432;0.053365685;0.04011958;0.0058161025;-0.018325608;0.038134567;-0.0011439844;-0.030106122;-0.043605685;-0.06677479;0.065678515;0.04321232;-0.049655307;-0.009306766;0.02452878;-0.09205092;0.022848127;0.029365845;0.012397902;-0.09294837;0.04983354;-0.058351737;0.004927619;0.031793527;-0.041813664;-0.07196512;-0.038741935;0.058071338;-0.016651252;0.06419519;0.072439894;-0.0038631181;-0.032614317;-0.032420617;-0.018151429;-0.012774418;-0.033254705;0.048592173;0.053134527;0.053766396;-0.038031563;-0.027476572;0.010161232;-0.05004042;-0.06912854;-0.04584988;-0.055447623;0.026801493;0.05828321;-0.015946802;0.010751671;0.011935763;-0.015172056;0.10591044;-0.06825013;-0.016403077;0.042007234;0.0166333;0.09709689;0.09358817;0.054899253;0.1030472;-0.05348452;0.051437426;-0.0335633;0.06340752;-0.014912263;0.0469242;-0.031333778;0.078188926;-0.06584061;0.0177076;-0.018637134;0.06642321;-0.034447264;-0.0042765243;-0.04959562;0.03891115;0.073236525;0.0070189326;0.085524976
