kernel;bias;d0_w00;d0_w01;d0_w02;d0_w10;d0_w11;d0_w12;d0_w20;d0_w21;d0_w22;d1_w00;d1_w01;d1_w02;d1_w10;d1_w11;d1_w12;d1_w20;d1_w21;d1_w22;d2_w00;d2_w01;d2_w02;d2_w10;d2_w11;d2_w12;d2_w20;d2_w21;d2_w22
0;-0.03917812;-0.13874857;-0.10809691;0.020834245;-0.20485844;-0.42028338;0.17854728;0.27097896;0.43346983;0.285431;0.0019739498;-0.12210436;-0.005771079;-0.53308845;-0.47435272;-0.046051867;0.23722397;0.3484298;0.38679248;-0.12066481;-0.11516959;0.09108882;-0.49471357;-0.13806301;0.10668356;-0.012412225;0.35669467;0.45810384
1;-0.046388343;0.19944553;0.5250399;0.24311116;0.12158964;0.37917963;0.066208124;-0.075593874;0.36979046;0.36820436;0.006519528;-0.22415392;-0.1767314;-0.50578934;-0.4770705;-0.45119494;-0.22073603;-0.3521489;0.105811134;0.33631933;0.25237933;0.06316851;0.04732997;-0.14423044;-0.17338386;0.025144625;-0.09546513;-0.14812766
2;0.15700746;-0.4034388;-0.24112844;-0.4711117;0.4920298;0.36336246;-0.2018595;0.47199553;0.1905864;-0.09346688;-0.0669648;0.21467392;0.37611797;-0.07122222;-0.3341522;0.23139887;-0.26143187;-0.46251068;0.24553365;0.31922632;0.14597122;0.08138164;-0.18952031;-0.18349625;-0.062319703;-0.11120291;-0.13484254;0.12889074
3;0.048575085;-0.22423592;-0.026764048;-0.21857612;0.21932434;0.84699064;0.1523204;-0.025206639;0.48707613;0.09112441;0.043117672;0.2513325;-0.015887091;0.34062025;0.6748984;-0.11099685;-0.37124944;0.0927652;-0.06545387;-0.2847738;-0.09445709;-0.42245364;0.026690353;0.33209914;-0.17486602;-0.14368111;0.15456323;-0.20195593
4;-0.06849173;0.047459524;-0.21875921;-0.12796806;0.48117664;0.0047831577;-0.17798387;0.07926529;-0.19807398;-0.23162417;0.13091528;0.08867926;-0.1028744;0.7224501;0.32946303;-0.02014907;0.24687248;-0.10382757;-0.31116587;0.2988028;-0.0034557788;-0.24857377;0.39009532;-0.019940969;-0.3580853;0.13299511;-0.42555514;-0.39621377
5;-0.20742114;0.15040699;-0.1542797;0.047994487;-0.1065607;-0.13097072;-0.03315297;0.13357145;0.106212914;0.14094064;0.029884756;-0.23889807;-0.0713885;0.06772883;-0.41621467;-0.21743265;0.28291562;0.20880152;0.1620843;0.07110195;-0.48888913;-0.34460402;0.14503399;-0.32465276;-0.42193824;0.6178774;0.48813245;0.36444658
6;-0.0012931541;0.20352437;-0.028839512;0.03620516;-0.732233;-0.6844513;0.031705417;0.013259306;-0.2303823;0.4401376;0.04458779;-0.09153379;-0.036318548;-0.776502;-0.406767;0.075699665;-0.38271987;-0.48336098;0.26156414;0.34171858;0.3546817;0.18047708;0.011190736;-0.07312397;0.098981954;-0.058417603;-0.17604609;0.21186887
7;-0.005603492;-0.25755292;-0.14444764;-0.16836396;-0.323739;-0.18217853;-0.34910464;0.122869015;0.704339;0.5121351;-0.08072221;-0.14604917;0.034864362;-0.3220973;-0.33544526;-0.31215012;0.0868921;0.49769753;0.18572225;0.065146446;0.07912475;0.11947548;-0.14188135;0.0007662807;-0.22807252;0.1882455;0.3731172;-0.04489256
8;-0.0018315975;0.22822773;0.00577186;0.079749726;0.21153073;-0.014677907;-0.1451138;-0.04337084;0.11196924;0.032698445;0.121235184;-0.30531773;-0.48916405;0.19403704;-0.22581139;-0.3953136;0.031643137;-0.048989106;0.024687773;-0.29011217;-0.8710282;-0.7712487;-0.004001084;-0.64996505;-0.3124151;0.23041904;0.18570364;0.45654032
9;-0.0037015926;-0.30481136;0.049207922;-0.121289045;-0.082352765;0.042160116;-0.13821365;-0.11812388;-0.12157226;-0.2770226;0.13788529;1.1187203;0.5958665;0.17774643;0.8338383;0.60673386;0.32318026;0.041515313;0.05960956;-0.2686683;-0.04603507;-0.11023244;-0.17368892;-0.18148746;-0.14975919;-0.007881605;-0.22545898;-0.11065059
10;-0.017667817;0.43715763;0.5605157;-0.037126478;0.28252116;1.0819638;0.15801121;-0.14623563;0.016194472;-0.3904203;-0.29727754;-0.35824424;-0.16513568;-0.5111262;0.12630004;0.0781047;-0.05543217;0.004791838;0.04532942;-0.1093268;-0.16953054;0.012480747;-0.14507096;0.14940934;-0.10589951;-0.11093616;0.1600452;0.070452996
11;-0.15887661;0.31702864;0.1057458;0.03415334;-0.27928767;-0.3782266;0.041083463;0.2786992;0.015875654;-0.34356472;0.15080006;-0.10872859;-0.38243878;-0.27064243;-0.14303604;0.03321308;0.48314542;0.5672914;0.043770254;0.14695433;0.15737094;0.33500886;-0.5909533;-0.33568102;0.27600738;-0.18480504;0.05741913;0.010678974
12;-0.16570073;0.18334436;-0.13454266;-0.16876376;0.5595451;-0.1185325;-0.17933537;0.40703672;0.057996806;0.07425286;-0.14354016;-0.028702354;0.06372444;0.053790525;-0.6386861;-0.1918089;-0.15471278;-0.5589173;0.21710548;0.13254116;0.16100031;-0.112783626;0.57685286;-0.005792627;0.13826908;0.11724246;-0.35144466;0.087045446
13;0.018611839;0.042714894;0.17153798;0.24156193;-0.42868462;-0.114041075;-0.069274604;-0.28402624;-0.19231617;-0.287107;0.08357323;0.008205677;-0.1680036;-0.29422003;0.22659294;-0.19825609;-0.37003118;0.22333166;-0.06852319;-0.13966037;0.046448644;-0.38775814;0.00050861685;0.4615603;0.08476095;0.14171879;0.7974292;0.23671177
14;-0.060135897;0.22704542;0.20939976;-0.12046086;0.047723744;-0.080135636;0.39904404;-0.21182643;-0.51014024;0.08248242;0.23005652;-0.0608112;-0.13938838;-0.12746128;-0.20086716;0.37553054;-0.020589262;-0.33580652;0.15075427;-0.14956445;-0.23331279;-0.1522596;-0.3005725;-0.3013223;0.62015945;0.086807325;-0.1484692;0.6138536
15;0.018050058;0.20308326;0.12512359;0.47782746;-0.19494249;-0.3056193;0.077224165;-0.27827057;-0.2475742;0.1967969;-0.024439745;0.2993937;0.55686;-0.26750126;-0.21991794;0.32762462;-0.21320711;-0.58501685;0.101434;-0.0030156553;0.1390841;0.4539065;-0.16061825;-0.29216355;0.064484745;-0.002832952;-0.4251248;0.19062869
16;-0.084812604;0.22510707;0.42355427;0.17205846;-0.10238739;-0.011714507;-0.26253352;-0.2337176;-0.11901722;-0.2279162;0.17461883;0.46094254;0.30453342;-0.23245396;-0.13625385;-0.2683909;-0.0014772597;-0.06597181;-0.37011698;0.23044851;0.56603163;0.38457912;-0.20290394;-0.18756042;-0.38255858;0.10302298;0.0021162406;-0.3673028
17;-0.035080843;-0.36069435;-0.12157858;-0.11361833;-0.12242576;-0.07606892;-0.0067332718;0.41693813;0.40947738;0.28325978;0.20847024;0.26122698;-0.21546794;0.241009;0.27586675;-0.05585008;0.3525802;0.32114178;0.028881624;-0.09683185;-0.0029666016;0.30419308;-0.5481702;-0.32563144;-0.20621662;-0.32312378;-0.4938317;0.019889928
18;-0.2168847;-0.075435564;-0.16102062;-0.14440821;-0.12537938;-0.42753577;-0.17780437;-0.13013126;-0.23481832;0.096450016;-0.042765286;0.37356067;0.04505094;0.51214415;0.72958666;0.19064693;0.35218284;0.43771434;0.16640995;-0.08296223;-0.100790575;0.075316705;-0.11583526;-0.27418935;-0.20285818;-0.23666774;-0.46830186;-0.052071255
19;-0.27554008;-0.3164067;0.0046051987;0.34271803;-0.28847826;0.09787107;0.6496579;-0.34054628;-0.42808938;0.25745153;0.013245835;-0.14253373;-0.15209533;0.07988542;0.12680492;-0.030986119;0.26585683;-0.22144698;0.09752741;0.2660593;-0.176004;-0.18353167;0.31067932;0.060101222;-0.46374327;0.46088126;-0.13758957;-0.18116683
20;-0.10139715;0.40224427;-0.04365715;-0.12067096;0.5547939;-0.09622925;-0.19351678;-0.3794507;-0.026793245;0.017106937;0.08690479;-0.2851063;-0.24371482;0.4705947;0.0063056885;-0.33454496;-0.3036397;0.08083157;0.33365047;0.2957838;-0.046905704;-0.24621215;0.33174875;-0.05418973;-0.3074942;-0.3419945;0.13290405;0.35536772
21;-0.034062184;-0.33833307;0.12061024;-0.092146285;-0.38799095;-0.27104107;0.03406492;0.26070598;0.19152145;0.4875142;0.41999876;0.5532923;0.28390247;0.12222375;-0.10234673;-0.14894643;0.011686717;-0.47539762;-0.5438852;-0.03930207;-0.112586185;-0.18713051;-0.04712103;-0.3109866;-0.1559602;0.2823049;0.15879457;0.25722116
22;-0.2242993;0.11399107;0.032911234;0.43647814;-0.051918644;0.11849413;-0.39449376;0.07830915;-0.359358;-0.14816508;0.11660587;0.15973724;0.12508576;-0.12544867;0.55213606;-0.21913841;-0.05971288;-0.34021658;-0.057762895;-0.3221128;-0.5286906;-0.32271907;-0.04602214;0.53805774;0.025318814;0.0288572;0.29357237;0.32257575
23;0.03290787;0.10236872;-0.14365962;0.29799026;-0.35256755;0.017560765;-0.19154987;-0.24505423;-0.13604313;-0.31150082;0.20779699;0.052526005;0.10698459;-0.003096569;0.32964602;0.28249604;-0.13763233;0.3437196;0.06622765;-0.2487595;-0.86488134;-0.6096358;-0.012299477;0.16443901;-0.12591577;0.13538176;0.4578752;0.0318966
24;-0.11665783;0.13504122;-0.19315471;0.059252094;0.3274116;-0.25136116;-0.01415304;-0.017495498;-0.34692433;0.15213323;0.31915176;-0.06410439;-0.43548408;0.7391947;0.14234376;-0.27800438;0.22391516;-0.20797679;-0.23256867;-0.39669085;-0.060794983;0.34013382;-0.14748023;0.07963256;0.37966704;-0.36707273;-0.14339183;0.2902594
25;0.16233;0.18047671;0.060175184;0.4339327;0.6293486;-0.071875386;-0.20637104;0.00017358421;-0.60137415;-0.3682576;-0.19458179;-0.3697161;0.13236995;0.2525032;-0.38162953;0.0074749556;0.3840083;-0.08446297;0.15324733;-0.16806012;-0.3051029;0.13090351;0.07003245;-0.07830219;-0.1347773;0.39725223;0.10649694;-0.025609797
26;-0.022847895;0.04346451;-0.055904027;-0.18214919;0.41249496;0.0072348523;0.035225656;0.2489565;-0.08733988;0.049386434;-0.43198064;-0.15042947;-0.022846358;0.14923152;-0.18120332;-0.12907234;-0.14255518;-0.4112208;-0.29118183;-0.1557508;0.32150626;0.7288206;0.2737714;0.5623461;0.8897808;0.02066692;-0.12601392;0.18914439
27;-0.057989158;0.26120228;0.35490933;0.27494362;0.21308759;0.117514566;0.31284517;0.07015028;-0.3602387;-0.057566386;0.27309254;0.22880797;0.01861383;-0.16699414;-0.24649444;-0.13697101;0.059813887;-0.51176023;-0.118103296;-0.030199848;-0.24920225;-0.17531577;-0.287031;-0.78536206;-0.33585125;0.016727593;-0.67283267;-0.022651905
28;-0.02491982;0.31588954;0.48756516;-0.37414646;0.35164917;-0.35696632;-0.1263534;0.19836946;-0.17454594;-0.2599897;-0.16004671;0.09073817;0.3358099;-0.50359076;-0.50351715;0.4211379;-0.048055712;0.024131516;0.20416167;-0.16324972;0.29898295;-0.24734439;-0.20127627;-0.053611718;-0.049126036;0.19459765;0.39677972;-0.022730596
29;-0.079528086;-0.08241827;0.043073934;0.3307064;0.1934903;0.67725927;0.3781758;0.06229981;-0.1492671;-0.2194045;-0.36771813;-0.5367602;-0.32608312;-0.2950239;-0.35079437;-0.41368175;0.21687452;0.21481349;-0.14393969;0.17313623;0.1736218;0.30762243;-0.04133782;0.114626125;0.0041802735;-0.19283697;0.08722768;0.032286957
30;0.10205221;-0.45217016;-0.17874008;0.547601;-0.26993227;0.056678727;0.51536554;-0.055888824;-0.10039084;-0.041678093;-0.51542896;-0.3099598;0.47218633;-0.37355652;0.009899308;0.5164315;0.007346224;0.038349405;0.090442106;-0.10163398;0.018691275;0.092881;-0.064739786;0.10005057;-0.0012113014;0.22370206;-0.071710125;-0.1778961
31;-0.0009920275;-0.04509809;0.044448037;0.051042832;0.27648124;-0.82977986;0.3947915;-0.02570869;0.12918873;0.0054291035;-0.015323339;-0.096262954;-0.0715947;0.38594595;-0.7569822;0.36175194;-0.024527675;0.27397823;-0.056535024;-0.109006904;0.28453207;-0.032896042;0.36960196;-0.316586;0.123277605;-0.22530359;0.078109436;-0.12177913
