kernel;bias;d0_w00;d0_w01;d0_w02;d0_w10;d0_w11;d0_w12;d0_w20;d0_w21;d0_w22;d1_w00;d1_w01;d1_w02;d1_w10;d1_w11;d1_w12;d1_w20;d1_w21;d1_w22;d2_w00;d2_w01;d2_w02;d2_w10;d2_w11;d2_w12;d2_w20;d2_w21;d2_w22;d3_w00;d3_w01;d3_w02;d3_w10;d3_w11;d3_w12;d3_w20;d3_w21;d3_w22;d4_w00;d4_w01;d4_w02;d4_w10;d4_w11;d4_w12;d4_w20;d4_w21;d4_w22;d5_w00;d5_w01;d5_w02;d5_w10;d5_w11;d5_w12;d5_w20;d5_w21;d5_w22;d6_w00;d6_w01;d6_w02;d6_w10;d6_w11;d6_w12;d6_w20;d6_w21;d6_w22;d7_w00;d7_w01;d7_w02;d7_w10;d7_w11;d7_w12;d7_w20;d7_w21;d7_w22;d8_w00;d8_w01;d8_w02;d8_w10;d8_w11;d8_w12;d8_w20;d8_w21;d8_w22;d9_w00;d9_w01;d9_w02;d9_w10;d9_w11;d9_w12;d9_w20;d9_w21;d9_w22;d10_w00;d10_w01;d10_w02;d10_w10;d10_w11;d10_w12;d10_w20;d10_w21;d10_w22;d11_w00;d11_w01;d11_w02;d11_w10;d11_w11;d11_w12;d11_w20;d11_w21;d11_w22;d12_w00;d12_w01;d12_w02;d12_w10;d12_w11;d12_w12;d12_w20;d12_w21;d12_w22;d13_w00;d13_w01;d13_w02;d13_w10;d13_w11;d13_w12;d13_w20;d13_w21;d13_w22;d14_w00;d14_w01;d14_w02;d14_w10;d14_w11;d14_w12;d14_w20;d14_w21;d14_w22;d15_w00;d15_w01;d15_w02;d15_w10;d15_w11;d15_w12;d15_w20;d15_w21;d15_w22;d16_w00;d16_w01;d16_w02;d16_w10;d16_w11;d16_w12;d16_w20;d16_w21;d16_w22;d17_w00;d17_w01;d17_w02;d17_w10;d17_w11;d17_w12;d17_w20;d17_w21;d17_w22;d18_w00;d18_w01;d18_w02;d18_w10;d18_w11;d18_w12;d18_w20;d18_w21;d18_w22;d19_w00;d19_w01;d19_w02;d19_w10;d19_w11;d19_w12;d19_w20;d19_w21;d19_w22;d20_w00;d20_w01;d20_w02;d20_w10;d20_w11;d20_w12;d20_w20;d20_w21;d20_w22;d21_w00;d21_w01;d21_w02;d21_w10;d21_w11;d21_w12;d21_w20;d21_w21;d21_w22;d22_w00;d22_w01;d22_w02;d22_w10;d22_w11;d22_w12;d22_w20;d22_w21;d22_w22;d23_w00;d23_w01;d23_w02;d23_w10;d23_w11;d23_w12;d23_w20;d23_w21;d23_w22;d24_w00;d24_w01;d24_w02;d24_w10;d24_w11;d24_w12;d24_w20;d24_w21;d24_w22;d25_w00;d25_w01;d25_w02;d25_w10;d25_w11;d25_w12;d25_w20;d25_w21;d25_w22;d26_w00;d26_w01;d26_w02;d26_w10;d26_w11;d26_w12;d26_w20;d26_w21;d26_w22;d27_w00;d27_w01;d27_w02;d27_w10;d27_w11;d27_w12;d27_w20;d27_w21;d27_w22;d28_w00;d28_w01;d28_w02;d28_w10;d28_w11;d28_w12;d28_w20;d28_w21;d28_w22;d29_w00;d29_w01;d29_w02;d29_w10;d29_w11;d29_w12;d29_w20;d29_w21;d29_w22;d30_w00;d30_w01;d30_w02;d30_w10;d30_w11;d30_w12;d30_w20;d30_w21;d30_w22;d31_w00;d31_w01;d31_w02;d31_w10;d31_w11;d31_w12;d31_w20;d31_w21;d31_w22;d32_w00;d32_w01;d32_w02;d32_w10;d32_w11;d32_w12;d32_w20;d32_w21;d32_w22;d33_w00;d33_w01;d33_w02;d33_w10;d33_w11;d33_w12;d33_w20;d33_w21;d33_w22;d34_w00;d34_w01;d34_w02;d34_w10;d34_w11;d34_w12;d34_w20;d34_w21;d34_w22;d35_w00;d35_w01;d35_w02;d35_w10;d35_w11;d35_w12;d35_w20;d35_w21;d35_w22;d36_w00;d36_w01;d36_w02;d36_w10;d36_w11;d36_w12;d36_w20;d36_w21;d36_w22;d37_w00;d37_w01;d37_w02;d37_w10;d37_w11;d37_w12;d37_w20;d37_w21;d37_w22;d38_w00;d38_w01;d38_w02;d38_w10;d38_w11;d38_w12;d38_w20;d38_w21;d38_w22;d39_w00;d39_w01;d39_w02;d39_w10;d39_w11;d39_w12;d39_w20;d39_w21;d39_w22;d40_w00;d40_w01;d40_w02;d40_w10;d40_w11;d40_w12;d40_w20;d40_w21;d40_w22;d41_w00;d41_w01;d41_w02;d41_w10;d41_w11;d41_w12;d41_w20;d41_w21;d41_w22;d42_w00;d42_w01;d42_w02;d42_w10;d42_w11;d42_w12;d42_w20;d42_w21;d42_w22;d43_w00;d43_w01;d43_w02;d43_w10;d43_w11;d43_w12;d43_w20;d43_w21;d43_w22;d44_w00;d44_w01;d44_w02;d44_w10;d44_w11;d44_w12;d44_w20;d44_w21;d44_w22;d45_w00;d45_w01;d45_w02;d45_w10;d45_w11;d45_w12;d45_w20;d45_w21;d45_w22;d46_w00;d46_w01;d46_w02;d46_w10;d46_w11;d46_w12;d46_w20;d46_w21;d46_w22;d47_w00;d47_w01;d47_w02;d47_w10;d47_w11;d47_w12;d47_w20;d47_w21;d47_w22;d48_w00;d48_w01;d48_w02;d48_w10;d48_w11;d48_w12;d48_w20;d48_w21;d48_w22;d49_w00;d49_w01;d49_w02;d49_w10;d49_w11;d49_w12;d49_w20;d49_w21;d49_w22;d50_w00;d50_w01;d50_w02;d50_w10;d50_w11;d50_w12;d50_w20;d50_w21;d50_w22;d51_w00;d51_w01;d51_w02;d51_w10;d51_w11;d51_w12;d51_w20;d51_w21;d51_w22;d52_w00;d52_w01;d52_w02;d52_w10;d52_w11;d52_w12;d52_w20;d52_w21;d52_w22;d53_w00;d53_w01;d53_w02;d53_w10;d53_w11;d53_w12;d53_w20;d53_w21;d53_w22;d54_w00;d54_w01;d54_w02;d54_w10;d54_w11;d54_w12;d54_w20;d54_w21;d54_w22;d55_w00;d55_w01;d55_w02;d55_w10;d55_w11;d55_w12;d55_w20;d55_w21;d55_w22;d56_w00;d56_w01;d56_w02;d56_w10;d56_w11;d56_w12;d56_w20;d56_w21;d56_w22;d57_w00;d57_w01;d57_w02;d57_w10;d57_w11;d57_w12;d57_w20;d57_w21;d57_w22;d58_w00;d58_w01;d58_w02;d58_w10;d58_w11;d58_w12;d58_w20;d58_w21;d58_w22;d59_w00;d59_w01;d59_w02;d59_w10;d59_w11;d59_w12;d59_w20;d59_w21;d59_w22;d60_w00;d60_w01;d60_w02;d60_w10;d60_w11;d60_w12;d60_w20;d60_w21;d60_w22;d61_w00;d61_w01;d61_w02;d61_w10;d61_w11;d61_w12;d61_w20;d61_w21;d61_w22;d62_w00;d62_w01;d62_w02;d62_w10;d62_w11;d62_w12;d62_w20;d62_w21;d62_w22;d63_w00;d63_w01;d63_w02;d63_w10;d63_w11;d63_w12;d63_w20;d63_w21;d63_w22
0;0.0012525312;0.17265573;0.29248485;0.08406285;0.121014535;-0.2027197;-0.29092997;0.10059022;0.091388725;-0.43981302;-0.21945472;-0.19276755;-0.35108596;-0.48085332;-0.550213;-0.3831007;0.033351265;-0.13195768;-0.041092142;-0.13947678;-0.55142623;-0.030309092;-0.13471468;0.021417568;0.046809815;-0.24395236;-0.0888976;0.14102875;0.14035009;-0.3041702;-0.45589784;-0.1831641;0.018355364;-0.41046137;0.11087924;0.10988932;0.2051964;0.07409008;-0.08813683;-0.38388577;-0.4535805;-0.93416345;-0.7570701;0.18568608;-0.4127316;-0.331813;0.2516226;0.25831077;0.2268366;-0.24157934;0.08453158;-0.26268023;-0.42978123;-0.25653523;-0.16255642;0.1743511;-0.09623453;-0.79186416;-0.12533997;-0.38359967;-0.5981968;0.18259561;-0.3906193;-0.26334795;0.22933657;0.080505826;0.2645414;-0.14962581;-0.20481658;-0.32422775;0.12684032;0.028104316;-0.39172453;0.020513607;-0.26585734;-0.4804503;0.07811804;0.014257607;-0.45786357;0.46700814;-0.027084807;0.0017791776;0.26994103;-0.2993481;-1.1182967;0.07315833;0.007119058;-0.48327813;-0.007728766;0.14109355;-0.24063432;0.25381604;0.01834204;0.49011078;-0.11194722;-0.18339765;0.19924088;-0.1956538;0.2141283;0.22283466;0.073706195;-0.21071182;-0.0002587747;0.07806919;-0.02569403;-0.007465962;-0.051518112;0.037888885;0.24946079;0.32565784;-0.019352145;-0.3520354;-0.20392622;-0.0054561365;-0.32395336;-0.28427747;-0.04222708;-0.23727907;0.3962765;0.26030734;0.09675661;-0.19795597;-0.47989783;-0.43863544;-0.124235146;0.10218832;0.25359732;-0.22279762;-0.16773866;-0.14441359;-0.07804659;-0.13154957;-0.18410419;-0.099786825;0.16025817;-0.03278446;0.196901;-0.020604942;-0.28662336;0.20647608;-0.13561699;-0.83153725;-0.11406672;-0.88566726;-1.3086047;0.41001484;0.30615506;0.26024547;-0.3041037;0.13792826;-0.045555796;-0.06807805;-0.045048334;-0.17783594;0.04334819;0.24055022;0.29775998;0.0174843;0.23529668;0.18237463;-0.112806186;0.022394989;-0.20394169;0.104876846;0.19781923;0.17424731;0.15766336;0.26418912;0.07755136;0.22295932;-0.2780357;-0.5999783;0.180946;0.27934983;-0.03521284;0.5206507;0.42273852;0.13192771;0.113716796;0.3224169;-0.0026279106;0.19904812;-0.22530286;-0.47143635;-0.22855733;-1.0763836;-0.8864116;0.20202565;-0.27875632;-0.37701625;0.14177117;-0.057291444;-0.09568558;0.42670146;-0.059225343;-0.058605514;0.32721213;0.14913723;0.23368864;-0.29621875;-0.32071704;-0.32043588;-0.62146866;0.02324442;0.085274816;-0.11677755;0.27248362;0.16556105;0.20168157;0.34635946;0.1916045;0.23620296;0.14610672;-0.051189713;-0.012201423;-0.36810824;-0.11431541;0.044326153;0.34090492;0.43935904;0.3929896;0.41676196;0.25062275;-0.09162386;0.079895936;-0.09953575;0.25992954;0.2667256;0.43009037;-0.08992379;-0.064699516;-0.053575784;-0.11767124;-0.27292463;0.37842762;0.0378189;-0.23171431;0.17371155;-0.3725815;-0.66209275;-0.060675304;-0.043449473;-0.21488392;-0.014938615;0.16389106;-0.13313971;0.44061908;-0.0120789455;0.04059127;0.30981994;0.22357176;0.10413447;-0.026830077;0.2998576;-0.35748973;-0.55495656;0.09230986;-0.44753003;-0.7255996;0.3182793;-0.06090013;-0.50476515;0.05816382;-0.6938852;-0.3461592;-0.19382888;-0.42365488;-0.052979704;-0.5249601;-0.6341438;0.039740406;0.20994489;-0.18042463;-0.07076094;0.28982157;0.0012358312;-0.32072088;0.56475025;-0.18348818;-0.2887293;0.40294775;-0.026989385;-0.28943762;0.21829337;-0.4274589;-0.80870855;0.14618295;-0.12516288;-0.39805308;0.18017459;-0.21226805;-0.71358037;-0.0779748;-0.32747704;-0.5229746;0.53494185;0.11300758;0.18127863;0.6778743;-0.1369818;-0.63469476;0.3215371;-0.37984726;-0.36642575;0.6447973;0.23218623;0.25628638;-0.1709545;0.07324185;0.12859297;-0.04454603;-0.08712951;-0.12810582;-0.24889058;-0.4061134;-0.4075891;0.3241499;-0.16490224;-0.09112859;0.38857323;0.038891003;-0.26063165;0.41481698;0.18550278;-0.15876487;0.38436875;0.093504846;0.30399826;0.0906237;-0.29589155;-0.25965554;0.13405704;-0.36535645;-0.093785375;0.10776927;0.40705103;0.31179076;-0.22924915;0.23971286;-0.033650763;-0.26958078;-0.68535537;-0.9387648;-0.2903607;-0.048156563;-0.14819573;0.07113595;0.04708105;-0.37078413;0.25131327;-0.2979274;-0.49066064;0.1988886;0.49993104;0.26847056;0.29737452;0.43264812;-0.017652066;0.12009559;0.17218786;-0.15925452;-0.07946779;0.1827614;0.07688667;0.091490455;0.19686948;-0.0003063447;-0.11523479;-0.01331035;-0.29633728;0.15186116;0.036193043;-0.28592187;0.29081404;0.07378409;-0.18488468;0.047646113;-0.010853292;-0.2212636;0.26644406;-0.045506034;0.35292712;0.14120491;-0.16585444;-0.124129176;0.07530504;-0.07373589;0.04428733;0.2598594;-0.28876314;-0.058882844;0.12942201;0.013464436;0.052870415;0.16316995;0.38166898;0.032529328;-0.18454063;0.0671131;-0.019430498;0.10960462;0.29432186;0.19531453;0.19273952;-0.16870241;-0.12529819;0.2330017;0.4003412;0.19452141;-0.24233094;0.16970426;0.12797071;0.23204194;0.4217402;0.19711614;0.13676389;0.12642099;0.14354244;0.4334499;0.20849183;-0.1816931;0.19469935;-0.049202252;-0.5329364;-0.123306215;-0.124082;0.12552257;-0.3166522;-0.15037191;-0.01568225;-0.29757118;-0.37756902;-0.20494537;0.20827438;0.25594136;-0.33365166;-0.11098291;0.15526094;-0.12643231;0.14984058;-0.018521508;-0.07544869;-0.21080892;-0.36666673;0.33496478;0.065655686;0.07564264;0.21469389;-0.017823344;-0.24044311;0.12821373;0.12537903;-0.12950212;-0.047369204;0.23262018;0.0577588;0.026287297;0.07108452;0.2345643;0.14444107;0.49271232;0.19904134;-0.22985877;0.4102487;-0.19873825;-0.3927771;0.21662898;0.10896345;-0.08637678;0.264438;0.120546706;-0.18349342;-0.07461779;-0.079565704;-0.07444564;0.26147354;-0.18895908;-0.31520027;0.3490186;-0.14277725;-0.2196442;0.28256425;-0.04421059;-0.31715754;0.39581332;-0.15093914;0.15969583;-0.10078768;-0.41665372;-0.4698465;-0.07721441;-0.13020524;-0.74024487;0.14556567;0.10133852;-0.11844325;-0.14015333;-0.3422945;0.17543302;-0.710718;-0.4139989;-0.40287188;0.030771906;0.27042955;0.7689207;0.15539686;0.024579756;-0.4262727;-0.15959637;-0.33879623;0.1053204;0.26911655;0.022288969;0.17763782;-0.2158355;-0.16795462;-0.37198862;0.050057046;0.004499787;-0.3819964;0.14160672;0.010730399;-0.5801871;-0.5811078;-0.2136463;0.10503324;-0.72266936;-0.0751784;0.09896398;-0.80476195;-0.14418504;0.1710786;-0.11762537;-0.1293171;0.37727708;-0.27316207;0.040972188;0.4770082;-0.5489088;0.14197469;0.32162613;-0.032840397;0.24776316;0.12616877;-0.22334807;0.13927668;0.0012424567;-0.065588795;-0.3952023;0.31666106;0.39487663;0.23805022;-0.06996781;0.016256105;0.07604582;-0.3582692;0.07309308;0.1582383;0.10937121;0.20639993;0.3659621;0.3363807;-0.095944904;-0.36303806;-0.7842608;-0.14689286;-0.3578282;-0.5187598;0.16324516;0.40422273;-0.18335502;0.046090487;0.20902023;-0.25862643;-0.13735792;-0.15588696;-0.2150905
1;0.0024959315;0.09928361;0.14704119;0.5740522;0.115085356;-0.050215352;0.5690779;0.21003163;0.08069414;0.33945888;0.047362756;-0.04758866;-0.35314512;-0.27805325;-0.44188374;-0.6402642;-0.15312904;0.019507552;0.01809782;-0.23296085;-0.8475652;-0.53072876;-0.5712938;-1.359303;-0.98034465;-0.5140423;-0.3857427;-0.4553751;0.1872698;0.11682703;0.31644577;-0.4652576;-0.68222296;-0.7944487;-0.19318093;-0.4432922;-0.22442521;0.38835725;0.3757275;0.31678328;0.5811206;0.3534614;0.41123953;0.18537301;0.21757215;0.58788735;0.044466108;-0.12948582;-0.34776896;-0.01806542;-0.28224742;-0.3262197;-0.085539766;0.027565759;0.03471063;-0.13890836;0.13938089;0.17189655;-0.62915725;0.06735302;0.0049904697;-0.40374684;0.0151653495;-0.50321615;-0.40827182;0.054668415;0.19394848;0.21271841;0.28843716;0.14934327;-0.13620026;-0.15659687;-0.18034206;-0.6412669;-0.70370156;-0.82742023;-1.2335477;-0.8470828;-0.71708447;-0.28858736;-0.22032054;0.21418378;-0.17165427;-0.06424427;-0.07068542;-0.09164231;0.28826377;0.1521381;-0.050872818;-0.17983182;-0.27741754;-0.17880103;-0.20912367;-0.16018647;0.038770534;0.24998806;0.11340382;0.03740974;-0.028194416;-0.13136476;-0.2992978;-0.5573434;-0.4815503;-0.27286163;-0.1792092;-0.17360312;-0.37308732;-0.15496534;-0.45348796;0.18636066;-0.09182223;-0.17535584;-0.11029284;0.040516127;0.27894533;-0.10820661;-0.12629357;0.5005382;0.17844847;0.16660437;0.3296411;0.008309287;-0.25598916;-0.12618294;0.2280297;0.03246265;0.29212743;0.41085902;0.10067016;-0.12394796;0.24482165;0.19693306;-0.042898193;0.039882753;0.27245033;0.23379496;0.15093729;-0.07376816;-0.31033474;0.08488135;0.34577852;0.19852807;-0.0278598;0.038755275;0.26278245;-0.26589367;-0.5390904;-0.31882876;-0.47635138;-0.43750867;-0.07815327;-0.09227115;0.04493237;-0.05750013;0.23315494;0.2140476;-0.039145343;0.22311999;0.13534757;-0.08475886;0.12765777;-0.0057410793;-0.034591537;-0.036906503;-0.25711003;-0.3347736;0.2635705;-0.10567863;0.007440436;-0.17151503;-0.2186573;0.16966581;0.07979321;-0.19658816;-0.040048145;-0.16780263;0.094078965;-0.18203837;-0.0116315875;0.11357868;-0.31182748;0.08790742;0.06654801;-0.21489091;0.24542111;0.121309444;-0.024417765;0.25291088;-0.32415104;-0.075088225;0.19697803;-0.07966459;0.41211435;0.08084594;-0.04595822;0.09595939;0.15679568;-0.031936616;-0.10959219;0.083946146;-0.46880865;-0.42277172;-0.35378698;-0.79756546;-0.68298674;-0.2360591;-0.1771277;-0.192943;-0.18942642;-0.30401212;-0.09427501;-0.41245398;-0.0015145177;0.08301961;-0.08143321;-0.14444086;-0.061028372;-0.6891674;-1.0708244;-0.7578791;-1.0094606;-0.9849696;-1.0709847;-0.4899062;-0.4787316;-0.490875;0.014536359;-0.16045634;-0.21311921;-0.22923851;-0.26229653;-0.21089686;-0.029937495;0.3008007;0.1396089;-0.16773261;0.1977881;0.13471177;-0.013997327;-0.008418785;-0.0939868;0.55921435;0.14089705;-0.42536512;0.006939845;0.068433;0.28355607;0.08604353;0.33434707;0.038972363;0.17567383;0.049037818;-0.085620396;-0.19158198;-0.20275459;-0.03527535;0.2747179;0.21306749;-0.066044964;0.15325843;-0.29339752;-0.45445687;0.30123115;0.17779319;-0.085322656;0.14440039;0.23770608;-0.20312765;-0.08814502;-0.15176377;-0.23664209;-0.30955654;-0.27439356;-0.113324456;0.39015788;0.2988022;0.12402863;0.40585345;0.05840403;0.17067821;-0.18806487;0.024728168;0.12330703;-0.00047799968;0.22939563;0.37658307;-0.173864;-0.23757435;-0.07000432;0.06382574;-0.038809665;0.091898166;0.22285761;0.385724;-0.061754476;0.261832;0.16450319;0.0620397;-0.16940247;0.004029858;0.30421954;-0.20622991;0.34487534;0.25027528;0.12784474;0.4068269;0.2313775;0.016752996;-0.54480374;-0.4505019;-0.07367821;-0.53567845;-0.2626199;0.046469245;-0.2349891;-0.15576558;0.13321272;-0.24440871;0.09738775;0.19962277;0.26544473;0.499186;0.1977085;0.33532423;0.5133548;-0.16199774;0.12441586;-0.028646829;-0.44747728;-0.21842013;-0.5325783;0.2313808;-0.102339245;-0.11980483;0.073486865;0.12840913;-0.0986296;0.33504707;0.21012154;-0.14012296;0.20223406;0.014215205;-0.19720116;-0.22126485;-0.14936905;-0.8744166;-0.19081225;0.08470859;-0.18956529;-0.13337012;0.0350476;-0.186755;-0.34608725;0.04522473;0.16160312;-0.23381269;0.0370545;0.006071038;0.32130122;0.09805419;0.24810347;-0.03858766;0.11489486;-0.39695367;-0.050154705;0.24865912;-0.023458531;-0.05887525;0.25227845;0.052390885;-0.12140196;-0.1548426;0.008736044;-0.1903751;0.050107215;0.23811352;-0.20571181;-0.39893594;-0.3664706;-0.12210938;-0.12507178;0.52845436;-0.026976774;-0.1155652;0.22583188;-0.0025379215;0.23885864;0.14795175;0.01980226;0.22292076;0.49742275;0.2036693;-0.18796495;-0.19066885;0.32630533;0.3373403;0.1463584;0.18985966;-0.383709;-0.21562283;0.5202217;0.33058658;0.516217;0.06305107;-0.034919072;0.12815462;-0.16829602;-0.36238876;-0.3206734;-0.04820347;-0.43735617;-0.4877697;-0.2365773;-0.2063242;-0.06851782;0.055339742;0.02193131;-0.17879324;0.17183453;0.01484469;0.021845227;-0.44187292;-0.31891838;0.05702133;0.10075706;-0.026656521;-0.21230915;-0.0792151;-0.3305535;-0.41655713;0.13157046;0.070944846;0.023510447;-0.17516902;-0.37165695;-0.21972957;-0.16707245;-0.18858963;-0.36568305;0.13757144;-0.057490915;0.0024594115;-0.3354293;-0.6078736;-0.48682362;-0.15289924;-0.37339553;-0.25496185;0.24775867;-0.16131078;-0.07617822;-0.13138299;-0.16576663;0.13734592;0.124703325;0.02439561;-0.11282585;0.2551456;-0.052901402;-0.2808271;-0.66187936;-0.38357267;0.3422117;-0.7668943;-0.6622722;0.0545486;-0.25098112;-0.12835863;0.10362802;-0.09817649;-0.45087478;-0.31478125;0.056875177;-0.061114367;-0.01714752;0.056896374;-0.037958242;0.020726522;-0.07489095;-0.40914565;-0.24325716;-0.20750299;-0.19835414;-0.21303722;0.017682666;0.3399168;0.21052696;-0.061296076;-0.32718703;-0.1512749;0.197904;0.4034115;0.49505037;0.40582567;-0.030972494;0.39162135;-0.31954977;-0.59056246;-0.39039847;-0.08875826;-0.3550092;-0.192037;0.29627514;-0.37172344;-0.1355909;-0.044186532;0.18381459;0.21348661;-0.01452625;0.10215881;0.12135212;0.1708384;0.04012768;0.25194573;0.042448092;0.085620135;-0.021525305;-0.34558174;-0.21851587;0.20302999;-0.3369636;-0.101745784;0.19731794;0.050075572;-0.36559853;-0.16792758;-0.30636963;-0.17619453;0.15765394;-0.5997153;-0.35225707;-0.09178619;0.08460535;-0.039066095;-0.31697795;0.19021094;-0.027574647;-0.21552548;0.16105323;0.11885588;0.046749663;0.23431347;-0.004074811;-0.47572908;0.21570435;-0.19475527;-0.0020608914;-0.0025514031;-0.046349846;0.4358852;0.16928673;0.03491723;0.21743977;0.2349127;-0.07370996;0.34056857;0.2873992;-0.25881124;0.07706691;0.15801628;0.052385088;0.22099523;0.36394224;0.11028048;0.36063194;0.109788634;-0.37437937;0.09632242;-0.11571934;-0.60548496;-0.44280308;-0.25539792;-0.071758136;-0.18234688;0.18570776;0.09415362;0.14046861
2;-0.0028433974;0.34569803;0.44260237;-0.03459084;0.32009667;0.32962486;0.17119817;0.26638132;0.051916033;-0.06485593;-0.33391362;-0.5238672;-0.49952233;-0.13414721;0.061167907;-0.07620918;0.1681888;0.21669899;0.18900478;-0.3460926;-0.19608128;-0.49385738;-0.104048505;-0.32840133;-0.25574964;-0.11475314;-0.42474777;-0.48777214;0.08087144;-0.075995035;0.14111263;0.15545991;0.06673757;0.13498308;0.14726493;0.10527801;0.10725634;-0.21551557;-0.017836528;-0.9445545;-0.18002065;-0.43351406;-0.5436169;0.29930875;0.004184184;0.17206049;-0.397609;-0.63072175;-0.007808179;-0.0026026717;-0.28032;0.16555157;0.24936125;-0.11755161;-0.21884035;0.43354553;0.39894077;-0.5207605;0.09470553;0.058563817;-0.027485903;0.44824025;0.22608252;0.047782872;0.23953904;0.2175263;-0.2911962;0.10529601;0.28700855;-0.0358171;-0.30492014;-0.2325831;-0.44593567;-0.11821409;-0.21192017;-0.30288887;-0.04318193;-0.054956757;-0.3243195;0.41176462;0.38599497;0.068239726;0.12162587;-0.20237613;-0.069345385;-0.1327808;-0.26941183;-0.28088593;0.08129243;0.17557937;0.14269044;0.06370124;0.5029832;0.2762304;0.20288615;0.109953426;-0.0883149;0.16692908;0.16616645;-0.105996475;-0.24639018;0.1631245;-0.13597365;-0.11736856;0.057543308;-0.003955157;0.27860093;0.59541845;0.31606528;0.3225042;-0.3791054;-0.0975397;-0.12131348;0.06724836;0.10245884;-0.3639574;0.1522891;-0.1442472;-0.018520046;0.05926595;0.24826264;0.032327753;0.30725726;0.1855554;-0.5645239;-0.009473617;0.21811607;-0.012347689;0.1257669;-0.13987707;-0.07957078;0.0900452;-0.26075006;-0.16801168;-0.09487128;-0.2289522;0.35704476;0.34831774;-0.45197207;0.39877144;0.1746549;-0.4419427;0.34021306;0.22913043;-0.06651603;-0.07022594;0.27966592;0.19465259;0.19426398;0.15934855;0.20296524;0.20139748;-0.082353085;-0.080286734;0.3089799;-0.3942141;-0.2747232;-0.20035452;0.21295357;0.1784121;0.2290964;0.415664;0.039048586;0.7777332;0.50062346;-0.3973661;0.05490564;-0.19629735;-0.058560856;0.116955034;-0.082144;0.27657324;0.11005065;-0.62372196;-0.45298457;-0.21494088;-0.34298074;-0.28465986;-0.29622;0.17633477;-0.14446391;0.395148;0.20481132;-0.22407076;0.18356398;-0.13357295;-0.6560609;0.08141705;0.041096464;-0.3768719;-0.13987914;-0.11137185;0.07918784;-0.3694329;-0.14922585;0.045349404;-0.20175931;-0.19176686;-0.05768603;0.035393517;-0.07271649;-0.1618684;-0.38403186;0.055366784;-0.05440256;-0.05041717;0.501162;0.42221105;0.16417184;0.13054551;-0.30519992;0.09831721;-0.29344082;-0.051703557;-0.5022698;-0.18755111;-0.23509586;0.5402693;-0.04614813;-0.14095518;0.17314376;-0.39969024;-0.03006427;0.4291282;-0.035029314;0.047130186;-0.5994245;-0.59173524;0.5506869;-0.6852658;-0.18749282;0.38249388;-0.28408444;-0.16974974;-0.047039196;0.14294001;0.10967433;-0.19807583;0.3639166;-0.012316436;-0.4008235;0.2775994;0.021407058;0.08143076;-0.13229972;0.43998218;0.046776734;0.030420398;0.1322192;0.037992522;0.11524322;0.014003044;-0.22876829;0.5181776;0.24177845;-0.544358;0.07759188;0.049133565;-0.17040782;0.17712753;0.16562094;0.34591985;0.21716683;0.33242425;-0.3109637;0.116824746;0.073424034;-0.0922899;-0.19372848;-0.2970542;0.0067637116;0.708789;0.08655054;0.0131753;0.015102064;-0.09640611;-0.07782258;-0.11760907;-0.01598086;-0.1294874;0.13084316;0.32341942;-0.20626193;-0.046214562;0.031658553;0.072639495;0.138168;-0.136341;0.4865645;0.13163042;-0.19169141;-0.2184254;-0.06802413;-0.74603605;-0.22055568;0.11215211;0.06360731;0.25557074;0.39233637;0.1330689;0.1451278;-0.11413756;0.19328915;0.049736068;0.17165911;0.17166144;0.0170371;-0.02919732;0.14957437;0.3096902;0.1400174;0.11509596;0.032846935;0.27884018;0.022733316;0.085291825;-0.29720497;-0.05274946;-0.36922938;-0.12189054;-0.0929476;-0.031574402;-0.106817976;-0.1711696;-0.11109241;0.102648534;0.02139717;0.18691427;0.011694648;0.21823949;0.051695913;0.057370454;0.060294535;-0.18999341;0.56663334;0.28144148;-0.013218542;0.050967343;-0.1537558;-0.15528889;-0.060237203;0.01288425;0.11241746;0.03922364;0.1729681;-0.30835393;0.15893729;0.17137764;0.35357016;0.05927009;0.080657296;0.034045484;0.47833306;-0.026316589;0.29034498;-0.10970978;-0.13996327;0.042941704;0.02668634;0.097203;0.35207167;-0.51719743;-0.24694341;-0.38420886;-0.14719239;-0.009003295;0.08684942;0.024625791;0.16015655;-0.2651077;0.20419085;0.32532445;0.27740374;0.30435833;0.28012446;0.059997484;-0.19683878;-0.024282262;-0.005427096;-0.46381858;-0.10006703;0.042801626;-0.11443969;-0.108678035;-0.12340013;0.30893752;0.14190766;0.048472945;-0.17404166;-0.33387312;-0.3961008;-0.13264778;-0.44684923;-0.60262907;-0.15120912;0.15650779;0.10000272;-0.21120355;-0.4063482;0.15317544;-0.50414836;-0.18144803;-0.10853402;-0.29430223;0.08289549;0.17945918;-0.019591985;0.4248606;0.4824662;-0.028091153;0.13894819;0.2404573;-0.28240255;-0.08847607;0.022516645;-0.030996326;-0.5529417;-0.25055724;0.0088506965;-0.03638253;0.36301154;0.4126299;0.060543045;0.59094787;-0.044252325;-0.052568424;0.29824302;-0.01255399;0.17591187;0.22193222;-0.63424975;-0.16507724;0.107468516;-0.05288131;-0.5762627;-0.1684381;-0.03364249;-0.1815809;0.32550323;0.071662515;0.05120537;0.31539303;-0.048554625;0.3347593;0.4097706;-0.20792873;0.018060891;0.35590008;0.06377947;-0.05803118;-0.19801308;-0.11498425;-0.2647865;-0.481398;-0.25426582;-0.36969727;-0.21735473;-0.15266027;-0.30858377;-0.6784481;0.28503716;0.66793734;0.70695907;-0.5654929;0.10923594;0.13132168;-0.5702882;0.063581236;0.36575356;-0.39831984;-0.7166275;-0.32019833;-0.3426086;0.10217876;0.33110738;-0.32935798;0.33699638;0.34472817;-0.0019481655;-0.13800189;-0.3568357;-0.06395233;-0.1760744;0.043400444;-0.12593481;0.10153478;0.1653135;0.14949848;0.24022494;-0.11752895;-0.092954844;0.19557346;-0.08559458;0.09867237;0.23921645;-0.07014524;0.17103095;0.027345749;-0.11317516;-0.04325097;-0.3987243;0.12944616;-0.33316138;-0.049644247;0.39363912;-0.36585948;-0.024227004;0.6643954;-0.4424426;-0.16679125;0.1801944;-0.22964676;0.38408986;0.19292656;0.003886731;-0.4174408;-0.5312949;0.3028088;0.35125867;0.08179984;0.4469565;0.13832492;0.19514975;-0.095271215;-0.37118226;-1.1055025;0.2885078;0.30622226;-0.38942114;0.17606185;0.05706509;-0.3267044;0.16257484;0.48485577;0.30277365;-0.5781477;-0.15672828;0.16886304;-0.20333777;-0.09133892;-0.07242982;0.122589484;0.043858815;-0.13830769;-0.44000798;-0.2445394;-0.034319438;-0.534865;-0.34070936;-0.007563405;-0.24358316;-0.50614554;0.8621576;-0.8990207;-0.1181657;0.4641348;-0.71265167;0.24364094;0.37131533;0.43978652;0.23960002;-0.20226681;-0.06890917;-0.06352355;-0.18521008;-0.17376432;-0.33576405;-0.08734031;0.48747706;-0.057526965;-0.07900333;-0.005739648;-0.14740565;0.18341817;0.03749042;0.33402997;0.913344
3;0.0019510312;0.20747036;0.09886823;0.24560833;0.22276755;-0.059263613;-0.14331034;0.1629739;-0.11929246;-0.2408998;-0.032065585;0.34233806;0.19823477;-0.08206453;-0.07891219;-0.20445184;-0.0051348116;0.22173946;-0.38265315;0.0051595625;0.18229505;0.20854163;0.09496145;0.022133315;-0.09373951;-0.10876957;-0.79021794;-0.3736412;0.14118885;-0.07356289;-0.03132816;-0.008783777;0.0043063904;0.20609838;-0.020461017;0.1428137;0.17358507;0.20864339;0.27293476;0.57840896;0.1288907;-0.028791094;0.088630706;0.044211518;-0.022057274;-0.060167924;0.13317516;0.0802646;0.40733835;-0.44743156;-0.07529483;0.10329701;-0.23742354;-0.0069494206;-0.13588493;-0.018484814;-0.08739105;0.11779693;0.13159977;-0.071103215;0.4090698;0.08833272;0.040357303;0.20843568;0.08730776;-0.19697267;0.10694551;-0.129437;-0.23948681;0.14677307;-0.6466395;-0.27113852;0.0732486;-0.5641448;-0.28577262;-0.37163877;-0.25413764;-0.14481337;0.05711745;0.21394324;0.30648184;0.8851804;-0.011482352;-0.30654734;0.11651536;0.21891835;0.00046620955;0.39774832;0.36423403;0.3081797;0.20513652;0.037245236;-0.09932626;-0.04515364;0.27430117;0.5226831;-0.038376704;0.015879825;-0.010789919;-0.09354066;-0.19491483;-0.3850672;-0.5673466;-0.5059586;-0.56964356;-0.3961468;-0.012484232;-0.10032963;-0.10314659;-0.32062006;-0.5346154;-0.43301332;-0.21276501;-0.09603776;0.59909153;0.46117422;0.51211506;0.77714413;0.44378594;0.21829651;-0.0022709284;-0.12144992;0.014470723;-0.041797455;0.23676878;0.02746386;-0.011694142;-0.024266047;0.075662814;-0.21298341;-0.17620979;-0.08481796;-0.18187231;-0.089355335;-0.24534878;0.2852584;0.5206388;0.0075640916;-0.2409236;0.26843408;-0.19819672;-0.39431024;0.29233044;0.074981414;0.10384711;0.10753037;-0.22881499;-0.25465974;0.12073267;-0.061576825;-0.6532311;0.44255158;0.4909363;-0.52636147;0.060641948;0.06278601;-0.23060226;-0.52309436;-0.123295344;0.10921794;-0.041903134;0.11827736;-0.107524745;0.45162776;0.36238334;0.16499719;0.13608132;-0.36309826;0.24066338;-0.08946725;-0.26275674;0.28892168;0.23201035;0.0644041;-0.41406068;0.034700487;-0.3452535;-0.49102;-0.722576;-0.21059807;0.73575234;0.3567278;0.11343035;0.2803441;-0.19826688;-0.38039732;-0.3419524;0.08282445;0.24020766;-0.29770482;-0.16726594;-0.23532;-0.3520147;-0.15037106;-0.47833157;-0.016574364;0.13487126;-0.46304983;0.10123271;-0.032011703;0.10763288;0.3793551;0.3175004;0.012682188;0.08311275;0.3362695;0.5090151;0.0851561;0.26326582;0.12977459;-0.12091877;0.29232576;0.14842513;-0.4531288;0.2953027;-0.50181675;-0.55548644;0.41584185;0.1969984;-0.104249485;0.2646983;0.17919792;0.13376941;-0.004335839;-0.62413466;-0.4066948;0.18940641;0.24230494;-0.081017844;-0.13440451;-0.27904916;-0.3543678;0.0689913;0.031841744;0.08279059;0.092648596;-0.033379428;0.14221738;0.06333848;-0.26837903;-0.36808762;0.49333495;0.12723349;0.4017481;0.3825735;0.09615487;0.16890281;0.17587723;-0.023824988;-0.40150392;0.58490735;0.037681267;-0.5283321;0.35979843;-0.30764997;-0.2718168;0.0750841;-0.24948631;-0.14309216;0.15438448;-0.058965687;-0.14227055;-0.65828854;-0.11440991;0.32182845;-0.15565231;0.047708478;0.19465844;-0.18592344;0.07274368;0.2414125;-0.014172538;0.07698892;0.005359544;0.26942152;0.06841261;0.03131063;0.28351575;0.090309605;-0.07373863;0.37653318;-0.13200507;0.13482068;0.02634915;-0.18833658;0.06203137;-0.04403484;-0.14932919;0.1697592;-0.080242105;-0.32678673;-0.30425447;0.03486917;-0.18286023;-0.0023956825;0.25119713;0.40480712;0.52295893;-0.26574957;-0.51409805;-0.32012138;0.02822337;0.1675162;0.323657;0.35652795;0.5181594;0.26351008;0.11440744;-0.22049408;0.25358036;0.1333378;-0.008879984;-0.12255009;0.051489003;-0.49971917;-0.4521609;0.076318786;0.08857704;0.19085164;0.21346648;0.26126003;-0.30873796;0.2036028;0.3469105;-0.33626223;0.42500415;-0.029921621;0.055905487;-0.21256655;-0.3148682;0.025019191;0.21314391;0.086052515;0.27048796;0.08746186;-0.34193313;-0.07710306;0.18120584;0.17968675;0.035615228;0.20317708;0.10384415;-0.039639212;0.019978026;-0.07025056;-0.07216254;0.1620972;0.019716632;-0.14352585;-0.051129922;0.041369945;-0.04484738;0.13680676;0.16297632;0.5446789;0.17437556;0.04182932;0.0880656;0.11743422;-0.45347008;-0.5308279;0.08190648;-0.10973252;0.10124298;0.19167715;0.20714499;0.15017818;-0.046158712;0.10891091;-0.33994153;0.113398924;0.04689547;-0.21501277;0.32963794;0.04666338;-0.50816154;0.30395913;0.24851756;0.4611532;-0.03820922;-0.14371775;-0.7385596;-0.4752853;-0.7776789;-0.8819948;-0.13976042;-0.23405153;0.19478638;-0.49647272;-0.5533958;-0.018163104;-0.5481698;-0.67625535;-0.015527637;-0.33566874;0.07598159;0.30153516;-0.3957098;-0.13293576;0.3078736;-0.31676248;0.048379183;0.05944862;0.13530006;-0.1615152;-0.23791476;0.39479825;-0.12644564;0.3495213;0.10027499;0.12863284;0.34099597;-0.0916299;-0.22207616;-0.025204757;0.021557337;0.07069466;0.5363033;-0.0692836;-0.0675089;-0.107617386;-0.16479258;-0.063957706;-0.23184913;-0.038586624;-0.037865594;0.10432541;0.15164855;0.11097398;0.13488168;-0.23644045;-0.607232;-0.6021184;-0.34244195;-0.24678268;-0.2534503;-0.29491296;0.098199666;0.17601356;0.10729733;0.3832476;0.37789816;0.18216284;-0.07476826;-0.10546141;-0.17293437;-0.2370317;0.0052407384;0.3270104;-0.101026356;0.01593759;-0.4744403;-0.20655636;-0.26232332;-0.38646448;-0.46706632;-0.13057026;-0.1111852;-0.15168507;0.10646047;-0.2873611;-0.34027544;-0.42230365;-0.40582797;-0.46184948;-0.04622265;-0.5649025;0.054669797;0.5691253;0.070005864;-0.0027517248;0.34819868;-0.11507219;-0.17716625;0.15049002;0.1529927;0.20707725;-0.10531702;-0.52735585;-0.39192176;-0.3402208;-0.20615745;0.02065026;-0.23059134;0.33392057;0.41700178;0.5470798;0.18771043;0.3711985;0.5474022;-0.065231845;-0.064576946;-0.097784;0.3593875;0.25176165;0.61267674;-0.3631548;-0.841747;-0.5189758;0.0027704223;-0.3679906;0.31528455;0.670265;0.2202457;0.29975626;0.26057968;0.009445366;0.47244173;0.09065836;0.22307035;0.19472429;0.029934179;-0.052661132;-0.41550618;0.032018863;0.19737682;0.5865567;-0.123118244;0.1305199;0.24846134;-0.111605026;-0.04801272;-0.36772868;0.06942837;0.32906124;0.3554744;-0.048529472;0.026757743;0.13780542;0.01371858;-0.6491241;-0.32084078;-0.2410635;-0.25157303;-0.3372503;-0.1312404;0.116263695;-0.17576675;-0.025021223;0.28561112;-0.26987937;-0.022864316;-0.081040874;-0.05897151;-0.55123985;-0.18290499;-0.03178114;-0.42551515;0.3358104;-0.040058408;0.08562262;0.20393944;-0.13785432;-0.17716698;-0.06300475;-0.06363734;0.046695955;-0.00046297157;-0.2674078;0.039942164;-0.29694197;-0.26717994;-0.2765467;-0.69925565;-0.4008156;0.108906284;-0.20076264;0.044455588;-0.01300895;-0.14304076;0.16374682;0.08995053;-0.0030191827;-0.008442582;0.56670856;0.37158582;-0.23939478
4;-0.0019901546;0.38602057;-0.3237932;-0.27706924;0.29132316;-0.07069423;-0.14980833;-0.22593983;-0.0628204;-0.113356814;0.2024775;0.6420199;0.5672401;0.012919568;0.0928496;0.104511835;0.23690833;0.17441949;0.1636397;0.12927169;0.039419536;-0.95717;0.32803544;-0.17901832;-0.50029063;0.4791925;0.36011943;0.06412837;0.20113735;0.37259796;0.23930125;0.17902482;0.4709567;0.42302135;0.05402101;-0.15147203;0.36338875;-0.22130328;0.10330267;0.14166388;0.118379176;0.23218839;-0.080058746;-0.10618475;0.19816618;0.14923608;-0.2862276;0.07662973;0.28704754;-0.4890799;0.24561484;0.3703756;-0.28348514;0.33297634;0.43056074;0.10348154;-0.10915769;-0.68879277;0.47527027;-0.03744969;-1.0556611;0.16086657;-0.043541763;-0.8692524;-0.11118794;0.034507725;0.0073542115;0.0052557806;-0.13010763;0.29523706;-0.48757026;-0.4566187;0.12828852;-0.4815616;-0.0017224625;0.0909361;-0.1279914;-0.37204486;0.015139168;-0.09398852;-0.5556305;-0.5013543;0.043307293;0.16173755;0.012244094;0.19017968;0.10308808;-0.34200034;0.36875042;0.16835363;-0.1736435;0.10976656;0.17430677;-0.16809751;-0.06323121;-0.13075414;0.21983689;0.29580423;-0.1329733;0.123054974;-0.2779814;0.09260106;0.016167289;-0.27539745;-0.27057406;-0.27715686;-0.045753367;-0.09349068;-0.0058384486;-0.42527688;-0.360265;-0.11267257;-0.029514885;-0.4126418;-0.24392454;0.52473503;-0.44292182;0.06950015;0.049236625;-0.010243223;0.00593015;-0.03630863;0.18135276;0.08884566;-0.23859155;-0.18789886;-0.45493788;-0.19467582;-0.15454043;-0.0454929;0.036770225;-0.33830845;-0.03229322;-0.38158947;-0.51949316;-0.10384078;0.15035468;-0.312125;-0.23842067;0.28157654;-0.106246166;-0.36396426;0.21220039;0.03892617;-0.20002037;0.51691306;0.16046594;-0.0029455968;0.17571439;-0.15091224;0.35029078;-0.26987362;0.13443781;0.3959768;0.021472875;-0.0468595;-0.027335338;-0.09217171;-0.06787618;0.014719251;-0.60172755;-0.54656065;0.0967214;-0.5165973;-1.0193764;-0.23084883;-0.16086026;-0.60272944;-0.36561355;-0.1838586;-0.42042935;0.002337671;-0.4993521;-0.7959428;-0.15841901;-0.04607298;-0.8484505;-0.39809364;0.45312303;-0.27324536;-0.6681172;0.06676161;0.032891117;-0.04424135;0.3247014;0.12620427;0.42262906;0.34285733;-0.062188994;-0.09701755;-0.1330762;-0.2804519;-0.2505902;0.11216304;-0.24489534;-0.50719446;0.21475972;-0.0028478657;-0.236274;-0.27184469;0.078151666;-0.049341377;0.07571775;-0.11975399;-0.09897406;0.4788283;0.33381608;0.045060147;0.40108848;0.045541897;-0.5605112;0.108145125;-0.14272603;-0.8153129;0.10568567;0.26080716;-0.5068222;0.43359557;-0.3961009;-0.7915721;0.42405283;-0.48116058;-0.980904;0.6226643;-0.21676737;-1.0504767;-0.14631684;-0.12052707;0.15072007;-0.39062423;0.039081827;0.06524168;-0.53920156;-0.081446394;0.025828263;0.74242574;-0.08416854;-0.06079946;0.4381918;-0.09183092;-0.28473282;0.36268216;-0.09446497;-0.45118693;0.37852803;0.0366022;-0.28579116;0.41015652;0.09802799;-0.22522359;0.6757167;0.19007084;-0.33427337;0.22930795;0.07825774;0.014395231;0.22907029;-0.31315836;-0.10937581;0.28820696;-0.34323308;-0.2300283;0.087397434;-0.31989312;-0.27948773;0.15467751;-0.15755549;-0.40337592;0.17452197;0.111770526;-0.60965854;-0.13132595;0.0036190888;-0.11601617;-0.15883584;-0.055529226;-0.22606589;0.14763314;-0.12524828;-0.09287702;-0.18309374;-0.30713254;-0.20694858;0.10777554;-0.38330525;-0.22576691;0.32417333;-0.03078867;-0.24312736;0.26723978;-0.015136091;0.23379432;0.3440315;0.04365662;-0.72103953;0.30473956;0.15746853;-0.33639467;0.11767398;-0.18965049;-0.012224116;0.065137446;0.122971974;0.08366453;0.5016917;0.27352425;0.3770454;-0.057134476;0.12732954;-0.1264444;-0.10446947;-0.14383611;0.075749926;0.32979003;-0.09153057;-0.14299287;0.06762253;-0.049282312;-0.037396;0.53068894;0.113815084;-0.13470595;0.23735371;0.22854893;0.08988957;0.13790117;-0.28642195;-0.37086275;0.09855481;-0.43449196;-0.4375861;0.29715058;-0.2561881;-0.58022773;0.086247;-0.21513258;0.14056703;-0.044972092;-0.054069422;0.19684641;-0.17452794;-0.035165783;0.4156723;-0.15685245;0.05019761;0.080169834;0.08150287;-0.08059414;-0.043165818;0.14785637;-0.017128896;-0.03498613;0.31241888;0.17036107;0.19715825;0.4322639;0.108978525;0.19092779;0.22522172;0.13730928;0.37604222;0.13729802;0.13923809;0.40447053;0.130249;0.24802281;0.3024962;-0.016574336;0.10753484;0.22732194;-0.16969481;-0.2205559;-0.124456786;-0.049284425;-0.07117289;0.10585283;0.38859487;0.02625249;0.015079915;-0.05906931;0.17156969;0.17638367;-0.010307205;-0.26521307;-0.2650814;0.33713114;0.10520226;-0.24852484;-0.389983;-0.37267938;-0.054034617;-0.3809894;-0.17560704;-0.09715619;-0.13867083;-0.121782474;-0.13597034;-0.16335528;0.34976822;0.29840174;-0.07080293;0.25336924;0.53830826;-0.0778505;0.014609462;0.18203086;0.023574159;-0.0024199602;0.07194965;-0.16759612;-0.09112763;0.002652454;-0.25261095;-0.31424034;-0.42569292;0.3556644;-0.1746784;-0.2620205;0.041968696;0.09504722;0.05102242;-0.2181999;0.17913914;0.10453755;-0.14265113;-0.17652687;-0.44103795;-0.09641248;-0.26037818;-0.36885527;-0.21055529;-0.16733804;-0.15207723;-0.31016904;0.2135342;0.21339117;-0.49572918;0.19441155;0.21120188;-0.5245921;0.05912527;0.5053831;0.16904272;0.06799756;0.17032504;0.018878363;-0.09829578;0.3345305;0.0041424143;0.032990396;0.5255806;-0.5934231;-0.7154315;-0.69118917;-0.4600121;-0.72436327;-0.29520842;-0.20940506;-0.7176811;-0.3222439;0.124131225;-0.008734748;-0.3010005;-0.28090495;0.06420225;-0.30080715;-0.05399856;-0.23650211;-0.06402235;0.40520546;0.16677313;0.384215;0.041258328;0.027067887;0.012124183;-0.19051804;0.23822163;0.27189204;-0.4032544;0.01633932;0.23239005;-0.44803566;-0.052297574;0.23218304;-0.41778412;0.030785736;0.27614745;-0.06316538;0.21703741;0.1878136;0.042603817;-0.032385055;0.052885257;0.4994429;-0.2307287;-0.24797806;0.02051806;-0.35506463;0.022525331;0.43962997;-0.9609875;0.2846578;0.59515536;-0.029496899;-0.1853342;-0.054787166;-0.06796285;0.34102824;0.11111364;0.074866496;0.35414225;-0.12566666;0.07731641;0.21300983;0.42442015;0.10035439;-0.12598297;0.092068955;0.14996922;0.024166502;-0.5527981;0.11505416;0.19298889;0.08807016;-0.009017306;-0.43776464;0.18369535;-0.044978872;-0.44160515;0.007428348;-0.12907614;-0.32211274;-0.2612311;0.22541219;0.27512178;-0.60475785;-0.08442928;0.05326276;-0.47119215;-0.018883735;0.092203535;-0.15261155;-0.37213853;-0.22752142;-0.18565464;-0.27331382;-0.016729804;0.09185562;-0.3338791;-0.28832546;0.161587;0.051842466;0.23167613;0.090344675;0.1326686;0.20842473;-0.14157328;0.40092984;0.40136218;-0.13063021;0.0014536858;-0.016826285;-0.056253504;-0.19094038;-0.10279949;-0.15858938;-0.14468098;-0.12906384;-0.047005627;-0.27832264;-0.8201981;0.14938691;-0.043518417;-0.5569215;0.14779432;-0.022397343;-0.24035221
5;9.71279e-05;-0.20751873;0.12128574;0.19468796;0.28654447;0.35160708;0.4067042;0.18895648;0.2633378;0.08372883;0.3583347;0.3978853;0.23870921;0.04587776;0.05334105;0.31304392;-0.24982014;-0.11348665;0.06559003;-0.034128856;-0.068818875;-0.5477277;0.05368416;0.08688846;-0.36478335;0.004350996;-0.048005454;-0.0181604;-0.17566796;-0.2981531;-0.35586742;-0.41767848;-0.30626285;-0.05017623;-0.039521378;0.3268574;0.048765667;0.048427716;0.15259701;-0.047247857;0.095307775;0.17970975;0.18033384;-0.3170289;-0.2019589;-0.4279009;-0.05390546;0.4029496;0.31113178;-0.043217562;-0.14060247;0.123831384;0.3376447;0.074721545;0.43437785;0.2056407;0.010792051;-0.04752016;-0.29968944;-0.19586723;-0.254373;-0.5814839;-0.19866233;-0.49128452;-0.20705728;0.04242523;0.15965074;-0.35649613;0.16731563;0.2250047;-0.3488739;0.1493981;0.015182506;-0.18186799;-0.5472886;-0.4003551;-0.29309115;-0.7163224;-0.8125637;-0.3941813;-0.5435743;-0.8853635;-0.5326337;-0.4273305;-0.29959655;-0.42635527;-0.091282755;-0.5931784;-0.033839926;-0.35823312;-0.68954986;0.25069422;-0.03495935;-0.15084226;0.069041125;0.060032096;-0.09425462;0.35319343;0.5742655;0.062787615;-0.28655332;0.14474787;-0.53924805;-0.08242132;0.41986668;-0.25789404;-0.16296051;0.076005;-0.24339752;0.22397874;0.1925744;-0.11528894;0.20406678;-0.080788754;-0.3788184;-0.15771176;-0.15557931;-0.19959791;-0.20819151;0.13398102;0.07206922;0.09766954;0.05878944;0.08739687;0.40683314;0.39231786;-0.07463004;0.15651451;-0.12455226;0.13191754;0.06672198;-0.46654034;0.006639747;-0.04073002;-0.1267673;-0.13549833;-0.19506034;0.13388811;0.25083315;-0.13172947;0.38809195;0.32232225;0.11315324;0.36787352;0.43385014;0.3199486;0.22280648;0.30371284;0.12441271;-0.05166326;0.20770559;0.34882367;0.49414554;0.33015472;0.12926471;0.33643547;0.19008435;0.17784332;-0.021134958;0.17852548;0.49740323;0.1611586;0.16298902;0.42852905;0.18950643;0.16322261;0.14784683;0.1219779;0.12516533;0.24789245;0.30013314;0.036227804;0.27991584;-0.0041344287;-0.25409672;0.15791088;-0.024337646;-0.19119096;-0.13142838;0.11960114;-0.030565012;-0.32658425;-0.1307362;0.32027775;-0.005640581;0.2302975;0.14646575;0.26582208;0.18227431;0.106685236;0.13512254;-0.24334145;0.042456463;0.071650006;-0.16102831;-0.33550718;-0.029437812;-0.17646399;-0.017376613;-0.18136142;0.45833963;-0.40983152;0.025928715;0.18897551;-0.3913117;0.33210826;0.25503242;0.23128657;-0.08333492;-0.22805679;0.16971517;-0.14435591;0.25635436;0.052511383;0.083832525;0.442811;0.03697155;0.26547554;-0.04024403;-0.31153104;0.18813542;0.115845725;0.035285063;0.101219766;0.1618812;0.10851112;-0.3698094;-0.12214519;-0.006013488;-0.35729414;-0.56449485;-0.24594653;-0.023028465;-0.10882212;0.09593212;-0.04414176;-0.34060532;-0.31889617;-0.23281395;-0.1329425;-0.0504791;-0.38344294;-0.22786859;-0.6070104;-0.13848169;0.2328176;0.2692049;0.03097761;0.34166887;0.20973358;0.3485594;0.030546397;0.053635217;-0.34797263;-0.33246598;-0.23061946;-0.26064426;-0.5825702;-0.7008212;-0.5070105;-0.02058381;-0.48690757;-0.0977635;-0.02758251;0.10861117;0.1253883;-0.0921133;-0.22911343;0.42266417;0.06386841;-0.19104302;-0.9108069;-0.7426887;-0.4264556;-0.747858;-0.4445752;-0.15567641;0.051083643;0.11534348;-0.08719223;0.044840768;-0.14082275;-0.19342683;-0.21653137;-0.12882711;-0.24695463;0.06925506;-0.16840278;-0.3017581;0.058233455;0.22723053;0.043983944;-0.16421345;0.34450445;-0.18713415;-0.13307469;0.24787338;-0.5575971;0.024611749;0.060590595;0.1561518;-0.54176337;-0.6233219;-0.3844961;-0.17340404;0.098658375;0.05691281;-0.12504098;-0.08429958;0.24882299;0.10852206;0.22794104;0.038029447;0.3171038;0.37128285;-0.045249164;-0.09520405;-0.6926529;-0.15478761;-0.1557483;-0.37600678;-0.33180383;0.0450507;-0.29169253;-0.29375058;-0.2799969;-0.21634553;-0.01837727;-0.21527833;-0.17433123;0.18047483;-0.10259033;-0.07605462;-0.2546235;0.1448526;0.11558635;-0.0023756393;0.29256877;0.34648108;0.17974511;0.33506057;0.33277112;0.40810865;0.3860472;0.37486613;0.30218187;0.3346286;0.46314168;0.39891762;-0.06024764;0.5413604;0.32266697;-0.34011808;-0.24290802;-0.31127447;0.085381605;0.25776145;0.1265065;-0.19888115;0.16393001;-0.018859845;0.4574893;0.5899749;0.4299994;0.24736108;0.4745112;0.14494932;-0.13773309;0.57467794;0.24229679;-0.045151245;-0.021625498;-0.020065244;0.034022864;0.4587446;0.020500224;0.2730401;0.5100865;0.15434141;0.5001958;0.33093894;0.0767158;0.64389676;-0.025984408;0.20306379;0.56230617;0.27736878;0.23151152;-0.11412988;-0.12742321;-0.20123433;-0.09893478;-0.2181488;-0.32516786;-0.1352254;0.040103566;-0.2788554;0.07864651;-0.013238655;-0.091680266;-0.16573402;0.268974;0.060955975;0.19797583;0.33637264;0.08014177;0.13139157;0.30737752;0.41111687;0.41248748;0.104469344;0.35823447;0.4650756;0.30514905;0.36680576;-0.23855683;-0.031878546;-0.015249048;-0.05848466;-0.08382631;0.03680935;-0.04537088;-0.16071874;-0.25110427;-0.19327731;0.5170879;0.7565671;-0.1556337;0.022935236;0.20865948;0.12612171;0.29324874;0.58463925;0.25167733;-0.009737777;0.07953274;-0.19982354;-0.3587983;-0.59036285;-0.08008922;-0.3607134;-0.12419624;-0.16504371;0.34172398;0.5699704;0.21867296;0.36935544;0.11293708;0.15186436;0.43827432;0.14603688;-0.23569547;-0.23096891;0.12176082;0.08906997;0.2594222;0.40952262;0.17158957;0.10495584;0.29666832;0.41686386;0.453648;0.39394188;0.3084386;0.24558969;0.041964255;0.27311823;0.20981488;-0.0724153;0.3552424;0.31035388;0.30520976;-0.35504556;-0.044484355;0.064506225;-0.57919675;-0.26219165;-0.26447716;0.1375778;0.27473795;0.4258928;0.25132293;-0.091936536;-0.17003426;-0.11318719;-0.07379153;-0.25152352;-0.6461279;-0.017307127;0.095287144;-0.3607123;-0.33185124;0.13021523;0.30260712;0.2838476;0.11974107;-0.0008467361;-0.020686874;0.18467979;-0.266212;-0.21812306;-0.25606894;-0.36478612;0.079152174;-0.2111067;0.32634634;0.22760165;-0.09037683;0.37197253;0.22842188;-0.02617469;0.18680519;-0.013585219;-0.035575423;-0.5923419;-0.08140463;-0.055248268;-0.32202783;-0.068943955;0.08350585;0.12860294;0.34006324;-0.07312895;-0.47687277;0.11932359;-0.082518525;-0.14733924;-0.06567062;0.09045659;-0.19823822;-0.15561928;-0.32164705;0.17727692;0.50761056;0.45825502;0.34099606;0.39817202;0.3284738;0.017365847;0.25459862;0.3429152;0.1498466;0.24418724;0.21032201;0.36716062;0.28223076;0.09719107;0.28804842;0.046427645;0.07965228;-0.2847662;-0.3395491;-0.42512864;-0.31477073;-0.25184456;-0.33363792;0.17552976;-0.22542989;-0.09489928;0.060483813;-0.16693424;0.18819603;0.02091537;-0.30757877;-0.02114349;-0.35753796;-0.11167063;0.15693934;-0.11213927;0.053861484;-0.064039834;-0.07762734;-0.046389855;-0.15117961;0.21863526;0.53237396;0.39317623
6;0.0010462976;0.0021073185;-0.13232684;0.2925685;0.2680897;0.1747663;0.18666534;0.08623854;0.25829875;0.25004572;0.0035497348;0.24479102;-0.0005274983;-0.15630516;-0.31108844;-0.59728986;0.4318206;0.0065147984;-0.35113296;0.065768406;0.60676205;0.44097212;-0.2992535;-0.14164512;0.08293507;-0.5705532;-0.28257588;-0.16686176;0.020716853;-0.22941293;-0.28232846;0.22120616;-0.054214988;0.19068141;-0.30723354;-0.21037407;-0.048855048;-0.10745519;0.07549619;0.014999343;-0.13728873;-0.17024596;0.102878936;0.19091588;0.174877;0.11491961;-0.2185731;-0.45145503;-0.35670748;0.1932223;0.18852429;0.051066566;0.06534115;0.12710513;0.31233922;-0.7468846;-0.5612313;-0.45350164;0.24412462;0.10735933;0.21099123;0.2311637;0.26056972;0.07758521;-0.008346261;-0.080454126;-0.17670743;0.05453462;0.011594234;0.076331586;-0.05994553;0.15024793;0.25910637;-0.74439144;-0.5209169;-0.6024095;-0.86492103;-0.3295881;-0.4505845;-0.032555226;-0.14819936;-0.04160964;-0.23646553;0.19430779;0.18868724;0.2727512;0.5098493;0.34530178;-0.30120355;0.03579727;-0.09812329;0.15272182;-0.22995746;-0.47057936;0.16599023;-0.08511487;-0.2536724;-0.33052507;-0.1796226;-0.08252594;-0.04420403;0.00919079;-0.02025355;0.15099895;0.18094103;0.015689155;-0.080792;-0.015161636;-0.080878206;-0.0029251983;0.23127149;0.19611825;0.4089453;0.38818792;0.20821023;0.042072996;-0.06616111;0.15178737;0.1068481;-0.43731388;-0.0099574225;-0.024587642;0.054377027;0.008288947;0.15815689;0.059562013;0.084476255;0.13411053;0.13329798;-0.3134771;-0.2830024;-0.4561589;-0.42100897;0.17275064;-0.048534583;-0.36146384;-0.47564417;-0.25790277;0.12903757;0.26904246;0.06184993;0.2364192;0.28530583;-0.00441352;-0.079660475;-0.07529074;-0.047113508;0.24226144;0.23704036;0.22925802;0.3756752;0.10215499;0.17150107;0.2814091;-0.38970912;-0.35132936;-0.009508182;0.13286495;0.25950986;0.094593935;0.012980314;0.21955304;0.19474107;-0.43125877;0.045803145;-0.10810875;0.11742015;0.38056564;0.1453328;0.46532455;0.32540217;0.034287836;0.3307144;0.3255004;-0.31594032;0.07922471;-0.13882917;-0.36128354;0.0403017;-0.15641141;-0.36761174;-0.7099879;-0.3228736;0.43697235;0.04187837;-0.36810473;0.08207978;0.2641208;0.0133994715;-0.030912612;-0.13273102;-0.15207887;0.10037929;0.07992077;-0.1647093;-0.047795784;-0.08123812;-0.1611009;-0.27033666;0.16651955;0.14597204;0.13257943;0.085506365;0.18127754;0.20689224;0.095201716;-0.2408833;0.19422972;0.10894268;0.2847078;0.43393737;0.37236902;0.15136386;0.24289912;-0.1949924;-0.016605005;0.13527885;-0.23770031;-0.032994054;-0.2517404;-0.6320178;-0.42238444;-0.35132167;-0.8784502;-0.39098185;-0.51131964;-0.091466635;-0.5105675;-0.9306374;0.23155884;-0.10441855;-0.47128868;0.6800196;0.25408444;0.3226085;-0.31048065;-0.035450753;0.10083745;-0.060044564;0.2958563;0.097748406;0.24932198;0.5003392;0.33263174;-0.3053879;-0.14888121;0.027546277;0.1414681;0.097064115;0.07323402;-0.28256148;-0.0044097807;-0.044476375;0.18443376;-0.08700663;-0.36397153;-0.09527683;0.22899728;0.093479395;-0.15060937;0.056452274;0.03734964;0.16963463;0.38581127;-0.1319492;0.37996563;0.22192979;0.49726897;0.17552675;0.071768;0.42473295;-0.018999334;-0.26317868;0.032893777;-0.1323256;0.2660577;0.29567358;-0.1306009;-0.18115649;0.10472975;-0.118080005;-0.06265138;0.06432336;0.013716186;0.12771547;0.28520942;-0.42758927;-0.0007317674;0.23923512;0.18651386;0.18670848;-0.15507492;-0.036330298;-0.19205311;-0.1278799;0.18916455;0.16809872;0.13337192;-0.45651916;-0.3323448;0.0464472;0.4966686;0.37042308;0.11331267;0.4569375;0.41835612;0.44239414;-0.42936066;-0.28398746;-0.06501921;-0.54469925;-0.38336408;-0.053632606;-0.44400615;-1.270586;-0.28737858;0.32634807;-0.059191633;0.20881793;-0.07451718;-0.0752056;0.21257472;-0.30283955;-0.14412038;0.14291279;-0.39034748;0.124422416;-0.18864074;-0.42999107;0.22396052;0.035735603;0.18238753;0.24523747;0.1894516;-0.53140837;-0.6407251;-0.9451759;-0.34361735;-0.2186533;-0.07582478;0.062465787;-0.27171287;-0.5907808;-0.19703227;-0.069376;0.108945094;-0.19717483;0.091843665;0.015895667;-0.25796616;0.19392085;-0.17338532;-0.44991055;-0.38059673;-0.19805042;-0.5595925;-0.64471227;-0.3485615;-0.1150697;0.041138656;0.08191895;-0.20870863;-0.07467657;0.0064295065;0.1687792;0.14621906;0.35462478;-0.2475474;0.109726265;0.13973902;-0.5848614;-0.7592906;-0.005071787;-0.10645082;0.023682803;-0.034854893;-0.80770093;-0.34036788;-0.24896784;0.109117344;0.15006284;-0.35691124;-0.102060705;0.056560364;-0.29594645;0.19192043;0.2898313;0.19991228;0.21814057;0.17807563;0.27132186;0.125187;-0.004347504;0.0015175381;-0.09440851;-0.28338474;-0.30273324;-0.5411523;-0.39774388;-0.29383713;-1.2313799;-0.79192877;-0.8153217;-0.1988101;-0.4314554;-0.255862;0.024436403;0.2912244;0.20786458;-0.34698808;-0.11113364;-0.03537367;-0.21941148;-0.27022895;-0.062235534;-0.25682107;-0.065426216;-0.11715721;0.043882653;0.0464167;0.09504363;0.13300619;-0.07215102;-0.003602608;0.36215;0.22947428;0.39167804;0.03823398;0.17069621;0.095419176;-0.4645542;-0.23259161;-0.2682996;0.05590083;-0.20362607;-0.5737506;0.22567709;0.05407738;-0.52870953;0.050165348;0.26884934;0.097366616;0.0625053;0.07181873;0.05098781;-0.08686182;-0.13653111;-0.22447182;0.08520295;-0.023762887;-0.19299021;0.15457083;0.04490881;-0.23291922;0.29079437;0.24885443;0.06613757;0.16747813;0.19851744;0.39411053;0.037062805;0.27488828;0.38393176;0.11759385;0.17723046;0.34454614;-0.07185282;0.29579607;0.24952495;-0.6576495;-0.50915885;-0.24847378;0.21837986;-0.02652353;-0.058983535;0.09225532;0.28306225;0.081052594;-0.6814082;-0.49033317;-0.615965;-0.18533768;-0.0031818321;-0.11953784;0.09325887;0.07688867;0.062305093;-0.082693934;-0.23873928;-0.16772899;0.2347256;0.3192327;-0.24912941;0.43972462;0.29713187;0.31597936;-0.32991406;-0.5228266;0.057216045;0.31480455;-0.35308433;0.035063624;0.15491869;-0.2587233;0.020986749;-0.3950469;-0.16421723;-0.08485587;-0.36015943;0.0811751;-0.08773674;-0.4622503;0.24691947;0.18901326;-0.3949491;-0.109303445;0.25264528;0.04905871;0.032375436;0.51760995;0.07237693;0.1768117;0.06130541;-0.21604921;0.15583257;0.52957726;-0.5184746;-0.5003133;0.0641319;-0.006301869;0.0007003714;0.21589991;0.53244483;0.17128067;0.2417632;0.38259867;0.16419153;0.31671223;0.07494119;0.13984995;0.0043396507;-0.22747369;0.1924044;-0.37781844;-0.16274613;0.17888802;-0.19744577;-0.09667784;-0.1563831;-0.20683496;-0.30968165;-0.29080158;-0.47252765;0.051651195;-0.1670335;-0.37925348;-0.12041741;0.064915754;0.045463786;-0.78177685;-0.94134647;-0.4443348;-0.23459736;-0.54996604;-0.49190372;-0.14638644;-0.13228108;-0.22642589;-0.22595063;-0.18926938;-0.06906198;-0.3090649;-0.27518636;0.11021114;-0.08961658;-0.3174639;-0.36635596
7;-0.00050896796;-0.021836907;-0.029114865;0.039698;0.4090648;0.022581954;0.29332852;0.2401216;-0.079818934;-0.35689345;0.093926296;0.40555522;0.20829111;0.1664649;0.30511588;0.21121314;-0.005576206;0.14860508;0.267735;-0.2173238;-0.13435254;-0.15181266;-0.2072266;0.018908598;-0.117070906;-0.050266378;-0.016331643;-0.0782353;-0.041680273;0.04585686;0.06751161;0.0021795104;0.112771355;-0.019313013;-0.13400337;0.18710935;0.058652677;0.45218876;0.3913667;0.51576924;0.12127385;0.15590465;0.29036316;-0.0009553148;-0.39722264;-0.10131229;-0.18604174;0.15291119;-0.15478705;-0.21247774;0.20094019;0.14784919;0.15004104;0.2732757;0.20057021;0.4999429;0.46552426;0.20322639;0.044663053;0.12137742;-0.05633599;-0.7544664;-0.6966039;-0.34706482;-0.5677667;-0.45697352;-0.50006205;-0.08178843;-0.1747187;-0.30285174;0.39921987;0.21986009;0.029485278;-0.33526716;-0.037128028;0.0650825;-0.12446292;-0.2999845;-0.20131682;-0.018661324;0.05061182;0.07571605;0.32379892;0.07773803;0.1002852;0.6358093;0.3068762;0.7394356;0.20509589;-0.19112857;0.18654802;0.06376496;0.042648263;0.084030025;0.17415698;-0.021956919;-0.10597683;0.51773196;-0.010679075;-0.5519485;0.24981605;-0.011840776;0.2860333;-0.33881485;-0.5527507;-0.3539436;-0.6388132;-0.8713286;-0.8267657;-0.11873425;0.3771355;0.1471575;-0.26373532;-0.060047302;-0.1660897;-0.59939086;-0.50849307;-0.60857975;-0.2054733;-0.36262244;-0.26889834;-0.21895689;-0.056525435;-0.41860202;-0.40337175;0.18656692;-0.034220114;-0.33931702;-0.58805346;-0.27035582;-0.30798894;-0.8176741;-0.5445258;-0.08115883;-0.52239;-0.2709738;0.07503885;-0.045874357;-0.040353965;0.17378332;0.049404845;0.058916666;-0.020097096;-0.19714083;-0.24290022;0.096720204;0.088215046;-0.08890527;-0.41923314;-0.29048005;-0.49025488;-0.28811777;-0.20732826;-0.43265247;0.034342214;0.28712314;-0.12773767;-0.006557626;-0.04021926;-0.38562095;-0.73946977;-0.24483503;-0.4110735;-0.16375653;0.13678853;0.22305824;0.00622516;0.26944616;0.22740838;-0.07616866;-0.36883372;0.04493651;-0.03805277;-0.06264974;-0.3630516;0.076951094;-0.04072341;-0.028214172;0.40687332;0.18903735;-0.04993558;-0.3431958;-0.3537168;-0.29534012;-0.0027015624;-0.1699286;0.03655842;-0.25983047;0.02944006;-0.11014112;0.13943672;0.026406897;-0.011870663;0.29588085;0.29350135;-0.079682454;-0.0054374957;-0.5349091;-0.2504337;-0.23593791;-0.5141224;-0.14192382;-0.65073985;-0.75654525;-1.0001494;-0.8810381;-0.9361514;-1.0280641;-0.24924578;0.047990184;-0.33194593;-0.41769755;-0.06624492;-0.41680288;-0.3412504;-0.0021196771;-0.0014173613;-0.0014733168;-0.1039135;0.24384022;0.070010774;-0.21132721;0.10740022;0.21015774;-0.27516547;-0.16279857;-0.58691454;-0.098668136;-0.071460195;0.075018115;0.1826528;-0.2616751;0.5440949;0.5984003;0.32197186;-0.4403762;-0.1852343;-0.24653593;-0.12610076;0.22191165;0.17365009;-0.27351722;-0.16336282;-0.46008334;0.250089;0.3882792;0.35641906;0.46359387;0.22975695;0.41625884;0.30952385;0.16176179;0.22876546;0.0713817;-0.21839716;0.03768853;-0.1632678;-0.3648402;-0.23163408;-0.24959289;-0.4189581;-0.26406437;0.031042574;-0.41197166;-0.3397095;-0.42572904;-0.43291652;-0.5060933;-0.7627145;-0.60858905;-0.1840929;-0.51469433;-0.34233;-0.38838574;0.41503894;0.16485447;0.25624448;0.32005247;-0.16796038;-0.12126712;-0.046396073;-0.1682852;0.112548396;-0.07935408;0.013607475;0.09063985;-0.28086773;-0.017829988;-0.5353568;0.12156044;0.5195411;0.39092863;-0.009809338;0.32655665;0.14836325;-0.23809776;-0.11451657;-0.10696648;-0.24513668;-0.053014364;-0.24032405;-0.023199817;0.07263341;-0.13971712;-0.3794571;-0.37162986;-0.43480846;0.41030607;-0.13591608;0.11604005;0.2430599;-0.21609381;0.33934647;-0.021786332;-0.671462;0.075310126;-0.25837937;-0.011499378;-0.004937774;-0.43451285;-0.12623544;0.16214263;-0.23748352;-0.3289208;0.22110578;0.2567228;0.102342926;0.013404065;0.4463538;0.18766622;0.41240865;0.1828719;0.30161333;0.35802987;0.41165817;0.32634038;0.43071616;-0.26456094;0.010888351;-0.089280345;-0.4976765;-0.27675667;-0.16908067;-0.16142501;0.01533622;-0.09780751;-0.24341169;0.07009613;-0.12569605;-0.41124812;-0.32927296;-0.19904573;0.104117;0.12617256;-0.14272138;0.25174293;0.1563377;0.018061645;0.16353828;-0.08642777;0.1938486;-0.117542356;-0.27197218;-0.24496438;-0.18238284;-0.29523125;-0.1420023;-0.0579634;-0.2562655;0.004925364;-0.18755454;-0.4893336;-0.22750528;0.079234034;0.007831016;-0.2198681;0.12899412;0.27638948;0.17669149;0.12885712;-0.15079486;-0.38045225;0.033454545;-0.0693353;-0.39927974;-0.05241626;-0.043498542;-0.22948778;0.17218372;0.17989187;-0.026147816;0.36318755;-0.2295163;-0.043516397;0.011213517;-0.5343246;0.047707323;-0.11337311;0.28820047;0.3508251;-0.21487634;0.18741493;0.13814448;-0.18918757;-0.13695529;-0.06520226;-0.26010203;0.06395083;-0.3001045;0.14957829;0.3097209;0.10108369;0.09941485;0.32574007;-0.012875869;-0.13701747;-0.12796621;0.16905667;-0.24300289;-0.20386462;0.0344186;-0.12644728;-1.0538837;-0.160001;0.27409193;0.24791285;0.26523128;0.14820886;0.033742778;0.18699746;0.28284565;0.24293773;0.512371;-0.39093703;0.12125539;-0.33643782;-0.9013934;-0.40485412;-0.7376226;-0.56432855;-0.32386535;-0.5012178;0.027322868;0.0033034089;-0.08121559;-0.13719016;0.18430586;0.05776567;-0.10920366;-0.14024481;0.037587143;0.09606434;-0.003988633;-0.28365022;0.3049987;-0.1959526;0.01210635;-0.1688535;-0.5356958;-0.015544603;0.14987051;0.21565837;0.13760267;0.08534067;0.08531744;-0.1330547;0.14502099;0.06209347;-0.6586283;-0.101379536;-0.17724206;-0.16036959;-0.17428884;0.014305542;-0.19751178;-0.405718;0.031948958;-0.10199392;-0.1181363;-0.002187113;-0.14861095;0.12600946;0.2993467;0.010686406;-0.16376673;0.16733503;-0.030395841;-0.12691471;-0.2791582;-0.41645324;-0.068948776;0.011700526;-0.16901223;-0.01704146;0.19488299;0.02414329;-0.048759367;-0.10453559;-0.43696898;-0.25025266;0.034413055;-0.4352438;-0.74258673;0.22151549;-0.4313669;-0.16916099;-0.14019999;-0.5321731;0.2186941;0.18260929;0.20927861;0.1937995;0.29653963;0.2806457;-0.046049368;-0.2025514;-0.08114233;0.17617497;-0.21505316;0.34509185;-0.13836555;-0.23649694;-0.06389611;-0.11551711;0.08013774;0.14273137;0.029584322;-0.02533472;-0.08469094;-0.039508715;-0.1786187;-0.18851098;-0.15622261;-0.2149275;-0.078850046;-0.121177875;0.05484031;0.085363775;-0.017139189;-0.04999983;0.10132098;0.12891817;0.03195787;0.2592109;0.14763471;-0.16017231;0.45229256;-0.085643984;-0.034233656;0.29683405;-0.0020566222;0.25214198;0.32014704;-0.23554948;0.11434859;-0.2402114;0.23547435;0.20643468;0.37027025;-0.1013453;-0.13035862;-0.1435169;-0.3935819;-0.116372705;-0.36811808;-0.115211286;0.05672031;-0.06752764;0.23749822;-0.007771149;0.21837744;-0.14991306;-0.3223391;-0.06162672;-0.60721946;-0.58006537;-0.5523606
8;0.00080399396;0.1410492;-0.045214646;-0.19910471;0.19425885;-0.08664054;-0.19300772;0.36909252;-0.21173988;-0.25891405;0.060575552;-0.13908198;-0.02534672;-0.11744998;-0.06045258;-0.16521366;0.46507028;0.0143024875;-0.27463543;0.10024704;0.114289895;0.042649437;0.03063385;0.24120182;0.034946468;-0.09809594;-0.10646909;-0.10411498;0.7671159;-0.55220556;-0.5323395;0.38355362;-0.46002364;-0.42122254;0.36044085;-0.024612673;-0.012575397;-0.32291695;-0.31590527;-0.1886125;-0.020457579;-0.1977417;0.06302758;-0.24640621;-0.740916;-0.4047278;-0.29390556;-0.21104416;0.024531035;-0.1478748;-0.1808819;0.16489871;-0.17539977;-0.20381154;-0.15310334;0.3202906;-0.08645182;-0.4017879;0.26209027;0.16403991;-0.13779314;0.38380536;0.2948625;-0.054072298;0.033096086;0.12653829;0.13999951;-0.11074827;-0.028408159;-0.038123004;-0.06274892;0.089566775;0.27098036;0.019543564;0.35143018;0.19013311;0.065191075;0.30405575;0.1964088;-0.4204748;-0.096145056;-0.10465617;0.12208857;-0.26178673;0.010964333;0.55763334;-0.12290303;-0.162813;0.47434953;-0.0366046;-0.19102262;0.17209138;0.43240848;0.15083566;0.34132823;0.5433685;0.2328838;0.14678258;0.19535457;-0.2352774;-0.43150917;-0.14579186;-0.06745911;-0.5305285;-0.01644148;0.093757086;-0.39418584;0.11582716;-0.09382494;-0.37657076;-0.49479425;-0.451524;-0.059275065;-0.07845574;-0.123385824;0.013172534;-0.011957055;-0.13781919;0.010001421;-0.2820899;-0.240497;0.16906422;0.15314911;0.059999682;0.28186673;0.3464521;0.18423814;-0.21844839;0.098311506;-0.20025417;0.21521133;0.14426728;-0.0900883;0.12963061;0.18296261;-0.008668716;-0.46916038;-0.6937822;-0.54987085;-0.060907856;0.13152337;0.058245458;0.12878315;0.32211396;0.23708443;0.12242057;0.5440391;0.13728021;-0.011413475;0.2323209;0.21173663;-0.29430717;0.046832383;-0.12139873;-0.9819011;-0.52532303;-0.6078996;-0.14737266;-0.18179843;-0.11040413;0.11441306;-0.32541198;-0.09597501;-0.14889933;-0.008733307;-0.011145743;0.16830541;0.11018811;0.012235562;-0.049168315;0.15980488;-0.075473845;-0.19944046;-0.38943192;-0.394448;0.1959411;-0.20912474;-0.23182566;-0.033232126;-0.16431575;-0.09393335;0.12214927;-0.3781489;-0.0554783;0.33052093;-0.20906715;-0.1946378;-0.13523366;-0.16942519;-0.52726036;-0.0041617863;-0.104879536;-0.6399033;0.3247545;-0.056255314;-0.21858491;0.64460826;0.016219856;-0.1177975;0.10353419;-0.27659237;-0.26505122;0.120632626;-0.03484278;-0.023668775;-0.111330844;0.2167109;-0.07449228;0.021359947;0.35319847;0.05975733;0.03710628;0.22162533;0.5044148;-0.15974897;0.22461426;0.15450613;0.26960707;0.054720655;0.14666249;0.24832667;0.23164256;0.3388487;0.2781505;0.10107347;0.39474827;-0.24101737;-0.36162326;-0.1442283;-0.17125772;-0.28790438;0.0058712247;-0.16482887;-0.05996818;-0.021747407;0.19648592;0.18450974;0.06660052;0.1742097;0.20479973;0.22072092;0.018317817;0.22163844;0.28608194;0.38527653;0.0335354;0.14835985;0.44905734;0.1361036;0.103323065;0.09258575;-0.0022832623;-0.11500513;-0.22059117;-0.09135221;-0.18907723;0.12940665;-0.14450593;-0.0051390836;0.89349794;0.014104911;0.028387073;-0.42337704;-0.22945017;0.1588208;-0.40237844;0.18586706;0.2597334;-0.45597067;-0.038375426;0.30057874;-0.62310946;-0.9903185;-0.69714606;-0.86137074;-0.7945835;-0.37840906;-0.46549642;0.04856954;0.18713513;-0.2968743;0.10329871;-0.18405011;-0.38838938;-0.19929698;0.021454768;-0.38995105;-0.2833944;-0.2540293;0.17853364;-0.14901817;-0.20655908;0.1353521;0.3543815;0.18122248;-0.57267636;-0.4062526;0.0008404702;-0.12396643;-0.23291689;-0.051456258;0.051932964;-0.6446192;-0.25306606;-0.09202666;-0.59369034;-0.45589456;0.07539135;0.05611792;0.42679438;0.10446857;0.07329506;0.27191782;0.16426389;0.39360508;0.40956208;0.18941566;0.32633194;0.08217705;0.11825774;0.11052458;-0.0513226;0.060483303;-0.006509592;-0.20363213;0.07748257;0.009482971;0.36060527;0.08789074;0.23415089;0.32548892;-0.42106315;-0.036048736;-0.020169916;0.18690026;-0.109128475;-0.36425146;0.114885;-0.22335073;-0.21725565;-0.010123361;-0.2939373;-0.5421522;0.052377377;-0.15909831;0.16911606;0.2088105;-0.040822305;-0.21387109;0.21498069;0.16435423;0.03141658;-0.2888837;-0.11135073;-0.64747876;-0.09042835;0.14709526;0.017491765;-0.08447501;-0.2341385;0.022997672;0.11316579;0.21843328;0.124812536;0.0959474;-0.112190336;-0.1999877;0.16455169;0.20781028;0.03026485;-0.24141502;-0.84338385;-0.14636998;-0.14751081;-0.40079695;0.09628479;0.09511709;-0.017405726;0.20142609;0.07066353;0.20657876;0.037576664;0.2739701;0.32535928;0.11010355;0.2896447;0.4040132;0.35692072;-0.44433773;-0.54624456;-0.4893445;0.054318767;-0.20585282;-0.111329764;0.28443113;-0.053905968;-0.42587984;-0.0917402;-0.39478138;-0.116849095;-0.52697664;-0.44014248;-0.19089584;-0.13637905;0.0044837724;0.3118714;-0.35803884;-0.21805713;-0.003259668;-0.039982233;0.0799991;0.27276567;0.0150458;0.16758251;0.10504618;0.37247804;0.07021362;-0.2745887;0.17831126;-0.05697961;0.09031264;-0.09046168;-0.03008767;-0.006037417;0.6072069;0.024019063;-0.13131204;0.38980994;0.17457527;-0.13548571;0.2567113;-0.17631783;-0.20850818;-0.5304969;-0.36394012;-0.5761138;-0.1961226;-0.29790732;-0.18764305;-0.44371557;-0.7525081;-0.6402909;-0.12179652;0.3453648;-0.053696435;-0.026800847;0.10785417;-0.024169222;-0.036858648;0.21071343;0.16679835;-0.057405673;-0.8703586;-1.1239958;0.33918723;-0.2636086;-0.6240446;-0.050949987;0.0030732632;-0.38325673;-0.16402319;0.14721562;0.2173549;0.010336993;0.24631275;0.481949;-0.065720655;0.10124592;0.0458255;-0.6143199;-0.2977893;-0.28623152;-0.31669238;-0.74760056;-0.30075213;0.42552224;-0.44633734;0.04651922;-0.5961843;0.08769744;-0.09519346;-0.46268776;-0.14685471;-0.043360215;-0.57276595;-0.8098686;-0.34515113;0.12518968;-0.13754982;-0.4113267;0.18352792;-0.015236253;0.13121669;0.15777925;0.077175036;0.17774352;-0.087244935;-0.16618392;-0.39256155;0.005555292;-0.16860797;-0.22386417;0.30870506;-0.16400112;0.35674366;-0.49727553;-0.115131386;0.09566665;-0.5583001;-0.17151959;0.018309845;-0.43984705;-0.33438113;-0.19147365;0.06999315;0.01581911;-0.1543771;-0.1410369;-0.29984674;-0.2657987;-0.16532815;-0.12924258;-0.13837886;-0.017345171;-0.03401563;0.22257106;-0.13290426;0.054636158;0.083454296;-0.34379405;-0.24687406;-0.27426386;-0.40551522;0.3093911;0.32892463;-0.20264964;0.35168532;0.19972734;-0.26671726;0.31612408;0.46047005;-0.4189087;0.11464906;0.35200948;-0.21735393;0.008698407;0.24280336;-0.8146645;-0.19349141;0.21245556;0.034535117;-0.6658876;-0.3779681;0.02452309;-0.18611784;-0.048756287;0.06275013;-0.012304873;0.25332657;-0.44933215;-0.3832534;-0.58462363;0.01017917;-0.5797498;-0.58424723;-0.19911876;-1.1261084;-0.6987046;-0.49304911;-0.6742087;-0.50932497;0.177481;-0.047163624;-0.04601003;-0.05024454;-0.34165144;-0.060399797
9;-0.0013672287;-0.9137998;-1.0578204;-0.27268237;-0.69678855;-0.97281796;-0.4430457;-0.21641856;-0.36190975;-0.29583636;0.0393795;0.20172688;0.23777895;0.20344643;0.092143245;-0.14118427;0.26787588;0.076159425;-0.14534084;-0.2578882;0.049440533;-0.25970018;-0.08688953;0.2079266;-0.14421846;0.05021648;0.28206593;-0.19762318;-0.48877;-0.45502126;-0.26558188;-0.12536456;0.11579867;0.07073742;-0.1482119;0.007194476;-0.06443412;-0.40630734;-0.22769038;-0.062106088;-0.22127067;-0.31641337;-0.0848867;-0.34118724;-0.37550905;-0.14120147;0.43379605;0.368999;-0.105626136;0.312204;-0.12579156;-0.2230089;0.07392536;-0.009011579;-0.21247926;-1.2528192;-0.11475947;0.77883273;-0.8536965;0.17111321;0.4757047;-0.48346847;0.2591882;0.45933953;-0.30845565;-0.13549064;0.06122996;0.11165471;0.13002464;0.33886433;-0.13862391;-0.04547486;-0.0634961;-0.15156971;-0.13695039;0.03719565;0.018537527;-0.043808173;0.22450496;0.34383956;0.037668493;-0.0032571214;-0.14176574;0.09432788;0.2261326;-0.09611513;-0.22637671;0.12728217;-0.21532828;-0.0060455734;0.41975105;-0.10923647;8.706402e-05;-0.65263796;-0.026423436;0.13695468;-0.20157519;-0.01753009;-0.13006583;-0.032657232;0.15095316;0.21637161;-0.07590084;-0.118843734;0.06838816;0.07294412;-0.014150077;-0.095015466;0.02641654;0.03078327;0.21545163;0.07796428;0.123247005;-0.028280105;0.044611815;0.04968667;-0.103731886;0.02648199;-0.26122263;0.067430645;0.43737534;-0.09942528;-0.09536164;0.05391619;0.30625662;-0.21964273;-0.63376653;0.22086841;0.35406333;-0.17820631;0.2269792;0.25972602;-0.14434426;0.15337214;-0.16401246;-0.5588066;-1.2869258;-0.12767605;0.36750636;-0.9444962;-0.2820972;0.41406518;-0.9282218;-0.33011252;0.008006673;-0.19080229;0.3151105;-0.29846436;-0.008659121;0.15030187;-0.37524927;0.17382714;0.050531592;-0.5707566;0.008534176;-0.047085285;0.060399268;0.24783167;-0.015885908;-0.19920366;0.32405165;2.4447434e-05;-0.06731242;-0.016071768;0.24674334;-0.27678028;0.1716693;0.21592921;-0.34083557;-0.03167741;-0.046426516;-0.2645291;-0.38137358;-0.28848076;-0.24589518;0.023958305;-0.011113314;0.08932723;0.08001295;-0.0066514406;-0.1630978;-0.019564908;-0.17508996;0.5050079;-0.54678875;-0.018443516;0.38529715;-0.21515629;0.12461894;0.5003791;-0.5511596;-0.2981852;0.09551283;-0.5753937;0.26006657;0.17898726;-0.6229499;-0.116502106;-0.16959675;-0.15905327;0.01724601;0.2660126;-0.33607802;-0.24338618;-0.26816648;0.1634902;0.12527895;0.12199284;-0.33680624;-0.31388062;-0.20579934;-0.5479872;-0.41100803;0.062983;-0.4338848;-0.35809037;0.15660574;-0.29188266;-0.01685387;0.23012069;-0.26416758;0.21755813;0.04282763;0.030405995;0.3951529;0.25149447;-0.014237085;0.20795508;0.29142433;-0.0615444;-0.25242844;-0.15500222;-0.119680166;-0.3884693;-0.6866;-0.043691386;0.050277866;-0.318615;0.14612988;0.018753465;-0.447175;0.025981393;-0.12498215;-0.05618248;-0.067310624;-0.11256802;-0.3820201;-0.04809681;0.066554144;-0.093946345;-0.27753547;-0.15310447;0.10241642;-0.44655755;-0.055822395;0.03137584;-0.14292452;-0.48018062;0.344958;-0.52983004;-0.33788136;0.81607765;0.19317317;0.4366715;0.11901072;0.33519134;0.42836362;-0.15679161;0.1968807;0.22421041;0.14341052;-0.087304816;0.1297275;0.42640528;-0.21902621;0.3521281;0.115450956;-0.35086837;0.40394127;0.30976465;0.10207704;-0.33432794;-0.09205233;0.03174548;-0.09019501;0.23696937;-0.3825151;-0.5702774;0.36068976;0.35795116;0.026188929;0.32493633;0.07754381;-0.43786654;0.090939835;-0.059327718;-0.25306714;0.1764721;-0.5477851;0.15896526;0.4049096;-0.46155486;-0.21928258;0.12539081;-0.13076898;-0.2757104;0.4118889;-0.10922434;0.32203752;0.008400308;-0.16599025;0.31129873;0.27905253;-0.14172621;0.14618571;0.10457087;0.26000306;0.3841235;-0.31620684;0.0744915;0.08109891;-0.17298692;-0.043277875;-0.22188535;0.09054099;-0.051209204;0.11028101;0.13410304;0.13611376;0.29309934;-0.09574476;-0.051917404;-0.06351998;0.07324609;-0.23950855;-0.0019695312;0.22882625;0.034156807;0.017954247;0.23236966;0.46547708;-0.08872362;-0.13934226;-0.38195282;-0.19614361;0.3029499;-0.18388887;0.08622393;0.3591677;-0.20751408;0.043262895;0.34771186;-0.5347509;-0.7414065;-0.10942455;-0.15860426;0.06327992;0.41972262;0.43557498;0.22173968;0.17648315;-0.4942257;-0.5448337;-0.017822223;-0.07026741;-0.2982667;0.1884976;-0.5952383;-0.31688648;0.2916599;-0.26069897;-0.11335618;-0.27545026;0.04745139;-0.038880665;-0.15397163;0.03118452;-0.13530032;-0.17166576;0.16618843;0.03551956;-0.21498154;-0.23318352;-0.32275268;-0.37664977;-0.30883068;-0.30684033;-0.6219503;-0.43601543;-0.023684701;0.16936404;0.08037928;0.18793969;0.111699305;-0.0048776604;-0.05153347;0.025726935;0.25511327;0.33911827;-0.145061;0.42615086;0.22814175;-0.38874078;0.30756176;-0.0062051755;-0.2889041;0.24698229;0.14398004;-0.3445773;0.5090901;0.26080844;-0.14865172;0.23183765;0.24835199;-0.039217096;-0.34744033;-0.8828608;-0.25038174;-0.20037767;-0.54117763;0.3243305;-0.23706597;-0.4727481;0.0155722555;0.017503731;-0.03553057;0.118765175;0.03380124;-0.15306418;-0.029677223;0.040431;-0.15302767;-0.102613255;0.09749383;-0.089308426;-0.23425052;0.21279468;-0.18117484;0.0064298315;0.31312865;0.024576103;0.44189826;0.19112672;0.25905877;-0.07865554;0.041289873;0.26928255;-0.12087945;0.2616009;0.14598152;0.08774773;-0.43605727;-0.023324749;0.12295024;-0.014555883;0.19491518;0.32559708;0.069519795;0.22888741;0.36175916;0.16938116;0.18674758;0.12327616;0.1844015;0.17375806;-0.15469986;0.30867174;-0.15960807;-0.015221524;-0.075904235;0.036404785;0.23108935;0.043992676;-0.0025141693;0.050998896;-0.059640177;-0.31178585;-0.046505567;-0.27886087;-0.5009517;-0.26644748;-0.030104354;-0.34765452;-0.14717087;0.27690476;-0.46086544;0.06913711;0.25510886;-0.12430428;0.20900853;0.10690141;-0.07704028;-0.33595195;0.14609483;-0.12093637;-0.1297431;-0.003912205;-0.030646259;0.45046538;-0.39783847;-0.06670948;0.20423374;-0.13478655;0.10965721;0.2607392;0.40108666;-0.046952307;-0.16152757;0.49853885;0.012684887;-0.35563955;0.494818;-0.15697117;-0.45153683;-0.4912619;-0.5953947;-0.23011269;-0.63414156;-0.9642591;-0.10172912;-0.27388802;-0.50698674;-0.1117296;-0.56709415;-0.04623506;-0.10168139;-0.7971621;-0.3428073;0.02786803;-0.540751;-0.16923897;0.5008712;0.304406;0.3833602;0.058000255;0.12775327;0.04833627;-0.35584503;0.16672808;-0.110182606;-0.5488707;-0.054718826;0.031724095;0.3534513;0.17576067;0.13621102;0.17383978;0.08522427;-0.013193911;0.22119223;-0.07291939;0.11767144;0.0065775104;-0.21260564;-0.20378973;0.122039475;0.26586196;0.016302276;-0.0021160014;-0.3941414;-0.55334145;0.20667495;-0.7597293;-0.19474877;0.30734658;-0.17720947;-0.2548688;0.2547157;-0.6737161;-0.46314856;0.18321714;-0.6297053;-0.13318156;0.40647545;0.24192154;0.027556919;0.18787101
10;-0.00028859352;0.3455411;0.21527945;-0.027017461;0.089415684;0.0017486953;-0.1872329;-0.4356431;-0.15573943;-0.019415366;0.19583587;-0.022536281;0.19567266;0.13949306;-0.15641175;-0.3048279;0.2661326;-0.13157943;-0.5180951;0.06281673;0.013171349;-0.1155205;0.031212613;0.100101635;0.07519468;0.39685863;0.22303063;0.5145644;-0.20963724;-0.43096846;-0.39601386;-0.2441571;-0.18991774;-0.20601389;-0.5995274;-0.45712224;-0.7133124;0.17072816;0.38862026;0.54903805;0.10525468;0.21794944;0.13842611;-0.38402924;-0.32260025;-0.43463346;0.65310013;-0.0010029428;-0.05067039;0.4170522;0.016299771;-0.15831168;0.17070453;0.090622805;0.080511235;-0.2536634;-0.5350102;-0.38087094;-0.54480976;-0.702714;-0.27259016;-0.067364134;-0.11406431;0.08875723;0.11323286;0.1543409;0.14564493;0.17808855;0.30481663;-0.020238996;0.110412635;-0.31334484;-0.3027047;-0.23181318;-0.044492338;-0.34992072;-0.7647869;-0.78581935;-0.6344733;-0.8145123;-0.4465294;-0.42278448;0.10661909;-0.3282822;-0.47573164;0.17677881;0.27266318;0.39657566;0.44344687;0.43707848;0.6142108;-0.13540937;-0.014900244;0.37275514;-0.13445884;0.45604527;0.41645744;0.36283723;0.21144667;0.2349079;-0.11593963;0.107664466;0.049581748;0.030287733;0.055947933;0.24611256;0.034761555;0.40280953;0.23237872;0.12252313;0.168201;0.72698516;-0.08090275;-0.022487288;0.210459;-0.03608216;0.012335379;-0.025763232;0.4277868;0.30554625;0.22665389;0.2372074;0.23991984;0.094010234;0.093621954;-0.05980004;0.20255159;-0.021630865;-0.274983;0.22523685;0.13384643;0.090969436;-0.15496433;-0.18331945;-0.651768;-0.28656682;-0.26957256;-0.04249666;-0.110238865;0.20299417;0.09340703;0.041385237;0.024043037;0.2732194;0.21113962;0.5488885;0.261353;0.23395057;0.13370107;0.32770884;0.10679071;-0.19167472;-0.548237;-0.028650163;-0.052722823;-0.17492826;0.24313287;0.3529946;0.33314872;0.14363506;0.08417707;-0.088412404;-0.35191917;0.017330935;-0.6053433;-0.3598525;0.01742605;-0.08962242;-0.09382972;0.011910291;0.023831114;0.06519149;-0.15067016;-0.40935743;-0.040167764;-0.025230108;0.08774735;-0.08094309;0.31376627;-0.045706738;0.02224844;-0.17520078;-0.39559922;-0.40439138;-0.07486836;-0.13058661;-0.16219483;0.28101236;0.10604618;0.06732012;0.1867796;0.015604437;0.08749993;0.17347474;0.079657905;-0.013036898;0.17265883;0.025953166;-0.12085266;-0.12427042;-0.024414059;-0.15259114;0.04789526;-0.29397404;0.22060983;0.28061712;-0.022078952;0.42516747;0.12219141;-0.1171984;0.26145145;-0.07833021;-0.2799529;0.05288686;-0.03850353;-0.38329324;-0.20863003;0.09528832;-0.14769071;-0.45265526;0.2326136;-0.18123867;-0.2928101;0.45384377;0.017532008;0.3846828;-0.03756621;-0.16588056;-0.026915248;0.3684737;0.08509038;0.044645622;0.058550734;0.24247757;-0.010218271;0.22270758;-0.33496284;-0.49817637;-0.2776528;-0.8415351;-0.0074108588;-0.5847929;-0.77640057;0.037850488;-0.33054304;0.07156103;-0.17867805;-0.20108832;0.17087092;0.022735832;-0.3925877;-0.038223494;-0.06734404;-0.319403;-0.13132471;-0.6534968;-0.45556444;-0.42270458;-0.7586326;-0.45698318;-0.25073957;0.025286688;-1.0138043;-0.039459214;0.31796026;-0.36828882;-0.2381227;-0.019810889;-0.46352372;-0.47084856;-0.062314447;-0.08054651;0.18940082;-0.13261701;0.4893412;0.44119138;0.21788497;0.24678993;0.21580535;-0.20783387;0.066096276;0.062367696;-0.04247779;-0.11919915;0.071812436;0.25909078;-0.0012748971;-0.10955234;0.15668626;-0.34856433;0.029542355;0.15599176;-0.42541736;0.47918728;0.39523384;-0.21248892;0.22400303;-0.029911924;-0.38040537;-0.44292116;-0.5597055;-0.27350903;-0.5247402;-0.48021695;-0.38665712;-0.48089528;-0.47900984;0.31517422;0.082594596;0.22256379;0.4552222;0.083002895;0.27740994;0.329301;0.29576504;0.18388154;-0.09569462;-0.16885953;-0.33418503;0.4315504;0.27491972;0.3743206;0.35635397;0.17416106;0.17886214;0.21582265;0.06991452;-0.53238446;-0.082862996;-0.15040559;-0.28294906;-0.121908955;-0.031277586;-0.08678932;0.21369845;-0.11256571;0.06012552;0.32506934;0.44652852;0.0056311116;0.07902537;0.06488554;-0.093966454;0.14335272;0.3499899;-0.028569967;-0.18758334;0.0059436313;-0.3658203;-0.2595913;-0.7373046;-0.3246782;-0.48649272;-0.4673074;-0.10316189;0.04434102;0.11482836;-0.13955697;0.16058119;0.10520124;-0.24833377;0.26421198;0.23558262;-0.049760725;-0.03640839;-0.03737169;-0.42577642;-0.48567453;-0.79572433;-0.38933793;0.5031097;0.11156556;0.01537204;0.3220804;0.23323418;0.18466191;0.16361444;-0.32045224;-0.10127778;0.111547865;0.15502132;0.22675528;0.004423662;0.11996229;0.2152919;-0.16322957;-0.028832067;-0.060971804;0.1039042;0.17489895;0.1714608;0.15250903;-0.015048303;-0.004701569;0.10592734;0.08463756;0.5289843;-0.0131211355;0.02891606;0.12604374;0.7539493;0.3189808;0.4510492;0.6721068;0.40303653;0.2610761;0.3042643;0.07807807;0.02165276;0.0039650667;-0.49742544;0.02345713;-0.13027738;-0.8334449;-0.10572703;0.19776289;-0.072771885;0.24216454;0.46134144;-0.015602152;0.23839569;0.32761434;0.22910348;-0.024073657;0.29172945;0.1654955;0.08693015;-0.07416167;0.16270529;0.27622816;0.20926644;0.28703603;0.32711285;-0.039040744;0.0036677828;0.031316355;0.020029144;-0.23178455;0.013031996;-0.045271773;-0.22011423;-0.1956381;-0.20076294;0.10039912;0.27924725;-0.20053156;-0.013840165;0.28097007;-0.24019934;-0.08219959;-0.0102210725;-0.120938316;-0.041748706;0.089494646;-0.13477394;0.11591056;0.11745081;0.18006021;0.10351716;-0.051830582;-0.070792004;0.18510142;0.37926382;-0.32417068;-0.47291395;-0.3488972;-0.24381877;-0.12331509;0.043436825;-0.17109922;-0.43828237;-0.2739035;0.33915484;-0.02439276;0.11417172;0.18159078;0.23693287;0.27611834;-0.08683453;-0.10836709;-0.3481307;0.09809445;-0.42996055;-0.5349066;-0.50626236;-0.8062293;-0.6774689;0.006050064;0.015626496;0.03633755;0.034440685;0.17607327;0.021369966;0.33233514;0.37845802;0.1687206;-0.29249695;-0.93032527;-0.25212872;-0.2613895;-0.13824768;0.07856469;0.3063745;0.09786227;-0.13320392;0.1777328;-0.05778867;-0.19668238;0.06327633;-0.1239794;-0.082526214;0.17526533;-0.09135387;-0.1561721;-0.15332197;-0.37918207;-0.13905996;0.15225847;-0.36619055;-0.5221173;-0.1541314;-0.25658837;-0.31684795;-0.1341453;-0.06885703;0.18407309;0.041249253;-0.0742576;0.15180372;-0.051073983;0.19382569;0.44120538;0.1702911;0.05390013;-0.02511721;-0.016312135;-0.3363453;-0.07962261;-0.4292562;-0.58578396;-0.36238834;-0.14891566;0.08881107;0.17115894;0.03819523;-0.052195232;-0.08383558;0.005627011;-0.32166076;0.13172144;-0.2850234;-0.21098623;0.23423144;0.2615248;0.2760826;0.366232;0.33579645;0.5050629;0.35505337;-0.31478232;-0.6018521;-0.28194353;0.02827851;-0.15495731;-0.05141389;0.14220998;0.07150941;0.18097676;0.42416796;0.051187877;0.41035432;0.23316745;-0.1978689;-0.04355103;0.51856506;0.3185726;0.46765873
11;0.0025432245;-0.1283421;-0.2697476;-0.37292293;0.12248373;0.054237653;-0.1279431;0.36865684;0.30084082;-0.0395246;0.1317169;0.05063205;0.2945561;0.031818073;-0.12082025;-0.07818564;-0.25279453;-0.26000062;-0.25180542;-0.2746144;-0.37186942;-0.23559867;-0.7027912;-0.68721443;-0.3367213;-0.5676952;-0.71564245;-0.39348954;0.0025638298;0.25540125;0.23172255;0.10956126;0.12515661;0.1299708;0.45139393;0.08116858;0.05705154;-0.3542953;-0.49117503;-0.6687872;0.023408195;-0.3067518;-0.2491536;0.110735394;0.22170055;0.17876095;-0.10980589;0.019881135;-0.17113228;-0.04581126;0.02553114;-0.087112114;-0.00338919;0.37096843;0.21195643;0.087147854;-0.44716385;-0.4140869;-0.061052304;-0.23776212;-0.10676668;0.55164003;0.17073442;0.071073554;-0.18459004;-0.26111066;-0.28348932;-0.25575906;-0.32273135;-0.46037266;0.14300483;-0.2560405;-0.27751824;0.3201189;0.5678848;0.31586707;0.04818294;0.15907992;-0.032260474;-0.15064816;-0.10111137;-0.249986;-0.46214816;-0.2305291;-0.25429267;-0.16766603;-0.04294218;-0.057898328;0.12326384;0.04840987;-0.15978645;-0.26889923;-0.084239304;0.04842013;-0.22885051;-0.2129059;-0.19771494;-0.09004218;-0.2858991;-0.11575299;-0.087774426;-0.21000603;-0.29979703;-0.02462578;0.0647926;0.10110507;-0.0016150852;0.21174067;-0.03740533;-0.852669;-0.7546505;-0.6317052;-0.5886606;-0.3798213;-0.2942238;-0.20000324;0.0042033996;0.081873864;-0.2040476;-0.18175037;-0.19101344;0.2788619;0.069783546;0.17020708;0.21352208;0.289988;0.6410658;-0.19882384;-0.13741641;-0.27113312;-0.49170095;-0.47028777;-0.49402624;-0.5099168;-0.43413523;-0.16233084;-0.3667617;-0.4680802;-0.28995416;-0.20418394;-0.15816033;-0.31990743;0.13868937;0.19073518;0.12876713;-0.4865891;-0.21788546;-0.26267824;-0.42399;-0.19417883;-0.28700653;-0.55191463;-0.00617855;0.089583054;-0.4315591;-0.04657912;-0.39855632;-0.45529848;-0.17314267;-0.4833558;0.28209698;0.28207698;-0.07477949;0.04990791;-0.26411256;-0.2981939;-0.17744401;-0.016996903;-0.044811074;0.1590757;0.46953425;0.27802366;-0.006190165;0.3750166;0.34504277;-0.26553842;0.013425779;-0.12200443;-0.3215876;-0.5700998;-0.26577917;0.18569905;-0.046637796;0.21838862;-0.22874245;-0.08832535;-0.04684279;-0.40958932;-0.40142483;-0.38021109;-0.69038564;-0.057498742;-0.3576496;-0.40160143;-0.077088386;-0.3816924;-0.112886354;-0.28739896;0.27089602;-0.042490456;-0.37409878;-0.35009298;-0.27818143;-0.45972902;-0.78055555;0.19434436;-0.26193276;-0.26759326;-0.3855397;-0.18985887;-0.24125531;0.038705435;0.034561917;0.31593198;0.13797593;0.14446324;0.15241395;0.22815357;0.018390305;-0.1890728;-0.5754985;-0.69043;-0.7492133;0.02958169;-0.1220562;-0.3487673;-0.12081082;0.14971647;0.012045839;0.33891058;0.4413434;0.21277039;0.061729018;0.27848998;0.12159292;-0.02438933;0.105112985;-0.015087435;-0.07844375;0.06806368;0.11433276;-0.3962408;-0.2798637;-0.34654117;-0.26603672;-0.14818922;-0.09083946;-0.23446402;-0.07271349;-0.16292167;0.3090806;0.3056495;0.31272918;0.5861083;0.25330338;0.29854497;-0.16672403;-0.17761102;-0.1419535;-0.23375805;-0.29477137;-0.03267396;-0.036337625;0.24503143;-0.09771772;-0.21586305;0.06952581;0.06952477;-0.09593376;-0.006094734;-0.013362672;0.09420935;0.12967303;0.3784189;-0.293793;-0.42123002;-0.17352957;0.12806138;-0.24262233;-0.12295901;-0.17229733;0.092889845;-0.33864382;0.27350318;0.18998137;0.06692062;-0.20216519;0.06515757;-0.1272633;0.11834515;0.40934542;0.22113805;-0.14664501;-0.035865318;0.005055786;0.0065469095;-0.10683497;-0.36314154;-0.43747154;-0.42124414;-0.5070233;-0.10324907;-0.08356961;-0.20949444;0.12633872;-0.08885603;-0.42565045;-0.41394407;-0.43187883;-0.17971534;-0.98086584;-0.5955945;-0.8320434;-0.47119236;-0.22713612;-0.35936606;-0.27434763;-0.3085918;-0.28921723;-0.21160658;-0.051401082;-0.10730761;-0.10072848;-0.17264251;-0.067058146;0.04003847;0.26110688;0.2784435;-0.057630826;-0.0017999595;-0.3119911;-0.16232745;-0.067525804;-0.19544405;-0.38262594;-0.46111497;-0.29064587;-0.22509727;-0.17922138;-0.40640152;0.229911;0.4160565;0.24642298;-0.27381334;-0.5947319;-0.48876038;-0.2478199;-0.69681954;-0.7235473;0.15052205;-0.28640273;-0.54624444;-0.10396418;0.24032551;0.11683868;0.019774452;-0.016126031;-0.036971677;0.1934516;-0.035344165;0.09218315;-0.45602077;-0.33697605;-0.55355495;-0.4100381;-0.40612233;-0.34671107;0.10526199;-0.14571406;-0.31594485;-0.0059462497;-0.20342854;-0.09514449;-0.091531545;-0.029563485;-0.021500489;0.35578215;0.22449283;0.19754182;-0.11158235;-0.14087807;0.066193454;-0.10643158;-0.053266913;-0.030748;0.079131424;-0.13142727;-0.25491327;-0.21590173;-0.23493375;0.0013706798;-0.26048818;-0.47545284;-0.6649794;-0.41629362;-0.3765747;-0.35147431;0.17415313;0.21338159;0.117372796;-0.10783554;0.14991009;0.12567914;-0.015083263;0.11801075;-0.2562607;-0.09209087;-0.0078674955;0.31602722;0.25370845;0.22592446;0.24566244;-0.080206454;0.24645653;0.08520598;-0.4421196;-0.5801977;-0.80511105;0.12269936;-0.38039124;-0.43885484;0.055871915;0.1166712;0.015450799;0.052264772;0.06629301;-0.034542535;-0.29182795;-0.3911059;-0.28039798;0.16052237;0.07399881;0.25483882;0.11698687;0.008585259;-0.28499475;-0.021210471;-0.089057446;-0.313839;0.07511741;0.035969287;-0.25145987;-0.44868544;-0.11241236;-0.17809941;-0.67495203;-0.34435868;-0.5693801;-0.046798144;-0.12056121;0.1867529;-0.45729375;-0.54477173;-0.309844;-0.14733748;-0.21311916;-0.1802723;-0.32829076;-0.13931696;-0.07408282;0.09575299;0.30773503;0.38776684;-0.008943956;0.12960091;-0.28736877;0.26568902;0.33350927;-0.012506703;-0.19571216;-0.02782161;-0.22123116;-0.30017766;-0.333634;-0.40157378;-0.2639686;-0.27679467;-0.6752244;0.026747009;0.35400665;-0.008092185;0.039640576;0.3191143;-0.08107391;-0.03451859;0.15788954;0.041038092;0.2228523;-0.072703384;0.16526254;-0.09583794;0.035447158;0.26917025;-0.2561089;-0.18801147;0.10255385;0.12490947;0.095549926;0.13660076;-0.29432344;0.08462987;0.13359381;-0.3771328;0.09379471;0.113722876;-0.051756594;0.09166647;0.07703769;0.019747175;-0.08519172;-0.051753037;0.13783662;0.08925482;-0.2417447;-0.32765615;-0.32461745;-0.09247873;-0.24096297;-0.5665111;-0.13021734;-0.06630378;-0.28434002;-0.49478057;0.08410217;-0.29326582;-0.13187419;-0.26346838;-0.59804976;-0.3249722;0.03680025;-0.67597795;-0.23571241;-0.47179425;-0.4433769;-0.19540337;-0.23319706;-0.17599948;-0.1097908;-0.26911464;0.15558001;0.13393506;-0.24335766;0.0850697;-0.37748817;-0.08633166;0.021201082;-0.39427766;0.31204048;0.49628899;0.21469143;-0.036205467;0.10130969;-0.1721919;0.10130898;0.12900569;0.06760178;-0.112160735;-0.016771046;0.048911504;-0.58350265;-0.111145735;-0.2839296;-0.31864595;-0.3360389;-0.46738604;0.012541736;-0.01120492;-0.04081985;-0.41807964;-0.60507923;-0.57998633;-0.33662626;-0.47888634;-0.5838493;-0.21220967;-0.04200005;-0.26132473
12;0.0020282513;0.26381335;-0.18822165;0.29672527;0.32039782;-0.16022001;-0.30978227;0.089098774;0.19693702;-0.16091259;0.48375893;0.1785387;-0.050838023;0.30069724;0.34000814;0.18903552;0.112668574;0.09246143;0.0307952;-0.16652335;-0.8708653;-0.35507044;0.10160944;-0.50234973;-0.18353379;0.25502977;-0.34132928;-0.03724073;-0.21896447;-0.21776778;-0.11461521;0.2243718;-0.21127918;0.111493416;0.26863813;0.1541055;0.096107356;-0.027903486;0.22150351;0.14751512;0.0139393285;0.3078191;0.2856585;-0.08252585;0.35421178;0.06185798;-0.6074303;-0.10692215;-0.1882658;-0.52953434;-0.37852186;-0.24036199;-0.52780735;-0.728338;-0.42429078;-0.34076467;-0.46614864;0.047154255;-0.49575815;-0.91124177;-0.36160228;-0.2976361;-0.30881205;0.12703347;-0.2232166;-0.25359824;-0.30502138;-0.055958625;-0.017726222;-0.11909973;0.029543431;0.015880618;0.25678444;-0.22345245;-0.118771166;-0.3676709;-0.37879622;-0.105149604;-0.2926609;-0.45889315;-0.05547817;-0.1325861;0.32578993;0.6061734;0.7902194;-0.05906806;0.2947015;0.24667175;0.14101844;0.21300933;0.22154662;0.14219649;-0.11363216;-0.35236862;0.0103220735;-0.04689506;-0.5893691;-0.104731806;-0.18738505;-0.35246277;-0.04344661;0.12597431;0.044044305;-0.18952258;-0.042924162;-0.40005115;-0.34929907;-0.178752;-0.25463927;-0.014809988;0.27754468;-0.05706072;0.17227517;0.1940748;-0.24707177;0.26392102;0.29657924;-0.6456943;-0.30128866;-0.43230042;-0.41156524;0.11086567;0.16607168;0.14832006;0.10532339;0.15621686;0.17056005;-0.26661548;-0.24294415;-0.42730346;-0.0143722985;0.18599208;-0.032163903;0.35226288;0.39262623;0.047707114;-0.1825525;0.02496989;0.03139902;0.3115965;0.15240997;-0.06639421;0.017741498;0.020560108;-0.21008706;0.32129344;0.017296841;-0.17420103;-0.025406154;-0.055218425;-0.17549148;-0.3799288;-0.1569033;-0.23913974;-0.036207084;0.038592257;-0.15254004;-0.40494403;-0.26118174;-0.31379834;-0.33378932;-0.07081539;-0.3273178;-0.012297569;0.11396818;0.34947234;0.22646187;0.12923583;0.0107086245;0.009241933;0.19746447;-0.047147185;-0.17731269;0.16786449;-0.19439515;-0.15133382;0.07090232;-0.27993992;-0.4621004;-0.2972012;-0.10669812;-0.17485884;-0.044328336;-0.009271124;0.098686226;0.054979287;-0.22630619;-0.19820276;0.14942484;-0.21769488;-0.23649119;-0.2554145;-0.38477698;-0.4296915;-0.4014659;-0.49227592;-0.50333357;-0.49095476;-0.2866279;0.16892524;0.19489574;0.17328848;-0.072890446;0.050510783;0.11901755;0.018146025;-0.11660397;-0.17522743;-0.69307953;-0.7031245;-0.72184896;-0.026376417;-0.15755671;-0.3042357;0.15268299;0.19844232;-0.14232871;0.035178598;-0.074495465;0.16804428;0.44172868;0.17734218;0.42217323;0.11752148;-0.14092714;0.21914938;0.1342192;0.23521712;-0.04351568;0.045138698;0.27263686;-0.101395264;-0.26232344;-0.1615312;-0.3129847;-0.5432017;-0.43314058;-0.47787994;0.09924509;-0.10005299;0.248026;0.44152665;0.341158;0.4173149;0.00017316132;0.06496135;0.113931134;0.019213872;-0.3289054;-0.48556474;0.015570195;0.07900766;0.05584729;-0.22104022;0.17447871;-0.029664956;-0.014630951;0.16860299;0.16519882;-0.117759526;0.009529024;-0.28093073;0.15231203;0.06762169;-0.2146095;0.1679955;0.28261888;0.2211784;0.10270756;0.49453232;0.42330518;0.013764167;0.012732395;-0.19367522;0.27452496;0.22441937;-0.115015335;-0.13022274;0.0740132;-0.47216767;-0.3334369;0.051829938;-0.033713635;-0.21273641;0.2352448;0.13047789;-0.19303623;0.19006325;0.16043848;0.0017130312;0.04397173;0.000816547;-0.18824176;0.028465843;-0.23319918;-0.014661356;0.30845922;-0.04380356;0.14028972;0.35644642;0.40800995;-0.1296501;0.036347255;-0.16582154;-0.14454404;-0.029128447;-0.0045986795;0.38374448;-0.013578935;0.34332818;0.24420062;0.3996909;0.4241345;0.28860518;0.30640683;0.10114735;0.07054662;0.0466597;0.18807359;0.12166784;0.13121101;0.081376605;0.10169312;0.085827634;0.0872167;-0.33389837;-0.56769836;-0.22529106;-0.3468992;-0.56566113;-0.19559306;-0.057597473;-0.006306137;-0.17722768;-0.1434462;-0.5801435;-0.5324097;0.1098311;-0.44439054;-0.23173772;0.089932844;-0.4575671;-0.8760293;-0.16856456;-0.2645108;-0.0042027244;-0.8326637;-0.7132338;-0.2088947;-0.24820608;-0.23843938;0.11834775;-0.06723585;-0.03245672;0.32840365;-0.062608734;-0.50252396;-0.2196857;-0.36972877;-0.33987293;0.14111209;0.2736471;0.117639385;0.40478992;-0.19280703;-0.083236;-0.16770537;-0.15044817;-0.111339115;0.3158059;-0.5415426;-0.3083642;-0.24170005;-0.4830831;-0.3255234;0.008436517;-0.5251763;-0.26751995;0.043183856;-0.02164556;-0.00938725;-0.050952908;0.07974079;0.18462573;0.02620438;0.3626044;0.28972328;0.18611991;0.015688904;-0.3488766;0.0507025;-0.39710042;-0.17963243;-0.02321428;-0.3864166;-0.093395084;-0.17442046;-0.26371664;-0.09742462;-0.19955535;0.24386752;0.042852953;0.11359668;0.15939711;-0.08752442;0.2409885;-0.5537109;-0.3005777;-0.5752587;-0.26432234;-0.2200927;-0.12650502;-0.38912585;-0.44821152;-0.515293;-0.6234154;-0.12420468;0.111909516;-0.6842991;-0.52716136;-0.046842895;-0.43744946;-0.4856222;-0.19343111;0.4404078;0.093125924;-0.0324932;-0.011968313;-0.096448675;-0.17794314;0.07020775;0.2592907;-0.16394389;0.20333858;0.22630696;-0.01242251;-0.08445996;0.0828306;-0.32275873;-0.30164382;-0.38103175;-0.657348;0.5519706;0.03392095;-0.07238095;0.537755;0.2670294;0.010387568;0.2035317;0.22767709;-0.15216325;-0.1330297;-0.20696394;-0.24368358;-0.20295124;-0.6249411;-0.23590323;-0.49571863;-0.2677978;-0.02910778;0.0064783683;0.035359945;-0.1605343;-0.24288718;-0.03833928;-0.04574889;-0.517856;-0.10955258;-0.20191203;-0.023692567;0.3146353;0.05444385;-0.00021802692;0.16919155;-0.100376636;-0.1792527;-0.030710608;0.030296499;0.1313449;0.50400656;0.5138218;0.056856368;0.3820597;0.207752;0.05384184;0.35562763;-0.1326867;-0.36460584;-0.015931575;0.037202477;0.0874719;0.24447317;0.036834374;0.47537398;0.58062005;0.48462567;-0.5538299;-0.5628745;-0.47382322;-0.01761967;-0.1774806;-0.41660875;-0.33429042;-0.46925616;-0.40874302;0.05417279;0.08294319;-0.062316764;0.19132566;-0.047013145;0.093256876;-0.03168296;-0.42881542;-0.42315182;-0.08209928;-0.1656394;-0.14279237;-0.34499177;-0.3840585;-0.16015387;-0.51388836;-0.3806179;-0.11312585;-0.4379189;-0.6464542;0.25279826;-0.6518823;-0.836795;-0.19775017;-0.22682923;-0.78386873;-0.13460478;0.06022972;0.38346392;-0.020491915;0.09269155;0.1847344;0.10837197;0.13446501;0.089025;0.016148755;-0.30943203;0.16530244;0.46100283;-0.10977174;0.2337688;0.24151307;0.19009784;0.45445824;0.18698877;0.19419391;0.13064522;-0.3726804;0.25572735;0.43315622;0.15414678;-0.2706823;0.11430515;-0.25929508;-0.122182444;0.1887819;0.048431333;-0.037644826;-0.06451564;0.09223628;-0.33042023;-0.26436454;-0.26684555;-0.04629203;-0.057125643;-0.026595168;0.12591864;0.060136393;-0.2506245;-0.31426904;-0.4910401;-0.40990865
13;0.0009143625;-0.077396214;-0.49463227;-0.3985952;0.106444836;-0.3426946;0.14371803;0.28275293;-0.012225739;0.24913818;-0.062495887;-0.22007532;-0.58090657;0.16275613;0.033093985;0.06408306;0.22783183;-0.022611711;0.084843844;0.06908016;-0.13819988;0.07645904;0.0660427;-0.02891548;-0.023458278;-0.09017507;-0.107407875;-0.08572625;-0.27642563;-0.13431644;-0.2871427;-0.1519959;0.17509682;0.23245533;-0.3574314;-0.28790164;-0.16277726;-0.3560899;-0.491137;-0.26584867;0.05413743;0.50336653;0.46611926;0.32944396;0.23756848;0.3470923;-0.823961;-0.39605594;-0.12438812;-0.3323365;-0.75505304;-0.5230558;0.23937964;-0.298033;-0.21785085;0.14021291;-0.06993626;0.059824675;0.045180112;-0.023884734;-0.08019847;0.06529094;-0.15792543;0.08262057;-0.38840583;-0.19314112;-0.2106653;-0.317273;-0.38696632;-0.37336528;-0.06019065;-0.09923808;-0.3229465;0.11174308;0.18147533;0.25420862;0.20623109;0.2681851;0.25331232;-0.14706695;-0.087450586;-0.11374094;-0.42930874;0.4045324;-0.09857569;-0.22618958;0.47715202;0.3077649;-0.7648755;-0.27493292;-0.23810999;-0.16845268;-0.31740576;-0.15668571;-0.21972318;-0.3365283;-0.06397898;-0.9080625;-0.6692693;-0.45519596;-0.36781615;-0.042380393;-0.1415248;-0.11356129;0.12074459;-0.13784406;-0.16038525;0.2503617;-0.059969656;0.14349803;0.04535414;0.33584207;-0.3086116;0.12549388;0.22966291;0.029609824;0.1845004;0.3703093;0.17695375;0.40328813;0.2873404;0.080587514;0.046704084;0.29831597;-0.052732743;0.04411417;-0.11976447;-0.3895517;-0.35802418;-0.28810814;-0.15909919;0.0927097;-0.007653095;-0.029457897;-0.08267221;-0.44387195;-0.017045947;-0.24196011;-0.16881552;-0.19782022;-0.035052445;-0.36260167;-0.5126909;-0.20693298;-0.24094264;-0.15788907;-0.6161487;-0.80505806;0.4152062;0.0088361595;-0.17308201;0.22610685;-0.09214201;-0.049965397;0.03349293;0.3015802;0.43646717;0.030306567;0.0687121;0.30807889;-0.31719387;-0.14115714;0.14659248;-0.29959732;-0.13591182;0.15882976;0.18834053;0.09669593;0.33882266;0.53093773;0.105688535;0.23037858;0.14546135;0.22400846;0.032693904;-0.11219396;0.043347172;-0.02251015;-0.2140128;-0.1278786;-0.30121684;0.21519239;-0.098226346;-0.41698864;0.027522687;-0.26417297;-0.2641202;-0.27863076;-0.53358656;-0.38426507;0.17618577;-0.0984245;-0.37785816;0.055523124;-0.43331033;0.038957324;0.2332529;0.25917915;0.40362892;-0.21280546;0.35621002;0.61934644;0.26279742;0.44264683;0.6118927;-0.40022272;0.08373689;-0.31206948;0.18216392;0.115938954;0.12785178;-0.113425866;-0.0145392725;0.0051456983;-0.05111568;0.1957635;0.12329876;-0.0037746183;-0.002203338;-0.17915164;-0.13995941;-0.06874896;-0.09971637;-0.6470185;-0.114079274;-0.45117456;-0.5251779;-0.06711494;-0.15231921;-0.49399692;-0.61264557;-0.398123;0.110529155;-0.063913845;-0.12534003;0.16120596;-0.5427187;-0.33561337;0.14157999;-0.14418945;0.16239254;-0.06963352;0.20067824;0.32990575;0.0049031163;0.10570249;-0.22938184;0.11134735;-0.30170366;0.064823546;-0.00403127;-0.254456;0.1965481;0.3882501;0.5392297;0.3288409;-0.15309146;0.17350851;0.30382285;-0.34367788;-0.23209648;-0.019122913;0.09896416;-0.38522863;-0.44425553;0.06851103;-0.43006378;-0.29749194;-0.29637986;-0.77663016;-0.6443035;-0.047448106;0.21956159;-0.17169736;-0.0669192;-0.23146944;-0.335509;0.2687868;-0.080046825;-0.115937755;-0.4486494;-0.097016744;0.2805639;-0.24350095;-0.31603837;-0.040086154;0.050045308;-0.12669061;-0.3932276;-0.061595492;-0.4044524;-0.29906958;-0.023831671;0.41479006;0.14922684;0.22696014;0.43594545;0.55196685;-0.05578739;0.22683758;-0.16827363;0.32542828;0.59231335;0.08402976;0.1597355;0.32439098;-0.13308452;-0.041958395;-0.071203;-0.592523;-0.24238324;-0.43436497;-0.3440592;-0.9986852;-1.1293647;-0.99266464;0.31426403;-0.19027083;-0.17781593;0.5657561;0.44850487;0.20858434;0.10784629;0.097101256;-0.09520335;0.084135115;-0.11751284;-0.19604245;0.30460507;-0.22284822;-0.19850327;0.36746618;-0.039362855;0.0185807;0.39649373;0.16233552;0.18338858;0.28940985;-0.14420278;0.043536287;0.2902602;0.27462065;0.37715226;-0.004482236;-0.04840644;-0.0529177;-0.23128696;0.18049884;0.083445415;-0.04021575;0.12404939;0.15529436;-0.06320572;0.29923564;0.040621378;-0.26741377;-0.038875405;-0.04732242;0.20243256;0.11188354;0.08139416;-0.092490725;0.29444724;-0.13994166;-0.20834705;0.14818314;-0.1508127;-0.38445124;-0.20796947;-0.28179345;0.1936135;0.01213539;-0.38558406;-0.47660777;-1.0501662;-0.56158215;-0.44514036;-0.7162828;-0.656411;-0.022119198;0.022866767;0.27970964;-0.07018387;-0.3112283;-0.4279889;-0.17622751;0.008325271;-0.009859892;-0.35281333;-0.58493876;-0.12166257;0.16244023;0.2904355;0.5921682;0.13323873;0.08464533;0.08458921;0.3757482;0.45632544;0.28812146;0.048523013;0.09095199;0.1547759;-0.33473077;-0.22570074;0.1932121;0.16025867;-0.27444854;-0.04376748;-0.039175395;-0.27450767;0.060783092;0.035394777;-0.06596461;0.20585234;-0.28297424;0.0013079755;0.3083022;0.08130791;-0.1284094;-0.28473526;0.3565501;0.21498442;0.38764268;-0.08452749;-0.08184431;-0.05227036;-0.06318085;-0.064635664;-0.08681449;0.00958301;-0.113225386;-0.12317468;-0.15387326;0.009540093;0.20384736;-0.40941182;0.3610896;0.29980052;-0.42463994;0.19303302;-0.09599582;0.27602848;0.017698523;0.094506815;-0.07529817;-0.20670241;0.0010953017;-0.14833444;0.2192056;0.054517053;0.16042824;-0.04401533;-0.22238559;-0.120361984;-0.39005578;0.071354516;0.1350665;0.026357478;0.08653674;-0.5249795;-0.65035653;-0.23315702;-0.12983987;-0.0563522;0.29839998;0.28538296;0.22658546;0.2655271;0.14259617;0.40612352;0.27030647;-0.64001864;0.041580513;-0.50179195;-0.15300813;0.35604933;-0.068143755;-0.15677798;-0.09064552;-0.2496801;-0.17322724;0.17121077;-0.13970344;-0.3540748;-0.10875684;-0.15828466;0.10502235;0.48363927;0.23774871;-0.3259832;-0.30826703;-0.4281694;-0.39751494;-0.5587923;-0.5900853;0.1805371;-0.11743146;-0.17835435;0.060823582;-0.2515686;-0.16037567;5.7878846e-05;0.04603053;-0.25555915;-0.35941082;-0.2108765;-0.42402688;-0.17171404;0.0688652;-0.4359369;-0.09690605;0.17139606;0.15457466;0.15213269;-0.020164376;-0.008171322;0.3378736;-0.15411457;-0.33901706;0.17774604;-0.0043681962;0.12679379;-0.18431935;-0.033906057;-0.09172881;-0.21355465;0.020052953;-0.06963022;0.023952123;0.2784251;0.2991584;-0.48870715;-0.78035414;-0.3520542;-0.21642521;-0.42205802;-0.09401823;-0.25078702;-0.38137954;-0.13837133;-0.08522222;-0.51713115;0.043796986;0.2119607;-0.42221296;0.069919944;0.43787625;-0.027107144;0.18943521;0.16647032;0.43116257;0.3845481;-0.4629761;-0.26718438;-0.30098125;0.046730958;-0.101540595;0.18923874;0.3050783;0.35543463;0.252372;-0.13749535;-0.26238072;-0.3209867;-0.05080939;0.17395848;0.2317748;0.3168216;0.33452958;0.22909568;0.100761734;0.3438489;0.047101907;-0.40614265;-0.17210637;-0.26473582
