kernel;bias;d0_w00;d0_w01;d0_w02;d0_w10;d0_w11;d0_w12;d0_w20;d0_w21;d0_w22;d1_w00;d1_w01;d1_w02;d1_w10;d1_w11;d1_w12;d1_w20;d1_w21;d1_w22;d2_w00;d2_w01;d2_w02;d2_w10;d2_w11;d2_w12;d2_w20;d2_w21;d2_w22;d3_w00;d3_w01;d3_w02;d3_w10;d3_w11;d3_w12;d3_w20;d3_w21;d3_w22;d4_w00;d4_w01;d4_w02;d4_w10;d4_w11;d4_w12;d4_w20;d4_w21;d4_w22;d5_w00;d5_w01;d5_w02;d5_w10;d5_w11;d5_w12;d5_w20;d5_w21;d5_w22;d6_w00;d6_w01;d6_w02;d6_w10;d6_w11;d6_w12;d6_w20;d6_w21;d6_w22;d7_w00;d7_w01;d7_w02;d7_w10;d7_w11;d7_w12;d7_w20;d7_w21;d7_w22;d8_w00;d8_w01;d8_w02;d8_w10;d8_w11;d8_w12;d8_w20;d8_w21;d8_w22;d9_w00;d9_w01;d9_w02;d9_w10;d9_w11;d9_w12;d9_w20;d9_w21;d9_w22;d10_w00;d10_w01;d10_w02;d10_w10;d10_w11;d10_w12;d10_w20;d10_w21;d10_w22;d11_w00;d11_w01;d11_w02;d11_w10;d11_w11;d11_w12;d11_w20;d11_w21;d11_w22;d12_w00;d12_w01;d12_w02;d12_w10;d12_w11;d12_w12;d12_w20;d12_w21;d12_w22;d13_w00;d13_w01;d13_w02;d13_w10;d13_w11;d13_w12;d13_w20;d13_w21;d13_w22;d14_w00;d14_w01;d14_w02;d14_w10;d14_w11;d14_w12;d14_w20;d14_w21;d14_w22;d15_w00;d15_w01;d15_w02;d15_w10;d15_w11;d15_w12;d15_w20;d15_w21;d15_w22;d16_w00;d16_w01;d16_w02;d16_w10;d16_w11;d16_w12;d16_w20;d16_w21;d16_w22;d17_w00;d17_w01;d17_w02;d17_w10;d17_w11;d17_w12;d17_w20;d17_w21;d17_w22;d18_w00;d18_w01;d18_w02;d18_w10;d18_w11;d18_w12;d18_w20;d18_w21;d18_w22;d19_w00;d19_w01;d19_w02;d19_w10;d19_w11;d19_w12;d19_w20;d19_w21;d19_w22;d20_w00;d20_w01;d20_w02;d20_w10;d20_w11;d20_w12;d20_w20;d20_w21;d20_w22;d21_w00;d21_w01;d21_w02;d21_w10;d21_w11;d21_w12;d21_w20;d21_w21;d21_w22;d22_w00;d22_w01;d22_w02;d22_w10;d22_w11;d22_w12;d22_w20;d22_w21;d22_w22;d23_w00;d23_w01;d23_w02;d23_w10;d23_w11;d23_w12;d23_w20;d23_w21;d23_w22;d24_w00;d24_w01;d24_w02;d24_w10;d24_w11;d24_w12;d24_w20;d24_w21;d24_w22;d25_w00;d25_w01;d25_w02;d25_w10;d25_w11;d25_w12;d25_w20;d25_w21;d25_w22;d26_w00;d26_w01;d26_w02;d26_w10;d26_w11;d26_w12;d26_w20;d26_w21;d26_w22;d27_w00;d27_w01;d27_w02;d27_w10;d27_w11;d27_w12;d27_w20;d27_w21;d27_w22;d28_w00;d28_w01;d28_w02;d28_w10;d28_w11;d28_w12;d28_w20;d28_w21;d28_w22;d29_w00;d29_w01;d29_w02;d29_w10;d29_w11;d29_w12;d29_w20;d29_w21;d29_w22;d30_w00;d30_w01;d30_w02;d30_w10;d30_w11;d30_w12;d30_w20;d30_w21;d30_w22;d31_w00;d31_w01;d31_w02;d31_w10;d31_w11;d31_w12;d31_w20;d31_w21;d31_w22;d32_w00;d32_w01;d32_w02;d32_w10;d32_w11;d32_w12;d32_w20;d32_w21;d32_w22;d33_w00;d33_w01;d33_w02;d33_w10;d33_w11;d33_w12;d33_w20;d33_w21;d33_w22;d34_w00;d34_w01;d34_w02;d34_w10;d34_w11;d34_w12;d34_w20;d34_w21;d34_w22;d35_w00;d35_w01;d35_w02;d35_w10;d35_w11;d35_w12;d35_w20;d35_w21;d35_w22;d36_w00;d36_w01;d36_w02;d36_w10;d36_w11;d36_w12;d36_w20;d36_w21;d36_w22;d37_w00;d37_w01;d37_w02;d37_w10;d37_w11;d37_w12;d37_w20;d37_w21;d37_w22;d38_w00;d38_w01;d38_w02;d38_w10;d38_w11;d38_w12;d38_w20;d38_w21;d38_w22;d39_w00;d39_w01;d39_w02;d39_w10;d39_w11;d39_w12;d39_w20;d39_w21;d39_w22;d40_w00;d40_w01;d40_w02;d40_w10;d40_w11;d40_w12;d40_w20;d40_w21;d40_w22;d41_w00;d41_w01;d41_w02;d41_w10;d41_w11;d41_w12;d41_w20;d41_w21;d41_w22;d42_w00;d42_w01;d42_w02;d42_w10;d42_w11;d42_w12;d42_w20;d42_w21;d42_w22;d43_w00;d43_w01;d43_w02;d43_w10;d43_w11;d43_w12;d43_w20;d43_w21;d43_w22;d44_w00;d44_w01;d44_w02;d44_w10;d44_w11;d44_w12;d44_w20;d44_w21;d44_w22;d45_w00;d45_w01;d45_w02;d45_w10;d45_w11;d45_w12;d45_w20;d45_w21;d45_w22;d46_w00;d46_w01;d46_w02;d46_w10;d46_w11;d46_w12;d46_w20;d46_w21;d46_w22;d47_w00;d47_w01;d47_w02;d47_w10;d47_w11;d47_w12;d47_w20;d47_w21;d47_w22;d48_w00;d48_w01;d48_w02;d48_w10;d48_w11;d48_w12;d48_w20;d48_w21;d48_w22;d49_w00;d49_w01;d49_w02;d49_w10;d49_w11;d49_w12;d49_w20;d49_w21;d49_w22;d50_w00;d50_w01;d50_w02;d50_w10;d50_w11;d50_w12;d50_w20;d50_w21;d50_w22;d51_w00;d51_w01;d51_w02;d51_w10;d51_w11;d51_w12;d51_w20;d51_w21;d51_w22;d52_w00;d52_w01;d52_w02;d52_w10;d52_w11;d52_w12;d52_w20;d52_w21;d52_w22;d53_w00;d53_w01;d53_w02;d53_w10;d53_w11;d53_w12;d53_w20;d53_w21;d53_w22;d54_w00;d54_w01;d54_w02;d54_w10;d54_w11;d54_w12;d54_w20;d54_w21;d54_w22;d55_w00;d55_w01;d55_w02;d55_w10;d55_w11;d55_w12;d55_w20;d55_w21;d55_w22;d56_w00;d56_w01;d56_w02;d56_w10;d56_w11;d56_w12;d56_w20;d56_w21;d56_w22;d57_w00;d57_w01;d57_w02;d57_w10;d57_w11;d57_w12;d57_w20;d57_w21;d57_w22;d58_w00;d58_w01;d58_w02;d58_w10;d58_w11;d58_w12;d58_w20;d58_w21;d58_w22;d59_w00;d59_w01;d59_w02;d59_w10;d59_w11;d59_w12;d59_w20;d59_w21;d59_w22;d60_w00;d60_w01;d60_w02;d60_w10;d60_w11;d60_w12;d60_w20;d60_w21;d60_w22;d61_w00;d61_w01;d61_w02;d61_w10;d61_w11;d61_w12;d61_w20;d61_w21;d61_w22;d62_w00;d62_w01;d62_w02;d62_w10;d62_w11;d62_w12;d62_w20;d62_w21;d62_w22;d63_w00;d63_w01;d63_w02;d63_w10;d63_w11;d63_w12;d63_w20;d63_w21;d63_w22;d64_w00;d64_w01;d64_w02;d64_w10;d64_w11;d64_w12;d64_w20;d64_w21;d64_w22;d65_w00;d65_w01;d65_w02;d65_w10;d65_w11;d65_w12;d65_w20;d65_w21;d65_w22;d66_w00;d66_w01;d66_w02;d66_w10;d66_w11;d66_w12;d66_w20;d66_w21;d66_w22;d67_w00;d67_w01;d67_w02;d67_w10;d67_w11;d67_w12;d67_w20;d67_w21;d67_w22;d68_w00;d68_w01;d68_w02;d68_w10;d68_w11;d68_w12;d68_w20;d68_w21;d68_w22;d69_w00;d69_w01;d69_w02;d69_w10;d69_w11;d69_w12;d69_w20;d69_w21;d69_w22;d70_w00;d70_w01;d70_w02;d70_w10;d70_w11;d70_w12;d70_w20;d70_w21;d70_w22;d71_w00;d71_w01;d71_w02;d71_w10;d71_w11;d71_w12;d71_w20;d71_w21;d71_w22;d72_w00;d72_w01;d72_w02;d72_w10;d72_w11;d72_w12;d72_w20;d72_w21;d72_w22;d73_w00;d73_w01;d73_w02;d73_w10;d73_w11;d73_w12;d73_w20;d73_w21;d73_w22;d74_w00;d74_w01;d74_w02;d74_w10;d74_w11;d74_w12;d74_w20;d74_w21;d74_w22;d75_w00;d75_w01;d75_w02;d75_w10;d75_w11;d75_w12;d75_w20;d75_w21;d75_w22;d76_w00;d76_w01;d76_w02;d76_w10;d76_w11;d76_w12;d76_w20;d76_w21;d76_w22;d77_w00;d77_w01;d77_w02;d77_w10;d77_w11;d77_w12;d77_w20;d77_w21;d77_w22;d78_w00;d78_w01;d78_w02;d78_w10;d78_w11;d78_w12;d78_w20;d78_w21;d78_w22;d79_w00;d79_w01;d79_w02;d79_w10;d79_w11;d79_w12;d79_w20;d79_w21;d79_w22;d80_w00;d80_w01;d80_w02;d80_w10;d80_w11;d80_w12;d80_w20;d80_w21;d80_w22;d81_w00;d81_w01;d81_w02;d81_w10;d81_w11;d81_w12;d81_w20;d81_w21;d81_w22;d82_w00;d82_w01;d82_w02;d82_w10;d82_w11;d82_w12;d82_w20;d82_w21;d82_w22;d83_w00;d83_w01;d83_w02;d83_w10;d83_w11;d83_w12;d83_w20;d83_w21;d83_w22;d84_w00;d84_w01;d84_w02;d84_w10;d84_w11;d84_w12;d84_w20;d84_w21;d84_w22;d85_w00;d85_w01;d85_w02;d85_w10;d85_w11;d85_w12;d85_w20;d85_w21;d85_w22;d86_w00;d86_w01;d86_w02;d86_w10;d86_w11;d86_w12;d86_w20;d86_w21;d86_w22;d87_w00;d87_w01;d87_w02;d87_w10;d87_w11;d87_w12;d87_w20;d87_w21;d87_w22;d88_w00;d88_w01;d88_w02;d88_w10;d88_w11;d88_w12;d88_w20;d88_w21;d88_w22;d89_w00;d89_w01;d89_w02;d89_w10;d89_w11;d89_w12;d89_w20;d89_w21;d89_w22;d90_w00;d90_w01;d90_w02;d90_w10;d90_w11;d90_w12;d90_w20;d90_w21;d90_w22;d91_w00;d91_w01;d91_w02;d91_w10;d91_w11;d91_w12;d91_w20;d91_w21;d91_w22;d92_w00;d92_w01;d92_w02;d92_w10;d92_w11;d92_w12;d92_w20;d92_w21;d92_w22;d93_w00;d93_w01;d93_w02;d93_w10;d93_w11;d93_w12;d93_w20;d93_w21;d93_w22;d94_w00;d94_w01;d94_w02;d94_w10;d94_w11;d94_w12;d94_w20;d94_w21;d94_w22;d95_w00;d95_w01;d95_w02;d95_w10;d95_w11;d95_w12;d95_w20;d95_w21;d95_w22;d96_w00;d96_w01;d96_w02;d96_w10;d96_w11;d96_w12;d96_w20;d96_w21;d96_w22;d97_w00;d97_w01;d97_w02;d97_w10;d97_w11;d97_w12;d97_w20;d97_w21;d97_w22;d98_w00;d98_w01;d98_w02;d98_w10;d98_w11;d98_w12;d98_w20;d98_w21;d98_w22;d99_w00;d99_w01;d99_w02;d99_w10;d99_w11;d99_w12;d99_w20;d99_w21;d99_w22;d100_w00;d100_w01;d100_w02;d100_w10;d100_w11;d100_w12;d100_w20;d100_w21;d100_w22;d101_w00;d101_w01;d101_w02;d101_w10;d101_w11;d101_w12;d101_w20;d101_w21;d101_w22;d102_w00;d102_w01;d102_w02;d102_w10;d102_w11;d102_w12;d102_w20;d102_w21;d102_w22;d103_w00;d103_w01;d103_w02;d103_w10;d103_w11;d103_w12;d103_w20;d103_w21;d103_w22;d104_w00;d104_w01;d104_w02;d104_w10;d104_w11;d104_w12;d104_w20;d104_w21;d104_w22;d105_w00;d105_w01;d105_w02;d105_w10;d105_w11;d105_w12;d105_w20;d105_w21;d105_w22;d106_w00;d106_w01;d106_w02;d106_w10;d106_w11;d106_w12;d106_w20;d106_w21;d106_w22;d107_w00;d107_w01;d107_w02;d107_w10;d107_w11;d107_w12;d107_w20;d107_w21;d107_w22;d108_w00;d108_w01;d108_w02;d108_w10;d108_w11;d108_w12;d108_w20;d108_w21;d108_w22;d109_w00;d109_w01;d109_w02;d109_w10;d109_w11;d109_w12;d109_w20;d109_w21;d109_w22;d110_w00;d110_w01;d110_w02;d110_w10;d110_w11;d110_w12;d110_w20;d110_w21;d110_w22;d111_w00;d111_w01;d111_w02;d111_w10;d111_w11;d111_w12;d111_w20;d111_w21;d111_w22;d112_w00;d112_w01;d112_w02;d112_w10;d112_w11;d112_w12;d112_w20;d112_w21;d112_w22;d113_w00;d113_w01;d113_w02;d113_w10;d113_w11;d113_w12;d113_w20;d113_w21;d113_w22;d114_w00;d114_w01;d114_w02;d114_w10;d114_w11;d114_w12;d114_w20;d114_w21;d114_w22;d115_w00;d115_w01;d115_w02;d115_w10;d115_w11;d115_w12;d115_w20;d115_w21;d115_w22;d116_w00;d116_w01;d116_w02;d116_w10;d116_w11;d116_w12;d116_w20;d116_w21;d116_w22;d117_w00;d117_w01;d117_w02;d117_w10;d117_w11;d117_w12;d117_w20;d117_w21;d117_w22;d118_w00;d118_w01;d118_w02;d118_w10;d118_w11;d118_w12;d118_w20;d118_w21;d118_w22;d119_w00;d119_w01;d119_w02;d119_w10;d119_w11;d119_w12;d119_w20;d119_w21;d119_w22;d120_w00;d120_w01;d120_w02;d120_w10;d120_w11;d120_w12;d120_w20;d120_w21;d120_w22;d121_w00;d121_w01;d121_w02;d121_w10;d121_w11;d121_w12;d121_w20;d121_w21;d121_w22;d122_w00;d122_w01;d122_w02;d122_w10;d122_w11;d122_w12;d122_w20;d122_w21;d122_w22;d123_w00;d123_w01;d123_w02;d123_w10;d123_w11;d123_w12;d123_w20;d123_w21;d123_w22;d124_w00;d124_w01;d124_w02;d124_w10;d124_w11;d124_w12;d124_w20;d124_w21;d124_w22;d125_w00;d125_w01;d125_w02;d125_w10;d125_w11;d125_w12;d125_w20;d125_w21;d125_w22;d126_w00;d126_w01;d126_w02;d126_w10;d126_w11;d126_w12;d126_w20;d126_w21;d126_w22;d127_w00;d127_w01;d127_w02;d127_w10;d127_w11;d127_w12;d127_w20;d127_w21;d127_w22
0;0.0041111605;0.15938641;-0.36830285;-0.07827378;-0.31322736;-0.2123658;0.10244199;-0.17972642;-0.040334344;0.29024392;0.44308478;0.4371508;0.32878438;0.19657907;0.060132664;-0.22171596;-0.30417517;-0.026870534;0.13258861;-0.011185595;-0.2594629;0.4977195;-0.021476785;0.1086605;0.68912864;0.08069655;-0.1645268;0.21347831;0.20909683;0.13136558;0.05858952;0.18334302;-0.14007191;-0.05904552;0.4279958;-0.09869101;-0.17748572;0.13222145;-0.34512883;-0.35516715;0.06088107;0.026138851;-0.5095903;-0.33517644;-0.5732068;-0.31817508;0.07855612;-0.33664075;-0.3442596;-0.18101095;-0.20481326;-0.11601757;-0.2337744;-0.24175584;-0.08026008;-0.15585892;0.10692086;0.20395899;-0.21280678;0.14213197;0.27184853;-0.12503913;0.12383417;0.24440762;0.20836207;-0.17509225;0.021338886;0.36902654;0.055270318;0.35624608;0.34042463;0.08564106;0.11110724;0.14090192;-0.3636528;0.41490057;0.29510787;-0.25763524;0.028406514;0.008355076;-0.55172145;-0.21931666;-0.020579334;0.29846084;0.27273092;0.12860483;-0.083742544;-0.037179768;-0.085663594;-0.22057983;-0.328463;0.07865023;0.2955245;-0.20998831;0.33673653;0.069756486;0.13130507;0.05956773;-0.549269;-0.35168257;-0.14667153;-0.4105557;-0.123271555;-0.008232643;-0.2227657;-0.012496734;0.20254835;-0.020928267;-0.05152721;0.13963261;-0.15373085;-0.19894375;-0.13102476;-0.053617325;-0.32457355;-0.05939668;0.18394263;-0.10363862;0.7010537;0.50877345;0.71755713;0.5602261;0.37292418;0.5436993;-0.13038087;0.109472185;0.51450205;-0.51174814;-0.19665612;-0.4157399;-0.47480285;-0.3598905;-0.4305402;0.23253308;-0.08033382;-0.025753118;0.019192686;0.64581376;0.36685848;0.24747622;0.22047241;0.13751316;0.4319032;0.09987089;-0.0839304;-0.032928802;-0.29625696;-0.40586475;0.35960394;-0.19257943;0.17300186;0.1059444;-0.35196394;-0.23093002;0.2059275;0.05117279;0.32661837;0.1960056;0.1112381;-0.20244154;-0.21319208;-0.063033;-0.35084823;0.15399738;-0.13172762;-0.254465;-0.039983507;-0.124267906;-0.184212;0.2674377;0.33229774;0.055895515;-0.81209695;-0.2268594;-0.013447737;-0.11517625;-0.05806756;0.26635665;0.2032764;-0.082980625;-0.040302858;0.42345068;0.11688269;0.26173648;0.34150943;-0.053786233;0.12756069;0.42662764;0.10959207;-0.049643062;-0.02421979;-0.18130964;-0.39398286;0.49501005;0.25567037;-0.1930068;0.1585837;-0.39137268;-0.0099353045;0.51983094;0.17701548;-0.4173863;0.57239306;0.529991;-0.26387414;0.0737654;0.24805726;-0.39419335;-0.02615654;0.0016107892;0.17600659;0.17803472;0.30291167;0.07095452;-0.070503734;0.117180444;-0.275633;0.09295926;0.04359458;0.21466763;0.24314664;0.17207383;0.16515632;-0.2496774;0.11239516;0.3320296;-0.121992506;0.20536518;-0.06696055;-0.078450754;0.20120765;0.061722983;-0.4025997;-0.370678;-0.16856362;0.07210985;-0.2752693;-0.230634;0.08795877;0.052362144;-0.21302469;0.12007896;0.017730974;-0.29419273;-0.1845508;-0.03877575;-0.8651128;0.23264861;0.22270815;0.28777876;-0.14120036;0.20786376;0.40692255;0.13217075;0.41813916;0.2209107;0.39514506;0.28044406;-0.25397742;0.258555;0.12887573;-0.16998538;0.10864692;-0.14754464;-0.16313204;0.13799308;0.2164393;-0.16880196;0.2447731;0.36873642;0.32317346;-0.039749596;-0.08329061;0.42441517;-0.010280238;-0.139295;0.32306394;0.24059084;0.32415664;0.48497286;0.16680464;0.07207401;-0.33399436;0.26028368;0.16740248;-0.40855995;0.21748723;0.0033320007;-0.41603565;-0.39014655;-0.67060465;-0.21241368;-0.2191404;-0.28862327;0.42063323;-0.46774045;-0.5773246;-0.14295323;0.08802895;0.18766503;-0.32354817;-0.21166922;0.0033351795;-0.4256815;-0.19783656;-0.1337165;-0.4773158;-0.007219263;-0.022388006;-0.16962337;-0.0007212147;-0.041490518;-0.16956785;-0.13079037;-0.14313495;0.09364518;-0.42259353;0.38282776;-0.094173804;-0.5765472;-0.033034466;-0.15320048;-0.6386698;-0.30478534;-0.20020145;-0.2577875;-0.49418363;-0.6267519;-0.09032735;-0.13763984;0.03771784;-0.037218627;0.030995445;0.1371241;-0.14529635;0.095315956;-0.36341313;0.59690225;-0.061169524;-0.10680389;0.49728677;0.35706264;0.0067983456;-0.166481;-0.2957274;-0.4645169;0.121743865;-0.22723262;0.10973486;0.31386805;0.061038397;0.3177018;0.21451177;0.32133874;0.49020442;-0.19209012;-0.12606396;0.110170655;0.14355712;-0.046382293;-0.16111983;-0.16663718;-0.08898719;-0.25380933;0.15281379;0.09707648;0.022156335;0.15344119;0.16561322;0.3158972;0.17050737;0.36326772;-0.07841262;-0.07239481;0.21050829;0.19675559;0.11559384;-0.1321547;-0.69393516;0.13023567;-0.16551882;-0.036886565;0.12491288;0.046346333;-0.002664725;-0.35521486;-0.34356567;-0.19557834;0.24889268;-0.19722915;0.19644842;-0.09620842;0.02857864;0.33790147;-0.11585253;-0.48940694;0.33645558;0.009527839;-0.17879932;-0.4523386;0.34579802;0.27039304;0.20349863;0.13746032;0.18851857;-0.023785671;-0.16413468;-0.011742873;-0.2815691;0.36471522;0.05501782;0.24744987;-0.09658419;-0.38095802;-0.110870905;-0.37650725;-0.13901448;0.21626389;-0.61742884;-0.02241862;0.17807904;-0.26403338;0.051806994;0.06493299;0.17370234;0.20852731;0.43226916;0.42336267;0.23324639;0.3798665;0.40748268;-0.1285792;0.18539418;-0.19931082;-0.25633895;-0.17208809;0.12836917;0.083114445;0.02099729;-0.13795966;0.18609154;0.23168463;0.1760289;0.47872406;0.5108803;-0.029877894;0.2057541;0.047315724;-0.15807152;0.08303823;0.10051805;-0.63789475;-0.20678607;-0.32596827;-0.5179075;-0.3957962;-0.16477235;0.1458386;-0.27333686;0.2964715;0.3829588;-0.04851171;0.016832583;0.33628574;0.21998523;-0.13713805;0.62390244;0.023824397;0.3823676;-0.23097795;0.3564816;0.11523021;-0.5512022;-0.10578927;0.22591421;-0.41836837;-0.15269792;0.15988068;-0.02604563;0.016588463;-0.3258144;-0.3722274;-0.10468489;-0.0038875712;0.049339455;0.21807297;0.11008606;-0.22558889;0.46781892;0.64645916;0.05789786;0.5009609;0.22571242;-0.27447495;0.08712838;-0.27549362;-0.07101773;-0.14017887;-0.25322098;-0.19302869;-0.23260066;-0.36484942;-0.050806727;-0.1377517;-0.13774402;0.044841755;0.4451537;-0.27996045;-0.16744888;0.10086335;-0.45751277;-0.115087055;0.15230073;-0.38797396;-0.3473049;-0.48966187;-0.803816;-0.40837544;-0.4058045;-0.67826736;0.22125557;0.18545258;-0.18285643;-0.20426705;0.0279738;0.2234532;0.051708806;0.17981423;0.07636304;-0.10963589;-0.010744803;0.25698444;0.06025457;-0.1304806;-0.04173174;-0.3357289;0.0029020058;0.040180147;-0.06897552;0.12783085;-0.12699568;-0.08135218;-0.20984529;-0.31007612;-0.18295765;-0.43918228;-0.26933086;-0.35295355;-0.15436728;-0.020619782;-0.3279555;-0.89268786;-0.19555895;0.21001467;-0.12663183;-0.20584944;0.65730965;0.57659024;0.14773181;0.2529516;-0.18403135;-0.39197895;0.43581614;0.1383343;0.028900895;0.26164013;0.33612573;0.3102021;0.24308711;0.33503646;0.57003707;-0.20251516;-0.3917561;-0.015186993;-0.48410898;-0.31010064;0.12373235;-0.4229692;-0.13455296;-0.3025826;-0.2778116;-0.29066136;-0.34779632;0.10903486;0.20325968;-0.23980471;0.7792492;0.28518462;-0.04661976;-0.13393769;0.02395327;-0.12639229;0.4059545;-0.19984859;-0.25858465;-0.27460045;0.032027975;0.052373346;-0.08779086;0.058412623;0.08149949;-0.4385435;-0.23247765;-0.7873287;0.17988873;0.28348;-0.24364452;-0.006188143;-0.010085299;-0.2317038;0.10509462;-0.073248036;0.296346;-0.12290231;-0.07025532;0.3622837;-0.15196368;0.14936653;0.28187788;-0.3372057;-0.112350814;0.030139923;-0.20093025;-0.089964025;0.18653923;-0.24108982;-0.09782649;0.0984737;-0.24729863;0.1291915;-0.15593399;0.20209597;0.34546196;0.21333705;-0.06953333;-0.08134514;-0.018680641;0.40113208;0.29750606;0.29983556;0.51586455;0.022042299;-0.14088115;0.3609641;0.023511816;0.1305216;0.20413633;0.085899785;0.2106228;0.56543505;-0.2153096;-0.71953;-0.13269553;0.012515376;-0.38961118;0.09300155;0.052564587;-0.48770985;-0.059693936;-0.14148249;0.12125815;-0.045434497;-0.31865245;-0.33878195;-0.47377706;-0.14732774;-0.10674036;-0.19098064;0.056393933;0.08509753;-0.28188786;-0.40375522;-0.06485061;-0.13633555;-0.4604681;-0.11114433;-0.3497315;-0.34605354;-0.072771244;-0.33569223;-0.26358056;0.11000708;-0.5986934;0.14103566;-0.018056907;-0.26260507;-0.27155495;-0.58448964;0.18599156;0.20370822;0.5326626;0.18342465;0.13833542;0.34265092;-0.19544211;-0.15596484;-0.31131542;-0.60318756;-0.46620044;-0.62012225;-0.12614834;-0.141114;-0.006217705;0.2824189;0.40755808;0.3789708;0.10355776;0.4082822;0.20894444;-0.14106192;-0.16706723;-0.13105817;-0.18576622;0.089816086;0.40483728;-0.5714342;-0.25840947;-0.20966016;-0.775499;0.098916106;0.009159384;0.17660618;0.04347842;0.4085138;-0.045371003;-0.07856512;0.023776809;-0.2044385;-0.22041722;0.2084149;-0.59387285;-0.4012473;-0.46328637;-0.5433842;-0.07194446;-0.8356815;0.027480764;0.34764007;-0.10423594;0.07228071;-0.008454174;-0.03216994;-0.3347001;-0.28033748;-0.39678332;-0.27635688;-0.04396653;-0.18891095;0.15786484;-0.12690854;0.41521987;0.11124406;0.19978914;0.27053827;-0.11000228;-0.29896358;-0.58839047;-0.07264694;0.010500774;-0.63114876;-0.5952999;-0.6047527;-0.29083598;-0.46801642;-0.27553985;0.03574178;-0.19365801;-0.07547414;-0.034368917;-0.1695377;-0.055377737;0.17573188;0.06813296;0.014536704;0.39685127;-0.32490185;-0.34699678;0.022959664;-0.020977398;-0.068400964;-0.05990583;-0.41650006;-0.5266016;-0.17217161;-0.019978246;-0.022170033;0.0705662;-0.17256522;-0.0134480605;-0.10219695;-0.32659346;-0.03792058;-0.15918434;-0.17385697;-0.0032926318;0.23164116;-0.08094515;0.22206694;-0.33546692;0.18216664;0.11068342;-0.63526934;-0.26212528;-0.28840342;-0.22974682;-0.07560927;-0.109805346;-0.30722645;0.1141271;0.14561023;-0.10570116;0.17244826;-0.2161362;-0.037751637;0.4155225;0.15224417;0.10365933;0.30071378;0.03890141;0.09474839;-0.09036901;-0.076032594;-0.02129323;-0.091356084;-0.088491626;0.13349636;-0.09829279;-0.14922997;0.23198089;-0.17282994;-0.46187153;-0.41998148;0.003435398;-0.1262422;-0.27856874;0.03456932;-0.32065037;-0.09587981;0.3604711;-0.35053697;-0.053224813;0.17307994;-0.19263498;-0.045876786;0.15586673;-0.06791735;-0.35084873;0.32493386;-0.4804494;-0.24674095;-0.18264599;-0.18001945;-0.10737036;-0.089959405;-0.07632669;-0.066264875;-0.2026124;-0.49289197;0.058040094;0.12215227;-0.22042578;0.13039236;-0.16851948;-0.26610032;-0.115407795;-0.08289457;-0.45122457;-0.69088364;-0.12412731;-0.29226908;-0.31591168;0.05703018;-0.046274662;-0.1433814;0.7330164;0.05800459;0.3492248;0.37551644;-0.055920303;0.18724835;-0.41663876;-0.25190625;-0.16913274;-0.4420289;-0.102938;-0.7608726;-0.25662327;-0.13112022;-0.73684156;0.099989355;0.023643028;-0.10271051;0.54575175;0.13609241;0.07686866;-0.037648257;0.0044522444;-0.1955771;-0.08259312;0.35107803;0.07493964;-0.12883365;0.07508127;0.17790015;-0.5220933;0.10651473;0.21075448;-0.51099336;-0.3985678;-0.40624622;-0.6139282;0.09698481;-0.39129874;-0.15147981;0.29767746;-0.15157332;0.18880354;0.85315603;0.29990178;0.2707639;-0.43655485;-0.3164269;0.34891164;0.07042774;-0.12856644;0.10673881;0.03503965;-0.17694272;0.1268632;0.0023554512;0.013947239;-0.27702975;-0.1698834;0.021875687;-0.22268869;-0.37994412;0.17148031;-0.26853645;0.23844476;0.18097003;0.19469583;0.43350276;-0.00030761654;0.26886913;0.2284554;0.23425141;-0.049222466;-0.255143;-0.38456988;0.079698965;0.3149031;-0.0407854;0.030825077;0.12325343;0.09987125;0.19952656;-0.43237242;-0.62670213;-0.25938398;-0.2752674;-0.5767295;0.26759872;0.41852528;0.32528955;0.42538184;0.24300201;-0.07566944;0.21257249;0.22897223;0.0244129;0.18052462;0.12548713;-0.010609711;-0.088835366;0.12870686;0.10410537;-0.065344736;-0.08056484;0.025635041;-0.22008239;-0.35898402;0.08916863;0.027461516;-0.22588043;0.0027194242;-0.22767204;-0.28739324;-0.331931;0.077630684;-0.05087135;0.00588046;-0.08535887;-0.3352736;-0.5071264;0.29133123;0.20023616;0.30700418;0.22280651;0.049041912;-0.062473167;0.20192271;0.20867305;0.39212865;0.15608983;0.2959081;0.31486997;-0.38095295;-0.029599074;0.21151404;-0.023013495;0.30274805;-0.1165637;-0.41687956;-0.08738716;-0.32721433;-0.04344372;0.05808388;-0.12269651;0.5351387;0.16930906;0.50624305;0.26013312;0.19700184;0.3086691;-0.117018096;0.12178772;0.10514359;-0.07293647;-0.31331566;-0.17359743;0.076754354;0.0608094;-0.050624955;0.432362;0.5475034;0.7192112;-0.5198186;-0.20023555;-0.27864277;-0.16681498;-0.3091923;-0.2719361;0.11530385;0.12032577;-0.04464113;0.34132388;-0.20408131;-0.008452153;-0.11531392;-0.500403;-0.19736603;-0.3185728;-0.034449592;0.0124575505;0.062206276;-0.07235095;-0.08871998;0.10273819;0.30547366;-0.036597516;-0.22388306;0.05916948;0.03423878;0.13993259;-0.0041799736;0.23124668;0.059099905;-0.06568559;-0.07756726;-0.3784675;0.26706412;0.06400326;0.08622825;0.13396502;-0.11964163;-0.017628487;0.20679784;-0.16885427;-0.4241253;-0.20961618;0.14822793;-0.51243013;-0.62102044;-0.1102438;-0.48649988;0.028967135;-0.24511276;-0.21214433;0.26641425;0.09686333;-0.043379415;-0.40528715;-0.7289216;-0.21147732;-0.14109655;-0.029974028;0.1800998;0.40091664;0.24185209;0.13764569;-0.061509192;0.3799642;-0.0016953336;-0.07906355;-0.27511492;0.163579;-0.019381119;-0.048726063;-0.36186394;-0.40190375;-0.1920926;-0.02291856;-0.27654934;-0.054922108;-0.37767315;-0.29675058;-0.022175057;0.016351687;0.09964152;0.16202764;-0.12387023;-0.014387599;0.21740572;-0.20662256;0.20041886;-0.26758248;-0.046213686;0.30524302;-0.15991075;-0.32816347;-0.13427769;-0.3096391;-0.3612273;-0.34665284;-0.44358492;-0.035068255;-0.024361387;0.21646579;-0.029764334;0.047438364;0.14628257;-0.27956116;-0.10575942;-0.008110326;-0.5712382;0.65489465;-0.08700731;-0.38315776;0.17533536;-0.36362466;0.19669868;-0.13723177;-0.31645378
1;0.002359615;0.036802303;-0.081936754;0.16847214;-0.16830945;0.047639016;-0.15255058;-0.25878185;-0.33738068;-0.31054947;0.53620017;0.17304024;0.31155634;0.34889668;0.24668357;0.14984098;-0.09860819;-0.17315552;-0.64034426;0.17943615;-0.029811967;-0.14948608;-0.28606412;-0.23795512;0.09913116;0.2462501;0.0059184036;-0.045786083;0.18277286;0.12470142;0.34200516;0.23124513;0.045166817;0.07526468;-0.055484496;-0.18186168;0.07892082;0.7061522;0.42735565;0.09863283;0.43937066;0.1863336;0.09180105;0.16567868;-0.1058971;-0.16429779;-0.2310785;0.060458466;-0.11079034;0.023424836;-0.017843751;0.007612522;0.08579851;0.04417772;-0.2054805;-0.22929211;0.16375077;0.042302094;-0.3412789;-0.34714133;-0.26901624;0.2899584;-0.056106806;-0.027717426;0.030623559;-0.2384581;0.0757463;0.3606305;0.20364268;0.2276862;0.47869346;0.5699872;-0.104862034;-0.34329796;-0.2325722;0.28265026;0.2223708;-0.09704997;0.39670432;-0.053572703;-0.07285218;0.08433895;0.25782493;-0.008262101;0.25211063;0.05004209;0.39015707;0.43727055;-0.10444601;-0.008451193;0.36423627;0.083750434;-0.11508033;-0.59211636;0.045878727;0.054890055;0.052593153;0.3346856;0.36949325;0.2502648;-0.14388046;-0.22544941;0.17856953;-0.12845191;-0.30602628;-0.11129604;0.24747637;-0.044272486;0.14765783;-0.069211565;-0.17917365;-0.017825741;-0.27984872;-0.039860547;-0.5512993;0.09776866;-0.112957716;-0.36788577;0.15814829;0.50230026;-0.22173822;0.22343634;0.33177945;-0.45222446;0.0054956875;-0.633232;-0.4626028;0.01869039;-0.1610018;-0.13310093;-0.0656413;0.08374902;0.27214926;0.018770041;-0.2076247;0.44787276;0.38633934;-0.075513184;-0.01880783;0.33949372;0.36628997;0.19278967;-0.31836718;-0.14950177;-0.113157764;-0.4056191;-0.46430212;0.08521658;-0.012751843;-0.23433314;0.045853443;-0.21769048;-0.49248007;-0.32688174;0.25518534;-0.13355966;0.09909716;0.08186474;0.019445267;-0.1642949;-0.18154192;-0.17432292;-0.15564045;0.086117946;-0.03300416;0.070155755;-0.16360034;-0.20426734;-0.5430386;-0.37590292;-0.1143524;-0.4661151;-0.6423257;0.081275746;0.33224052;-0.2712679;0.457784;0.6070683;0.08932641;0.24737334;0.36679226;-0.35788855;-0.2163264;0.27149308;-0.06714459;-0.25351062;0.13048254;0.20144106;-0.3642703;0.65912914;0.24417418;-0.009755626;-0.13521138;0.5582156;-0.100766785;-0.2064025;0.7694761;-0.19793108;-0.43620437;0.1610287;0.2970005;0.2836494;-0.13881953;0.20379083;-0.0036230176;-0.091884874;0.002827672;-0.16589949;-0.22830673;-0.43177044;-0.13585551;0.11757043;0.088575274;0.30543777;0.11580996;-0.10774455;0.15223515;-0.16068463;0.09675972;-0.04979319;-0.6730825;-0.4101413;-0.47361547;-0.60534066;-0.39349017;0.06562964;-0.14906152;0.23584794;0.2734691;-0.12295721;-0.3460022;-0.13231473;0.18672293;0.0014934994;-0.2728489;-0.43487373;-0.35087785;-0.30328718;-0.13888066;-0.21627118;-0.22258893;0.013485681;-0.10309936;0.059793577;-0.42192686;0.016484525;-0.17121997;-0.6930435;-0.4388999;-0.7042791;-0.035124246;-0.047051825;-0.046205208;-0.010532448;-0.0683431;-0.08995242;0.4764764;0.3726502;-0.17987227;0.27048337;0.28695768;0.2226668;-0.36860496;-0.03954272;-0.16518624;-0.26182437;-0.22730348;0.044710234;-0.34953496;-0.4584879;-0.31042066;-0.21495262;-0.35233596;-0.05081098;0.05795663;0.0007871067;0.25316402;0.30918446;0.22151874;0.15113848;-0.12675685;0.19714192;0.20062461;0.021891892;0.13683294;0.30946591;0.27823305;0.284137;0.60990524;-0.34095374;0.06281586;0.003932244;0.11849672;-0.26393571;0.119746864;-0.0014660673;-0.26464894;-0.24710248;0.2556275;0.20563798;0.04135459;0.18413712;0.057819933;-0.25358084;0.38436666;0.19748138;0.006400549;-0.13487887;-0.12172315;0.1140263;-0.09189833;-0.099369876;0.04014855;0.4774572;0.36945778;0.34122062;-0.4492752;-0.2564671;-0.44122607;-0.5609756;-0.21192622;-0.006030143;-0.92820644;0.47403684;0.49968022;-0.26854673;0.07060018;0.14584531;-0.004170758;0.18818228;0.44898176;0.06076917;-0.26431185;-0.22788374;0.077623844;0.00016242929;-0.037784733;-0.016811537;-0.4085624;-0.44883412;0.21853884;0.15060347;0.26299247;-0.09616939;-0.014145647;0.024882039;-0.61068106;-0.115096256;-0.37640983;-0.16125424;0.18493865;-0.07318308;-0.039909523;0.061210398;0.45577613;0.23778853;0.14094798;0.24268423;0.10312222;-0.41340002;-0.05700887;-0.48089284;-0.40509206;-0.03287661;0.13289599;0.13070837;0.40698677;0.533193;0.2217362;0.25301027;-0.10351805;-0.21683075;0.2956299;0.24589898;0.0059362357;-0.044414207;0.15578249;0.41522375;0.13548158;-0.18815555;-0.030690236;-0.27508944;-0.21134287;0.31391397;0.082391664;0.38826984;0.38916704;0.29581526;-0.18720974;0.061421037;0.29872528;0.0037586165;-0.30994377;0.22910191;-0.07157125;-0.6439832;-0.22818048;-0.25505587;-0.0761604;-0.37347263;-0.07272422;-0.18047015;-0.24340668;-0.10490946;-0.6083315;-0.6217641;-0.055940714;-0.42161304;-0.4763255;-0.53405297;-0.29733902;-0.0638324;-0.31369364;0.15394956;0.008133702;-0.48004955;-0.21700367;0.3485668;-0.71799624;-0.4312553;-0.17969966;-0.3029371;-0.24160157;-0.37675202;0.13980709;0.44926846;0.12303871;-0.2640366;-0.102416575;-0.11322265;-0.50066584;-0.29830256;-0.044135317;-0.25533268;0.07976976;0.075510085;-0.4809679;-0.27135128;-0.42018887;-0.04066069;0.1421298;-0.24765947;-0.0983541;0.09300165;-0.019909145;0.025059145;-0.25630224;-0.23541096;0.27791667;-0.39996916;0.029378373;0.038777724;-0.0674405;-0.016011763;0.20691517;0.021514706;0.16142634;0.30810332;0.27180433;0.096273094;0.4704321;0.18686597;-0.0055173403;0.08983983;0.03616485;-0.081521116;-0.27812773;0.10861527;0.22559358;0.03499836;0.64569956;0.103532515;-0.040538423;0.44056797;-0.049399897;-0.11676582;-0.26961002;-0.25236848;-0.0104772085;0.29467478;0.2423633;0.21531083;0.2427086;-0.07757931;-0.3150864;-0.45616075;-0.5547232;0.39151758;0.21267697;0.32695717;-0.2559046;-0.29556313;-0.06466755;-0.09156964;-0.1251073;0.15787855;-0.21174291;-0.06893804;-0.2819777;-0.025632998;0.010601053;-0.14541435;0.19902909;0.2789634;-0.15327911;-0.23157106;-0.20526665;-0.54681915;-0.020806948;-0.15817475;-0.25188282;0.3498767;-0.5904942;0.094265126;0.22955275;0.23384175;0.27038106;-0.102923155;-0.10273115;-0.027111242;-0.04199594;0.056110296;0.009108619;-0.44588253;-0.18893996;-0.08645105;0.1225637;0.08404123;-0.046209138;0.13237001;0.043610696;0.15383358;-0.071861975;-0.24314974;-0.3374478;0.14050433;0.07925788;0.11512189;0.1641287;0.3433352;0.07956983;-0.58003825;-0.30334187;0.2235659;-0.49801955;-0.24874459;-0.03408014;-0.42267895;-0.58723587;-0.011433664;-0.47131535;-0.031180445;-0.093807735;-0.2856757;0.098634034;-0.43480054;0.12903906;0.21652356;0.22188239;-0.07404635;-0.29373756;0.1191106;-0.540416;-0.3295231;-0.4032112;0.089296386;0.16013235;-0.08135406;0.52242684;0.40128154;0.21099715;-0.38113534;-0.2814983;-0.14775006;-0.33377138;-0.27780157;-0.24856713;0.105365485;0.24757683;-0.2535186;0.18735759;0.5198564;0.16726811;0.20434223;0.23951316;0.43299827;-0.1684468;-0.4790342;-0.042534135;-0.008324273;-0.13620225;0.09312814;-0.022544384;0.014055097;0.25074607;-0.09398636;-0.23489513;-0.38945818;-0.5236052;-0.48795804;-0.32839176;0.20287986;0.054085545;0.056278724;0.19677977;-0.037882756;0.11426257;0.09744416;-0.092867665;0.21050993;-0.38343188;-0.14968461;0.11703611;-0.3141355;-0.48650837;-0.33590272;-0.48871362;-0.42070985;-0.4794884;-0.37172347;-0.17418186;-0.5344338;0.045389004;0.514465;0.18108232;0.056331635;0.36428556;0.23668489;0.40322253;0.23076034;0.09249495;0.12795243;-0.03364711;-0.19255178;0.12937489;0.23799355;-0.12064258;0.009651267;-0.28302592;-0.5117218;0.22321963;0.06310059;-0.40729257;0.00969219;0.75971365;-0.08952337;-0.28462997;0.13916725;0.21529984;0.16507278;0.4044968;-0.3654287;-0.34322134;-0.08069897;-0.046192966;-0.05294812;0.30371198;0.09595509;-0.19694506;-0.25918293;-0.47919732;-0.010120368;-0.40425265;-0.32962373;-0.20092393;-0.19197205;-0.0973855;0.501885;-0.16956277;-0.11063112;0.3132652;-0.07227738;-0.052996982;0.35295084;-0.034759168;0.32006285;0.24020621;-0.3131677;-0.49301258;0.06385638;-0.26882106;-0.6232028;0.094172336;-0.12020853;-0.34218785;-0.12199929;0.005599447;-0.054143712;0.21979101;-0.13520761;0.32097974;-0.09334149;-0.21771717;0.07595352;0.25992197;0.14589746;0.3406087;0.009637815;-0.19634539;-0.3065121;-0.009199799;0.013979314;-0.14016853;0.024993895;-0.3295827;-0.672713;-0.15110356;-0.10942163;-0.5948483;-0.17581409;-0.19438505;0.038168196;-0.031175364;-0.24091724;-0.050091527;-0.2655144;-0.22356984;0.20917462;-0.46207023;-0.20139344;-0.009220931;0.27473772;-0.39034438;-0.5426131;0.1224334;-0.27596304;-0.11231569;-0.3813157;-0.59047425;-0.22223738;-0.3601007;-0.25941303;0.12644051;-0.029028896;-0.048066117;-0.0016264475;-0.0014910827;-0.23329596;-0.26590264;0.07513046;0.2982033;0.4469984;0.40612605;0.21917075;0.15503497;0.21761224;0.18508089;0.3812604;0.22684222;0.2229326;0.08114787;0.018137213;0.051517673;0.21978568;0.11973385;0.3518713;0.16579768;0.18887708;0.05962339;-0.1775827;-0.13266908;-0.57529193;-0.61144567;-0.3951794;-0.6779173;-0.28670886;0.061921746;-0.2153479;0.12796193;0.0783356;-0.1492244;0.025541954;-0.19459762;0.18247895;0.11677832;0.30956417;0.26598734;0.11335499;0.18889043;0.09293481;-0.19266409;0.19921893;-0.37855962;-0.30819684;-0.060403645;-0.04362481;-0.35533533;0.04056748;0.05395959;-0.0038865919;0.19769768;-0.4445475;-0.17938977;-0.2990404;-0.3098064;-0.38764817;-0.34591636;-0.100992486;-0.4008213;0.2789702;-0.2722976;-0.38215494;0.11560595;-0.27232298;-0.2187818;-0.333999;-0.42461875;-0.42960176;-0.043035705;-0.025800062;-0.41008264;-0.049105775;0.46811056;0.37704325;0.043416973;0.3329868;0.17805691;0.51500124;0.008336307;-0.038193658;0.11001224;0.16920274;0.10571022;0.22868046;0.41359785;0.40190405;0.26989064;0.11266152;0.4341805;-0.3035721;-0.23900332;-0.2510229;-0.49672213;-0.31983542;-0.46204683;-0.11745076;0.019985406;0.06155011;-0.21051328;-0.011668612;0.06866607;0.07495024;0.2803691;-0.08377318;0.72328585;0.88816106;0.36994383;0.545831;-0.1693973;-0.053817034;0.20844448;0.05625935;-0.14275666;0.60877275;0.33050525;0.04281219;-0.2386042;-0.04880082;-0.1622762;0.13030268;0.18045162;-0.015993515;0.09322773;0.06199917;-0.13279594;0.34773308;-0.11732092;-0.014677753;-0.31522748;-0.44920498;-0.25944605;-0.6676691;-0.6513503;-0.42877367;-0.2947799;-0.74444836;-0.52660155;-0.16989395;-0.3174211;-0.3339652;0.27424973;0.18947333;0.04626813;0.2588572;0.3550591;0.56823367;0.15039565;-0.010601276;-0.065828085;-0.3063897;-0.4302328;-0.21331432;0.35495782;0.41274184;0.17751336;0.26182896;0.30700204;-0.23211281;0.20482461;0.26147336;0.050098613;0.17511319;-0.12654795;-0.35622507;-0.4297071;-0.016441738;-0.27239653;0.102494776;0.17066075;0.01762585;-0.538945;-0.16921397;-0.10195234;-0.325683;0.22007793;0.31060442;-0.26388383;0.005047125;0.096040204;-0.05837713;-0.25370613;-0.24172936;0.12052829;-0.08116972;0.07489407;0.09891028;0.11049634;0.36984447;0.3106768;-0.36630794;-0.07783164;-0.2995061;-0.6960271;-0.02389351;-0.45866132;-1.04303;-0.37250337;-0.17363317;0.23251423;0.23489453;-0.5070508;0.027255546;0.14169107;-0.058682594;0.024380013;-0.39849874;0.1322343;0.26075047;0.17694314;-0.008139302;0.3499957;-0.049136776;0.11009295;0.21418485;-0.54506123;-0.57022053;-0.47752222;-0.21767972;-0.48223191;-0.1202922;-0.19750525;-0.18079796;-0.37271392;-0.5794216;0.1398203;-0.034768276;-0.15549704;0.17950894;-0.09266181;-0.22281276;0.11405342;0.21478431;-0.15678608;0.5368713;0.1459673;0.21649367;0.0060163937;0.30442658;0.003846752;-0.6980042;-0.2400153;-0.13772158;-0.49643886;-0.066899516;-0.17506348;-0.28704977;0.28895926;0.11140997;0.45571652;0.5964291;0.43719098;0.08677848;0.25111392;0.41851974;0.012580427;-0.14000429;-0.19457635;0.16553052;0.037509147;0.29335767;0.15332258;-0.018532658;-0.3570326;0.022923738;0.040918335;-0.054667227;-0.37451795;-0.36075613;-0.5568475;-0.3637235;-0.26183116;-0.19544663;-0.4044285;-0.49145925;-0.43110898;-0.22872443;-0.1055697;-0.28783774;-0.11122379;0.10049244;0.32374012;0.06329285;-0.03601695;0.099149846;0.12723559;0.15194015;0.26835626;-0.16986841;-0.44436106;0.118280225;0.17768274;0.3434249;0.16177471;0.05659163;0.49194765;0.3587812;-0.089728616;0.010798789;-0.10471225;0.14315379;0.2722257;0.13572979;0.12305485;0.30381793;0.16677473;-0.29021168;-0.05476835;-0.097625166;-0.041918285;0.10348094;-0.40697917;-0.0738734;0.03531743;-0.08481145;0.0283869;0.30634072;0.36674923;0.4034643;-0.13093555;-0.021826992;0.20776612;-0.21064715;-0.20271173;0.08846542;-0.029718751;-0.16877578;0.2153154;0.0511496;-0.14459412;0.40105546;0.3806544;0.26915994;-0.46361217;-0.071867555;0.12888691;-0.5260882;-0.38926813;-0.34736907;-0.35956985;-0.16096206;0.12168485;0.036060583;0.16927885;0.06487207;0.22885217;0.13524416;0.006797456;0.04307681;0.029721865;0.03035635;-0.19551694;0.19334209;0.22566856;-0.27559367;-0.28201088;-0.20116046;0.28603598;-0.022674382;0.13460122;-0.2197384;-0.19979559;-0.32706332;-0.30619717;0.07145921;-0.18039952;-0.50268906;-0.35893738;-0.10307802;-0.10473071;-0.0062474427;-0.11474953;-0.14615202;-0.0683398;-0.06340204;-0.47121;-0.31168005;-0.33858415;-0.42165735;-0.2122886;-0.19138135;-0.4452107;-0.24768685;-0.2830366;-0.3035365;-0.2777016;-0.4985189;-0.28320014;-0.74588424;-0.115452565;-0.76124555;-0.5336427;0.026854765;-0.633811;0.070668;0.40540633;0.14363644;-0.05954124;0.07788881;0.06714976;-0.11482997;0.0019891039;0.07595531;0.4007458;0.1410605;-0.04062303;0.234583;0.20347245;0.27988374;-0.029531002;-0.011475261;0.50858384;0.16549972;0.30347136
2;0.0024599356;0.1687428;0.16910176;0.3189863;0.0186239;-0.023658909;-0.14755069;-0.27575228;-0.6324626;0.15657671;0.31673917;0.15089768;0.105726145;0.63228756;0.46462914;0.22982365;0.3682601;0.43968177;-0.05222121;0.29048473;-0.02885144;0.3158315;-0.25898212;-0.4632673;-0.21526845;-0.16225019;-0.13820568;-0.34960386;-0.19481555;0.15459076;-0.00875908;-0.31105623;-0.09745043;0.06274022;-0.4816369;-0.15056084;-0.3670367;0.6704834;0.2749082;0.35699835;-0.0981222;-0.21360451;-0.04638778;-0.15650964;-0.49222448;0.1583587;0.044362355;0.1604413;-0.24069576;-0.14796981;0.37180716;-0.16595088;-0.022709511;0.30340785;0.19075607;0.5956731;0.19878522;-0.754479;-0.47734994;-0.22772138;-0.46610877;-0.43705487;-0.25538307;-0.24260247;-0.024774244;-0.20293653;-0.43071878;-0.33727902;-0.19985926;0.045687877;-0.3475908;-0.31981254;-0.22140715;-0.74985045;-0.4208827;-0.62176776;-0.5173222;-0.34639442;-0.31925616;-0.30114192;-0.2509063;-0.086307384;-0.27134642;-0.30281207;0.109733626;-0.06739303;-0.3773119;-0.4266125;-0.16520451;-0.2465356;-0.08958042;0.0032729378;0.17366219;-0.21314259;-0.02328718;0.06523388;-0.005198975;0.015537658;0.11525683;0.14139986;-0.1962744;-0.23441985;-0.7298951;0.29099563;-0.1734774;0.35262194;-0.0045214905;-0.25864336;0.089711845;0.1823712;-0.21139166;-0.113004185;-0.49774092;-0.27475584;-0.008518489;-0.6811449;-0.28874105;0.086997785;-0.16072524;-0.18018796;-0.10793697;0.33868897;0.19727424;0.13464294;-0.36485153;-0.07384796;0.06879309;0.25623834;-0.05291461;0.36395237;-0.20026572;0.02449807;0.0031031866;-0.14553423;-0.15955517;0.24261573;-0.30089176;-0.31672263;-0.5253084;0.050485294;0.09791884;0.10713007;0.4233858;0.28665632;0.23797144;-0.19751425;-0.69905835;-0.13750462;0.52012324;-0.41008684;-0.113364816;-0.028121503;-0.2428112;0.44812906;-0.831771;-0.117666766;0.45599523;-0.24458504;-0.29463091;0.043401588;-0.21280918;-0.3292662;-0.14510566;-0.23806214;-0.16743717;-0.07884334;-0.15114327;-0.17836818;0.3384464;-0.31881976;-0.6662569;-0.28161013;-0.22791775;-0.13072939;-0.41883048;-0.3569114;-0.24935709;-0.4857851;-0.5846827;-0.044194903;-0.098964445;-0.010304439;-0.049676012;-0.07344119;0.18787828;0.024305865;-0.04263878;0.44243437;0.06126905;0.46600372;0.21547076;-0.10563764;-0.022446865;0.04568986;-0.54207224;-0.8078684;-0.2655815;-0.27081615;-0.35748816;0.17951465;0.40454608;0.27961963;0.099471934;-0.007955374;-0.26292413;0.23516381;0.053556386;-0.110287346;0.3236416;0.23841247;0.39688903;0.01520898;-0.073061004;0.23864119;-0.19489843;0.025704382;0.2698275;0.32610747;0.54993623;0.42260996;0.01817477;0.32960662;0.414203;0.06226575;-0.11497799;0.08261772;-0.14430773;-0.4342936;-0.44132352;-0.5746656;-0.4566441;-0.36499944;-0.2751213;0.08423731;0.030012203;-0.7729778;-0.42806858;-0.22043388;0.19955583;0.09058401;0.0010960748;0.20567024;0.15830609;0.23769212;-0.29477355;-0.77546674;-0.6048455;0.29704925;-0.054751195;0.14269139;0.10661366;-0.37714964;-0.029684307;-0.14052361;-0.18556757;0.17259663;0.23935442;-0.08432091;0.03563344;0.40510577;-0.15861778;0.0688808;-0.15679178;-0.009630984;-0.17201997;-0.26777413;-0.7102511;-0.46799535;-0.14974445;-0.36588058;-0.74997;-0.042009108;0.24270204;0.0029811722;-0.35485867;0.050200105;0.26007834;0.19947535;0.15878066;0.30441612;-0.5470886;-0.35364908;-0.37422448;-0.28863972;-0.43105602;-0.17516007;0.061377436;-0.13496456;-0.114927515;-0.15851748;-0.19465102;-0.03273787;-0.030952511;-0.120980546;-0.33077925;-0.093980946;-0.035182167;-0.13200001;0.15880404;-0.056154825;0.076867364;-0.11516238;-0.19139586;-0.076189175;-0.19295318;-0.033060376;0.13462737;0.042770945;-0.36513558;-0.31428525;0.2769787;-0.16814175;-0.1067796;-0.048862047;0.09233394;-0.070031196;0.3913809;0.3354403;0.54292864;0.31470996;0.035078023;-0.09325416;-0.062388867;-0.03332116;-0.119271755;-0.05816684;-0.27382782;-0.42225847;-0.40841615;-0.38392785;-0.21643259;-0.1489293;-0.13633503;-0.04077679;0.3170092;0.3708411;0.16433036;0.0062163114;0.122044966;0.16551515;-0.45366657;-0.10009856;-0.16892855;-0.1940555;-0.2646611;-0.23444125;-0.17491823;-0.46690816;-0.09285593;-0.14949408;0.09882352;0.17607187;-0.5236369;-0.3427736;-0.6860094;-0.21972579;-0.104663745;-0.3973129;-0.14477322;-0.028791148;0.11996334;-0.04926395;-0.3568703;-0.4445304;-0.23169039;0.015014508;-0.033853825;-0.007906108;-0.12637566;-0.5194735;-0.5029795;-0.5134103;-0.4783798;-0.3211259;-0.2302385;-0.53150475;-0.33180192;-0.05384098;-0.2568297;-0.24254152;0.2713627;0.37801322;0.07505716;-0.14434677;-0.3077762;-0.15982908;-0.11886052;-0.30892277;-0.02105517;-0.06260795;0.32835838;-0.18864524;-0.40378684;-0.3425543;0.21876617;-0.2971001;0.23133992;0.5577801;0.008033635;-0.24023351;-0.20485227;-0.33871087;-0.23286873;-0.24760957;-0.06074535;0.28161082;-0.04418487;0.28771463;0.0401066;-0.3502168;-0.006194678;-0.07734928;-0.10526087;0.020151006;0.10321514;0.21190435;0.370549;0.4614311;-0.07809236;0.013796884;0.043042626;-0.68266565;-0.25699726;-0.3753076;-0.27160928;-0.30052558;-0.39828706;0.042123895;0.021276418;-0.3955256;-0.16593221;0.17115495;-0.09733791;0.2194077;-0.1373032;-0.37327376;0.43245876;-0.36814943;-0.2904484;0.3760809;-0.012686346;0.2929702;0.4422079;0.7540917;0.682189;0.13487414;0.71114284;0.52633256;-0.30753696;-0.09214135;-0.07162217;-0.09178081;0.23500173;-0.032166544;0.15604228;0.4087888;0.004571438;-0.15045556;0.39657283;0.15381466;-0.20822561;-0.08504229;-0.19947204;-0.208053;-0.33068237;0.008394641;-0.07859051;-0.10764991;0.16641535;0.33661884;0.16815603;-0.11180673;-0.395472;-0.156733;-0.2135551;-0.52888364;-0.16164976;-0.40499848;0.13523461;0.30741805;-0.10358826;0.057316374;0.19956374;0.06088933;0.23421115;0.51402223;0.10659369;-0.3790896;0.0002394628;-0.23395169;-0.2840467;-0.14235239;-0.5048839;0.105424605;-0.16601664;0.06111667;0.15167676;0.12656946;0.13646574;-0.16534656;0.039463364;-0.004283638;-0.53376365;-0.48844656;-0.18967418;0.032748584;0.10727458;0.07417814;0.041010264;0.064648576;0.12055733;0.20074339;0.21429928;0.26650476;0.5120623;0.46581748;0.030777333;0.13476895;0.008110907;-0.33495;-0.21874824;0.55169106;-0.14006658;-0.2928446;-0.16269822;-0.03238606;-0.06650089;0.059606608;0.45930326;-0.11335928;0.0021542178;0.5144927;-0.5320695;-0.55251795;-0.18528444;-0.15202618;0.0077165356;0.2287866;-0.24865618;-0.39736176;0.22770098;0.03303736;0.03097755;-0.3174766;-0.47072473;-0.16994923;-0.0044443225;-0.4595919;-0.14276282;0.038118824;-0.44029853;-0.5219116;-0.1961187;-0.08454947;-0.14493255;-0.27393177;0.1946771;0.2332275;0.017446127;-0.6609583;-0.30425772;-0.6018431;-0.012607731;0.14453226;0.1991351;0.22024721;-0.09042414;0.03834011;0.2493737;0.3240205;-0.13692454;0.15363419;0.25900975;-0.021726036;-0.23308977;0.100842044;0.19112724;-0.28422338;0.22176315;0.44146907;-0.18594526;-0.08583982;-0.094484076;-0.09234862;-0.14343975;-0.287636;0.22976398;-0.32883498;0.11027553;0.09921704;0.11819671;-0.17306219;0.045313884;-0.118022606;-0.18629842;-0.08620126;-0.114349775;-0.31590247;-0.13148183;-0.025906041;-0.10383595;0.2691717;0.26286775;0.47556007;-0.05829104;-0.14509888;-0.2872854;-0.51633465;-0.11694146;-0.2137496;-0.022914926;0.41903558;-0.19980867;-0.27422807;-0.04337732;-0.16041172;-0.62656707;-0.43189704;-0.51700044;-0.34268656;-0.08445881;0.08459593;0.3274859;0.25665718;0.22886102;-0.034939118;-0.2730069;-0.26267123;-0.44471982;-0.26415884;-0.3824075;0.3761647;0.40450954;0.18798006;0.05294625;0.04466991;-0.055978965;0.48292473;0.34413868;0.26776433;-0.5784755;-0.08516907;-0.16799335;-0.5144166;-0.48848674;-0.10750818;0.22728574;-0.346844;0.030016305;-0.03977561;-0.03735603;-0.23963365;-0.26328558;-0.14244395;-0.22960456;-0.090292335;-0.19842537;0.00648765;-0.41002148;-0.098939665;0.77139467;-0.23953886;-0.20601483;-0.1852767;0.11108737;0.15154284;-0.31629354;0.4164692;0.36369205;0.53727686;-0.015762378;-0.033298377;0.0013856916;-0.13864756;-0.33262396;-0.2932638;-0.105152756;-0.19218414;-0.14935486;0.06881601;-0.008590021;-0.10452597;-0.16102643;-0.15517275;0.11913871;-0.12197429;0.056212086;0.020765437;-0.5488571;-0.37342185;-0.20795617;-0.22147188;-0.22304045;-0.008191707;-0.17881958;-0.32213718;-0.0042572664;-0.04923924;0.14665687;0.059425905;-0.056751654;-0.069269076;0.021537678;-0.15860672;-0.26502693;-0.1441864;-0.01560037;-0.19497451;-0.5449769;-0.09476652;-0.16294704;-0.24567379;-0.8839201;-0.6561912;0.08465008;-0.3606538;-0.28135532;-0.149349;-0.019750407;0.26506868;0.28793544;0.13214721;-0.05738476;-0.22286466;0.069334425;-0.07094638;-0.35657257;-0.18096098;-0.1991433;-0.18139867;0.06138228;0.25997603;-0.030345501;-0.07272038;0.3278084;0.27869067;0.021170989;0.30536628;0.3072701;0.015591516;0.48180375;0.26807958;0.11535778;0.20179719;-0.127468;0.10313214;0.24015477;-0.24459806;-0.3527295;-0.3008836;-0.054662786;-0.14291169;0.0018144735;0.0008060386;-0.11854111;0.05849817;0.035310406;-0.39177704;-0.46321195;-0.55507153;0.13717078;-0.046338867;-0.27653998;0.6057679;0.28328508;0.043878987;0.099074066;-0.13707867;-0.12578827;0.06840746;0.6481141;0.33824202;-0.044675026;0.1426395;-0.03389181;0.066943504;0.13625893;-0.39661744;0.07580842;-0.13517812;-0.22235686;-0.31592447;-0.14344172;0.14694764;-0.5267022;-0.12651895;0.05641797;-0.33641982;-0.35048652;-0.22913097;-0.0021056947;-0.124385215;0.08306626;0.24377619;0.14105439;0.04722793;0.0912206;-0.25609246;-0.27006796;0.053784166;-0.23931965;-0.05306864;-0.10566471;-0.2082238;0.26167348;0.08929377;0.06076231;0.33257955;0.20021684;0.18147413;0.5033003;-0.29692215;0.27156198;0.12969142;-0.12440811;0.26707706;0.18415292;-0.10187996;0.18267818;0.28457916;0.04449976;-0.044846;-0.05897927;-0.100478105;-0.34867066;-0.31511676;-0.19113566;-0.30046016;-0.50913566;-0.5383952;-0.08421951;-0.36715934;-0.1885183;-0.037315644;-0.41027948;-0.27585107;-0.3075531;-0.10738913;-0.004214178;-0.07114076;-0.13286868;-0.0045219897;0.0016611341;-0.19504765;0.81632024;0.49921396;0.21817102;-0.39334208;-0.09492944;-0.20282705;0.112688474;0.12141394;-0.100382805;0.4472686;0.29736155;0.32572496;0.46756464;0.6451138;-0.01001157;0.36114085;0.56264526;0.110373974;0.16433775;0.17334536;-0.1079712;-0.14594977;-0.023782922;-0.009811763;-0.050952166;0.09053623;0.100411095;-0.30952838;-0.21567556;-0.030929722;-0.14521244;-0.0421913;-0.033825293;-0.004857961;0.12732165;-0.11450796;-0.12076834;-0.18949957;-0.37739357;-0.02328349;-0.11045594;0.39649576;0.06958217;-0.2183704;-0.07162539;0.17627461;0.079904124;0.11722878;-0.015542504;0.060085297;0.13982399;0.049663037;-0.2755473;-0.25052065;-0.4573591;-0.38018155;-0.40891433;0.15846889;0.18266994;-0.04329659;-0.03668047;0.20959249;0.18883641;0.0099269105;0.21920635;-0.025787558;0.1928789;0.20554437;0.16169511;-0.47870052;-0.17917812;-0.087129;-0.13944107;0.17609438;-0.30392066;-0.28421766;0.13720863;0.28653696;-0.13303225;-0.15394503;-0.034119528;0.32847607;0.1749121;-0.05270886;-0.12188462;-0.18825899;0.18669067;0.21058571;0.3391684;0.10840606;0.25804704;0.2812461;0.31371674;0.114944495;0.037461612;0.2508267;0.22932564;0.118464045;0.4044249;-0.04466955;-0.16114049;0.20591313;-0.5623214;-0.23700559;-0.448133;-0.068965;0.2527365;-0.30716863;0.0019020509;-0.17679855;-0.67139;-0.5494163;-0.064657785;-0.31480622;-0.24722166;-0.17702408;0.19807799;-0.3355256;-0.35832307;-0.2763181;0.05884982;0.048926257;0.24498469;-0.19724359;0.010953044;0.22692423;-0.049848665;-0.09785758;0.11636523;0.12787704;-0.12496306;-0.34159622;0.35973346;0.028471524;-0.119918056;-0.117458396;-0.08846856;0.0019495082;0.15232359;0.22495322;0.18917237;-0.37437984;-0.007117803;0.06282916;-0.1518543;-0.03411021;0.04613938;-0.123672284;-0.22257152;-0.227585;0.23471023;0.1751469;0.19457018;0.16515358;0.16854307;-0.24412529;-0.3326522;-0.27499056;-0.28473967;-0.5777608;0.092177056;0.44194397;-0.08191391;0.11823107;0.15435806;-0.009788261;-0.29166782;-0.27334458;-0.35638124;-0.3417503;-0.49173388;0.07328508;0.42002818;0.24129131;0.22828528;-0.49204886;-0.30050477;0.011026532;-0.009963207;-0.1004401;-0.09877801;-0.0069951206;0.0036042815;0.07491929;0.12721953;-0.10022793;0.11787105;0.13504799;-0.021153938;0.23042889;0.36877254;0.4350426;-0.124188885;-0.3492327;-0.3337308;0.4468173;0.23286161;-0.039728485;0.56553346;0.41954994;0.21824561;-0.62025696;-0.6237071;-0.09911605;0.0728772;-0.06689011;-0.21679945;0.4502809;0.24091801;-0.14399183;0.45296827;0.12657486;0.4055811;-0.052378003;-0.43160677;0.33659822;-0.14957862;-0.54099065;-0.09318895;0.24375805;0.5758204;0.2883567;-0.23693515;-0.30584872;-0.2723531;-0.33540714;-0.43209192;-0.060973044;0.63644505;0.11061807;0.13886458;-0.38155988;-0.469157;-0.08996348;-0.23123841;-0.08192383;-0.1842099;-0.2918515;-0.34644535;-0.44650447;-0.0036100526;0.12487323;0.039668035;-0.14911777;0.04869525;0.28893;-0.0038435855;-0.275867;-0.16070795;0.28679317;-0.14215368;0.27501082;0.037517115;-0.26601675;0.083701976;-0.53901833;-0.27007437;-0.06048511;-0.081019364;0.15968087;-0.1870824;-0.35010695;-0.1622363;-0.29731196;-0.5572171;-0.28768012;-0.7938737;-0.1420945;-0.22041161;-0.34895906;0.5249857;0.29018036;0.20880547;-0.032283504;-0.095585726;-0.2643408;0.15500773;0.096649796;-0.4157477;0.088365816;0.08567631;-0.35349542;0.08490948;0.24585658;0.09477565;0.011655257;0.027480444;0.11330628;0.088428736;0.039003182;0.3791944;-0.20134513;-0.16605587;-0.26489913;-0.27368483;-0.056927115;-0.33445585;-0.22423747;-0.12947376;-0.20132454;-0.09942471;-0.10822756;-0.3136217;0.19243123;0.4409643;0.06548377;0.5451372;0.7305119;0.74771357
3;-0.0005950052;0.26130444;0.040182956;-0.2665586;-0.4570179;-0.22653015;-0.1736606;-0.6840086;-0.26544958;0.1145483;-0.07577222;-0.18280223;0.08738677;0.26160085;-0.232671;-0.4153167;-0.16788927;-0.37575716;-0.15199853;0.2945914;0.17352259;0.16235697;-0.030837024;0.1906358;0.39797816;-0.013901808;0.19738059;0.37044853;0.018040242;0.06854832;0.37243217;-0.20783201;-0.065103054;-0.020383997;-0.24726424;-0.16466382;0.12493114;0.20568067;0.4014584;-0.31108057;0.22555126;0.30174926;-0.27710694;-0.0033459757;-0.12219372;-0.24027553;-0.08422411;-0.10440245;-0.053285394;0.16165277;0.14824402;0.20245062;-0.08566227;-0.055746194;0.22783336;-0.073802985;0.040390782;0.11774826;-0.105973676;0.06564764;-0.18881303;-0.5017227;-0.12992024;-0.2247807;0.11491578;-0.09320799;-0.016717248;0.19203644;0.14814287;0.5590946;0.36595458;0.5162318;0.33341074;0.33992186;-0.12911732;0.114233404;0.14638358;-0.13183117;0.1397381;0.096655145;-0.013047434;0.064157866;0.122726515;-0.22336935;-0.09959142;-0.022266783;-0.014940327;-0.4271033;0.081943356;0.12871227;-0.42265758;-0.2052019;-0.14715101;-0.18183585;-0.24951367;-0.0561446;-0.17800684;-0.2738548;-0.34307796;-0.3140299;0.21682712;0.3119251;0.31326127;-0.23466453;-0.26189807;-0.27846584;-0.24091335;0.026777105;0.07081018;0.17077646;0.3748596;0.18360902;0.081909105;0.1970021;0.063096374;-0.33170542;-0.06559933;-0.16957697;-0.2650797;0.08558315;0.026707346;0.31991646;0.27908304;0.1805321;0.37711143;0.15336783;0.57002836;0.21925662;-0.09742786;-0.31885692;0.107314594;-0.27731353;-0.08571848;0.114456244;-0.20672747;-0.018777475;0.35460445;0.28587598;0.0667801;0.3426788;0.047509823;0.058488555;0.51461136;0.15957114;0.20219538;-0.06723996;-0.16385826;0.17421396;-0.0051628333;-0.4123395;0.1407266;-0.72810817;-0.37958032;0.41497216;0.17425942;0.3061938;0.25767177;-0.16306011;-0.31320253;-0.19636194;-0.35088196;-0.30920714;0.1707345;-0.50502735;-0.2236439;-0.039962526;-0.3052946;-0.032702;-0.114597954;-0.118102916;0.116878144;-0.12984136;0.119415686;0.10655832;0.048364483;-0.17937483;-0.12044692;0.012666537;-0.06200292;-0.24758212;0.059896257;0.43152392;0.19678223;0.7297091;0.21153417;0.056479175;0.06941526;0.28161508;0.17280748;0.042467043;-0.3333488;-0.1996531;-0.63225746;-0.12697428;0.015585717;-0.1543596;0.13306016;0.21115151;-0.022219855;0.4652365;0.28970087;-0.13319772;0.65666294;0.513629;-0.2731667;0.3416865;-0.107309856;-0.66522783;0.08412462;0.11657136;0.20811577;-0.1475387;0.26106995;-0.057405178;-0.04176215;0.0014347171;0.20702884;-0.40790462;-0.03314888;0.12295459;0.04936306;-0.039915502;-0.1573238;0.2400977;-0.14790522;0.0008897146;0.09401809;0.12620315;0.024199152;-0.052090928;0.060460575;-0.050464287;-0.3987516;-0.38419765;-0.689275;-0.008129756;-0.17606933;-0.3976676;-0.3318019;-0.36917713;-0.3035153;-0.090749145;0.10150397;-0.14977953;0.2937428;0.11598374;-0.2014955;0.023816261;0.07030388;0.07720948;-0.16033018;-0.13438684;-0.19593517;0.17578223;0.37763014;0.05632305;-0.0815348;-0.065272495;-0.3978819;0.36987105;0.12277489;-0.521808;-0.078454085;-0.5393112;-0.93164307;-0.21686572;-0.46927488;-0.40902716;-0.45790812;0.0022499794;-0.15320018;-0.9738215;-0.97968024;-1.0180274;0.01653586;-0.15913215;-0.0308556;0.34510115;0.6035549;0.36466822;-0.15569976;0.34070915;0.07465155;0.28386316;0.0568657;0.19777456;-0.27229565;-0.2228757;0.025362626;-0.3587442;-0.27253103;-0.3774618;-0.31986797;-0.51598454;-0.61782426;0.076508164;0.047785576;0.016405772;0.45903227;0.41377982;-0.621833;0.21637583;-0.072390296;-0.26865953;0.20387211;0.13948977;0.10831902;-0.24161564;-0.25784156;-0.6455773;-0.2155713;-0.23687416;-0.42757115;-0.21240635;-0.08259192;-0.41035163;0.19344181;-0.6733115;-0.72563905;-0.41268656;-0.5141717;-0.38147447;-0.26272902;-0.042040676;0.35409176;0.23840725;-0.1255123;-0.7547459;0.22430424;0.01422017;0.16251688;0.42274514;0.2189207;0.14288516;-0.26643702;-0.38068035;-0.21992995;-0.07649177;-0.16962717;-0.055813227;0.0049425815;-0.038613793;-0.07115807;0.034951583;0.10263228;-0.19086489;-0.6977301;-0.42804942;-0.5404104;-0.35425183;-0.1272159;-0.13799901;-0.5271729;-0.34181884;0.08307683;-0.052363534;0.021118747;-0.12104668;0.07679551;0.24213968;0.027005218;-0.33986393;-0.35170785;-0.5879462;0.23248772;-0.06095864;-0.04647079;-0.1449447;-0.50191253;-0.1981684;-0.39434952;-0.19033664;-0.41910583;0.30631247;0.09612921;0.097478636;-0.120575555;-0.33433798;-0.18111621;-0.23671834;0.08510983;-0.29116717;-0.51436794;-0.67828935;-0.3692142;0.17072548;-0.20080715;-0.36594298;0.1370359;0.12585858;-0.10171299;0.31343183;-0.048907384;0.050382186;0.16923659;-0.16024862;0.1011517;-0.5426788;-0.25401887;-0.5955258;-0.18861094;-0.364065;-0.37629327;0.2663587;0.24627866;0.271663;-0.14203903;-0.35749242;-0.30518115;-0.32514948;-0.26748198;-0.20053521;-0.61118;-0.063118525;0.026485002;-0.21684045;-0.306401;0.23134354;-0.42180926;-0.54097253;0.27132925;-0.23080817;-0.49160933;-0.15648068;0.078445025;0.33554295;0.18492033;0.27116266;0.13389356;0.3087951;0.01137173;0.08369712;0.27241632;0.29382375;0.099665046;0.29196584;-0.19064;0.059336152;-0.30851072;-0.19107321;-0.1952274;-0.08834781;-0.2789089;0.028353766;0.10512675;0.24499285;0.4403534;0.36923224;0.4329612;0.19366683;-0.19612433;0.1351425;-0.23747705;-0.102852635;-0.04510691;-0.40686637;0.026285578;0.3006335;0.048109166;0.71065;-0.077228725;0.009570701;-0.22916421;0.05243489;0.11664678;-0.07091845;-0.30883718;-0.23664536;0.14925256;-0.21045403;0.22255273;0.2834085;-0.04600662;0.0698496;0.28442943;0.074324176;0.47181565;0.39415506;0.21005447;-0.18614925;-0.2942982;0.29951006;0.23739466;0.5280292;0.057898443;-0.34851503;-0.34361693;0.32612383;0.20275389;-0.030542733;0.10073664;0.27320975;0.4051863;0.08352766;0.46586314;0.31168184;-0.37435937;-0.07625342;-0.5875304;-0.57741207;-0.3382164;-0.4498087;-0.11858305;-0.4777418;-0.42393962;-1.0346385;-0.8184771;-0.9343052;-0.21511024;-0.33262002;-0.5519248;0.12940651;0.126342;-0.042892147;0.26719648;-0.06074911;-0.28133273;0.3526892;0.20953436;-0.13981858;0.4641952;0.52880836;0.53467876;0.07349537;0.20300184;0.0648639;-0.06025483;0.20002252;0.42580515;0.316759;0.2010918;-0.014068046;-0.28776714;-0.015086826;-0.105342746;0.14029145;-0.013206009;-0.42868298;0.31021127;0.5831891;0.2567182;-0.29750496;-0.005825896;-0.059370175;0.17679213;-0.024713175;0.059683803;-0.10190737;-0.33353254;0.08239051;-0.11582312;0.0312572;-0.20351301;0.18688901;-0.085466914;0.12620424;0.053856;-0.24774905;-0.12704109;0.557687;-0.21004093;-0.3853415;0.4165873;-0.07009591;-0.23050645;0.2301148;0.19291061;-0.0042326185;-0.07614677;-0.40634435;-0.5230732;-0.13141118;-0.25026938;-0.24120003;0.28902775;0.14461426;0.24100247;0.30177888;0.042757977;0.0975327;0.26215202;-0.082555376;0.12485746;-0.08378918;-0.41734633;0.0031115797;0.36557385;-0.2632624;-0.1357316;-0.14074041;-0.35335666;-0.34116533;-0.5420488;0.01566003;-0.1973251;-0.3736287;0.08724014;-0.061209716;-0.07484237;0.015173893;-0.16894367;-0.2788385;-0.17942744;-0.13751654;-0.002079825;0.01179177;-0.3401604;0.12484792;0.0148083335;0.17982951;0.03085601;-0.06867303;0.18668419;0.07945034;-0.26772815;-0.015148715;-0.1642917;0.0012634762;0.13592064;-0.32338187;-0.5595537;-0.04988886;-0.27107644;0.24825889;0.33930188;0.33363366;0.33491898;0.25725958;0.6374812;0.4451182;0.31655824;-0.46126035;-0.087505735;-0.16840968;-0.089441426;0.06515311;-0.063670635;-0.20933868;-0.30692586;-0.426957;-0.45908085;-0.12852451;-0.4186936;0.017880877;0.121387936;-0.1643625;0.23117176;0.25087658;0.40748546;0.20079213;0.063696004;-0.28325063;0.070425674;-0.09743464;-0.23048486;0.17329939;-0.024877464;0.15451758;0.07679395;-0.031110115;-0.26854658;-0.21490017;-0.18110764;-0.19678783;0.15672308;0.3050172;0.017664876;0.27769887;0.023191022;0.055665534;0.1708672;0.15819772;-0.12599558;-0.2391306;0.076742776;-0.21863055;0.2478452;-0.31477034;-0.09055029;-0.004875226;-0.14130977;0.18368883;-0.30118808;-0.24494682;0.17250891;0.30611217;0.22826312;0.1312024;0.09759928;-0.056747127;0.35929644;-0.13069047;-0.053610384;0.3745495;-0.054936275;0.16310821;0.29321718;0.3327071;0.37182695;0.38259163;-0.26308718;-0.07564571;-0.04219374;-0.06088081;-0.053740498;-0.011259442;-0.07143681;0.020406617;0.043432396;-0.574033;-0.46234518;0.14545503;-0.5131044;-0.36174148;-0.09745017;-0.30543134;-0.18179537;-0.033104938;0.2320479;-0.019785414;-0.3680567;0.46423846;-0.21703006;-0.013943381;0.0433781;-0.08934224;0.17611058;-0.0072467397;-0.2749231;0.06573131;-0.4805761;-0.36237907;-0.21086891;-0.62537175;-0.3231616;-0.5493038;-0.6429556;-0.14637433;-0.20891958;0.26371738;0.35432968;-0.05133421;0.26167357;0.07887369;0.122359924;0.106129065;0.06813294;-0.32438245;-0.24584177;-0.20423469;-0.09678023;-0.14764974;-0.21811862;0.043131493;-0.1146968;-0.21238782;0.06969678;-0.21242708;-0.27021757;-0.029653545;-0.30759245;0.001787689;-0.18956238;-0.1877269;-0.34166482;-0.33117786;-0.41079313;-0.17263684;-0.010454962;0.11482511;0.14110233;0.17227015;-0.083057955;-0.10521305;-0.12784387;-0.3298277;0.31842035;-0.18606326;-0.039479937;-0.0067903185;-0.1255764;-0.12026795;-0.38787493;0.24361268;0.38281095;0.050194807;-0.022919506;0.37721255;-0.22373033;0.17692618;-0.31022942;-0.30860376;-0.12472328;-0.0031126288;-0.0030505226;0.068330206;-0.07422199;0.14011575;0.26145956;-0.19417891;-0.07755484;-0.20735157;-0.12461744;-0.22076471;0.3016479;-0.13817666;-0.24608807;0.12744294;-0.13066408;-0.16233839;0.12198978;-0.7264906;-0.4212547;-0.43414712;-0.32005987;-0.06411733;-0.5963931;-0.3956807;0.051419362;0.09366294;-0.08114665;-0.056189075;0.24769744;-0.16517054;0.005498396;0.005867412;-0.1311493;-0.059620176;0.41288123;-0.0008832653;-0.2514276;-0.35043314;0.28565735;-0.0059951516;0.12355057;-0.21528511;-0.49578962;-0.8546342;-0.57857716;-0.13826804;0.09727195;0.0030875155;0.081126854;-0.011039543;0.191982;0.120925575;-0.23375581;0.09784619;-0.2605965;-0.28614435;-0.1511826;-0.34435892;-0.07828327;-0.3056442;-0.31028682;-0.27934653;0.05519313;0.012282059;0.022361675;0.050755184;0.25733802;0.50329536;0.28687724;0.24211246;0.3371859;0.03579657;0.37373814;-0.3422949;-0.60748947;0.16444077;0.05715294;-0.37457588;0.02415673;-0.08654353;-0.4363573;-0.51340216;-0.28479812;-0.3418876;-0.24376525;-0.35537097;-0.005137369;0.10196002;0.0060188216;-0.06967722;0.0026593623;0.3444149;-0.42892894;-0.24795935;0.20479544;0.17184168;0.3237658;0.37072796;-0.27110788;-0.13416775;-0.39209515;0.04592697;-0.18345734;0.008921973;-0.12170651;-0.26404554;0.10541048;0.051617503;-0.10877939;-0.0412318;0.0763358;0.06787627;-0.2914032;-0.116200455;0.11935587;-0.03493157;-0.9393089;-0.50512016;-0.5715902;-0.31792542;0.070632204;-0.0863687;-0.44832096;0.05601998;-0.37397262;-0.13327248;0.27713868;-0.036892056;-0.23678747;0.0705986;-0.12644234;-0.20529175;0.072017275;-0.24822195;0.2512376;0.09380931;0.5526221;0.33534402;-0.006022666;0.18243372;-0.54594964;-0.19597405;-0.31097844;0.10682287;0.09220012;0.5462438;0.06035538;0.065556765;0.48522887;-0.2672206;0.3161419;0.08849127;-0.16193011;-0.119950496;-0.06539827;-0.4252732;-0.20417312;-0.43508703;-0.16782413;-0.0600721;-0.17918424;-0.08922396;-0.41186625;0.030030929;0.23488699;-0.26088622;-0.9594031;0.0004422593;-0.109189786;-0.27927238;-0.3059434;0.43714276;0.060110025;-0.4201235;0.24602301;0.21324307;-0.40126902;0.061645765;0.16958986;0.19120908;0.20826657;0.09866993;-0.12589677;0.028088124;0.19408527;-0.073714875;-0.4563634;-0.054599024;-0.10755219;-0.38750267;-0.4140961;0.30907378;0.2132295;-0.1272721;0.07464483;-0.031153597;-0.5184901;0.16843218;0.3848781;0.80758;0.012893541;0.13799219;-0.14697509;-0.2146057;-0.19775014;-0.5602609;0.15672104;0.10789314;0.02043213;0.041025907;-0.030837553;0.25772405;-0.18731676;-0.07552894;0.11279479;-0.23713383;0.17143975;-0.046924736;-0.49770623;-0.2158651;-0.46525872;-0.86514795;-0.5401067;-0.39378402;0.12108804;0.59961575;0.44542778;0.28453606;0.30720726;0.08332635;0.079236455;-0.32925203;-0.2501941;-0.0042722793;0.18104625;0.028410684;-0.17909966;0.056287427;-0.053672712;-0.2966541;-0.1633238;-0.49136317;-0.2721945;-0.21157944;-0.16067165;-0.11821884;-0.29405725;-0.27089518;0.27548155;0.01896828;0.06641665;0.30247182;0.18377578;0.23718107;0.20657407;0.08702654;0.28983724;-0.12804177;-0.04666081;-0.25226945;-0.20578353;-0.1824994;0.30111185;-0.079531156;-0.20197894;-0.14213023;0.5085442;-0.01546486;-0.25113606;-0.19322422;-0.101697974;-0.15616697;0.19984768;0.33217123;0.19618781;-0.07322972;-0.07962745;-0.003844462;0.060460515;-0.0913667;-0.20688076;0.16829415;0.040418465;0.11785758;0.05101002;0.18869758;0.3821618;0.20467095;-0.07165195;-0.08853619;0.025070326;-0.18782397;-0.09359923;-0.08525289;0.08581665;0.041484628;-0.04791192;-0.17481111;0.020227252;-0.008867822;0.06724838;0.16193473;0.26502553;0.34356382;0.8182587;-0.022191396;-0.16429119;-0.06576166;-0.082848236;-0.26177615;-0.40424037;0.025325857;-0.23947188;-0.10413907;-0.012682379;-0.4404655;-0.13223815;-0.16225314;-0.37694007;-0.03748789;-0.2162178;0.35066837;0.04734284;-0.12861963;-0.21399006;0.049196377;-0.1834925;-0.3351817;-0.30198035;-0.23578776;-0.5113539;-0.23340957;-0.28056893;-0.14477031;-0.36412162;-0.33762848;-0.1716644;-0.33239755;-0.33583856;-0.31372854;0.08976433;-0.049553353;-0.18118903;-0.13198967;0.029976128;-0.14542326;0.012395832;-0.15313599;0.03611163;0.028869836;-0.087890275;-0.02840636;0.23831752;-0.3308076;-0.20096113;0.09884634;0.35854882;0.20340163;0.55799997
4;0.0002244176;0.16421925;0.041748844;-0.28153077;0.115546845;-0.25057718;-0.38022867;-0.066178165;-0.7090635;-0.026454434;-0.16428274;0.15428734;0.08159566;-0.23322903;0.10344363;0.058661036;0.28124928;0.54573125;0.46062887;0.24062267;-0.046759173;-0.120956525;-0.17632799;-0.39349902;-0.39053202;0.01413479;-0.09465715;-0.14135504;-0.0718446;-0.03492817;-0.17264463;-0.03397036;0.3651851;-0.23069955;0.32208526;0.26065382;-0.26314092;0.23832218;0.5213915;0.11051155;0.03501188;0.21099274;0.33902374;-0.1480965;-0.3511574;-0.028724506;0.09970324;-0.07728831;0.3114338;0.5166089;-0.047308963;0.06068854;-0.1798045;-0.43312716;-0.24715742;0.30014554;-0.24515453;-0.23009098;-0.20050484;0.27818787;0.025740227;0.13092574;0.07593102;0.25941563;-0.28216302;-0.08560269;0.22805242;-0.4374389;-0.07006265;0.0015653917;0.048286468;-0.4207619;-0.07016918;-0.4973271;0.05324074;0.020394985;-0.3889999;-0.32017982;0.028747104;-0.0033082992;-0.42885062;0.05563838;0.44813368;-0.08904456;0.26109806;-0.03224921;-0.33046007;0.12062191;0.026041063;-0.34824696;-0.6157973;-0.120300464;0.0092056915;0.21142943;-0.26454252;-0.056460373;-0.054215185;-0.42240977;-0.19266146;-0.1300496;0.08616373;0.19402586;0.4931814;-0.028941981;-0.013822567;0.19772008;0.061894257;0.30170318;0.31344482;0.07746784;0.0073365993;0.32339236;-0.01720242;-0.23443343;-0.009052149;-0.50060344;-0.27203193;-0.15557274;-0.18310028;-0.27035305;-0.42860436;-0.19912012;-0.22517553;-0.27692303;0.39614844;-0.73372155;-0.5079593;-0.88767856;-0.4611162;-0.01683727;-0.5208579;-0.71612585;-0.6410118;-0.4465039;0.06667098;0.030556936;0.24218036;0.17593803;0.09790703;0.052524034;0.11426625;0.24718319;-0.03599645;0.11825269;-0.51012534;0.58734363;-0.034633826;-0.19431841;0.46038768;-0.085748754;-0.24100643;0.53839004;-0.120955735;0.06549852;0.13625431;0.1379497;0.18769406;-0.058696765;0.21609032;-0.23761857;0.108990125;-0.088094085;-0.60856545;-0.079321675;0.2525166;0.12630066;-0.09981238;0.30779108;0.24490686;0.22109284;0.13254061;-0.24332845;-0.26570258;-0.1105246;-0.033035442;0.37512165;0.19114523;0.22135298;0.23259166;-0.28365976;-0.28914407;0.16189548;0.1737895;0.5613285;0.18461938;0.13659291;0.2606817;0.41610488;-0.0024370474;0.25390568;-0.30993518;-0.19651194;-0.13979831;-0.5831163;-0.13826716;0.064263746;-0.7106663;-0.4105283;-0.0814238;0.07696667;-0.22585563;-0.2379072;0.16284764;-0.30402422;-0.06432962;0.4933226;-0.42140853;-0.36690837;0.2984492;-0.19732833;-0.017781677;0.05056524;-0.17562258;-0.13087884;0.35307208;0.3971321;0.7078163;-0.31192914;-0.10413576;-0.007590002;-0.20753832;-0.3077382;-0.4533516;-0.15983453;-0.27804464;-0.43175608;0.07948212;0.022348272;0.2550598;-0.13548961;0.087605834;0.12687637;0.47260833;0.354257;0.11998748;-0.14509103;-0.45581332;-0.16852939;-0.46848607;-0.34936562;-0.3184207;0.1915021;0.20548326;0.017751794;0.22900158;0.35299826;0.2407455;0.11795238;0.4239357;0.0019958748;0.058549628;0.20037499;0.18860714;0.4090501;0.28092015;0.07810551;-0.08074452;-0.09711588;-0.12663952;-0.73318005;-0.46906215;-0.14005414;0.32025936;0.09467811;0.17777638;0.11909383;0.18866454;0.22127503;-0.31463516;-0.54001504;-0.3006662;0.272183;0.26534164;0.4963887;0.12591973;-0.20194112;0.30152014;-0.15570234;-0.36625075;0.040446483;0.30508015;0.34016138;0.3622119;0.03336044;0.23582676;0.1425476;0.37177053;0.5827241;0.48013154;0.049774364;-0.08280521;0.10951494;-0.10105267;-0.4013464;-0.46417513;-0.044359017;-0.16279292;-0.19182925;0.27814242;0.20806709;0.30411977;0.29163808;0.25509158;-0.24711771;0.51159036;0.2271115;-0.08515455;-0.044141445;-0.062739395;0.020622574;-0.07724995;0.184812;0.12502061;-0.108204365;-0.2756415;-0.19351545;0.01709959;-0.47555855;0.072625294;-0.0413827;-0.60130906;0.16987059;0.16379197;-0.19471547;0.32930464;0.36305395;0.38048306;0.35088086;0.07798638;0.16726461;-0.24106392;0.6467358;0.49258086;-0.16958086;0.22428535;-0.089522295;-0.382971;0.28940535;0.20083706;-0.10877034;0.19234678;-0.32806617;-0.32234746;0.22477661;0.21520796;0.111066036;0.046787135;0.49650773;0.14131945;-0.20645766;-0.10420589;-0.01641252;-0.113510884;0.06410145;-0.2544108;0.06722164;0.20411438;0.10607847;-0.07519573;0.08829833;-0.06538886;-0.25385;0.21588553;0.078737415;-0.32498357;-0.33355153;-0.18209116;-0.13749334;-0.50135124;-0.24323946;-0.18665902;-0.4581405;-0.31437245;0.028660446;-0.252929;-0.1274729;0.12311816;-0.16778198;-0.17708978;-0.20702805;0.12616861;-0.049606178;-0.27789268;-0.050695;0.20623523;-0.38329726;0.023051674;0.47000068;0.45725614;0.025050808;0.07054987;0.2619736;-0.35345417;-0.13499591;0.5603615;-0.07104382;-0.13700752;-0.47999126;-0.17974141;0.1673707;-0.19971673;-0.21871957;0.4327117;-0.03847521;-0.028603183;0.5256291;-0.04978475;-0.023252662;-0.11924285;-0.2815139;-0.10534578;-0.32922265;-0.23494373;-0.15095557;-0.3674865;0.021129407;-0.37175938;-0.1377626;-0.2422146;-0.24422452;-0.16111028;-0.32099134;-0.021079157;-0.32755232;-0.24317701;-0.21182287;-0.11069939;-0.18039556;-0.3707653;-0.64848286;0.26442638;0.0027748272;-0.57435465;0.30748206;0.1615396;-0.19666626;0.22213134;0.32880488;-0.34220508;-0.119032405;-0.067872256;-0.44264972;0.12648442;0.14455014;0.108808756;0.064760335;-0.07106403;0.0019137317;0.04309561;-0.27945587;0.36323506;-0.07239863;-0.4667009;-0.59297943;-0.11037268;-0.5569316;-0.6912149;0.4053197;0.38858837;0.6507282;-0.04361025;0.16788898;0.55606234;-0.41295752;-0.07268593;0.10096058;-0.09829827;-0.0466634;-0.24218006;0.00877252;-0.20398048;-0.02751823;-0.25369078;-0.061246846;0.08038135;0.33778688;0.5508246;0.7592721;-0.46822712;0.010606196;-0.19166398;-0.0471277;0.41556248;0.11602065;0.20992653;0.057331715;-0.19078833;-0.12038714;0.04486405;0.23174328;-0.21766655;-0.100998305;-0.1340549;-0.014721868;-0.086693905;-0.073146924;0.02819417;0.024079315;-0.14257227;-0.15878987;-0.20143081;-0.10863776;-0.14130731;-0.35015267;-0.5472029;0.2940083;0.399315;0.22614098;0.24818341;0.024201121;0.065827474;0.41543987;-0.4166459;-0.30383557;0.17245285;0.14065684;0.3569356;-0.2418003;0.3563076;0.15332337;-0.35959294;0.43057257;0.3564077;0.39601532;-0.07140881;-0.17587645;0.31085765;0.06973464;0.17033784;0.35577935;0.08639677;-0.24916342;-0.15355203;-0.4653227;-0.5224249;-0.1533656;-0.046614178;0.121803485;0.09632129;0.2214876;-0.22796611;-0.52655464;0.05160174;0.05504176;-0.008555836;0.1104978;-0.11361372;-0.08745605;0.30872166;0.2839775;0.13875186;0.28214788;0.06372559;-0.16354007;-0.124269545;-0.02322793;-0.038432676;-0.079660304;-0.045238663;-0.31252867;-0.1459668;-0.035058327;-0.23531853;-0.12574409;-0.19086546;0.052527156;-0.18387724;-0.46022105;-0.12769568;-0.17173746;-0.20144163;0.019191641;0.20784418;0.19380054;-0.062995024;0.044750903;0.18784994;-0.051022347;0.46118054;0.48625973;-0.016430972;0.22833909;0.3822053;-0.12329583;-0.0295598;0.35553876;0.059426412;0.1414214;0.21271826;0.14049771;-0.024505952;0.05639432;-0.3199178;-0.40790382;-0.570297;-0.124498695;-0.5502967;-0.2613878;-0.32355905;-0.49693325;-0.39973655;-0.028698405;-0.23762529;-0.15900603;-0.24428087;-0.4780038;-0.18358423;0.10222574;-0.30366895;-0.3198384;-0.19175687;-0.20620975;0.04479272;-0.28100568;-0.20355512;-0.08927069;-0.46997142;-0.1547673;0.21837595;-0.5042877;0.1973335;0.33291623;0.049791966;0.026723215;-0.23820403;0.21238156;-0.104888536;-0.7068018;0.17444155;-0.19092433;-0.33859548;-0.048700072;-0.09535664;-0.34531033;-0.19449519;-0.059696253;-0.5154148;-0.057792705;-0.14037687;0.031758517;-0.10458873;-0.18985945;-0.08792405;0.20138703;-0.66182506;-0.603501;0.26074177;-0.53704596;-0.5459785;0.2354317;-0.014652208;-0.06967489;0.08905166;0.04601196;0.2612478;0.10317399;0.29325238;0.041424446;-0.17274112;-0.69022894;-0.6541662;-0.12268228;-0.27105418;-0.82136333;0.16305876;-0.21145241;-0.380109;0.13109048;-0.035071097;-0.08883597;0.03524591;0.12581955;0.045227475;0.019194277;-0.2311693;-0.17296337;0.037391115;0.0040176213;0.053337783;0.22608696;0.17912097;0.15921426;-0.09663525;0.28358623;0.5118757;0.13779399;-0.33353302;-0.24142547;0.13731807;-0.10237965;0.009083743;-0.39784202;-0.7992346;-0.50756097;0.23275939;0.25648585;0.20896581;0.19131793;0.38976923;0.24628784;0.31248093;0.33932805;0.20993263;-0.17160691;-0.6427517;-0.7266738;0.011316665;0.016173195;0.21059887;-0.11723645;0.34429622;0.8197194;-0.05000762;-0.29447213;0.37637585;0.2797108;-0.011669174;0.2322104;0.2709124;-0.10278166;0.13928074;-0.120149896;-0.34671742;0.021750972;-0.13408813;0.05931055;0.29090565;-0.39154896;-0.08976828;0.46389344;0.31637958;-0.06605758;0.11331987;0.0043922965;-0.1833186;-0.1805517;0.37808695;-0.10912741;-0.4112071;0.5290297;0.20633745;0.35692656;0.4113476;-0.07317844;0.031342413;0.44370005;0.018869264;0.06434992;-0.03306437;0.18910414;0.131189;-0.029122654;-0.24178903;-0.16126414;0.29561362;-0.04422677;-0.03084819;0.048999824;-0.02830223;-0.2628193;0.07274017;-0.024104068;-0.33755568;0.09718572;0.13396934;-0.17395559;0.29887974;-0.09781811;-0.18829165;0.26224083;0.33396798;0.53588957;0.38090202;0.22988681;0.44851217;0.3979084;-0.081205755;0.18943779;0.5166292;0.26276335;0.011301344;-0.25067633;0.13539286;0.15146503;0.1608409;-0.5399031;-0.7351601;0.065408796;0.10224935;0.20317535;-0.12826315;-0.14645855;-0.1936125;0.3133844;-0.057865888;-0.29124603;0.05858586;-0.042156164;-0.2808927;0.28766507;0.04835358;0.46309325;-0.06828914;-0.056823473;-0.09102045;-0.24007422;-0.06760497;-0.02506099;-0.08843909;0.36377394;-0.2753261;0.31256393;-0.47484136;-0.27198717;0.018864665;-0.33171517;-0.18537425;-0.5981046;-0.27393144;0.0076348064;-0.22097847;0.12311192;0.27441332;-0.12551437;-0.040593628;0.17783083;-0.28098843;-0.25531796;-0.33928937;-0.06992056;0.010614497;-0.5303126;-0.4072282;0.31142068;-0.21440636;-0.21745013;-0.08129315;-0.44991508;0.8049085;0.09712231;0.020605639;0.47346815;-0.33694968;-0.4429039;-0.17132585;-0.24104266;-0.16901043;-0.118669786;-0.22560416;-0.037710086;-0.04106761;0.1802401;0.21370776;-0.04202219;0.30831677;-0.39600447;0.59082365;0.25450748;0.5104493;0.43835244;-0.01824574;0.23383798;0.38487172;0.24113889;0.03410484;0.014267344;-0.15082183;0.28265056;0.10910147;0.009329305;-0.17894052;0.24190234;-0.36773217;-0.26461866;-0.31462887;-0.23879461;-0.39788413;-0.28107235;-0.4200933;-0.41612488;0.06367117;-0.41559097;-0.41464454;-0.27222237;-0.050186858;-0.07552772;-0.2922688;-0.49843386;-0.30513787;-0.33932814;0.04699196;0.11954207;-0.2744698;-0.44333112;-0.4189631;0.04649041;-0.114277646;-0.0021484804;0.094795614;0.24998178;0.23092131;-0.11838444;-0.13854057;-0.15942517;-0.0005115415;0.099748485;0.034714606;-0.0204044;-0.15286256;-0.47788998;-0.13414268;-0.2820373;-0.17808484;-0.26527256;-0.14291504;0.25784975;-0.18794134;-0.113925435;0.32916048;-0.0592323;-0.052898865;-0.5173229;-0.28853074;-0.42471233;-0.37139824;0.035070173;-0.24354903;-0.21181567;-0.2775631;-0.3548101;-0.15722406;-0.2588835;-0.13626532;0.33933845;-0.3136417;0.034919966;0.35362557;-0.07451816;0.08743489;-0.43173108;-0.25665063;-0.025867367;-0.034722548;-0.24211763;-0.09975497;0.59388584;-0.0018000895;-0.001782134;-0.18360907;-0.12891497;-0.1345988;0.020281492;0.081447266;-0.27570805;-0.024806295;0.23427933;0.33324906;-0.4371067;0.33125567;0.056362357;0.06439099;0.26630574;0.17158301;0.35537916;0.08525757;0.06355538;0.20179799;0.34041533;0.23150457;-0.06128172;0.30847397;-0.039502587;-0.25831735;0.113132246;-0.033037387;0.00907185;-0.020898025;-0.12552044;-0.22735299;-0.18542269;-0.12769385;-0.11506745;-0.011012926;0.14165087;0.053677402;0.10808376;0.025613902;0.0716933;-0.21167666;-0.035494834;-0.44906887;0.20380627;-0.1868866;-0.03947476;0.14266975;0.0043856744;0.12703751;0.281356;0.21670519;-0.198894;-0.32617256;-0.5258386;-0.18331526;-0.10211895;-0.59411883;-0.44623044;0.3878876;-0.2928604;-0.17496519;-0.094870776;-0.18099986;0.24748553;-0.2456829;-0.13036881;0.38194853;-0.20362875;-0.12154471;-0.11842386;-0.0031392104;-0.50068355;-0.5200789;0.23652947;0.49110255;0.4124153;0.62329453;0.22866648;0.008017168;0.052240595;0.03368145;0.23626222;-0.37027028;0.056458812;0.27144617;-0.66677094;-0.2433957;0.49996588;0.07316494;-0.2084159;0.27424335;-0.37484428;-0.5252646;-0.047700047;0.011818341;-0.10767044;-0.03545607;-0.06651688;-0.010876967;0.07034051;0.0908472;-0.21040149;-0.10520643;0.17230028;-0.061340567;-0.29202265;0.36511287;0.2458739;0.37879494;0.34803307;0.08304382;-0.31934732;-0.02018492;-0.4516288;-0.5428551;-0.234279;-0.359945;-0.041095965;0.25544134;-0.18438548;-0.0756417;0.44896978;0.15694366;-0.08018193;0.20409408;0.27889904;0.43441063;-0.05842316;0.26000738;0.2507902;-0.105980836;-0.0111620445;-0.021830186;-0.23028016;-0.19289076;0.0146778235;-0.5237944;0.015741682;-0.18122986;-0.5447084;-0.22688337;-0.32961544;-0.00060755;-0.26990917;0.036493897;-0.20429686;-0.28009558;-0.29707623;-0.043906372;-0.8139718;-0.49739546;-0.24138363;-0.22970022;-0.3033791;-0.2518922;-0.1863239;0.25507632;-0.07858466;0.1233541;0.2916162;-0.34775448;0.058456466;0.08979625;-0.08351217;-0.18160617;-0.06902143;0.062585786;-0.4019867;-0.26333117;-0.18081705;-0.31332874;-0.40531814;-0.28556293;-0.12659389;-0.33439472;-0.16429959;-0.30018055;-0.26445985;-0.15176031;-0.37311485;-0.034077328;0.2510164;0.16341972;0.18706535;0.062669754;0.067213416;-0.39250946;0.21917799;0.26554587;-0.0098279;-0.16740511;-0.17617932;-0.24872473;-0.42209798;-0.1908243;-0.08795226;0.091430925;-0.17256308;0.22746885;-0.097605884;-0.120993234;0.2371919;0.3606852;0.21028349;0.7084339
5;-0.0014554346;-0.82788783;0.12381298;0.09710044;-0.54141057;0.04065133;0.15016775;-0.053385284;-0.22084966;0.4320744;-0.36148226;0.13716438;0.34937117;-0.19645277;0.035701707;0.22628693;0.028151957;-0.048887864;0.13289022;0.3001867;0.107851684;0.124165446;0.02108559;-0.026700389;-0.0026895464;0.04597207;0.040705804;-0.4428002;-0.06467779;0.03690151;-0.21996376;0.14120145;-0.054379962;-0.33362335;0.54476327;0.14815459;0.12059695;0.3052329;0.1841569;-0.39938587;0.2637874;0.0848484;-0.040996447;0.23332582;-0.48886093;-0.008447154;-0.07433967;-0.01634566;0.036564354;-0.071618184;0.15548748;-0.07326749;0.1119758;0.3603974;0.14742467;0.029636532;0.41789192;-0.1837848;0.75255126;0.25945705;0.10552675;0.38232118;0.22885253;0.21798748;0.036801856;0.15484175;0.06959246;-0.14181969;-0.32965595;-0.4951442;-0.11182609;-0.1746899;0.06137652;-0.26226816;-0.34829485;-0.46027648;0.114405364;-0.031532843;-0.3732473;-0.13673511;0.11994368;-0.17269236;-0.13257262;0.18794127;-0.12669724;-0.47268087;-0.389179;0.009635513;-0.07896363;-0.7570393;-0.42089438;-0.2495402;0.09659403;0.07644777;-0.2889242;0.28735933;0.31792107;-0.17489761;-0.14979686;0.27552518;-0.20806572;-0.04247911;0.22098401;-0.17083022;0.17698422;0.36951426;-0.4481548;-0.06944403;0.3379795;0.2543365;0.09699759;0.14929077;-0.1730986;0.025535585;-0.055437144;0.4036271;-0.18498193;-0.21795256;-0.44326237;-0.60368747;-0.32820958;-0.5125849;-0.33194828;-0.2342172;-0.42543393;0.062374044;-0.0024528264;-0.05898217;0.1305799;-0.09131595;-0.14564036;-0.15993805;-0.4005018;0.44956473;0.122879505;-0.36641455;0.27038032;-0.051390473;0.12615708;0.37567684;0.1489;-0.010934219;0.31468946;0.0054601496;-0.026066277;-0.0068288776;-0.080516696;-0.14112462;-0.016011342;-0.0010243552;-0.2673995;-0.03899596;0.121703275;-0.25097454;-0.19713274;-0.15472457;-0.190553;0.014742189;0.09555876;0.3259208;-0.36974442;-0.07883284;-0.16474071;0.009547016;0.038394157;0.08181783;-0.12376053;-0.39746192;-0.24708304;-0.22785117;-0.27660885;-0.40287232;-0.44692594;0.33104882;0.28179106;-0.06920937;-0.018271158;-0.37101054;-0.22582687;-0.34444606;-0.7907614;0.40501747;-0.22291212;-0.31412175;0.19318257;0.062329948;0.2927682;-0.16194363;0.08048874;0.10996982;0.26365373;-0.096446976;-0.28925368;0.14340773;-0.01667785;-0.18385074;0.26136428;0.20501336;-0.12569292;0.030201215;0.41990897;0.2355475;-0.13225704;-0.011458179;-0.13721338;-0.50878197;-0.76243836;-0.5498037;-0.07948865;0.068633996;-0.14705014;-0.16634676;-0.30284348;-0.6871226;0.15669756;0.035689514;-0.20866102;-0.060272746;-0.4185435;0.10564847;0.31350788;-0.088892594;-0.3522955;-0.0026793792;-0.42215753;-0.06928906;0.26786065;-0.37123358;0.028042953;-0.12172531;-0.5517315;-0.41085976;0.19680452;-0.028073752;-0.22991881;0.014451754;-0.34945974;-0.23208572;0.14397939;-0.020333864;0.12178176;0.2876605;0.026189094;0.16211262;0.21469074;-0.049028616;0.38402486;0.46658805;0.2679971;0.14968792;0.1845487;0.3862272;0.025702802;-0.04287652;0.29321507;0.3795764;0.10288044;0.28361604;0.2783227;0.2866726;-0.10294426;-0.15765248;0.04730413;0.7671226;0.8513182;0.16024935;0.21028332;-0.040778127;0.14630613;-0.033227153;0.14165726;-0.0034654406;0.024735305;0.10202764;-0.04802676;0.021624584;-0.08168849;0.17701396;0.018502437;0.079767816;0.022101495;0.2534624;0.29665747;-0.108206026;0.12284265;0.28380874;-0.12102525;0.031948663;0.19826695;-0.50505525;-0.1806179;-0.33661956;-0.1497895;-0.20844619;-0.22466524;0.10194791;0.31353164;-0.12713613;0.48454317;-0.0025705767;-0.21924387;0.4574105;0.082195185;-0.28851417;0.07862047;-0.1727267;-0.21984668;-0.30104905;-0.20033275;-0.41170135;-0.46687877;-0.70912343;-0.72373295;-0.032103136;0.26870465;0.18691857;0.3379254;0.15577054;0.06941436;0.21650383;0.14815983;0.042856302;0.4385352;-0.15116373;-0.096363276;-0.3635923;-0.22652245;0.32511163;-0.0962832;-0.23578669;0.11726373;0.636557;0.019771656;0.03816536;-0.07069693;-0.078687966;-0.17907107;0.39019108;0.042367313;0.05303688;-0.02582092;-0.17089245;-0.13417579;-0.3666583;-0.15706328;0.1529598;-0.22382793;0.061903127;0.03017342;-0.08749567;0.28804013;0.4527748;0.008399718;-0.4681848;-0.15795511;-0.010009517;-0.18916686;0.31702232;0.08466539;-0.36540535;-0.4352637;-0.0007364831;-0.22522363;-0.9235752;0.37262762;0.07287068;-0.59915537;-0.16707695;-0.12817226;-0.38680503;0.076807134;-0.12649775;-0.112399995;-0.06709439;0.029030042;0.20044409;-0.19794787;-0.5015457;-0.016154967;0.024022497;-0.45206016;-0.35468253;0.12741894;0.09320708;0.19077477;-0.14193499;-0.20024447;0.11473274;0.41940692;0.27550542;0.43038043;0.41335914;0.5369235;0.5693516;-0.2052243;0.047214687;0.58885556;0.25895846;0.3084862;0.6010437;-0.23670194;0.12965144;0.5592728;-0.54472584;-0.07238955;0.28538835;0.16233715;0.115408055;-0.022104975;0.18567227;-0.054717287;-0.42730838;0.17542917;0.030970918;-0.15575266;0.038566466;0.4624935;0.4147091;0.25330162;0.76508605;0.5050914;0.06616285;0.29439357;0.10867389;0.25539804;0.29535547;0.20847867;-0.053645436;0.16951583;0.064745255;0.3842089;0.014843087;0.04732859;0.2740875;-0.04335036;-0.32640022;0.4121813;-0.02768453;-0.30416998;0.31525728;0.08570199;-0.07731797;0.12708434;0.11422269;-0.043137074;0.17032245;0.14650346;-0.2187124;0.32168257;-0.19897549;-0.22421384;0.24182707;0.5237564;0.6167325;-0.5120059;-0.15144634;0.34510413;0.13848868;-0.087538935;0.17561123;0.22823831;-0.036070343;-0.8872656;-0.09313752;0.05533307;-0.06684952;0.064922124;0.011680806;-0.105507515;-0.23170239;-0.18045649;-0.7079005;-0.011053884;-0.33662942;-0.42233312;0.18809375;-0.21047577;-0.12669653;-0.005567797;0.24228907;0.3162756;0.085824884;0.096605435;0.31832537;0.2733022;0.10555088;0.081441395;0.29647347;-0.19307715;-0.4448706;-0.15711348;-0.1017542;-0.42187354;-0.32281566;-0.048582137;-0.048967373;-0.03946151;-0.2806736;0.013248389;0.31985867;-0.17254545;-0.3982241;-0.27153832;0.011903996;-0.34443274;-0.07743843;0.06060505;0.02562241;0.17878994;0.29462332;0.2673191;-0.16245314;0.17036037;0.09095827;0.28477994;-0.18507585;0.09729768;-0.15281577;-0.33567756;-0.09686042;0.104332;0.096588776;0.41368967;-0.023141127;-0.4149163;-0.30413625;-0.12293388;-0.30301288;0.07503794;-0.090851896;-0.16435766;0.19782972;-0.36847204;-0.19555575;-0.2555485;-0.32642755;-0.15327221;-0.27468854;0.123993576;0.10370212;0.022978952;0.5648421;0.670925;-0.13512255;0.13854864;-0.3349651;-0.03349716;0.56023365;-0.05259915;-0.25122502;0.25204983;-0.027815979;0.21521205;-0.14267562;-0.5033571;-0.26601505;-0.6421168;-0.43975884;-0.24363501;0.37192217;-0.11061813;0.18105082;0.26996246;-0.13805372;0.19943067;0.124385215;-0.34224483;-0.31162223;0.3874918;-0.04931002;-0.05973158;0.15438238;0.017705208;-0.26391166;-0.14579454;-0.31881815;-0.89493245;-0.042418793;-0.26472908;-0.07765486;0.087155506;0.12138482;0.21052149;-0.047998838;0.07919005;-0.08118838;0.22572473;0.26441276;0.69153416;0.3594858;0.16221975;0.6842527;0.2101867;0.10831283;0.15728836;0.21902768;0.32612723;0.52025265;0.16617964;0.17205082;0.31846637;-0.07232588;-0.2773163;0.21873584;-0.024717169;-0.57714295;-0.43496773;-0.072362565;-0.5852368;-0.24042372;0.23593606;0.022876658;-0.06702299;-0.015643612;-0.26579583;0.26680264;-0.38806683;-0.31426272;0.2947945;0.07973677;-0.12043949;0.16884452;-0.33087984;0.040109124;0.033655953;-0.058259096;0.2267396;-0.1589311;-0.030907245;0.27118912;0.50002533;-0.066276826;0.1264043;0.5690889;-0.15714134;-0.121742405;0.51384413;0.19875942;-0.014611157;-0.048287235;0.12031984;-0.22228345;-0.23883434;-0.55393684;-0.45357463;-0.54667723;-0.22492883;-0.2606653;-0.62444824;-0.59802145;-0.43439108;0.11325131;-0.53066146;-0.16937315;0.26319137;-0.13094789;-0.08446501;0.15353398;-0.29146004;-0.42295358;-0.15042323;0.040219523;0.30055895;0.18196304;-0.047283374;0.24731243;-0.25314417;0.4575083;-0.03582949;-0.16783454;0.19371316;-0.32851717;-0.27874893;0.069019385;0.037944548;-0.3418658;0.017294291;0.23367967;-0.7656487;0.15158986;0.27982685;-0.1205703;-0.3686357;-0.7638727;-0.24595669;-0.32121864;-0.15607105;0.018478412;-0.054266524;0.34595183;0.2337783;-0.55559474;-0.49214497;-0.3172345;-0.29754975;-0.26637998;0.035121422;-0.22751087;0.111927845;0.2883203;-0.35926715;-0.20448461;-0.3171494;-0.5158511;-0.6262442;-0.12024783;0.044688433;-0.19133753;-0.17665666;0.024015151;-0.16114783;-0.23333073;-0.0049917665;-0.23786035;0.02717255;-0.24027462;-0.65409577;-0.2666006;-0.03561272;-0.54304886;-0.14925681;0.20849536;-0.13162374;0.005901152;-0.42878222;-0.033309255;0.31748316;-0.4788805;0.058783364;0.22234082;0.04235849;-0.23441127;-0.0734008;-0.18040934;-0.18630843;-0.005116884;-0.7254234;-0.28423882;0.11015837;-0.02430036;-0.020682203;0.168621;-0.08377383;0.18333082;0.2933583;0.029610837;-0.17814481;-0.0054371953;-0.2113155;-0.3999603;-0.34262103;0.008950549;-0.23049413;-0.13141733;-0.08818079;-0.3243313;0.018828133;-0.017516201;0.0403249;-0.5410824;-0.08900995;0.1010256;0.046636418;-0.008592544;0.07682437;0.56156987;0.1930901;-0.013978883;0.535435;-0.116362944;-0.42680046;-0.008321602;-0.37035128;-0.42105392;-0.031512275;-0.28081447;-0.28365037;-0.33840093;-0.27036348;0.19031535;0.23546681;-0.09762878;0.13572298;0.6190366;-0.025371114;-0.24538872;0.09235386;-0.1885915;-0.18148145;0.11558287;-0.18835698;0.2063429;0.22574669;0.3125211;0.37362814;0.21979444;0.48801687;0.36995667;-0.011111321;0.0483436;0.18634608;0.005226264;-0.1723872;-0.28202304;-0.3182984;-0.40243855;-0.39702645;0.05272287;-0.46773583;-0.49893457;0.25323498;-0.7087452;0.18577433;0.38789302;-0.6945569;-0.056658167;-0.6065757;-0.38872817;-0.4517054;0.18428877;0.074780814;0.42710492;0.11775906;0.22021759;0.079369426;0.27259552;0.5036576;0.00060860394;-0.02887471;-0.5237834;-0.1112151;-0.061381537;0.13564992;0.07982427;0.28968057;-0.07507417;0.3775055;0.45289457;-0.13244553;-0.241646;0.24399368;-0.31025892;0.17914356;0.009788379;0.25698987;-0.12274089;-0.10521519;0.009941815;-0.25948897;-0.06091111;-0.17187297;0.2809872;0.1369045;0.106523015;0.17801748;0.14964774;-0.1434166;-0.033875376;-0.17494941;-0.056346968;-0.14502613;0.1055713;0.008795083;0.094165824;0.6352338;-0.058488704;0.19297452;0.20717761;-0.18822856;0.0368444;0.20489062;-0.25039715;-0.560901;-0.50702864;-0.21867514;-0.18453151;-0.29138574;-0.46873543;-0.227309;0.04647515;-0.12422637;0.06327589;-0.23124911;0.021702226;-0.2316957;-0.13605846;-0.48414218;-0.25951082;-0.09851294;-0.19997759;-0.12564561;0.17762756;-0.7933196;-0.72186464;-0.45426178;-0.46980032;-0.7739195;-0.54130584;-0.029235331;-0.27537152;0.19146018;-0.07536769;-0.25320125;0.105950065;-0.25638682;-0.177712;0.15455441;-0.16462396;0.039715774;0.2831518;-0.30945686;-0.264317;-0.735091;0.02756335;-0.3086977;-0.22818108;-0.40586895;-0.009198836;0.18237752;-0.24373698;-0.16733217;0.07774628;0.31957754;-0.031203518;0.66991323;-0.18105489;-0.14337021;0.18230224;-0.2944616;-0.20644972;0.3693711;-0.17429388;0.36122483;0.31447685;-0.39699876;0.12773909;0.0074685467;-0.20352134;-0.02538121;0.10814224;-0.14168337;0.23309404;0.024384916;-0.02707725;0.24625583;-0.019268364;-0.27205232;-0.048354957;-0.1354743;0.09808185;-0.13780662;-0.048996117;0.18660033;-0.095059626;-0.37376577;0.10149491;-0.11321374;-0.26902476;0.49671638;0.5000867;0.30605257;0.29981172;0.23664479;-0.54265857;-0.31279674;-0.1594745;-0.46066618;-0.69860333;-0.2342387;-0.17191407;-0.09665737;-0.13364227;-0.14963433;-0.60392976;-0.13882975;-0.26939422;-0.115428746;0.083468966;0.3507404;0.15264918;-0.3978532;-0.043760687;-0.27044865;-0.26242015;0.0942842;-0.02765492;-0.09029189;0.17985316;-0.06690701;0.11828271;-0.3178683;0.11980846;-0.35824552;-0.26314783;0.08082431;-0.023791358;0.13109289;-0.12693001;0.24158502;0.3327215;0.2070294;0.110070035;-0.084984265;0.30437785;0.31373382;-0.11252946;0.15230942;-0.20871422;-0.024178278;-0.086204626;0.129587;0.13348591;0.12197584;-0.04201237;-0.15397112;0.030062247;-0.05322469;-0.047319155;-0.024322461;0.19827494;-0.110765204;-0.052770663;-0.048884246;-0.5624609;-0.16423403;-0.5618201;-0.51967764;-0.38352555;-0.22730827;0.45489112;0.2466953;0.020721955;0.17494482;0.5802939;0.43270043;-0.028477846;0.055364784;0.29871216;-0.28775972;0.36770716;-0.21709715;-0.6671141;0.19734937;0.01848711;-0.1192059;0.031056978;0.15508962;0.35833126;-0.41535652;0.30307332;0.12255849;-0.1011654;-0.28975117;-0.321212;0.28979763;0.10711912;0.029245844;-0.096548;-0.021187281;-0.18774642;0.06813869;-0.07783503;-0.2367893;0.07985582;0.0022391216;0.3620509;0.10678899;-0.047042258;-0.29979047;-0.1032408;-0.1970085;-0.07020928;0.4910905;0.30220664;0.115424596;0.40285048;0.2913968;0.23259434;0.20387612;0.07441891;0.39217913;-0.08751228;-0.5511967;-0.019239957;-0.12902892;-0.439422;-0.062714875;-0.06195865;-0.23251912;-0.33408725;-0.17310119;0.19532584;0.1150911;-0.2641293;0.42558566;0.33321038;-0.03752126;-0.09087151;0.35029322;0.1677119;-0.14254497;0.047432154;-0.016170768;-0.38132954;0.016759746;-0.13991855;-0.12588708;-0.5316654;0.31309998;0.31860685;-0.08350248;0.3155554;-0.07820141;-0.23249227;0.14848177;-0.35049304;-0.7289003;-0.032592006;0.01927042;0.12482834;0.31101105;0.25101778;0.219134;0.26814714;0.3752147;0.22613205;-0.031354602;-0.03729422;-0.30499658;0.045350607;0.3553962;0.09991506;0.080150284;0.18123592;-0.14996803;-0.47796038;0.30354112;0.24505547;0.09456254;0.098745726;-0.18988045;0.14942202;0.090753235;-0.20983176;0.20555945;-0.25062636;0.2407987;-0.1019053;-0.29303086;0.3013387;-0.1046752;-0.29007232;0.23517658
