kernel;bias;d0_w00;d0_w01;d0_w02;d0_w10;d0_w11;d0_w12;d0_w20;d0_w21;d0_w22;d1_w00;d1_w01;d1_w02;d1_w10;d1_w11;d1_w12;d1_w20;d1_w21;d1_w22;d2_w00;d2_w01;d2_w02;d2_w10;d2_w11;d2_w12;d2_w20;d2_w21;d2_w22;d3_w00;d3_w01;d3_w02;d3_w10;d3_w11;d3_w12;d3_w20;d3_w21;d3_w22;d4_w00;d4_w01;d4_w02;d4_w10;d4_w11;d4_w12;d4_w20;d4_w21;d4_w22;d5_w00;d5_w01;d5_w02;d5_w10;d5_w11;d5_w12;d5_w20;d5_w21;d5_w22;d6_w00;d6_w01;d6_w02;d6_w10;d6_w11;d6_w12;d6_w20;d6_w21;d6_w22;d7_w00;d7_w01;d7_w02;d7_w10;d7_w11;d7_w12;d7_w20;d7_w21;d7_w22;d8_w00;d8_w01;d8_w02;d8_w10;d8_w11;d8_w12;d8_w20;d8_w21;d8_w22;d9_w00;d9_w01;d9_w02;d9_w10;d9_w11;d9_w12;d9_w20;d9_w21;d9_w22;d10_w00;d10_w01;d10_w02;d10_w10;d10_w11;d10_w12;d10_w20;d10_w21;d10_w22;d11_w00;d11_w01;d11_w02;d11_w10;d11_w11;d11_w12;d11_w20;d11_w21;d11_w22;d12_w00;d12_w01;d12_w02;d12_w10;d12_w11;d12_w12;d12_w20;d12_w21;d12_w22;d13_w00;d13_w01;d13_w02;d13_w10;d13_w11;d13_w12;d13_w20;d13_w21;d13_w22;d14_w00;d14_w01;d14_w02;d14_w10;d14_w11;d14_w12;d14_w20;d14_w21;d14_w22;d15_w00;d15_w01;d15_w02;d15_w10;d15_w11;d15_w12;d15_w20;d15_w21;d15_w22;d16_w00;d16_w01;d16_w02;d16_w10;d16_w11;d16_w12;d16_w20;d16_w21;d16_w22;d17_w00;d17_w01;d17_w02;d17_w10;d17_w11;d17_w12;d17_w20;d17_w21;d17_w22;d18_w00;d18_w01;d18_w02;d18_w10;d18_w11;d18_w12;d18_w20;d18_w21;d18_w22;d19_w00;d19_w01;d19_w02;d19_w10;d19_w11;d19_w12;d19_w20;d19_w21;d19_w22;d20_w00;d20_w01;d20_w02;d20_w10;d20_w11;d20_w12;d20_w20;d20_w21;d20_w22;d21_w00;d21_w01;d21_w02;d21_w10;d21_w11;d21_w12;d21_w20;d21_w21;d21_w22;d22_w00;d22_w01;d22_w02;d22_w10;d22_w11;d22_w12;d22_w20;d22_w21;d22_w22;d23_w00;d23_w01;d23_w02;d23_w10;d23_w11;d23_w12;d23_w20;d23_w21;d23_w22;d24_w00;d24_w01;d24_w02;d24_w10;d24_w11;d24_w12;d24_w20;d24_w21;d24_w22;d25_w00;d25_w01;d25_w02;d25_w10;d25_w11;d25_w12;d25_w20;d25_w21;d25_w22;d26_w00;d26_w01;d26_w02;d26_w10;d26_w11;d26_w12;d26_w20;d26_w21;d26_w22;d27_w00;d27_w01;d27_w02;d27_w10;d27_w11;d27_w12;d27_w20;d27_w21;d27_w22;d28_w00;d28_w01;d28_w02;d28_w10;d28_w11;d28_w12;d28_w20;d28_w21;d28_w22;d29_w00;d29_w01;d29_w02;d29_w10;d29_w11;d29_w12;d29_w20;d29_w21;d29_w22;d30_w00;d30_w01;d30_w02;d30_w10;d30_w11;d30_w12;d30_w20;d30_w21;d30_w22;d31_w00;d31_w01;d31_w02;d31_w10;d31_w11;d31_w12;d31_w20;d31_w21;d31_w22;d32_w00;d32_w01;d32_w02;d32_w10;d32_w11;d32_w12;d32_w20;d32_w21;d32_w22;d33_w00;d33_w01;d33_w02;d33_w10;d33_w11;d33_w12;d33_w20;d33_w21;d33_w22;d34_w00;d34_w01;d34_w02;d34_w10;d34_w11;d34_w12;d34_w20;d34_w21;d34_w22;d35_w00;d35_w01;d35_w02;d35_w10;d35_w11;d35_w12;d35_w20;d35_w21;d35_w22;d36_w00;d36_w01;d36_w02;d36_w10;d36_w11;d36_w12;d36_w20;d36_w21;d36_w22;d37_w00;d37_w01;d37_w02;d37_w10;d37_w11;d37_w12;d37_w20;d37_w21;d37_w22;d38_w00;d38_w01;d38_w02;d38_w10;d38_w11;d38_w12;d38_w20;d38_w21;d38_w22;d39_w00;d39_w01;d39_w02;d39_w10;d39_w11;d39_w12;d39_w20;d39_w21;d39_w22;d40_w00;d40_w01;d40_w02;d40_w10;d40_w11;d40_w12;d40_w20;d40_w21;d40_w22;d41_w00;d41_w01;d41_w02;d41_w10;d41_w11;d41_w12;d41_w20;d41_w21;d41_w22;d42_w00;d42_w01;d42_w02;d42_w10;d42_w11;d42_w12;d42_w20;d42_w21;d42_w22;d43_w00;d43_w01;d43_w02;d43_w10;d43_w11;d43_w12;d43_w20;d43_w21;d43_w22;d44_w00;d44_w01;d44_w02;d44_w10;d44_w11;d44_w12;d44_w20;d44_w21;d44_w22;d45_w00;d45_w01;d45_w02;d45_w10;d45_w11;d45_w12;d45_w20;d45_w21;d45_w22;d46_w00;d46_w01;d46_w02;d46_w10;d46_w11;d46_w12;d46_w20;d46_w21;d46_w22;d47_w00;d47_w01;d47_w02;d47_w10;d47_w11;d47_w12;d47_w20;d47_w21;d47_w22;d48_w00;d48_w01;d48_w02;d48_w10;d48_w11;d48_w12;d48_w20;d48_w21;d48_w22;d49_w00;d49_w01;d49_w02;d49_w10;d49_w11;d49_w12;d49_w20;d49_w21;d49_w22;d50_w00;d50_w01;d50_w02;d50_w10;d50_w11;d50_w12;d50_w20;d50_w21;d50_w22;d51_w00;d51_w01;d51_w02;d51_w10;d51_w11;d51_w12;d51_w20;d51_w21;d51_w22;d52_w00;d52_w01;d52_w02;d52_w10;d52_w11;d52_w12;d52_w20;d52_w21;d52_w22;d53_w00;d53_w01;d53_w02;d53_w10;d53_w11;d53_w12;d53_w20;d53_w21;d53_w22;d54_w00;d54_w01;d54_w02;d54_w10;d54_w11;d54_w12;d54_w20;d54_w21;d54_w22;d55_w00;d55_w01;d55_w02;d55_w10;d55_w11;d55_w12;d55_w20;d55_w21;d55_w22;d56_w00;d56_w01;d56_w02;d56_w10;d56_w11;d56_w12;d56_w20;d56_w21;d56_w22;d57_w00;d57_w01;d57_w02;d57_w10;d57_w11;d57_w12;d57_w20;d57_w21;d57_w22;d58_w00;d58_w01;d58_w02;d58_w10;d58_w11;d58_w12;d58_w20;d58_w21;d58_w22;d59_w00;d59_w01;d59_w02;d59_w10;d59_w11;d59_w12;d59_w20;d59_w21;d59_w22;d60_w00;d60_w01;d60_w02;d60_w10;d60_w11;d60_w12;d60_w20;d60_w21;d60_w22;d61_w00;d61_w01;d61_w02;d61_w10;d61_w11;d61_w12;d61_w20;d61_w21;d61_w22;d62_w00;d62_w01;d62_w02;d62_w10;d62_w11;d62_w12;d62_w20;d62_w21;d62_w22;d63_w00;d63_w01;d63_w02;d63_w10;d63_w11;d63_w12;d63_w20;d63_w21;d63_w22
0;0.00016544278;-0.008225645;0.01518692;-0.06413812;0.041386586;-0.054579046;-0.01998111;0.021760453;-0.0305871;0.009934543;-0.014103212;-0.020743685;0.023481175;0.008087867;0.009070782;-0.03797353;0.040807884;-0.040304914;0.003261896;-0.01773765;0.061367366;0.046151362;-0.02170606;0.07869964;0.02761455;0.020482102;0.042955235;0.060847428;0.0074259206;-0.024236431;-0.054736212;0.043193143;-0.020719474;-0.060507886;-0.015631162;0.035852663;-0.032131985;0.018703368;-0.042933505;-0.01626946;0.051809993;0.021730136;-0.0044381153;0.015341528;-0.048088096;-0.07222706;-0.02235054;-0.0039970963;-0.029665634;-0.052749243;0.049598172;0.028751329;-0.04545827;0.0030405778;0.00916041;0.026481248;0.030463453;-0.062935546;-0.06915553;-0.017389348;-0.026799385;-0.009481462;-0.05852517;0.013948655;-0.016312843;0.020837342;-0.05395906;0.04295183;0.033550147;0.019883811;0.039823916;0.013863218;-0.04863919;-0.03574893;-0.047787476;-0.025311915;-0.027037388;-0.051746815;-0.005108887;-0.014154;-0.025801355;0.010867625;0.03059716;-0.047260124;0.05339929;0.0018917295;-0.02491248;0.046121906;-0.056711078;-0.026321784;-0.019100592;0.028296849;0.06885695;0.060226865;0.035902925;-0.030456226;0.045910373;0.031713277;0.027541544;0.038824532;-0.021488275;0.028318224;0.059212103;0.05671551;0.0038395606;0.054406848;-0.009303855;0.07214678;0.09577458;-0.001291892;-0.041993834;0.008355077;0.06548731;-0.013619004;0.062429957;-0.037561327;-0.023357017;-0.03090453;0.060273875;0.0018376402;-0.035605896;-0.051338177;-0.020152692;-0.032251563;-0.0011227715;-0.054455496;0.009603138;-0.015206349;0.07783236;0.07129442;-0.02542249;-0.015076395;0.0029108452;0.036544304;0.021445435;-0.028716922;0.01030263;0.027442835;0.015403216;-0.02269819;-0.055498175;-0.057512473;-0.0483433;-0.022135107;-0.06861352;-0.040154263;0.0436021;0.0261102;-0.004384009;-0.037611734;0.043835722;-0.0075531574;0.02166375;-0.022617606;0.037260097;0.030281529;0.014745654;-0.050761916;-0.01236707;-0.0014061845;-0.04177929;-0.05356187;-0.008317785;-0.021605294;-0.04501319;-0.040924776;0.06109523;-0.025227075;0.0036268148;0.049239796;0.011403479;-0.010679243;0.027661867;0.043967783;-0.0020246336;-0.030386025;-0.032927424;0.033485897;0.042322543;0.04384481;-0.020180902;0.02564701;-0.041778106;-0.020018915;0.0012424549;-0.049221754;-0.0259957;-0.045473386;0.044755645;-0.045821283;-0.01795286;-0.00036168023;-0.06556546;-0.0058412254;-0.020436537;-0.06838678;-0.008884487;0.037985526;-0.0043508443;-0.04218643;-0.04387872;-0.051912554;-0.06675729;0.043544553;-0.029543173;0.040400952;-0.0045617186;0.050513685;-0.003551607;0.007693034;0.021024307;-0.05878261;-0.027460307;0.04846724;0.05822871;0.07086922;0.007618223;0.014455926;-0.047571406;0.032124788;-0.02987099;0.01067339;-0.011703213;-0.018465158;0.022795057;-0.043397333;-0.0013260187;0.015745848;0.057418756;0.026721591;-0.034827493;0.045948498;0.010091758;-0.022498816;0.021406844;-0.06237431;0.027713872;-0.04171554;-0.047907695;-0.048947483;-0.06669021;-0.0037807918;-0.04434661;-0.056107104;0.06322287;-0.019564696;-0.065687574;-0.0006146095;-0.024086634;0.013556609;0.06747421;0.016342804;0.042507626;-0.055024404;-0.043685764;-0.02457258;-0.0021415472;-0.05943922;-0.051122673;0.040363923;-0.040881563;-0.051365845;-0.054786816;0.032625627;-0.029076079;0.03084066;-0.021694805;-0.015177777;0.022562211;-0.06960237;-0.062145334;-0.051988345;0.030082615;-0.014235236;0.0027641186;0.032806683;0.016117213;0.034027975;-0.027503233;0.008762872;0.039735407;-0.036869515;-0.06686157;0.050960504;0.002731207;0.016050907;0.05996341;0.049428396;-0.021222522;-0.017802292;0.0007354257;-0.07708508;-0.009297389;-0.011475959;-0.007049983;-0.0121370545;0.0061454815;-0.004353562;-0.051683895;-0.062524825;-0.03275859;0.05145927;-0.0076308977;-0.027023463;-0.010583721;-0.04958258;-0.018541126;0.025602147;-0.037134323;-0.03354037;0.028226877;-0.019937826;0.01436726;-0.04245476;0.012166838;0.0359553;-0.037338763;-0.027414974;0.0038301595;-0.03498387;0.024747387;0.038924586;0.03856394;0.01851949;0.01371353;0.043530166;0.0009804394;0.032004613;0.016162988;-0.0017801696;-0.06704431;-0.04125172;0.012959513;-0.031364616;0.054377228;0.022227803;-0.031035045;-0.012457086;-0.014996006;0.006960071;0.0019288834;-0.046234746;-0.0253448;0.04563842;0.060332984;0.033109527;-0.012957015;0.015791813;0.03945263;0.066810675;-0.008208192;0.05060974;-0.064062476;0.06432969;-0.053073347;-0.04099722;0.02654598;-0.021835405;0.00458992;0.017393216;0.055263642;-0.0675437;0.0050674933;0.02752302;-0.044407964;0.017391197;0.0034230612;-0.047859162;0.016560318;0.044060666;-0.028477516;-0.01168166;0.036267903;-0.08501303;-0.05511554;-0.079868294;0.031507615;0.022282453;0.011345476;-0.035041176;0.0013702753;0.018349292;0.007427034;-0.0007354049;-0.056162134;-0.00309774;0.043674294;0.011224574;0.013957761;0.016470047;0.008461332;0.031070925;0.0025525521;-0.0074533303;0.015007249;0.02111757;-0.01604903;0.017796073;0.036794122;0.006443955;0.024793569;-0.052361574;0.018812118;0.041435957;-0.06944772;-0.03302486;0.06498579;0.004129829;-0.036727764;-0.04544544;-0.04447804;0.057020437;-0.05458893;-0.0068408772;0.017214451;-0.040611643;-0.0015785043;0.06723089;0.018117405;-0.0073645613;0.05687025;0.058008906;0.013576134;-0.0056053894;0.074754484;0.015506313;0.055090982;-0.0021354249;0.066853814;0.0050891633;0.017824009;0.026705096;-0.011631859;-0.02251442;0.027644346;-0.04245185;0.0053555816;-0.045151863;-0.033494577;0.0042028544;-0.014321125;0.046205968;-0.036226172;-0.012499339;0.030175528;0.03899809;0.03719701;-0.035215575;0.004310775;0.044341445;0.02481332;-0.005841669;-0.036757752;-0.027112981;0.04557723;-0.025829943;0.026315637;-0.0055092387;-0.0441119;0.052986164;0.017976802;0.048064757;0.053290706;0.0051400964;-0.06746973;-0.064618245;0.025561098;-0.039148126;0.019010792;0.03803633;-0.018919436;0.04698319;0.02042216;0.05318099;-0.03284393;0.014338007;0.020272963;0.05397154;-0.016366808;-0.03707769;-0.04641772;-0.0143207;0.04078502;-0.010738893;0.06973992;-0.054750443;-0.034895945;0.03917137;-0.043295678;-0.096332744;-0.058859345;-0.0017669777;0.016972315;-0.015864728;-0.023031913;-0.08066973;-0.004687417;-0.020391459;-0.016845586;-0.041261654;-0.010923391;-0.042616848;-0.007765295;0.024943598;-0.030924408;-0.035134457;0.019021012;-0.033774637;-0.05183359;-0.011188117;-0.07000966;0.033843584;-0.017189845;0.026426857;-0.042879194;-0.011739452;-0.041663405;-0.022620194;0.00920179;-0.05615128;0.044947606;-0.031617288;-0.03779754;-0.036793374;0.039778814;0.034421716;0.03471051;-0.047772445;-0.04786962;0.019073004;-0.047549807;-0.01517341;0.0029658729;0.01715745;-0.04349228;-0.040455025;-0.0017311891;-0.0030723347;0.040701337;0.021496698;0.03200792;-0.011966896;-0.008238973;-0.04793398;0.043434635;0.02391455;-0.059941296;-0.002780833;0.039154302;-0.037203945;-0.036106788;-0.006178861;0.04740402;-0.05200558;0.039468035;0.07740534;0.020950332;-0.021961441;0.01788595;0.023953466;-0.044492785;0.009909616;-0.023059912;-0.038570967;-0.014161765;-0.020430652;-0.015091115;-0.036612425;0.001115823;0.0070023905;-0.029058456;-0.0408086;-0.04389039;-0.037276722;-0.043502778;0.059013803;0.06611462
1;5.976791e-05;0.07306115;0.005404248;-0.048440054;0.06660549;0.018690484;0.035182845;0.027769873;0.008777694;-0.0010622351;-0.008485137;0.05026548;-0.010459507;0.027069867;0.054161564;0.035647478;0.045113157;0.024582857;-0.019840667;-0.079706565;-0.026788745;-0.051435266;-0.040965766;0.007645053;0.00079811626;-0.049707666;-0.059837177;0.07355409;-0.023467464;0.031514414;-0.05840657;-0.018722538;-0.020387875;-0.050135195;0.012452276;-0.04045123;-0.0474243;-0.01646929;-0.056660783;0.047114585;0.0050327745;-0.04091811;0.047728468;-0.037914183;-0.049946576;0.041001655;0.008974958;0.034370363;0.024962548;0.042102385;0.060798496;0.00015510528;0.03750962;0.03298143;-0.0629952;0.0025208653;-0.024900187;0.029832223;0.017551964;-0.013810551;-0.030093072;0.056264326;0.07809635;-0.03385544;-0.07147669;-0.009837831;0.06549955;0.0021265496;0.058172867;-0.02308381;0.010025585;-0.024853807;-1.4925579e-05;-0.033770416;0.045989774;-0.009021418;0.06270655;-0.05071721;0.015923569;0.07012088;-0.035609886;0.059373237;0.0010780352;-0.0001243085;0.0682509;0.065028735;0.015023218;-0.027049752;0.059714504;0.0767811;0.0036068782;-0.042580646;-0.047843736;-0.05377835;0.027259748;0.03356268;0.023707513;0.0042349715;-0.041724112;0.052589968;-0.015672306;0.005341011;-0.053794924;-0.063444406;0.0065889014;-0.017093522;-0.022340236;-0.007377435;0.022768788;-0.042688288;-0.031779066;0.022984538;-0.040090222;0.040545058;-0.017165752;-0.040147275;-0.07392177;0.02598788;0.015522391;-0.013678719;-0.0028029147;0.018403314;-0.03484597;-0.00085031294;-0.05331566;-0.014586247;-0.004032075;-0.033852346;-0.008582195;-0.037954748;0.0072964835;0.038031626;0.037561197;-0.061803024;-0.026131576;-0.0076947683;-0.017916651;0.020862427;0.04680418;0.024676844;0.031676788;0.043694284;0.07402646;0.05076889;0.054397695;-0.04480128;-0.0001576647;0.048447315;0.0033270684;-0.022709595;-0.004046588;0.0020879342;-0.022879079;0.01310001;0.056549396;-0.015883857;0.06839033;-0.015612756;0.012534306;0.016847542;0.049203455;0.01644268;-0.00815087;0.047835335;-0.04132616;-0.053076033;0.038106;-0.015553558;-0.017459622;-0.022908675;-0.026064953;0.0027708756;0.03807528;-0.004372519;-0.054011356;-0.062741905;0.0026896116;-0.052534863;0.026805995;0.061764862;-0.0021130748;0.027503857;-0.015392435;0.059907366;0.077277504;-0.018836694;0.00959211;0.058488596;0.025559554;-0.016781716;0.009612666;0.040709306;0.0508212;-0.0454843;0.017240098;0.047909155;0.041860603;-0.0046425713;0.016954713;-0.014176785;0.02522914;-0.05829323;0.018797401;0.014318716;0.04037883;0.02153645;0.010223236;0.046374127;0.054572735;-0.019004673;0.06312785;0.035411876;0.022237906;0.018661074;0.045870464;-0.03259634;0.012333183;-0.07391558;-0.043926924;0.0114993295;-0.04881799;0.021520345;-0.05564408;-0.034299403;-0.03314628;0.07013683;-0.028151706;-0.07412911;0.048409216;-0.060077157;-0.030135829;-0.0060988637;0.02401763;0.052762046;0.044036806;-0.010264095;-0.01807906;0.028359383;-0.026545653;0.051411543;0.047937382;0.00054725533;-0.048337165;-0.053435363;-0.0060781958;-0.012028079;-0.0057920627;-0.03945052;0.029382043;0.034806795;-0.022058763;0.038633242;0.022975817;-0.06598005;0.002993764;0.034372192;-0.044105858;0.04545794;-0.03388641;-0.0064984187;0.034473747;0.019920118;0.035126355;0.057016876;0.02186751;0.011678499;-0.028505959;-0.039621204;0.013767756;-0.030932376;0.03423761;-0.015010604;-0.038319107;0.05377147;0.030742923;0.048675284;-0.013456248;0.0223359;-0.040364277;-0.053315256;-0.03657602;0.0360731;0.013286347;0.021110678;-0.022046844;0.033429146;-0.02149295;0.026676735;-0.023629297;-0.06627176;-0.023288425;-0.0023396013;0.029709425;0.02624874;0.029892556;0.04144241;-0.0042546783;0.07609764;-0.02895093;-0.002706427;0.016380388;-0.053661723;0.03810303;0.053068127;-0.021245675;-0.017344272;-0.023130048;0.0046746293;-0.031317778;-0.014733932;-0.07664655;0.026352435;-0.05695443;-0.018313633;0.0457686;-0.020161992;0.057436693;-0.035209924;-0.036656447;0.012606817;0.038215704;0.046391092;-0.024768427;0.024187136;0.032883488;0.050696123;0.029942911;-0.044818748;-0.057192456;-0.08193537;0.003228769;-0.044718925;0.007289236;-0.008659892;-0.037869405;0.0006184263;-0.04175812;-0.034996834;-0.017051341;0.037322395;0.027368948;0.034435123;0.050199404;-0.043017395;-0.00041476422;-0.03855923;-0.019974379;-0.027173044;-0.016666899;-0.019616988;-0.033845827;-0.016222488;-0.040217966;-0.01793617;0.057533786;-0.055462167;0.049009476;-0.038778983;0.04616822;-0.024204185;0.035906922;0.047136396;-0.01973155;-0.039447635;0.045367576;0.033735223;-0.028122244;-0.008982815;0.05898202;0.057153992;-0.040169515;0.015599028;-0.015680302;0.006912238;0.035770323;-0.028335458;-0.0367632;0.03466223;0.0076000295;-0.021797866;-0.017069617;-0.018471258;0.055933025;0.0039026556;0.04911504;0.04257328;0.068960026;0.04741135;0.019295918;-0.04497562;0.048465993;-0.017235247;-0.017040152;0.029920822;0.024754265;0.0059079914;-0.01999668;-0.026334725;0.010863813;-0.025610361;0.014601391;0.03290654;-0.047252692;-0.04789184;0.0035811448;-0.039793137;0.08280935;0.053670757;-0.016573178;0.010852142;-0.018974429;0.026874475;0.007927613;-0.008314374;-0.012036878;0.0020657426;0.03068443;0.062096227;-0.02939726;0.04332221;-0.03396932;0.027400931;-0.057103276;0.012926226;-0.013128335;0.032983985;-0.03475663;-0.029584207;-0.021935018;0.05313097;-0.076622985;-0.056463573;0.02396126;-0.025256015;0.023105832;-0.02342459;-0.04851033;0.018681465;0.03251398;0.011879341;0.07482819;0.0012495395;-0.010467744;-0.05117186;0.039667893;0.010666514;-0.032247514;-0.034430284;-0.06834144;-0.038135596;-0.026661532;-0.033629548;0.0205074;0.034166567;0.045973178;0.081660666;0.0360129;0.008970613;0.0050629466;0.028299067;0.060176875;-0.040300205;-0.047285702;-0.029508794;0.056965664;-0.033163227;-0.024814025;0.0424562;-0.043915555;-0.029200999;-0.04056495;-0.03438685;0.020782279;-0.005216629;-0.036437836;-0.060051527;-0.07488836;-0.05738068;0.029378928;0.017856704;-0.01607004;0.021869453;-0.04999386;0.0196111;-0.02371736;-0.011834973;0.03465463;-0.046677113;-0.030220589;0.015509968;0.04080622;-0.029233487;-0.010126389;0.01968842;0.023441687;-0.05152242;-0.01655661;-0.00960571;-0.03543257;-0.030372169;-0.00084634;-0.05687739;-0.024739204;-0.040397305;-0.067679755;0.06419349;0.033149734;0.012651715;0.046312395;0.0572748;-0.040583942;0.04686854;0.0031793357;0.0049392665;-0.024702076;-0.046706226;0.056004994;-0.032197833;0.009219826;-0.04704683;-0.037213963;-0.0016520822;-0.04121577;-0.05654388;-0.045896668;0.04259387;0.00678705;0.035054397;0.049925927;0.020923913;0.023912719;-0.03766501;0.01670806;0.023309689;-0.038625542;0.01714689;-0.02719422;0.06393846;-0.043063153;-0.040426385;0.065947205;0.018851638;0.027785977;-0.06315628;0.04928356;0.07439539;0.048217487;0.024962202;-0.011860653;-0.053721193;-0.04018084;-0.023487603;-0.042220682;0.022494564;0.026547814;0.030246727;-0.01938101;-0.05076803;0.07434103;-0.06359414;0.026330799;0.045570895;0.0029841664;0.055271797;0.034316137;0.04239729;0.020283842;-0.01174656;-0.0023676618;0.0018081028;0.006585608;0.021886852;0.032474317;0.070356846;-0.0021707714;-0.031043634;-0.013287307
2;0.0005854587;0.025475184;-0.03602533;0.023478981;-0.022937948;0.010798004;0.041797087;0.035039265;0.01787246;0.031194568;-0.005089606;-0.06692842;0.019329453;-0.018451268;-0.0071548703;-0.069693096;-0.003362765;0.009965403;-0.015178337;0.048113834;0.0012060405;0.02661392;-0.024350107;-0.03624914;-0.01866986;0.039139554;-0.049589045;-0.04072394;-0.007754536;-0.055877283;0.062178906;-0.06132304;0.02475828;-0.03236121;0.025174785;0.022560852;0.02118765;0.0070977025;-0.08312555;-0.053243496;-0.053436622;0.036559924;-0.007906317;0.008492058;-0.030838713;0.045419294;-0.064546764;-0.052559283;-0.023871616;-0.034882404;-0.025493821;-0.018191207;-0.012725124;-0.0076973024;-0.008921941;-0.003633401;-0.043836296;0.032447778;-0.019914152;-0.013096684;-0.05754657;0.0071442584;-0.0014429184;0.012855948;-0.012923811;-0.023664758;0.018245;0.014873058;0.043350633;0.030697044;0.031544432;-0.038057853;-0.057333633;-0.041169003;-0.059403084;-0.04358385;-0.057354104;-0.058689754;0.022490246;-0.041644167;0.052953266;0.03339029;0.0148848565;-0.037778415;-0.026511194;0.045012996;-0.03208006;0.02841231;0.0778217;0.03248086;0.044406913;0.051148757;-0.035358913;0.009156549;-0.022313073;0.0022542768;0.02083112;0.007925372;0.0057952623;-0.03789692;-0.055306096;-0.013612287;0.04472939;0.017176319;-0.0006151648;0.044221044;-0.034081094;0.041514616;-0.043696925;-0.05628957;-0.052164447;0.009759187;0.028533887;0.06612577;0.010976164;-0.011000612;0.031002397;-0.010765074;-0.009515343;-0.05117645;0.019882042;-0.003035292;-0.04340709;0.06731539;-0.0140920505;-0.032966524;-0.04128633;0.015787883;-0.00072099076;0.027796555;7.098581e-05;-0.034075104;0.003383426;-0.0024423462;0.019229729;0.032967355;0.022139706;-0.036915865;-0.011258134;0.05835354;0.024575794;0.0019694194;0.029628782;0.013044288;0.035834674;-0.038513325;-0.024276584;0.056890585;0.06278121;-0.04916673;0.020204425;-0.001839877;-0.021027682;0.034290045;-0.036354434;-0.01227719;-0.021756988;0.004519745;-0.001664072;-0.0054069697;-0.03795519;-0.012467827;0.014709938;-0.037327453;0.021008046;-0.058608077;-0.018918479;0.018108731;0.00053852535;0.028878441;0.050501686;0.0132029485;0.03930079;0.026373431;0.0379542;-0.024275484;0.019893816;0.06657202;-0.0030851013;0.03695437;0.028853064;0.014949622;-0.0044276738;-0.034356125;0.03286472;-0.06555223;-0.04138448;0.029267497;0.015766373;-0.034549292;-0.06272365;0.043859992;-0.03826494;-0.0060068415;-0.019957937;0.013305227;0.06687265;0.020406935;-0.027093906;0.018433427;-0.05104225;-0.047711078;-0.07375625;0.039448004;0.024000147;-0.0040578325;0.01339718;0.045225155;0.021800509;-0.018169167;0.04514161;-0.0065334644;0.037378173;-0.017424015;0.022773791;0.02892098;0.07225473;-0.002800834;-0.03429449;0.0145129915;0.014690975;0.01902798;0.04222554;-0.04744673;0.046788324;0.06016358;0.050841585;0.05498396;0.05427837;0.0018334334;0.03619725;-0.036612052;-0.0051926174;-0.05482104;0.05645124;0.046021942;-0.056033973;-0.0455972;0.03834555;-0.0067449305;0.037061706;0.009511691;0.050646745;0.0022608293;-0.018851237;0.0040102773;-0.062344912;0.06398055;-0.037109826;0.04566898;0.03591889;0.02975304;0.04998538;0.036314193;0.029524853;-0.04010368;-0.05411544;-0.05583907;-0.050619323;0.014758836;-0.022495164;0.026961638;-0.045891482;-0.015112703;0.0023739527;0.021318791;-0.022520147;-0.0049764123;0.047319535;-0.01909737;-0.029520268;-0.023796897;-0.02279417;0.046528954;-0.0014517352;0.010351864;-0.056597702;0.042098694;-0.03100053;-0.01554154;-0.014683646;0.037879765;0.062924676;-0.012160482;-0.0035011857;-0.031829312;-0.027868504;0.056713115;0.06891778;0.022166716;0.027960144;-0.059680987;-0.03440904;0.02812675;0.05869684;0.02522783;-0.051433794;-0.036432188;-0.013726486;0.031999033;-0.024850702;0.016181892;-0.021081321;-0.002303761;-0.027328255;-0.0023029887;-0.048863724;0.040124774;0.006364;-0.060956;-0.03539854;0.012793821;-0.049214862;-0.013046055;0.03251754;-0.008364852;0.0020529698;-0.034861974;0.035170004;-0.0080330875;0.043908063;0.010080933;-0.038783144;-0.011642854;0.044605177;-0.0033874887;-0.0042457636;0.02522806;0.034911532;0.05498795;-0.03425592;-0.021268573;0.071358025;0.0500117;-0.014487987;-0.028491793;0.015792875;0.0044923807;-0.034420457;-0.0009045554;-0.06309444;0.0060752286;-0.0036170797;0.034210134;0.046429563;-0.064119205;0.06684697;0.052436866;0.03679051;0.051958025;0.0015563942;0.067688346;-0.019996505;-0.051594727;-0.040192217;-0.019760376;-0.014638024;0.038776897;0.028437098;-0.081930086;0.0070187286;0.022887887;-0.04351039;-0.037210204;0.0260488;-0.015125159;-0.026916865;0.017560758;-0.0033468856;0.033508014;0.02189267;-0.048626933;-0.057127483;0.057301715;0.024237348;0.06289833;-0.020300247;0.067935534;-0.054424115;-0.058980074;-0.00017347164;-0.0034142446;0.00078429026;-0.002460227;-0.041675452;0.025590992;6.1883475e-06;0.02669702;-0.05064039;-0.031244496;0.00800739;-0.015135915;-0.029926376;-0.03175485;0.014278229;0.003450108;-0.034228325;0.045039397;0.006794481;0.0142726125;0.053538498;-0.017357942;0.054598812;0.040649127;0.05648051;0.046689026;0.03792898;-0.054309104;-0.03525637;0.05750758;-0.038980797;-0.035190627;-0.005101145;0.023757733;0.006764032;-0.015416486;0.0009151443;-0.08519034;0.05148867;-0.063505806;0.046298753;-0.024514413;0.020912396;0.02056933;-0.015672792;-0.007365146;0.037223436;-0.03243291;-0.011723507;-0.04177365;-0.023278808;-0.001820105;0.009275805;-0.007656931;-0.059880067;-0.026740987;-0.016077774;-0.049230028;-0.040345076;0.031304426;-0.050540633;-0.027070763;0.016955584;0.011641324;-0.059566915;0.04911168;0.05514988;-0.010624127;0.03432552;0.05073352;-0.006097814;-0.031977758;0.008354788;-0.027591268;-0.033227436;0.0067144376;-0.05516871;0.057345863;0.04539626;0.030603534;0.034607835;-0.023450913;-0.012778022;-0.043092426;-0.024414813;-0.012580039;0.045644067;-0.064863496;0.02335667;-0.020910405;-0.027861241;0.008031562;-0.019267704;-0.037099957;0.024728406;0.054974303;0.026614357;0.042228732;-0.0039283405;-0.010488896;0.0275659;0.04647837;0.02033446;-0.042412013;0.03776028;0.045332015;-0.022562707;0.014128567;-0.07820687;0.02387533;-0.04529129;-0.014224379;-0.028014207;0.0628598;0.06245196;0.053842556;-0.03220679;-0.05589685;0.014241878;0.060718406;0.045071293;-0.012098368;0.023818944;0.03996726;0.009543175;-0.039567206;0.028259844;0.052729256;-0.01535613;0.04680146;-0.015121504;0.032147646;0.073729634;0.017072802;-0.0044229175;0.011523826;-0.05089886;-0.04033821;0.009416385;-0.0208716;0.023183228;0.0415306;-0.039862614;0.02205518;-0.035521895;-0.05002264;-0.020314958;0.015384309;0.03632303;0.05801126;0.04974531;0.04076565;0.084143706;0.045753073;0.09108581;0.0072109825;-0.010912676;-0.025340984;0.043529376;-0.068435684;-0.027739147;-0.0046215802;-0.06616755;-0.08095048;-0.01587935;-0.0474747;0.0063862326;0.049495768;-0.006224158;0.05675194;0.003641958;0.038937796;0.010168617;-0.0530904;0.051250644;0.050470676;-0.08131338;0.035641953;-0.023270786;0.015198647;-0.015911382;0.016546208;0.018569503;-0.0057653836;-0.004401212;-0.020461537;0.07627474;0.0347995;-0.03749378;0.023130434;0.029747587;-0.05755773;0.03469431;0.017221272;0.056594636;0.036454894;0.024651168
3;0.00043813113;-0.028565245;-0.038452365;0.0047905697;0.042829085;0.009907981;-0.062226538;-0.025834255;-0.014699619;0.024612734;0.03619589;-0.021422211;0.0002155829;-0.049290378;0.025051197;-0.05009227;-0.053036503;0.023259263;-0.065731905;-0.013236711;0.048747774;-0.0053300643;0.06318875;0.031196307;0.005178961;0.014970573;0.014380986;-0.040948853;-0.02589088;0.020610083;0.03660887;0.004142833;-0.05707754;-0.0504159;0.01946898;0.036721915;-0.0120169055;-0.06153518;-0.039811414;0.018931607;-0.019234197;-0.05641132;-0.02022471;0.04073334;-0.037557546;0.008195629;-0.032486726;-0.0152059505;0.06304911;-0.03975325;-0.003428464;-0.035731893;-0.022701513;0.05292447;0.023572907;-0.00079511886;-0.03824745;0.02340608;0.05666065;0.045854997;-0.0284685;-0.0064775795;-0.009285038;0.047897708;0.026889382;-0.028758839;0.04893963;-0.021267442;0.030055908;-0.01971713;-0.014647019;-0.034339182;0.0012570586;0.019105777;0.006768649;-0.046360515;-0.028053556;0.02180442;-0.0037739135;0.044385184;0.024121707;0.047258854;0.030300496;-0.054818146;-0.052424002;0.024469862;-0.0015501324;0.026396947;-0.025226284;-0.05779829;-0.017972384;-0.0043892115;0.06482541;0.040872682;0.051071495;0.010127215;-0.0029997656;-0.01835572;-0.020816866;-0.046193186;-0.019666543;-0.036350805;-0.040885326;-0.057084665;0.04314332;-0.038905043;-0.008494577;0.02113195;-0.044514917;-0.041448623;-0.0051155696;0.044072304;-0.06999838;0.013594852;0.048063964;0.012912396;0.05840239;-0.04886334;0.046594843;0.0064427997;0.02658049;0.031800073;0.019422736;0.028502963;-0.010591278;0.06871607;0.044167995;-0.07770671;0.04163109;-0.047501795;-0.044794682;-0.04626455;0.0043889377;-0.020474598;0.04043458;-0.039010223;0.028729355;-0.044010337;-0.012321422;-0.036985654;-0.017281666;0.011265372;-0.041232396;0.060951058;0.0881165;-0.054464124;0.019519607;-0.00894885;0.014075533;-0.032896865;-0.06685814;0.0056182295;0.033326793;-0.04586616;-0.032294486;-0.03919863;-0.03953897;-0.041943863;-0.07403359;-0.011784736;0.074929;0.0798685;-0.010759186;-0.020701107;0.014235021;-0.009055181;0.034473542;-0.054840773;-0.009684386;0.028152825;0.005925545;-0.024952615;-0.042471092;0.055086836;-0.0024031766;-0.019974584;-0.006783065;-0.070449494;-0.033167135;-0.07684147;0.040217962;0.038164686;-0.004957275;0.03044853;0.063170515;-0.029651335;-0.005950173;0.020184293;0.030282464;0.028344333;-0.01922093;0.0041090897;-0.016790539;-0.05443688;0.07159869;-0.016940042;-0.011687109;0.05871477;0.08093289;0.04293189;0.014626586;0.032156147;0.019391125;0.010796453;-0.020265447;-4.918319e-05;0.043091167;-0.031533767;0.040849518;-0.02599573;0.005786138;0.0065879887;0.038187053;0.038369473;0.017603016;0.012347984;0.03051252;-0.061848033;0.01497381;-0.057838894;-0.018718697;0.043946713;0.048249;-0.050130375;-0.032106478;0.0010901626;0.047695346;0.051916845;0.037702948;0.012831276;-0.05945769;-0.0026737885;0.03267488;0.07475033;0.020979252;0.057316687;0.05179129;-0.021928636;-0.0023874182;0.036089405;0.016788363;-0.009180814;-0.048121326;-0.05438213;0.054210827;-0.016791292;0.048240837;0.013813517;0.026582722;0.010392304;0.015462397;0.06344407;0.035704967;0.00019595212;-0.03147476;0.032834604;-0.029282033;0.032750748;-0.058145978;0.058713615;0.039097726;0.03115767;-0.06891897;0.015503711;-0.031556096;-0.026752636;-0.057861876;0.008951644;0.019994019;0.060732797;0.025925128;0.035216805;0.037812844;0.044223774;0.053373158;0.07598209;0.03894369;0.012584295;0.003380063;0.040105004;0.037652634;-0.019886399;0.012282355;0.03177628;-0.026311252;-0.026177267;0.066764586;0.061218195;0.06502452;-0.0067359745;0.05495319;0.029082248;-0.05595553;-0.008383632;0.06165473;-0.06318208;-0.011946659;0.056847505;-0.048309714;0.085322276;0.042148758;-0.03735801;-0.053874876;-0.049409725;-0.040681843;0.019725708;0.03168741;0.06120598;0.025445633;-0.0067960806;-0.019689998;-0.058373675;0.047945425;0.026391571;-0.03871329;-0.036384355;0.018095225;0.00036939827;0.0068543395;-0.04136057;0.05213976;0.0008303322;0.06789975;0.020268194;-0.009799292;-0.005013783;0.027483243;0.012745659;-0.022840984;0.009149907;-0.028753532;0.057767987;0.06080706;0.02655238;0.060711686;0.028721415;-0.033900324;-0.047344204;0.023421375;-0.03414531;0.07351442;0.01818128;0.008112876;-0.0038596636;-0.043295298;-0.019085616;-0.052512746;0.028234765;-0.02982287;0.012965645;-0.038427815;-0.05911747;0.039549947;0.030885685;-0.056959957;-0.008950753;0.04186051;-0.057349544;-0.030093262;0.05315149;-0.028978948;0.024507174;-0.06624814;0.004910439;-0.023314197;-0.032720905;0.034339268;0.001182571;0.04780832;0.005532735;-0.057034016;-0.044162594;0.045314338;0.004185322;0.079345666;-0.008658216;0.03331993;-0.01579;0.08748767;0.019581208;-0.026160467;0.04827723;-0.022376651;0.033036;0.009681214;-0.018735135;-0.07132455;-0.049435288;0.03196047;-0.008402336;-0.05365739;0.028611526;0.0056807497;0.041361377;-0.02151118;-0.021114249;0.033674788;-0.018419994;-0.04556552;-0.032484826;0.012161025;-0.041020736;0.053914394;0.029284222;-0.027602425;-0.0080278;0.00495604;-0.036584165;0.005832175;-0.028052606;0.043103907;-0.04953391;0.030104784;-0.048777275;-0.014294395;0.048356187;0.03744048;0.02903937;-0.033155035;-0.031399455;0.054192383;0.041756913;0.011568029;-0.07336351;0.026902236;0.01709063;-0.03876547;-0.044819016;0.020213658;0.048922475;-0.026326742;0.058811516;0.014937262;-0.06879397;-0.062272105;-0.03427356;-0.054241426;-0.0070740725;-0.019793749;-0.03408048;0.008256394;-0.020317683;-0.010138884;0.03933001;-0.0040958305;0.033670217;-0.03264048;0.033192627;0.01854741;0.00604392;-0.028614342;-0.029076459;0.020094644;0.016855787;0.03602562;0.025051886;-0.022207115;-0.003033924;-0.04518799;0.024085132;-0.062360376;-0.053476077;-0.021680184;-0.035203904;0.03841835;-0.010133142;-0.024027247;0.0021209246;-0.024591625;0.045464788;-0.03162992;0.045021936;0.022522142;-0.06310026;-0.0080710845;0.013299587;-0.013628779;-0.07553245;-0.039285235;-0.05707885;-0.03781335;-0.06124054;-0.0062934593;0.054284826;-0.0047884877;0.053086624;0.074418575;0.009220862;-0.013916936;-0.029200576;0.02299282;0.026479293;0.009403146;0.047069497;0.039830178;-0.0017529456;0.044231664;0.009645222;0.045169562;-0.06293788;-0.041259862;0.07951482;0.020457048;0.04718766;0.021759067;0.019951789;-0.0347723;0.033038;0.0113697285;0.00070080924;-0.027767861;0.062179316;0.062462017;-0.05335712;-0.030442296;-0.029400509;0.032058004;-0.055304028;0.020920536;-0.023169696;-0.022237921;0.0042732726;0.050652754;-0.03360385;-0.03479355;0.001352496;0.05155018;-0.04424052;0.052601043;0.07333903;-0.020470232;0.040097572;-0.030072706;-0.057062887;-0.019931154;-0.017138213;-0.03824266;0.01893836;0.012229205;-0.018970909;0.0012978435;-0.026763126;0.0051267445;0.020665009;-0.034025934;-0.04947732;0.06018431;-0.036867823;0.05102492;-0.009708536;0.013641013;-0.01127016;-0.010088693;-0.008466836;0.016526079;0.029822083;0.023814248;0.035125747;-0.027711058;-0.011604262;0.0005740159;-0.04047349;-0.0075247595;-0.027225079;0.016188668;0.043957416;0.056315668;0.0559656;0.013404972;-0.026786061;-0.026742889;-0.050485216;0.03741831;-0.015328909;-0.03761642;0.011066109;-0.00016573166
4;5.1298433e-05;0.060871717;0.007098064;0.022718577;0.01783079;-0.054143164;0.0090501625;0.03834616;0.025708899;-0.002994457;0.026512418;0.037119213;-0.0010297765;-0.02324363;-0.008278018;-0.01609486;-0.030040596;0.044672992;-0.050972134;0.046245623;0.034484643;0.020194715;0.023228321;-0.0064090355;0.05831817;-0.044243615;0.025819799;-0.023774777;0.049694866;-0.011390854;0.025112629;0.0067763673;-0.011023818;-0.029092034;0.014378137;-0.013614404;0.06610115;-0.071362816;-0.030575698;0.042637266;0.001871707;0.0152226;-0.031771094;-0.06664049;-0.012018732;-0.05243777;-0.00954103;0.059243508;0.057548434;-0.017899489;0.007838091;0.0055208635;-0.0069479565;0.0110882595;-0.011692818;-0.0036481349;0.042006657;-0.0055490863;-0.03818066;0.03867911;-0.046495877;0.0064136246;-0.06673947;-0.009782627;0.047239996;0.03595491;0.041622147;0.048533287;0.030841183;0.017349074;0.016759226;-0.012938378;0.064887896;-0.022811357;0.028189909;0.026536258;0.01630556;-0.044339355;-0.0086531835;-0.03807635;-0.0075685754;0.036586482;-0.0036375946;0.02317279;-0.03327544;-0.050040543;0.012464076;0.005520902;-0.03370854;-0.024459561;-0.021700578;-0.015862796;0.019851651;0.043730203;-0.03142892;-0.047605455;0.0316558;0.03683434;-0.020064276;-0.012517164;0.06001519;-0.052361745;0.044462845;0.0016215221;-0.005133118;0.026395507;0.016932141;-0.0023628522;0.058834385;0.0034803296;-0.030396486;-0.010884909;-0.004079102;-0.016227959;-0.042703487;0.013345646;-0.035626676;0.009822076;0.0016921364;-0.0708953;-0.061964057;-0.0077785086;0.0027882885;0.043785103;-0.03144801;0.030108757;0.042108383;0.010355311;0.037132896;-0.023440585;0.012057824;-0.021311348;0.08101904;0.034079015;0.0024585307;0.052834254;-0.024840724;0.02448458;-0.029345695;0.04858101;0.028608423;0.03641846;0.020818872;0.008637284;-0.016925883;-0.038121272;0.00057072425;0.032719992;-0.029795283;-0.034322962;-0.008272086;-0.0032159463;0.025165752;-0.05421185;0.0021308218;0.015269435;0.055555694;-0.041720755;-0.008819504;0.026571814;0.026711274;-0.022823755;-0.036502466;0.031015782;-0.020767843;-0.011399365;-0.003966934;0.036143705;0.024086336;-0.0045813057;0.034342285;-0.035011467;-0.01229574;0.023514928;0.013556622;0.01485163;-0.048064686;0.017713208;-0.021351416;0.04838171;-0.04615972;0.055292193;-0.049184866;-0.004649992;0.049913958;-0.047828007;-0.058603637;0.06081215;0.025413869;-0.048092674;-0.02547197;-0.042630963;-0.041915696;0.018906398;0.050593443;-0.05918561;0.022265576;-0.034929577;-0.024819933;-0.074609175;-0.047475126;-0.048918407;-0.016449867;-0.099379346;0.029651178;-0.03519452;0.036851488;-0.021654753;-0.023817575;-0.020626957;0.043970488;0.043046832;0.06153121;0.032461047;0.057477713;0.034041483;0.022118513;-0.058413964;0.037883624;0.002640305;-0.06547426;-0.01612498;0.021884272;0.034660652;0.038304895;0.03132114;0.0673717;0.04289248;-0.014784028;0.06929444;-0.01539027;-0.0054867035;0.07030282;0.040982593;0.009502612;0.03199561;-0.019657126;0.018949095;0.009834801;-0.022979716;0.06350101;0.055033445;0.08830446;-0.012954741;0.0013467257;0.03585622;0.036487136;-0.023856208;-0.031783685;0.005807776;0.01818828;0.016266217;-0.008115118;-0.0053344783;0.039378196;-0.031639785;-0.024871888;0.0037822677;0.018176313;0.058815308;0.016472135;0.015697274;-0.049534902;-0.03543772;0.01678762;-0.091248825;0.014397039;-0.054837268;-0.007924247;-0.013925476;0.07498981;0.015856702;0.045382176;0.023614615;0.067566976;0.08038599;-0.009438174;0.063891225;0.018042302;0.01074451;0.060329646;0.0794481;0.016844053;0.05527138;-0.057121903;0.021463366;0.0130698355;0.0019382995;0.046624206;0.018183367;-0.02486254;-0.029600088;0.05804866;-0.07277982;0.003128568;0.057666555;-0.011572924;0.027806787;0.023835594;0.05610373;-0.049407948;0.035188295;0.0498681;-0.0009823596;0.083714575;0.06266239;0.04554456;0.038037743;0.06538984;0.030442929;0.022558764;-0.013931167;-0.03432213;0.029626483;-0.03740302;-0.013865298;-0.055260357;0.039084088;-9.4465184e-05;-0.0049589397;0.04411789;0.046565443;0.032284874;0.002360981;0.058000833;0.063880466;0.028191775;-0.014185405;0.05458448;0.0704671;-0.035428476;0.06515738;0.041250035;0.07253949;0.02949152;-0.016500324;-0.044411547;-0.018553248;-0.027200175;0.012091212;0.0069596553;-0.03893819;0.031929787;-0.027676146;-0.058117792;0.0007001188;0.039509077;0.045013662;0.013737318;-0.04015166;0.036731914;0.0352755;0.02374272;-0.06111954;0.05778578;0.008787327;-0.045394223;0.0010423908;-0.01597909;-0.0088272765;0.030059481;-0.048957083;-0.023746558;-0.04281421;-0.021577595;-0.02997717;-0.07618828;0.06678817;0.03380575;-0.019053739;0.0135451425;-0.011808421;0.06815698;-0.042797644;-0.0021029336;-0.016342014;0.024007143;-0.012858415;-0.011461658;-0.030411573;0.04513071;0.06402392;0.039702836;-0.09392042;-0.066188544;0.046018295;-0.054971155;0.011770418;-0.055324603;0.05428147;0.05965639;0.05006516;-0.059629127;0.02464228;0.022018801;0.02511142;-0.03162981;0.008567753;0.06503701;0.033720218;0.052051026;-0.044662535;-0.016961837;-0.011392524;0.02249657;0.027495349;0.035349898;-0.04761579;-0.035516758;0.014483582;-0.043802105;-0.030230692;-0.0012653779;-0.022975378;0.015883477;0.03370747;-0.038080055;0.0330174;-0.006226744;0.0049037184;-0.011441407;0.044378497;0.048611265;-0.023772812;-0.012916893;0.00083369395;0.05560162;0.025844049;0.0055414406;0.021509731;-0.0569999;-0.051990595;0.029242536;0.03876887;0.04963531;-0.035879545;0.0027629288;0.008588541;-0.02477956;-0.018430494;0.0023084413;-0.008970178;0.029326959;-0.07646485;0.035561778;0.040585734;0.017653769;-0.014992671;0.014362341;0.04142001;-0.007431283;-0.030309753;-0.037565213;-0.051124893;-0.052037075;0.040649723;-0.0026927292;0.0095906425;0.036153987;0.032576583;0.04508497;0.016362414;-0.02810762;-0.03333385;-3.0579118e-05;-0.046802778;-0.035563312;-0.034549654;-0.08979569;0.0045421817;-0.026901124;-0.026225861;0.014415086;-0.0018956157;-0.028947303;0.04974938;0.01842729;0.009357752;-0.051050972;-0.048960693;0.00558504;0.011278802;0.0045575444;0.047551356;0.022470605;0.0037206193;0.0007184783;0.030827045;-0.04279521;0.032938298;-0.070083596;0.004792001;-0.04435599;0.013387935;0.028208604;0.01819022;0.026529063;-0.0062236073;-0.004954546;0.032775704;-0.010092129;0.020785863;-0.004683678;0.019565538;0.029921241;0.040862683;0.051519636;0.018870555;-0.031970635;-0.033145297;0.025745751;0.058842015;0.047352083;0.06637904;-0.021119868;0.03545239;0.05648763;-0.025904458;0.026087802;0.030304015;0.04618995;-0.0076502627;0.041089423;0.005423838;0.02319748;0.03804241;0.019625397;-0.044278823;-0.035890378;0.012384963;-0.041969493;0.024169834;0.025831122;0.057352144;0.078328274;-0.0051316055;0.010411946;-0.04921243;0.05077825;-0.007856257;0.0074648294;0.040655382;0.04046159;0.034902345;-0.05515856;-0.021826593;-0.06550707;0.04195097;-0.04503114;0.008209406;-0.028752511;0.009877349;-0.034266707;0.020547407;-0.028826265;-0.011412371;0.0019203296;-0.002229919;-0.014228661;-0.018637704;-0.023757512;-0.07500854;-0.02745905;-0.061566953;-0.053148914;-0.02186663;0.043210637;0.029862063;-0.08084124;-0.041206736;0.019716123;0.01028901;-0.012253101;-0.036731858;0.02434216;-0.059824593;0.05262878
5;5.4359512e-05;0.047654703;0.024309605;-0.015409786;-0.04959494;0.04317687;-0.0049051633;-0.021530608;0.0564865;0.029235998;0.040087126;-0.06487727;0.025258478;0.045094367;-0.021360662;0.027125869;0.012388692;0.036641717;-0.005995828;0.008494847;0.04805062;-0.022126814;0.008321822;0.012621274;-0.03519853;0.017022828;-0.023923276;-0.06793093;-0.068746395;-0.078333355;-0.05410436;-0.040102005;-0.07226043;-0.03189396;-0.06784638;-0.0031054274;0.03084981;-0.044807877;0.0345944;0.011876808;-0.02965044;0.013843378;0.03463934;-0.051420763;0.010684631;-0.008781817;0.061196543;0.010360566;-0.030897222;0.004517544;-0.023373913;-0.02392715;-0.0119876815;-0.035575155;0.007318701;0.022351673;-0.042665206;-0.00065270375;0.006431093;0.020350493;-0.03549837;-0.02222051;0.05551286;0.028056372;-0.05662444;-0.042133544;-0.041967396;-0.0584015;0.030030603;-0.07278435;-0.028163087;-0.012943811;0.03017614;0.059933823;-0.027763491;0.03284219;0.050984174;0.07283153;0.037245363;-0.025539357;-0.022370316;-0.039290052;-0.006518236;0.055874124;0.03852361;-0.004406148;-0.025094677;0.018507052;-0.001898901;0.047437213;0.028173089;0.012142418;0.053589728;-0.0020346018;0.03018861;-0.0059792623;0.039048977;-0.039891396;0.05074167;0.01353189;0.034760285;0.058974195;0.044606496;-0.01026598;0.008601229;0.036236625;0.0009671324;0.04064646;0.012291886;-0.042190876;0.02229617;-0.032500554;0.006259946;0.027422993;-0.035995897;-0.022244848;-0.0168572;-0.028354269;0.059158746;0.025616195;-0.03208733;0.033405215;-0.022966558;0.054938503;0.013851026;0.04347525;0.012622103;-0.036877118;0.0020023077;-0.016044844;0.017866347;-0.009193829;0.037815217;0.00325163;0.020749407;-0.0295637;-0.040744934;-0.01278133;0.04094762;-0.040050916;0.002461143;-0.022305427;0.023317616;0.005390319;0.051145233;0.058534294;-0.047060296;0.0020115834;0.020033259;0.06210364;0.059704702;0.024703555;0.00998161;0.0557894;-0.043765236;-0.029911414;0.041435078;-0.023559071;0.025496615;0.02670816;0.022249995;0.015532308;0.008822945;0.043025956;-0.012030652;-0.025315132;0.01381029;0.0318897;-0.0076251365;-0.004350833;0.034388483;0.059106994;0.048215427;-0.024859035;0.028462328;-0.03170388;0.046176493;-0.006971845;0.016096748;0.016551552;-0.017945437;-0.027761124;-0.041613594;0.06369601;0.016875159;-0.033039685;-0.0018950843;-0.031526543;0.035318237;0.07806133;-0.03886087;-0.06755025;-0.03205983;0.036284696;0.027199036;-0.036042016;0.04161676;0.05904657;0.051570896;0.015732653;0.060954016;0.06687908;0.032328807;0.059148807;0.004951491;-0.013494001;0.0053332495;-0.041252036;0.0077593606;0.07330672;0.032199845;-0.0152948415;0.010250749;0.059018217;-0.046090163;0.032354005;0.067089826;-0.008459039;0.051830415;-0.021878336;-0.029284295;0.035040308;-0.05227597;-0.0032834024;0.03653079;0.02130642;-0.044642504;-0.0028978323;-0.011722285;-0.021100357;-0.023715366;-0.052278697;-0.030968191;0.043970708;-0.018557386;0.020675339;-0.008180177;-0.040203616;-0.027789386;0.009934729;0.0064803082;-0.020112567;-0.002403298;-0.029983925;-0.03820743;0.0017123467;0.013901988;-0.03667922;0.06376401;0.048849624;0.03214422;-0.017998582;-0.0057381717;-0.02446213;0.018934257;0.013498038;-0.039397895;0.038855575;-0.0012705605;0.015486241;-0.00940297;-0.028367179;-0.047381517;-0.034399662;0.0058155246;0.015124521;0.021082683;0.0033052133;0.0070202504;0.06160066;0.00020970785;-0.015985692;0.03665375;0.0005596319;-0.058339246;0.041853167;-0.0063204044;0.01330837;-0.042983588;0.041248597;-0.041413806;0.011369901;-0.008403677;0.009367653;-0.02619062;0.021025872;0.020046063;0.0702171;0.041100018;0.0012876323;-0.009618406;0.012210422;-0.008005537;0.019049503;-0.053513274;-0.043717008;-0.019776393;-0.054065563;0.02873742;-0.010583567;-0.029869877;0.0441663;0.009710294;-0.02644631;0.069852784;0.045696322;-0.047772814;0.04000138;0.010373262;0.07024362;-0.051899493;0.04477401;-0.053984888;-0.015716396;0.038670506;-0.052042212;-0.04731457;0.032073062;0.016827285;0.048257843;-0.038391665;0.032528378;0.011769775;0.011838428;0.040955033;-0.038251318;0.023646994;-0.038282685;-0.060199127;-0.047291286;0.041428093;0.036554284;0.01713869;-0.020388577;0.012411176;0.019907683;0.046079572;0.0010666344;-0.038631134;-0.054594513;-0.025453849;-0.027451674;-0.04941552;0.03847568;0.028425211;0.06153709;-0.018743735;0.039421957;0.007769471;0.056465954;-0.009252233;0.008058283;-0.020341557;-0.038329344;-0.053335324;0.06914785;0.025676714;0.038314983;-0.04225907;-0.0054798294;-0.04374799;0.023498686;0.0402751;0.06057273;0.055373386;0.079749696;0.049750447;-0.002311698;0.07569715;0.045819968;-0.069052756;0.026369913;0.00780205;0.06395544;0.009272992;0.037570324;-0.056862142;-0.012960227;0.0011248048;-0.003051742;0.050241314;-0.006907685;0.0021478485;0.02332055;-0.00094172714;0.03694194;0.0021488536;-0.0120478105;-0.016303701;0.035179887;0.004406941;0.0015158263;-0.006749924;-0.06027828;0.050124135;0.034342192;-0.028030125;0.035789862;-0.084962614;-0.04075223;0.0004744518;0.03529074;-0.01735006;0.04524902;0.003681726;0.013429647;0.03517814;0.038826063;0.059627265;0.06882573;0.05553684;0.039370306;-0.013917282;-0.02474788;0.020390257;0.0108484235;0.08389486;-0.0059735216;0.0393284;-0.014517899;0.051916875;0.036405303;0.059701156;-0.026678503;0.008798052;0.03105621;-0.018341446;0.047182318;0.03773839;0.013790398;0.054754417;0.052071635;0.011616117;-0.07505026;0.01121397;0.036805168;0.026563397;-0.047490764;-0.057340864;-0.02051173;-0.033925842;0.05217614;0.033570446;0.024802193;0.06557744;-0.026274566;-0.04216251;-0.02049464;-0.014301719;0.019761246;0.06494001;-0.0366835;0.05721766;-0.0026334221;-0.036432363;0.03617822;0.020034345;-0.00816368;-0.016662354;-0.01684516;-0.018317234;0.0008959515;-0.041286997;-0.034756273;0.027253333;0.069085434;-0.05471782;0.034612812;0.07626182;-0.051194943;0.018830657;0.05097403;0.03912092;-0.016252939;-0.054260843;-0.004876431;-0.0071443645;0.035196032;0.023142548;-0.0159569;0.021850497;0.04056181;-0.045198455;0.035978906;0.043972548;0.022923594;0.01836026;-0.04736479;0.0123905195;0.020533783;0.008696196;-0.045555506;-0.0030710027;0.052776612;0.046963453;-0.03897772;0.031061318;-0.018205121;0.053820826;-0.010615636;-0.025429048;-0.046805955;0.03323704;0.054618526;0.025965404;-0.022124527;0.022524638;0.017492173;0.032800414;-0.06311835;-0.07203186;-0.013367373;0.009140285;-0.03776898;-0.018062366;-0.04374995;0.038115215;0.00034337206;-0.020354094;0.0007916014;-0.049810935;-0.046736598;-0.030150294;0.05319523;-0.043576933;0.015499977;-0.006848505;-0.028815834;-0.022364153;-0.030264437;0.054317825;-0.020451397;-0.034999464;-0.023108725;-0.038733445;0.024196832;-0.01321267;0.06488204;-0.0563081;0.011001469;-0.0026837033;0.0052725803;-0.012410384;0.018663378;0.039401736;-0.04689841;0.008735801;0.04969458;-0.030710138;-0.01586887;-0.034260675;0.05541903;0.054355726;-0.05168525;-0.036301814;0.026213728;-0.044648297;-0.011699633;0.013127657;0.028317064;-0.013636406;0.048116673;0.009696272;0.05370289;-0.018270794;0.0114235645;0.028765148;-0.0007905348;-0.052867185;0.010940578;-0.0039935936;0.035330057;-0.04777577;-1.10404435e-05;0.03186894;0.06328544;-0.021552825
6;6.650632e-05;0.008404446;0.005828545;-0.05166404;0.0045384723;0.0347029;0.045919932;-0.018345905;-0.027469326;-0.017837025;0.055432174;0.039389525;-0.013358963;-0.012815127;0.013502329;-0.043460287;0.0117951045;0.007886735;-0.044535927;-0.003658795;0.039868645;0.016298436;0.00149736;0.03214486;0.053726856;0.056524575;-0.017487543;0.006240531;0.017969016;-0.056700416;-0.038657747;-0.017660266;0.012070335;-0.057629883;0.049363077;0.014652354;0.02268255;-0.024889689;-0.014871405;0.015024175;0.027409917;0.035165787;-0.033581685;-0.033062086;0.021189356;0.01163231;-0.0065096836;-0.010060454;-0.063516654;-0.017644627;0.011422233;-0.043284822;0.0378547;0.03848949;-0.023807613;-0.018735586;0.020245843;-0.06283492;-0.03509493;-0.055470742;0.0064486554;0.034856107;-0.03695741;0.0030523895;-0.03515872;-0.07721512;-0.023016836;0.039285965;-0.037042875;-0.06682;0.026685799;-0.019135498;-0.06143608;-0.027042521;0.0014739443;-0.046369445;-0.016970525;-0.0737786;-0.022953445;-0.015658228;-0.009610908;-0.02920967;-0.028486349;0.012030306;0.02891476;0.0077038268;-0.019717516;0.03559668;0.04854922;0.059064157;0.04256939;0.04286586;-0.0054605454;-0.048845354;0.06495967;0.077522136;-0.023520082;-0.044901356;-0.002372099;0.020836897;-0.0022628708;0.013899405;-0.0014501107;0.0054931943;-0.013997134;-0.0104679745;-0.00611061;0.05652826;0.08920378;-0.029258888;0.02753178;0.023150584;0.04561241;-0.03230185;0.051831793;-0.04805941;0.030837592;0.03657708;0.03553246;-0.05726572;-0.006976017;0.020974934;-0.044573225;-0.015038227;-0.012204935;-0.05389914;-0.04826433;-0.019125951;0.033913337;0.06146943;-0.02820018;-0.012641359;0.02190343;-0.014974432;0.022718245;-0.0581197;0.040922537;-0.05093597;-0.030849874;-0.02299421;-0.042913884;0.023260804;0.023999603;-0.0030285618;-8.452458e-05;-0.043042853;-0.030964639;0.040608868;0.0022928831;-0.02653193;0.046513714;-0.0093359575;0.014414203;0.060052708;-0.027229093;0.0026598794;-0.07417448;0.006189701;0.035543095;-0.067368075;7.202174e-05;0.008425499;0.041063175;-0.009097485;-0.02672524;-0.0473245;-0.027933713;0.015332485;-0.044749215;0.036445174;-0.021291817;-0.016202817;-0.013398122;0.005244604;-0.013794506;-0.06397433;-0.034039814;0.027852494;0.04892545;0.045775853;0.0040016333;0.032338172;0.0061252057;-0.021401802;-0.037016008;-0.050403073;-0.034724962;0.016039496;-0.03613284;-0.041193705;0.023199132;-0.029471142;-0.014285197;0.033613626;-0.053547088;-0.05083791;-0.03796629;-0.027406551;0.0507089;-0.00935576;0.02774499;0.02198977;-0.058553215;0.029194212;0.006685263;-0.05839163;-0.023797525;-0.052876197;-0.05077698;-0.038596086;0.03667242;-0.0070842905;-0.027985426;0.027383612;-0.005291042;0.031548046;0.018285427;-0.0029184525;-0.031318054;-0.021098409;0.020754471;-0.012159277;-0.06216292;-0.028941976;0.046991624;-0.011867981;0.014905546;0.08520379;-0.047074493;-0.01001277;-0.015788693;-0.0010893103;-0.0037131833;0.016542329;0.032766644;0.0025582565;-0.01348027;-0.035561968;0.03255977;0.042794354;0.023208158;-0.009510076;-0.021551697;-0.022516334;0.025310708;0.015587143;0.05513616;-0.015155859;-0.06169488;0.0022058724;0.018217621;-0.0031128286;0.016571756;0.0019153452;-0.063133106;-0.004829385;-0.05447462;-0.031795535;0.014415628;0.03771319;-0.0046201563;-0.06592175;0.09339726;0.06766614;0.057030085;-0.045049585;0.055188328;0.06074727;0.024558773;0.06634482;0.036106195;0.02666423;-0.047135912;0.015614905;-0.028459936;-0.012962776;-0.04401117;0.024483144;-0.017347066;0.013869902;-0.0012035657;0.04147389;-0.032039903;0.030314885;-0.058317482;-0.018679846;-0.00763767;-0.033393845;-0.028953314;-0.020883538;-0.06359249;0.037761938;-0.025683243;-0.07124359;-0.04168531;-0.0022831508;-0.058477823;-0.020106547;-0.03168532;-0.064858824;-0.0489253;0.033372186;-0.06706608;-0.07219732;-0.0129174795;-0.05081511;-0.070275;0.04934322;-0.059129853;-0.010529458;-0.007157644;-0.06592041;0.002466637;0.036843736;-0.02409615;0.040273406;-0.026402233;-0.013467031;-0.033766333;-0.012745861;0.04231296;0.04441168;0.075480275;-0.025117401;0.026877629;-0.0190984;-0.06300133;-0.05840928;0.05315867;-0.0058837407;-0.018369233;0.0691482;0.011538057;-0.013186267;-0.05158082;-0.012550514;0.005286793;-0.019862447;-0.07682437;-0.06479947;-0.013539194;-0.0058436515;-0.0297255;-0.032825276;-0.048400473;-0.038995035;0.032274846;0.04683882;-0.03048341;-0.036823954;-0.02092139;-0.006350835;0.007089604;-0.011007401;-0.07274995;-0.012543512;0.00806843;-0.012083905;-0.022440387;-0.059762213;0.039024882;-0.009394417;0.039880097;-0.046355247;0.02349343;-0.0071636373;0.039281033;-0.0080084605;-0.023691857;-0.055893004;0.0038527215;0.052309945;-0.04613592;-0.037052315;0.05472163;-0.0077459086;-0.000121146375;-0.027653467;0.021848345;-0.022357635;0.03388978;0.05820467;0.016772358;0.03275663;-0.034587543;0.009843108;0.029003395;0.06569475;0.02094186;0.02979255;-0.053321227;0.037733655;0.062788986;0.05902652;-0.0017877244;0.020122416;-0.025172811;-0.0030797496;-0.0007036452;0.0097286;-0.005541377;-0.02980736;-0.033328213;0.0062844115;-0.003883686;-0.03252058;0.08142793;0.021528527;0.0143958675;0.0322131;-0.016629651;-0.03446766;0.053697377;-0.021761028;0.058460962;-0.043482225;-0.0021762296;-0.047379516;0.06398478;0.029483706;0.017353842;-0.06323347;0.031109614;0.034369867;0.049579576;-0.021430694;0.045933913;0.051509704;0.012662219;-0.021208191;0.042625424;0.034334775;0.024226243;-0.028720759;-0.00040075538;-0.023312904;0.02554827;-0.02622323;-0.06837587;0.012717534;-0.017457888;0.023655312;0.07081062;0.06350337;0.045977384;0.045169223;0.012535791;-0.041756954;-0.010229214;-0.044439673;-0.032568146;-0.010834238;-0.018853419;0.0138578685;-0.038679387;-0.057865042;0.025370348;-0.0323696;-0.042971097;-0.031549383;0.010428112;0.00029434753;-0.017889207;0.035323877;-0.046115305;-0.002106867;0.05314796;-0.0076775877;0.010808916;0.022560261;-0.06403228;0.005005391;0.063224256;0.033926286;-0.009032563;0.021331903;0.026215367;0.042505782;-0.035479836;0.033142947;0.058987286;0.02907614;-0.018359175;-0.0431529;0.0034315449;-0.0019488697;-0.018566431;0.018433083;0.0016217768;-0.049528312;0.011510903;-0.026870713;-0.047185846;0.023181256;0.024566663;0.018935455;-0.038432065;-0.01632527;-0.046776682;-0.020203356;-0.031550307;-0.01967524;0.04635617;-0.047799896;0.042321403;0.011718248;0.015800526;-0.0015516954;-0.062399752;-0.0153290015;0.04517436;-0.033954885;0.010955543;0.0009977802;0.008703437;0.038965955;0.028482853;-0.011585532;-0.0073448983;0.0037039458;0.054406673;0.019577382;0.01786949;-0.0103376405;-0.053984873;-0.059148073;0.06493887;-0.037498;0.00016307167;0.065449975;0.007383441;-0.024523038;0.036827;0.036219057;-0.020069234;-0.06296972;-0.033463348;-0.013382359;0.006783854;0.028660882;-0.021113483;0.029464066;0.011496595;0.0066596195;-0.034239158;-0.009488653;-0.05512138;0.018296208;-0.032824114;-0.03603515;0.001505815;-0.026821638;0.04762009;-0.010124535;0.030884292;0.01721117;0.001686069;0.03515335;0.030670678;-0.031337608;-0.029122634;-0.03843212;-0.025950361;-0.019022163;0.02533794;0.031858362;0.025731618;0.010916638;0.0072116987;0.07067677;0.011218692;0.005117853;0.03451289;0.05166384;0.034428645;0.044089444;-0.033071697
7;0.00020393541;-0.048266094;0.0014485711;-0.04846087;-0.031855553;-0.048822172;-0.014280092;0.039707415;0.0137736155;0.07674441;0.036413334;-0.030014062;0.0070458907;0.0146230655;-0.0055001583;0.0030915078;0.05248111;0.04519696;0.036265414;0.00390859;0.010089555;-0.009620459;0.024203138;0.053451803;0.0069074887;-0.045093425;0.048583843;0.00014237169;0.0013701728;-0.047463726;-0.03253139;0.022970725;-0.02036035;0.04941938;0.023960527;-0.042837087;0.041307863;0.051743854;-0.02431987;0.037405595;0.017593335;-0.041877;0.023765037;0.040405132;0.058073424;-0.047829844;0.028096646;0.01907178;-0.024758158;-0.018397301;0.032430418;0.009443215;0.03210852;0.06410686;0.039148405;-0.05947904;-0.033263672;0.016507043;-0.06512177;0.013454699;0.0608974;0.040417805;-0.05964824;-0.026424265;-0.010174015;0.0102393115;0.029396327;0.040987946;-0.0069599557;-0.008265772;-0.071722455;-0.061221894;-0.059156183;0.0055430755;0.029879855;0.018688673;0.013559727;-0.0049920464;-0.005408223;-0.051180944;0.013350285;-0.012719429;0.018295383;0.020297006;0.023795206;-0.038014684;0.032773115;-0.01596478;0.050186526;0.051515877;-0.053071115;-0.044891924;-0.025611436;-0.018478783;0.035545863;0.014436516;-7.013713e-05;0.036924142;-0.019588541;-0.036331136;-0.020531716;0.07512478;0.08311496;0.011163559;0.034916326;-0.020734286;0.029062763;-0.037360847;-0.029698417;0.032094337;-0.020752454;-0.016537089;0.036825035;-0.012236134;0.009525049;0.010293645;0.056845233;-0.044601753;0.017405137;0.0419454;-0.0095875105;0.04388937;-0.026391754;0.017132537;-0.006432067;0.055427708;-0.0045718583;0.043351583;-0.058182266;-0.014570113;-0.058163263;-0.050854787;0.0545966;-0.050108608;-0.065548986;-0.039513756;0.0042873686;-0.02371454;0.011726682;0.029279854;0.041476212;0.05282943;0.0062711383;-0.010985371;0.070717834;-0.031579617;-0.016868342;0.014879443;0.032605164;0.034184232;-0.035764914;0.03613212;-0.0031846315;-0.049255915;-0.011439374;0.0327127;-0.029339923;-0.025931299;-0.05453423;-0.013151744;0.05317014;0.044420786;0.019116633;-0.01453908;0.04870755;-0.037820827;-0.019273033;0.06676606;0.055727348;0.0041390294;0.026808571;-0.0031527844;0.056174;-0.00933993;-0.0019919612;0.07602069;0.056078967;0.0016309199;0.06588054;0.04188587;0.021169398;0.013616046;-0.043731082;-0.0316033;-0.02115947;0.06899121;0.009862232;-0.013269644;0.04761615;-0.016824288;-0.018423842;-0.036563855;0.041453872;-0.036448464;-0.033069443;-0.037184987;0.025168275;0.079135865;0.00028955206;0.030766401;-0.053444643;0.008735271;0.02648424;0.055339973;0.0053945705;-0.017500833;-0.032494586;0.05722462;0.056044046;0.03980447;-0.01641955;0.015684368;0.02638839;0.027537234;-0.00044768077;-0.010451701;-0.02612978;-0.05116009;-0.0028766114;-0.018968917;0.030271837;-0.024840863;0.057429075;-0.064876296;-0.0043710424;0.030002546;0.03880216;0.0054387758;0.04949061;0.03850063;0.041949693;0.00874613;-0.012863279;0.038402777;0.038036875;-0.013118574;0.0354742;0.03014133;0.003394444;0.020255968;0.020865276;0.053205747;0.05477945;-0.036965005;0.030315993;-0.017048666;0.050016977;-0.008689819;-0.0013100305;0.0033455938;0.051522054;0.0753946;0.08925038;-0.008081733;-0.06299701;0.005170354;-0.023000479;-0.02496712;0.013335168;-0.009517116;0.036772285;0.040991932;-0.009363065;0.022174316;-0.052431732;0.017096475;-0.0101772975;-0.053790316;-0.040642984;-0.05558124;0.015713774;0.008766687;0.027260372;0.004170736;0.03416301;0.04840528;0.02463405;0.0014791116;0.037755154;0.008878198;-0.040800724;-0.0139558045;0.0018494785;0.016852772;-0.017392242;0.010497258;0.039179064;-0.031637184;-0.021764046;-0.022974834;-0.032167748;0.029735358;0.03246855;-0.04085488;0.00571784;-0.01957002;0.0035447874;0.007989612;-0.05375873;0.045447238;0.02806102;0.02911032;-0.029939039;0.020591289;-0.039446477;0.03522135;-0.040149424;-0.00555803;-0.05494931;0.032548066;-0.019762909;-0.014368981;-0.052199855;-0.0045148507;0.007907742;-0.008941659;0.0093788905;-0.03884354;-0.019621398;0.026003199;-0.02735168;0.009195977;0.03528641;0.08500612;0.007958846;0.065624215;0.03180053;-0.04845134;0.0082604475;-0.046608526;0.025872173;-0.07074547;-0.034347948;-0.041471876;-0.052204825;-0.045043707;0.049629096;-0.016072549;0.053893153;0.0075573972;0.034227677;0.01226962;-0.012595118;0.000766059;0.027083239;-0.005258194;-0.035920247;-0.032628305;-0.013529562;-0.011089718;-0.059917297;0.027623337;0.05380848;0.040427558;0.004214476;0.016268376;0.029867815;0.070371576;-0.06942408;0.0071163992;0.055590015;0.004440232;0.007037785;-0.015661394;-0.04363103;0.03891154;-0.026829083;0.02241506;-0.037130166;0.029206024;0.008870372;0.06297051;-0.02699145;-0.012553078;0.003550355;-0.032395616;0.0047813347;0.061292835;-0.0082734395;0.054643977;0.022505067;0.019962585;0.010950675;0.010946831;0.018308872;-0.008205494;0.062067688;0.008364782;0.012514564;-0.031206066;0.02537186;0.060774688;0.06195707;0.045724478;-0.003201509;-0.03609505;0.008136616;-0.024366686;-0.0103536025;0.024528459;-0.04374129;0.030979024;0.063250035;0.06876586;0.046755016;-0.019845918;-0.05332925;0.053744316;-0.00875882;-0.0055410345;0.0548678;-0.02386579;0.015736988;0.035983216;0.063561276;0.049124967;0.017697737;0.050657947;0.023940846;0.032553688;0.0727883;-0.035488907;0.035233457;-0.009086731;0.022574548;-0.02746804;-0.013867707;-0.0055420278;-0.036134854;0.0565097;0.07488819;0.023035541;-0.024246726;-0.04023835;0.028112447;0.031602133;-0.01046952;-0.014712139;-0.038108863;0.0047040214;-0.03699646;0.00053741253;-0.020599287;0.023147091;0.0028390223;0.03991476;-0.031657953;0.02083163;-0.031108746;0.015053273;0.022669952;0.022440452;0.005432495;0.0007827347;0.013631614;-0.0419367;-0.055767473;0.060878783;-0.04763046;-0.052755572;-0.024426347;-0.060846232;-0.05415688;-0.022607014;-0.06513493;-0.014524578;-0.05083133;0.049669318;-0.0073827077;-0.005811342;0.002223482;0.05381575;0.048567872;0.0205959;0.041540083;-0.041498892;-0.015441799;-0.016295305;0.020681905;-0.038669895;-0.03703794;-0.045492653;0.05719496;-0.03327008;0.0076631475;0.069919646;0.015902603;-0.05810751;0.042578436;-0.014341195;-0.005031555;-0.048938878;-0.037392154;0.010842685;-0.025751531;0.071236044;-0.017489795;-0.020117028;-0.01007544;-0.0018187606;-0.011488248;0.0030973665;-0.0029041672;-0.018330393;-0.024093969;0.03703117;-0.020302732;0.017650599;-0.031632435;-0.018164966;0.045043193;0.019512136;0.01719944;0.004092971;-0.048238695;0.034212273;-0.023108961;0.0076748333;-0.019816393;0.05786523;0.042784426;0.034665894;0.010361548;0.054137412;-0.05484696;0.009414661;0.043395463;-0.046569567;0.046895582;-0.05357619;0.04096134;-0.02439611;0.07088916;0.021128327;0.057719234;-0.007824969;-0.0035158112;0.0008920566;-0.004784944;-0.022140754;-0.032742;-0.007893339;0.00392439;-0.057868328;-0.02894727;0.017446639;0.041960597;-0.012540354;0.07669103;-0.016192045;0.025020422;0.005821045;0.0024343734;-0.037601616;0.021184115;0.017939178;-0.059000243;-0.009604802;-0.057023413;-0.04976004;0.028309627;0.04324334;-0.003006874;-0.03599773;0.02393014;-0.056059834;-0.0013600122;-0.05768069;0.005367341;0.012838535;0.06664718;0.047426816;-0.04722118;-0.057915494;-0.06418629;-0.06475692;0.030649753
8;-0.00044136975;0.025804106;0.042389613;0.024468819;0.0047622053;-0.0446652;0.020493757;0.07165368;0.00577216;0.038134236;0.02979966;-0.032035433;0.035292488;0.04929717;-0.015037157;-0.046216037;0.020861508;0.003222455;0.029680068;-0.056070082;-0.023802252;0.056089666;0.008890354;0.0037796514;0.05002704;0.02983115;-0.019169614;0.04134063;0.056924574;0.05829702;0.006916518;-0.010165479;-0.0103283515;-0.0006423193;-0.010237263;0.04132036;-0.058588617;-0.04575571;0.028990718;0.01783305;0.024080567;0.016320992;0.012566211;-0.012999044;-0.03299653;-0.06845577;0.053307317;-0.04668205;0.0039834706;0.027443303;-0.060488764;-0.06388855;-0.02883082;-0.022087038;-0.032224797;-0.008094282;0.042319156;-0.015523999;0.03693562;-0.005249991;-0.04200143;0.05238435;-0.019806717;-0.01617152;0.03179256;-0.017527433;0.0014993465;0.0033641574;0.0028224576;-0.07305035;0.03638028;-0.019926056;-0.06706823;-0.032524984;0.03410928;-0.050988622;0.019560156;-0.019137591;-0.030229665;0.03296572;-0.01603025;0.005714132;0.0071941055;-0.03968654;0.036944035;0.018526128;-0.001724133;0.039617017;-0.02649654;-0.029434485;-0.0126264775;0.013502472;0.046086907;0.007116385;-0.0407185;0.03661569;-0.032415174;-0.027415084;0.03466164;0.0005237434;-0.0039582304;-0.047908712;0.022245314;-0.011165214;-0.028060623;-0.009474538;0.03835066;0.041745193;0.00887041;-0.0006994121;-0.024401011;0.05470282;0.07440482;0.031762794;0.068224415;0.015792288;-0.01647523;0.028910441;0.033703893;-0.026861614;0.037850693;0.03901313;0.066475905;0.03886835;0.056922328;0.03971783;0.00542579;-0.0031529714;-0.03546739;0.0456842;0.0042739487;0.006676969;-0.014885087;-0.056151193;0.06355349;0.05934797;0.02303508;-0.026274722;-0.059351455;0.040628217;-0.02248853;-0.008024559;0.10088759;0.027396083;-0.021540668;-0.008196559;-0.01964368;0.051952872;-0.05110207;-0.010802626;0.0026061966;0.021994233;-0.054266576;0.025954572;-0.018845296;0.020682631;-0.043824796;-0.048109524;-0.08283676;-0.0487177;-0.009492557;0.02012016;-0.065557085;0.03185292;-0.022006365;-0.018262926;0.03906269;0.01201613;-0.050994005;0.022227539;-0.007376467;-0.04551044;-0.030436393;-0.04569065;0.014124362;0.052810844;0.04197861;0.022853523;0.04158319;-0.008042398;0.03665909;-0.032772984;-0.013551315;-0.013174569;0.069318995;0.044454742;-0.016168376;0.012300163;-0.051243912;-0.05898047;0.052831266;-0.027706768;0.00617476;-0.018247083;-0.050074887;0.0221376;-0.026990991;0.059337303;-0.030441439;0.0698038;0.022543615;-0.025497148;0.01111367;-0.054525197;-0.011251358;-0.020536114;-0.04812325;-0.006112852;-0.00939424;-0.028186372;-0.023380155;0.065007515;0.046502374;0.024336645;-0.018384945;-0.014853384;0.0045430455;0.0075710295;-0.015064028;-0.00901712;0.0407635;0.03909196;0.03060964;0.016445883;0.046806253;0.0046266667;0.005747967;-0.010179878;-0.06155528;-0.056499355;-0.031387497;0.009270558;0.0015136832;0.02201975;0.059336994;0.0018134918;0.004747836;-0.01379301;-0.015916066;-0.02440521;0.011326973;0.038140014;0.013769647;0.037673417;0.048971772;-0.053259708;-0.06513175;0.05862851;-0.05914438;0.0021567966;0.024172857;-0.08096527;0.0032242835;-0.046723254;-0.051208943;-0.047694813;-0.0024745571;-0.034447353;-0.056513187;-0.03309531;-0.006881615;0.02321789;-0.025864506;-0.059446216;0.022335863;-0.041990507;-0.048544887;0.016710682;-0.038827688;-0.035686295;0.06401522;0.01010352;-0.009477023;-0.014263421;-0.01820101;-0.056073107;0.04918897;-0.032322433;-0.002750638;0.0029511524;0.052892223;0.003078367;0.008087699;0.06265893;-0.031071706;-0.013779014;-0.035345826;0.04324742;-0.0285474;0.05616953;0.061921015;-0.017770726;0.008846309;-0.012787634;-0.01610445;-0.032900173;0.038194213;0.018482877;0.00978583;-0.040291592;-0.04060249;0.030531825;-0.055341203;-0.017271882;-0.031677056;-0.020421548;-0.048782583;0.013474292;0.011128837;-0.028835393;0.02123108;0.029691128;0.044776153;-0.06777269;0.003984611;-0.032811157;0.053454403;-0.03502795;0.039405357;0.029881949;-0.018291926;-0.0018497042;0.026778048;0.027114047;-0.04627173;-0.05351098;-0.0013497246;-0.021253157;0.011748535;-0.07643966;-0.05871477;0.069574624;0.042929854;-0.056063265;-0.040201563;0.0030644159;-0.040986966;0.021733943;-0.016725928;0.0043805926;0.0071369875;0.030954696;-0.05285836;0.04394035;-0.04150179;-0.011165949;-0.0060020415;-0.016927702;-0.058350362;-0.018771768;0.00867092;0.029564513;0.006190421;0.007246256;-0.024168268;-0.033440527;-0.020891191;0.020965805;0.03535272;0.038600486;-0.016232343;0.009350245;0.03852973;-0.02903439;0.0133171305;-0.03668362;-0.032320186;0.058986466;0.025013188;-0.044804048;-0.0106829675;0.027087709;-0.05477612;0.047623836;0.0037332522;0.012409626;0.033759385;0.017648594;-0.00333785;0.03371549;0.016320728;0.035876535;0.031925797;0.0422047;-0.00906765;-0.007136562;-0.0008187605;-0.058505476;0.06341944;0.0074746227;-0.06243594;0.045327652;-0.0084933555;0.042496745;0.009478919;0.008085825;0.03637752;-0.009983296;-0.040973026;-0.0050797975;-0.016211726;0.033812556;0.015527835;-0.03833071;-0.0148320915;-0.024490245;0.039839365;-0.03319432;0.022819117;-0.048432704;0.014156327;0.024837151;0.022004094;-0.012338554;0.056158334;-0.011146493;0.013144286;4.588597e-06;-0.04165319;-0.00024107583;0.04852303;-0.036347985;0.03991136;0.0071450733;-0.0069645997;0.0067177652;0.038068604;-0.009073106;-0.0019924054;0.03213517;0.016994722;-0.014632916;0.07286461;0.031426385;0.016842593;0.040194;0.03924154;-0.032452453;-0.07618616;-0.04312841;0.01508383;-0.026439533;0.027866326;-0.0027504489;-0.021129647;0.03604964;0.06432597;0.027650246;-0.006268382;0.03921224;0.0174504;0.002241443;0.002896964;-0.03791975;0.023219;-0.0028648234;-0.029501596;0.03908018;0.0072339037;-0.05422329;0.064201035;0.010471475;0.086094536;0.05904929;0.0056790775;0.02060649;0.08034854;0.06739719;0.009136753;-0.016903447;0.028141558;0.02101922;-0.0027717778;0.033523995;0.011874784;0.00287123;-0.040134538;0.024089767;-0.028887285;-0.012006367;0.032600455;-0.010810489;-0.045149058;-0.011881369;-0.020121954;0.002330417;0.040393032;0.0018549882;0.05234485;-0.06468586;0.043290094;0.00610612;-0.005770081;0.08460736;0.013732972;-0.0025995069;-0.015760735;-0.045562893;-0.04872906;-0.05348496;0.0056979028;0.024918262;0.0012018402;-0.044177108;-0.004933579;0.003981981;-0.06017499;0.03518946;-0.020915024;-0.06290784;0.0033762034;0.041940894;-0.01399763;0.008522948;-0.03554184;0.0076127616;-0.056508627;0.011322294;-0.063764915;0.006697157;-0.04995195;-0.072474554;-0.06492348;0.0825906;0.05990668;-0.043955397;0.009294229;-0.06590298;-0.06853068;0.00809414;0.028748427;0.0041067903;0.0674251;0.054417014;0.007025428;-0.023307357;0.053496156;0.030579336;0.006244666;-0.009951012;-0.011900895;-0.020097012;0.0058852304;-0.06989537;-0.03820904;-0.055835977;-0.043057945;-0.023334334;0.0034911686;-0.019124288;0.018832928;-0.026385618;0.049182013;0.040626757;0.030916985;-0.0106694605;-0.015194575;0.013564963;0.058327872;0.0075722197;0.032594666;-0.010141179;0.03423316;-0.038236633;-0.027936162;0.036504436;-0.028325131;-0.07426125;0.010786664;-0.009715221;-0.007896248;0.04907213;0.028782899;0.063625745;0.014517123;-0.038643375;0.044971183
9;-0.00069056626;-0.013073667;0.033137377;-0.029839052;0.028994897;-0.009819217;0.013175073;-0.06581973;-0.016799025;-0.015036176;0.016849184;-0.05106028;-0.008388924;-0.041855305;-0.035467226;0.05421774;0.04246695;0.052220047;0.009203458;0.0025304672;0.055360008;-0.044256028;0.043906208;0.04123213;-0.026208742;0.017769234;0.022824084;-0.07794556;-0.0013935727;-0.056107223;0.030279197;-0.012379018;-0.007865001;0.010193537;0.021404319;0.036427055;-0.02992022;0.038503613;0.0056630527;-0.028638339;-0.06558772;-0.010938013;-0.022383269;-0.0546779;-0.048767142;-0.03490443;0.0074942107;0.035111457;0.005404272;0.02281843;0.037928466;0.024217822;0.013919232;-0.05962339;-0.057091143;-0.016211366;-0.010333743;0.02186007;-0.010936637;0.015459617;0.008305838;-0.04460779;-0.024988994;-0.010427069;-0.05283553;0.030464796;0.050785962;-0.0016672021;0.04558704;-0.049194492;-0.0061350875;0.019034777;-0.0012856348;-0.0761128;-0.04706217;0.0037747554;0.030312411;0.053103037;0.014069894;0.023959491;0.02579133;0.08316597;0.012333462;0.06850312;0.028180236;-0.048923593;-0.0067055025;-0.053459942;-0.036642265;-0.015967153;0.038034566;0.0529672;-0.057426237;0.06298691;0.015073062;-0.01589106;0.0011737822;0.029168418;-0.018028675;0.057606086;-0.032300033;0.060745515;-0.022106517;0.014624105;-0.04541905;0.014477873;-0.035118416;0.056271456;0.061904486;0.02814129;0.02828601;0.037396967;0.021218253;-0.0008723849;-0.041615665;-0.012221559;-0.04238726;0.039169464;0.06371618;0.04680619;0.02074732;-0.012683719;0.02814738;-0.044093303;-0.02997328;-0.011528324;0.01198142;0.053595316;-0.021809611;0.024333615;0.0066516944;0.050805517;-0.03671018;0.021047348;-0.009437596;-0.028537227;0.022867296;-0.045605894;-0.006217324;-0.06361956;-0.04056104;0.034685716;-0.02364707;-0.044951677;0.0005496175;0.0037845166;0.05957649;0.05333753;-0.061167654;0.06708712;0.052301563;-0.021979596;0.061536804;0.032000497;-0.034463707;0.008261305;-0.055135794;0.06401271;-0.014867617;0.0052706064;-0.002743775;-0.025026182;0.027525192;-0.006178579;0.028242331;0.043913446;0.00894997;0.017090283;-0.01814625;-0.050122224;-0.02173456;-0.01020719;-0.009638452;0.008344377;0.03149603;-0.008635991;0.05992706;-0.00014009373;-0.023351219;0.050558325;0.039095156;-0.031585496;-0.0327065;0.07512508;0.026002994;0.047928087;0.05454127;-0.019898808;0.013478725;0.06011627;-0.03924525;-0.01001828;-0.004851447;-0.011703386;-0.04004551;-0.031099154;-0.026733894;-0.041973773;0.051992282;-0.07426898;0.041612048;0.009460955;-0.030030504;0.01795179;0.041734163;-0.019800806;0.035607163;-0.027302232;-0.014089008;0.04015977;0.01632832;-0.028585209;0.059490122;0.06748586;0.025472602;0.019180352;0.016737577;0.02449406;-0.002462633;0.04161277;0.007625661;0.009634926;0.0244744;0.032995682;0.027777808;0.008338647;-0.025415298;-0.02106365;0.0007545134;0.016819494;0.049636737;-0.024482626;-0.02012377;-0.0719785;0.0115817655;-0.01998213;-0.0121133365;-0.005571242;-0.009375271;-0.00054834725;0.015684236;-0.048738252;-0.033605732;-0.028164955;-0.041463267;-0.028378814;-0.021966774;0.008083451;-0.0087086735;0.027906945;-0.06580292;-0.021227228;-0.020561414;-0.010460071;0.030551301;0.019657757;-0.03355584;0.0043434743;-0.02209291;0.012846476;-0.011962604;-0.05165567;0.01211992;0.027113352;0.07151363;0.021736534;-0.008181071;0.060326517;-0.038031608;0.037489336;-0.038324866;0.04427683;0.02381723;0.03810432;0.015527719;0.03977593;-0.011701461;-0.0016296144;0.03497041;0.048240148;0.024022711;0.023303086;0.049963478;0.018313808;-0.077919915;-0.036803316;-0.05025405;-0.026614506;-0.026839213;-0.05851886;-0.06382;-0.02400253;0.017829644;-0.04132093;0.006621685;-0.012668575;-0.015120864;0.03212339;-0.039920438;-0.017788086;0.057950094;-0.028029503;-0.019680372;-0.013286375;0.03278079;-0.02089895;0.02529751;-0.003937979;-0.05531041;0.055008058;0.025967922;-0.021028116;0.052026626;0.03307482;0.019643152;0.051058445;0.042195115;0.03544669;-0.037742637;-0.014035017;-0.05781389;0.029315291;-0.025039967;0.0018493705;-0.034100294;0.0062790792;-0.047327377;0.0097483145;0.011774135;-0.055018563;0.023676505;-0.054956567;-0.009880839;-0.033754934;-0.026268464;0.009002063;0.032372545;-0.06576839;-0.0037287755;0.021150503;-0.013595954;-0.009711044;-0.045849945;-0.014513404;0.061754625;0.054778975;0.033109404;0.013170234;0.06964175;0.03447796;-0.010483201;0.038938135;-0.017484672;0.02815762;0.017755387;0.015691753;0.03769512;-0.0070864623;0.006221821;-0.026385631;0.047086146;-0.015423219;-0.014377914;0.04491039;-0.033207152;0.04291367;0.049361274;0.04541941;0.027473683;0.053550027;-0.06083721;0.05412536;0.048885975;-0.011334194;0.026908033;0.006576538;-0.06017408;-0.009885182;0.045195177;-0.033871703;0.014583052;-0.046206906;-0.038269866;-0.02920703;-0.043784395;-0.061938822;-0.01298634;0.049730472;-0.03983758;-0.05524187;-0.028033879;0.018053832;-0.004132473;0.0034616808;0.0078266105;0.05632031;0.06273605;0.05958006;0.036717355;0.037918516;-0.017302256;0.027854864;0.047753092;0.018970918;0.015383745;0.01899548;0.071855724;0.015853243;0.042759426;0.03498054;0.04593258;-0.05479886;-0.021420898;-0.020863665;0.02249955;0.032774307;0.013785162;0.07783983;0.060943604;0.05606421;0.051497806;-0.05554858;0.020378437;-0.045898147;-0.040783055;0.08742565;-0.013309321;0.02888887;0.0031175874;-0.03452125;0.061310023;-0.051537525;0.014961594;0.009936555;0.028753297;-0.07433242;-0.04761415;-0.038169578;-0.049371146;0.013632047;-0.019872077;-0.014550771;0.036797404;-0.042871278;0.007814468;0.017009698;0.018586598;0.042781956;0.032536566;0.007553319;-0.006357321;0.052353956;0.058141086;0.04075119;0.024720725;0.025169775;-0.042777766;0.033633936;0.010123341;0.059075054;0.07139555;-0.018785061;-0.0382721;0.055197682;0.021464322;0.0512166;0.02193081;0.02480223;0.0048731347;0.007972785;0.03380776;0.03665156;-0.06640598;-0.04160883;0.05731592;0.016955558;0.033674963;0.014510688;-0.039185416;-0.0400858;-0.019876795;-0.018823141;-0.040480565;-0.016710784;0.03969613;0.022105105;-0.03935472;-0.04007672;0.0065375534;-0.03386404;-0.055754907;-0.008875516;0.016529998;-0.05288626;-0.04540563;-0.01290775;-0.0061809025;-0.008801427;-0.031154187;-0.05207474;0.06238186;0.021621007;-0.048919097;-0.014706984;-0.00626229;-0.029818552;-0.021407655;0.009148778;-0.040456604;0.07553508;0.032055177;-0.05722276;0.0059607257;0.03553476;0.013289746;-0.019651817;-0.0120264925;-0.05080098;-0.051725443;-0.04905672;-0.002460153;-0.051816843;-0.04008189;-0.04123607;-0.04485042;0.019856656;-0.017315317;-0.06789292;-0.072195426;-0.055085283;-0.047903184;0.051500082;0.031703085;0.00872681;-0.03212394;0.042143874;0.044140693;-0.015660949;0.017557353;-0.036021348;-0.039718654;0.03463747;-0.061481167;-0.033723652;0.024309289;0.019634267;0.033791956;0.013237762;0.010234487;0.020093616;0.025402457;0.0407288;0.005557509;-0.008208563;0.06710034;0.03188076;-0.029758435;0.014565135;-0.0497454;-0.014542027;0.0038207239;0.078302674;-0.05702063;0.013953216;0.06607133;-0.07059078;0.02111331;0.06394264;0.038471643;-0.033442583;0.034472443;-0.043351866;-0.05320466;0.041863147;-0.04889875;0.053928614;0.06188328
10;-0.0013243698;-0.050193213;-0.0016955686;-0.003305808;0.022335038;-0.05241421;-0.06571272;-0.0067102103;-0.027681524;-0.03844792;0.06393329;0.020447206;0.033767767;0.012825702;-0.052150376;-0.051835198;-0.0488686;-0.035319746;0.008829415;0.007872517;0.019930584;0.022130724;0.0006336167;0.012090336;0.043159585;0.007643186;-0.061582506;-0.022877222;0.017225148;-0.06263027;-0.00058049813;-0.055333808;-0.014393536;-0.005894444;0.042004008;-0.0067651332;-0.00010984933;-0.08613065;-0.027055588;-0.04169538;-0.04807449;-0.049426384;0.06794037;-0.03216478;0.028812578;-0.017525686;0.0006075265;-0.03328738;0.001084982;-0.013727106;-0.039501566;0.023744727;0.011649953;-0.011291729;-0.06261823;-0.00978498;0.015330439;0.002461596;0.017252455;0.04416644;0.046420015;0.013011375;-0.030368708;0.0020196817;0.012076817;-0.023839882;0.021380687;-0.0047670417;-0.011386247;-0.012764962;0.015209795;-0.014570817;-0.014058397;0.030820208;0.040914457;0.04761193;-0.013384502;-0.00038121478;0.0006982827;0.006015458;-6.2905165e-06;0.020174645;0.017315898;-0.02612759;0.032250416;0.047386277;-0.014943286;-0.019170703;0.00747677;0.05386385;-0.0057887738;0.056953464;-0.040942736;0.038391057;0.04491521;-0.032452554;0.027253857;-0.0083964355;0.01588674;-0.037578486;-0.009134686;0.004102519;-0.009757894;0.034041353;-0.020506866;0.054710977;0.007045272;0.037671395;-0.014563129;0.022993915;0.011299165;-0.023216566;-0.07396043;-0.06486873;-0.0015150433;0.06939378;0.04913159;0.0032705525;0.031320237;-0.06820064;0.022155102;-0.014896135;-0.027592834;0.051994205;-0.064460374;0.0059779994;0.011485203;-0.014098006;-0.005084921;0.027019156;-0.012805;0.04418468;0.051747806;-0.059713222;-0.0020420772;0.04859652;-0.011104433;0.06587674;0.049084757;-0.0029480942;0.033592753;0.069452465;0.083578765;0.034640588;0.048876084;0.052556287;-0.0054877335;0.06598694;-0.012930395;0.04440262;-0.007982661;0.0061741346;-0.05114487;-0.047413804;-0.059172742;-0.037115574;-0.0039199553;0.019855019;-0.023540052;-0.034203764;-0.02612312;-0.019094206;-0.031855185;0.045446754;-0.027215732;0.016908856;-0.013878043;0.041820064;0.0012068329;0.039822716;-0.049482152;-0.0070370245;0.02755131;-0.0783249;-0.051956777;-0.014876263;0.070406;-0.0152540095;0.056996834;0.006732415;0.017718239;0.019444093;0.07362116;0.027537225;0.02311299;-0.022314835;0.01213774;0.017966637;0.055481363;-0.014764269;0.05525254;-0.01581448;0.016422905;-0.017618744;0.02278533;0.03859101;0.023023117;0.027378948;-0.014693864;0.041163772;-0.04212165;-0.019875322;-0.028409472;-0.017251115;-0.022905936;0.0367854;-0.030839244;0.072156094;0.033022765;-0.045813017;0.041943494;0.03434291;0.032610606;-0.02364487;0.03459913;0.048449356;0.010235822;-0.05175944;-0.06355959;-0.0046761003;0.000772995;-0.02617497;0.020993602;0.025288317;-0.009802406;0.049404025;0.057454657;0.04360581;0.028204773;0.022991609;0.04244047;-0.013836589;-0.0038238838;-0.062317014;-0.007252294;-0.07530883;-0.065985136;-0.06896702;-0.0108967;-0.0024175006;-0.03895175;-0.049126763;-0.047158226;-0.06966815;-0.015436044;0.023157451;-0.06317899;-0.038815923;0.035728574;-0.013465116;-0.01811479;0.06936385;-0.056509178;-0.017392693;-0.030850872;0.06609264;-0.058524065;-0.0033122876;0.037689075;-0.04242268;-0.059521757;0.04512746;0.039384425;-0.05845045;-0.027364383;0.0004335969;-0.048233666;-0.03697072;0.010295331;-0.0517967;-0.05441945;-0.017618774;0.021083144;0.027249038;0.04011292;0.048447542;0.04826328;0.040978067;-0.008862303;0.011589919;-0.01953597;-0.027219221;-0.03526644;0.07391596;0.041997347;0.030243311;0.061760653;-0.0025551303;0.036386624;0.053130403;0.0066226576;-0.027080016;-0.04432552;0.00054136355;0.040119067;0.009608487;0.02088705;-0.03483864;-0.0025110948;-0.037907556;-0.008088607;-0.014068896;0.03719368;0.028655278;-0.06069452;-0.048288167;-0.055728246;0.07369691;0.0106331045;0.011010811;0.04474911;0.046222787;0.039156772;-0.058401566;-0.042553805;-0.023454865;0.025589766;0.030570773;0.0019710867;-0.05852371;0.0036527258;0.011664348;-0.022060875;0.030407544;-0.0127056725;-0.072119005;0.03506046;0.050755624;-0.034945443;0.012994696;-0.0027203923;-0.029151918;-0.005235413;-0.054286342;0.007965005;0.047313303;0.06257684;-0.04803654;0.033190798;0.01670309;-0.018280422;0.063478686;-0.032371033;0.0006183896;0.045590222;0.029231945;-0.031274002;0.050969087;0.03146067;0.015970713;-0.0003080183;0.03281265;-0.01678472;0.027607191;0.006313645;0.06116357;0.010926349;-0.0027176281;-0.016475227;-0.017503092;-0.042984605;0.017208412;0.007414236;-0.029633276;0.016389156;0.008970065;0.054859612;0.0072929184;-0.0064442344;-0.051125094;-0.032816;-0.01769695;0.027714528;0.027824098;-0.044018097;-0.018107332;0.017044589;0.025078496;0.027468048;-0.031301353;0.02019632;0.04092725;-0.05166722;-0.0050318176;-0.027515024;0.021469321;-0.019945916;-0.03914165;0.041939687;0.051546257;0.06842969;-0.0058279317;0.0005789031;-0.029484008;-0.021945477;0.002908452;-0.021843169;-0.014589793;-0.095955476;-0.051903248;-0.052327532;0.04401479;0.037025355;0.06726985;-0.0034265218;-0.026909107;-0.06289392;-0.015007237;0.061788667;0.0006096191;-0.042166524;0.010873643;-0.001715554;0.03257286;-0.049702834;-0.041170813;-0.012085102;-0.030719848;-0.012982477;0.07110965;0.038449746;-0.0058438554;0.0376264;0.05747284;-0.016216759;0.0010727013;-0.04210895;-0.03992979;0.019433005;0.03973563;0.0061529237;0.022253094;0.04862885;-0.0066188583;-0.04752415;0.010769051;0.016938673;0.016053198;-0.044364158;-0.019439576;-0.05379708;-0.03012393;-0.03563024;-0.046335205;0.052697565;0.018842053;-0.007791694;0.033525288;-0.009510505;0.029919205;-0.06227235;0.03922233;-0.020855775;-0.05155585;0.026157102;-0.049014717;-0.062273353;-0.043699015;-0.0040692156;-0.035938147;0.054158527;0.054504104;0.051343128;-0.035913445;-0.06807873;-0.008623303;0.040697847;-0.00012983354;0.044338115;-0.009692036;-0.0054953895;0.009313216;-0.006249231;-0.0661459;0.032254126;0.046871763;-0.048833948;0.04311077;0.04668023;-0.034964554;-0.013255483;-0.034634646;-0.034885697;0.026604598;0.057599567;0.043690242;-0.0031762857;0.03295717;-2.6847607e-05;0.007160725;-0.03232039;0.020129751;0.015024423;-0.01847032;0.015507252;0.017977452;-0.015597253;0.044100206;0.05608548;0.04649158;0.036860734;0.09452279;-0.058965586;-0.056793474;-0.03775302;0.012521136;-0.021726824;0.031435158;0.045971226;-0.039876573;-0.0071703834;-0.020646634;-0.030122489;-0.053269483;0.015340783;-0.015334152;0.013083395;-0.01872249;-0.04813363;-0.034398675;0.01369373;-0.07039192;0.021541975;0.034806605;0.030318044;0.04526684;0.06212993;0.01937275;0.030233031;-0.03806335;-0.03585196;-0.009702343;0.008522541;0.037551578;-0.06988395;-0.003003273;0.015935801;-0.03461961;-0.026251294;-0.0821917;-0.036595948;0.05896062;-0.04467222;-0.021260457;-0.06724958;-0.052902617;0.043537013;0.02945076;-0.008448077;0.052202918;-0.03903459;0.038689323;0.052143473;-0.027519464;0.036482565;0.05556918;-0.043228447;0.05299091;0.01866828;-0.0026357863;-0.018252261;0.034195907;0.060443595;0.031704962;-0.027120389;0.088828154;0.019805405;0.072771035;-0.031243425;0.060875755;0.05709928;0.025693772;-0.032270383;-0.039668873;0.019579478;-0.0035598027;0.01878576
11;-1.7175675e-05;0.043400507;0.082559004;-0.031604383;0.08100987;-0.057614394;0.019186083;0.023097439;-0.054391883;-0.02629923;0.04146547;0.060957666;0.04228839;0.06318962;0.039715715;0.055061817;0.034420412;0.024192434;-0.037896298;-0.030894026;-0.034360155;-0.05591585;-0.02649545;-0.033433463;-0.012128852;0.025111409;0.022923153;0.066556804;0.014914692;-0.0004046897;-0.023781482;0.019934021;0.016000498;0.041699786;0.03427403;-0.01675797;0.019298498;0.0018851812;-0.006660378;0.05811054;0.0058447807;0.028786192;-0.03759087;-0.027782515;-0.0003585716;0.04322542;-0.014335331;0.032322355;-0.025987813;-0.054750852;-0.07121759;0.042281657;-0.04763873;0.021146644;-0.017049031;0.0572492;-0.02921502;-0.025416577;-0.012432187;0.007473472;-0.023428995;-0.020359864;-0.076292284;-0.032335702;-0.0024699685;0.019603243;0.053538125;-0.048282523;0.036021303;-0.004297505;-0.049552415;0.0021091627;-0.050074324;-0.03208945;0.028476408;0.0012014663;-0.03271325;-0.0041136276;-0.026735429;-0.07946009;-0.06747018;-0.021498466;-0.012930032;-0.049563047;-0.018571915;-0.02073185;-0.049799267;0.00349853;-0.0014238592;-0.010857664;-0.002491428;0.043243807;0.031775836;0.008392095;-0.01094431;-0.03177966;-0.014015118;0.05463465;-0.05186551;0.014678503;0.044667758;0.004133874;-0.03913545;0.010793363;-0.059520926;0.030216528;0.019655759;0.039388966;-0.029136317;-0.018672237;-0.01981007;0.059754573;-0.045895528;0.029767014;0.006441888;0.02477327;-0.03488095;0.057830982;-0.0057867225;0.033640943;0.03925685;0.006828032;-0.045065325;0.04191524;0.0005302514;-0.013805966;-0.012761392;-0.05724657;-0.049240943;-0.016052566;-0.044945017;0.014832632;0.0109597845;-0.059739187;-0.06281584;-0.023031581;-0.044692278;0.014247775;0.011432011;0.03478892;-0.025459131;0.009772691;-0.049071006;-0.08102047;-0.017358746;0.014676886;-0.009622;0.018335959;-0.0154866;-0.025789136;-0.042203035;0.021693382;0.036791064;0.024682084;0.057640094;-0.027930073;-0.015020158;-0.04367149;-0.02620146;0.042570464;0.026442762;-0.07197205;0.026497139;0.060667917;0.034089822;0.02179418;-0.00905754;0.028757917;0.018217383;0.04962859;0.016915668;0.028918076;-0.008107618;0.07115598;-0.013429488;-0.013592667;0.056359477;0.059399363;-0.0068498617;0.026414815;0.006002624;-0.009129249;-0.04287136;-0.046370104;-0.0033005262;-0.003582671;-0.06865383;-0.025376806;-0.07492869;-0.07213231;-0.061220028;0.022099782;0.042096764;-0.014788978;-0.037819464;-0.00276896;-0.0329554;0.019171717;0.0151245445;0.017201915;-0.05788448;0.006910761;0.043654222;-0.027825467;-0.03273433;0.04179573;7.461145e-05;-0.021269053;0.014452676;-0.05353098;-0.022320772;0.017627997;-0.03350152;-0.02446408;0.029603098;0.04041894;0.017181005;-0.008947652;0.00886018;-0.04311628;-0.033348262;-0.070477046;0.026080327;0.0030387451;0.015452381;-0.0053455615;0.015095465;0.009762717;-0.029474134;-0.060243137;-0.01659798;-0.03862616;-0.011255448;-0.006824537;-0.015825175;-0.018606601;0.030711174;0.018531028;0.06087646;0.04327752;0.022744698;0.021676326;-0.0075819734;-0.008266894;-0.0047645415;0.044379234;-0.023524059;-0.031583518;0.020521255;-0.011121728;-0.023751954;-0.013768304;-0.009951529;-0.031842206;-0.07303759;-0.011066371;-0.06371911;-0.0119078485;-0.008914825;0.035499066;-0.014669218;-0.016085979;0.0165332;-0.022211319;-0.09120842;0.002399445;-0.060278416;-0.052002136;0.02969807;-0.012573967;-0.0025351096;-0.05589234;-0.0015145764;0.030424112;0.011465603;-0.062929705;0.06016141;-0.052685704;-0.0036096503;0.015232905;-0.03830869;0.024229674;0.04331907;-0.01384715;0.0022304219;-0.018288944;0.039268807;-0.030629048;-0.0067989533;0.053785607;0.043633584;0.03202089;0.0682517;-0.05156347;-0.0017277952;-0.03230789;-0.015793128;-0.03583243;-0.023147365;-0.065242685;0.009116572;0.034799755;-0.047044337;0.023882644;0.029224392;-0.018539803;0.019936778;0.014179521;-0.022571692;-0.043209203;-0.03215174;-0.029985072;-0.04392315;-0.076675005;0.041575152;2.8447706e-05;0.024316572;-0.058300827;0.060266;-0.014093718;0.04633616;0.05053793;0.049024962;-0.031166911;0.008795029;-0.020734878;0.007360752;-0.009100453;0.05437326;-0.040932424;0.036083054;-0.030358084;0.016836774;0.023681425;0.007231225;-0.08409518;-0.062370032;-0.05261251;0.017492976;-0.032175645;-0.026981639;-0.079120256;-0.054561187;-0.045340106;0.053780735;-0.0055984436;0.028734637;-0.052443415;-0.008110916;0.019505508;-0.051622875;0.054022647;-0.019541068;-0.047657125;-0.047424287;-0.020726552;-0.04941265;0.013034693;-0.03239388;-0.017325643;-0.052819908;-0.02109295;-0.007661151;0.0035899181;-0.04412855;0.03710554;0.0037045549;-0.0356671;0.0049763205;-0.028856372;-0.05850914;0.0075579435;0.048391197;0.044433296;0.00579857;-0.010810309;-0.05200906;0.021096611;0.009408038;0.01934577;0.022098862;0.06893073;0.0018071412;-0.02254619;0.023746692;-0.055630412;-0.008142239;0.029376427;0.017519979;-0.06942886;0.015556742;-0.036628824;-0.06701838;-0.088247575;-0.02325729;-0.028617501;-0.04965211;0.047925014;0.029133677;-0.03907516;0.0628161;-0.04537396;-0.03438139;-0.005493139;0.009242951;0.01700775;-0.029844409;0.04686422;0.03481158;-0.04378641;-0.05170834;-0.0029761896;0.019447641;0.042331513;2.2008484e-05;-0.05012246;0.044487324;-0.053855415;0.039156314;-0.05195921;-0.0669656;0.015477855;0.0025025294;0.0023558808;-0.070585996;0.014079596;-0.036498334;-0.018030627;-0.024446128;-0.005847938;0.07217306;0.05636316;0.033928245;0.034125034;-0.019758381;0.024958597;-0.0143677825;-0.007922379;-0.04939714;-0.045515414;-0.031886417;-0.005013205;-0.0036321715;-0.04598309;-0.05461738;-0.06441051;-0.0038021822;-0.035992898;-0.03493059;0.012152612;-0.005631705;-0.006889293;-0.06514144;-0.0065561444;0.02555834;-0.03210706;0.033514373;-0.009095675;-0.07277681;-0.058436226;0.011997444;0.017454337;0.026796691;-0.028873742;-0.029688092;-0.034198575;-0.010385125;0.04600695;0.027388418;0.06529898;0.0085246675;0.062031187;-0.039525613;0.021672297;0.04938655;0.03456671;-0.043583542;-0.060541436;-0.04993217;0.001862855;-0.008493558;-0.055659488;-0.029803585;-0.044741694;0.00878598;-0.01903503;-0.0559304;0.012630029;-0.063948706;-0.0359243;0.052095372;0.0067538223;0.044266824;0.0102237305;-0.01379189;-0.019133668;0.0011990042;0.028764764;0.050710656;0.029421555;0.033652525;-0.01296825;-0.064269;-0.035136823;0.007629407;-0.00091466453;0.01810008;0.036166504;0.005093802;-0.003964218;0.035398293;0.017553631;0.036266293;-0.042713143;0.0609243;0.011117627;0.034213446;-0.016261106;0.004053825;-0.045531932;-0.0025930866;0.0073449397;-0.029598776;-0.009487676;0.07278282;0.035549864;0.01681611;0.007386549;0.02117704;0.026506728;0.03659355;-0.018562596;-0.027420895;0.04407164;-0.0026176618;0.01935324;-0.045992464;0.06781762;0.055129062;0.03330105;-0.017982733;0.059407387;0.033914715;0.06341297;0.05083938;0.015492454;0.0025688412;-0.033862043;-0.022629552;-0.08639374;-0.038435467;-0.018092426;-0.04188499;-0.038496617;-0.037075546;-0.08230992;-0.024295138;-0.04869677;0.00029201698;-0.07574705;0.0056692814;-0.025817253;-0.024936343;-0.0532941;-0.028795494;0.018761078;-0.050699685;-0.019129863;0.005461677;-0.05568011;-0.0304888;-0.07504142;-0.056120504;-0.055127747;0.016976671;0.024564546;-0.045917522
12;0.00019220656;-0.0166342;-0.01725369;-0.017964095;-0.011743298;0.006516644;0.031577036;-0.0010615371;0.060525388;-0.03073838;0.01656656;0.03974716;0.035408698;-0.046479657;0.034166873;0.0047642067;0.062844045;0.0033432979;0.084033206;0.0067371116;-0.017853519;-0.046379544;-0.026510647;-0.0366459;0.002235217;0.029176645;0.05377121;-0.011528588;0.021455817;0.00033640154;0.06471133;-0.07534941;-0.06791663;-0.030462004;0.04755707;0.03834049;0.013154674;0.04659546;-0.042518392;-0.020929115;0.0037198768;-0.054034263;0.015427652;-0.052328452;0.009111483;-0.058175165;0.023110101;0.08146366;0.00421554;0.029069101;-0.0062551927;-0.05725627;-0.020328984;-0.023974722;0.058869414;0.03781668;0.05090656;0.036230434;0.00023658978;-0.033425942;-0.065122314;-0.015496435;-0.039584305;-0.05978083;0.026411561;0.014694096;0.04951301;0.035876356;0.0046701645;0.07208864;0.035109308;-0.054571845;-0.034730516;-0.058516793;-0.016282525;-0.03982647;-0.06304779;-0.028894968;0.045822505;-0.05163222;-0.02417968;-0.041702844;0.04749434;-0.020880701;0.07051637;0.04784394;-0.02049634;-0.04483888;0.035610244;-0.025481202;0.0065504964;0.043026663;-8.270699e-05;0.04469267;-0.036429085;-0.015211668;0.03952902;-0.048275378;-0.036042396;0.01683166;0.03440424;-0.00014852252;0.020857656;0.05409706;0.0510046;-0.0070201643;0.022531983;0.025326658;0.08025016;-0.03516567;-0.011455574;0.031147303;-0.03172122;0.007901356;0.0051382114;-0.055946205;0.03134639;-0.006315717;-0.020283747;0.04201656;0.014604322;-0.06603598;-0.09408052;-0.036076333;0.008309239;0.020464944;-0.003017606;0.011146966;-0.041870948;-0.020540686;0.023274975;-0.048843317;-0.027928473;-0.025090868;0.027807185;-0.049501754;-0.021688666;0.030308265;-0.026084065;0.004240598;-0.012508341;-0.0033878968;-0.034163132;-0.06330706;-0.059586614;-0.04620532;-0.041893385;-0.07303419;0.0164629;0.016339269;-0.018401671;0.00531467;-0.04393996;0.012025893;0.02418175;0.03831858;0.014465375;0.054615494;0.0064656236;-0.023667432;-0.00433074;-0.042504616;-0.06442181;0.003751319;-0.04413371;-0.012803234;0.014725268;0.00020234962;-0.029962448;-0.028488632;0.06425043;0.050564814;-0.014644867;-0.0620702;0.038603522;0.06871905;-0.030624947;-0.0067551094;0.043540444;0.066363074;0.007137698;-0.043781824;-0.0291517;0.025704473;-0.045971226;-0.040791634;-0.025289029;-0.05844741;-0.027455436;0.03938282;-0.009731023;-0.026575621;-0.016348526;0.024275092;-0.011113865;-0.043792736;0.05317411;0.04155334;-0.06814916;-0.049118448;0.041370768;0.03978926;-0.004085543;0.03761328;-0.06237956;-0.03174303;0.03762262;0.04188641;-0.006935244;-0.0018804681;0.026643146;-0.022675127;0.009857159;-0.048187144;0.015168438;0.008440151;-0.017129708;0.059074394;0.0074674464;-0.019240512;-0.022822192;0.046972524;0.059005894;-0.007823434;0.012016144;-0.01771061;0.017231802;-0.038182303;0.05257772;0.017806068;0.04898691;0.036036458;0.038389258;-0.008993871;-0.0068163574;-0.019062452;0.027627679;0.012887446;0.012270663;-0.021621801;0.019668872;-0.06326359;-0.024567287;-0.014023786;-0.017684745;-0.052505504;0.09041372;-0.05132996;-0.04543268;0.026992328;0.0051459065;0.007843767;-0.04001503;-0.01869066;0.03387453;-0.04088172;-0.019630255;-0.00383217;0.026267407;-0.020119289;-0.019342113;-0.008776431;0.011105537;0.021307139;-0.08753573;0.014954857;-0.028002704;-0.07132255;0.007689513;0.037106574;-0.01592643;0.013303282;0.00768037;-0.021172836;0.014717753;0.018993892;0.031787403;0.004694995;0.022234878;-0.06879613;0.00063482905;-0.040374376;-0.063983;0.0030317388;-0.017935516;0.0035788785;0.021417042;-0.031711638;0.0007676243;0.05796024;-0.0057257935;0.07619225;0.026343454;-0.025878139;0.0085605765;0.012867836;-0.004741908;-0.017406084;-0.059007782;-0.07566033;-0.013812054;-0.06172657;0.035375733;-0.0698959;-0.044799633;-0.07593082;-0.013710401;0.0003081366;0.0100664785;-0.02597973;-0.015084585;0.09374626;0.051918827;-0.021697924;0.022805247;-0.031537235;0.0010030711;0.035131756;0.041569665;-0.06344372;-0.016973425;-0.032961372;0.05245442;-0.027510006;-0.056308832;-0.00331635;0.00034721626;-0.062550716;-0.007856642;0.0235818;-0.051657777;-0.03205574;-0.020037951;-0.0074197296;-0.034876343;0.021098044;0.048455127;-0.07085263;-0.038005374;-0.0054085776;0.008533653;0.021494921;-0.07842679;0.032578334;-0.050346475;-0.006712448;0.0128976805;0.039113447;-0.012992242;-0.017869048;-0.021693293;-0.015361443;-0.011238955;0.011982116;-0.03851774;-0.012193591;-0.040091746;0.0031505558;0.0222615;0.019230708;-0.05411471;0.039167468;-0.017571514;-0.042892132;0.01605751;-0.0034481322;0.072548494;0.039411455;-0.0049750814;0.05812815;0.012144605;-0.03969297;0.012093219;-0.062274963;0.040687002;-0.064030945;0.011074676;-0.048904162;0.049122527;0.03321078;0.025436437;0.014770884;-0.03549847;-0.012934176;-0.04155237;0.038442414;0.0012694482;-0.004705989;-0.024947586;-0.06687549;-0.039780866;0.05476071;0.03444824;-0.07120166;0.027158601;-0.008073139;-0.04808243;-0.060372014;-0.008040451;0.018360283;0.009700373;-0.0630346;0.030849764;-0.051820662;0.012402125;0.019750267;0.008204726;-0.019929366;-0.029121311;0.0487302;-0.013370633;-0.045515377;0.051099673;0.0056459806;0.03420249;0.045488413;-0.012652424;0.045245912;-0.03710767;-0.0576285;0.036814194;0.04460775;-0.05046641;0.04751037;-0.021161398;-0.037612244;-0.043100245;-0.04087941;-0.011369499;-0.034141947;-0.028479889;0.0006460441;0.011101811;-0.03307598;0.047638733;0.0031083287;0.01565855;0.033417374;0.056183964;-0.052258614;-0.030169217;-0.013854207;0.023443298;0.030581154;0.016558515;-0.054444335;0.007341754;0.029760836;-0.06871812;-0.017812729;-0.006665667;0.047543462;0.03605396;-0.006196072;-0.01712775;-0.035542227;-0.018471537;0.015120538;-0.008899294;-0.06551255;0.0060653654;0.010733311;-0.016658448;-0.046307083;-0.028563824;-0.048885185;0.014269362;-0.04378625;-0.0011105323;0.049093887;0.05775901;0.058165994;0.017060565;-0.054498382;-0.03853402;0.0026089703;0.032137576;0.020917235;0.028757153;0.031487565;0.058226567;0.017922778;-0.03452047;-0.047029506;-0.053503692;0.006499159;-0.051510163;-0.015886763;0.029929023;0.031372137;0.0006642011;-0.058696624;0.0070924885;0.0052050063;0.04323103;-0.014995152;-0.013114869;0.056389395;-0.028497227;0.03067986;-0.0030780947;-0.0372438;-0.016529396;-0.02993161;-0.017287128;-0.0095212655;-0.039182022;-0.04925547;0.022019632;-0.044544727;0.008326446;-0.021320023;-0.040863976;-0.033205356;0.0063914782;0.05603479;-0.034633316;0.03219407;-0.0031574902;-0.068226725;0.008634253;0.039601654;-0.04392108;0.03290931;0.0015846151;0.03930509;-0.03817919;-0.027535506;-0.047372505;0.024492843;-0.010291507;-0.040437147;0.06261805;0.036103252;0.042489886;0.0716202;0.05012103;0.021214126;0.048074186;-0.024169246;0.03314218;0.0469783;0.016969042;0.087594815;-0.010533995;0.011730641;0.05914886;0.027876427;0.05024548;0.030845795;0.038598668;-0.016636932;-0.074989505;-0.033435155;0.04871755;0.0015992911;-0.060683515;-0.017358523;0.021012936;0.0076653482;0.02247832;0.044635177;-0.05313061;0.010102355;-0.044437412;-0.08808014;-0.0075065917;-0.00019084371;-0.023887405;0.038961016;0.024714194;0.0004099775;-0.040835965;0.047779698;-0.047671128;-0.029356463;-0.023716377
